-3.920596313217777
-0.002219171817172307
-1.1861405145417472
0.848750043974296
0.8273406189528697
1.4612064060796515
0.9784768917318555
0.8338979207010536
-3.241292237346022
-0.09895833596293431
1.6060186743447522
1.4717886164433351
-1.6685678344275428
-0.8724386648021595
0.4392108155762742
-2.5434873729885727
-1.8681737099270508
-0.273532070384207
-1.0437458251970095
1.020747827684476
-2.0069767099875992
-1.3684019495054085
-2.0051242049136024
0.1093889614387315
1.4050925378597714
-0.4127097106696417
-2.8187273957429846
0.7683781046794181
-1.5791777020036428
-0.7768041122788147
-0.8155491352518425
0.352596832556614
0.007134628129621396
-3.0251624341675227
1.6972428594969067
-1.7046939544910102
1.2248350631887803
1.2410515112168594
2.3874717326034776
0.35554581047187117
1.2189456309936542
-1.7431416098365564
-0.68152875302064
-2.130658937247245
-0.05900289205128971
-3.6023344528192216
-0.8886591214243876
0.5252997154348538
-0.19641556412890065
-1.694926434395706
-2.025279619409633
-0.017414571453564443
-0.8889557441299591
-2.0971430506360487
-1.2031980534025273
0.9376826267617218
3.388509357727921
-3.46397891140484
0.11445565282665142
-2.514134990992684
-2.9679394507908996
1.2062178739041955
1.1064938549813041
2.0895990752391527e-05
-0.5006736293805847
-2.7196402470891976
-2.4497615743355654
-0.20237662457277067
-1.3038033134814444
-2.698980697700228
0.6517727054963606
-3.090063682361299
-1.7433081372048487
1.1999693301482484
-0.7885649667490787
0.6598107634227339
-1.126079870685613
-0.022223067133684927
1.4375931951453942
-0.7628987220795223
-0.8148203741004437
-1.8688552120856115
-1.548752854911887
-0.3523938986470605
-0.43747931918523275
-1.0584895216747516
-2.412796624506277
-3.4935497817685963
1.8990434265543277
1.0498263554766134
-0.8282709061736137
0.805870644516103
-1.8771173016885718
1.0776715996779307
0.001431595295862599
-1.024412441005929
-1.6487091889961563
-0.9036732260876836
0.4904338647395241
-2.100985157398221
-1.7905560044095776
0.7876139440935385
1.2661532432482148
-0.9663985335229309
-1.6760284923395823
-0.9815142168026818
-3.8896463343581655
-2.8064504300953304
-1.2067226232091683
1.0082588897711824
0.8100559478620563
-1.1276856508303208
1.4201585970899597
1.0108876662479254
-1.1547621660525118
-1.0964450066988294
0.8488855266236619
0.3845051986915721
-2.328420046342397
-3.027009901352149
2.0721856760870154
-0.790214013472889
-0.040468018243521836
1.7015513670331084
2.188451155424774
-0.005085452331340235
-0.9156602008447937
1.3040753707312343
1.573208759266167
-0.9517528476060798
2.4683665476492735
0.48665877740895236
1.088835759334706
-4.044113163214017
-3.569038756421454
1.457852069144944
-1.7017754837257353
0.7539425991910319
-1.3027928590708657
-0.39111334616773213
0.7855232386679949
-1.4357957468058162
-0.7466826595034842
-3.6335592376489716
-1.237472447973417
-0.6361176330104805
-2.6606380140681813
-0.39794039216000715
-2.3719818007798783
-0.29043918633577454
-3.581518421140146
-0.6010650131688637
-1.705247348974712
-0.8177286176828521
-4.040263976491444
-0.7710351388164167
-0.004463678621497671
-1.2498951150202169
0.7501141742460937
2.702672047050864
-4.687232588902706
1.4997869938182287
0.7118047621558495
-2.2734924981047304
-2.1375205941262614
2.693752073622702
0.4788212061571829
-1.8577380896657707
-0.6052201704397204
0.7465484569321371
0.39989026062897287
-0.5705890431522221
0.32636447407029356
-0.5477013939354591
-1.319689978542036
-0.0533068120883201
-0.6635918823359419
-2.1040504062499625
-1.9446563896661826
-2.4377261743434806
-2.9967859293612724
-2.3543246556896387
-0.5060484419009589
-1.7384649803453478
-0.5579828464334723
3.610147974746617
-0.7891315170204019
0.0030300945601168788
-0.9880863843574227
-4.602510624472506
-0.19644472542744737
0.45622765226188117
-2.898373827485396
4.340710597597177
-0.08305298389237466
1.6955463465193574
-1.0296480515300346
0.23203219166019814
-1.666023507048338
0.1285911676159263
0.374924628051992
-0.6228610904174426
0.29099564664635275
-2.4685077152806207
-0.3060832080441605
-2.246512592849925
-1.7301680166177917
-0.15839017509566278
-1.3174283346255236
-2.2757185032956486
1.6509111330747288
-3.3075577474912787
0.23733353725274778
1.129672084368521
-1.2724909806932614
-2.853394054348988
-1.2817271141072677
0.6544111244214055
0.0018967229996958192
-1.0535233554296437
-2.133095198056118
1.4683263647413458
0.9208532953873364
0.4710023387277397
1.3762229129100527
-3.5819285527918296
-0.8759594055803523
-0.013973556597172934
-4.297917419455465
-1.689908175658443
-1.9739139782917718
1.3949358574980044
-0.5105971643674032
2.3734840010449485
0.7088903355075852
-0.42990648348715205
-2.0783188393837553
-1.1556725010712614
-0.15815427909536156
-2.51512337158745
-1.2568455496427255
1.2552445965467103
0.3613969783841835
-4.439903598783299
0.7546617867056797
-1.6075433626428253
0.5436295853294477
0.2862829792091256
-3.017662118794822
-0.008576258800422395
-0.5713455494167936
0.5662012725288305
-1.8200698436892233
-0.5194897767468453
-2.056732837239019
-1.3248683172902893
-0.08638745489517688
-2.1573175630199573
-0.8210529786124597
0.5944952553704302
-0.8799808996938551
1.6236408552960202
-0.6421110028804613
-2.9072206574736423
-2.9316001290314047
1.015359069332416
-0.5120505276196365
2.64385934191158
1.0170361284103997
-0.6883924118825374
-1.2056838483122958
-1.2633173141395866
1.5353708502369092
-3.546887251926464
-0.1987993762456419
0.6889923694503227
-0.8301934152509554
0.7621814582729242
-2.586601048794627
-5.0057223185752795
-0.008969344627532532
-0.8131941123048178
1.156361736463913
-2.086964119015896
-0.06883993573569731
1.2650424887275336
-2.9128518472366807
0.6325303363482985
0.892658522420724
-0.9833169612420941
-1.7525149708683851
-1.5634741601033904
0.6823981038374431
0.18926483366624375
-2.311843616502029
2.946529823521324
-2.180031626905578
-0.25542987585762156
1.2753237957964287
-1.8528637137676711
-1.9724264588124756
-2.6107578133675995
-2.4820433301493385
1.562992215652722
-1.0472182637289895
0.032894076117118885
-1.8740884773597553
-1.3656374294618827
-1.7780784804843177
0.9609400999041575
-0.0020331576716707983
0.0026963779314980313
-0.6748772689509195
-3.433607370446961
1.4541118686080636
-1.0841830578767186
2.1179212179914813
-0.3500037402812261
0.05745322559461023
-2.3552842653895776
-1.235980860035229
2.4877942593513804
-1.541511392838322
-2.521745745568208
-0.2480582765346411
-2.268646507288404
-2.352984402122295
0.723334369378636
-1.1695102257818863
-2.47856433571445
-1.8202064883314648
-1.0746851019716543
0.5657327834059461
0.3489200417297808
2.8353935508108217
-0.1571837536138712
-0.1558264525884624
0.5346861059771398
-1.6349342040076797
0.4013144155311751
-2.3190275387057793
0.8176112493393295
-0.0007373287773825635
-1.0249300372777808
0.631339055722926
2.297053557170474
-2.724408925644
-2.9847581538191985
-0.11812752401750437
0.690118268577062
-2.964123876594459
-0.8270122069786825
0.9304121255405752
-2.026357871801757
-0.4065063037733129
0.5232138781357145
-3.413636246231784
-0.5873328346636114
-1.090332753674299
-0.9258855633560857
3.310588612333767
-2.0661537327104336
-0.7678170281612526
-2.1656481477092004
-2.4743266010758482
-2.1316525162713913
0.812476388708882
0.20819312987315242
-0.17127294849966462
-1.9332999958373667
0.09608840424124446
-1.252040154110169
0.5743399113356064
-0.0024158006583100836
-0.5688541903270863
-3.839037079683283
-2.7650019188518447
1.0480331801304568
-2.0803525289039
-0.5862662030450476
-3.0424277656376892
0.977541739212826
1.020838305711597
-2.483906403855783
-1.2097018963726585
0.6613086320259125
-0.009633412001449768
0.1710111038632671
-4.871781052500074
-0.892197229310582
-1.3635476053308389
0.5599715165860918
1.3024837627922234
-1.933035350423766
0.7281313707501266
-1.038670783403468
-0.9168189480925365
0.6383844778334584
0.22131089831918707
0.042070917774992646
-1.1435584732263575
-0.9929216521371926
2.7566728348345433
1.6028780362908204
0.0013205780459164315
-1.1266517778142398
-3.7255921327974173
1.8993026172649097
-2.6149575244092493
-1.6314256826719713
0.4335152922481603
0.7372395471327092
0.9413915007449963
1.119795945104818
-3.187733734084261
-1.8471736042429363
0.464479080662948
0.37750344331655705
-0.9747627356737214
-3.1493965102469086
0.3437138873746069
-0.9773187626009847
-0.9485042928897869
1.1531089702962107
-0.981100098205369
1.009489117155736
-1.357108606472042
2.3240871509293206
-0.2102862775662711
-1.8701369521502846
-0.11602076133211058
-1.8101444382290757
-0.7658357414683733
-1.9202023930299763
0.4194701941762175
-0.007734437520916935
-1.5251869379352008
-1.852441558289468
-2.0291513186229095
0.3101661028703542
-1.7047542515183962
-2.7978436886964677
0.8875638167654979
1.6426016411046112
1.368522110640065
1.0383270224565555
-1.8093616458403243
1.4790805489759744
-0.611239106774621
2.0849999475527317
0.8592686999567829
1.4657909935120932
-0.9202816750399072
-1.6592580042838025
1.0546632579464539
-0.5430949658923921
-1.0006888667750184
-3.554265716162252
-1.227750725797096
-2.8007186922344878
-1.1742148058874586
-3.7821670622238774
-1.730350922991412
-1.8619672600504413
2.3742206946668714
0.6549340231723039
0.005900038513657628
-1.2608986155215118
0.8815587629256694
-4.494562904226171
2.7881082302769906
-2.049662091726963
0.23774204494234463
-1.7496696245463632
-1.7798291581160754
2.051230826905122
0.6713978796675718
-1.5896664936360714
0.3111943410000638
-1.9499648962289478
1.1866085303891678
-0.40455472345257437
0.9493665481464525
-1.413642601944251
-1.3075126515166013
-1.4951831789461072
-0.7572178188025985
-2.0478187786298823
-0.10718175364918517
-2.561653147458524
-1.4413584031231856
-2.558390049001655
-0.023404643009445544
-1.6204363060501195
0.03686630169743942
1.3472343026125602
1.5499384785053527
-0.004440298913523686
-0.8378407031910705
-1.9486292463608408
-1.32750478742685
-1.2233397646156037
-2.376604266031809
-2.225819919902211
0.2802836913477008
0.13311251848590366
-1.202164801931641
0.4168308869478505
-1.2620830011975053
0.631542930117353
0.6939754138221638
-3.5276874246824184
0.29280001852360166
-1.8100833530774467
-0.7019302099951983
1.8944876994976436
0.684640507799107
-0.8193376259095885
-0.6264434815859296
2.064292237295133
0.949683859087228
-3.274638492437376
0.8282247544750808
-4.209936164805101
-1.2834840438507018
-1.287382721559475
-1.906953295966457
-1.3890788291215748
0.0006314125094149924
-1.0041926784162252
-0.2705764871974843
2.733503408395397
1.1966288348982606
-3.187520544472893
-1.7260510946498018
1.0701643570923467
-1.3433060149577525
1.1931871673550447
0.29070210049259376
-2.3607266225175625
0.9631399623843014
-3.196670707926275
-2.5067565784066725
0.11787764142937408
-0.08985551634363134
-1.782593612926492
-0.794521640191405
-2.0382907791305485
-0.9871414162850802
3.087960547962294
1.3122852087302261
-0.4358877618733618
0.5186404336708585
-3.0236376061532275
0.25553815119493867
-2.968181250075263
0.400873052826567
2.4416444035959532
0.8297493865607409
0.0011691568759157975
-1.0744584819821894
2.7212123730679685
-2.2193806390891426
-2.4661253152772353
0.7110392228589493
1.1737880016662925
-0.17774055078688117
1.1976791862762186
1.8389387701513984
-0.8645385389047214
-1.758133844126706
0.4370587008789051
0.584477851346276
-2.937772763418161
-0.24774900777717807
0.8250798080076707
-1.2360684283362453
-0.49229739362010283
-1.4820319504123916
-0.8769772509846117
0.919034349999313
-1.6609429099411035
1.532185517474199
-3.14232051035314
-2.989840885078572
-0.7246591853148147
-1.84771963865741
-1.7401835413971551
-2.146887629395451
-2.434001669541197
0.002324768662235679
-0.800506762676024
-0.5234723223097534
-0.476168520653539
-1.6237477772896978
0.8552465602247705
-2.229723022447314
-0.2794078103381196
-1.2344340948724963
-1.7154189976627532
0.8850630735630055
-1.2467048825728853
-0.414603549042244
-1.597014900842138
1.8007476022647506
-1.9259520996332185
-0.28485289243430373
-0.9012816029311242
-3.0198528847164985
1.5193075848686826
-0.771535335491139
0.7479458254103005
-1.3186656380989072
1.3008732280484447
-3.5008827855043094
0.09062940218874721
0.6290952469880147
-1.2159430997619467
-0.9488439251796289
3.095111918270643
0.08963730634152513
0.00408612362692014
-1.082605440822392
-2.952975980268439
1.3870729931727406
-0.8422742790476201
-1.980229606864841
-2.666108137240979
0.6999410233357162
-0.00024391780663672317
-2.9717384369726156
-4.37937469955654
-1.783280785215874
-0.020843791055938806
-1.3280824325407479
0.008518618030853374
2.677446368639852
-2.4058277437757063
-0.39879791466075515
-2.039190689509612
1.6037079101921154
0.576721801960185
-2.2375771824875006
-2.8111568060906644
1.444291570966494
1.7761490139677403
2.0060183689626414
0.7338478623582135
-1.745614690668386
-0.43545958662618467
-1.5488547135582196
1.4537172311277926
-0.006331453718085478
-0.46951286785889923
0.21939961855839282
-0.6173110086072049
0.035738556809894136
2.560266348980893
-2.7915779613975684
-3.289382885914193
-2.7953376366489797
-1.2396551469964587
-3.0632389208910515
-0.8946808761615725
1.525393972518931
-2.6521212650916555
-2.0996114653228695
-1.9825506834473354
-1.4622446192912308
-0.8617678806691144
0.10474344319470924
-2.798900820141935
-1.048901346102046
-1.1364527669582742
-1.2324029267241343
1.9488681536656614
0.03137200623694117
-0.34703777241573763
-0.1569164243172006
-0.8547083114908206
0.9982166656348841
1.1856941284905376
-3.903588260118778
-0.00037370866521307423
-0.34351303433680525
-2.7799935608166493
1.6050980060772728
-0.12294793307121635
-1.461984214729747
1.5652950587930754
-2.2284005547945167
-1.0046842552244817
-0.6120694286136551
0.7078827303751138
-0.7696761396935593
1.0826553603657438
-0.46020450578075855
0.016865168596183967
-0.187966544266985
0.12250361854197415
-0.860976300694472
-0.14817574980649095
2.370344555493954
-1.7554743070742582
0.6444201724782753
-2.3028231516654274
1.6208884433647035
-0.4359038908807872
-0.34854295941694513
-3.929225699557944
-0.7660745842300072
0.4028981766047718
0.2960872770629424
-4.303244765839306
0.004617850693975545
-0.8145155635098891
0.5991921739202364
2.5085403629437497
-1.9371030515885852
0.9407633889669994
0.9049317562886411
0.38229224336862516
-1.7714010369729078
-0.26051522507638464
-3.0512666719795347
-1.4208000212616123
1.1866847323107999
0.21530483550306723
-0.30322245856658236
-2.83233400902505
-0.11188533978690157
-0.7466449356280085
-1.690877167548051
-1.715167445354856
-1.3498463992651497
1.3596476351931084
-2.921808610870413
-1.7178125744241042
-0.033043606031362464
-1.7749997323977846
1.2142321626936554
-1.4401932788279348
-0.11398495590489037
-1.6314387827404238
2.334108733099502
-0.0036268755077628594
-1.0299993226263857
1.195936146036424
-2.292256303921457
-1.4266423583486272
0.9537793666881101
-2.79109397641962
1.6446147052438302
-2.0239488327781685
-1.5407150422288978
-3.65119518658995
-1.6345538536098507
0.6444954070389602
0.17118981426491023
-0.06922479424782121
-2.169039059568729
0.1658206535554322
-1.0358397387835308
-1.2185381582449866
2.9798499885024063
-1.3954408045407733
-0.09415652030952772
-1.8092856094180598
-2.842368736517917
0.7830373228275891
-1.3200747672939912
-0.36486490451439624
-1.6059426353061295
-0.24967031456716143
-0.4980708368263871
-4.093753777850128
0.0022949375726579718
-0.7301455960307303
0.06916559896822165
-2.914062468849261
0.09338817543313888
0.8811065440826659
0.753607101961494
0.251683078783192
-2.1093153768630684
-2.2853854367236948
0.1944097120210947
-1.5047456141027962
-0.09843566231749629
-0.3191951800984418
0.4543901787728929
2.2625471309958676
-0.0026455148107632806
-1.037834633635292
-1.3994039568174539
-1.7474647695343974
-1.0376015484517371
0.6943452783211049
-1.90674000056301
-2.7671333141852523
0.9148707845106259
-2.326874017437241
-0.7620297395845939
-1.4354040124681637
0.47616527968358824
2.669259157451223
-3.4621471987842822
0.0020344071716686413
-1.3372605541398621
0.48979449101725975
2.9156471631917698
-1.345675331399438
0.8007610297124184
1.8274453322431532
-2.829787627489522
0.6434760743243542
-0.7553070448061858
-2.6761719783310363
-2.077387318121693
0.5719609996945121
0.31673298242839176
-2.348208729335903
-1.8456896654911117
-2.5155974582939953
-1.4372871928974789
3.8484568853785968
-0.5916924674492172
2.0650501085661865
2.1744847837774195
-0.8877842959004517
-0.8029805376116156
-1.4512163293734706
0.06530698995577647
-2.636979219168777
-2.0140157351669936
-0.8060181041402834
-1.514752724875489
1.0117398009064962
0.0080394571230468
-1.6219278953406753
-2.0176970248663553
1.8793253593598522
-2.467127422437842
-0.4494440938176676
0.9275857635058786
-1.6354770504808964
1.2674569832470486
-1.230096237932211
-0.7942051910294511
-1.6244933279076201
-1.0218077124265663
-1.701649160671341
1.5865512750251984
-1.9802941670226346
-0.3855151960922958
2.570170935904671
2.7587020208156727
-0.5706321459970447
-2.846582349503782
-2.317755641273861
-4.099535325445788
-0.581782895114946
-0.7871497772444851
0.1356321395002994
2.196183737705622
-1.593345839379228
-2.0505462451466716
-1.0028368378027983
1.6657780984106851
-0.00919051975644923
-1.3566793359567755
-1.050955949705992
-0.22818904125376907
-0.5502663779417374
-1.095145731301026
-1.998928985380082
-1.0490726474537175
-4.548077863573413
-2.025450234766319
1.2763969168523244
-1.2500244580650086
-2.3617195772226545
-1.5775564585570965
1.4515780121809163
-0.7616343463439242
-0.9057373880442513
0.6269881319005876
2.0332656820948016
-1.417145517250622
-2.3451094074384597
-2.397508452325494
1.4379370704737773
-1.427333413363294
0.19647725273346497
-0.1908554035880819
-2.1825789803514795
-1.2372513331554296
2.415903359050271
-0.5644195402080638
-0.17875418119027447
0.0017610539065420119
-1.0403147809740332
-2.04285400441074
-3.316415586997848
2.0847849162605168
1.1723015908881758
-1.9465116468182122
-2.7654630327085394
2.021931272699216
-2.1655888207547123
-0.18583266576514224
-0.8301795940903828
-1.4192923148440635
-1.639260169089123
0.4057491268882577
0.998735666764359
-0.8274231344164519
-0.6736528218968739
-2.691265312447521
-1.1412376407297875
-2.529025014739096
2.7739037451139033
-0.0425831433828877
-0.9298737182671636
0.9783955934369069
0.12185468324042205
-2.5673944488280886
-0.6834053914695847
-1.4581614749771712
-0.789543635832146
-2.229381325367473
-0.0037904702434495173
-1.0700840981838573
1.0188976781132575
-0.2665293958607041
1.8203614054277617
0.05965746353630451
2.7135094909301776
-2.6373420200477007
-3.9708499589278143
-2.288263652866124
0.0023659790338002454
-1.7595691906023059
-1.4854880915279618
-2.028792575879539
1.7687273072255059
-1.766346917373836
-1.3373573072272606
-0.7744040998944745
-0.02137439779304038
-0.664196833277602
3.2602420443994995
-1.8633703327128814
0.9471229141309404
-1.2094317813666815
-0.6976437676262596
0.24430097796233635
1.1617175494994474
-1.7279236018083097
-0.8448075142109692
-0.8090638831817603
-0.7982476756242547
-0.004170718335390482
-1.1260909093025262
-0.47163569537296296
-1.3616734765846417
0.9875662396449322
2.2778231983812116
1.295932158836323
2.018032214540884
-0.895749191351735
0.8433528056140204
1.6642404882722515
-1.1460984952770232
-2.178669953896949
0.2252526725600887
1.1065719292365177
-3.52834188921883
0.6942968451990273
-0.3758196492680613
-2.1963639283646503
0.941632191794296
-1.8567939129003133
0.1921268899641944
1.2718192557774934
-1.53665919961628
-3.9389195755574407
-1.8789609823135565
-3.060771150567126
-1.138886772689067
-0.7911388772619442
-1.332995285047754
-4.09461642241482
-0.0012714134439432458
-1.4031245125200098
2.19942158276082
-2.350702141400421
-1.935530138518855
-0.4571800335085138
-2.2752260518777687
-3.406072521058333
-2.124474405872498
-1.7831428032061543
-0.2338829864230155
-1.488774939076887
0.20318949854022703
0.5691829576004052
-2.812144381120908
2.391798458797741
-0.9224088758733558
0.19839816275566285
1.0986610626759628
-1.4284116733538683
2.0988267010355623
-2.43624383175839
1.3181059469595708
-0.20736907714236294
0.06511289859863226
-0.47055219461589154
1.5041550643202142
-1.4752678212195938
0.9185207292534231
-2.0738568978337613
1.264379020713043
0.0013244023234930385
-2.176553857026453
0.6593633207740869
0.9770533059633173
-1.6682898255723628
-0.18308558620869497
-0.5557362697864496
-4.067943784128911
0.9705080321466576
0.47560940631488985
1.2124529610477772
-1.9553126192370953
-2.538976018049329
-1.2718375583331687
1.6018425197368438
-0.9440126280264355
-1.96944758781139
-3.2931974743302486
-2.235386494958979
-0.5723734215306082
-2.2351666860948565
3.063716522268931
-3.318752819823703
-2.243043783615107
0.586230242597419
-2.0702311729501273
1.9471656781300781
-1.8907129167798558
0.6431989280524909
-2.0676428496538417
-3.176193698528635
0.006142408224302778
-0.8773446199756961
-0.9586052344608922
-2.433900160722366
-3.0917207016660297
-1.7586828322884074
-3.0552687922070096
1.2665863479075556
1.3989033997922666
2.814818614334063
-2.075001450408098
-0.7976734989467451
-0.3010330180931537
1.0755875964716601
0.868093498629153
-2.918817723509733
0.7786204445198673
-0.004220204474107994
0.8424119977802721
-3.0558764523194157
-0.9743043822167713
0.3455812383004252
0.14220819247727806
-0.6049723263975055
1.8276191973032252
-2.477435548899128
1.4408294568164275
-0.7842712816259849
-1.3942025828446265
-0.6275945410684438
-2.398456824791763
-0.0004849238414319345
-1.1680459187242165
0.14373904468943935
-1.7261092733699348
-2.4838872829525864
1.2252197359948
-1.9257109551566707
2.0175020233088694
0.3932194357285063
-2.6629902090343274
-2.5129943878730834
-1.5508012574568277
-1.9892722473458917
-0.09367863630112444
-0.6147944219522047
3.47809801824241
-1.8892901812761231
1.1040234603115513
-1.4020758378430245
-1.2523807455545362
1.7004580291371025
1.9883717112345034
0.6698870941088396
-1.9485737301051569
-1.3753381008194665
-0.11304605748975195
-2.132526604441013
-1.5218201311580375
-0.8946414249281134
-0.7001897522453826
2.1071959201283352
-0.0053411953506399355
-1.6702564493686578
-0.2070743113347702
0.8393744957960231
-2.4456167980215024
-2.037109458949047
0.09879029446649104
1.8315072284686755
-2.3337008573484583
-0.6304570906017577
-3.050775966782407
-1.7709990050203364
-1.7254685917226245
-2.553413254138937
2.2858954478318436
-1.7374008378286787
0.8634064503450511
-0.8562675104624958
-1.3880249084911207
-1.7102580924170778
-1.2402803880770394
0.896427205000053
1.8652564281902018
-2.739356608455907
-0.7005982573182714
0.9484086395175646
0.6357521250112861
-1.759282325459361
0.8941507012410627
-0.9063648902346065
-4.004998057339934
-0.004133548019705344
-1.7179251600029515
0.5042275189743904
-1.1213361794038474
-1.097207339222958
-2.9052430273249246
-1.6907439042897847
0.5563043173109443
-0.8818899279178926
1.3184177714456178
2.2920154212907975
-1.6730103618685883
-2.3446719896538277
-1.8381305795734368
0.8079805481717995
1.4369210049556125
0.1442985098399074
-2.1578999301476958
1.948828392947537
0.8271004843139915
-1.4601916707171183
-0.10941560437322466
1.5685825139359006
-1.985150529041643
-2.363401799244456
2.463355743975431
0.2047921064977133
-1.6017620987360188
-1.0416573725823768
-1.0578122972603308
2.6579213031884055
-0.0058274000050254965
-1.3382633481612167
-2.5537877058135203
-1.7560248167946797
1.4834700278949031
-2.2327601659692156
0.37183561925176484
1.205500054929145
0.42398055710631927
0.45401653376145623
-2.6800091365011096
-1.4434694303903297
-1.4418866448442649
0.025708704907033822
-0.06970070101376813
-2.9626063326784005
0.6357986577790036
1.139068761017487
-1.7825754211124234
0.9631257029356135
2.162901236004358
-0.14697948874729544
1.0087355578776718
-1.0681940957788483
-0.37191887592476136
-1.6325696911165977
-1.6953456550434505
-1.415260786973926
-0.5780596416933039
-1.6002916915175842
1.6745237231003676
-0.007553861377134713
-2.0008136464979467
0.5163167863528121
2.347707104988537
1.395404853892032
1.2684647168095167
0.7054816241396115
-3.308201004602646
1.0603731242889964
1.4605007045995833
2.157084596650073
-2.9676179324740204
-3.037128596856627
1.4861951270530485
-2.2295278595068475
1.3164755570205473
-1.782370460440118
-1.830320105731075
-3.1411868412522153
-1.1043634887064244
-0.12082967207744466
0.4241143907099398
-0.39814830076034124
-1.9719732432595063
-1.3994441008046061
-1.2848170463436637
-4.4513138993772765
-2.917734054836965
1.439308128170849
-1.2642902531106177
0.42722762240232015
0.0054739779231634395
-2.476055184668877
-3.9865789795216235
0.7558459081198314
1.4647910053997644
1.162524513289595
3.0187281863703146
-1.577829996022171
2.6966848520033415
-0.07793777404270096
1.587748425753447
-3.533652836343199
-2.547582997058032
-2.2958376026092777
1.7287668276770791
1.2551862254722495
-1.3044157327803039
0.8343246230671609
1.4622746275039535
-0.09843107206757797
0.8981067900603882
-2.8262283197014866
1.1199856905304526
-1.091639213561702
-2.4525422878218883
-0.8610683347286473
-3.2953530347037354
-3.391828215270098
-1.7580982627265307
-0.49018932239668217
1.2115074134418462
0.0018064826854571649
-1.4232153309314144
1.7915378952274377
-1.2504771464571227
-1.9231717594284474
-0.8967837069665572
2.228002062571172
-2.0404741989549366
1.2261090064018776
-1.8046647803738711
-0.3796081849243977
-1.9527504660756143
-2.597691299818889
-1.252732770540806
-1.8201396631796196
2.3765040372245387
-0.9700146430775661
1.6557870069235818
0.6083726045028139
-0.2116124577259167
2.8476146243144442
-2.2027865092712404
-3.2391855146018766
-0.7134536952975322
-1.2701517475041053
-0.6067813764551027
-1.1369086863176079
-1.9416212584254766
0.715252966610223
-0.1718322964518783
-3.8373185284527453
-0.006604111797004066
-1.0970321817937254
-3.055095192046497
3.301923777917259
1.3901624762602809
-0.10147770127782012
-3.0863577202489587
-2.1548062127497443
0.048243463224308517
-2.2533093691938784
1.833147052962854
-1.1107206373651461
0.060155494541395474
0.9649510943940749
-3.2987670520821624
1.0210748826614964
-0.6634053146068192
0.0579396941331605
1.216738900167401
-1.2605369797675152
-0.7576056454106662
-1.4582941688199809
0.24390903143224232
-1.3239713221848808
0.009371732388557683
-0.2641944873163577
-2.325252137982204
-1.0440540832220244
-0.6940281874828625
-1.1371569833265578
0.2188853684014998
-0.0015198950030040816
-1.2426890200184426
0.769815003652475
-2.6217796228735817
-1.1218140213462326
0.022411343320626123
1.0052191931337748
-3.305874369155116
-2.948219767993669
1.769406449538005
-0.5566121359204654
-1.2895287451871755
-2.008811328117213
1.8676592255447833
1.4919084605441622
-0.9564037244404735
1.0307450692059144
1.4845134724655167
-3.304765116098057
-2.158024805847222
-0.4891651268539992
-2.098317221607061
-1.71446808730719
-1.9561549711972257
2.4813624392255225
-0.47480793248865405
-2.641365187800079
-1.2448462982305328
0.08339086428761426
-0.6332628397039168
-3.2417153797439506
-0.008214107442580606
-1.3418950023171912
-0.460558980003221
-3.0166888762320623
-2.662767508241402
0.545369257653742
1.173964555531993
-1.104669442446998
2.0589687356969204
1.2009773383275084
1.8871402076912391
-1.5325142178671942
-2.1947619482370264
-3.5864130777049223
-2.629980188449519
-2.628863661968364
-2.3510928437344445
-0.08484425777992045
-1.215745308145907
-1.2467002707508117
0.23381399503271516
0.865954448988801
1.4558264583389622
-1.3395390403664151
0.27377975897438384
0.8793829862295978
0.28814181798726923
-1.4661607407005242
1.0578492490686482
-0.47899142144022355
-2.037588182097121
-0.009087560451642968
-1.892688623461247
-1.59227225534575
-2.4559423036276473
-2.3839451966220264
-0.4119075031013494
-2.072441617141319
1.9118064972612505
-1.6802611631383841
-2.05900163762512
2.289851274810076
-2.206584472815545
-3.2049025175735926
0.5824358775957426
0.014192508219567398
-3.061531131354454
0.8615369859981663
1.536644121403926
-0.9462446900022432
2.057095188528706
1.7571503096404462
0.26358274537773657
-2.1141277631014246
-1.786813796433764
3.0097860490360535
0.7603159312200146
0.8838276654066869
-2.175297009776019
0.2745177924619376
-0.9555982215288952
1.826180955656325
-0.007703947852694825
-1.7987243353556186
0.02645836637778259
1.8879041643143395
1.0701858154678097
-1.3389886127248536
2.6642107423888546
-0.8558784789431763
0.24504467252883558
-2.1571414388541252
-3.885429677134571
-1.5951267460949923
-2.189380841370417
-0.7774064643714805
-4.030147459164222
1.6260744491430068
-1.0588615023511572
-2.921197774473474
1.436971046530678
-1.1097597560249808
-2.329939688808202
-2.769689825105668
1.0367944770773136
-0.8312150724145568
-0.3707875006300884
1.405834165918864
-0.2610130933412472
-1.5406365528787709
-1.7504886469639993
-1.553035977460501
0.9213098904406084
0.008626716255127667
-1.4387258741234716
1.1679418216089235
-2.715125244691514
2.074442223877506
0.24012056228549442
-2.778404513218483
-2.721792241070182
0.09431332016538004
3.3100010569655525
-2.202828244536171
-1.1206117356433165
-1.8330127780216992
-0.3077946721080135
-2.2089469664824026
-2.684054665274862
-0.19397082633442267
-1.3220898408460424
-0.6272219186127796
-1.6620237960893813
-0.5236994247323498
-1.497747740321198
1.5884498961094835
-1.634169591819116
-0.718778878710902
0.2796541606563375
1.487241754637064
-1.0745320783674854
-0.9302928578281454
-1.9942464242194162
-3.4211835641253088
-0.009026556097021353
-1.3819599265749785
-3.570135289418036
0.8784719727380179
0.1306871967798461
-3.0271057594184203
0.6477074314137049
0.11420043248609874
-0.036150057447075744
1.408292777463338
-3.0853406440481987
-1.4427796451740582
-1.1603734831997705
-1.1688447961380948
1.013253396204113
2.511511698250391
0.7301323388339455
-0.5116905114188414
-0.8643793343732996
-1.3073453756785476
1.6805074576681664
0.5075641924133437
1.112010942841263
-1.1194630994882242
-0.6367540532518706
0.1569255573107733
-2.180049475164488
-1.3999680720912808
0.7458896845742768
-0.887850932146977
-2.3213052099912552
0.008127723089272036
-0.9388301059041088
1.2997190972216126
1.0075634207277098
0.11553484998087542
-2.0805463070005272
0.17965048663193592
1.0979471476287654
0.6931885901581779
0.4159826706247505
-3.5966637508811683
-1.0862867700595007
-1.497971353795995
0.879910660366689
-3.1203420105878332
-3.070073222935546
1.7460978896005976
-1.3256690182422552
-2.4111015672842013
-0.6670044206242145
-2.6495773736473933
-0.6753549699189287
1.6916404164520895
-0.35161914965662966
-0.48179135941971296
1.2349545971683475
-2.989681426086372
-1.0554272437785415
0.8856846476560478
-0.738035135121425
2.584033536046021
0.004578747529139268
-0.8887275473387127
0.4438235290613627
-1.3401134091024571
-3.3612476654275314
0.22578865862504993
-2.035089442320453
1.1335486434765858
0.9213826101261292
-3.764552829180851
-2.554968978458661
-1.2599097639256807
-0.30113938570044213
-0.4126517572736411
-1.9070225528036886
-3.534093127264872
-1.0104493845502356
0.4940873390331126
-0.0008499356690786523
-0.8584772463135237
2.263956523728815
-1.786256071081311
1.2500216549420053
-0.23985480750238342
-0.925803174164133
-0.5247707156507658
1.2871379923832988
-1.2501149434987793
-1.068320012590222
-1.592909032294953
-2.8197162859759324
-0.007982745668359041
-1.3709810070954314
2.0509398619534642
-4.049140869158146
1.984096082939231
-2.8700911896105112
-0.21442466697095586
0.4355970218236627
-0.23688062790975303
-1.0916817463369646
-1.5906428594056665
-1.5219414125234227
-0.40883473432747663
0.53792596417771
1.5566916930848638
-2.208505636010995
-0.7586245879906361
-1.6878026697470003
-0.038851799952254976
-1.5114616312509246
1.8375254599208661
-0.31189997654991497
-2.574405812525574
-2.143117283784486
-0.07763677789668348
1.6743120475128155
-1.6742246458437775
-1.498089196056811
1.6514851779130275
-1.4126110379107852
-0.43094412048467684
-0.009447435231847132
-0.5703308312959969
-0.45881022333001364
-0.35421013203916596
-0.415429508929785
-0.4145033427997678
-0.3877737590389913
-0.4285798290692896
-0.3961373942058899
-0.41704393630489917
-0.46073864937880243
-0.6385499742732647
-0.4518256411247678
-0.49656405382682195
-0.45880916932525156
-0.36831664104601153
-0.32283231698328374
-0.40737181309430814
-0.41428135167093844
-0.3197304938871176
-0.37536116410725473
-0.34582191715215105
-0.38838713555033144
-0.3489580622370353
-0.47449014453323146
-0.5034701753420102
-0.48360967272328415
-0.6607776863716793
-0.44578586103882717
-0.3253588368493939
0.02433163725317852
-0.00873053544396546
0.014672432734171556
0.00030127059944265065
-0.19463984499973014
0.011675380700620295
-0.3914004131945986
-0.41737674068858616
-0.5424465770121588
-0.5688188096532331
0.4101874053749639
0.39145315727526314
0.4407339573117052
0.07315442735397747
-0.15192531924675923
-0.0029750976215060557
0.10104053456872922
0.10534969954372657
-0.058165616125940865
0.030676260789953988
0.036790922469263236
0.1818431828244293
0.13037712034797896
0.15914958951657082
0.3074149286053229
0.09819490413761649
-1.484792195972365
-1.3384893121145918
-0.672098280970493
0.22313601192842106
1.3797393190734837
0.8186387268230371
0.11118534461295713
0.09897989688090461
0.011815139085361824
-0.07559556087851549
0.04266431501357953
0.034544815487301025
0.009704940598629452
0.18094252638203098
0.20409675542004568
0.19657730670497003
0.2906980974734671
0.4093344261348305
-0.0994031708059272
-0.4664186453046758
-0.8544388304344126
-1.9678189368978967
-2.0276257670422417
0.13562687957482575
1.4444456216119186
1.0275577470208743
0.11264994844366188
-0.5196083068196604
-0.14632738976789014
-0.5259038813690199
-0.5404452781975257
-0.21137488717365574
-0.008582158370831375
0.37665906999924614
0.23957898721520648
0.042477099545593255
0.22995623486967273
0.5491675608136571
-0.17452886880068585
-0.6177183465678221
-0.6627888974430812
-1.2727385997803302
-1.279742675439231
0.6272952677789938
1.803184248007406
0.9927966977000864
0.06250840822247371
0.16413267053625052
0.2573003066548081
-0.3908927639149719
-0.7050950827982583
0.12857926568119932
0.18311018947845442
0.5166551062841849
0.29770038821105027
0.018225943171668733
0.10084678075633789
0.2883905477727331
-0.06473694428338246
-0.6331982931110013
-0.4728342592561311
-0.7722593841235839
-1.7254015274237215
0.04488015868149435
0.7056775248120762
0.5718354624307562
0.72765709596436
1.03818169794508
0.0344012506817931
-0.4884171986629272
-0.22282580557905823
0.11293933011675454
0.11959211162288919
0.11495924257900901
0.11506918743771424
0.09362155038321215
0.006364842166551771
-0.01406356912312358
-0.5633039338223017
-1.1039616930084377
-1.528295701208835
-1.0415795126205456
-0.20207890362750808
0.32829734481960127
1.3002511526874396
1.6268066279788185
0.5499128989594948
-0.2954143655947943
-0.8116382588154166
-0.6023736911100898
0.0014040051993422123
-0.2982763616482634
0.21701352404529767
0.16831168263442994
0.1409268637753523
0.06024567949750896
-0.10045564850703076
-0.1464563547794577
-0.4945846829878589
-0.8359937916312082
-1.324899806941962
-1.1917780201310262
-1.1974671714078673
-0.3641077456083674
0.41758551489712287
1.4727015238446648
0.28060551221606683
-1.354114783142238
-0.6555460848612804
-0.3679245492403567
-0.2956436846631967
0.0679336841636931
0.23443818850244807
0.12783987790107315
0.0670409737567546
-0.08492749513591438
-0.149412904977361
-0.2700667783447904
-0.8035524591749029
-0.767918224405651
-0.8289256311761872
-0.7681117175131746
-1.6540340873711328
-1.1412244563036602
-0.08759916523903435
0.1739620299775569
0.5163751102394812
0.549965357142068
0.5761272083818166
-0.07428094630663633
-0.5726387666633824
0.046195075248042554
0.09653524048390322
0.008776579845111683
-0.05182469097304607
-0.060294329347875035
-0.24402556027926042
-0.40691393216208366
-0.7961330911665834
-0.1858888546033699
-0.6504005194263891
-0.9660980885989563
-1.7201167668182906
-1.0890906467112773
0.21956209027620904
-0.35906461290425234
0.7124916579388706
0.16321649278047615
-0.06381832561716597
-0.1375400972372525
-0.11444039510962084
0.04302936868521754
0.12138478755265655
-0.10227359242285293
-0.06797996961726319
-0.05248648642404519
-0.2490195543554363
-0.31177135936845674
-0.67182736865781
-0.2037661008390298
-0.4590929975540805
-0.43622938411246753
-1.0918617373433768
-0.04906382544609159
0.8734266717252425
1.7464491129917583
1.6313617853294817
0.5294352296726651
0.2975179270429037
0.7537206948694242
-0.025309413404305613
-0.110572448043203
0.11232785204730805
-0.11988767922074935
-0.06294179689670225
-0.04639173232842049
-0.24209009080123414
-0.34797260491107324
-0.1875467090524114
-0.4910166227044662
-0.8104239944439026
-0.6849472395635662
-0.4654379040481608
1.2903831420337457
2.1533048384556785
2.1685204865931484
1.2860877434050257
0.19388997897353596
-0.3167502430805428
0.5293152370419791
-0.12795464107928753
-0.17326269866043514
-0.07593244994568973
-0.1302173221577035
-0.08055171229832594
-0.07320478917134246
-0.2453518136537092
-0.4269966824884363
-0.21854391084401426
0.1975332394192531
-0.32554938705082237
-0.15908651648746958
-0.08642995862462863
0.8078874553605434
0.4596064720719522
0.41314915200329955
0.7658684898809238
0.42313459642391754
-0.35211210496636186
0.16828501621639005
-0.7040225209203931
-0.1890926040877568
-0.15201788354411921
-0.13098235680494322
-0.06885894195509479
-0.06757876087968026
-0.24650842904402684
-0.41620890009501765
-0.23316644063571845
0.17445346918741766
0.23439020357262058
0.8125093687274095
0.2982035198031661
0.2566702029467995
-0.282570098501269
-0.6421644076285534
0.6537736629921198
-0.5492408082848349
0.1631262510049721
0.09117591315730784
-0.2857943408381349
-0.33853221343294454
-0.03134092819122101
-0.14094287100200123
-0.072664542045482
-0.09249426724684318
-0.2231066145079996
-0.24407655598793224
-0.4364452842171426
-0.41149525070724413
0.8229038968696356
0.5795990405847146
0.0512248511893523
0.5579986280793291
-1.1635076467767498
-1.1548215259926558
0.6140065241541159
0.25889500680522454
-0.19611136566525983
0.2363394241161377
0.10420670649765551
-0.47449106004427405
-0.08818098265959223
-0.14605187992286509
-0.09035699874704789
-0.10619258337989643
-0.17439504078575327
0.2908877583327526
0.40405977786116876
0.15931258469043064
1.2668195650592473
0.06295831849930221
0.042685521245254265
0.12440312282485479
0.15901696939033572
-0.3600316641550031
0.7423186722130205
1.0027705205579307
0.8820451803322836
0.5623362283633997
0.5506065718209194
0.2849446422115065
-0.22933387469137428
-0.09331248861456658
-0.09428511856354083
-0.034451897739885315
-0.1637754618603592
-0.052526626186921145
0.08236192221641725
0.002814437801492424
-0.942718150050254
-0.2506814466867005
0.1950744276998173
-0.49709834578488776
-0.6255443966039017
0.15522020353590338
0.5828627759928179
1.0125685606263166
0.6306916347751903
0.5566248183539487
-0.06804068576024981
0.3970161385632363
-0.00933711851743937
0.1457486615930836
-0.02304723774113179
-0.004382510398778569
0.3871525901038761
0.45265873700766046
0.17034586021824671
-0.3068409496610197
-0.09958356353805226
0.6574857010964816
-0.015472781366869652
-0.19700196356441288
-0.5214902765805456
-0.3586307144147488
0.04618538487631003
1.1287628125789637
2.0974432615119207
1.0787390009308027
0.08436236557399437
0.6102322877908795
0.4867399244768006
0.17056142506731123
0.014813362007640194
-0.005233611620373496
0.08926940338575028
0.23614008582741725
-0.13627014415898858
-0.2173839555992502
-0.13449118286538062
0.5448898207118548
-0.23164161352004703
-0.3519271911380833
-0.37433827731395614
-0.25654475211782907
-0.5930282327960025
1.3149278227416223
1.9426808978920171
1.255200787803669
0.03366687118200921
0.12577158131920557
0.14102339127398755
0.15548105789693098
0.07304062015008808
-0.011551835126801413
0.010415532610300931
0.19646468811350576
-0.04899379849751689
-0.18350622991626048
-0.3282978130746021
-0.4688028340591525
-0.6168837467424534
-0.8761998719042399
-0.7649935283330528
-0.25741280591255605
-0.27833159686855374
1.2830030633018634
1.5311362178538632
0.771620413832386
-0.038309808507100154
-0.06293987198470256
0.09376805902121929
-0.10279933261669887
0.018127423310429765
0.017267985050527828
0.0045041430575778075
0.14797443907061847
0.026304379331362832
-0.13061156987402123
-0.37652560335605184
-0.5026340894906136
-0.3182639528171472
-0.27412751992474116
0.17865363773194473
0.626860343874221
0.8779842480993999
1.405530395638699
1.8499928381658992
0.8400265637252176
0.026139042759542992
-0.08480346855850787
-0.0015764484852959218
-0.09285627014794663
-0.05214499740714616
0.059430898071429
0.0006943269590940753
0.049860732630269
0.02274159470740936
-0.036810804815667834
-0.003994051444409273
-0.04987207275804813
0.007998513527770028
0.11356368544068003
0.1499423794208865
0.16259550545993764
0.054905793612698935
-0.1834942190661589
-0.04480052896987412
-0.11480680390355513
-0.1420375325310109
-0.05440819034481525
-0.062256854143526795
0.011796889057366727
0.027036570466862666
0.048358922502235085
-0.033789463167493344
-0.12264770976467802
-0.017904389471353144
0.039827914544562616
0.027663872915325603
-0.11896688057003843
0.2650595866690339
0.26255111203846704
0.3558133885140166
0.35679029518140315
0.253530899986653
-0.09227907448974765
-0.24201660653869653
-0.3066080063966365
-0.3496943884221575
-0.29843211284818094
-0.2235196115848917
-0.10538020440315386
-0.0931224872916022
-0.004285415612529067
-0.030744484536230618
-0.08540411603566324
0.04895954657936644
-0.024156338135708593
-0.13302643504795572
-0.13319458929429578
0.19788497002107128
0.39149294180238986
0.4294369914134634
0.37967121004901266
0.2900928201731904
0.2021860016191513
0.1997457806529293
-0.3559711879387376
-0.2268056183028652
-0.09036924976775583
-0.10851095122851127
-0.11951741429200786
-0.06861620555514851
-0.030398309141060495
0.0021785587674007264
-0.03527985538766266
0.060874732883769565
-0.08741218776053981
-0.038591209436717545
0.000911606476049654
0.09882880448018926
0.26029210858950735
0.104089716495847
0.041106931676524454
0.2823015803922245
0.484318661473344
0.43315217069988265
0.14407018928781562
-0.1895197255379917
-0.015679829573050672
0.05751978049650948
-0.0983883980613575
-0.06043238920465243
-0.003340764465471439
0.0301982000844598
-0.023070268246208548
-0.0048394145260300635
-0.11547595448167994
-0.04311217880736885
0.050083283488176325
0.16832816004439785
0.3148940196668517
0.2849441183775725
0.18621855130464385
0.21598939145184173
0.387498409141566
0.3195335152014239
0.25754323907780435
0.017502687248405573
0.09757894863284182
0.019649827211705214
-0.05001566853621647
-0.047981003293640655
0.008792711987185727
0.05546236909355971
-0.047856387690603575
-0.037337222660825134
-0.15496915247420434
-0.14728300223600718
-0.07065848320077017
0.21071715866389762
0.0797032764297494
0.15326977887348162
-0.09263876236767735
-0.043519854490414775
0.13744191472299114
0.31517581364809266
0.23007548295859243
-0.20601121973033162
0.07546465118642558
0.012051846590070168
-0.04884272971117594
-0.023345798983337204
0.01511697218120342
0.06246605309427961
-0.04442521217812695
-0.044354259018790254
-0.22408298535556284
-0.19460229848385166
-0.0469848483311629
-0.13668360349905642
-0.0605317397612321
-0.15794987055326076
-0.16323188784839487
0.09835869535594155
0.29129638769314725
0.3492015352920035
0.07483001193348723
-0.1543739218145002
-0.055329205476511316
0.05009027772157155
-0.06713518392159738
-0.015319703329970347
0.026229506577016802
0.05489694514137684
-0.02509314045941643
-0.028464833464336346
-0.20412291255194284
0.03724210674733665
-0.09580540974445532
0.037937716768731714
-0.01204049911853442
0.13943003188288186
-0.06338919793720152
0.40837219368263034
0.45733966644394847
0.2971947599018731
-0.2784302647665144
-0.030330570869219576
-0.086936137773816
-0.12026894773165486
-0.07352379653873535
-0.00740582651346947
0.04927595248706754
0.05253103129214359
-0.0004854592785642238
-0.012004503312214254
-0.06466926360199099
0.10394143056691624
-0.006223401949870775
0.10351903396146464
-0.0740392474319762
-0.09037708211554188
0.06092665064348304
0.2864400032297898
0.29285664358261687
0.19192202324876126
-0.36760805846071615
-0.11463014796276909
-0.1801531599944297
-0.08886216203885061
-0.07247665699419711
0.006412659624322925
0.0562604017404115
0.06866623296181235
0.01578785777146512
-0.013589802578920687
-0.04871550310464756
0.18472369617232146
-0.11924725508068972
0.0924454017475857
0.26271262446156096
0.04985734635374963
-0.02171850292625454
0.2515435882941495
0.3791879149163927
0.15318454943090207
0.025245703884739568
-0.04415623919906551
-0.19264811743738924
-0.07314986020673274
-0.07218390294518792
0.013453478261998074
0.06750553727756277
0.06125686851537811
0.020208256282045086
-0.007704283803505601
-0.045656564999479114
0.17388432392448566
0.10809070280784597
0.15266657354550411
0.23665978425228099
0.0034988304886783175
-0.1012447504715554
0.02632885286787344
0.15115825817845657
0.2549673735612586
0.2429279352807356
-0.0002803610801722212
-0.098496407308096
-0.0329250615970068
-0.05385058082247794
0.021656870488765495
0.05880809646783648
0.055582617865715625
0.021197604366039024
-0.003374126659298862
0.017863043320893543
0.13015971885845104
-0.009549661278388745
0.19877979372050517
0.2038881494946392
-0.008635283916950575
-0.13544769547816887
-0.18396364551218167
0.3441811698309063
0.29959605824151436
0.32633059339267895
0.1029859339629147
0.11955821931806494
0.07832241324377812
-0.01532945429283563
0.032572956661169016
0.05922667595089347
0.07060424083107097
0.03756204218915187
-0.0022686709218445256
-0.016756916378945507
0.08843260979866
-0.05671419155189473
0.1034113553903436
0.10484815146071112
0.06583277690709649
-0.031185477067033524
-0.23656121908319838
-0.05802355058125345
0.2143086614225783
0.11130839278557984
-0.04181061395185699
-0.0031242433747573567
0.16754561652059297
-0.006032907422150501
0.04717596616135266
0.054557205751365065
0.07438045821066543
0.04458233891614725
-0.0673783494228322
-0.0827502146373484
-0.05234575793423152
-0.07436898917606706
0.16062078135368782
-0.00011214157012977073
0.1578200294642543
0.12873699423485024
0.06941508930593114
0.009511328621066323
0.1991509996067927
0.12387375779413444
-0.031039044847861748
-0.008065986239895644
0.16542160400620884
0.0404089867772795
0.050792844655184265
0.04803432435049629
0.07041813248242744
0.015614015962283236
0.009966001555889215
-0.0961648915820145
-0.14624351868030838
0.06938167311463858
0.08623240178621681
-0.015360832196490554
0.22906653804747332
0.24416028109298857
0.26082564750377585
-0.02828508866047569
0.19547286569673675
0.1689487802453595
-0.12659607943969906
-0.025006724542696552
0.07312836676850709
0.042542446019141866
0.04136977513229292
0.045035076408141736
0.05647659165469937
0.00863201190658246
0.04250470594399752
-0.1182041954704476
-0.2979294119604603
0.0026315425860068465
-0.008725075367384186
-0.15141942356787713
0.02110669638093374
0.07578833915965569
-0.16426738084242654
0.18635853092752733
0.341016789542794
-0.03304472562992112
0.026927297642446942
-0.06685820856624757
-0.12648968603339214
-0.027584279773263776
0.027092947761156862
0.055919816530019456
0.0608648814498568
0.04257536166164705
0.017657808524515272
-0.014897534556476162
-0.2108550745920686
0.0363077411410185
0.05955844247158083
0.0012416567532055015
0.012095992527250429
0.03495403212325319
0.03479495283952273
0.029454551769105053
0.1824642383236489
0.11482924537058119
0.14557352038002488
-0.02297050813429913
-0.020089096668073833
-0.03709081386001547
0.006987106287479487
0.06146121277268532
0.06410631323600013
0.005531592636609702
0.0524231251289085
0.015758202700830486
-0.08271268754346331
0.03769928093257618
-0.04095630989762955
0.008627031922055313
0.054082042518268425
-0.038047954665017494
-0.014762751039881434
0.0912472381374295
0.23101811527874863
0.09055344973528262
-0.010453712922245666
-0.05175345192426932
-0.09437515730970893
-0.0442505707529967
0.0036935032281889763
0.05733033838172265
0.07257847961413649
0.003343435058675591
0.011315702027032018
-0.00514516585283717
0.034416723532595506
0.10000497002337598
0.012620606752196065
-0.0041524298853187905
-0.027743069877097112
-0.04173983134624868
-0.005262062725948463
0.044056254226639585
0.1637279712309544
0.04121894711795917
0.038482041339302796
-0.09342895311709579
-0.08031815999534092
-0.08999348452417788
-4.4781654890152985e-06
0.05725928611269339
0.0678153934348229
0.05236342851491505
0.05224333276149034
0.05725713686195499
0.0800828639082074
-0.014920586136125567
-0.09368813577377683
-0.13785802849401776
-0.17359862974067922
-0.03908140565028108
-0.016347126194923907
-0.047227087809163716
-0.0047288918389173165
-0.07527649055815298
-0.05881842883931979
-0.03586759679961279
-0.02427355527996601
-0.01561135217486583
0.0539284396910911
0.06951059587745342
-0.15424587621524757
0.003995483693348336
-0.14394913076307733
-0.11323110935064011
-0.2842329432488921
-0.2892007568259709
-0.40622163942966794
-0.5449868707850363
-0.3681287663589554
-0.12509564489844277
-0.4206688254256962
0.2848059620898824
0.26831416199851843
0.4703619051784137
0.3963673553244342
0.13948321254790355
-0.0008873284552359163
-0.028510439835433
0.04794788571834971
-0.13822481142524037
-0.14803357743458015
0.17367450653888653
0.34701198644690273
0.31812089656148573
-0.8382041526747879
-0.9547860342856417
0.14558033455006186
-0.3126046148456522
-0.5492308874863456
-0.8727329865946774
-1.8590860909335105
-0.9764620315894533
-0.8547959386114153
0.2635604346441561
1.1650951425259009
1.0661347289333012
0.10738467479898889
0.5051312473038321
0.3452660753877643
0.20663984837778018
0.02914702243583893
-0.0026946890211898473
0.14293424355025622
-0.29505129895515425
-0.25667925414768084
0.08112914993967901
-0.21674908028050371
-0.033392962806268835
0.3138066611193254
0.5039925663514987
-0.38603121919738453
-0.5236409404168125
0.025993912387327962
0.7566703108449097
0.7302910477334666
1.0706563776679936
0.047381569341241894
-0.040491219873701856
-0.03893975352447402
0.12682339819719446
0.000810210906395177
-0.025168164928204367
0.08968743273889036
0.35335197568070875
-0.08436411126173066
0.44607118794874956
0.3643693327321023
0.47878724533705724
0.17626286597433066
0.3565626099950815
-1.0248643544466094
-0.5255959561826761
-0.26587855377818
-0.39393692870346947
0.18141438828716616
0.6466233444868071
-0.06627175079382291
-0.11787959057107783
0.07514154484987995
0.22716644748668227
0.04724715526699294
-0.05220089745697632
0.02919663529932751
0.44184406226958134
0.04980585723335818
0.5765776335613852
0.49666653140098554
0.34248625903717306
-0.13310346002772974
0.17695437730602054
-0.6017760931086733
0.2843917617793052
-0.45899308098327013
0.03932420627500698
-0.24599252134321956
0.04242787031313872
-0.15980244889117376
-0.11066818747200241
0.49156457882821125
0.22200158887595908
-0.032252315320153824
-0.1721576832945545
0.24307332984179528
0.5448492635720541
0.9922629589047997
-0.12131714423490139
-0.6154296490334352
-0.07696826295892714
0.10626182495573071
0.6838848954474637
-0.021156491201842504
0.12410777730343212
-0.42896342706458024
-0.8497264092271761
0.18182123149465074
-0.09299058295966117
0.03544032671271216
0.14259993260299303
0.5628686791663114
0.09860198086205978
-0.028952697808055924
-0.007807123665233802
0.29249699161098247
0.5529561474479421
0.9263079443407948
-0.11289782612658945
-0.373934797469734
-1.470825182573553
-0.8177761833493842
1.0800479738917568
1.1858080224007415
1.0494218523885714
-0.017267469774606903
-0.49839357778092624
-0.7268101947224775
0.046916816026812844
-0.004252483912148033
0.31270692260894895
0.45603026325394297
0.13135553080909815
0.009174618578316333
-0.007549856405307757
0.28422648850089555
0.5538644494787411
1.059140642010082
0.29037198693025007
-0.15770688673583402
-0.5666895887946319
-0.9900620387321795
0.8080491478040982
0.42652731375642294
-0.646018674970447
-1.0426048675253428
-0.9689547774386376
-1.2918099948720816
-0.21042688199420317
0.7006054499602028
0.9036100665183369
0.37570481891883317
0.08150921566069026
-0.11097943023399279
-0.006148589492140189
0.1859737310746506
0.4888016957809912
1.0447184488348071
0.8202463527623503
0.6961409695344564
0.44720554651383415
0.17873565575823458
-0.0803067159675596
-0.7965585092943217
-0.9532815850625612
-1.1253945523309616
-1.0817590308511162
-1.9055189696101942
0.49707408689927673
0.769541447541994
0.7854142480025698
0.2403879410070252
0.07755450012446753
-0.10625188207992523
-0.005717709383845193
0.16844015277456995
0.3514563514998608
0.9771662844154526
1.1069325019534657
1.377222217105128
1.2407831774721672
-0.4009911095188668
-0.46826699843971487
-0.25621715450598453
-1.244737697681925
-0.4787520425291474
-0.4694675415037847
-0.6518487330938496
-0.23698458193319985
0.7633004934562055
0.6067048028175781
0.26741880407880875
0.044883243423070054
-0.10388140994269027
-0.0018739847804390179
0.170998675722725
0.30146855599156064
0.5947738244090884
0.7179832827289521
1.698629304215611
1.4380488548388983
-1.3007765416138506
-0.4980142867377079
-0.6901348861887742
-1.015048799313795
-0.6941011582701743
-1.4031490423714756
0.5561693865888837
0.3547583750795081
1.285863362228747
0.511374031114027
0.3852244902215874
0.14663315607461402
-0.040387004026550315
-0.0006125911487491159
0.16839988883685317
0.39900191174344646
0.5550500689098538
0.6859000164856639
1.3712229354737528
0.6817564709061228
-0.5844405330818719
-0.1612713954445643
-0.6271392192564146
0.18946386687272218
-0.3611157569833567
0.22589466237318248
1.2869286137478095
1.2572029853118305
0.7744448740225673
0.46839431076419075
0.3968024941104461
0.060555001653354035
-0.028434753769871843
0.001973508409635586
0.1706044197832786
0.33785668450147577
0.5315265207807401
0.49473920468596516
0.6330317866922892
0.14013710517547132
0.06014994097286845
-0.1999745683479413
-0.232243308984128
-0.2251029660052873
0.029020597382098924
1.245219255754314
1.348714316658937
1.0068816854346043
0.4739292124411253
0.33037234866125703
0.20213935723543583
0.05501205074182613
-0.044389370288910816
0.01166274718874353
0.17144207477170623
0.3856916188357764
0.39955378411934367
0.46885309422185256
-0.3843792529374781
0.14437577429713458
-0.055738227935390024
0.8785317128332862
0.5755133628168485
-0.030143931598462122
0.14383533301272142
1.1606179136323136
0.6014220307255651
0.6947075576731565
0.0032150067813503562
0.12905596347236328
0.3216054427405171
0.06567478845983349
-0.044773114054398426
0.0034976831444274623
0.08126630519420648
0.12873259691017955
-0.1162422489128448
-0.5420491228258855
-1.0269764769092504
-1.4263240600090503
-0.45607137006232307
-0.8083204188556392
-0.06176225672069485
-0.6451885217184619
0.07166546432848464
-0.04466031085345555
-0.9121104283831498
0.06306349848764915
-0.14626436027474998
-0.271919885270443
0.25523135117468865
0.04067972028138643
-0.04656417267659494
-0.051188930150057856
0.14603021315010264
0.4578944605256572
0.27722154542910676
-0.08682475907557255
-0.7270512512545888
-1.0645025521425637
-1.4796213814708874
-0.40187808939462444
-0.02472476676199068
0.4574010559356924
1.0686217080171387
0.6585593627146041
-1.086882052781117
-0.29614527178882566
0.3409514667644091
0.5615098260708645
0.2483944027195212
0.04760353340169808
-0.15547855421674917
-0.1911572415618801
-0.2688959906934441
-0.029763123408756597
-0.20548998730270124
-0.3955840789841856
-0.30118322717242035
-0.47499892173905545
-0.3861692824833168
-0.28888505508946666
-0.07614442315605816
-0.052203500911188604
0.6628049373414038
0.9044999803350742
-0.09559875762596773
0.5414716677103928
0.6009599020645456
0.3307052940133457
0.1294614870272727
-0.2117426999514593
-0.20478535749309043
-0.1043962261149759
-0.17694315277373188
-0.29833004247658546
-0.25948539853312375
-0.934630680617271
-0.938054186665015
-1.175133689122617
-0.32425410806078475
-0.004898798563335061
-0.3877468144113582
-0.7302308764796096
0.5749524540988272
0.3237344106459284
0.2552080929979822
-0.14676776609388645
0.2876367578713495
0.08240478345135334
-0.11530700506252142
-0.2207513849528682
-0.1926969587515627
-0.1815156741260743
-0.24842232100237066
-0.33680957772196995
-0.42730374767065177
-1.0734205767069622
-1.3426737084156077
-2.0364909928626185
-0.8330392656497281
-0.36837313347098993
-0.5452543003364068
-0.4660970013280544
-0.121117325536202
-0.5741819916256047
0.34270977737988095
-0.13619712024345024
0.10741733307460592
-0.03013911882156497
-0.19196018792606132
-0.15920729138011194
-0.18502923560473142
-0.1787749103386019
-0.1912974331294032
-0.20895565327109533
-0.19613466371293856
-0.8537026977632002
-1.152784755057774
-1.9003497216172518
-1.5119167137155747
-1.114074008797227
-0.9928524886562974
-1.349825120594432
-0.9088812098718139
-0.23415180338065125
1.8031466989416849
0.5447670266196828
0.06757915122960353
-0.12407596150599737
-0.21039242276285156
-0.14491059291081618
-0.16306806107493246
-0.3056659173728118
-0.002988137789529246
-0.29397602989010024
0.07141910775613276
-0.27185787097787534
-0.46935486278423294
-0.9964160965848474
-1.458651605989001
-0.6819987445812811
0.21723979194279858
0.9703123379193398
1.2319831767346041
0.35360605652373195
0.7121591216957683
0.04832072679730996
-0.20843661762567203
-0.26449209954718206
-0.042345512834894995
0.07234234402044255
-0.19893177680507937
-0.3098361369304008
-0.3058372053679881
-0.2237943816584104
-0.21550401279929698
-0.6293966902870198
-1.5541034369895057
-2.4910304338500477
-2.794348249992374
-0.8551263474848718
-0.13537198709787351
0.7217889560430087
0.9553879281904767
1.7356578506204312
1.2872803483377344
0.44531014877960357
-0.23338471929211066
-1.0248023593000333
-0.04065605569806192
0.2516438171521631
-0.05139917393045634
-0.36098987647095715
-0.30596930418999724
-0.1802366053716656
0.16541559591490906
-0.16599120310457394
-0.7165751672379812
-0.5955862708800321
-0.4568081742348073
0.05724516325864628
-0.09280453536193718
-0.024978037417215083
0.06509520706710335
-0.44977364843687134
1.9004725692340585
1.5945074651936293
1.4899698980929954
0.1388759579213694
0.3978855775946401
0.26819480459120176
-0.13527301642394887
-0.3780132265599514
-0.3285471346014158
-0.21697802713290645
-0.29711373865920426
0.34076849099943074
-0.09428388327303233
-0.47711836671740676
-0.04419356275534804
-0.9866985587501742
-1.0355983512999076
-0.32006318043784265
-0.45219122917632293
1.399071437986533
2.5812262148482463
2.1891036064432714
0.9151137695496091
1.2258638589713218
0.3517927427855531
0.055989450272175556
-0.38974668064157686
-0.49091898092772
-0.332383671596608
-0.22509155530935462
0.017488879746528404
0.3469084728759267
0.30259747265056697
-0.43137347966539896
-0.07103465837333811
-0.27749781244092087
-0.9856852905818392
-0.056724255620670426
-0.5172603734540386
0.5549659584178079
2.085339344377214
1.9203235030726487
1.1085334819915438
0.8277739543730753
0.6230245184802713
-0.08570889064247574
-0.05001125109564458
-0.3159025784314359
-0.3103464449747662
-0.1140972237222716
0.15353729228956253
-0.21124963354426324
0.11214585514658713
-0.1474759142993395
0.4937727142195723
0.24197191514447353
-0.567061369928966
-0.03880692307625029
0.4823579728702051
1.269265185366369
0.24181841907684734
1.1664502555273806
1.9432350199345627
1.471076343525643
0.26412500558697505
0.03679692584950106
0.028904479957415668
-0.28001085587283503
-0.27584240897829987
0.012553303471223397
0.14992222472986338
-0.20502387748471562
0.3139750928024818
0.4710680378220164
-0.40236969504751163
-0.21433806747188255
0.13260332561577712
0.8097327326935991
0.7129572228152854
0.28757698126430553
0.5993294232786729
-0.05756335221154469
1.2160529515361425
1.7610564593229499
0.10761399679801621
0.15293007730395047
-0.030459602859229176
-0.24554802820394786
-0.21223529766831026
0.03742829033890252
0.06798467418128312
-0.13353374917015054
0.417887737158099
0.4093597505637098
0.41898478890147045
-0.5614205777986472
0.3109930650449296
0.9042311971979009
-0.2258270176441233
0.2577567328383156
0.4360309393367614
-0.498516990736023
0.35181621759528525
0.9173194363060809
-0.1289345201866338
0.0014324377885573136
-0.020891223601093894
-0.2881904639336679
-0.21227163354153253
0.058606267264637885
0.11465205073521198
-0.06303014525684582
0.09852933230879074
0.4958397106880487
0.4854441325667535
-0.3098438566453832
-0.7596895254999344
-0.41195000881627714
0.2862012111472457
0.22545747094812785
-0.08932221862689627
0.1720226167301437
-0.4612772517756588
0.19215345279563634
0.18914303710610358
0.03001338616701377
-0.06742983856860334
-0.2982356854047744
-0.22523205689078235
0.06907460937862826
0.01620156687098877
-0.058180412463905005
-0.525570118244222
-0.7956376341264939
0.3810022150408399
1.1575316096705588
-0.05602424849166106
0.9648181588597441
0.04088066676754564
-0.6325443418839445
-0.45071146107266263
-1.4478439319898757
-0.754596333944328
0.1897797881710108
0.5005615703674622
-0.015977381869610226
-0.09609143100760242
-0.28835000856630305
-0.21539910594350858
0.07553025359047712
0.00726952063681212
0.000872527145281282
-0.6712259967463731
-0.8127120122440391
0.08551007375455083
-0.4812061155845235
0.153645830165254
0.37287948256297965
0.366463034022192
-1.4585948163533269
-0.8406811761896957
-0.4444866734232285
0.30936451360415396
0.0022178366081478636
0.6065232404880476
0.05452114006704016
-0.08399246057301074
-0.26290997691402146
-0.19238149533309548
0.08356721240932015
0.06507597630431022
-0.0089467284269765
-0.4701333314837163
-1.1810143023056823
-1.665289305216923
-1.9219519804800906
-0.7698955881591252
0.7307723973453074
0.976242464327711
0.2092762212729274
-0.06821621702577085
-0.21281966333517696
-0.02897487314533914
0.06315302776586994
0.5197245977089574
0.09509503711720635
-0.0006393472796180543
-0.26679721617613444
-0.19538782183870243
0.07607877166157724
0.09413255455168106
-0.15586522030480757
-0.2819281113103122
-0.10079066926526754
-0.704320296502105
-0.6109459420214529
0.382759037489594
0.42541315833318705
-0.4479990561405732
-1.5116005710350415
-1.5903609332368855
0.07986045666872772
0.07223774147373511
-0.05844997393632507
0.3250316167444435
0.2877465190762839
-0.004180594629484548
-0.23220591617776193
-0.24862057869024914
0.11917318413336765
0.08620435381539353
0.04690193294421258
-0.1275828335598216
0.09493731794703224
-0.5337451784122135
-0.554591546004988
0.4786848182079712
1.5726869634994254
-0.3122783308173572
-1.6184324141153783
-1.0883246989494775
-0.5809873406681292
-0.5059232754478822
-0.0991324750173723
0.0071146807458017
0.33506169262394764
0.09347467787541477
-0.24540389611031796
-0.2096622643109107
0.027797175862889385
0.25015889381657547
-0.16326855618044328
-0.3115023277219978
0.07626542860838684
-0.3742127552799798
-0.6972524501061131
0.5704716085348581
1.4353003810705864
1.02639821016121
-0.16401466100256856
-1.367538818190816
-1.156984055967237
-0.6992985321748569
-0.7992024690842779
-0.26542481483165115
0.1767588226389897
0.16646689562435166
-0.21570138034093092
-0.18237191354991988
-0.07913802822030054
0.04706023618479863
-0.03769340841694122
-0.25016189476918654
-1.1536325689019813
-0.4995705152555264
0.24175645699007461
0.32396152360759495
1.0871727086415763
1.6125807556191378
0.5450096814079629
-0.8963340391068428
-0.9125948677318162
-0.5551845926145241
-0.7488390661311201
-0.4597115650607932
0.07646154440777209
0.0682137833596512
-0.21734943791607472
-0.34557857963232425
-0.19372281638881583
0.10951060491250884
-0.1535217442433833
-0.5152533622716344
-0.30188991898539885
-0.1491727734217509
0.3044381261898061
-0.27427740210644125
1.3191081167945369
0.8734756082192598
0.6340795281750226
-0.5207678018804452
-0.2989797871004506
-0.25000589701552633
-0.5049028904915894
-0.44690620616131665
0.2643983645002972
-0.17130252725812062
-0.35598515731101227
-0.23150549980964724
-0.11878357440780511
-0.14458995678444614
0.03850588598595819
-0.4707768551069907
0.19945603288451777
0.816931264682358
0.5283623787083586
-0.04092512942833885
0.3749205121178411
0.018008471432842215
-0.06443911926786966
-0.190725128541064
-0.7288615396625496
-0.9320476819490159
-0.3612949140083562
-0.16266365523027013
0.04217416377126671
-0.22637381681379445
-0.28988630588398173
-0.24915111579615287
-0.1359367574321566
-0.27308509560158595
-0.24021889691968001
-0.3721376723150633
-0.23722348293910878
1.3038502805763839
1.1310822899346908
0.5886975738981406
0.4957566142126035
0.4981459046544567
0.47020269802280146
0.3504916610024208
-1.0421060823000707
-0.8735902071373066
-0.5853541255681635
-0.3709417026020131
-0.035854146430455876
-0.1710663198387036
-0.2861583000451267
-0.2915011940094844
-0.3073624446269843
-0.3083288687155093
-0.34353532024382555
-0.27076653188739425
0.31119950656564965
1.38898007386979
1.6799746763956722
1.3080058129681797
1.1563578840997755
1.754359176420739
1.1928286023964139
0.3653348378283098
-2.249136729067133
-1.0021913483681182
-0.32149918945387396
-0.2757352326574644
-0.19906761359839936
-0.197024209478231
-0.2948917964114587
0.002013566631336222
-0.009228993811920836
0.014790193742505738
0.2383433783369021
0.045300511652471516
0.0891702240881588
0.30933696148109335
0.35983185588641686
0.936415433287396
0.38530631585854436
0.5214248576944347
-0.7368065972320665
-1.517443980592061
-0.81803789519907
0.2685201597489742
0.2730125610203863
0.07925666415379999
0.01042456225392001
0.12107195207790573
-0.02882005577441561
0.014262972753774167
-0.08335877711684724
0.2157193093034733
0.09274886528770976
0.0221700440266848
0.633810717061238
0.7910207582135899
1.49046124744766
0.4704707708957155
-0.6667763011992697
-0.4175674502514431
-0.6869569642948263
-1.478051701597174
-0.7782090617846159
0.44266352470446435
0.4754273968664111
1.205080611993991
0.01350472907750772
0.1625811383394536
-0.1369189180888549
-0.01808696280011929
-0.08120412416643132
0.10186706000348059
0.4197152161292436
0.5645936609642002
0.6661457044805571
1.1577249807232404
1.3184198189564882
1.3448772935409432
0.11565713827628668
0.11509168016461101
0.27929806005345464
-0.0312271005230499
-1.055157710888314
-0.47800997592699
-0.3362987231910998
0.08775028841249809
0.4402465881572274
0.12907164799905246
-0.13079408352421243
-0.050304694850354215
-0.016267528837785778
0.008907295447602591
0.4006349655619897
0.1192712910102109
0.7630677182750296
0.8774715116078688
1.1984522354476899
1.2674996039495119
0.616175288945624
-0.19693974476170714
-0.4157334864536733
-1.0510386550381126
-1.4369626287510424
-1.4625014935497458
-1.1343099329573767
-0.45021338897098334
0.2659962715029831
-0.17131182170102394
-0.11331928226123492
-0.057960394973971555
-0.008293148610081097
-0.02575203641311092
0.21025413178546626
-0.04583716215793423
0.3271429663348576
1.0288722789193825
1.0142461511159733
1.6547923694106854
0.8884804110677539
0.32887174243355116
-0.46435378261184057
-0.6893385225450054
-1.5768063157406453
-1.468108880146177
-1.297995509201276
-0.2818208147079175
-0.012687475643144945
-0.4733630262413889
-0.07919856611742859
-0.0718965513802181
0.009285823391855736
-0.043012109408520856
0.060671946445100274
-0.4451336014275188
0.4829570096523788
-0.1258773553600639
0.8768518916189265
0.2384637023022987
0.5318138103307907
1.3764271842012006
0.6690364891636957
-0.41445957513564835
-0.1480454155251895
-1.3436917878774786
-1.5485172961153995
-1.1748430438110016
-0.19339608960980623
-0.5419242487363114
-0.12871171054695474
-0.06358368672510843
0.01173146767090262
-0.09198660209088402
-0.3534385665037838
-0.2672835545674934
0.4120588720258739
0.7429186030574771
0.17667480019191803
0.46492001160014124
0.5082071776886776
1.0763079309625285
-0.07148555834861078
-0.6032009406870539
-0.4386160370844489
-0.36332568627376943
-1.4810816259245538
-1.788853555132324
-0.2633581441811672
-0.5300469884406007
-0.0941783183545774
-0.06719883830561167
0.01141908374044416
-0.05730211003197425
-0.3397492967017396
-0.37407103592811697
-0.2960384560252096
0.38987766011110175
-0.0831622070849371
0.018501015917024417
0.37129913288498845
1.86083127663533
0.4003268087724761
-0.11150489943693621
-1.0621603051253348
-1.2558489253528915
-1.4242845563966429
-1.2047360193247338
-0.20892460580539285
-0.4008796213410513
-0.06742580658094702
-0.04616534454770804
0.008927505373692917
-0.05819374290502787
-0.35239159285007515
-0.5199284169048796
-0.443979789120879
-0.7318643324668487
0.17571924102870112
0.3391692773895016
1.0367722485554944
1.9970179755197905
0.68152742982686
-1.47419559790171
-1.0588344730988022
0.09605077155653177
-0.7390581357523444
-0.3437004750755761
-0.26245532040542496
-0.3957746590700945
-0.011065326779228574
-0.01860303886841365
0.014308310150072931
-0.057116849102987526
-0.2922844253095774
-0.450822300590634
-0.32443537547227574
-1.061526532348506
-0.2111359301378877
-0.7573356432990983
0.5339876434505332
0.4006175072010007
-0.12608511640455997
-0.698934309701719
-0.6628176474356233
-0.6211521689780019
-0.2393689213822359
-0.42018665227886953
-0.34085535733660993
-0.4700395195769533
-0.004795620502270019
0.010455480812555974
0.0026312801001242237
-0.06405818086534726
-0.1011022266951477
-0.39552045697533467
-0.3200707541259515
-1.341091918738162
-0.35875245144357637
0.33575786902372373
0.6231746397577018
-0.549875128432995
-0.5667836495894717
0.7426979002395866
-0.8045938876508919
-0.6447521760780514
0.30046445133528166
-0.8034538755032732
-0.42545564250795986
-0.5682524310029019
-0.012807557281383379
0.00755971871481268
0.01071434485306113
-0.048422910874449256
-0.12308666274090242
-0.45634815005076057
-0.2570432837650421
-0.9858189138330699
-0.8430336147244291
-0.14791302727392855
-0.780931861843508
-0.8684825810605934
0.06103090677889993
1.288304190478509
0.09038689641918382
-0.4991132207006931
-0.24133351491126043
-0.12090985770411963
-0.2834553144936638
-0.5582736722984794
-0.009602991768862503
-0.009584615614903327
0.009101606278038124
-0.04598470086669535
-0.04757889750709012
-0.40088411113844546
0.062076887714708956
0.06938053362145764
-0.8672601417838348
-0.6245172210664329
-1.5785710959905084
-1.1930085305563187
0.14561591159704745
0.7320275349703537
0.31294469647522405
1.284041421524167
-0.3134797045698044
0.26252179818036336
-0.1561015494521623
-0.47580384158963884
-0.013924968229603192
-0.023115991469423527
0.002776727161109216
-0.04211334226073948
0.019526309661659323
-0.39139640200531234
0.048723980541529974
0.17061657306864328
-0.36289290482236086
-0.8693446953858861
-1.154997809765439
-0.6524915873685612
-0.24144071366721084
0.8666370395717681
-0.236075759886168
0.018880154544079843
0.05908387800629964
0.32888177844044864
-0.1054211389988484
-0.3544675703462734
-0.04895331170899741
-0.011648143088487713
0.007789701596831159
0.2926422742698293
0.16384160368344267
-0.2555630121511639
0.24252801592861392
0.31137447613504327
0.5382528047588822
-0.20518535838478
0.31827324056410883
-0.22382580500712673
-0.36645970865823013
0.5087269518394032
0.3379848627577525
0.026567295310928364
-0.5658901762880494
0.057166249823996367
-0.029136719595520586
-0.42430436814029315
-0.04704517968058688
-0.006366937012236742
-0.002995763196783228
0.22445822949658337
0.18388014232183775
-0.29145360335543097
0.24116611926619302
-0.11233439491685825
0.13806957731726308
0.05636343750298408
0.41898536094818084
-0.34492015869893183
0.07378841429495979
0.3267221408321666
0.09443586788762463
-0.5425153727874908
-0.5843476185785412
-0.7838475268112554
-0.11255680682642243
-0.2959611377099546
-0.02528193018124461
-0.018132081119883917
0.00853758449403691
0.08982725993938379
0.12839373046991093
0.1436450416609908
0.5961361579819104
-0.09394904189225639
0.6263539969278893
0.20784934469004096
0.3247910659594019
0.9914432251175846
0.868943084790508
0.03786098648590791
-0.6626265629390776
-0.46850837238348314
-0.9488509462115727
-0.20475235145774112
-0.20522504404164874
-0.4410761914478107
-0.007306605161837385
-0.0018548093313413541
-0.001808984057564208
0.01075503298681852
-0.0023333758541802144
0.0940908140069673
1.2315374443097105
1.0793035346021478
0.7308635795507729
0.3308573493719311
0.8126124026722672
1.5180092683134534
0.31695592469067163
-0.7944713375947653
-0.4149247865729599
-0.039823469171883646
0.21090009938913623
-0.12839820308490707
-0.1430190068890486
-0.28420215822169936
-0.01715567940329033
-0.0094193343345567
0.00916185497653382
-0.02227194851093128
0.05881464296944425
0.1487172425153318
1.081765124828143
1.2838121562290605
1.2882033347651674
0.5434602377621509
1.5898329695349092
1.5650381894547785
0.1493412363496274
-0.516706953130699
0.2205417347352212
-0.02958086125168916
0.5498297419353052
0.24799868301173897
0.021576419110704136
-0.16238416103124442
0.06198329864734369
0.0023204400496058125
0.01766872839095922
-0.019451185103309687
0.058691100822802086
0.10106378916739704
0.4702859814738102
0.7659878753264312
1.9679653563510398
2.198384696046746
2.4799227660287757
1.6154589394690724
1.4179318366769258
1.2838970810466306
1.1219122133395927
-0.8849244835910262
-0.006070150834974825
0.15251697761951344
0.14528760416924516
0.1033121530551878
0.08598539629885824
0.016063061309445438
0.010150079095098224
0.007999597460589388
0.03602787839778738
0.029821064789306385
-0.36999902349284863
-0.4180730235279943
0.4337657886341523
0.5120260760523442
0.7059994609729822
0.7169396636090027
2.186531151806045
0.22344429281837724
-1.798523232271722
-0.12774414034632894
-0.18525665867172927
-0.9197031583812615
-0.6550406439768357
-0.04298542878209395
0.07914818372112066
0.005269534749164772
0.006465030255989738
0.25484430649381445
0.21892421166920328
-0.6810552279462708
-0.9912529118084835
-1.1711977157322915
0.4326205696971856
0.3778753826588468
1.1385745634889657
1.327306328853525
1.661989850033706
-0.7410211597073526
-2.452589277590748
-1.6114439030336407
-2.5744876655441944
-1.1934423740404956
-1.9940989063238441
-1.0197423315784933
-0.2372376998263948
-0.06235648902412549
0.035526914372404655
0.20100689154395518
0.12689841097076407
-0.9147475458565241
-0.9687290084161295
-1.5390795538845556
0.007395827143766185
0.36520461383597
0.6624413461405323
0.6136902884641204
0.6007131512306002
-0.6751837271837504
0.011026279484924188
0.18123884050554506
-0.9682775138652898
0.11891903473166957
-0.605657452314859
-0.5892387183227142
-0.3013760968931606
-0.03907776043874109
0.049920535865254634
0.05536425363237031
0.11779303979834059
-0.3007730658091597
-0.8479872790610172
-1.034746842940911
-0.02367205651854883
0.7207320095022056
0.8062779631922471
1.2315981920031132
0.1714667065546925
-0.4085965312669795
-0.10224371807336934
-0.6785385941711745
0.42346597366697597
0.2149053315781747
-0.09430665452706985
-0.5115238891550878
-0.3086073970171407
0.11926730812575374
0.02365145709739765
0.057879113865838716
0.21162915322604692
0.42073533366527605
-0.25939120574118996
-0.11262630264084433
-0.07906714048238633
0.20309485284751316
0.4633465371628934
0.8313192697527452
-0.6402219126258404
0.13600086752961527
-0.38936180278915916
-0.3938475432538371
0.04395549514341141
0.82613457846077
0.05272711245386113
-0.3997423112654325
0.6113993222458023
0.338492252267591
0.06100786925816075
-0.02379992146435998
0.38622473593226775
0.7193705144567769
0.8238099426546991
0.44840139263824275
0.6081827024777517
0.8158125716089355
-0.5429650339110956
-0.35397044777939934
-0.31357729027507714
-0.5914949872626741
-1.4538534361867628
-0.023432664560432935
1.7622694672964612
1.5113809866648786
0.47890121772601174
-0.07246268085833157
0.47111396519659127
0.1439244251414932
0.050950658718577804
0.1372651419257796
0.4275606104813298
0.6235510847668597
0.9979550910057156
0.9813834555732734
0.823422408775507
-0.2697218065974607
-1.2404805373809606
-0.7755535986145213
-0.14665647072358956
-1.0599934806605582
-0.5347400431622167
0.04408715051161467
1.164162438521676
1.5995044509183836
0.8566796594873274
0.20543950422350113
0.4093843299770727
0.265386880288633
-0.01148771689144434
0.11990630203434902
0.426430817097845
0.5710771346507888
0.9558062039852965
1.026241877790318
0.3399013853746609
-0.27109807458964463
-0.6117574908029435
-1.3358793395722997
-0.6607297838291022
-0.9240969487035646
-0.651579801085945
-0.7672273057013649
-0.4073111817354185
1.0230774581014404
0.8045702962117104
0.9690537552395949
0.5821291325656062
0.2249024713746032
-0.04686526784292755
0.12867223233258993
0.37032228520506255
0.5482198942546326
1.0065700453021953
0.8130738965812226
-0.2084156810295236
0.03875734501792886
-1.3085282347918117
-1.3746027981898385
-0.9714825609082289
-0.23598438029306662
-0.3054364773695889
-1.7698299221434974
-1.0595938559894067
0.07013149584263703
1.1443812031266314
0.7638879638755713
0.466433117430709
0.19567374149665562
0.025362227304799787
0.1285691555873573
0.350975497286755
0.2888887011943392
0.9872732293596937
0.8379216531429718
0.07147293491999833
0.29179621480697515
-0.6195176179009051
-0.6692738200126293
-0.6958846605002754
1.1424535186058924
1.0275197019173858
-1.5323857991550334
-1.930025039489435
-1.6321508316657738
0.6053561328223751
0.39776762661605386
0.432840477941062
0.14591095917082386
0.01106029618506485
0.14018437207485152
0.34982199669292197
0.3929851399583244
0.7372847009365782
0.6983412489129222
0.1025626257284427
-0.21338818325287864
-1.4409725533881275
-2.198264360316304
-0.6409655158788995
0.9145960263699775
-0.32661270640125367
-0.9917604962119498
-1.5955210483287858
-1.290166252295197
0.8320374796201337
0.48623565302974553
0.469112783272811
0.241907079528072
0.11755090673918692
0.14261310988649822
0.344649317241383
0.5178696908830931
0.6532136440262842
0.9060893389958533
0.05288507371125043
0.20866684563759996
-0.45159611456692916
-0.34710443819866604
0.7709055843179521
1.7730977696627388
-0.37249973878400017
-0.569377133059124
-0.3919344301241082
-0.705227294312187
0.21372563351687288
0.36621364519573496
0.4805037293985222
0.21770254504722514
0.11723357842307938
0.13959952100922585
0.3374295956785847
0.4387705205841751
0.5144867823760082
0.5505335676010752
0.3489309380662419
0.6973505484388081
0.6430799091730095
0.8554727721724311
1.0136597368904137
0.9581841930038552
-0.4757630483686926
0.7782949984369378
0.3878991208524605
-0.2299844158761707
-0.4164512087038413
0.14200959151902584
0.19039496441088993
0.221715489839106
0.011683680062678978
0.13798679972025496
0.3423712658251438
0.46159007607930147
0.5288325885715671
0.5060369755788321
0.10666454917125343
0.4133693618098321
1.7851349224772086
1.088825456484516
-0.026958797137683718
-0.020685041765091134
0.4077422327299803
1.129980210943339
0.7291127252753434
-0.06699713475153367
-0.5978952149732326
0.17654005975814463
0.2267157656258979
0.21952856173789514
0.012741360137788553
0.14652439255125616
0.191237656170286
0.2318369662749236
0.4404809481851092
0.7414406316734291
-0.462328268734394
-0.31690953583315706
0.7118997908326513
0.7833592033129297
0.27326601874268075
-0.3948859025536555
0.32854541558546
0.4704017594674853
-0.10630544759516261
0.1437882252233431
-0.5491878783938812
0.3534714127822927
0.3433133479293558
0.1401105797380061
0.01402056986181013
0.08638075800475348
0.2920463609608618
0.07649655700842005
0.005736236244002226
0.3334417795433629
0.2548390431731021
1.0960468168860864
0.12499146202926577
0.27330865028909596
0.2395896451973054
-0.858983733089664
0.6579080556664929
-0.26702290051188216
-0.022289997466489773
0.1573234224562221
-0.6255869333499174
0.47574857544894467
0.3310547361978935
0.08742709305268871
-0.11416718913366761
-0.04835099500696935
-0.15840946727599076
0.06021271212596445
0.08368221780464652
0.17614711117089893
-0.11015374748766474
0.22124173306258874
-0.7650758646421862
-0.6406909003416529
-0.3793565781811342
-1.2910751852618814
-0.10099122414476468
-0.336387365415902
0.018682237663696952
0.5037135942922945
0.11053502977223803
0.1670448871079298
0.07915821181135767
-0.21262579690297695
-0.1482369939736451
-0.06785901434700489
-0.08188757641546403
-0.20201009188558502
-0.4509842203693704
-0.4619760145038558
-0.408041853671525
-0.05906152436614162
-0.09924831090756736
-0.24959922776901922
-0.14602231587828599
-1.1190023915244907
-0.5424076223973266
-0.247647671398402
-0.467851369303162
-0.32827042074854923
-0.2987966616666205
-0.21247984769162093
-0.20192896687056017
-0.2924461414898975
-0.22499726167232154
-0.01754357976849649
-0.09845199538937614
-0.19606603186169416
-0.6574343852976892
-0.46847506733618355
-0.3560726358039361
-0.041265956362641826
-0.1491748764220387
-0.4079643362908679
-1.1829150448853103
-0.9526517910718845
-0.2777478802453637
-0.023995205656971504
0.08583914457514731
0.2064597291779672
0.44923499051409854
-0.28105555142452937
-0.2374671467047507
-0.1162201814731189
-0.12843175631267045
-0.026543625146164682
-0.01828340049159795
-0.10855549770947832
-0.4398786013800562
-0.42342839988708797
-0.20653746856899508
-0.26219427878097745
-0.5777705080874072
-1.640171786630664
-1.624964987385306
-0.9161859016419581
-0.12668716360047844
0.10419995414118847
0.30681643652633184
0.4872568499173675
0.06300855251049511
-0.028467225427982454
-0.055441807569943845
-0.0021454521434286235
-0.006045214897200994
-0.08776197783421885
0.0032310868821160948
-0.09224477528722437
0.02294565839494135
-0.130290438837667
0.15122380241814345
-0.12919849308023393
-0.2917579980478979
0.25230914353399053
0.24296693962807817
0.32046176092842193
-0.24039713797680567
-0.8023356997873888
0.1494533219247752
0.43219837821630547
-0.14212473562219807
0.2841456473711773
-0.05471225033839485
0.0376400645448903
-0.08383767380943656
-0.03594533480169725
-0.1072465280669744
-0.0863470080193998
0.2472907011277081
0.5168250439294014
0.23625629661642214
-0.4108474607516724
-0.8970379207815441
-0.47143391912121213
0.014466090220603712
0.1671633187139167
0.0795904667990548
-0.37694512066772695
0.10146344834003222
0.7197144079335165
0.4514246909583692
0.6331997087642169
0.26031156678314793
-0.11067958645782691
0.1624527853019786
-0.050646667084978926
-0.14917318058291867
-0.15975887968995317
-0.030542670489804465
-0.5679936781364521
-0.09316172348691482
-0.09949111331521598
-0.773155437527167
-0.46892580725527144
-1.0253450768096468
-0.12870118229916377
0.5764576840343978
0.8276814306738307
0.404521529604065
0.9257800946198642
0.6817838359629436
0.3871379455196384
-0.2237854493010665
0.1555386130068804
0.10496688219689147
-0.08741727447689404
-0.05711880339170144
-0.1111258000504846
-0.4943497132759208
-0.2365775898885525
0.15271101838073636
-0.4135613951488564
-0.18507266600212166
-0.08068186202542349
-0.23034681236035076
0.7587054668252752
0.7118226461147061
0.8574568347933705
1.4618195337378772
1.2243519298714214
1.3405561634848053
0.6578963336623953
-0.1492493620492176
0.1973560465724418
0.04001179949190463
-0.08411709264264733
-0.028995868351132843
-0.07061213623075406
-0.22895775011439023
-0.10358433366948294
0.11931244123943423
-0.18470984926152212
-0.13123710025925786
0.14981362462280529
-0.751632785775587
0.407280208229716
-0.141838145956015
-0.4742132023410969
1.2449867521367481
1.8237513820096816
1.1023146066078964
0.7545989846181761
0.7352401884516411
0.09889246957716302
0.06634940503478627
-0.03284750713319027
-0.009007248168840114
-0.19259914264776185
-0.1667068339810396
-0.4086472622276498
-0.6658235095295597
-0.2096324302999484
-0.34978130206296054
0.8243706324010125
0.5656410043378164
0.5992076502336805
0.6884588250471478
-1.6911709263118722
-0.8175404703942205
2.2789663181649344
2.7895865138616776
1.5330600693047043
0.42710635662991986
0.2501429349764931
0.2571686805506714
-0.04460023481697741
-0.15805831608706944
-0.12490062400630315
-0.0630467522347959
-0.007963510492007102
-0.17357286362772884
-0.11696840100487171
-0.16528530751842907
-0.7818489291616152
-0.2133741041023963
1.2038140153368122
0.9908182698029556
0.0013574855428757865
0.4680523471658565
1.520079221553792
1.979864153398674
1.4921095962836135
0.7636615217228334
0.25450407179374107
0.276771004376488
0.0025722370782832187
-0.08905230405922143
-0.10755817511759135
-0.10062127106996546
-0.09460916805182856
0.181025993742319
-0.5817330890416819
-0.3944271853433085
-0.9334492878433223
-0.09376997787052196
0.009007265126233732
-1.3935210740868007
-0.4321038286952487
0.12462140617284376
-0.8264242141726913
-0.40194776698019086
0.9251885845660165
0.7749882348775083
0.18589413504474034
0.3219942488096417
0.031238069909415012
-0.09899536885296203
-0.09669797302344797
-0.084820717260956
-0.11155228095488881
0.3919800914821285
-0.02002271327384428
-0.3499013151774437
-0.11971615351603311
-0.52408167386258
-2.153473014023665
-1.135933185200165
-0.5961467848088471
-0.7723041014912482
-0.6035968588017746
-0.9220773929403109
-0.04935680041689381
0.0799207982808566
0.08008212108691176
0.26445620102031886
0.027858782807585896
-0.13656329350759547
-0.07726274865974891
-0.037963204718852034
-0.08158996481757251
0.3652761384212299
0.06380465153994017
1.1493637737517584
0.3414325666653913
-1.4968306222402066
-2.542106340722696
-1.1783544686637306
-0.18239755681573355
-2.2338232078961613
-2.8872115756705634
-2.1234755920783828
-0.48986467952891705
0.045407718473069576
-0.03315202788430703
0.14211950515925043
0.02406086205763861
-0.13233914299346547
-0.08009644776964706
-0.0015791354340309283
-0.02117526270159975
0.46143963728040677
0.0022262351765510737
0.9183219788002942
-0.5729900429224122
-1.533635957482554
-1.3438788489109992
-0.6675829936420563
-0.7882432698161811
-0.6750129360437502
-2.8567506580069524
-1.5817719818579699
-1.16021236704069
0.013006686040077186
-0.3243918751265333
-0.1550319138340831
-0.07835017199135452
-0.08985170827117503
-0.08125612051409092
-0.07871864732694166
-0.17591382467906505
0.5595741008370213
0.1298269393355879
0.3932617549529226
-1.1783310356029568
-0.14135677712105843
0.6713985213584327
0.9064909000156192
0.11676568333237905
-0.9281880321223599
-1.578864376511113
-1.3114966637986774
-1.4767971026376543
-0.2795262865070016
-0.3267451015368113
-0.2815428824894609
-0.12833048837095093
-0.09052440405984105
-0.08336577290044675
0.1024138212569401
-0.40043401576974835
0.2802850016633299
0.3373811668579376
-0.9405383573601528
-0.6391840553066941
1.1584916033737047
1.8894377448110695
1.869642737869249
0.8143916363250014
0.6294614077584967
1.1071370496045243
-0.9383735094166812
-1.1143708672245265
-0.17873285011211765
-0.40602020685278434
-0.1506267344601327
-0.0918628029045061
-0.18218433908769227
0.0806651675766973
0.0549748086624495
-0.25115052591685044
-0.006593810937821866
0.3161246242636638
-1.0093166663521518
-0.07033459679117411
-0.6708215851150355
2.8437969529383094
2.2646547881218515
0.7589508071774052
0.28145421065384063
0.15895025186365097
-0.4950734000136969
-1.373143653478374
-0.09112396875267774
-0.2703201855879955
-0.0879061202951522
-0.08152844021928947
-0.15591998327891526
-0.042156159878652705
0.1433959274678474
-0.7579029748137649
-1.0682096220860473
0.03407121406259104
-0.35781663168646527
-1.2785457128809026
-1.4260325264233396
1.0740927500701603
1.1289409915499535
1.1802743787958405
1.1655083305125424
-0.3849435292208524
0.1269988389908104
-0.8322497905535059
-0.6794190304028115
-0.2895941175125998
0.07592129956302322
-0.10877616649232291
0.06663520142809673
-0.17221711975263151
-0.23206637716002532
-0.5553564726488261
-1.0146034100271275
-1.1182461221637117
-1.5743416503103536
-1.3495272988349323
-0.34709768305043437
0.6598442902842755
2.3055644256310543
1.025781433944344
0.8592165889448342
0.738940315565047
0.08555158718451465
-0.892090620668905
-0.6034404068023748
-0.039165262066950625
0.08345344392666822
-0.02827861836715013
-0.04420651974033294
-0.04905087004579611
-0.14274880024637226
-0.3619262710558068
-0.8600050751539694
-0.6768485598616335
-0.8765360555079
0.11807245594744914
-0.24123161570071633
0.7257924630863233
0.4971715064546992
-0.02012177297127603
0.9013893214704225
1.2687197164496964
-0.28856030975710634
-0.9477558761744115
-0.4609343501355502
-0.0276721701785499
-0.17566163266991264
-0.05631507767336102
-0.013671508350052439
-0.023147496287763015
0.02687036215423921
-0.4298472608015359
-0.4433072422192257
-0.17066991611112683
-0.22671297352773095
-0.20238488425604742
0.3164531219509487
0.7801341421206266
0.789625549542939
0.5871256882087417
1.1173132638410748
1.6867828315256805
0.3718609491502354
-0.5199772505262745
-0.1479816979904454
-0.2855130108286244
-0.03019975975231206
-0.02640893089577925
-0.030567641860528853
-0.01633577820070723
-0.04287409171551294
-0.35512480652123
-0.7175862915630613
-0.22804498147971067
-0.1316709482888605
-0.08920288574150094
0.33206644787385525
0.2408378326381195
0.1356194353868644
0.36633220848440545
1.3344244524746627
1.7100208817792673
0.8081653887398308
-0.26767982094193915
-0.120250958572598
0.024832527020575878
0.043514814481511815
-0.023000903787735165
-0.02292269388826039
-0.022115685867446593
-0.09292479023937891
-0.28012152111584665
-0.24680040219858154
-0.045925186371608175
-0.21153181775057286
0.33804617991486063
0.33494122048062863
0.2101180379101567
0.45384031868814184
1.0789669580558578
1.5166025431801333
2.197362392474629
1.252001168462939
0.15848487032048786
0.15434597505336392
0.1885895210151133
0.04597157713967942
-0.025427902575174865
0.34671978848844565
-0.008486855279289147
0.40035731024736265
0.25900753421338746
0.04703321702356287
0.13375375248621124
-0.14846867403404637
-0.4440005978939268
-0.042259328205580586
-0.14446277171520924
-0.14908214791375354
-0.7143412978164737
-1.529965922200025
-0.5777340432993646
-0.0007105597578306017
0.16586359698923184
0.48888246817146674
0.23354077108376153
0.3536819573016165
0.4767637835374563
0.2239391768808166
0.52240480762392
0.271586120994744
0.3519192752510694
-0.6842350564325452
-0.5649236437167265
0.10542397242742152
-0.28360225024356517
-0.1253837814025051
-0.5904060744347381
-1.1977266930944772
-0.8539971249726809
-1.730776481217085
-0.6062724302806589
0.40361045637692805
0.18553425995291606
0.8150741589471775
0.6540100329798066
0.5504302271877505
0.5777882204092671
0.2515382227652088
0.4803774619508132
0.6647816945031474
0.6404177987833742
-0.007309933572740568
0.5941954370264861
0.21366969347302353
-0.27732146162350846
-1.1005133058563643
-0.5249708471395592
-0.007982739158015863
0.027593738822768176
-0.7760308658430548
-0.9561583084239695
0.006301997941872088
-0.3273484797094505
-0.19286494221946623
0.39829607457924243
0.6835257761035695
0.868828716298755
0.5284258206097325
0.303228191819342
0.22331682010982754
0.14035304778176466
0.2374008064521907
0.38816616214920496
0.012314590501042144
0.041977615523538
-1.166281340241043
-1.3117405044803534
-1.0372209412041429
-0.17538608357191174
-0.39846905553829454
-0.33088373134783466
-0.6057335909784352
-0.05050032698218906
-0.6114671985282241
0.25568089536587923
0.911042700459571
0.34971411055498147
0.1965320675249972
0.23830925103553147
0.38672039931994673
0.3562799422681378
0.7492167075695002
0.5405163321577224
-0.09869006397126129
-0.15016132122158096
-0.5118643504367206
-0.9212398562816693
-1.561970653554882
0.8643065858244269
0.8030936309057214
0.31517882593826857
0.11053059377300777
0.5292627076817713
-0.40375256913406865
0.5233696137241131
0.6652511064138197
0.4950802254048501
0.2606544419370883
0.19930438413027576
0.12539614958345865
-0.12160605314163131
0.2272635853474321
-0.09088955640122351
-1.3535953361785193
-0.6564878154220178
-0.28858474544748647
0.004588968359951674
-0.10559815592747734
0.7560698142386524
1.182232616709926
0.6641343506122523
-0.12123808467556708
0.5967643232378472
-0.5007282134491454
0.07466326794185676
0.3052822942175792
0.1880447920777117
0.23683077405173203
0.168006570000177
0.06155101095783685
-0.08502519646740851
-0.0993146633098829
-0.2679253722204571
-1.3622040269374598
0.10174112361744701
0.38399873747337193
1.2305829615365003
-0.09397925603772694
0.27417994251759725
0.8855787466675388
1.2541121502125965
-0.19237099660354934
0.31441027904942603
0.4263929387741423
-0.21849583928675087
0.19794599574933297
0.14890386168343384
0.1801352930798008
0.1361060992854127
-0.02276231162847744
-0.02413117203655074
-0.2729716591768457
0.200453522835113
-0.5634431037335593
0.602199774416548
1.4382554511410035
0.49538773119247936
-0.872435555920566
0.6085837859730477
0.29879186777345446
1.3820763494406947
0.27735277233470224
1.7153476485724872
0.8784656630619542
-0.1427672637023047
0.2150283508945451
0.14003027569210463
0.14145822246969408
0.17470077230612274
-0.010133337157235526
0.004187578257235506
-0.30847706404916775
0.30882567899666175
1.0189572236018727
0.3862310220461687
0.8531791680900604
0.3517455770926773
-0.7618285189443085
-0.9934618890763459
0.055464966168733004
1.0924813662930715
1.347545175353008
1.1190496605195197
0.5825529996259764
0.267991558330853
0.12448507867562496
0.15953047464379702
0.15785116090987544
0.1957929528361298
-0.009460552612361638
-0.014450892241264297
-0.23921957749341316
0.10237407265761304
0.5252137060393776
0.3418404358524602
0.15522698173801014
0.4460293981083859
-0.1526886369286651
-1.6745819744755772
0.10309810235171393
1.4897464885538887
2.2999301766038998
0.9870314363134904
0.5616628204812718
-0.03079249444070552
0.0762610400786881
0.13546615259199207
0.1456869472331752
0.20619649451323896
-0.018896062701473728
-0.11779286770310243
-0.32408288172253485
0.30034451662648076
0.03519638442150373
1.1052731980621524
0.31580950054822554
0.17879587367282646
0.3585639438130221
-1.5648916948643363
0.36975787781117136
0.8970369481663335
1.4659013660397684
0.7066768955620403
-0.3279616607621728
0.033029683150672284
0.07041262363587972
0.1296458413295583
0.15621774347631828
0.1715616957390113
-0.02223896604583699
-0.17937131335304526
-0.23034223813499602
0.24078395641321818
0.35782268647984844
0.5213420640777466
0.8745449565564668
0.12628307325026045
-1.4255080852355804
-1.6346505310535768
-0.554748533629097
-0.1592041713729564
0.3818675063404052
0.25338383306152396
-0.09830883761170017
-0.0940272413934002
0.054651572180842205
0.12791189981092185
0.16043309180696802
0.17276343674650158
-0.02235555523481624
-0.14912407589711696
-0.18856402507174477
0.496533336576736
-0.16505934739446715
0.3155421176627393
0.1954361858945805
-0.0555133969647804
-0.64782726333352
-1.3751148568639087
0.4895455515608504
-0.4819261930004218
0.2812003585722949
-0.28234010804566456
-0.26130223594182794
-0.2674368281623524
0.22325014868377832
0.1225546836969194
0.15568019606999828
0.1578203730733772
-0.01598739714367559
-0.13679447234280978
-0.23816131676290916
0.3481819415447975
0.3114305342657853
0.09309731858615417
-0.44024918417661574
-0.8322668397773854
-0.07600544453516814
-0.656884949329843
-0.4470396249442982
-0.2672952875453013
-1.18794382356106
-1.1437231285986167
-0.889346566575839
-0.4472318688823547
0.02238146891184538
0.1131747754381925
0.13506727056287893
0.1736577756596617
-0.14898809756438805
-0.08457575203628524
0.14439223454966743
-0.3321032680611286
-0.6015701322170146
-0.268793995647875
0.698966398742304
0.6048392979833664
0.19810282778376345
-0.568294537133358
-0.5209994539937131
-1.5647515075151817
-1.4522124429868102
-1.8073427793785108
-1.1208088455450775
-0.03500286283471201
0.21177964394259552
0.10164276090621065
0.14806644587733112
0.35256571074525644
0.11542903250423177
0.1936187854900495
0.39394717978883664
0.5258250467377745
0.04572829425817159
0.13309309448299386
0.6336429001711466
0.6899619518783543
-0.4455822029823062
-1.7176036466735423
-1.045009068697557
-1.7545307803935282
-1.1058513874633547
-1.1386546298793898
0.05296628796159538
0.326368150490524
0.34041131415572956
0.4268876281468037
0.27701111661168376
0.258892804150476
0.28165484566245347
0.28682868196092276
-0.2547690241152255
0.5563841117720748
0.6458322435664565
0.9310621943127144
0.07748099912964909
-0.28004996948958844
-1.2377572362047764
-0.7547608289833703
-0.9760815975628644
-0.6868327293599932
0.3231660182727055
-0.10784442161727333
-0.444104113826724
-0.03893688225459358
0.3647714910584398
0.35315723325859083
0.2406333884616791
0.2022336994672822
0.2389093619002635
0.20193751116620137
0.011574080580285228
-0.06647950994601871
0.48359731238576115
0.7352577580088641
-0.6432948588626595
-1.0689903629007944
-2.0286570803944968
-0.9536113031009181
-0.8682599673753768
-0.626321148193733
0.18726980262633794
-0.21291036639359043
-0.17896525222547813
-0.13472571585519102
0.3022432804571918
0.28207282612332174
0.20613489092085274
0.24226878004824753
0.20305170672066694
0.19049785457299886
0.08944715784126282
0.030259127893507834
-0.2085280197899132
0.6764511322164699
-0.6566941640149851
-1.157304499011911
-1.4484403374500594
-0.568681662765801
-0.3559773152153899
-0.1628867883121104
0.0570340519960491
-0.4793601501380273
-0.33038642914501615
-0.10481982651384911
0.25691815407156987
0.20479944486041243
0.2305693561575608
0.22063267198069225
0.21966838332446445
0.18414058733926078
0.14510203687339984
-0.05208195965454224
-0.03783788974945194
0.06444991839015018
-0.7224895026366216
-1.5014242558490767
-0.7753034124617091
-0.3147797996227853
0.061725728349167605
0.5135532422050666
0.28736736007432984
-0.07965418899306065
0.06833058568710756
0.16995765418534534
0.2103082803148318
0.21767266558248446
0.2295591004299249
0.29267764535749885
-0.0032068616555721704
0.26105987122595714
0.17159243921402786
0.08365117581074065
0.45084102877724996
0.014827236558179746
0.25395564465326204
0.606965327072117
0.7483045405877159
0.15908271973336732
-0.020939007756094738
-0.44777077770378865
-0.35872696803561693
-0.5506753371907959
0.004726280103666301
0.6937395526188178
0.3128695072112132
-0.01758060395442934
0.17627176067302835
0.32347414153152804
0.07012909323154366
0.10454134385102445
0.4752726825472263
0.25387434420902705
0.5775766436831243
0.6395024145017257
0.6693706968266399
0.1395682288713704
0.10738261999464718
-0.45072694527982543
-0.6140172385558142
-0.7525360818099887
-0.6320288437804246
-0.031662059788244545
0.3521895528626619
0.6814214469512513
0.6186965417003775
0.25484907449919286
0.09108004682334925
0.24096286227228833
0.21604315027436102
0.2778702760749323
0.9398356295900153
0.25366389065126427
0.2212311722410988
0.22616800759378555
0.36296601255108546
0.0875635222430989
0.11033054915971578
-1.3840833190451198
-0.603356021646779
-0.013685167537222832
-0.4279549609566243
0.12326343771388
-0.25463801176299
0.5347994920131531
0.45131890936035257
0.48799712514348614
0.19707633342007214
0.2940204011989064
0.22308218235753005
0.17351933009189963
0.5095513600203209
0.14685379199968462
0.28686525822085573
-0.033930150833256956
0.03519974680772131
0.2832880540222152
0.7987612644481682
2.364043524874678
0.7050227629686967
-0.2451038927208409
-0.5750849843623823
-0.20704906523857353
0.3170165353718199
0.41425179146283253
0.38198807085068365
0.055848891232064705
0.13422672177372846
0.28484000874293
0.23453602837317314
0.13508852858519566
-0.18680027991053552
0.34236669202088904
0.4122048364935136
0.3652861193633902
-0.28726138461696304
-0.03830771531391511
-0.48874338224725516
3.933702227999472
0.4660105121260296
-1.6676256121666098
-0.40133487252435013
-1.079211706380465
0.3157689013930199
0.6103737866765451
-0.18332592602098605
-0.5896208855601339
-0.08591762737073896
0.2546972044315122
0.25580666505311483
-0.10469967736988672
-0.00027152662954944856
-0.18782074357278372
-0.380288849525915
-0.4801597007429563
-1.3980159700997068
0.4305126694592106
-0.25684929286222236
0.6501637590983169
0.21420003738770765
0.5056968838091963
0.30480771662148615
-0.8245300111198755
1.0279306399593902
0.3225245970315106
-0.4721932870477341
-0.665309158801116
-0.18118580284123578
0.19041426020414223
0.03501486315300277
-0.12291922803735919
-0.02024604446747713
0.09126696086271195
-0.05772997463697778
-0.5108275573966403
-0.22053935041720513
-0.7710842750055829
-0.1174706951751004
-0.1890625306139819
-0.32446822060325786
0.5023585195664123
0.14297193835428212
-0.45019693628046475
1.0565653715703829
-0.20519512728604408
-0.550642468411698
-0.744048201513981
-0.17377487519820614
0.06311972157434657
0.06919688350898205
-0.13690358752857482
0.0639832977788461
-0.033907797669754595
0.13786677395760402
0.13607374519564785
0.37592660029125496
-0.6494086132177875
0.7570681459912405
0.8254472945370649
0.6266234518260362
-0.36891987534406334
-0.22026205633022328
-0.6009835444073643
0.6548750303393258
-0.6161868157372862
-1.0361232136346654
-0.8242474524846896
-0.1792400006811957
0.09559387353883554
0.0689865362324543
-0.11598675255405405
0.04769760686326127
0.006758303959282996
0.5031664580341945
1.0291242956567797
-0.3340277039166412
0.49154344324470806
0.9744150090268072
1.2971093943844072
1.2052460902482691
-0.638569573319694
-0.4420806586753206
