0.7542746102131054
-6.276933718931711e-05
-0.2838561859473858
-1.0365415107221254
-1.7627236147516223
-0.6527268736789282
-0.2324774510450533
0.26751951244203354
-0.3033545591970116
-0.7896917244346628
-0.9997431654561098
-0.5574967753958975
0.645788401606628
-0.7381389992526006
-0.5389404613621084
-0.24379124013835182
-1.4129250256885098
1.0048275394231359
-1.113179198983958
0.34694778590694836
0.5030878872882243
-0.7614106034851111
1.5336079107558576
0.728500478685302
-0.26597459037085813
-0.8353509282336422
-1.3553312156328108
-1.1528820269803695
-0.5690926237774014
-0.057419429951785214
-0.16226064769027854
0.9526484699806992
-0.5927426139561571
-0.7814336704954459
0.6171148786528304
1.0648521089471887
0.18188803040876572
-0.5466540080152774
-1.0490660872489914
-0.46090835471937075
-0.1290323512896371
0.15774651374277462
-1.225701002162109
0.5740886507067966
-1.2655453058824215
-0.002484775791846023
-0.39475649301618
0.5041181574792379
0.34095794218250886
1.3406593102189968
0.26069159579353174
-1.1720363117313524
-1.5529435880754832
-1.565568576789422
-1.544579587655601
1.063571330617463
-0.8123092320875593
-0.6493977079309282
-1.2145083486287322
-1.1088927339332497
0.09004755335904253
-1.150364338041787
-0.008287407657840798
-0.29498856873643525
-1.7347799720994914
1.0834684221898705
0.6883933420130557
-0.3194453941485176
0.380230908291453
-1.0844004626180799
-0.6573151689161466
-0.7992760132115848
-0.8109118503786513
-0.01135590535896126
-1.0575030235251575
-0.8213739142790438
-0.8925601303411997
-1.5047483909186277
-0.40756266037810884
-1.5915232804201698
0.613400790490034
0.6335371104850231
-1.4944090315978942
-0.34069945381250477
1.131462803330011
0.35420594797306426
-0.9005823728729683
1.5904795554699374
-0.16374335163416573
-0.6903023420207486
1.2855940870938138
-2.7854940867231472
-0.6790221784754886
-1.6013190563842798
-0.2409680934315041
-2.4483480273314906
-1.002976587368952
-0.428126763836321
-0.5003390873513041
0.40509089277335636
-0.8166873432658807
1.5345473465083013
0.4348653486580059
-1.6688981264916434
-1.2674501454602884
1.0699040478070867
-0.2218446590082545
-1.1142157345287693
0.32425564917800764
1.0388591169325159
-0.3511059293856113
1.6173539079547659
-0.5492224663928074
0.6638510856827698
0.6711497110058009
-1.572257090313666
0.5919372508779297
-1.557288588098216
0.34696510528157
-1.9271942566499873
-1.6605198690580654
1.1862411741932084
-0.9133437298066782
0.009642768048380794
-0.5733595507776859
1.1620959332988932
1.1341130866177787
-0.7903667714896357
-0.08219375363322075
-1.183207857899255
-0.7220128933081074
-0.5414587170034515
0.3938567261968253
-0.6219345265651006
-1.2853085064796734
0.3900663513041424
-0.622989842915146
-0.42947435180789967
-0.5134787058327448
0.2794496373673228
1.2558657534478883
-1.5674479977665918
-0.9867041077977182
1.0496140421809697
1.2276430218847392
-2.1040449792579077
-1.4387898698400496
0.010918733103387191
0.3739176193848793
0.717386989827699
-0.5624591454887691
-1.35948814395941
0.7098879793737932
1.9379493994231236
-0.8309669422988188
-0.9750485370179152
1.210380133600252
-1.433407723164614
-0.5929737229173242
-0.42569916549297687
-1.4336354187846332
-0.9349361970761944
-0.9190290884363692
-2.2807481240290812
0.21460598120349464
0.17505619740172848
0.45058805745113395
0.1634172154057534
-0.3983189835588754
-0.6897750546320724
-0.01593133598055957
-0.8752044907893074
-2.0562245275083573
-1.1222885408947894
0.9234344035629052
0.2560412943165421
0.9045833159471264
0.3964858262258048
-0.8269662686680456
-0.9078914632867817
0.05757187557572424
0.7532678792480553
-2.3024355452883047
1.3921491183455708
0.009048492070283977
-0.3962249363916202
0.5464743043316395
-0.11616107457757562
-0.5092816750221449
0.12470209496690904
0.12447356158625282
0.490087186176592
-0.34587023657977783
-0.5875618440259894
-0.6641305374896879
-1.2248036310298487
-1.1979101329077673
-0.6936767156483533
-0.0019457935635476288
-2.016511553308502
0.9688021444368419
-1.1359394790613573
-1.440343841692836
1.221256843003523
-1.8479285849490787
0.9166153916269866
0.07437866762800956
0.8932637617978967
0.7082903981090386
0.5136617712736784
0.3023817532871245
-0.611066662575705
0.5539631060969717
-1.2832721493936874
-2.08100823411196
-0.22611220390134315
-0.6707980016979291
-0.8709848919395937
0.2070870973262014
-0.45785162536376967
-0.584035020324992
1.1618368686454
-1.0171168715513548
0.7893850963743365
-1.6025102930806525
0.21786212750108785
-0.15467349259856453
0.3856337191596528
0.13495265175752577
0.38102277989280203
-0.1590521824744049
0.5916606936114333
-1.0840986884119688
-1.9788474470257742
-2.453624690972175
0.8254746383098556
1.1977694154827936
-0.534406463322651
-0.5580936241764243
-0.5436111148951448
-0.3081908882678046
-0.5825999774611091
-1.2627186371213166
-2.4215043225151844
-1.6181976186959122
-0.006054172735520609
-0.6831476287561012
-1.8240178321734368
0.9171139729512686
1.8855534838495391
-0.3078918163078189
0.19488383781818167
-1.4250109028079625
-1.0739963161442
-1.98724267268691
-0.7032308366499357
-1.5081999365238736
-1.6075998175782458
-0.7194661075383866
-0.15665462528101334
-1.7220711607512054
1.2208077781174949
0.8512972237655102
-0.029744181471876102
-3.018691966208455
-1.6863170071376032
0.10176199757260743
0.1526968094493969
-2.938675047819368
-1.5977521857471613
0.6297635651821032
0.754440157063688
-0.6216269613708721
-1.3747067351161784
1.7431947159479104
0.9821732604967515
-0.2472910287239298
-0.7344067759275253
-1.7671022462322035
-1.256548836491481
-0.7567874504997247
-0.4862268790565353
-0.22538490171986356
-1.7678299261928856
-1.3442184872762337
0.2976173368358728
0.4591546244572646
-1.4545233661020107
0.9474138637367716
0.7367982462561612
-1.6562472923432703
-0.7656760907774843
-1.8604509606628232
-0.9630930098438538
0.8660486620993618
-1.3482882521770878
1.3480148333438557
0.6382744986780645
0.4421192268118345
0.6121187307712832
-0.463688092569911
-1.0517378129734618
-0.9593363723214335
-0.10651267107755541
1.3090159574324716
-0.7476911278142846
0.007952391785283465
-0.8200621580807427
-0.6935555882935511
1.6482007504436291
-3.1985703015954035
-0.08505356404018112
-0.2166331174649002
-1.2244873252052266
-0.8765437356520707
0.37984476792852984
-0.7673719322345164
-1.05102789736061
-1.7671568973238236
-0.7600558570052123
-0.5015520205722597
-0.6820759007849265
0.6600995020673023
-1.0460732898537817
1.1448716664743772
2.0863568660873906
-0.5493528840619818
0.12088846816981653
-1.5239683937134825
2.151548218381205
-0.904239535478045
-1.1026821811237368
-1.8174902177924257
-1.0982195856349422
-1.566510281897448
1.5465250228965803
0.07893392484722156
-0.4243361198413639
-1.5857291116144536
0.38027241007428053
-0.36986407760395845
-0.7519089977522486
-0.49558504403275966
-1.587988311696233
-0.7221660574643602
-2.6616271840624304
1.3192785920202792
-1.274750346358734
-1.696249735004444
-1.9164057551705715
-0.8272837422288183
0.7473307820720273
-1.0426605705530037
-1.8379566922433919
0.3600860373338469
0.2584147405556836
-1.0216686011759615
1.28089583868378
0.24234603379085698
-0.04315425921982779
-0.27554958165334054
-0.39098229360450404
0.3737167556438697
0.970278436148549
0.9428422288972527
0.25332280291266884
-1.4485264380564573
9.933067309737115e-05
-0.43128567508780197
-1.3431965118939995
0.8397786452645244
-0.13313404687613423
0.28905004867211603
0.18065783563308574
-1.3661886366301303
-0.7528910168418024
0.35781561216693786
-0.6489987824857469
0.8782472899205477
-0.028995049415162445
-0.6465713328311499
0.10773133370935177
0.4230510855176355
1.0877343785533276
-1.5948725792976806
1.603779542031643
-0.80549846343939
0.12188992121913983
-1.4436440533876784
1.6804320115201532
-0.617337678563378
0.5894606141462296
0.15710983776079082
-2.362978252446315
-0.6717379073645374
-0.8095209812545091
0.30869655725235373
1.8844343563032622
-1.0263428091664648
-0.7422359442105024
-0.5532899875345096
0.7691988939019594
-0.6687583873953495
-0.4936261678480681
-1.1682708158048019
0.1318806617481541
-1.3924668434732284
-1.935236427790222
0.563665442761641
-0.031694480645582536
0.31245827936149556
0.03478279534428734
0.20280825435036012
-1.054180173464066
0.4727535117712311
-0.7017431326391192
-0.12911976940796552
0.956136038702022
-1.8878168159610231
-1.4396133474985
-0.7034985396900597
0.472893197328417
-0.8984361663411375
-0.9502574595989838
-0.968882480491348
0.035114738612755596
-3.055421285493416
-0.12314222898582548
-0.002700127135952952
-0.5065641899360595
-1.0674917187405197
-2.192876249843943
0.3895009412068236
-0.3456040162218805
0.4160857579766746
-0.1756443420941009
-1.6104901467286754
1.2519334100751074
-0.6330312018256469
-1.187691729531694
-1.3950933187750185
-0.642563302252435
0.2224334757547753
-1.9351006281334018
0.2430961107721524
-1.6470223351880062
1.0810043964166212
0.174013035040278
-0.9817583572219286
-1.9518747927829196
0.6331195332977367
0.39635538652718466
-0.6075439591286348
-2.0383892541273556
-1.1141913508123313
-0.7029204800071913
-1.029174574156817
-1.8218185579732533
0.5985849783090872
-0.2145752928186611
-0.24480550663822664
0.6190377353077484
-0.3314656030436208
-0.553291272135344
-0.26205183490483
0.10035938698560484
-0.6665236217739272
-0.5173453832042227
0.48785563857731146
-2.0964300993113967
-1.00490688313442
1.3308584467291946
1.3240354438965545
0.2148073681035334
0.6115277804511509
-0.6810029907121292
-0.955558059956156
0.5046338361732194
0.5383625409028805
1.4265695713617161
0.2788950890798161
1.0105540070655836
-1.9511851443949868
-0.23404158165199973
-1.7707664812843316
-1.089218008490208
-1.1991105723661255
-1.2338347926415598
0.3780236452924693
-0.008598481514822556
-0.19910533617805287
1.1744635549743987
0.8707151375900956
-0.7213137247994316
0.33663590116855713
1.5134177227214176
-1.4339957870524895
0.19164153727493868
-1.5511832424140017
-0.5398643876990215
-0.34128550226617693
-0.6478290142405965
-0.5421732626648037
0.09856668560072167
-0.11863117852733489
-1.8068036312611784
-1.253154239469338
-0.9430552961836584
-1.0628670794725672
0.3541730418491413
0.12389857998528041
-1.4115400135808323
-2.807065003616469
1.6913387348453242
-1.8222721412372318
-1.3027290101830524
-0.5428826842827025
0.5548459835021883
-1.2160544838971652
-1.177675655645601
-0.5346917016616706
-0.8391421348558114
-0.008158766391446587
2.5639211357254803
0.41693172363619774
-0.3039729278112239
-1.9637697699454515
-0.6636594090368441
-0.837111379417042
0.0516920033068246
-0.26810213158185137
0.1337308393287374
-0.6959368790172272
-1.693456100726511
-1.067823514397694
-1.4681124017165301
0.7597187397045736
-0.2887399196315018
-1.1052575296727902
-1.3947700938876026
-1.7777334311041304
-1.245032235454957
-1.6251245335771245
1.097804143630183
-0.7029769380744367
1.3880568145244512
-1.3804875696587195
-0.638062290800223
0.034193399334097166
0.43988792725194287
0.0021292925782470263
-0.284463982186037
0.935730051341811
0.6584426685329097
-1.8234806940336457
-1.3377018933410143
-0.15071460769821635
-1.2268455984327755
-1.0838725321610516
-0.4105961584186907
-0.5959543157336505
1.1325977441640853
0.626645720458491
-0.5940008575498844
0.025299181668617013
0.4893350030694607
-1.6957574049322344
-0.5219232639562714
-0.3809697564270196
-0.6862897891948196
0.7640906655050578
-0.2674475271715411
1.0195501077471874
1.2162028570071663
1.4172242132126402
1.6936955659168487
-1.0701400912848644
-0.9017689224062856
0.09386012127198395
0.43810820545175344
-0.35425761624608104
-0.11683891699258443
-0.7404845782025918
-1.4719477159065
-2.3655977638866297
-0.5652878192265367
-0.32760062077320756
-1.3337038262177805
-0.15714901719105764
-1.0536977632517288
-0.13468934843157185
-2.15217121416015
-1.5634662337736867
0.2135125756318284
0.8431595482426241
-1.0945901569009984
0.3755137320099537
0.9124455313951749
0.21587214663502582
-1.3827136303164775
-0.8149545258838177
-1.8220645343857833
-1.7330242281985302
-2.01525493835543
-0.21254214243299765
-0.3913361443743667
-1.081001230739557
-0.7031235617433632
0.41165647186566856
1.0211957502491982
0.5708059189784741
0.008937408525321112
-0.7343816455635318
0.7016789515547959
-1.5691521058604818
-0.22579911881324302
0.5180241588914769
-1.8661671832938962
-0.46924689779218
-0.2731785968041557
-1.2383876316857414
-0.588200355640153
-1.0462725571501887
-0.8197684388319194
-0.5739718716666942
-0.025634590758479524
-1.2377869370028722
-0.059178803032712765
-0.2570014315075674
0.5352657088311605
-0.23384930003670698
-0.07548407032640596
0.4143675137506576
0.33515614416378037
-0.907337316564785
-0.8398550809197255
-1.5383711335020342
-0.7633493261916119
-0.6854368862391284
-1.8129458800733995
-0.9440687651163348
2.359695037826511
-0.46342637492522715
-0.5371244308693275
1.0174024911201733
-0.16928548140681954
-0.4305834446081935
-0.5160038120618682
0.39395308092894715
-1.09437664349171
-1.495346448670424
0.25933473686271763
0.9072407314201649
0.18881716544322924
-0.8013178862258578
1.4272361717128208
-0.07562191981504636
0.4296921715013741
-1.2921390952252947
-1.3110508141962836
-0.8503861230746972
-1.4927667931694555
-1.709473991004927
0.06797047154062454
0.7840400848041844
-1.5143025458604094
-0.6722572571668821
-0.5515761245983586
0.1671205176576978
1.4217382632756077
1.265084657571998
0.4503604567197813
-0.0068845261392202085
-0.39173116290794185
1.3507624700801033
-0.6232074728556429
-0.22238324973761786
-0.26010601169028214
0.48881744655990533
-1.0367980615184893
-0.8315105940679876
-1.5262230101819554
-0.6517759912423317
-1.1123817099507323
-0.8904075891956984
-0.6437907570059307
0.09000670380659696
-0.274394387364844
0.2752522119304225
0.35435742419388966
-1.6517106522861238
-0.834772848358263
-0.9276266332954444
0.7843781854529653
-1.380169575104718
-1.6993411623870298
1.0330743136653555
-1.7732201489212365
-0.16201245808281062
-0.6363614197833908
0.7448204965001097
-1.3313916877154637
0.24371979487406573
-0.4704668159145224
-0.9506856442700552
0.8802426088137671
1.218630386003591
-0.4786677348988663
-0.30172518838842666
-1.5031570648264636
1.5699468212837502
-0.7532075624581148
0.08249455516554711
-0.17636406784919179
-0.9945946190739899
-0.027952449343295455
-0.3238033842553111
0.8794787353817544
-1.5213891894129512
-1.4168794844913353
-0.6831973902999039
0.7538707721389274
-1.4055963792823172
1.0402380833871
0.9479513590106534
-1.6746063015677475
0.48986347570139416
-0.5144439350023141
-1.331035907275211
-0.7286241110675772
0.214034439690138
-0.470509121011964
-0.2985678613555647
-0.0017216912522542583
-0.4035742779424499
0.4955221548438449
-2.1252538602188213
-0.49426728021822486
-1.1190765035192847
-0.9816104642776492
-1.0508826848548554
0.6898455382275359
0.039576749654137974
-0.5819463430248756
-0.02744854603213234
-0.7225905289353127
-0.5731962018550913
-0.16412745536590992
-0.40726089538449983
0.1940703416147715
1.0616744131983764
1.4334129765243162
1.5992710252317766
1.0972255657011907
-1.8244206237049412
1.628704160745772
-0.16134025638470062
0.052702347169995264
-1.2947984870137241
0.7478581445332482
-0.637981579142652
0.6273673927489609
-1.0205307936132493
-2.0652591366225157
-0.9802817281459438
0.6486897619135116
0.9150178809016603
-1.741065234969431
-0.9020047859998555
-0.4619955161735577
-0.1494381674067196
-0.1718037824270542
0.361833211914946
-1.989716429899343
-1.3275886178430834
0.27385650126686084
-2.051144374084576
-0.4205930101751823
0.44573244990764793
-1.1886722068023292
1.1750092174217446
1.173927900893951
0.6818081681629657
0.3205703921047568
0.7288848749806086
0.15563337657224668
-1.5011264609061419
-1.6314133845702168
-0.6531360158707203
0.7129772201778342
0.42735196830254396
-0.7809826476086092
-3.1372698136406387
-0.4548720329675665
0.008666410532223652
-0.5210888771863808
0.12836888603448934
-1.7142792024647544
0.24942382863544094
-0.37101687886529106
-1.1061611137490248
-1.2656595262531944
1.2178663964516865
-1.2911882170303077
-0.6788966769830539
-0.09180032729142273
-1.1377826514209843
-0.6835249892635953
0.2780488803005385
-0.7910986113853421
0.24987375558338118
-0.5235362834281972
0.2555487674900736
-0.07572703103697032
0.07201706997169845
0.2220919281912406
0.7491084544309998
0.4997402109504499
0.3936749997481039
-1.6774304461259164
-1.165613451700041
-0.5662716143873584
-0.11993436547752047
0.7820979771087206
-0.42556130425686145
-0.583336171725568
-0.13324293747558077
0.9084890483188043
0.7444819767864954
-0.3334893081391299
-0.5666525582811036
1.5869541332914632
-0.18868503989997182
-1.0902091134969984
0.43665140595331964
0.3686257132893091
0.10346002654991986
1.746984455844647
-2.0604004493527186
0.7290120460615658
-1.5069647323036182
-0.98042202822506
-1.223878883654113
0.38540216059980315
0.14541555285146623
-1.660930992039562
0.5070179001428711
0.31138172959080457
-1.7685412500459947
-0.6755602930904072
-0.8096952993868638
-0.8976945192708478
-1.361286977714948
-3.0501678233444327
-1.8528044282236698
-0.002280491414386858
-0.5420742747214564
0.2589092254546742
1.576856763639364
-0.15892988990600956
0.25276987251065347
0.10109603128995824
-1.5385955486691978
-0.17489387424561034
0.7535146207388876
-0.7883160061841656
0.2888879575884018
0.7970832418724966
-0.7863639044180726
-0.5274887261255835
-0.42672003666462255
-1.4045623588643197
-1.8501122660196019
-2.042567898288637
1.713670824955679
0.9641597303531645
-1.6497416972491294
-0.952038779307126
1.0013206814778166
0.3999331012581697
1.0866643828747289
-2.073403505713809
-0.7348765147469026
0.08936606464489048
-1.4030818890885777
-2.4231399424121083
-0.6854351062216505
0.13030072901343545
1.1553536883688953
-0.025157897393429562
-0.9175787744527698
-0.5183302511006364
-3.0381591081548547
-1.1135046781969455
0.25287583888988213
-1.4044475712374118
0.20036428655391406
-0.2626777446634546
0.5746670724007008
0.08614444454363578
0.2436056784476458
-0.9901728808146056
0.4040864973491751
-0.4191845392322137
-1.5496885041922197
0.21866772725291683
2.1779505216932877
-0.8235895165380269
-0.742644920892684
-2.0998912614071066
-0.611523041352002
0.3244729628575051
-0.04624789458617427
0.9775283130082809
-1.620279892122675
-1.0996502764569154
-0.0066103915767091875
-0.49879204282964396
-0.6670008434730474
0.8440490870810944
-0.4069121972690908
-0.8568267201434785
0.5496171580523603
-0.016162655103213207
-0.8869787081454393
2.159108584278735
-0.724980123244172
-1.0171852961092847
0.16219350770899044
-0.7174536572249577
-0.8343781201367864
-1.165194132262392
0.39340124855083214
-0.745739281804024
-0.7816557096914243
0.9224524964229002
-0.9361711454280596
0.1605525828222265
-1.3213427071955008
0.617713187123749
-0.39414579554356305
-0.7211938834418246
0.4183450716821763
-0.7748942896277236
0.23865527828447478
0.8526458813784247
-0.7103299908085481
-0.6552812822458776
0.7932736778256608
0.7543797082546164
-1.0571015289944303
-0.9236773868576676
-0.36473040508982607
-1.6247731961521337
-0.9631847273841256
1.211428344525681
-3.479844454713008
-1.8044852235505788
-0.5845361967348679
-1.6739285663317989
0.37870692356597013
-0.18404654368470558
-0.4183232695020624
1.754919943564968
0.46427714430587647
-0.14570133960803253
-1.713413553218531
0.9247663114369994
0.05723817398053025
-1.1958675890338766
-1.4669184607839896
-0.6590504291748369
0.6778540082029529
-0.08732166547751855
1.0757385646074287
-0.4952905829991328
1.2309617550160847
-0.0033911673239737936
-0.406935987581507
0.6192172632565617
0.43023630651885675
0.5410843020033169
0.5426468431419734
0.22271456679659582
-1.106707372080541
-0.9515386963506096
0.9678576359224654
-0.5963601500103277
-0.273836607352298
0.2802252071186826
-0.5960573331157175
0.3652965989755462
0.29179760830011414
-2.6835491920103407
0.4620656651005945
-1.0478565171650274
-2.5837703264874703
0.29238329324818974
-1.9188612770477058
-0.3776729964699587
-0.7265950630127495
0.5562493761435535
-0.0914731950260424
0.794051824185406
-0.571334511290961
0.11947516213692859
-1.1865034574412625
-1.9178063329119386
-0.9526949096075384
-0.9182051138817691
-1.1971700708985278
0.13178535330401706
-0.9576130549403093
-0.4582633785470578
1.3277129454348213
-0.17726182229237863
0.831920373412444
-1.8702646151506135
0.31104085552390365
-0.44062708041587845
0.25812546709924133
0.2992407908745548
-0.8154021487869552
0.41873961439713636
0.37876794144934217
-1.4514361222306975
-1.0457161753522068
0.17593854175127946
-2.680385581964784
-0.9327004664946205
0.15935683372954537
1.2997158399793522
-0.6260921695391521
-0.47717618373007065
-0.06255567974573155
-0.63967455509402
-2.046114728460795
1.6907562819958146
0.0019678298146745526
-0.5083376515409991
-0.36565072279814753
0.045547941934816795
0.8857128687652982
-0.6062022644357078
1.0947540940431708
-0.7021344082344375
-1.3108950637006163
-0.42892091489575757
-0.8244298404014436
-1.65326237213352
1.190329331972413
-0.8344280648084342
-0.8072044554687614
-1.2022995769430447
-1.879406954207447
-1.6661832481919172
0.010814219658902932
0.08756737991301891
-1.0124532518671192
0.34957928551172873
0.43811807773454775
-0.16305016262773914
-1.057140434675558
-0.5429156790393384
-1.029049446622788
-0.9723265686470903
0.0906959678138347
1.619336159088579
-0.9853480935777126
-1.9783521075703527
-0.43613089002462374
0.5467602668686428
-0.602172378061232
-0.47547252943209156
-0.9182396958347377
-0.5519356992454587
-1.4314823334152478
1.688735026643377
0.7880798684699118
-0.5653744708290073
1.0727689168098045
1.0219170684469048
0.782132738314968
0.07901654536283674
0.9361142190571258
1.4904990405967309
-2.1558811215840485
-0.00461562090407584
-2.2525549239974865
-0.9928656815835653
-0.30032565580182974
1.3135138416161467
-2.3422143946641887
-1.5027242832751035
-1.335148109263999
0.35232767775706586
-1.1795012734412047
0.05430420695851424
-0.8354310445345725
-0.0032080093561792774
-0.3894606139323585
-0.752700308522794
1.385266619277654
0.430995744233105
-0.39470901826401145
0.13852405126546732
-1.2623317862120915
-0.4536664807793665
-0.926502787332641
-0.7022760290109988
0.42543471825205315
-0.3913475818659361
-0.7105825965099946
-0.048490233991999386
-1.2681472743343345
-1.8101238783859361
-1.2345746134796625
0.36981352622274394
-0.2890927431082392
1.0734588982820872
0.08386175745456229
-1.2521207445282634
0.5409787564554713
0.2459547539872192
0.27523907835102474
-1.6245253725403248
-0.7394052967378467
-1.028289139810242
0.9118209347665701
0.4002697500951918
-1.036857813351101
-0.499565296649924
0.11080501327653552
0.4695546293621418
-0.7435127751892644
-1.2826221116399312
-0.32444554153821653
-0.5986706186183722
-1.177080215850653
0.7645698976965489
-0.11879293412503864
-1.1835138822446205
1.2232908149003157
-1.7464791725265225
-1.7676995195243628
-0.4167650496860161
-1.2243898396483313
-0.20259432982078615
1.3444022528115285
0.5495233944227659
-1.943543954378043
0.015437112832895769
0.829755396981737
0.5278918134006132
-0.8702855879679365
-0.2620536845410257
-1.0101653600361036
-1.2247306932476967
1.3357003376282564
0.7489074641153459
0.005570709778474849
-0.5207491404129749
0.6109216128305115
0.563033458636164
-1.5812020564087355
0.7530482154230704
-2.017394831788741
-0.597786208420997
-0.8551615683694117
1.3109348339326075
-0.5742543291749471
-1.708093044538578
-0.5654786361710895
-0.567173951230606
-0.05908079605866929
-0.4413545370295557
1.3423128423100394
0.41726063909854705
0.5057191701047251
-0.7688161943491145
0.22585175915011618
-0.05971984531442865
-0.6012952695055928
0.5796491912931864
0.2943776928695323
-1.2856663745059875
-0.10881560407438158
-0.8356165538214342
-0.3765413049604802
0.9409535740437043
-1.1687953171976797
-0.6795081231009443
-1.0152506439937108
-0.8561235626941179
-2.6444130079005443
-0.7973504489178671
-0.3555041365575272
1.8249962294163045
-1.3641869288845245
-0.28469957668877216
-0.40402839761455245
0.5080439000734712
-0.22010732404663105
-0.8304130676748058
-1.0331772340693828
-1.1358822070457302
-1.1652672329726503
1.2471316991095729
0.5249205555984041
-1.3034267012334633
-1.717189030849642
-0.7334429623837524
-2.372968921749236
0.9322175407091647
-0.2794189104533893
-0.5649924605399708
0.27941287151269284
0.2932164865145336
0.37645497417971086
-0.36854078838785853
-0.63093600352077
0.0005489218032186608
-0.43541607982068525
0.9244851688424044
-2.385121189160532
0.635248932994909
-1.3124700652190082
-0.2528717756350934
-1.2379427930655607
-0.4323195729135364
0.972822207781779
-0.5111010815680536
-0.2242160191294928
-1.808890931707939
-0.5272328984422681
-0.03499165817362233
1.1660560738744905
0.27979980386429393
1.4230179755890928
-1.5620851214952394
-1.3256654509554158
-0.6168469123838197
-2.3585487688003512
1.6729408958313272
-1.2237432640927086
0.9209249147691561
1.555534210009172
0.7956280928220517
-0.5276365862522483
0.8778296473939097
-1.909046472618992
0.4611840047456928
-0.21933980482443619
-1.0554312153459846
-0.6799457773993272
-0.6105743542942402
-0.4936984939137429
-0.30862521276639776
0.8536937942247793
-0.4281702205505244
-1.7302898519909446
-0.4171935732021567
-0.12085178997159958
-0.8030574705734986
0.6527881626561055
0.21929477288310123
0.37730393401743717
-1.5801215828227086
0.4656249759365719
-0.787231897475521
-1.3862875585364383
0.07507662151059318
-0.16362865728385104
0.68646000397881
0.9694043910884561
-2.4876362515182264
-0.5396892725097431
-1.1034071421476073
-0.6001667062623379
-0.3245965548009007
-2.709173928732169
0.0138201776364076
0.009396838767942001
-0.3278330126269157
0.13139616632298975
-2.0096923011403742
-1.355222675086186
-2.135295546235416
-1.8602090854110134
-1.182548366041879
-0.03593044947792985
1.1452342611669888
-0.5222955667879747
-1.4994723838729487
-0.26644715449336953
-0.5316358011473408
-0.25119271037095214
-0.1634894820080519
-0.03818532940682634
1.0382121213625124
0.2618351344030237
-2.152521414633479
-2.4721224306838545
-0.2605719704987917
0.6090525675849626
0.9629964173624401
0.14514092238443635
-1.0283470540794057
0.6249960978345712
-0.8981255362226109
-0.14973974014700175
0.17426009088188263
1.374915052008173
-0.846882833022952
-0.717317660552913
-0.796516393931647
-1.175443317749358
-0.8213882089772051
-0.3458391610443328
1.2600592508383672
-0.9272909630065265
0.38682659772456607
0.9043085546335081
-1.9275360333234794
-1.3920220452911196
-0.6857217112365338
-0.1734250706076529
1.641704966530178
-1.1536619759768458
0.33971665074397756
0.4106270309639638
0.03098536079175526
-1.451001717886342
0.2056604332463391
-0.008204307281150196
-1.000116988277704
-0.031925992590669076
-0.6860933510624024
0.15175673326634084
-0.617332352009757
-1.1567610480671338
2.2750895424336655
0.02374244370768813
-0.0055633201750030815
-0.1767695354083678
1.2041609993445186
-1.3128515962347962
-1.298821016233761
0.8081337814808806
-0.30708966354755296
-0.7291617114664247
-0.4208369165781189
-0.8488237374580618
-0.3585016877922808
-0.486272908222396
-1.3368184477745524
-0.3318999111345204
0.4760638333986382
-0.45570276704293233
-0.17606448358024707
-0.5051192408176782
0.5434037197761237
-0.33549365617225907
-0.9835713194650701
-2.77675739966994
0.5591726675494368
-0.2596110446004157
1.3121305521290902
0.1608656967914627
-0.766360334227061
-0.19419383266364454
0.9299604205395398
-1.581637341675807
-1.9006579744094827
-0.3607256073870591
0.023583840337216173
0.04621742520285665
-0.10038254800784789
-0.820525388394548
-0.2151121046190793
-0.7493659483732354
-0.8043521602426981
-0.26404098020937733
0.6348777464801378
0.13166825249288172
0.2921869904213984
-1.2822953680219584
-0.08838639476244478
0.5378258695624742
-0.810292276993549
1.2177958241026552
-1.8356254560813825
0.6128997506726334
0.15290489498460227
-1.7560857216333023
-1.2494680431925425
-0.8501900126194395
-2.0413586792497984
-0.40649186989533603
-0.6783803658991366
0.8591643440402007
0.9315097998207378
1.3623441295385612
-1.0835652285321085
0.0024084523811775133
-0.3173075095622583
-0.474075935891815
-1.9558082919350523
0.4014415188249122
0.07337189864167777
0.324301298690769
-1.1239664376846485
0.36005203246100587
-1.224932602635816
-0.6414446394331108
0.949510594267104
-0.8687664203155112
-0.6363264839275329
0.21718580482250055
-1.0409417914808978
-0.8440177803872827
-0.04350359722211437
0.7559125672362257
-0.588322915522285
-0.869374070635159
0.4802457458690341
0.6339568177727097
-1.4179684794393599
-0.1921729596671188
-1.812085040968451
-0.33210127154175517
-0.4965709107687307
0.7982447750994435
0.8768202067229731
-1.3749010720499835
-0.6213098728625165
-0.09288743952336544
-0.8131049121578339
-1.1011479165588458
-0.6172303884778574
-0.5993520646778991
-1.4815138426631829
-0.9536194957651822
-0.16387332718343597
-0.12156340755909219
-0.10771823224144722
0.026916944296921753
-2.0904884500400733
-2.18198230541967
-0.03528775819472881
-1.8331595220404016
-0.5868854802647178
1.8077425893331551
0.4937552293223315
-0.4232548285459369
-2.052188456346579
0.328143044757544
0.41526731151459123
-1.0249568807550344
-0.7399819774954077
-1.130281015973408
0.9208221536438741
0.18634724749884937
1.5226765253824788
-1.084326499135089
-0.006222584294446085
-0.5055683753462474
-0.0663455967830912
0.24681369728992253
0.9284644920256392
-1.5651629687992445
-1.3050731047630157
-1.5407227350047499
0.6084084664388224
0.28016339813073254
-0.7498962841968867
0.4158195656828711
-1.0313936294720436
-0.7596159053241124
-0.11404421330226844
-0.2421135157496012
-1.6496005811015684
0.3425265520578421
-1.1744475245127066
-1.1056427676122624
1.5693445042294565
-0.1359078664119598
-1.4329472901139935
0.061586422716531544
0.18138031747365874
-1.1452410844601453
0.7012521516840495
-1.1523341603725006
0.9605784442879397
-0.2708358812141939
-2.195997627045336
-0.6721803958875878
-0.10422140492831397
-1.0443800295321517
-0.7969992030655808
-0.5572971182311447
-0.5137725535163198
0.7720320926769431
-1.145019592024446
-0.8855033624299895
0.45798683622052216
-0.5007732829230007
-1.0730770771888132
-0.8117983188624024
-1.1762511023515214
-1.8487003641195563
-0.5728682214506108
0.15938671804038565
-0.022469610025947658
0.7333746781594049
-0.5409995691823951
0.8518967036663632
1.611588850367161
0.872513902693435
-1.8270936658753834
-0.643134229654097
0.5851140883679922
-0.2522835861590713
-1.2326598492934702
0.2835631275213795
-0.9217257607009764
0.009913470735149617
-0.343781146963683
-0.6551065908100997
0.7108070434450484
0.39187689520125685
0.2649718274009625
0.38916988151164766
-0.3013422358849944
-1.7044539289341256
-0.5798177864746663
-0.5700980727359931
0.29578155991638694
-0.10102964622434922
-0.5780530875296976
-0.7116328983011575
-1.266251335136721
-0.6974532265744431
0.24692093471348764
0.24358975829046156
-0.8652452862737943
-0.6810926891439693
-0.19690236507698156
-0.6733274918228318
-0.6426296126794465
-0.8590962451148647
1.373373062188829
1.0556028027823914
-0.7153136762842328
0.40866026264538896
-0.9966677507264472
-1.1204210141737398
-0.651609844568612
-0.840642257523326
-1.1291692406712335
-0.9569444335729728
-1.1344256684313034
-0.2755019521194802
-1.4214111414640012
-1.2433879670077543
0.5250292481799583
0.574767023842419
0.15457078982793754
-0.8696117626682894
-1.4409163658576085
-0.6299937344159686
-1.2959352328303495
0.41473337466695803
1.287725584701163
0.7109550418165635
-1.9883448735523934
-1.08874160172604
-0.239566185880374
-1.374793658603861
1.2433238828223516
-0.4446524605787535
-0.5820282218177107
-0.7211569261709694
1.386932420203927
0.8447743476670668
0.4454716614290161
-0.8965788703683382
-0.002612180583104493
-0.25605932370735224
-0.4011728443565329
-2.413543942921971
-1.4638447376261927
-1.7753686834889935
0.3856428977077255
0.23616605635594487
0.4371121707834355
-0.45929395819128904
-0.45177442928497874
0.7319854106012345
0.30646255033039527
-0.4546740700122394
0.3867959788824124
0.946052889438901
-1.4498546844440707
-1.3093290114718459
0.24383813684748393
-1.3972525873081982
-2.4553620261677627
-1.4760867216542894
-0.03031527943685344
-1.2376341223622205
0.5643008150531431
0.9490506920597993
-1.3178749764700428
0.03709021720873628
0.9819479609911064
0.9447020668071973
-0.24443058467288295
-0.31566374561983424
0.3403829699808608
-0.9371047140737035
-0.5249448936980016
0.8041142342178876
-0.26600671613671445
-1.6407022146148686
1.2942441362314652
-0.46019199353847084
0.5716555966130176
1.2737659599277051
0.40440000704065826
-0.7920510613873696
-2.1533435090906976
-0.07969838526748486
-1.2344889829154009
-0.33167047298696034
0.40788744475383903
0.9047805020636963
0.5271063267810658
-2.178410182457015
-1.7103290733605827
-1.5536078608941766
0.2586420294468028
-0.38403738873422905
-1.4467404995747175
-0.4007824214774293
-0.46585013801908554
0.2119910774455159
-1.8013745865273119
-0.0005705215018791173
-0.9698432632534137
-1.728175840875526
-1.1871195420646365
-0.49452328503562565
1.0434856752859654
-1.1975066890325319
-0.6995429955968667
0.7240143999514476
-1.1684798617454344
-0.7876021765458233
-1.2541818696908618
-1.2096512674079731
-0.8079876031853397
-0.6941497188138023
1.6876258169661442
0.971591290211947
0.7401400089675397
-0.4988354780804445
0.8331129917449078
-1.265769193733514
-0.3859868298756241
-1.4803884602778399
0.7063572274654871
-0.6983575706567995
0.1608290327784666
-0.2299193084077667
-0.742271637574652
-0.23906925416065625
-0.8485567765620466
-1.4861419878119155
-0.5224995377719829
-0.41535004954011173
-1.8824944473251815
1.3959138970923182
-0.9880369784660302
-1.1001174173583723
2.0014466013084427
-0.32223765942350646
-1.2527780537136577
-1.4186795268525698
0.6219018049454919
-0.8193587007657375
0.4537777759849684
-1.0913318193012667
1.5736986173677407
-2.0633164845845164
-1.2924326389542726
-1.0027695884425518
0.9758701158490086
0.6608305832765292
0.46011961738645596
1.816311627123983
-1.7373269694388267
1.098269649686885
-0.5327673761100177
1.11566482080942
-2.923468631511106
-1.9545059261252948
0.5392701747675618
0.8894604945778491
0.00929310241117468
-0.940711466206706
1.073863844458305
-1.3456328216043316
-1.2573131990508342
1.4588860965342096
-1.1821640408618677
0.22381557370788788
-0.11401787926132882
-0.7655062950131506
-0.6296759459422304
-1.6636784874743717
-0.5354936965671852
-0.6124708129537637
-0.827496750599528
1.0174289637702338
-0.9786948975333415
1.4205044404069005
-1.9075074286386802
-0.280257735234979
-0.4195377822800657
-1.977406825388626
-1.1054654418759962
-1.5519257546610454
-0.8093474268588079
0.7669144068751761
2.963185276701123
-0.20992534367768476
-0.9627136850144312
-1.63050194004007
-2.2739336046651166
-0.5184962237824395
-0.6441689407686851
0.11108557158820456
0.4537990244914418
-0.9559055218874514
-0.3867721586114457
-0.5979389656919162
0.18072915164249928
-1.1797042152892054
-1.395193206406888
0.03551813221080767
-0.014524225032370604
-1.5207272970908738
1.0676275426162591
-0.8614619231450635
0.34434256093668875
-0.34886667446040337
-2.2889910568580203
-1.8139888340671992
-1.4469650477150902
2.4282811976732157
-0.8461601318301895
-1.7868607097690914
-0.25385926396958414
-0.5541341000817173
0.19008844013008427
-1.1417781464875814
1.3392071181628102
0.744736080245008
-0.6505294889496701
0.006136303785061593
-0.4967866557485303
-1.0931031468919314
0.17204575251012968
0.9849897936910509
-0.30998697453189894
-2.1602909929206953
1.0030332717768822
0.2189564499035763
-0.8789608478178391
-0.26361813577594917
1.0896145226437837
0.711537825856619
-0.2844233147215685
-1.166855343800569
-0.43675252474430826
-1.6576796743442574
0.14165128273180638
-0.02729864055326326
0.25092170681437515
-1.053922355151373
-1.6227992694680322
0.0530573560874098
1.0741119170803664
-1.5761504023137909
0.7399578963850122
0.22068175588866407
0.03851043403149657
-1.512599157492931
-1.2852803516798663
0.9274578561281471
-0.03968792816162913
1.0513860813371798
-0.8107749775239707
-2.2700304179498487
-0.5305744342836054
-0.7377076704615513
0.7082439404654558
-2.977479357420765
0.5841679497560763
-1.6231529943234555
1.1545669701991925
0.7328260968175656
0.4428784358688213
1.5779101970022604
-1.4592442722510408
0.8560343052136633
-0.19865515906471257
-1.1575955207753699
-2.012455789387862
-0.6357496692309113
-1.1461272852258921
-1.6970229238694026
-1.0102874824832506
-0.3820487965302895
-0.07784390423579579
-0.7738845572620464
-0.3955707570112129
-0.20568003067824167
0.24295847481130875
-0.5641442395518569
-0.00868728916798734
-0.786825597313564
-1.7515141275253558
-0.06520053746711077
-1.1641356214271608
-2.884895800121981
-0.7839109204606335
-0.19426147264010937
-1.0686260843218855
-1.153780398624641
-0.5581586804604449
-1.38999652715623
-0.5214150614519177
-0.5426506650911131
-0.5034047139085063
0.38331100388255324
2.2783160588123414
1.2305329726989067
2.073588205665876
-0.655308636959907
-1.714125766398875
-2.034896517977232
-0.6913471441794884
-1.7524865104405782
-1.1285927719246047
0.7903568439324857
0.037130080879567325
0.04007270173638081
0.20998762743139202
-1.7310137731294015
0.5834249495340333
-0.46199266445456877
0.8494012403620795
-0.1493612116109377
-1.5102673504464403
1.2324303846994717
-0.12255073139194372
0.33214257424579086
-0.37495016584712126
-0.2377744368884388
-0.23755512876327728
-2.546104039251036
0.8618027194468715
-2.907118681768553
1.0553660614247902
-1.4209782700585154
0.5054217140728945
-0.40047884123016037
1.8590247634659571
0.09106964853086902
-0.12578923795671268
1.8703667735979115
-2.179391005855103
-0.6251409162947956
-0.14368015868040723
-0.43095066503573826
0.0981162795528177
-0.2379058364628364
-0.13858927268605456
-0.6900045996693264
-0.6071133798183513
0.0032619703275443487
-0.9141721263949754
-0.989039541687646
1.6691851242681215
-1.1798538215311218
0.6930297040170708
-2.056716169989564
0.14247369593209436
-0.034659578358782736
-1.6415758020878013
-0.8296818923802946
0.621044196816151
0.6227675050454221
-0.8110453101614075
-1.0706673577786665
-1.0912264524385846
0.6178801981226045
-1.1598446604862542
-1.8216329506487066
0.6768787909136316
0.18721727853739484
0.5609224574147653
-0.670254083780398
1.6751291268436692
-1.0495051647464215
-1.6082774754240592
-1.2731716715514276
-0.4098177071963285
-1.0679371802228477
0.7560642412828295
-0.7328190624310071
-0.6999520111917277
-0.21552774002093217
0.4434467235000175
-0.6018094281248392
-1.2834169313379682
-0.9709180248238045
-1.7497612508600755
-1.4532461610926861
-0.572486948897244
-2.790919241417231
0.5678885930192292
0.5215468595697254
-1.8642399112878483
-0.8908329215141353
-0.551267218144046
0.13672609276412487
-0.5155150030714432
0.8751775574868502
-0.8851035792844733
0.4976321813255464
-1.0607054278196304
-0.9154494858241249
0.2602619473507249
1.2362647381575405
-0.8201897274453476
0.6400019155731291
-0.3102489569901673
1.0819475601694448
1.479691959331839
-0.7305337374953421
-0.005375870590963659
-0.7604513922370522
0.2798259338397078
1.4403388709662786
0.060320361395643445
-1.8977704449609256
0.06278405336675347
-0.1033146602752094
-0.14267260684474958
-1.1778284003921033
-0.658764871566963
-0.4167612772838318
-0.15559964572305743
-0.6645957734333623
-0.30707298912355196
0.19667199949943276
-1.4053958972406129
0.9445384164466799
-1.9251203713895226
-1.69269747119833
-2.2459458711292744
0.11991002209084027
-0.4984652442261501
-2.0115507956970333
-0.802283523306128
0.42689451721654836
1.4780726857712538
0.3964351151726602
-0.2549211924917386
-1.6469439695768977
0.8613914063121403
-0.5163811921054302
-1.453871670531605
-1.3944827427349387
-1.208763086957029
1.290701321075271
-0.5317895935487912
0.562259998653808
0.43888152656948864
-0.8342749343325638
0.7448443438570217
-0.21261382202821627
-1.9848363046635324
-0.6379530238810538
0.7794858485751854
-1.2768143572370905
0.45531544579016636
-0.9379129349160978
0.6397602050655294
-1.0226985308284011
0.16281927921651668
-1.4129220148735302
1.6680160652301035
-1.1914171200630188
0.2753075491096294
-0.6779513610719945
-0.7433441718325854
-0.8205399136766645
-0.2628987810862595
0.30430197786338814
-1.3702314136267209
0.008435202370239802
-0.7680493503912413
-1.3240313192956663
-1.3364654927678983
1.3692070547896222
0.6002741036302085
1.0133967459641395
0.7991213678101752
-1.3121283858616843
-0.6918442955143596
-0.632289817490946
-1.6927283865385672
-0.9859938920206562
-0.6283062041768017
-1.035919956168049
-2.6081969746753306
1.6654889753850532
-1.1443562547048647
0.3226061559380122
0.8367030976740218
-1.196356535903848
1.1561182350455594
-0.31039151573614077
-1.4823945396199893
-1.6398120212139773
-0.7140265371118151
-1.3043155133117885
0.3335656857783556
-0.828851943132499
-0.038077222484071395
0.838891338066544
-0.35783351670008845
0.030328000024396146
-0.3261356526954524
0.5110721279146162
-0.8262534393780806
-1.1145767847088732
-1.1208052412344227
-1.9699724408355381
1.3824561974438312
-0.2303650708196798
1.5179294205477933
-0.5763871295881844
-1.285277874076498
-2.069172998368867
0.39951179513406426
-2.503482424399896
-0.9451321456555142
-0.9056708447873459
0.5689449955250072
0.31688423776621055
0.6630637027960687
0.8142336747435037
-2.75828626924969
-0.23215247551496823
-0.566504043308578
-1.4217487700223126
2.083425911087639
-0.2579378354111271
-0.7725685470905094
-2.1447318528452985
-0.0007501145724215768
-0.5311964933312678
-0.6060946003761462
1.540657618692816
0.7726536449201072
-1.41053426662936
-0.6328983672166839
-0.6269147972821939
0.5975980169655205
0.753890196353861
-0.3706518872181861
-0.37538474519625753
0.9414030096061031
-0.3706251165465158
0.02370254992233296
0.6820367990680611
-1.418283163572119
-2.512061741420316
0.6595176794974543
-1.1818556896109615
0.3948907386543107
1.3465827857541992
-0.5975363721182445
-0.9489159674296846
-0.09231080543336292
-2.24104653372322
-2.719396987666346
0.2241825191428316
-1.4594507405116324
1.6453369451457802
-0.6291451006808216
-0.22893608514843589
1.3541744376487976
-0.06440358563513407
-1.4006759735267182
0.22293581472312457
-0.6377995910536771
-0.7799995600318854
0.6412373297929461
-1.08597259619929
-0.2327073103388033
1.5076424195387907
1.5334340173569234
-0.39708416568782046
-0.5855298567962551
-1.532965511746621
-1.6340991003763654
-0.8670461219859747
-0.4868897829969393
-1.8416514842122642
0.3628628896987907
1.866607559759428
-2.312183099419766
1.0434932123569378
-2.971474661783414
-0.24883924246759648
0.7898560789825828
-0.7090899894042363
-1.4695761179730038
-2.0030558288185305
-0.1857913048607687
0.005489282032158503
-0.5227489841331939
-1.2960729846581693
0.903172778089449
-0.6249410000961669
-1.780446908872279
0.17156134017425703
0.5535010904138279
-0.09736057858960477
-0.7626839938863711
-0.44671192855463465
0.009824661553449196
-0.027866803304395466
-0.42001962496524836
-0.2925807507732375
-0.22129181855001448
-0.939748069040117
1.295232263871254
-0.6192850574082758
-1.0933151188405856
0.8504247162462385
0.08203734985882688
-1.0841753978237774
0.9713061381069755
-0.8688649574199598
1.0515693830768365
0.7693644720330761
-0.033009360754240914
-0.37877253672025984
1.5289615639789373
-1.4039710854934124
-0.14794869300225463
-1.3045489083434982
-0.8118795327206164
-1.720132136370012
-0.1556999911201738
-0.43127112664268624
0.626914384680364
-0.17913608207907766
-0.6083532642385153
-1.552042657350568
0.9396522307312682
-1.8309627426181525
1.787570385984738
-1.8167347522850126
-0.6540058059233201
-0.8009576228222011
-1.0794072470899676
0.9152451750455824
-1.1848099542297583
1.0400969290764768
-1.275488293921289
-1.5846187730395396
0.14748844538067735
0.1699729279000734
-0.3105359908149032
-1.6105638482129636
0.012602380378015095
-0.677377195061977
-2.418938917927161
-0.8595576297205813
-0.005982472374011862
-0.8720787947898082
-0.7960877166123111
-0.9018676905595863
0.7680214836297762
0.016070037938048128
-1.2601435196818824
0.47777969550104804
0.9865795159090007
-0.86003847941221
-0.6225178376018398
-2.0232570331669595
0.021289685366661964
-0.6221496281637435
-1.0984560368357945
-0.6287723284915472
-0.3934691904167521
0.8912119496873679
-1.284208031767708
-0.06065863581238021
-1.8591612422282335
0.6299337548513743
-1.2059901331827267
-1.3362684736169967
-1.0377571894373003
-0.571112161095216
0.9767853193793913
0.6295889618273861
0.038968239156885645
0.27938533325725423
-1.552965347766507
-0.5368898355462919
0.11814535990214124
-1.2344463173460147
-1.4320244519063767
0.6957625634541627
-0.6511149708817348
0.10187412308635346
-0.39449967036804406
0.47283696068169
0.3652662912851189
1.0931544968773472
0.30458177528248903
-0.8286017721061715
-1.5816942347825649
0.9654480060014698
-0.4910608610516121
-1.2168301257168188
-1.2652264942372742
-0.16541876372727496
-1.5005502271343047
2.0539390465993783
0.8603983879602507
1.1624188285194126
-1.711399123438537
-0.5668972807820415
-0.6377622353926113
0.09642605198261642
-0.14151136759222055
-0.5861900932679187
1.6250283255691562
0.0053360891866981695
-0.7324952428865419
-1.0419526496252467
2.47580476240061
-1.9220663490575025
1.1742456094309075
-1.0327428609488836
0.06445000170349276
-0.6784827410520584
1.0486363350495227
-0.6308326458446502
-2.106637440760019
-0.22284423501671438
-0.6403027041282543
-0.1626649675305289
0.5495561111629017
0.805535747513453
-1.6188267949140158
-0.17046089392749794
-0.2708326826554713
-0.15786358500808623
1.537855429393072
-0.5774642634051173
-2.1989949970128513
-1.7791958043829639
1.2426747168362746
-1.777815145259622
-0.5152521153115169
-0.3259181331799733
0.8365805585517395
-0.7507378241629937
-0.9098269527113333
-1.485325912418332
-1.5955088039514629
0.6698255228838329
1.1846942675716028
-0.5288245490884728
0.10291436379044408
0.2782354002173158
1.698798724780542
-0.04470151808009763
0.4244144393202634
0.5945332989776071
-1.3547246951574063
-1.0769947788469532
-0.7819388119536458
-0.29677165859380306
-0.6029556243018673
-1.7514666643203185
-0.8641798730671902
-2.01697086937289
-1.9555068084341716
-0.9594646171245814
-1.0367142814768364
2.245927542679359
-0.6762945111431868
-0.1743958690068798
-0.26355942997354037
-1.5106752212821617
-2.6286295613666084
-0.034778921805355315
-0.003710762144548874
-0.5569727296406543
-0.8167060737463819
-1.9517427700495247
1.0963087384641577
-1.5294999931349134
0.05506316987266264
0.31137178037202257
0.8888552102749371
1.1175532270818547
-0.589054876113866
0.6318500981969671
-0.512907011879164
-0.6097650573933895
-0.5398638217238895
-0.5757583526370769
-0.8843674635240222
-1.1261132990739293
-1.3861525033176223
0.5230617753616748
0.6178546832768802
-1.6217935793926308
-1.369295304139574
0.5462785761251715
-1.0126660726787258
-2.0101480259775943
-0.1653718185340772
0.17897296656578257
-0.2095124212072952
-1.8860925188366824
-0.8849184715488343
-0.2423877830015177
0.2872958441960461
0.20969760953353742
0.867331886563438
0.7771390015442309
-0.46725713079304937
0.3100627017683015
0.004871502852625182
-0.8719656384423659
-0.9480982384784998
-1.148846349198005
0.41843932457530697
1.113550143556469
-1.195770602723506
0.19070960312510432
0.6419681481674805
-0.9577644944995494
-0.8647771566934072
-0.6660892473974616
-0.08690830060619197
0.45672821998172536
0.04882056922443136
0.404438729799627
-1.9595238493699954
-0.43367006845999917
0.43313490761596696
-0.6404383108915909
-1.1058248770737666
-1.6498159373843204
-1.1473879881414542
-0.004648142944064624
-0.5397492293117088
-1.2952571066584295
-1.421521126089955
-0.9723538740574473
-0.6543469567697688
0.6934210242907669
0.7814538683419596
-1.2258612015381603
-0.5685871267206949
-0.5547803045841808
0.6964171427177225
0.32513486116528956
-0.5572945795080329
-1.1063195700813757
-2.1297334940252033
-2.230722171372468
-2.092222963970683
1.1941619969662194
0.7498458822803813
-0.9015756772056019
-1.9566863265511223
-1.1220820984957096
-0.8543905779274913
-1.69708537455207
0.17160314357299242
-2.020807062255943
0.08348314014782966
-1.881978036196363
-1.3835896943151682
1.3273592434716392
-0.23599494729255477
0.7658212793830075
1.5915197777930212
1.0098735742303397
-1.0511853569798544
-0.7176917849052096
-2.2946854036545568
-0.0822443518494334
0.14928263972683364
0.6109382580314779
-1.992906817733842
-0.810943351977935
-1.2917473258056595
0.559693285397933
0.7237509244121304
0.9389595766504657
-1.2959930826959267
-0.8577926333108833
0.9770682133134493
0.6585963671963369
-2.115973276911792
0.8297281374320615
-1.7085781570290641
-0.0034062686887515225
-0.31551081113098184
-1.5300658581534574
1.7928798072740884
-0.13898098949938326
-0.48546790897955744
-0.10823082721011654
-0.0042006746656330215
-0.802962593219519
-0.8950585849639413
-2.033531033471251
-3.4257606164375587
-0.8194377253442017
-0.8109198298398784
-0.1806061934493118
-0.3955656444950731
-0.8476828180683783
-0.6775381202448758
-0.5454514771456607
-1.5173570209332512
-0.6615204238640575
-0.3315701107719462
0.6450892987689641
1.7419066806685792
-1.9625842489236944
1.0754529573037266
2.295467003620122
-0.9115781891263203
-1.8795414677921052
-1.0823941381496298
0.31583388456867567
-0.4366672708115383
0.36638295088612227
-2.7591094279043245
-0.3992080596485058
-0.5062110524478144
-0.908874484733775
0.37979884592360025
-0.4537607444425902
1.249294366398961
0.23856567825389483
2.7213743670000237
-0.006391263246303978
-0.5262965333915927
0.5521770304052627
0.6896492075909095
-1.5942943280474837
-1.5200398372951731
0.26017829080666505
0.822660106854649
1.4273887945648875
0.942281037274248
0.7345732475873195
-1.766774811148399
-1.1945232572395716
-1.5341818442682635
-2.3155898663170746
0.3655535771187463
-0.5006695310597068
-3.6178845622642197
-1.3000180673509951
1.2529624717540708
-0.6289801219959885
-1.0368898984911945
-1.4930908503741083
-0.44694048996595914
-0.7784749374953756
-1.297016816933455
-0.0092027106691078
-0.3387917890146798
-0.13535127518677656
-1.2857720138047075
-1.8591719002755953
-1.9169522203206049
0.3933789362537782
0.26615087698936246
0.31182055529580194
-0.721615959891356
-0.4270192097097383
1.176076617155716
-1.531789316694279
-0.4314110000497333
-1.0323861189999914
0.40201860365264563
0.14577662593886714
-0.8291730548031567
-0.8324530377895989
1.2903492654997533
-0.11828652293243834
-0.6046833122049148
-0.7356520259545499
0.961591060513604
0.18536303955013636
1.1287574765524864
-0.03322253770207275
-0.15794385108963213
-0.8056775192669897
-1.206542255617678
0.13470156375170117
-0.27491043390633746
-1.724788396831649
-0.5778715486031276
1.5469951360532577
-1.0047609438049379
-0.37163738947850766
-2.1204274122209337
1.171389995595836
-1.537032549405858
-0.5512871868122518
-1.841526982707966
-2.0174957875825608
1.1743205655942663
0.5116517915340149
-1.0433733215141754
-0.17645019619061433
-0.6521059698810809
-0.25067126242256854
0.2170790908655897
0.4493980451653115
1.1598753581191719
1.0174801290537294
-0.990072041365564
0.13435068514531748
-0.28388882641923946
-0.5746524373320769
-1.3165266168429852
-0.7243283289353475
-0.06383310034495124
0.3194337348536665
0.009403583583116092
-0.5847359030239618
-0.7576785843328597
-2.4213842609317355
0.22091595495367844
1.2939946508117532
1.1237941982208626
0.36151415015445026
-1.1771397089466242
-0.6812378812052998
-0.4417805468245851
-0.9354539390612319
0.6233378105225879
-0.4570369164988738
-0.891636811994931
0.24730388155658714
-1.6788338893054486
0.9153785388400703
0.3419897359180281
-2.7409061309292753
-1.1347135577126781
-1.5708818831016123
-0.7684901077404912
-1.730018095174822
-1.0018295744515289
0.15969878061128348
-1.712643382676769
0.42508981929412354
-0.8035609607165713
-0.8119698055716474
0.5303049169049866
-0.28786700142721866
-1.4846931946570683
-0.31954530094794575
1.4858667444056395
0.7884881948336359
-0.6495336168103996
0.20217021468619858
0.08971689761023487
-0.3794635923464745
0.8033652422868781
0.870618522372155
0.5727011131217247
1.2097222625887718
0.621883750267197
-1.6332652511066188
-0.3122570214044012
-0.6570589077020282
-2.274597108351209
-1.29446222530681
-0.10416433123016328
-2.377114557037199
-1.7539574945959884
-1.0314602899950793
0.4674901831014332
-0.2928517683121403
-0.7203443170745135
-1.0132787757253179
-0.5027728054787972
-0.0976707880048536
-1.850724080359534
-0.0048259247824347365
-0.48207192070216315
-0.7425398293679899
-1.7055403165995524
-1.8484974495098652
0.527212674967977
-0.38672011004624224
0.44176021233415114
-2.2751092314473533
0.029658818173589348
-0.34102527044018266
-0.5265236820145989
-1.0773691179173788
-0.32857507670366337
-0.9726155154718944
-0.1575532280158812
0.07245001117341451
0.044793540097309965
-0.8734359895999172
0.799893574972965
0.5590815385123942
-1.925177690861643
-1.2802671785676647
0.4319356080634138
-0.9620832227376194
-1.77859520476054
0.05672530326036965
0.6270988292843183
-1.2345895763115264
-1.6408806653894152
-1.5671046091651568
-0.17124729281438184
0.17763303192299912
0.6349846966530469
-0.26666149523604304
-1.5655124841606896
-0.07170421213668275
-1.732837850177021
0.9714344617399882
-0.9986415799806115
-0.3260215948348162
-0.9505077397282127
-1.504368395342871
-1.4510064261789868
-1.1734873509279038
-0.7020579769910251
0.3924943437875001
-0.8039921234657098
0.9002894681172304
-1.519672094125773
0.719445171210722
2.63989155786951
-0.16733335395867022
0.15140298942321948
-2.4809302210149506
-0.1921698836136882
0.790220634751862
1.6072237992310654
0.203842953001569
1.1006335461655703
1.1698021100443483
-0.007256164448253461
-0.4518939108254181
0.7183113560452523
-1.6955396540696088
-1.3267454597933326
-1.9745234832773046
-1.7376853734162803
0.18125004661989302
0.35643655423184506
-0.9457241504352567
-0.19551577408848647
-1.3648072559424658
0.7795078667439407
-0.1925976261187501
-1.3244551327560237
0.16544517781767265
-1.7575619827093025
0.7854644118724725
1.1041046139481219
1.5465749959293826
1.3634324648026663
0.8628555960094467
-0.8430703929288841
-0.6314231323448677
-0.10587733796198821
-1.7325448314909884
-1.004804920075147
0.14269241228714136
-1.3733562010469962
0.13124107730553825
-1.1184949309713321
-0.06023230270840964
1.2998051688987762
0.7900588741537788
-1.3035377282659522
0.6301872591458156
-0.7581348852245703
0.19190562213672807
-0.7152698190390037
-1.7742518451224203
1.044183645135034
0.19081426523692468
-0.19704308678494795
-0.9650057828230703
-1.3575060994629877
-0.9227717421680408
0.2842746900800493
-0.7381177807572953
-0.292277914132128
-1.506407527012641
-0.3454053102023612
-0.7140059623612643
-1.2242651844288193
-2.014533173729231
0.6388098496833831
-0.13534907534401308
-1.3864223375392895
-0.25795667166690567
0.5614300187291991
-0.4920472582061019
0.7484325084810217
0.0020089353097633173
-0.6979886361496963
-0.6420129677777906
-2.5898505333514112
-1.2118373194282934
-0.03948405180339092
-0.9117842488740366
0.4824746570234299
0.8303012225733736
-2.437549704379213
-0.609685653078681
1.2165563353262225
-1.951399136377229
-0.6158124810489708
-0.32513815524266915
-0.2674605219419045
0.38371305952956875
0.6059130003486224
-1.3737814160303181
-0.35464951042829845
0.4635785206676305
0.8071285449740263
-0.7226291566856027
-1.1047402214961153
-1.1833478977623269
-2.180466564264086
0.04439390363993085
0.5131812092261273
-0.5798614926961863
-1.7045967213640802
-0.9904692476328073
-0.4145054032329232
-2.137073015076928
0.010687180259911356
2.0906083669169395
1.2266383154654952
-0.544282598293093
1.5278672301407292
0.4943730537279881
-0.5329919247585201
0.2115905423273678
0.7188302156100311
0.19903807525129202
-1.5950551764384748
-1.1087956275759443
-1.0278594203068796
-1.4349171541798287
-1.0290945996560505
0.9676575396351164
-0.6326748102440498
1.2202579578536665
-2.3134109849765214
-0.9337018686428015
0.45895810321090325
-1.5284484809036598
-0.5565236301584593
0.882050627766281
-0.14955553895954887
-1.9918693526248599
-0.08110887082789875
0.5834010253557352
0.006015910246851724
-0.40156278905798465
0.795864046278173
-1.2686341077710241
-0.6256385273407885
-2.2295648991688553
-1.4985042067266574
-0.11865571944502196
-1.304305249155224
-1.9675840168830645
-0.4127053834558261
-0.548584701531841
1.32438040009279
-0.41904082897173023
-0.7766809387317275
0.9114827844887803
-1.5183473978485187
-0.9541259720740521
-0.30431789594027264
-0.8612097877722461
-0.7871887566249623
-1.4422651205576091
0.2145613591618766
-1.9198375038960747
0.7043931410033759
0.5438899439955915
-1.6914704355802195
-0.026745112857934523
-1.0244037457180688
-0.4726227185721741
0.5057280288213298
-0.243511221698125
0.5423970682249876
-0.29454804640999155
-1.542331466019039
-0.12030902876936585
-0.676231636544182
0.9170544170920741
1.1732788699310441
0.742461862581813
-1.2760596091046077
-1.2904813074645614
-1.2080402130657113
1.0101059636635792
0.8970072262276413
1.5579019085856751
0.4363598148286821
-0.7084833545372365
-2.0938104343859347
0.38750057112809094
-0.24835348073302732
1.0342643569514818
1.8592151484972719
-1.0865909895535064
0.7023132520102745
-0.5004081364090471
-2.0863449970722607
-1.6815743492803654
-1.8363618104666608
-0.7198587395475384
0.48535394644663493
0.00196855244213575
-0.8178174939057856
-0.7911670096194561
-2.4793862681520435
-1.5156124560743474
-1.3811310918954636
-1.2964937127946206
0.15597578331304512
-0.6919421843069082
1.8533200560591505
-0.6202831342694263
-0.7900114596353847
0.48921301456206445
-0.6303479385238153
-0.818699948070341
0.010457870945000064
-0.23103063187813191
-1.5610764459417894
-1.3509100643623848
0.5500911732735626
-1.8999194781438011
0.31253820912449853
-0.9385425284569594
-0.04914087047942719
-1.1007234847505392
-1.4851137075388696
-1.428312961931438
-0.11850145927047245
-1.2279797296037347
1.3928548945578334
-0.640458899652404
-0.5193606806498651
0.8220567804150082
0.9074186344854954
-1.4046564521326994
0.8011440179839602
-0.8690424031030674
0.5380041019089793
0.21003089320764606
0.5476769246496352
-0.865156060051432
-1.470408561231968
0.8805094592373226
-1.2743342786308103
-0.49891542893016055
1.2795472411253097
0.030003247825666296
-1.049163415111516
1.304556433414403
-0.05431437410069581
-0.3949211802506093
0.5320186293405152
0.3740549205583037
-1.5324375197022888
-1.1783529834839963
-0.6071324155012482
1.0849825971266014
-0.8662780073214985
-1.2095555651983838
0.13109961806127343
-0.24329536349137096
0.002367365228890672
-0.7192593891052393
-0.32193101162918386
-1.075098220201508
0.40663870011947745
0.6972299395084007
-0.6120525254250546
0.2775032466838004
0.7105428654502267
-0.7412876126750721
-0.7143634462278722
-1.0763587809314574
0.6694887146977428
-0.7036505754303445
-0.5681150882572734
0.2740848132709468
-1.189681077792911
-0.9908390748927701
0.470396727425798
0.28448475867204515
-0.32798797510898603
-1.496129282010095
0.26551199777902273
-0.6418825410185434
-0.37494982527994775
1.2237136591344138
-0.8810388263205761
0.14509187718087233
-0.6644419995205506
-1.4824178479561558
-1.5735850408068437
-0.6196638504250098
0.5104903145623999
0.375698418209355
0.3128102098076323
0.5457969867562886
-0.5069592343857178
-1.5314698226655403
0.7130966767756562
0.2630812571917772
0.483659637534287
-0.17586752511270995
0.28983640851005393
1.6526010035957437
-1.5323568788676607
0.27979569464292514
0.5900953817122775
-1.2289134182790011
-1.5536786427446658
-0.9826472676830326
0.0036748334039548324
-1.6342773948228277
-1.5248796064171972
1.317679708913727
-1.9459531935703838
-0.6302493791343896
-0.9419336424366861
-0.22335480617918593
0.5202335522508615
-1.9072166496525251
0.37269537220547694
0.0014709349102713584
-0.6970749094017692
-0.29624432204583334
-1.6497636685575015
0.4225312966290544
-1.560175613126521
-1.246730079437263
0.3591032678038616
0.5126229562475054
-1.1545428410061802
-0.6625345631080574
0.41365239621115557
0.31956362413415196
-0.6699136985157761
-0.6036460300312925
0.05362630459181391
-1.2405132701007378
-1.3851847578772687
-1.321448916085276
-1.1788191289462706
0.8982573961853778
0.12960775568813765
-0.6395001902842885
-0.3369496619473971
-0.7779893872791422
-1.3031070676800156
-0.496073028816025
0.3765554801983581
-1.4543807234299273
1.185047727219732
-0.9681134563899803
-0.3245666993831012
-0.18459217539909922
0.1541101345544372
-1.1957694709207538
0.4815106321144541
-0.7747520387158632
-0.9453342235619311
0.8305487329354534
0.5955191215991155
0.8872744051626369
-1.4230327300459382
-1.4190655783784882
-1.1056353495389162
-0.7075043751730369
0.4817353481485504
0.8728505006613049
-0.709368279856954
-1.6389353728086866
0.7047354804307246
0.12753642130355697
-2.5121243794224677
0.5660234788964085
1.1928617709222544
-1.9194713033929531
-0.3987360263386368
-1.5018508387912808
-0.047831698617927736
-1.6912440764900876
1.103683111007907
-0.13411230776129895
0.006604520187032404
-0.7020866982872184
-0.06964068780510273
0.3931107433821732
-1.3620009877554122
-0.7973117604270974
-1.5867946985894266
0.3711812243776824
0.5430344808145022
1.086877369008615
-0.655791536249907
0.07191241512272736
0.2880379167394198
-0.6546856361396477
-0.6977247643777352
-0.2312590581593572
-0.7085545011809835
0.8732915935423832
-1.0857340800631738
-1.0316768488424268
1.2228758153200165
0.6774145137815196
-0.878400498097752
0.6638928915852973
-0.4814630164472366
-2.181658740745296
0.5997853970968464
0.06898715694112831
-1.455664591680496
0.5899632379744569
1.0732869953768966
-0.6738792777082364
-1.5135569965871472
-1.7412528394119742
-0.9197300328916587
0.6367702238873093
-0.6769488776951655
-0.07370092632386502
0.5767507232111343
-1.2758387931279322
-1.2406334125718939
-1.8492464974677818
-2.243083982074915
-0.08328735102839148
-0.5799171291509763
-1.9219730921807852
0.364537305628782
-1.187602600347244
-0.05942824795992086
0.5064353217068478
0.03711547382793469
0.6492086707488884
0.9500249916180012
-1.756983764476672
1.013215746694695
-0.5811335635537294
0.11470553701910051
-0.689401349154719
-1.095019420139716
-0.17678164821201217
-0.7401144442880183
0.0023810604627305092
-0.4095526322859403
-0.9938535724584017
1.8118039557866232
0.06728165109150742
-1.149341895164389
0.6559132330625106
0.03232032487947648
0.8878553048111689
-1.464976535338447
-0.3993970814080157
-1.1312264706836346
0.45500853671560165
-0.3909941816659964
-0.9407396305304396
0.886044428546942
-1.7812689310794754
0.4809265543559338
-1.5731920172260072
-1.3812571816803085
1.254225878761448
-2.815887717197532
-0.8209340595046588
-1.9219666260626092
-0.7796175637510524
0.30878621150339824
1.2031825419320668
0.009082685439181252
0.4402732663910392
-2.4788446557690627
-0.9757951741803484
-0.29884050214104974
0.3124132814355592
-0.2286146270493105
-0.8879076059141586
0.8693307403888115
-0.29350130710316624
-1.493536783777809
0.5619187783187848
0.163407839980504
-1.2683217960730584
-1.769794637402008
0.6264627599102314
-1.35094846076028
-1.2250987364743247
-1.3372694766160653
-0.010811831530285724
-0.391456262409704
0.37356854194217576
0.09395016299136731
0.19590855862858192
-1.0682597656961446
-0.6221313709674186
0.21412651427445586
-1.2925832756397277
-0.44263979879795823
1.123263419328136
0.3284729124558071
-1.2164243958232934
0.7623589585495375
-0.23901925976875127
-0.004411545053955808
-0.29619792239198944
-0.21051099069841617
-0.1864181361797283
-0.19701666918803665
-0.20933693254425265
-0.20788487083810725
-0.24710122471740978
-0.16960351009002686
-0.17868005877561785
-0.3389075964531375
-0.21683562394565056
-0.2171626815053869
-0.33770846555954404
-0.23323256524632266
-0.2561845263847461
-0.2293035409658707
-0.20176019592653144
-0.1945420508075323
-0.23047131839734622
-0.19065274689112743
-0.23394810137121125
-0.16626926258509897
-0.187301169190712
-0.205870479717209
-0.2033937003093834
-0.18571612930573775
-0.22791378266433024
-0.20520412353295156
-0.2390365019912067
-0.1893679804934823
-0.33695546640134744
-0.24904248478739016
-0.24300994103130535
-0.18742231739837936
-0.21569296029571383
-0.3011483044241188
-0.1921754051638607
-0.2581881451454733
-0.18775738212765697
-0.21858324236240376
-0.22641926510072427
-0.21420490021438365
-0.16565988940025872
-0.22158308570172008
-0.2194400865251042
-0.2041509806089784
-0.16982046769152753
-0.19967437451336606
-0.23213856156132323
-0.22195937755936315
-0.23255542706955012
-0.19376307597941075
-0.19674946972093277
-0.23155552905899204
-0.3407248026446096
-0.19833231924558758
-0.22731453124630382
-0.22224998625890144
-0.2476372894265574
0.027840908033106928
0.009727609319830416
0.015911457555882715
0.07764199707263876
0.02903222698768111
-0.19242461371187936
-0.051028584834899755
-0.046606883613314096
-0.2397489501977673
-0.3339734724946737
-0.1885282487987973
0.04834648047563622
0.6909757881714548
0.17144433234685758
0.13427774574319254
0.01953200800309144
0.0472595511039477
0.043544087970162834
0.092428541476037
0.06134053201700968
0.03370950298225804
-0.027600211362178655
0.0665956516578271
0.08413046388812441
-0.20925086974241636
-0.42038497093566896
-0.3501393198760857
0.09850447157741787
0.019505445787541723
-0.4084613400611722
-0.20608677841052683
0.45792700852550355
0.7537763263170688
0.3193169605502005
0.7681523566250066
0.17656094702583028
0.2508091021586903
0.24104217152233393
0.19984959588875933
0.02806528153390904
0.009072338219673196
-0.02604125497650712
-0.024684156829423015
-0.02410860504368798
0.23997912173436373
0.2252952112586632
0.26718940954243003
0.4668461474901203
0.3977689305645946
0.29254663855479734
0.7185608350267102
0.6400620206183383
0.05867558947399469
-0.4409791778938199
0.029889526686985433
0.48307381454178866
0.38571706281481877
0.3542773792136776
0.03053725491751034
0.012775958446226757
-0.02153831483796528
-0.006709365416524606
0.006639906618590739
0.018057187621068487
0.24795229732830096
0.31930902035443315
0.6739152839152067
0.7271238449794103
0.5785936264016439
0.4942087473898158
-0.9365802608964385
-0.23319982323507918
-0.3994655931566474
-0.15559485340347223
0.11832089927960865
0.3470140615489974
0.536907713515058
0.22761763051352044
0.02694340698747487
-0.011986606186448555
0.04826161931477592
-0.000926875265447486
-0.03683491683287069
0.04370567333233826
0.135913927894138
0.49126061680510075
0.4241113750989043
0.5706290067264312
0.14305803606601883
-0.016290033451503552
-2.419268399544248
-1.5264615754851905
0.41630714026527676
-0.11963173452246262
0.5063911636423817
0.039426171226682724
0.2582083174193212
0.11416283938549758
-0.0991372799879675
-0.060094000187053666
-0.02975060179362208
0.011127894878292731
0.039704194969660996
-0.07320318172548054
-0.033613252887714676
0.3004642632894463
0.2068302383229927
0.045150680811843015
-0.04285511217936345
0.7174026754614345
0.4498336216629113
0.4351663490090516
0.8812206387102662
0.416438185203509
-0.7593188231423025
-0.4003085872271899
-0.056519178114830114
-0.18758366242960056
-0.08620008210008195
-0.05500258040942151
-0.047906131711639974
0.004172590984386152
0.09681772236722001
-0.02037132019469611
-0.014628103107711314
-0.03921229449867679
0.5327312982680291
0.26146342356639873
0.5821959200781572
0.5594371429921898
0.5431297391051698
0.5274284432326068
0.1847973463439052
0.07952230287622451
0.009322326999358237
-0.5336733327424954
-0.3830775777473423
-0.3477432784290913
-0.22277469831713265
-0.06865570393948622
-0.07021475814815156
0.08911509736978383
0.08801320476556432
0.09682740702918997
0.14730457480757425
0.2439827676721367
-0.03663067908699762
0.41561180268705983
0.35480020080535024
-0.27791753094444505
0.7381057385164717
0.7602492046654838
0.29008614162465374
0.3259334605547829
0.24161528153097478
-0.06338617513901128
-0.08661069150643912
-0.6029231841773217
-0.21043619092656088
-0.11749151781420022
0.001732351644590761
0.09168941433670003
0.11815931872636613
0.14437807522630383
0.03195959484083302
0.20562497574409808
-0.27147997087928494
-0.625690707710544
-0.20256321679153722
-0.7226114096371358
0.6989875142750599
0.4798123113655915
0.7760662336492083
0.21215199926918138
0.7593800653783116
-0.0881844932175198
-0.2115185042178561
-0.37465795817146347
-0.17381390011111547
-0.1363153950784845
0.016684061704919647
0.10096082401229087
0.13046069198140062
0.14654732369478682
0.05055200237380012
0.11806447945847615
-0.6658066669797003
-0.7989311030842973
-0.31825675965990424
-0.46788642320530416
0.17774912510766863
0.40329003945274133
0.29959054723965706
0.4684360711613719
0.42074896720778726
0.40805785496113306
0.13348826637233993
-0.34856265082759924
-0.0942481273574037
-0.1491266198728832
0.016197831579295118
0.08625056065827844
0.12671734751319189
0.12679414517271728
0.04070533737581814
0.045852027799892385
-0.42677040108236636
-0.5859785020284809
0.03254239986876647
0.057704710117038184
0.17475790827174242
-0.3575320504728412
-0.1972293478183077
0.5101749232849052
0.6230350508934691
0.14780681888231348
-0.22284302156044494
-0.15459418939895103
-0.10368598518721162
-0.12669842060955172
0.02217135119984001
0.0798935008701224
0.12372453599593214
0.18065507504040748
0.12220835376146066
0.0683018347084342
-0.3115596265804732
0.09459671259088087
0.5725512519198247
-0.01410355295833786
0.19115748269828417
-0.9358371412024233
-0.471681456702531
-0.18299532466164942
-0.24032457419674239
-0.13901324823734024
0.11576610792817137
0.004712308560419323
-0.0491520526511781
-0.11277904669549996
0.009023621060009819
0.08971639758119254
0.12420078590462826
0.0847524894045043
0.17423447560560962
0.14573789448082836
-0.38836182868387753
0.072526341717084
0.2086813617929354
-0.45743803569698555
-0.02183621742307806
-0.7279355055915451
-0.7834086470325056
-0.7576005179285543
-0.22690192828423705
-0.35528103529131994
0.2933311784492727
-0.030017072756317105
0.04942192953809135
-0.13871192177022967
-0.039145854241613876
0.06168191943133594
0.0944522333226667
-0.01824978428014721
0.2425699769385211
0.004076803475773228
0.21933884455310754
-0.0006055676310857767
0.12700454272443323
0.0001943037541172136
-0.6042671599662218
-0.7387063017242073
-0.19028835226447774
-0.7865298232582943
-0.3316589857261279
-0.4455604681119895
0.40882266272664963
-0.054894991760260047
-0.06333256368623472
-0.03699052102226418
-0.04080751361207871
0.039780236857534707
0.06884211132166682
-0.16259990999640356
-0.2579278216743807
-0.06426966873754701
0.2595799490143412
0.38396686235397476
-0.05070270790513151
0.4298101328708548
0.10141349216525013
-0.1352398726665151
-0.044976516574580766
-0.6188507472731068
-0.03447424025753481
-0.8602626535899625
-0.20804455013033585
-0.11172710624968937
-0.08339452068105517
-0.007767066347965842
-0.039627640406365364
0.02386567313395545
0.01753971899710736
-0.11397479090324832
-0.21909295820245547
-0.30477386314665156
0.1480761654619376
0.8081997183115791
0.4846468032400933
0.281050532218987
-0.10525082712932311
-0.5326740227277811
-0.6630797994067658
-0.47419486978887276
0.20295784032209163
-0.13812696933276183
-0.23177755729822064
-0.47593341197757527
-0.09369600762290055
0.0001558009596310841
-0.024665308420839284
0.017153740129979334
-0.08394299202672609
-0.04260075420616522
-0.07786378639582546
0.11715131848751624
0.06956817576624247
0.2747736554783281
0.7984568588904952
0.26031788933235284
-0.369748236986171
-0.4880796125073297
-0.5881363589945653
0.05907076987085834
0.25534809903903266
0.12489563834964253
0.05776712795575399
-0.1860924265161138
0.04762575328353661
-0.009554427476011769
-0.04444345387918436
0.020877668415503595
-0.03952832237123472
-0.09837791441721393
-0.1488792363908225
0.07399454378983031
0.08459443965251769
0.22769534825736268
0.2375934842238894
0.28911548226638123
-0.24626411801307552
-0.29792877394389017
0.04440238828403015
-0.19183646005525198
-0.4158608428349148
-0.3174714733149248
-0.09650654450803423
-0.275606992867717
-0.07568326298213178
0.02994224859076664
0.05087069621021846
0.03265912579349625
0.03578316539918081
0.024183222961483113
0.04037779334351669
0.03304787418791754
-0.008971120128816424
0.3869105362017344
0.21361651285926356
0.17740179707044904
-0.1266943857720038
-0.3316932538257901
-0.22468621253771442
-0.1891160644705869
-0.46977889546053564
-0.6048501368344144
-0.6614670346885577
-0.49890509856955073
-0.22340795831787963
-0.1412041799564423
0.04534406822281464
0.03461732857178816
0.05265698810044007
0.12418885112513887
0.17045138176899113
0.2520763155517243
0.2940751721010127
0.5565187986300275
0.38818456765549464
0.21652442062581234
0.006791214493113952
0.15401533087669705
0.061225514411592165
-0.16999041522711414
-0.8488771756821016
-0.7893656708250298
-0.4417433394821985
-0.28916342103489456
-0.2678618686749459
-0.15598807321936914
0.029074291959971407
0.07674937150971647
-0.003986296497139525
0.06626817939589073
0.053985528925064696
0.05127961030547406
0.06164864015591012
0.0617058728099624
0.053609664419247076
0.028505178332174842
0.002637477332473952
-0.020943095893672808
-0.06027546243106302
-0.01904188807360526
0.00703706892054586
0.02906215362053416
0.033923583858325744
0.0759015130037106
0.05384518554406558
0.0486033502894286
0.07244423821171701
0.08598884601318255
0.05837769014000264
0.040856798412998
0.011254181702667503
0.031205990875677773
0.10947773791293636
0.16809412075859095
0.16151640430851513
0.04777846512258887
0.06807461886445909
-0.004844176078722966
0.017296439892582758
0.06995198367199858
0.09727270129338059
0.18676409153604023
0.15636765456744486
0.12385285048805147
0.03875793339909634
0.042816275548465114
0.05359842438160337
0.06960246415134873
0.06284081786414054
0.04283234796811589
0.03820236658102589
0.05819713383248406
0.07136265495663366
0.07197268139378954
0.04291167220424408
0.04422961638001343
0.017362884872178685
-0.0037047840879083885
0.004846531006214288
0.0423522766285763
0.05071977249362477
0.044195175941927546
0.04512148028977958
0.09204961014425492
0.05712282142051948
0.040242779903487264
0.04866804792429964
0.072015534263775
0.06422484295989549
0.06059923112510972
0.04383328623725695
0.07153140982923659
0.05121968084264672
0.07186827284198154
0.03293188554328487
0.011886235159234157
-0.0012518766467058996
0.009932939583948093
0.06997757307320464
0.05629421668580657
0.02580870712416095
-0.035672801552708244
-0.03683242289771812
0.056758147158574246
0.07121394122864481
0.023109300281248895
0.0382143145864519
0.07189655467354165
0.07951887373080128
0.06704869580097356
0.016609418981800152
0.06069462506999259
0.07101225300383102
0.08733318097288895
0.02322382170204244
-0.004955725604783041
0.03375539744476547
0.06968270612524093
0.12063078072076366
0.04374868908931713
0.0067945092287680165
-0.06034302914726421
-0.035475188067170496
0.04607372987745661
0.06818691509738439
0.01578551013843776
0.026717978477856043
0.056768826301236454
0.06643476032814608
0.041124108789731974
0.014182364587428397
-0.005615972005651185
0.01857134670144606
0.005133332924396619
-0.07784597392696775
-0.019581626893758544
0.11173771621538112
0.13847316404017462
0.1512826737988762
0.07119326522441986
0.0274013333434368
-0.05805070005310089
-0.0600413327444646
-0.00760265720864449
-0.0013365818199686885
-0.006277789938975546
0.028457970818727158
0.06495251341955417
0.07140312460841629
0.05223961424682637
0.006131755790056622
-0.002651738332424625
0.0004521544374301106
-0.00777493290088067
-0.07346774280704464
-0.013513597237780608
0.09344668646485685
0.06532649922307966
0.02239157807127248
-0.04830037341714929
0.03262473291687033
-0.00865506666672483
-0.009780875280516107
-0.031885196722643935
-0.01819476665024236
-0.013657735884962613
0.04237145476587692
0.06257516054262154
0.06788299146350817
0.04969563016826734
0.01754462805446776
-0.0005369761603023276
-0.00011847938880891432
0.10650167277344821
0.007714777595523854
0.09125486693786537
0.025171234675801187
0.02566356010981446
0.005691559271827405
-0.05550614542013472
0.008619989705721294
0.04242634032436405
0.04869599924170974
-0.00727738671654033
-0.03665715070706723
-0.0027672313906211723
0.041538607875970884
0.05873139901910425
0.06206099558400077
0.04302599630846319
0.037940111901357834
0.031045275753339905
0.05369108852957527
0.1518910425857446
0.11947414664997807
0.10371941069391413
0.026348840637701227
-0.0045560741518589
-0.013009831452792454
-0.07412797805557168
0.02432675344989005
-0.00930235218352035
0.030544243069605365
-0.013507060171256404
-0.04089228695337626
-0.007782840698748397
0.03217221380613709
0.06495261715849569
0.06734206662835927
0.046765335491573586
0.044096379848575104
0.035172484712570264
0.05689000558520088
0.175575534669697
0.16165883521402655
0.11032255218178628
0.0207258907306163
0.029797101787802812
-0.007533411529262058
-0.06875056867449544
-0.10194377619832382
-0.07405805723760304
-0.008917273867642326
-0.025965929528011234
-0.032430867503518764
0.003907031607402459
0.05091138147563947
0.07871647965504591
0.06888191983237314
0.047991955003039585
0.04798042011982913
0.03176387275751579
0.057960566256836966
0.1541457944701605
0.08271454909981278
-0.005130698253239902
-0.05315758589791006
-0.016504382641187355
0.03241892369951262
0.002060242997450462
-0.07375693979019941
-0.08659062868868936
-0.0485275164595509
-0.06076352228200906
-0.0214655093818811
0.0050007841146606944
0.03633189094165753
0.05953512805263243
0.06882837754715754
0.05593879133721891
0.03658801952902624
0.037801286458076754
0.0501495849815541
0.10757875010262549
0.009461975429466423
-0.1108951087560394
-0.13835433555160687
-0.024693843157420497
0.044056050565216234
-0.0026030333917202273
-0.034160509195560324
-0.11264946486698528
-0.07938733471865021
-0.047918887667647084
-0.012446487576187585
0.011122999819647587
0.035641579180141186
0.06483191551832154
0.062350940317510394
0.0552587073755042
0.047123121054781704
0.04374980285416707
0.04208037358570408
0.11182330848470122
-0.02756691359249747
-0.04577860896140971
-0.04810856473969114
-0.04104229670721478
-0.008454505373090023
-0.042731270074547335
-0.01757013609358483
-0.06252555710611751
-0.06243059248268392
-0.02334009054977617
0.0016940764211353632
0.01667311526112815
0.04050909753517395
0.054192734278183934
0.0681603992605211
0.057478641716961036
0.040618260662613835
0.03935598145232755
0.017847650803109766
0.05749851463854409
-0.00965770493391368
-0.008258961444268326
0.015191462216195679
0.012404587482797078
0.03561790901164581
-0.005203440792933131
-0.0272370984786897
-0.02529317050852649
-0.0007950244401296999
-0.0028442635615677173
0.03564154080241371
0.008713654614020853
0.03998282824687604
0.06412523566164709
0.06665998794525835
0.0503780800467859
0.01937208433378505
0.01365329797712465
0.005087787788780954
-0.021311660610505698
-0.06612268130642412
-0.020811829047901766
0.05588333278742464
-0.0009690407631538766
-0.01759432682914435
0.019350418123155792
0.01749279132079627
-0.01781496675493592
-0.010668094970534843
-0.003682399867090411
0.019384023360015806
0.02094666159427085
0.034114229193414364
0.05415622532929091
0.06970525956664711
0.038566094874179994
0.023092871708598067
-0.006248208895898203
-0.025616983179043533
-0.04496259300620504
-0.10951917690804376
-0.07275613113273932
0.004330578937528882
-0.0064012341739264145
0.016991538130752496
0.08969104687888034
0.011735641039780483
-0.0955324338763846
-0.07177769147856065
-0.00633673029095514
0.032372469184861086
0.006203263205299793
0.036487040835743396
0.054635942281309566
0.0684739557278865
0.0553608647030159
0.04359187861039488
0.038330353913201505
0.026305837592528473
-0.02141426034290441
-0.03383385141869831
-0.022674822851492547
0.01970096959582333
0.01039939587036547
0.025847164161909453
0.07729800100252346
0.02407454683830858
-0.014898968415711507
0.011881784856345902
0.03744287790299967
0.046509363612428765
0.03596648767718385
0.055316125479291614
0.056725127129390686
0.0827757526837713
0.06460625864501418
0.041869370536065674
0.048618314701494275
0.021122905215151914
-0.025667695506808797
-0.0396656712926606
-0.014109599482366019
-0.020741694107777903
-0.05104479164378565
-0.06293011591909677
-0.016568307410170506
0.0034900797695927737
0.01733176638786385
0.048191386684543217
0.04405558587499656
0.0506021558575414
0.04902732806959967
0.06358719355001044
0.07332017837678434
0.07698598525551405
0.06795300009333542
0.049351469045064426
0.06100068830007839
0.03453318238925901
-0.020375805632641575
-0.07679962172786536
-0.060277329808590206
-0.042517254245491035
-0.05551257198829922
-0.04335459838595311
-0.044578760185320365
-0.017426394071889055
-0.0003815679482569968
0.04849729257242881
0.047491904117155835
0.03683680261026058
0.04943801349494848
0.07124083093366837
0.06798613324415742
0.08518405680930975
0.07687389907424151
0.07954373725889656
0.07373303238676296
0.07156694997830243
-0.0022568765439032836
-0.07497019769382694
-0.09000045389527117
-0.09189910749843613
-0.0541140654883761
-0.012885024820930175
0.010149283427706353
-0.013691337437750703
0.032140142227598534
0.03616900988833452
0.043456858694090786
0.054096653993768305
0.05506737472611029
0.06445660173768607
0.0722415936649653
0.05830121034961982
-0.006067828243882296
0.05391764471683317
0.06747068916967675
0.0015490182885803433
-0.09551847659546643
-0.1172098705134182
-0.0059918350896502
-0.003579784709210252
-0.24899805074716072
-0.7122200183326213
-0.24982346024453578
0.3420720579102374
0.21924484447959694
0.29463185473002945
-0.08072868543167926
-0.25980954538209367
-0.02863272149977797
0.08357409702544784
0.025017431351305495
0.0583320015148812
-0.1847197468920983
-0.17780812067690796
-0.05234398290991433
-0.34860078344758005
-0.4000804873879731
0.05124484627692556
0.43542233133801667
0.2774546988809224
-0.2089530616900091
-0.32482685520914295
0.25948900161836885
0.1731779125945403
0.20730239378207252
0.5904483282687623
-0.20086536241837777
-0.38186522099480535
-0.044071732590265124
0.08946426241758161
-0.10511658522685724
-0.024431619657073314
-0.14810544987132918
-0.3413902724478237
-0.3457886903847955
0.04850930725102033
-0.06330644202543964
0.08396971610230221
0.637145093343675
0.4116215112246461
0.17510736089536774
0.02788696776288696
0.09678936867050397
-0.17099228998771368
0.20223915157289515
0.043328709384173505
0.1914982032725764
-0.1278090694974033
0.29255585563428455
-0.07750070119130066
-0.2353434650805236
-0.1286679250210023
-0.04130614064312245
-0.17764950322552234
-0.19268626478620343
-0.004692797769322926
0.18825964102501808
0.6305144676622358
0.4784459107646557
0.6067442351270014
0.30096507353647256
-0.4747713302681796
-0.2205386389681717
-0.160511872536682
0.2872510404616803
0.30007402451378934
0.013202223751949032
0.1227935682622609
0.2480656507622169
-0.14918799241925
-0.19016185230356294
-0.05797194462738258
-0.0009581940696588077
-0.19977439820747553
-0.30011388988589244
-0.1928747026730829
0.08891620103774638
0.2881637033481752
0.6197716828302734
0.42638429501029756
0.6672944105424604
-0.6379954949188924
-0.6138951553629112
0.021756698513327167
0.2593875970402138
0.5316359501345382
0.1550300502579169
0.021171484739768348
0.01872530503399291
-0.2888006042804547
-0.17866985902334573
-0.027965298815635906
0.07495030495968567
-0.07432520908666188
-0.2774420058635387
-0.1986352419196585
-0.12478752367570681
-0.10473518836101563
0.1261146978298871
0.18637378591860218
0.7049368395758142
0.46692027122184027
-0.12398328952631626
0.3685538213948199
0.3283892046469547
-1.0893565603118054
-0.5264215064366113
-0.2453444467418292
0.11483878712837103
-0.336299296391061
-0.11684717048696705
0.0730549610150167
0.13298368510801595
0.005084461144342831
-0.21365809050130882
-0.19987276737731546
-0.19800796579116012
0.24836242611198023
-0.06596125712382973
0.6074635842524181
-0.0801676297643525
-0.18221198711694284
-0.003370457757484321
0.3578926191005536
-0.6769388565608624
-0.10414993710797936
-0.3438389514106979
-0.23625596874991678
-0.15726573517210105
-0.357581054893611
-0.15301877941765338
0.1003175739900199
0.17630808589310148
0.018226913046880313
-0.1734087674503249
-0.15455123098541032
-0.08776505485458695
0.15819540543574565
0.3754013104121066
0.2498394277776841
-0.20369673277729608
0.3225569058751989
0.7274922439907057
0.586260299306135
0.5399380226226402
0.07941503214066238
0.05676944505027283
-0.05788757880540627
-0.2981337444569419
-0.31902518497233345
-0.08876892110444383
0.18891412267416607
0.19790359494633158
0.0727404790007033
-0.08026660592491526
-0.12982046438716327
0.005914757294379266
-0.19036701955488128
-0.3162702843162002
-0.1093222474296161
-0.31786450480869244
0.6907391982745051
0.6927707991258983
1.2853485340577648
0.7998587804503947
0.449191960252849
0.2329385577020106
0.14163093367867408
-0.08100331036165241
-0.1814378906432762
0.004166931352974767
0.13007334196939252
0.2041907720645923
0.11580636482607339
0.02318759778425757
-0.13082652826614335
0.01181347461271965
-0.11149411649333447
-0.4318217846433961
-0.46988115387374885
-0.39626239090878085
0.43913876570531674
1.0692714073532728
0.7335735278647435
0.8931582198837337
0.9399450530794715
1.0123880031748973
0.15237572214570724
-0.04223958943530197
-0.07099257747085433
-0.0010994208588054424
0.11923092651875838
0.18977452990393506
0.13387451483943927
0.02509558653971807
-0.2048627582890288
0.020355077981567445
0.09521900009043327
-0.2688364872824323
-0.11002843112783323
-0.0731476796476079
0.32418407741750577
0.40302020040470676
0.08358732924584397
1.0079490083179516
0.8916736439436387
0.5653198189589658
0.17558023531309871
-0.08115960400090408
-0.02832407432503973
0.04261190671219653
0.12767744087402252
0.18673865342287993
0.12408678247115436
0.016769359485449938
-0.0048109920738879375
-0.11450466290436524
0.06675074993519445
-0.23450808817034396
-0.09315385607907323
-0.15264059619185985
-0.16610133326687324
-0.487193451192409
-0.31789852674884944
-0.07540692521160626
0.10755837204839706
0.2980589258321644
0.20802404999360902
0.0014605489328411892
-0.04045936547420243
0.07912326909658897
0.057260498120971705
0.19600220109464317
0.09707382422191028
-0.04182795759496014
0.04236276657487094
-0.0007338670806911042
-0.1684652318686791
0.10842755890084606
-0.5297286688901091
-0.30767902446896006
-0.06504714785724665
-0.4767443918239046
-0.6815827612867407
-1.0401731465746769
-0.7332941267910654
0.10522479054829628
0.3467349002576983
-0.0004562088057231934
0.015570162741986032
0.03507988784881458
0.01876374021193749
0.15290567733666255
-0.015463904477138316
-0.05701070305930065
0.056316279284192715
0.026684623201011982
-0.2499880314794799
-0.20713065465612973
-0.5869386296529433
0.07327700034094248
-0.5615851568125043
-0.293649509020686
-0.2699771719976665
-1.1369586591858407
-0.5620385632045789
-0.10686100475738589
0.31871539972248936
-0.060069865380573816
-0.012779354636341425
-0.05136141607283951
0.018580580671353344
0.14403514902923198
0.06953400209130078
-0.05844453653672078
0.1803443267475352
0.3044793334417486
0.24697939065211408
-0.37282014875896374
-0.8602153830874759
0.09610928450097983
-0.7178473730365561
-0.32577613284144913
-0.4266452946420153
-0.8300900026489885
-0.06775550595227922
-0.4796128152833232
-0.12447096564648766
0.19372747456001396
0.06623700079841352
-0.016006028136046287
0.040995277276613326
0.08528104903317239
0.08441990060719878
0.0740264165992814
0.05588689745531551
0.04398887918210419
0.02907030741318442
0.06167981005562127
-0.23000237201359114
-0.38305586421710186
-0.40718435647060713
-0.4451266827913023
-0.670816562344646
-0.3794737401661985
-0.3179749903904601
0.004267165637039223
-0.19735649370523134
-0.05453403556634633
-0.02729996514571445
0.016853481117349123
0.028251843914616593
0.10968935779002241
0.02178720216103799
0.0909869803579292
0.05822479343574529
0.14939525193142245
-0.17793370429316152
-0.29963661865385677
-0.2699856178230628
-0.09786762782852107
-0.21874141759889162
-0.25401734545853993
-0.011806129762084519
-0.18073631032242837
0.00021401292231153793
0.19922016778038254
0.2336200533217856
-0.05288762122217818
0.04381783034391446
0.03408354670698339
0.030850048457255974
0.08882868684044253
0.025822277909339105
-0.01837378019849164
0.14657309829945742
0.12505485437946656
-0.1663048939532331
-0.3469909984800749
-0.10512440065110684
-0.16637627534226623
-0.596835736034211
-0.5246321969167421
-0.15282629677201592
-0.03381076415746192
-0.3044951383792212
0.06821187853128399
-0.006732820561553557
-0.03161525480817172
0.06777353982293303
0.0462591206833865
0.07984097885894235
0.08626447857397622
0.08588994356290341
0.11935226471326682
0.2116366709367645
0.18078160962224243
-0.05861030784410607
-0.4122071582993222
-0.20462021133935596
-0.548774540328249
-0.23254019554192046
0.1357620214534204
-0.22138181141329086
-0.18823458787151678
-0.1930445411887749
0.1272592408479089
0.2058563211449503
0.062044339163723136
0.12179061554995338
0.10496820436570639
0.14427855152054803
0.11114970449523782
0.11809763230396458
0.14660532663078368
0.2194511186639452
0.18244650061996256
-0.10231839881516896
-0.28207109722903256
-0.5483433763354889
-0.21311330820379545
0.002736574262017095
-0.0632024348075612
-0.12726712755918276
-0.1251879408738843
0.12893028747693433
0.02236830948579352
0.07433480165423545
0.10673442249487185
0.05571952829099064
0.08137779947157278
0.11478440377353243
0.07247750411340226
-0.001153617170459838
0.07754789239613036
-0.010192151135469802
0.2120711478065471
0.6101658950268977
0.6034503102082291
0.23795512151692938
0.16372432762518618
-0.36106963618292787
-0.7311113665739326
-1.0290501100545877
-1.0707175851744792
-0.5497166580212575
-0.5424145769312362
0.5154268733911127
0.30196974609708277
0.06845005449183089
0.005957873185283526
0.1379632753137901
0.07719048095804766
0.1498306989164611
0.12042810453633303
0.05910320561582597
0.05696982780498258
0.8215675981312142
0.8230105670311343
0.4199859135094219
-0.48542202181528094
-0.8278141424324054
-1.7274061646599437
-0.9650280502055413
-1.776018327015004
-1.2257655793925324
-0.9993810915272936
0.35605012421111426
0.4967992689772866
0.42076229351763517
0.010051227510327481
0.09638952865259873
0.09245329257619422
0.12146187857314351
0.2025537377171964
0.15670646774986366
-0.08328086031522333
0.2351416921256525
0.43999251524297533
0.1742647598232154
-0.4385262306202908
-0.043397561451961074
-0.7880045795516575
-0.3751628465413843
-0.7435765606748016
-1.155680148916812
-0.8794200479380285
-0.5250030250324222
-0.409323439794477
-0.046794835632067856
0.06946858519038601
0.13889307827904487
0.12167376053927946
0.08711851095401638
0.13661167344733555
0.1532806801462658
0.002981419465767024
-0.08652841023231728
-0.196479943824345
-0.1345901589710827
-0.22457241752646212
-0.112614940334455
-0.18236461830075526
0.30141492507225415
-0.2629719986736162
-0.8902011647140693
-0.8008786084524075
-0.1313742460494616
-0.7348244489737628
-0.3034600616576102
0.07974619940682066
0.09777413068199962
0.11385452631487562
0.08169266847753646
0.10130445698794543
0.03916916622747108
0.04199841339267886
0.021124250345606648
0.045023548006028084
0.13312630421746158
-0.33341722315471534
-0.2265311022465616
0.5070251314350401
0.4779792240971
0.10114893268316247
-0.5342338388145673
-0.5275449196720439
-0.010081814822159977
-0.6527722448698285
-0.20693966295782576
0.1735449035962397
0.07661960086325603
0.07921173600327572
0.0706607006743491
0.005390264301674684
-0.0318779387225086
0.19287345722334412
0.06765206789868582
0.6342667414151029
0.6660685310148046
0.03822060096380645
0.3417595221842048
-0.15315959316593883
-0.343815982298173
0.3419712951430416
0.06339761375050185
-0.004631020059810175
-0.37970860970476966
-0.27570737985974
-0.18377998466630124
0.1763201044646452
0.029897374647589348
0.05629333917851834
0.045977993621086774
-0.0018292377989445193
-0.06563393958063261
0.146170565565048
0.4279521228093559
0.2632328611665842
0.3000842472943741
0.09440175378599369
0.5076717084552494
0.5704995841814068
0.47399289637294534
0.3230704409708344
0.24679360327798233
-0.1716870602373523
0.1160489323682357
0.06886457574124243
-0.07751812098301407
0.12600060489338247
0.009855573431549334
0.056799795568413844
0.00694961331576598
-0.013482217336105953
-0.07667582359749939
0.14491331911943664
0.07176529539624983
-0.01105136321014227
0.35914883450738444
-0.11287159850228812
0.8100029799781426
0.2727299357001354
0.20572930335757675
-0.331484896700999
-0.22756316053967426
-0.307472766745556
0.2667433176262383
0.23390811322707936
0.11579351587288843
0.11862381602092865
0.008068486823939998
0.046880631809900014
0.006593865027857571
-0.015091461009677865
-0.06199434181583627
0.17991148545042418
-0.01863859803060403
0.1259365565174926
0.33722052176266415
0.1793733230126693
0.4367557002817828
0.23070900557215498
-0.25911498152916107
-0.799549865763262
-0.26407849857618954
-0.8682244281376401
0.3854163249837304
0.23151928261545857
0.16619274044499865
0.13081210229099496
0.04578586062911702
0.0700269012226833
0.01471102584378427
0.0055090114100063295
-0.05571578376288654
0.17069183723114698
-0.02916862807654211
0.22776854495728588
0.3071505206558214
-0.0698008065428015
0.5887289498148012
-0.058515955099783475
-1.054474700198053
-0.5671991165471262
-0.34838415180916377
-0.1843124126239249
0.053956926424405006
0.23415714746602434
0.017480167339624892
0.12375229980663485
0.06414808510041502
0.054363317373304396
0.021669147831445225
0.007613645492399507
-0.04663125221493811
0.1080246840382275
-0.030272700920855045
0.08247065190667476
0.08787742742329814
0.4616373168813403
0.25677518137147115
-0.2169787722214108
-0.6433517134945581
0.06145890687890107
-0.1798289841784092
-0.2513888554686688
0.22586209988734268
0.1860142179573598
-0.15831373984900435
0.0987182056171917
0.04467730709655683
0.06047652663869181
0.05327805149642596
-0.02622885834336978
-0.0710464062055709
0.1560423512504843
0.015625715960035237
0.20702495419354
0.20681169451438325
0.5180630074544317
0.6423815482149995
-0.5993193451780164
-0.006062108869287431
0.4102586610292735
0.125782838017849
0.9352637397383632
0.6327421959005352
0.03285550279414725
-0.21821064398817863
0.05612941023644872
0.03727124115417027
0.08191325307376461
0.05187893317428409
-0.018668102638637715
-0.06165850539589961
0.2634481972492034
0.04852521941355363
0.06275127960617422
-0.05877214971146891
-0.22427983623474984
0.08435285207733427
0.029620762992116426
0.624115638022781
1.3374205850261633
0.6907322874419298
0.9628545989522636
0.7241964439618159
-0.016466722773621833
-0.022253011113720078
0.036312310815360856
0.03263466899211269
0.06821957766183744
0.112765574252816
0.015891446958427605
-0.013524855307518064
0.2933611343634865
0.23021450294420753
-0.24372121439459374
0.13278231639114318
-0.5451899687882806
-0.4100811644469514
0.1861660447113731
0.5833894891613006
0.6072196263535415
0.618061577822684
0.7294243987406434
0.6949221182280823
-0.05219632765083861
-0.006036671955716262
0.01814324544403248
0.08265867110201473
0.08090062693782597
0.11754928370832775
0.0551524616590615
0.09683130147029256
0.4678866729712851
0.37313746848522805
0.04453577783341193
-0.3600842468417824
0.26489258681231026
-0.8633468376060142
-0.5507946833371081
0.2798434698761173
0.02732417692175946
0.262790991222574
-0.16490030051361543
0.22773549548171104
0.2951478358319979
0.1880274246658411
0.07722500288297406
0.07791036725097228
0.08844930484492183
0.13615464003458236
0.10954922944260737
0.23975416205895397
0.6180368983981304
0.5499758697076158
0.23846192723711088
0.17955499803738645
-0.06967660118018174
-0.2763947009756657
-0.9084113783373896
0.24836358708105036
0.18699528333422832
0.03879542235258298
-0.016262392145280913
0.15856683514671288
0.6778855761962236
0.36021307866570557
0.14257761005043199
0.11979710584004771
0.06303476046174433
0.1224273314208079
0.17743402220646812
0.12555333695382828
0.17603238841945026
0.45559254309923203
0.34674951416534866
0.37500117361380564
0.1548398541768342
0.4948988458542329
-0.8417993858124003
-0.518996951014008
0.030709462206097077
0.4547674130267784
-0.29390757929203876
0.13045682736712685
0.5828743633539745
0.2728619031244559
0.07209303519171231
0.06936363862302865
0.04053630395043582
0.12107704103981348
0.07935870108637393
0.047204884604304796
0.06553448679668293
-0.037959403367585506
-0.3214075870306774
-0.24390680089406436
-0.17998054776383526
-0.22040581750404342
-1.2090263497570775
-0.5881020030893713
-0.14738005590200098
-0.3620423508140894
-0.35889749723634073
-0.18398199537648163
0.11324895067142804
-0.09186066908472061
0.05407005924497826
0.08834486889367496
0.082205279169047
0.10010467319962087
0.016869753096601412
0.00937894478829866
-0.05696982983638228
-0.18419399547584447
-0.32905318898933555
-0.5295553186161539
-0.37145216008827203
-0.5405460595833049
-0.6621428712149369
-0.19937987518605324
-0.11182086059815784
-0.6055072421089892
-0.12217011776978075
-0.12959322736181045
0.15331713604454392
-0.06500166959141639
0.09503847991438982
0.10699346683255442
0.08642951917683486
0.08805870847051289
0.08379480987284647
0.08753785950527834
0.1161232044612177
0.06705205615724305
-0.24742327562256106
-0.6354883687602239
-1.008988521064248
-1.0073389535035755
-0.6771829034963258
-1.008736828000693
-0.863896090730122
-0.5996595717256962
0.8014412837022916
0.17312510560533767
0.012608017362014055
0.007125251173459654
0.062961083130893
0.08029619764956113
0.0904391979692672
0.2345779454575211
-0.00262891622258026
0.2485172240894597
0.06286499648950046
0.21217225272090873
0.15505327242419
-0.31289925912019345
-0.17352695549433625
-0.11159879246878258
0.28722489634377224
-0.39298263121958005
0.11117583448352118
0.17188391287911922
0.36063733580461993
-0.4300888150452974
0.37228575096844757
0.30276180142619463
0.17518593421335366
0.1475297750480414
0.305303824222418
0.22293622533119256
0.2780467508346464
0.205458165863872
-0.04800652671932103
-0.08778773511516436
0.012819130298981731
-0.7651673982304447
-0.6668209171630353
-0.4037232477027526
0.9339722725390568
-0.37954861702407344
-0.15463388991131274
0.24621123097361014
0.28386976468573405
-0.1590433621592269
0.2248051589874841
0.1568527026006147
0.03786541454557125
0.12736278594739556
0.3212896149666518
0.16421613979184185
0.2965795874716806
0.38577504761072406
0.4803151506172178
-0.07250427139600653
0.1318881434372861
-0.09314507871479273
-0.5084244677752586
-0.5828430299850814
0.25298291820791136
-0.576387299493295
0.29673319314842583
0.44980871652889043
0.23182022370668734
-0.294481360363117
-0.612969904054667
0.007061419737556274
0.04512704410990646
0.3115633489331083
0.3813456511213515
0.19913540523635648
0.2325566008504948
0.10670038534691081
0.2596716724149153
-0.01886204694156487
-0.06404937213772213
-0.39851254261079755
-0.3501016628077449
-0.7915092167793955
-0.22069307870893537
1.3023444865271772
0.8873397726773206
0.5276724614954813
-0.21185054988037086
-1.0353498238827161
-0.7196070584557018
-0.4801425335383969
0.09685761128107798
0.1920731444323944
0.061429583458721515
0.0502437864773406
0.2187721167821442
0.2480092274388724
0.4523413080183274
0.28645689125525
-0.11530056392570905
-0.40050537451003526
-0.4506613485237457
-0.08873330231601737
-0.565010146626016
2.610852991450993
1.4377748342072545
0.1711322442126755
-0.21784840890355844
-0.8044544034749841
-0.06925432308020273
0.09169968219566571
0.2831726503343383
0.30257589826212383
0.21160476607966122
0.15058069792285383
0.1849090368911272
0.1127352076604614
0.12190102887452028
0.19146564840877164
0.19323356452946802
-0.0012676296999430054
-0.290958046497967
-0.11863553466689615
-0.6958421899185067
0.10172981151916746
0.10518072059156132
0.45151633076991066
0.678283915417767
-0.26361308802285494
-0.5229818540076153
-0.29521251990877145
-0.10857331534205054
0.11868375018506461
-0.02711961969861948
0.11174458991520882
0.16681090474072494
0.09461280974171077
0.03077115521641207
-0.08851181612754307
-0.2518349922853854
-0.1917668124025383
0.0647258131419027
0.039726913054423496
-0.07974289930942201
-0.729145927431827
-0.3394909487080213
-0.006351332696093564
0.4101669365145612
-0.41020814421209767
0.0814630528725661
-0.2695276330066335
-0.20293331418951743
0.1698450339998981
0.11275414904614856
0.10358193931938912
0.19114901258729394
0.1057406841642214
0.059860995467528676
-0.21743079352534764
-0.4674106376668771
0.02694670720950485
-0.034733106586631673
0.05483724621945344
-0.07554608121681877
-0.820389583765896
-0.32967016913943936
0.3421687143717369
0.1416647213855471
-0.1689623964085442
0.42985383891843487
0.07880774619830572
-0.28613977308938016
0.06003553995643361
0.09899828731263532
0.026584596006616983
0.21170723595807675
0.11838553756075713
0.055572601856132886
-0.30459574116990423
-0.2802887713241788
-0.018099593474348495
0.5141122970209906
0.4758915309724701
0.6571153471314087
-0.7046057756599085
-0.4940747637291073
-0.07956977035600986
-0.008173838719186744
-0.25567516639635607
0.3922971562725335
0.04724227734160451
-0.06344831664983801
0.05348743098881883
0.12749080354651926
0.17858121062118765
