0.43129000491095004
-0.007590660413966815
0.04825557029694157
0.3122369125471783
-0.005410479377693054
-0.9707647144893302
0.29396438533259717
-0.795909391151959
-0.9842833281930788
-0.27790957552807877
0.5013036990873334
0.11120814196753323
-0.42590048634980965
-0.9702456676894626
-0.04530045885824701
-0.34852988911826316
-1.3796522149868482
-0.9816290332755386
0.21193493406646075
-0.10969899258229869
-0.6289714536469801
-0.9752859676848974
-0.31149051763887514
-0.2476058195775697
-0.6959689201127855
0.12502646692383582
1.132390031320688
-1.5444048166912163
0.7145439169751078
-0.15798789139819483
-0.21118153221275351
-0.658744776345487
-0.7512329939480809
-0.6175208803256468
0.035749318735749845
-0.2806846351532045
-0.9602870880788726
-1.017040275797972
0.28116964470257394
0.5601685373941465
-0.6997499774090522
0.008842463489323915
0.2717179642728145
-0.31982356289046243
0.1103554705808066
-0.10370367945323195
-0.4222877054655186
0.326451196390592
-0.54647518363679
0.07585693396939612
0.11981782596939926
0.12287569621333348
-0.4246672341489771
0.15322114555404523
0.3747042667623509
-1.1148560078823055
-0.6960240346819031
0.287658223027106
-0.9084859277301484
-0.38894505081803254
-0.7991519602844663
0.6799984763753761
-0.678592203066388
0.41625299045944647
-0.5836661256369148
-1.101635289584533
0.18628673118044486
0.147988135602056
-1.0332272528737072
0.008804688602652256
0.4513536381515678
-0.8588989245878017
0.7714480169448003
-0.7440011114778436
0.2640423316511488
0.16137452516761616
0.34465243961282493
-0.15232790535611804
-1.6854846304072515
0.519513789978714
0.4233963694746331
0.1834657431176107
-0.14620594272899168
-0.15860211169351063
-1.0211391616357355
-0.1876774218799535
-0.4559023699553119
-0.6989109945220976
-0.6801683986747259
0.2706424853932087
-1.3295684605637692
0.9629269139930798
0.0060052114334826125
0.8478951434629393
0.7455509146189807
-0.6107266090887294
-0.25276067877808434
-0.032503528193740534
-0.8654922720183523
-1.4199873675483428
-0.11575384672335676
1.0810003910264339
-0.7101901598778987
1.3245081481174446
0.8325895490719883
-1.6197848115541562
0.13211058420717403
-1.295940586400506
-0.45646900096510973
-0.3556119701316138
-1.2446960274553949
-0.8931581756635946
-0.3893069977935418
-0.38048935869061995
-0.22005344008145283
-0.9975179776470884
0.7078825803883831
-0.5916023149054651
-1.1529694644335897
-0.10784817975327249
-1.37441327779214
0.13594444210801312
-0.7430411150608905
-1.1324867226398276
-0.4738941719960979
-1.6801871155840746
0.2329160817280419
-0.6066950455489878
1.03040552884608
0.061818758797673026
-1.7033640916776935
-1.2078983589472523
0.5338480208251266
-0.3064820670282599
-0.16052532920041024
-0.010003788559095898
-0.5473626256486103
-0.4049287273616559
0.09053323292327901
-1.1254682870337336
-0.8851372546346482
0.5362595729137805
-1.6071747662806304
0.5455404628894346
0.38239702377939816
-0.43297958940299963
-0.16535506841816594
1.1985508733759007
-0.6116588755000798
-1.2995428817176018
-0.2146451332648979
-0.9553953947993699
0.5689964207452681
-0.5131910046227022
-0.05445951589778905
-0.6321181976751182
-1.8054065399956238
0.8854354350525085
0.24507994169618347
0.2272210986576512
0.5327383788533688
0.15022303260034625
-0.6966766847404166
-0.9470122899304093
0.7425714563101495
-0.8571214150950672
0.20736311212165293
0.9301002932330505
1.045135522413334
-0.27655020538739383
-0.657790887618301
0.8814859100515424
-1.3012768967870068
-0.37550134571865096
0.10268302643621027
-1.0576933371436654
-0.2705170307844489
-2.1828157112092637
-0.2624724590398954
0.138486090648018
-1.5756916420882812
-1.088350502729542
-1.1058201936559529
-0.00033846479467944737
-0.8953282690663608
-1.620721496092862
-1.1859432138652786
1.15507018366234
0.02595750285566184
0.3716388338772985
0.4037218108865733
-0.15259452314309568
-0.5860090176321316
-1.2973015348939134
-1.0151365356734021
-0.4962067670561836
-1.4411436829328588
-2.0745327482746454
-0.9712531235620155
0.25169876789615403
-0.12509963612999037
-0.3932028447600238
0.8442605760885447
0.4227575296544902
-0.33015547261990874
0.5069842692665293
-0.5575423453376
-1.1931857535865011
0.785941737726783
-1.097688199219644
0.6336551234150357
0.4465541167171098
-0.6963843313384247
0.1372682264179645
-0.06190492856178364
-0.5001838575777954
0.48313011153623325
0.08385750127765092
-0.17960452909285998
0.2437739096272383
-0.6730868089531051
0.1476149790243257
0.4372689721549399
-1.5480995865833995
-0.7457464355759299
-1.2934566297166499
0.0670026330653747
-0.4412392515344719
0.6160874779006809
-0.9304510587041064
0.2304525054317333
-0.46107184191278094
-0.42840921572522817
0.6064482155037848
0.38490925083355837
-0.29817529492976
1.4288855993007445
-0.2652860005807064
-1.1927873171297974
-0.011126359479250798
-0.7262765014428755
-0.07408099185684684
0.12758659693398203
-0.7025505018468337
-1.1868022551126394
-1.3639072277752877
0.18682244159032765
0.6541409988393188
-0.7196861863557169
-0.3398324625108878
0.03166157583118861
-1.151849228746078
-1.2045127496362869
-0.8050909028431126
-0.2496237805410571
-0.2353205898313587
-0.8981452554354311
-0.3188623914455144
-0.5296413543545125
-1.2088059307579817
0.3005312919684301
0.21752113041988866
-1.4204384495849571
-0.5909883910013303
0.27568319918068374
-0.6532315458181985
0.7423103273653725
0.16676524924517805
0.2645115356231581
0.2938081261183573
-0.061323798910769944
-0.18721264290841858
0.4207490173272762
-1.163437447396512
0.0025318227800278058
-0.38396783542623436
-0.21111331580114104
-1.4156361824197938
-0.5692944438013848
0.15993351853968107
-0.5765904101004313
-0.87839449089918
-0.4583221075187783
0.4123426107877479
-0.555602081304565
0.09695562693529167
-0.2570188090782151
-0.8860799137063992
0.6615133856480425
-1.2143003204251177
-0.18856586098481162
-1.4257313597729324
-0.29472494163134644
0.23977349597872658
-0.12462004042710582
-0.49191519240359877
0.726735561273
-0.005675185099277252
-0.6429066156614247
-0.23333654637565412
-0.29437600307666734
0.0745315839482612
-1.1706545072000143
0.1591672477448039
-0.7853833296607439
0.22343722028336888
-0.413857329672807
0.4434741905177126
-0.8458471359010411
0.4101008222951049
0.7494015036055135
0.7759017056363602
-1.0815954697733627
-1.4950976935580986
-0.8597131171411617
1.2446790644795607
-0.38778772544405066
0.36971544732326883
-0.39402926044120634
-0.05438563453805253
0.6154694700399441
-0.03689798626674973
0.05496947930627255
0.13902350816053358
-0.7257925795202002
0.3864344205282501
-0.8842057349821304
0.0036721586771166267
-0.4075208839441534
1.045727421661964
-1.0465098122150753
-0.9644220686375399
-0.0068492353934124965
-0.044905920275785625
-0.2983435866748531
-0.5504112157631135
0.6229733775676225
-1.5424124811049558
1.1525470665288673
-1.1378908546694912
-0.3256481571769409
-0.6771318306625952
-1.2772424051477074
-0.012503350466961022
0.8848307584654462
-0.6767425098493107
0.1941072065059488
-0.6206555270005828
0.43904906781680114
0.5687063862522325
-1.9058992286714391
0.39940291846708026
0.13597666183050872
1.8119837609858322
-0.5502182560168557
-0.6802887922620043
0.7238103485877789
-1.266301015238962
-0.04877894877689521
-1.4597873962361214
-0.3846460370936138
-0.23395352276243345
-0.4784519640573365
-0.5461607168270786
1.433311808059157
-0.0027869920951917853
-1.4925834600262056
-1.5575421763971078
-0.20186060454440813
0.8543000486683108
-0.16558462232625665
-1.8173429782661623
0.6111370995084571
0.5443539193594166
0.3084119257444601
-1.6037439538158322
-1.008068723134316
0.42964814005688245
-1.0228295392267472
-1.544112984833541
-0.7934393364451733
0.18958128515786418
0.5911596167037653
-0.5524355988000053
1.5363039218602648
-0.02984231040510922
1.2997861440827554
-0.5842270454408153
-1.5487130517955678
0.35235130957581606
-0.18633514328122486
-0.7611235364831896
0.5771825092888905
-0.39547069486158654
-1.3913963221011052
-1.1592494455563085
-1.7115975750099952
-0.5206005132052814
-1.6319508760170123
0.712933695379842
-1.726248529103834
0.00027983540869186863
-0.6124393457791658
-0.9440259189451038
-1.2274861968087059
-0.6582488132852964
-0.49724333065005544
0.7308759601352529
1.2328839170213899
-1.178942784955446
0.6187805292586326
-0.8647089014022572
-1.396129809067528
-1.5797468359255873
-0.22865950789828873
0.0517554283775865
0.07514300597015024
-1.1059844484668275
-0.056977214469484845
0.2004371096178861
-0.6807379780506047
-0.6144051264119667
-1.004019551574215
-0.2726379318712931
0.2871145034014358
1.059616166706514
-0.6453601082830714
0.3222180380977072
-1.7156642108198832
-1.4570637377801032
-0.9768279674210613
-0.26630394006159186
0.8998762800625654
-0.16605648772240875
0.7972664446026166
0.26906225691571595
-0.25915873562831515
0.596939225269738
-0.885177083168009
-0.4336067930681633
-1.87725086066154
0.3592336521934403
-0.45313567997906984
-0.5981700697108072
0.734517856166093
-0.8411349570762988
0.75959997265034
-2.0554640555445682
0.0073552058687952155
-0.569704431746245
-0.532915016666451
-0.15672607297227376
1.2431320346769272
-0.5486721743625873
-1.2197014969834281
0.7941702352418851
0.0012783041638900813
1.1401603671556406
0.3936238399686966
0.044611965357721196
-1.3354177161158187
-0.7002234905104463
0.5160272502956169
0.21871858252824625
-1.2146761730292794
-1.2216663682748732
-0.4570503084063076
-1.5924304434597318
-1.8044892934151473
0.8570159947620488
-1.0172841923477136
-1.0540489692455377
-0.5545838886053958
0.13620694764922692
0.4668037967316009
-1.1146166295317719
-0.024533790832465284
-1.5727640228093942
-1.1068208525561296
-1.212814130540903
0.3624679682978351
0.7581698562609689
-1.2029445184244831
0.6759978245008971
0.277216180666123
-0.39103345662377803
-0.832776916865334
-0.9280816353249677
-0.8963803734484735
0.5873299098753788
0.4992280579597683
1.0003413137392083
-0.30245628776191635
-0.6335979820601936
-1.6237557556980022
-0.4047854984466161
-1.1343221610360452
0.38024692167808416
0.27115297370915975
0.35308017409625797
-1.1183253178368464
-0.056290767067003374
0.549388826397574
-1.3842983318213216
-1.1116851029176973
-1.0366905011083731
0.2664285163845415
0.49352706399275587
-1.655546567959233
-0.008545932034015545
-0.7788094543344366
-1.936096574901697
-1.7671396819012155
-0.9694810717063309
0.43480829568293955
-0.46697248135548197
-0.5139489421457837
-0.9829689504102935
-0.8636503101323738
0.6864996142312022
-0.9148484468932803
-0.5220716541608434
-0.555789229857673
0.6173237304714677
0.25717686746873664
-0.22860204641869827
-0.08101220650846473
-1.1453242722475565
-1.7537899137456463
-0.3414697963021168
0.30004963498257203
-1.4983457683941905
0.1276828783735253
-1.0974015420660503
-0.9505217120920558
0.0796632597699514
1.9371157274348494
1.0370800988813937
1.0079516702424924
0.7088035977907757
-1.2002311904649818
0.11205753501029497
-1.2206847266359584
-0.7885471954667578
0.8220367640069182
-1.093043325411006
-0.9755043978977239
-0.004181240076965089
-0.6065195983088875
0.9251093370025474
1.9096117418643295
-1.3065010125779277
-0.004209191781882681
-0.5031217467712084
-1.1639750460864067
0.02031518360530825
-0.4913601740228922
-0.03010391213509182
-1.0020976789720404
-0.384251655277801
-1.2038841648056495
-0.2141515994986197
0.2754250596898665
0.2647279701470636
0.14767618005140784
-0.6651273848041955
-0.6845727251193149
-0.6642093831762058
-0.5248414387723089
-1.0882809323142053
-1.015176724016309
-1.156407910256572
0.04381805234892879
-0.5876373415371074
0.980472334727697
0.3387627885584663
1.4374226965129007
-1.2197730294598423
-1.3380556985432355
-0.356952178559826
-1.3266668728721391
0.9148952237509342
-0.1877643263456442
-0.11238832551294381
-0.7606817597538653
0.41111512111362547
-0.17827515595956644
0.5002034483463337
-0.5821288322536923
-1.3496873513744228
0.49705670105625377
-0.7352413959354547
-0.15328179854477691
-0.6124241947366528
-0.8014705621719599
-0.0910540979773317
-0.5952513125409081
-0.8583899297926412
0.21327298189329455
-0.27298765830387095
-0.23462899869370127
-0.10279096528302613
-0.931306721972002
-0.008383645679234043
-0.6923588323660171
-0.1207813716510563
0.4411738410661757
0.8669193542775737
-0.6316993195146426
0.6716314613771646
0.13816156443623323
0.9046293226289737
-1.1375591732255848
0.5854768888132993
0.040443893684645314
-0.5682043077738925
0.46061224722868943
-0.989526333154755
-0.5080781732372628
-1.162059720797937
0.08162643869284926
-1.1441006762342893
-0.972701657306211
-1.5215264690683652
0.18076946251330436
0.254359943623232
-1.409934422201743
-0.7865353324876592
0.4476751693797775
-0.6709960706476779
-0.9726204349568102
-0.20271943314613083
0.3776201871376436
-0.2904398442073284
-0.07745173962036331
-0.6685779323412607
0.06984653505180916
-0.42489438412912905
0.0025384328984400257
0.4991174774466452
0.4690946381523446
0.11265209631923656
-0.060105288118175865
-0.34401593031280575
-1.1054901685284972
-0.4635886330577812
-0.05362542541864726
-0.6902901433140974
-0.7280856893721411
0.2753962579277915
-0.44482273466187655
-1.7552307114739045
0.5565393263019474
-1.1295522063795285
0.4620116666833352
0.5105606310768682
-1.1302562437069026
-0.9313636539052172
-0.5658844009008579
-0.8366448496782528
-1.2498136554796768
-0.7138794590908956
0.6285763925100168
-0.8306780067016474
-0.00910204341627477
0.7369849248024882
-0.7285791971913936
0.5760738943278968
-0.7940928213550483
0.06251502663782771
-1.1998790860782471
0.35978804314139795
0.10658502642313707
0.19134040464879573
-1.5796155551458408
-0.0753717828199355
0.4290831650086315
-0.8290480014340029
0.3414672085068266
-0.08766766379181648
-0.6453323420812982
0.6721979040918155
-1.4813268619908129
0.0405135904433018
0.6783475568521808
-0.8258303465015457
0.541561950467547
-0.7005940271694364
0.5672847186146124
-2.055060671226761
-0.7484244409142987
-0.0993157147402009
0.5384920617568506
-1.168826751062599
-0.38716628977157236
-0.03677256313989454
0.6226637983334137
0.5337435155229625
-0.9255080646153999
-0.7701456629368919
0.4624761281676142
-0.9241361360084146
-0.07550782888308288
0.45116625961564494
-0.7471251044653735
0.2897706156551055
-0.18737527624084885
0.6855088180903102
0.4137760575472595
-0.775153893756715
-1.0369104739639539
-1.0492684778665193
0.1286215342146125
-0.6557335472356879
0.4865372363770285
-0.1246539122135458
-0.6572232365425146
0.8935517709836792
-1.1057779596625839
-1.539505265292993
0.3076994525192644
-1.777559621962868
-0.6674321311943905
0.5530582522376591
-1.1391219314455272
-1.1398970169789262
-0.9844460433141069
-1.3187267902821067
-1.537021039593316
0.0033975571744015755
-0.6507141888114888
-0.6453363271876181
-1.528954926371284
-1.7575354580269376
0.158903380481788
-1.3953898816356158
-1.1687669749783804
-1.3059263842659563
1.0541173343465042
0.2344931138751712
-0.4551655948532983
-0.9846771151279252
-0.25285755919949066
-0.3613487455621926
-0.9620881041321766
-1.345407438548825
-1.3767625401576953
0.01907048133905971
0.0449386165446863
-2.0340777359447184
1.3366157803533658
-0.026264097842420755
-0.4611601230616315
-0.5560126623575185
1.0213129589327712
-0.9989675618423846
-0.28603134236809263
-0.038747903308824806
-0.5662113779411183
0.2593656794358885
-1.802358136012622
0.18393403124547253
-0.07749325712588412
-0.6725713404851136
-1.082655505839853
0.5991841188849338
-0.08426702693237575
0.08074622271516635
0.7743461856497751
0.6697922749063279
0.04363216844363656
0.10558361742128394
-0.5632323142704909
-0.04207176586086597
-0.9081055956771698
-0.45634474953224685
-0.1485330534019599
-0.578543064197556
0.10586181635264041
-0.7352294664149422
0.27300823905236016
0.34906674566566326
-1.3101497344009674
-1.3554655903173662
-0.6712042808457145
-0.9726374301244782
-1.002493743473701
0.4784937215236821
0.39458739471615495
1.0701072321386587
-0.5083950234238837
-0.9394221834104821
-2.3234597873726557
0.4973490618002132
0.08316613489891646
0.3590830883273828
-1.8884306258639103
-0.5355468235358695
-0.29346743547812415
-2.3622826982142846
-0.8681906919412616
0.5676661408597897
0.3283140625117336
-0.036388620566767164
0.3566308551876205
-1.5717283925928118
-0.9263900152156236
0.29489451203635497
-0.043116118899318275
0.6653761477839376
0.622644157421843
-0.6567350318744981
0.040217161329921945
0.1227262706130096
0.3744471165689044
0.5147093801699929
0.8886946799744978
-0.15969514719738143
-0.28798077620682805
0.29361321265982676
0.0029318885975307216
-0.8431637652208593
-0.8306140315152977
0.6149590594502345
0.15031177561052045
-0.04991357018025841
-0.7815950551938906
-1.4434559091066679
-0.04366639699833914
0.6240804006218337
0.16501401195187118
-1.1227618504516605
-1.8031257234690918
0.7358538382569484
0.13108413188686238
-1.0672254865143365
0.42974537362574805
-0.38687634385385583
0.2469652273114079
0.10471438215122561
-0.9566972742437738
-1.7417428149747793
-0.982540815971496
-1.3102282589131353
-0.48870910164102294
0.13197032745270096
-0.7814209936951818
-1.0218856833036782
0.1161806148304562
-0.7111698540133219
0.04977588377518975
-0.517552590811434
0.15624252964491836
-0.8619883601612288
0.7070133025244199
0.2216960918931607
0.8570485406062176
-0.3298618735854199
-1.2190672361359387
1.6835862218105382
0.27220997044703665
-0.43373230590229256
0.0977940501708062
0.7014215867921645
-0.13757085710905215
-0.16536542120612793
-1.0651707065722078
-1.2169060848558904
0.20272223530281083
-0.4582042563667953
-0.8479433277202725
0.3679099213315128
0.6139637986370864
-0.6292765831813953
1.5530556444586472
-1.1834662980607527
0.041885143078297715
-0.887678572906178
0.46104206499539147
-0.7672565726598337
-1.5347547612302794
-0.46544263571199396
-0.5270267420697644
1.365689688386422
-1.0174521199344997
0.11787414527381443
0.5004466227919339
-0.9539699685307779
-1.120383561184095
-0.9394009028797792
-1.372544363146171
-0.3430089702452159
-0.8513958442694795
0.49042723170830704
-0.44390405453444626
1.2347563871995577
-0.0795189654273509
-1.0736950574894266
0.22695699062436342
-1.0207635948655138
-0.3353557880732688
-0.43625964607708473
-0.6778363161648497
-0.8546435822658001
-0.21857174469520985
-0.6629039416609159
-0.21797026239312842
-1.2798016959664682
-0.757623002597876
-0.6777569500919852
-0.5265067049981171
0.006523689670458679
0.08769338476058204
-0.5603520450630903
-0.4376735310105626
0.40092468486078126
0.01126061921463346
-0.9578736711489247
-0.08962851800380808
-0.37120930860141094
-0.2641065391667818
-0.7030771696994151
-0.5956126915615984
-0.7346389062038774
0.664461582998058
-1.322550774736227
-1.017650770653629
0.6847367880976559
0.5348610290374844
0.5050331225714196
0.3189933825911715
-0.24373194088866476
-0.7134119972770018
-0.12432631966362753
-0.27645580980487877
-0.7025820987190063
-0.44329525388639596
-1.1380124796751208
1.011355347370827
-0.17561811045316708
0.22389819855198606
-0.9109377231180433
0.6789512747790386
-0.7916620250953342
0.5390703561423758
0.39750386061746923
-0.933337790642078
-1.163453280102029
-0.29030378797359896
0.8206221981007078
0.16708326598764842
-0.6156911215773466
-0.1175799139703314
0.4109256784487722
0.3770928415020177
0.007594434125413635
0.7721911928754107
-1.5621784852345468
0.0699440270379809
-0.8608169078175624
0.16855317104316234
0.41955345533388116
-1.5409800390889308
-0.545688183325358
0.1484073095463681
-0.5752319597469333
-0.7440105838495098
0.6332944078918006
0.7984946077077472
-0.07168346863055486
0.8964879743500084
0.32272668327412424
-0.7433292113506489
0.45591978213120465
-0.4875591874793375
-0.6870275587667437
-0.562022433595839
-0.6998639926440435
-1.5927814113459788
0.10091780660452286
-1.1516992121881426
-0.027616687146419714
0.6903450865260343
-0.3651409611883113
-0.0596410830841831
-0.029509283105130735
-1.3134527017442046
0.22506398435922884
0.11821667918274092
1.0592557179084279
0.36165368346483606
-1.5329340618633136
0.04430707868751474
-1.0250011053854953
-0.21342104508613002
-0.7553264206838981
0.7249003876006751
-0.9695500679057905
-0.7436484237767794
-0.6495256901793764
-1.2473841864158262
-1.2523834942300731
0.007444626555830549
0.8072016664183969
-0.9572467302790677
-0.4370197195531093
-1.3276027542745175
0.3121116589292023
-0.3771619490909582
0.2111943643455237
0.11023820096494961
0.2093108208091
0.8799155181243348
-0.8721049981361073
-0.8207202386488983
-1.0403400397697669
-0.9672644469972319
-1.0873162494870274
-1.281510124690526
-0.6860571231060769
0.38048503876280076
0.43732991710894603
-0.4638208077878928
0.40733861558721596
-0.5826576225700637
0.6540791831269942
0.5734878158443822
-0.18843073682584469
-1.2224096911505873
0.4969077883782602
-0.9919580015800114
-0.8661357262140738
-0.7262980107651349
-0.9842561006290399
0.15964751563274845
0.5429021724394719
-0.7103630553486282
0.17902310799054053
-0.10249525333076442
0.14522181542688822
-0.42081428394191117
-0.9214265578591236
-0.1733322030281446
0.1926448180237339
0.14137520830163894
-2.0042818620464686
-0.5932568355160869
0.3509084260213134
-1.3152863471122511
0.254802342578182
0.9716801984150172
0.05739529150581143
0.2541287552240788
1.2947746041297539
-0.8255608597156872
0.19116816180393903
-0.6794610687392661
-1.2004267687678385
-0.4424372348135839
-0.8951720474712798
0.10740327270932977
-0.3232598561526393
-0.4172795891967858
-0.5760564262997302
0.37257370285025865
-0.7564494675931132
-0.4916599452676231
-0.9252098546463096
-0.7592192630263803
-0.4719029074751618
-1.0736075913261247
-1.1157834420463546
0.42826874138168664
-0.6990332700206106
-0.4824724542678139
-0.5394908409466429
-0.6821405076912476
-1.050057987321572
0.34654271430715755
0.6661700434980967
-0.6622177686337493
-0.3474887990563501
-0.35449541275685803
0.4227260809749529
-0.07227707382557741
-0.2749330818517239
0.14340211442135734
0.10098425933535941
0.13252764211537188
0.8903065377974754
0.543649897626077
-0.36958766441542923
-1.1607555211534517
-0.0011880895133008027
0.6188801919976247
0.16573031586026757
1.072434991013074
0.7371384773748719
-0.30422266607046883
0.9907366035986567
-0.023082430874096584
-0.8446625315740511
0.2451733368310283
-0.4026510388504083
0.35332034403937773
0.24426277216073994
1.1890008351337091
0.8364178353001416
-0.9662657500602903
-0.06801224790747784
0.031005360058406106
-0.4822211796045317
-1.60700607141359
-0.29804383454088773
-0.3914029042365187
0.07160049422093043
-0.36015708705907834
0.2024955280988058
-1.1988405053910534
-0.12327991001446847
0.463832305587258
-0.20873760976534483
1.978340533125296
0.060279223352721
-0.17276865448406364
0.09130020243336026
-0.22506852831943663
-1.0989417024996428
-0.7757050227076275
-0.9521620852570208
-0.2801960173072876
-0.08326776950737379
0.726632037909048
-0.4202540843624401
-0.7674817290749837
-2.577487946953623
-0.4646034081936556
-0.26063833127941904
-0.8371909123727858
-0.6692372938630541
-0.10451210691018259
-0.627885866001814
-0.15926612570083637
0.32692056219086907
-1.2376422862213736
-0.09232803048137474
-0.8790555139134063
-0.7993497457053639
0.5060487914144909
-1.039666555886589
0.3339338454199301
-0.8429104561258586
-2.278143207826768
-0.34280623394323523
0.6704330924728055
-1.45478899871979
0.2852236887499633
0.41862265037434343
-0.13400256075290012
0.3120915561645013
0.3062215078869949
0.15138927139580624
-1.0304535682925284
-0.07155963989133175
-1.0914373160946433
0.4784210181303901
-0.06672489259945795
-0.5359530820788893
0.15249354915762237
0.6079503844415383
1.3917839138985608
-0.07484234718549723
-0.2357430158487326
-1.0213187391021077
-0.936980497797408
0.471260570318917
-1.9433613308878872
0.46209687732198085
-0.5564717701100375
-0.6639174715682264
-0.9023908522627772
-0.04638571365541843
-0.5332066912795562
-0.36619143449239866
0.009313855558620915
0.31474517109104916
0.31556375637948547
0.14109997767098673
-0.6308880756980441
-1.05072583198238
-0.5056233036119581
0.46390560996259117
-1.1591575430990573
-0.7248870931638595
0.1404241314717052
-1.5197953926427068
-1.700594459274977
0.30021227449638904
0.866688092150642
0.541453347203575
-0.23042166175046702
0.05003210403689868
-1.5898878712312665
-0.6434608062508391
-0.4319149105870891
0.023246712234192977
-0.4358287823613277
-0.15750234557404919
0.24770479843903453
-0.7375899077568668
-0.0037615756923622063
0.5427312648165972
-0.7165632450555902
1.3774874071450063
-0.7027333644403231
-0.32643395788461327
0.2955276102806464
0.21326055350334874
0.2775548762412045
-1.0469866688097769
-1.0825664445517729
0.060176066205128824
-0.34536888521944087
-0.8721012561819881
0.19697104445061395
-0.08758926900900123
-1.3988969505935827
-0.6503077925751353
0.790268524911816
-0.1603353014287901
0.1559208997391022
-0.2347510983754273
0.040004460857233484
-0.08014501151088874
-0.3571954086328545
-1.1311274696197333
-0.2113432076730737
-0.3427709754236364
0.012269153493296993
-0.4480353602365739
-1.0576658488279858
0.3719117402664814
-1.4368146554647103
0.5151790207974388
0.4360217830269626
-0.1908485386686995
0.29657666318709214
-1.2576675582059946
1.1281888799534634
0.20954265295945737
0.01885738009752804
-1.1830776309640514
-0.15790272547503365
-0.1222721543197782
0.37557649271014765
-0.5943115276959933
-0.7332113497687267
-0.4115974163499276
-0.5220151162534095
-1.1659699589972377
-1.2058607816248987
0.8853751445035704
0.2648741164614269
0.14366658594756418
-0.7223946646861983
-1.1474628798855548
-0.48601897556305385
0.07061191423364284
0.16974582978124378
0.18227977945677878
-0.6453271004969697
0.5739399008030065
-0.6665144340246991
-0.9748090442077167
-0.4954240326769312
0.007794929741684399
-1.0725013258318288
0.1751338487184101
-1.40632900099607
-1.7724483928706887
0.18011548561888607
-0.1492008522126801
-0.5626404160199098
-0.126339236366791
-0.48891096362951747
-0.3723033311539523
0.2225039061841849
0.35480079582621693
-0.7991917129588854
1.2001937190830458
-0.8742914864960976
-0.014168889904210915
-1.00093543923068
-0.8180790833555334
-1.35789887083182
0.06792065813375607
-0.6108118738848658
0.46940963120168083
-1.2946899892827917
-0.8505813560502169
-0.6347942888216259
-1.175454146274803
-0.33749725639303163
-0.2345515712414944
0.23472840056665628
1.1910932867656363
0.40069835111090546
-0.11808456194020167
0.7051844213235833
-1.4182013522906534
0.04609712459822527
0.3642266411726297
-0.6586192039385749
-0.38519905893929907
0.3441353851315493
-1.2512048649928589
-0.7298078278165392
-0.8873068001467397
1.5052046214686303
-0.5516404005630526
0.23186640762149396
-0.39194115154350007
-0.04343312733399463
0.0411626450136011
-0.07298483743597868
-0.5787680800941324
0.3268572065569625
-0.10063543435085054
-1.4663038174738978
0.2751212572953254
-1.7322337759679503
-1.572977555462054
-0.6760348344868653
0.008354995745055407
0.009664217724337894
-1.6492294471363254
0.4271749856712423
-1.0342915771357246
1.1446820260416908
0.2070264503660798
-1.024513115849332
0.38000064323844085
0.8651337169983129
-0.9880616562037637
-0.21236218562070594
-1.790940803631316
-0.7274949842594971
-1.087357062525261
0.44296965402430505
0.9444988394530072
0.4361140954982893
-0.8523226414842784
-0.08562571440692732
-1.1088637233585272
-1.0710624348491495
-0.3863670005318735
-1.4967908575555624
0.894690860432739
-0.8416657536101041
0.09632204281834147
0.9311933556330451
-0.2947866562773862
0.07346233832678757
-1.1096299003356953
0.6783657077809903
0.1533831731735468
0.0063703869623664856
0.34508387549397634
-0.5224326449849137
-0.7086983060117836
-0.4947561287704215
-0.11866865214824728
0.6288553062150819
-0.4022549931645282
-1.1043245067651108
-0.5761944701752094
-0.6977752449555231
-0.13854871413641293
0.5909888019686272
0.7431268027212472
-0.3583847065895084
-0.6079449944831629
0.0331491276809942
0.36611329041570434
-0.14940958663061835
-0.7882443886138311
0.029387777402376223
-0.7604121742329628
0.5560008115816615
-0.7411174413253728
0.4285174049077376
0.48531432557138493
-1.1655328988764488
0.34429650028708925
0.28592473059348095
-0.5407363898145695
0.13863610337931215
0.6420783898182528
-0.7592560463509652
0.7560873145381896
-2.245624997119234
0.4614839211615943
0.8010237825605593
-0.6105457221099124
-0.8395957222841482
-0.2437568632815674
-0.9879587099388465
-0.8458791660644108
-1.6931385573609452
0.5248658902655695
-0.7470531462061833
0.37511901549056087
0.11007699065603067
-0.21442854096779457
-0.7897811226054409
-0.3049560985174526
0.46521094012141456
0.3603796285364256
-0.00018805876447783066
0.12720170247231788
-0.7088876148095522
0.6998234008946354
-1.1690082270199424
-0.7009290088730918
0.20298858446667592
-0.3793265721648102
-1.6729743838107674
-0.857076467354937
-1.6267059196553584
0.4569708386676516
-0.9148957870194305
-1.0022825736462913
-0.3746356875737869
0.41495223363581785
-0.6747882964234669
-0.39357651107058766
0.3735905149048193
-0.7022674953181989
-0.19194386693309953
0.4134649096527356
0.2973867637892947
1.0721547607427135
-0.008150827994460583
-0.8196273927643193
-1.3479127689108021
0.2428139832413763
-0.5550678366353429
-2.047840883561529
0.6588326993523135
-0.515197479315882
0.02305804361175442
-0.9443825774959952
-0.5100834317471084
-1.076316148807594
0.3539952209961138
-0.24398235020832196
-0.863388321607999
-0.004573705165678639
-0.5748513752633185
-1.373623824239457
-1.5299587084837492
0.4547881576094091
0.21113258661861256
-0.21593194573426625
-0.5298427894552977
0.41386804983346454
0.4883422370343385
0.15298995808956203
0.2849654088378019
0.15567451103388152
-0.47924326642257103
0.7823761938644392
0.7193734600781823
0.1391155126718562
-1.006136806901022
-0.7209090435928436
0.6515446427778547
-0.828858860368066
-0.12775412681969
-1.3033613343505044
-0.2877478848070296
-0.678258376206313
-0.4057640866618038
-0.2228575487305174
-1.8234652856165547
-0.7282447050941069
0.5438346341492797
0.6987237183963754
-1.0307826507449762
-0.027057237227115134
-0.2780573115982715
-0.5546714497874253
-0.3479057229624653
-0.17901433991504617
-0.6962429917269065
-0.7770520131131791
0.9987277326704623
0.8639813210150749
-1.1772315725391946
-1.238700760151866
-2.2516762628574893
-0.9737228145333816
0.47334104641275765
-1.0766344006675277
-1.0973526231818527
0.12038767541979455
0.4218182336944798
-1.0544116751828194
0.402720796520001
-0.2902542264510016
-0.33285542608712065
0.18240274858802896
0.13343840954297276
0.3321546644448355
-0.9321103165093098
-0.11017679329557672
0.6474457852954975
0.16110121419850715
0.530142159327712
-0.03555415054869957
-0.20916203139868159
0.737131342475966
-1.248321506314569
-0.038497495941790916
-0.7547222267373913
-0.7225049021426958
0.25293076289112626
-0.9603624523313931
-0.923153328107561
0.6342719376795994
-0.373308006313813
-1.0264034642378344
0.05658676369147436
-1.2970127109134204
0.37980359769894523
0.6794415034466326
-0.7020372620890554
-0.9640951336901015
0.06918339690860832
-1.31695915395514
-0.15556892518773388
-0.04247552346357268
-1.3719078090748487
-0.39613352013898573
0.2251669205291268
-0.6920180359260653
0.074986819628153
-0.19739907846723723
-0.007924054972744987
0.2205175010098535
-0.4153823044440748
-0.40628030752195465
-0.10759648425217601
0.24434112894679208
-1.2015047429781218
-0.19745103463468855
0.7038591407430761
-0.8023806936205192
-0.6651539927504191
-1.3129520755945239
0.4100494885170818
1.3141672196708725
-0.43472282330549494
-1.1683960550006138
0.21875857511888433
-0.6907199331534477
-1.5793701717897282
-0.6332376181788832
-0.9459136861918133
-0.31930512825049195
-0.32047865306623696
-0.6053046865584131
0.37222986489443916
-0.7743353869153204
-1.3303942859921143
-0.836391866419813
-0.8260245821759796
0.03791739679415224
-0.5997015259255698
0.7621973510520229
-0.8837609053943845
1.0480281048474531
-0.31485492820299843
-1.202394320120394
-2.3328398107222887
-0.25962134261560865
0.46180047664941737
-0.346780086308342
-1.1691258486083305
-1.02426922807991
-0.7826734500967988
-0.9498616236631693
-0.6527491000884585
0.3701844942732861
0.5301924708832784
-0.07666489774599042
-0.281040875666935
0.8215592408808022
-0.7081407973602046
0.9981493101262815
0.4010141828353531
0.13795054592318529
0.1257210643185389
0.1260658431709397
0.648331458240628
-1.5574992862744552
-0.20066899086717704
0.4709094444582649
0.05671225441456309
-0.9489351807476653
0.17489102470652781
-0.03919175917622189
-0.30966455407390686
-0.6537170762699448
-0.6242093636746596
-1.5504582046716868
-0.5359042939636207
0.6707734485285559
0.5527620325125857
-0.6163405646953455
-0.20870979591382038
0.48740625838198665
0.4838166082046249
1.3449372961890167
-0.586929263889708
-0.2080599129275494
0.651656090657001
0.2431694902292773
-0.892670478214607
-1.38733707031017
0.7470991004860736
0.38262964217695733
0.18785162227363755
-1.1228570512766884
-0.89717852556894
-0.37517539607943995
-0.812430382918948
-1.1523080657746252
0.8693015511077818
0.009259948426191334
-1.2147955061117384
0.42966175672020496
-0.09872210171497106
-0.8440232725343753
-1.4212926647178397
-0.7941197174963359
-0.015121524513671589
-0.46439473287572863
-0.8992899695827588
0.3240318048760845
-0.896857682822928
-0.605920031668566
0.5281588008958142
-0.04950775099990698
-1.0507636764484283
-0.399914126061189
0.47545597534267375
-1.040973414553412
-0.412066221580375
-1.1046216094728254
-0.35625586962453654
-0.03914574216331128
-0.6173219604655285
-0.21429991728238762
-0.3726192084269511
-0.884800145630199
-0.17160388551053912
-1.4205693372013477
-0.9579405247603334
-0.2837317980201296
-0.6049513329656954
0.06806986453718923
-0.6031335172639036
0.08892283277836839
-0.9571185394857715
0.06195409675329532
-0.7783087640264608
-1.0722928951893635
-1.031627884485253
0.5250336637012117
-0.5612802390593192
0.2620896872157676
-0.07978970089283477
0.057897447577466496
0.8957100742833478
0.03927719067514172
-0.9549126776096162
0.2541011080733813
0.41110935203345295
-0.9652459060991074
0.5336085042656061
0.4018952834778397
0.16967249020087238
0.17209037207639322
-0.9285075645270675
-0.667197128139085
-1.1669023711957989
0.3928798683475543
0.5916970189467687
0.057858208446320704
-0.7323961403587674
-0.8075717759981141
0.1855844660211184
-0.18970676096295422
0.7922778533629744
0.3329602244505079
-0.8751026305491378
0.13631547979466066
0.526447361458949
-0.5277002229236007
-0.6763110919517298
-0.6159124966442022
-0.17441351285357046
0.06540075164833326
-1.290005524032381
-0.7787666766316664
-1.0810225047023998
-0.32962687613333724
0.5215264137708296
0.6636778868160619
-0.5745102615109825
-1.1833711875729636
0.4375715697534187
0.1790538539792168
0.6157532645329358
-0.32162161024756897
0.011800403863611197
-1.0585577908561234
-1.3592711734010032
0.5170019543413099
-0.003454857089749002
-1.3242385077599457
-0.9501123542913564
-0.8106220657648274
1.098044015215959
0.30720879789779476
0.672920490392687
0.9347074702810052
-0.6620891200116553
-1.46344442353004
-1.3581169665904582
-0.619811408623095
-1.0592379028776757
0.4365125650354222
-0.4366167073336493
-0.5838731583681857
0.9858697366848762
-0.6491431716569102
0.23318336284833774
-0.09901727012468962
-0.008304853919412308
-1.1310812452520642
-0.49558620094506656
-0.5746438169776572
-1.0465220681226264
0.15872264203039885
-0.917794422944519
0.4040858184927807
0.4106376666568068
-0.5286789454875009
-0.10466389510800836
-0.19169988516615769
-0.8039232491536655
0.20655275509892468
0.6114798137416676
0.05128986500976404
-0.9703988344527832
-0.31822073615031365
-1.038379383330455
1.0439625161157124
-0.6823669238011235
0.05385121889674447
-0.017608532953018907
0.18265178431321857
-0.6425173778267889
-1.2543556962598041
0.6885743725875563
-0.4389890752030404
-0.9661792811598692
-0.1368541998623663
-0.6562885774916205
0.809719858646589
-0.4171096655570539
-1.7133885334634131
-0.195409543919103
0.84190013923459
-1.5061581861850621
0.6472598624921378
0.07240022167917991
0.3813466260908115
-0.27487557195451817
0.46134977705974267
-0.7392661325984676
-1.1010058451185283
0.11698527620637532
-1.2486053917654019
-0.20402725140113773
0.33747479353898535
-0.5778162628224449
-0.6738943616370189
1.7347313653495628
-0.5885552042046603
-0.5675167772727877
0.210807461555398
-1.127148685788747
0.31118076287077234
-1.30573167182567
-0.6771101249833322
0.582361382650909
-0.014430672169294004
-0.005923236787399087
-0.3438168880822946
-0.8686246632630397
-0.009578795153951495
-1.2509193283057958
-0.8612795715851218
-0.9600216943238824
-0.5161705693903432
0.11240238824285777
-0.43806411189472516
-0.37229598572851397
-0.0059039985163168
-0.8696975336776805
-1.3291153641329871
0.7932951227263271
0.5533972043784202
0.009027712792843597
-0.5580884922169381
-0.20485099092381165
-0.31115567991624904
-0.3919064239813563
-0.8164843804600768
0.2261333375310447
-0.43809018631521557
-1.0281410843682117
0.7490928536103091
-0.16321582002580506
0.47777870767507885
-0.9242068839384966
-0.8527616282224748
1.0940567173497913
-0.7452436106412901
0.15632763440817468
-1.0613803613415551
-0.2888128778552618
-0.4549247547706549
-1.39140030643918
0.11004603578798862
0.4827743826299123
-0.9482406519173866
1.6479914852934627
-1.286822788335407
-0.2588325533042392
0.8129556062109703
-0.018793512116059223
0.5852265292075778
0.41517584670599894
0.7409165606882
0.3534485950429485
-0.8065230777099374
0.6037522311246041
-0.0674725674090511
0.3516335533586366
-1.5387778432000356
-0.9200973153241052
-0.48080025048609126
0.22888513609283442
-1.3082293927214572
-0.24744139752933725
-0.43348486716356516
-0.3427347668249165
0.2289003367611592
-1.5138835534083106
-0.7701849018062888
0.10403927210907708
0.5751796442794527
-0.18720623796528402
-0.3945170222577694
0.3531396813254854
0.48500651870596406
0.6054712023039379
-1.4545056305496982
-0.5091896991333715
0.905321246549939
-0.9509988260170318
1.313991613744163
-0.6949254278369439
-0.21622996260159127
0.12345195076394963
-1.1273850806181847
-1.8618224606710045
0.24375119316705493
-0.6201569918615971
0.16614023014221618
-1.148889646811566
-1.0504006353451254
-0.893648493850859
0.32966386694899
0.4445455579302197
-0.9752953892198821
-1.6697311143904656
-0.5742453272839648
-1.4159357295364057
-0.5290890926166941
-1.5020022079585216
0.4246490856633146
0.6551246127078164
-0.540202162109316
-0.17318114159840423
-0.9311737656531764
0.1464249569640318
0.6472883243593889
0.009584359332706115
0.28554122145971095
-0.4476371641154039
0.6271343487124317
1.009948857570394
-0.11836015241479031
0.2197738563359662
0.14746039403086825
-0.278772593094574
-0.42096649451559626
-0.45243621728516015
-0.4568696740307378
-1.0534983282010721
0.41650834447568946
-0.35538913612203343
-0.43113854327880147
0.29061513416947216
-0.5874295400818209
-0.08155554965479378
0.4868118113152198
0.32044944584658736
-0.33700434885424446
-0.8880296309378368
-0.19825617738825818
0.3002884152908535
-0.18879047498022555
-0.5579761424514863
0.44890738883777986
-0.15241018573144088
-1.6316496965165452
-1.5560978672124177
0.001815537139748267
0.03929285842744566
1.0893267168561855
0.7814754799825039
-0.3248183239591378
-1.1823748921938635
-0.4329859444892349
-1.6160257157172895
0.6878158212722928
-0.5764869714825508
-0.014962514044636105
0.8743958035912055
-1.263966211966391
-0.9447823563990029
0.84091818946626
-0.1501456026731828
-0.5418195672208498
-0.036324991427263954
0.22455239149034587
-0.5248363163743882
-1.2961143290458692
-0.119144345425046
1.8863354551968423
-0.5714730705190593
0.6064766097374805
-1.3787079963546625
0.46841204057275243
0.13660728889737198
-1.0974713951299404
-0.5531581832444414
-1.2188950395398166
-1.3991444394342343
-0.7567234500686072
-1.3024693996460446
0.35283346202461685
0.1252943692118097
0.14208821712840128
-0.6579619740685764
-1.2994190137868442
0.12820564604501056
-0.8095125565572899
-0.36500352721161095
-0.6277042710943265
-0.9507371998387768
0.32538084334285666
-0.36298722636842873
-1.0396499416865375
0.22988792453160092
-0.3302697075762293
-0.4237245243494144
-1.3216921682631146
0.27734116969867983
-1.8900143119692874
-0.15991941262292894
-0.6824742454416199
-0.22937183969892458
-0.3881756746435783
-0.05733656376682433
-0.4052801447021874
-0.8860164783269974
0.008839116787143211
0.1390895809406374
-0.17218094152476668
-0.027151816538575044
-0.11641681568799667
0.5869335246257139
-0.4773247218290903
0.4291738403176491
0.0828568189085143
-0.24140157235841214
-0.9229277870580299
-0.524578943923199
-0.9174841141166887
-0.4079458060655214
-0.34429282599205047
1.0994454948624812
-0.3909032479553499
-1.0390944849542487
1.0228560188054858
-0.9018276835415971
-0.7476152844762163
-0.34597338052335563
-1.4299329418506992
-1.241675257333133
0.7988948340880829
-0.6705720984511369
-0.13878220192963855
-1.3359539084840684
-0.13743890792428962
1.265999585456215
-1.226293570423384
0.5653452017870357
0.006060702850279712
0.6309368530257586
-0.06761211981356069
0.5826239030749181
-0.7419159581528932
0.309253174398924
0.01233355419158101
1.7919602608752294
0.1866145020956762
0.41385819758785053
0.36909238016213475
-0.3044637763492376
-0.409295124783955
-1.4397711373426447
0.4606908394637619
0.16824527081897683
-0.053415221796087306
0.10893599240047634
-0.4730368251719065
-0.21818653236885813
0.39907375761256
-1.5132928462605424
-0.4416311184133291
-0.605260767765361
-0.8553006171520625
-0.5177477711006906
-0.8986434076999708
-0.8175749153899031
-0.9146364549319767
-1.130315802183009
0.4937391040749889
-0.05377891690032376
0.5110224602837965
-0.7935385604744674
-0.17367343695885734
-1.1035220062962254
0.7285819476768098
-1.1085704417342181
-0.6136447319539332
-1.153167342656897
-0.3094988353925954
-0.2183728546177571
-0.21527750479935476
0.47344164454257703
0.14545949543504377
1.029191836432892
0.1741216175404167
0.4237248678103209
-1.0166419676338267
-0.46179256213589887
0.2155032409130318
-0.4751929581961185
0.04776963559966115
0.005845629106394692
-0.8020163525960536
-0.4583897413045497
0.02285269776532278
0.14435453731237347
0.35338523010891787
-0.007018295183590777
0.1900681706517965
-0.08917708749664828
0.2877153042262388
0.38335734805286886
-0.8370939247527032
-0.014913783218732154
0.4564173935224477
0.5241806427672122
-0.925689059875321
-0.9009238711863261
-0.8172338317800312
-0.050643539430837756
0.45194360904443603
-0.9123885728310386
-0.018712950489131387
-1.1390899442480107
-0.17783925988192195
0.4970426029859308
-0.46662414533175756
-1.0905292390211117
0.041531532985499775
0.4845276492749531
-1.1701049251059663
-0.04506679928157415
-0.7580664945638963
-1.5119898240530374
-1.0453749299663835
-0.8741108546909061
-1.178783213931311
-1.2415758393445233
-0.8694625564229586
0.31904518765159035
-0.3940955667444458
0.1875917710634745
-0.8917847409053832
-1.1381210460351652
-0.6024827910389937
-0.4680895929649967
-0.5913821075496183
-0.10213813966124559
-0.3494911763313276
0.31830836502976506
-0.30377434373519135
0.2643995619955116
-1.3848204047304034
0.5594320642092627
0.29603407836048734
-0.35787437817014184
0.5457092491637018
-0.1901898468614033
-1.2298141081249367
0.38569678202625196
0.19139069591455943
-0.6906292669867293
-0.43432815006134157
-1.0413260839304246
0.19654611578107672
-1.003502713583515
-1.1897670338288044
-0.041506752977311955
-0.9520192281807118
0.6365104029773877
0.46388027542748606
-1.0982670132423011
0.012631681656393863
-0.03225821161083405
-1.4382922874325261
0.3932474846264097
-1.0516301999962774
0.5234724121307561
-0.8273756334813623
0.6589946444208487
-0.5833858852664433
-0.22103489983573776
-1.2157446326959762
-0.2184687121322264
-0.9319087027902568
-0.388594574551983
0.4362893029994577
0.6913009584610306
-0.9941078727812352
-0.5976525760369302
-0.13857332650450405
0.07875965940168625
0.5308117748488064
-0.9150712802577808
0.41565526935371544
-1.0059156261739641
-0.19300249054242224
0.5571029838734275
0.008084604558721663
0.5574624934092168
-1.0410047401620446
-1.6590421731147438
0.4964241722430249
-0.7635264138737771
0.1023989281554538
0.25591279907309905
-1.0666425388605631
-0.45051649881807726
-0.719166063244297
-0.3388176267288372
-0.3149938780073966
0.24320649157781907
0.20831546978804158
-0.8142415004389939
-0.29628069927982614
-0.00018907675680175916
-0.643756915971631
0.4968146858305064
-0.18660335866480368
0.016842054201928233
-0.39737349209286466
-0.589691976107253
-0.1572301314260461
-0.7260731115894217
-0.07039867723058219
0.4628658916578509
-1.2410499705343718
-0.7138762508924943
0.8104465869257123
-1.046108376029364
0.36083110309759875
-0.850623793377391
0.06761138808919273
0.19055973547516675
-1.2393168811671695
0.2415637842216801
-1.2357076017376483
-0.10316902808941089
-0.022671669140520802
0.08342346175356533
-0.4385975838155029
-0.28107696693155104
-0.017110834736140685
-1.7517752375167226
0.04774792993136585
-0.6102583207910317
-0.5136467673109184
0.1503601171071773
0.35677539516322393
-1.4685890754366775
0.29581308786322946
-1.025366898982119
0.3621120840238891
0.22874611895773886
-1.3189816788877917
0.12421209878881767
-1.0868916164418212
-0.9711768386409654
-0.41269463260549855
0.8928480666894356
-0.9086492392427391
-1.029921175355018
0.2711242233321227
-0.00845992259726825
0.06884726802943873
0.6615237053876303
-0.7171667202046667
-1.1654450454851288
0.557153596525959
-0.49386276834036236
0.9183685285991049
-1.1826238780413103
-0.7703074904534883
-0.2616961727728547
0.5682294520805055
-0.742149358604551
-1.1068014794600056
-0.4601364448666584
0.2750225252237214
-1.4650118481108156
-1.4561640846792596
0.5590316971839407
0.31625274084506344
-0.12065385126909213
-0.018445784225388496
-0.0034716423894055313
-0.30273162038440826
-0.8255919042557527
0.2568220012734634
-0.008901666520409513
-0.9190038988052229
-0.6954728052423592
-1.6397806457042334
0.47819297009139133
0.20406521175267853
0.3453179941333222
0.5717833299710359
0.30391717961778814
0.29485129154762285
-0.7983420533613298
-0.5049228867917719
0.9247227589152855
0.6518110123770808
-0.33444793353060714
-1.2052853765249334
-0.6114136011774419
-0.6585085778742161
0.3624786168924292
-0.16898465376594007
-0.5668957843121518
-0.8026868010292697
-0.008021408683740697
-1.0467486376349953
-0.5160951890199114
-0.19634006472481197
-0.9161748668446673
-0.46300433864991913
-0.7781578827354363
-0.49024527633619996
-0.3327189264318053
-0.3470378921186031
-0.628341662167748
-0.6506789214869305
0.42801291251544177
-0.17974508876980666
0.028891925510894468
-0.15346630867119132
-0.7925464458427378
0.9505495052705384
-0.5298641693128429
-0.31343151097466043
0.01265259018973661
0.5209060806904464
-0.2365601037561974
-1.1328321071023304
-0.006909045208222919
-0.028036009522373232
-0.644484763576277
-0.19266261984326796
-0.11444309810941407
0.3780500882895102
0.17575020736907102
0.6004081682788647
-0.005570536251407274
0.1444644276182033
-0.017199518842428617
-0.9978293485540985
-0.21429969786610473
0.012684566924580296
-0.6563058720896743
-0.575173240224517
-0.7345313598410383
0.23406182558888064
-0.49145844490285384
-0.8882330738574968
-0.8259771604573368
0.11180350140487287
0.6043046726727239
-1.2296380401254603
-1.030102186098453
-0.4205697958926771
0.5491131533353616
-0.9548640607369819
0.21712004550513517
0.7121956356410848
0.19298621771337204
-0.6326019769554481
-0.7452882084155338
0.7430767577189293
0.06061974780515264
0.050975856932881154
-0.5335440487161438
-0.13506711792645237
-0.742740673830342
-0.6240866664941223
-0.9119250802116908
-0.41148401503128057
-1.210786675866724
0.8548769228620104
-0.5647320948747498
0.0055994440375221905
-1.17798852192502
-0.40289059322832593
0.5550635514735719
-1.48489463211121
-0.594347561781453
-0.2816530262949202
-0.4920486220870483
0.7887012325179645
0.3308476776011826
0.8717243431289831
-1.536125983105492
-0.4470996923221233
0.8289576020865687
-0.3252732083493614
1.212609136145664
-1.3702442555531822
-0.7600042976128683
0.6924436111734262
-0.6838744387387656
-0.7266683343986249
0.575692741734481
-1.0221898350113223
0.6547698748990041
-0.9827532931073536
-0.9191880973799702
0.27286533357595977
-0.6254195849842963
0.5299858004632768
-0.7878743182497928
-1.3572426983386063
-0.23987428802665942
0.10959133220859574
-0.9342221706849555
0.6859448524946695
-0.15260085076527607
-0.345597047421808
-0.4944752114947837
0.6776746809493182
-0.08681915243323744
0.5117640400484912
-0.6266524885480484
0.6783253390657467
-1.129196335196477
0.8674877168856514
-1.5487655656454065
-0.4641969851272115
-0.2770791768244409
0.2849417830921704
-0.4035205200726962
-0.9682315562850775
-0.9634410928335185
-0.2109522548933154
0.8980650154460679
-0.8757468210141552
-1.4418708501646846
0.1480084910854381
1.1091181955319702
-1.2909116071956095
-0.7569821648012188
-0.6521676758053105
-1.0794802401969918
-0.30858716467399966
0.4610103415442965
-0.7616708369165586
-0.026029253717939706
0.05319073353756189
-0.9199841660090834
-0.3384052505303023
-1.0422443333286935
-1.1701094493409145
-0.8721217401958794
-0.6317990455441486
0.4170499346507859
-1.4041666592836624
-0.09913245089842071
0.37695606461934894
-1.563221353482561
-0.7934965526452277
-1.4173546477457746
-0.40315852851671363
-0.48395305288714097
-0.5692486950960962
0.07983752865450798
-0.11123313260357842
0.47942672366775474
-0.7440044993680202
0.08442942726377065
-1.2778981147068633
0.7575649444153412
0.6850733302149513
-0.0054428198114754925
0.618881830658629
1.0332314144885497
-0.5518528105724464
-1.0713347190584435
-1.040497960223363
-0.3408326260578025
-0.22929229492653624
-1.993628210197975
-1.0097542579861678
-0.13904804101234242
0.6476263171836147
-1.0059538922978004
-0.9291749773112065
-0.06228843892043015
1.0866892004761026
-0.9042110298623217
-0.18551790711050442
-1.3837036265184421
-0.016441675504941664
0.5495920199223631
-0.007984159205617134
-0.748933836535048
0.7353163327847563
-0.09909304759374113
-0.9031686716410906
0.6122104953951396
-1.0317583698967385
-1.4054543502985541
-1.0830972558552314
-0.6687818256126029
-1.0321042625775882
0.7462789653981425
-0.9320826089694669
-0.6670818111715054
0.013382111177318924
-0.22037527462276066
0.07165414427443892
-1.8289139599433366
-1.3080232069715405
-0.8702325943065857
0.9211376929650534
-0.3057545812610829
-1.376091076728224
-1.3440950283409858
0.47435290576260725
0.0002843359338061203
-0.33229587193030286
-0.7748271871304784
-0.4203354522215973
-1.4268632981330651
-0.9184192640361101
-0.9959879654949827
0.3565417751222271
-0.7595428820870037
-0.08145385441586486
-1.7216828164276134
-0.11254276028053073
0.6213265688933948
-0.9688411676966329
0.905102119205701
-0.005416751594469401
0.07860142170005506
-1.627702596894068
-1.0808555553500152
0.009411963116251755
0.050561584875619556
0.8497694887586882
-0.09405187934502884
0.44760971189285614
1.1058817902043765
-1.4542904133577783
-0.15047157662244418
-1.0442952344124155
-1.0817726848733271
-1.4854882273007808
0.21879555617765364
0.5332961929993059
-0.32927313388398466
-2.1810757249001016
-0.668364089160311
0.2167615033396794
0.17942761021261425
-0.7240008977872299
-0.2507661158429302
-0.0951648598695695
0.37781355624336777
0.5248761721262866
0.6826791553321607
-0.3640774534818467
-0.6446976935116142
-0.005641616475813809
-0.27924948838242836
-2.2052709999937288
-1.880013420462575
0.6265378557251342
0.8193532346092217
-0.7485536349239688
-0.799300464403738
-0.47287838532606036
0.7546835311643239
-0.8733403177618795
0.7263917600580995
0.1524489241084051
-1.4222053012301783
-1.0309753975196299
0.3401865769906607
-1.0417989482900774
-1.3188710844435805
-0.2670942225972519
1.587180603764825
0.4552565893076998
0.21104761536520636
-0.22568648967114077
0.5713790336668979
-0.497125070476255
-0.9401211055588662
0.019167184643480654
-0.5261282815526969
-0.04679706348126279
-0.6939371115781301
0.4419690391046323
0.6288680158658146
-0.18127994840485148
0.5283597416439242
-1.3189133027844597
0.8028334685062789
-0.5302355136494457
0.2672599216893646
0.30610533938442225
0.24274543134086612
-1.1831888836134028
0.44815930963294726
-0.5958806739732356
-0.7649941415416526
-0.9618060860943526
-0.49315823254039026
-1.4296186363733951
0.3458850441640696
-0.7631005529891477
-0.28895926166710373
0.6186176332788467
-0.7078758146689618
-1.2226229111185827
-1.4865360213813699
-0.3778020728362047
-0.7772049823310767
-0.11625971417623049
-0.07143590859817177
0.22519199544278667
-0.8914445433541736
-1.4577830646496364
0.3391437508245957
-0.3735725095863175
-1.1541793756331196
-1.0114403768125695
-1.1944040931750413
-1.213831958547616
0.3153029039380364
-1.304140620855492
-1.2298837766005355
-0.7069547616463554
-0.20750822441277503
-0.21464802317008508
-1.5609955666237485
0.3368309799128027
0.5160188093489608
0.4550528088700675
1.35109601548815
0.32752089176683297
-1.1754253752290154
-1.528224305083925
0.008201608222496094
0.45854001636705605
0.6500031279536985
-0.46178281216228745
-1.3619900698546454
0.32059558994458903
-1.219729497072961
0.6541162237795942
-0.08942543794814603
-0.7639040593027667
0.001888538265354272
-1.3890212734160854
-0.09917104042085031
-0.34925527369269516
1.8175101617288003
-1.010728152254803
-0.7353152354028184
-0.7555629860254163
-0.40919251891061714
-0.308693081809424
-1.9554605747800424
0.37042214715350913
0.4504062263454642
-0.9247916346382634
-0.6434194585692289
0.7934169912531843
1.2468991917219523
-0.5361726677353164
-0.6831545747442305
-0.9606492597211642
-0.2693350382320168
-1.203249317225906
1.2091181121974643
-0.6853157581127157
-1.4732594631942826
-0.8383257337922925
0.5829341973347505
-0.9859627972328638
-0.0044850309155008644
-0.020565605065422238
-0.5798981224593093
1.1884778085661
-0.1124209136174431
-0.7165002719714868
0.10238821398747468
-0.49696899366423675
0.47401254306890284
-0.2075545399725731
0.5924215123548496
-0.19637229878557788
-0.9498338497838633
-0.29461005543082647
-0.6591686435859091
1.0267388694669513
-0.44956344072105525
0.7408092365825778
0.38401045706934833
-0.6305644060632862
-1.2609859854133176
-0.6145009775373703
-0.736970346568925
-1.6708299734561367
1.1310824407241262
0.36295038461132495
-0.886295547521375
0.2231791578510337
0.502672651202179
0.10645250709958332
0.7709656360094832
-1.3093365458929012
-0.6463963461287222
-0.7085759273834779
-0.6404153397588449
0.3286436404751383
-0.27498548364989844
-1.0176112951509635
-0.22831615015437784
-0.2876256361763246
0.27977407850722735
0.00040722768077602466
-0.41740539701081864
0.7389679152703795
0.33660274123252126
-0.289343518990546
0.16046127162927193
0.2255041534334546
0.45740328652639994
-0.23592617630362908
0.05116497119322999
-0.6198717848770209
-0.9435276656228765
-0.270184302547071
-1.092220332498293
-0.6631712194555957
-0.8137678675384356
-0.48818526184505406
-0.07042436265170293
-1.4925405159126834
-2.250337097835184
0.09980704649438746
0.5956124356352949
0.002858892377899656
-0.18666480385553555
-0.9591508222526512
0.8289137565400713
-0.523356159029468
0.22571511124722302
-0.9744970708009556
-1.0104270680670397
-0.7052834638869437
0.05476206197680794
-0.684879579963349
1.1738193468312208
1.4606056614627818
-1.4534067135588977
-0.8380809520631777
-1.2943089643244312
0.3171979185423064
-0.38221167825292396
0.7129319059872655
-2.2248035354829945
0.38439349238598297
0.09419124741580999
-1.3554236899321563
-0.03396569820426387
-0.05627938271099408
0.48584170661866494
-0.4195001177480605
-0.08792707229225664
0.6396793979249273
-0.30689379521798815
-1.6021859243244845
-1.0561430634711217
-0.307641114775902
-0.789420983669849
-1.1219642061478143
0.32674938455176933
-0.8903161389592921
-0.6637825973714764
0.587572187106749
0.19811758392153506
0.10583056732124385
-0.9719937800060591
-0.4426386574139504
-0.08083310803153537
-1.6627371574962915
-1.554469282140525
0.41376819784449964
-0.4726136891559961
-1.5348419591805422
-0.3171911972986704
0.9756029124470724
-1.1383681715380636
-0.028905795810213453
0.19987087556644761
-0.8288334786748874
0.5757019905423988
0.28951026345895614
-0.03043734749411556
-1.880243388650774
-0.35072558929335435
-0.25554227929608675
-1.510641148890857
-1.4942619678370301
-1.1813204868711922
-0.39889962064773926
0.6614451170886511
-0.6656805447022988
1.0196156707145354
0.3051587501152993
-0.3384712865566367
-0.6833920504848982
0.651343645011436
-0.056359084586282984
1.4613366035167354
-0.9677008597560538
0.5748382007739204
0.12250371945187069
-2.3997274664227186
-1.2061898113123295
-0.4095084177177696
-0.48676382840556937
0.7848505745241995
-0.6375485311658332
0.41406794992516927
-0.9957977988124346
-1.245143261235105
-0.46051183977358917
-0.6557626703852149
1.4270775246027756
0.024554761347871882
-0.3057107172330547
-0.007122403599985283
-1.0308312948634686
0.49713693288572647
-1.314346999190492
-0.6172327075402291
-1.5863758470611429
0.24348962280744435
0.3543122321153451
-1.0859873242885534
-0.8557092527758422
-1.0108723917808666
-1.2848943646057407
-0.8870952111508721
0.23850209352743354
-1.1306343971986947
-0.6411876176407647
-0.621878112822117
1.0472245623647518
0.8645507516497695
-0.9483656003025356
0.6515904557260556
-0.8194811484602517
1.6418252692207123
-1.3966706989055147
-1.1992036296363653
1.2673391451357803
-0.33873402291127647
-0.6815720669537196
0.11998409236392023
-0.42087362252680227
0.0038377814005415263
0.01737974635937825
-0.7219714103637264
-0.611523347836014
-1.4995763301217022
-0.7540183451353303
0.39367240401195186
-0.7977872217687352
0.25067107201717803
-0.3255190308606369
-1.0705838935354515
-0.491244423683376
0.4463951748056195
1.761923994699714
-0.30270332102460323
-0.334937775783009
0.22000217284184728
0.15914252452472194
-0.9823599269424467
-0.5727073465303475
-0.47564015048163916
0.8080158240258757
0.3377332987289506
-0.760188595737238
-1.6984545278293912
-0.5178296071290177
-0.27554134517903456
-0.8267050283212757
-0.6125896012351184
0.6014028899060336
0.039351114062378095
-0.37428239566636823
-0.6508808513892758
1.1591219764892167
-0.001696818202355835
-1.1232308348327993
-0.18337475096513303
0.3675683641833015
0.49074420729269597
-0.003501382475289142
-0.8218160781174945
0.9095690110040588
-0.1876217040608839
0.6084557994218436
0.13558872417975756
-0.46816643170927635
-1.7550348611450046
-0.7190795842085861
-0.44885588809678345
-1.2956087791796596
-0.33847139463630377
0.0028566874401390976
-0.29574236899582923
-0.5961265717367028
-0.601176009134956
-0.1576619518963409
0.14925332220705145
-1.4572439147633642
0.12086422137014141
0.04359933735012202
-0.5720980765654274
0.006676413683540062
-1.0760166343510267
-1.406611296446517
-0.11123509324824318
0.6359309346077622
-0.38898590028401725
-0.8922670110531652
-0.7780248939823805
0.302299321310037
-0.022470732779259497
0.19708486027445535
0.9359814790145995
-0.2698190820148513
-0.45876271967324
-1.3594528176695468
-0.293323708884413
-1.1251521146926131
-0.7262166373687484
-0.011930735341265888
0.7083699565502333
-0.9845785938338834
0.9963258021260801
0.26354316076874207
0.29519894036959476
0.2125726185646929
0.7276056705419092
0.008786303979448531
-0.832474985891992
-0.025279568141625047
-0.3088172230200071
-1.1932897445423485
-0.9315751587877218
-0.0999882500337821
-0.848977385589086
0.23004370187869758
-1.012526137678629
0.5826138555985166
0.02046218682239007
-1.8081021848658458
-0.5305549590894341
-0.03628328710018419
-0.4309251940929566
0.47114642245345884
-1.3767999657833943
0.4867334344754389
0.2812131226084436
-0.6633902953748656
-0.7766145673926255
-0.03266553321879985
-0.4690736799504993
-0.19699457361761732
0.37612609114701345
-0.6484097749940894
0.2722550194673529
-0.20573689149191854
0.08630448794123803
0.5428375181920292
-0.44160549014659056
0.05117188617240047
-0.7723518802360456
-1.2620285922180081
-0.7417814300864956
-0.6658029529531407
-0.5909395221545648
-0.34886160591471227
0.29445841109997795
-0.17031649913348615
-0.4788540828119635
-0.7216266507089706
-0.16382952772045167
-0.7543808908441407
1.3907600789194197
0.8523062916948959
-1.924074228823672
-1.054592544290432
-0.8579923759511959
0.013251770631483136
-1.5476904313474205
-1.0232179416375926
-0.6407865187689499
-0.9487784705881244
0.19754265211261654
-0.9132006411295234
-0.7342034857158736
-0.12220440845994172
-1.2077961663630008
0.9000526449858357
-0.01817844303691963
-0.697222392735166
0.3770637780125113
0.1418456662295718
-0.00696573008621916
0.045002166628136414
0.4882961862691166
-0.08805152942252606
-1.620434358955403
-0.5092928571985124
-0.9150453363347079
0.2791665121962613
0.5194209223410065
-1.3029360677519544
-1.0425977713834855
-0.6160050505674184
0.3798456846051305
-1.668908339270477
-0.6945234562855189
-0.19873590490820747
-1.5208321348802436
0.06846274898487574
-0.004921789329547021
-1.2775168632604104
0.5961225288317183
0.39706664018087756
0.6285558458473335
-1.0520861815551856
0.8259134023424334
-0.5724342802559562
-0.457406166893662
-0.5955893137605893
-1.0588095765750682
0.04234119566296862
-1.0277256292452936
-0.8553486417887706
-0.9602682141641845
-0.4421203500409917
-0.3602904954635273
-1.7150776000056487
-1.0609004324423084
-0.3697696872213402
-0.17628822891478343
-1.052621547268502
-1.0239675137570194
-0.49250164862682455
-0.37405694614617874
0.6345237530850957
0.7803616208357304
1.0846677593435368
0.6777176269942233
0.7463592715793289
-0.6691543167309533
-0.6483152993862289
0.19668011849285355
0.38846743628984665
-1.1923809707049298
-0.17753564177858602
-1.367064197481954
0.6497367507110974
-1.5516501246313021
-1.3775370584516788
-2.2656999758734657
-1.2100142420087663
1.3929588512095228
-1.0958405374046487
0.9966144330021668
-0.15376670028479295
-0.5624711232730986
-1.0561073781974422
-0.9562210591696274
-2.3432640135552494
0.23750997974177346
0.6318159994909449
0.7393631441058268
-0.9859907648651274
-1.0047354127929011
-1.0403249128791423
0.12413661922991018
-1.7317249639709054
0.15034245604164415
0.26141751627127985
-0.7730531680608985
1.677820419532817
-0.21890627523547548
-0.4897211369142897
0.6457858643857111
-0.5800439781314288
-0.6724129070252123
-0.33831266472548943
-1.1237324193439118
0.5188099040251923
0.3436957292722925
0.2379120565247844
-0.670463893015142
0.0070754373819804355
-1.1222148877744769
-0.0859653532665115
-1.197303336130869
-1.9232413844290206
-1.720166124292414
0.30263237916146757
0.532863302708648
-1.6033230724404353
-0.7187103351295226
0.001983470438652398
-1.8407311062309732
1.4627509581489235
1.803298736167457
-0.01073706374468309
-0.3783262000448067
-0.9281610175586568
-0.3653269555173328
-0.7047794527000278
-0.9866964944992997
-0.42398977699490153
-0.14622481295967066
-0.5813302711984388
0.14708934055878845
-0.935707099239786
-2.064694257757753
0.10174047394266361
-0.13838514927977397
0.07515220758708482
-1.605124652546994
0.058292666128971965
0.07242618177246653
-0.23345435351652846
-0.9343791251212776
-0.5917496157561645
-0.7636735505291194
-0.06533479208391349
-2.105851705232118
0.383368808852274
-0.6321775778594826
-0.4431582343631616
-1.6916377111447203
-1.8206322733336027
-1.6581327466763809
-0.2125146317036429
-0.772902235614619
0.9654419471283137
-0.23174286002515826
0.3548855287741333
-0.4087162436403113
-1.187703110056068
1.4349816855341144
0.5285184143553853
-1.0475062773839978
0.3575267880078202
-0.8383709033072789
-0.5403497108322465
-0.42341074250393934
-1.3432846872506403
1.3238222665920665
0.06057435806897968
0.3461455011753439
-0.33776147804523415
-0.3496118052963038
1.8167659832304395
0.9930901020709285
-0.016955649681043315
0.6689788934383484
-0.3760269506767563
-0.24828676830182414
1.1851038657227544
0.04887820643556414
-0.9593564763328715
-0.14609178261917327
-0.7319878929350426
-1.6363219882774622
-2.22975518163546
-1.5424669361400318
-0.22069696303763905
-0.626072924507034
0.34376951234731223
-2.0276235789567623
-0.9102469948698407
0.0021434131425951833
0.07263526056472755
1.0379064466544576
0.12327089764881838
0.6145885098234256
-0.04312863604681142
-0.6993515952387058
-0.22663686873698388
-0.009438257471856122
-1.117045045361872
-0.6085555494821066
0.2827367896610911
0.772596158845882
-1.5529771218980093
0.3655623189505321
0.5724450433679167
0.917263986116634
-1.2901356924631027
-0.1348892719395528
-0.9095232211129815
0.2764174218634056
-1.446974250789269
0.7266543139067566
1.1563144813311481
0.0805179531339143
-0.33745297666907076
-0.5687285484808462
0.46844424309105087
-0.5033966787318918
-0.41226734894852934
0.27967211900701444
0.07859826518938022
-1.2435926191908104
0.5054380318244929
0.5920287542327398
-0.36192367588869695
0.1911579798305322
-0.48408915312925577
0.4903283871658359
-1.1925299088164254
-0.6938305425316256
-0.8977344369849952
0.8080055167246755
-0.09875670147203404
0.2153648618684319
-0.693761304462944
-1.3599779084667243
-0.9603589704571228
-0.25575933069189916
-0.4993801328988118
-0.4293235175234003
-0.5689469854975872
0.6351889841839446
-1.4197008961682143
-1.2366079022109968
-1.170294193706825
-0.5795775044677348
-0.4543244323573334
-0.6165215584943373
0.6431339504062983
-1.4379077589903195
-0.7042235512167414
-0.1152327417592845
0.45921030272774815
-0.47525022729646005
-0.3086498084389863
0.37516343826373083
0.1351926126105124
-1.1224112613767268
0.4611498268313557
-0.5303254852154599
0.7251581078951568
-0.9630825702131568
0.7051987084046394
0.010656258819593303
0.12375973791372649
-0.5998437845907565
-0.14578468515091061
0.77671217803181
-0.4198968949568786
-0.26250266921110266
-0.48216847013289643
-1.0754979557235806
-1.1224153741142928
-2.185516446034034
-0.8796532709231352
-0.8144216771234128
-0.6334508511327697
0.6764518244450185
0.269337347306076
-0.7171965194830073
0.7573047902632446
-0.9294861452584341
-0.8521499766211708
-0.31310337097564195
0.02443142078704947
-0.6710360127137879
0.7066567106261749
-0.8278016803750898
0.006912972863657456
0.35055973308525135
-0.5997409133561784
-0.24141566640773343
0.574713876653985
-0.3939974778374521
0.8343337722736592
0.4769620766126929
0.15009841595237686
-0.6650675218269053
-1.1376405035375352
-0.5631582811372448
0.35348366062496706
0.5267936954852512
-0.8511747885821339
-0.5104851451801286
-0.4378880555368581
-0.5434063026997624
-0.9170059845373429
-0.2045708713625842
1.1125536154194795
0.021989936900238115
0.2842768381380672
0.7854946453741317
-0.39433152339972083
-0.637513443717789
-0.21786318314113756
-0.6702210547351857
-0.8158918035522755
0.09708190141549634
-0.2521109383304963
0.024037567306539897
-0.8767417913817691
0.07207230291484797
-0.49098752053589406
-0.8522502707993459
-0.8719635100278917
-0.48414634474344037
-0.6568207737772335
-1.1300008186487551
-1.3319511696529873
-0.8386965083830556
-0.07129650586498248
-1.2804958457791251
0.41739349211498156
-1.742148729806626
-0.42498093741287035
0.5010455116390733
-1.071804426659804
-0.5965912127578167
-0.3916404852724382
-0.1333830044413566
-1.6818035061796428
1.2784103797240118
-0.0865576949728917
0.6857876736628659
0.022504713254370864
0.6849632863428478
-1.005161034740847
-0.10979164325480037
0.22751603933151685
0.2688509992750857
-0.7594765109154253
-0.6891999231711842
-0.7370321967804174
-0.36795257852123914
-1.2484717101205962
-0.1611642496397781
-0.07561945518826865
-1.114364009907614
0.5811980836867603
-0.28472482655887893
0.6172876569952085
-1.4591138285701073
-0.6207130025994988
-1.0629150465146775
-0.1424650729890697
0.4595252183084329
-0.7506480687635818
0.6525588723797652
-0.24702424224968664
-1.2632786769874753
0.9757665420982775
0.27114672048767763
-0.5795943228190386
-1.1956126983444029
-0.05073186237280233
0.8492591001088681
-0.37303389626018474
-0.08461750191719068
-0.35061726140976307
-0.00134282153843154
-0.543108180222378
-0.8633510291403039
-0.6814509953007395
-0.8233836142920967
1.4627992867042245
-0.533412177092441
-1.7831181388374586
0.4041086029382051
-1.1419493980711575
-1.1164481150590946
-1.0733152704656874
-1.9285126451409866
0.18100836855881944
-1.1879297658844916
0.2339688849356441
0.09124876227030106
-1.5307003061429547
-0.90123384505737
-1.197168233056753
-0.026389814988219327
-0.5712699496360666
-0.8818983239436745
1.1726718135539151
-0.4110627404929512
1.334645260446063
-0.7863529876020822
-0.017753428783890732
0.3896151639425305
-0.49428047373935197
0.11776452175244385
0.8282145276015002
-1.020131347451065
0.5221086503453307
-0.7186659054725041
-0.4863104596072261
0.24793567706295935
0.5349958128109005
0.7582698216423509
-0.9346219314065497
-1.231149998319473
0.6531850222714215
1.0523380662242923
-1.8226406823165566
-0.1724748981529261
-0.7696432564059945
-0.11610660544708067
0.12251927476253495
-0.12289997466949908
-0.5152577075016784
-0.927011853310925
1.8295444648362085
-1.6028558617421467
-0.7566655866909524
0.15552913008144895
0.18234438187037297
0.46524829397381967
-1.0364250363941043
-0.1490006500878355
1.5149556429172695
0.6835617749113114
-0.30663859749928835
-0.4228384299045113
-1.2318926324974233
-0.12098346621694733
-1.7156399941164502
-0.9021989923719747
-1.2340538793914322
-1.1686104474642247
-0.03859124775820166
-0.8622160865344374
-0.51453511034761
-0.9801074146595895
0.015415536120711854
-1.1493946167649458
-0.4018318163561785
-1.0012732467230594
-1.004575883319565
0.7620351978207439
0.3604751060199815
0.10494999427665977
1.8135867965181216
-0.7097040403819769
-0.08457880360616928
-0.2493408327855622
-1.6119288856089915
-1.3291804819522186
0.5984821564413892
-0.059056912437115826
0.18145370077864056
-0.5841000565171801
-0.009267234635604431
-0.4599488962443544
0.37148878247484945
-0.8315067209659261
-0.6476743886758147
-0.9540575161225087
-0.3950606055843194
-0.9921462923108945
-1.1353875037662222
-0.30962993699497576
0.3915493210136149
0.8904254006503171
-0.44421285733448856
-1.5685719820611632
0.7647343534625759
-0.3100782783525345
-0.8198024170770842
0.23974249496473224
-1.0819828844318236
-0.7774518712179848
-0.22107830014101845
0.1265150072740726
0.2353194754622688
-0.34194116664174984
-0.8718223147842075
-0.7675870926920083
-0.14671641039695424
-0.906299407319871
-0.39264239430813375
1.7831525458630937
0.052689532641755285
-0.07565081942444776
-0.002282289731521821
-0.33523615255891465
-0.7976403781626932
-0.4677595592563044
-0.8741991228974496
0.3931388024064243
0.04755569210402417
-1.0245054286440467
-0.06846132191406344
-0.39876604604947774
-1.5091434306529563
-0.16926604905192008
0.2442566812347097
-0.8867380903915519
0.10801236690050502
-0.3427678134251907
-0.04449848180314395
-0.32185444675709507
0.5304504504538206
-1.7398009812735709
0.1681278286986819
-0.9821148850716847
0.21558148215891015
0.14190645390207748
0.15059280978941583
0.1355298863897434
-0.7751558758012801
0.1040460573664653
-0.6500451875908582
0.053107313267418944
-0.7564932921900384
-0.30846200545475183
0.8522155190685248
0.060843700292545516
-0.21569571686373573
0.7656592489159186
-0.5356000148391025
0.7570667750165972
0.351778488285912
0.934981207392948
-0.03619974503330436
-0.2641959526853175
0.49864579899478756
-0.28975841193698465
-1.191764527170527
0.430920771150582
-0.5567063080832133
-0.2842821542418914
0.4833987709949444
-1.3243731171309345
0.1851980936542863
-0.1730803441716917
-0.5196166684116204
-0.03700496957056461
-0.021668762764218006
-1.1193855616444737
-0.3962402715097339
-1.086301369972396
-0.42263878370121366
-0.005587666052205103
0.865432434168922
0.17686248131759147
0.30553554205565936
-0.6540514479503295
-1.356021364759411
-1.41213674033554
-1.357255164092645
0.15517220002381926
-0.6376662681745034
-0.11617016755207027
-0.028956419921915433
0.3921003601420534
-1.286492234072944
-0.0915985412369472
0.06524747369121368
-1.2874212633447462
0.4154247242621335
0.8185114510163022
-1.229958315965666
-1.4311794936715847
-1.0027393019300492
0.3982345003006968
-0.8070602274299246
0.8167209950651522
-1.1157985491673448
0.212452349739746
-0.5230132124628502
-1.162367332380487
-0.570363977476796
-0.9876640999892334
0.8776268951240267
-1.1837237337419422
-0.4984449573142143
-1.0763746625993091
-1.4949151370192861
-0.9012418874372452
-0.4454917845259908
1.217024628903759
-0.5975567271359157
-0.6675444117720571
-1.305422803099056
-0.5563030922835184
0.9185843760428238
0.3176059299640402
0.5349185915515632
-1.4831352000758913
-0.7429686143535067
-0.3628931612066901
-0.8102748196164167
0.7447342743981644
-1.0693395031103123
-0.638268802095578
0.07468246287166255
-0.6321265310962658
-1.5883199340570096
0.9864913355444471
-0.08972909911332415
-1.7906901529435861
-0.6335595492176135
-1.362520583514142
-1.3616943901449912
0.45799321579760055
1.0576012246145798
-0.5643564326610754
0.2550826582839972
-1.0651574852616437
-1.8177232944187007
0.5497881748156305
0.7421026652169571
-1.8247027777575933
-0.10712610202914284
-0.8898459832904998
0.574850835642601
1.0466228131355475
-0.08679432156097518
-0.050378825197086065
0.5737708566907425
-1.2541009256525206
0.24918219545129713
-0.6890765083461886
-0.10827548228948852
0.7562945064182737
-0.12334071093116143
-1.0489339692720427
0.40971829996135795
-1.0194729711674142
-1.5145321301689578
-0.9590712899548941
-0.5803692546988525
-0.07904487380360371
-0.005078008735892952
-1.2314293177839868
1.7441653940885506
0.20791431710471742
-2.373229401407381
-1.0450355927437054
-1.112232555090481
-1.0649685627830272
-1.3906676192773453
0.19843299764737168
-0.19699073373447495
-0.2643874173630112
-0.6007967137448674
-0.7583757875013042
-0.11088594403294963
1.424796190665658
-0.6122804233782578
-1.0086913502708121
-1.2283337723787484
-2.284729993285191
0.687845623322596
-1.0453368704389914
-1.6657591367929359
1.0242258191788753
-1.6563898157319485
-0.7003316763623043
0.3960844657125636
-0.3233982397521594
1.5626885294181008
-1.3421079756145267
-0.5380002705647361
0.31369257018341345
0.11096453318768337
-0.4381960799872627
-0.7662918947109554
1.0040555126074875
-0.1782585998661394
0.35748908409317093
1.0861770959734507
-0.9386729753237354
0.26370644661759746
1.1635158034839368
-1.6273526235783666
0.7835222388231547
-1.0937616848062521
0.12749656467347026
-1.4340454276878791
-1.0465472008418597
-1.5133811759935927
-0.7368270682966092
-0.939368804623326
-1.360300566263205
-1.0491311566827373
0.1530141002829532
-0.9927852332794341
-1.452533060802577
-1.4389465579095757
-0.19371721278340406
0.25897614959293863
-0.7300196366229296
-0.13099799488047179
-0.6780949339009805
0.7063916097919821
-1.0432351201833772
-0.32089721605425203
0.4436415815825791
0.03413140830907267
-0.5920659569971641
-0.9379605682214596
0.006749345833273642
-1.6457720649007965
-0.4536367638244609
-2.024929361722243
0.8753366269575423
-0.8498128414477046
0.041829091407111614
-0.5627357640591358
0.49993288137771574
0.25050156225145914
-1.2369202278626945
-0.676808559055605
0.7900763531550723
0.060844733523416225
-0.26464844749059646
-0.613230910864853
0.23063256328224838
-1.0016811651098576
-1.0824868776436511
1.8656851471760738
-0.1333862132285037
0.3674359423801591
-0.0057456899760377
-0.2378234965440522
1.1845925518803537
-0.46729576059419037
-1.6101406304530672
-1.2156932545519539
-0.9334386724973021
-1.2975747966200515
-1.0794246912707406
0.6071756757810564
0.6999677357181613
0.1799207323281245
-1.0656491304409288
-1.199957200705586
0.5580856382257648
-0.7850184141804615
-1.2998472522732765
0.20080247728565206
0.43089567592059064
0.7448865065192429
-1.1786898092214022
-1.086501763871288
0.3862311440121885
-0.12532997815308805
0.8048411320643484
-0.2515799696335848
0.2336171837261177
-0.36948779566480583
-0.43476627382941546
-0.2819418650831787
-0.5421700047392138
-0.8427295264854965
0.13303788040060138
-0.47583982559129745
-0.9569061027662151
0.767304160213658
1.554687283563551
0.4123441099922648
-1.375516527717772
-0.5565003617638554
0.06266905384825901
0.7003213197499149
0.6398367071402739
0.7523524459890499
-0.7938129288978355
0.47038167364763867
-1.0181349632186283
-0.0857900888171439
0.12147720180166201
-0.8114486191021332
-0.38705908735072847
-1.2188758791451373
-1.1314675530401337
-0.11784610712714902
-0.38880371401772473
-1.2492636417500276
-0.18268103115299472
0.16732169792087828
0.7016249070431304
-0.460174536766074
-1.5102788850645643
-0.10832832499741722
-0.4901155446653302
0.15315618526349456
-0.20037328339791374
0.22648881893886352
-0.7638447934143928
0.054846534381695025
0.09318416094108432
-0.5307600580860103
-1.45051570939472
-0.19211151240090926
-0.9369587446647948
-0.9561124734119748
-0.04363786130700622
-0.46769882573441174
-0.3367034105458693
-0.24955938599034336
-1.3655622659990472
-0.47912276263480696
-0.7216652765961701
0.10754477576968427
0.016101242644048674
-1.1679363980996162
-0.18570174794146418
0.5733793560037462
0.5612236297335055
-0.8213196182229089
-0.37407555409535487
-0.04960878614677315
-1.582691282385055
-0.009075834942969334
-0.9673904072803119
-1.578092769568739
-0.6674905761147841
-0.9711094687645269
0.5347524777500225
-0.7020425139613553
-0.5194505510178351
0.14105015938107676
0.1708688195555214
0.11493821906272443
0.9110933878118095
0.5237879928680824
-0.9768142603049847
-1.2839806912256988
0.994033842146712
-1.0557810091230893
-0.8084242904099191
-1.0774043090769738
1.028519444867924
-1.3493383508595087
0.827002576516293
-1.0128556619511517
-0.251615544878807
-0.7902244499364054
-0.936680501986763
0.18530728953476827
-0.626330561657516
-0.04095179585918092
-0.2584219162567088
-0.9764636755520388
-1.074761206925596
-0.15672290816436604
-0.5516084917049897
-0.5265747484234361
-1.3426407108710878
-0.7188131042297632
0.4418119518257115
1.623803375689154
-0.6564110054480388
0.3372639642651346
-0.048024957123272136
-0.954498473027187
-1.4525438606296979
-0.5120456024525772
0.2618996360871537
-0.6508885033393325
-0.6278242316956423
-0.5975719600705759
-0.46820422458073424
-0.31691670075948614
0.09178708083580199
0.05181124373057965
0.2461315848214272
-1.1645652253583232
-0.7880349732621187
0.8139263768580411
-1.5199024547049398
0.1702454980144614
-0.6866894020747302
1.7452849500513279
-0.8171350362640193
0.9286718634407882
-0.9495593233113389
-0.5867380507980846
-0.3246270238325829
-0.5943197846737304
-1.6305259424994116
-0.26967402798026685
0.7072939949916032
-0.755329428257267
-0.17182371945684102
-1.0479815574206741
0.4729966992615832
0.4470656564083413
-0.6048067254997002
0.2172747332397869
1.247751576462706
0.6554059371637919
-0.6121802936135384
-0.6631245688504809
0.4874539155091642
-1.6360058076524862
0.23569788758585147
-1.005767978911474
-0.1912587889443141
-0.9681411943103155
-0.5905543746439104
-0.049580129859007435
-0.15993439385078992
-0.8054565568875187
0.009908805537366608
0.373011233605613
0.7421505529394352
-1.6468347443269689
-1.2686480904243922
-0.8065158363921279
0.7791536240881402
0.6186630531371986
-0.9463376789720123
-0.5790337498426616
-0.7092085779484203
0.6940598826681641
0.7417316059168815
-0.2984392954067256
-0.39687599218367997
-0.5237599641163827
-1.1548845070926463
1.030029426754503
0.22754288120231625
-0.5883817904903461
0.728463072971889
-0.8184460314034085
-0.7220957514705517
-0.755055817869184
0.39592160017745326
-1.4271637062085072
0.0839854619427794
-0.41691480580353596
-0.5107546127567564
-0.6841748560247014
0.45207141723857536
-0.003217953207891171
-0.6606076974548946
-0.2810327532007348
-0.949038349267034
0.9879384246687041
-0.4360361792763338
-0.3697634333848265
-0.5541613377682788
-0.2601196887739983
-0.7675486517541479
0.05250958230085819
-0.18711877368516147
0.5439542259612847
-1.4924303448068144
-1.4749689332573601
-0.07160806533564082
-0.19722599342541747
-0.18517554480755838
-0.6229279062139906
0.39009894411516743
-0.3053101084842845
-1.2316227514117841
-1.5810310017037312
-0.882997280634963
-0.8648686673977657
-0.39626365177856215
-0.3012718606805938
-1.5063128678574786
-1.6281821163807428
-1.33855885694863
0.7494086896042568
-0.8263993724201406
0.9511978107153127
-1.1353796546859531
-0.5033037502924526
-1.0747280750261121
0.46750204881354673
0.6789311467120074
-1.2276502528628943
-0.596773751636887
-0.21653023949259795
-0.9089655394885786
-1.523465253535527
1.1600363002050604
-0.9548949952035923
1.2791755850996445
-0.5467164193886447
-1.7476373331989634
-0.2902473107199689
0.8185123506937924
-0.5243463537860662
0.7205959659616458
-0.20175859753706377
-0.9338122430089781
0.29501938126898347
-0.5839969058007418
-0.8336486421785491
0.45282402727428456
0.1333963121599983
-0.8481204056270454
0.007862625859550712
0.4381512031947312
-0.012773282118529131
0.9474451481542344
-0.41665119184260974
-0.8231850082730909
-0.6973840676515753
-0.41140779629653107
-1.337626577336401
-1.011298568206597
-0.9536334321246696
-1.1021760658313104
-0.13351038685111122
0.7730670932208055
-0.8042919906194116
0.6339157158141855
0.8997172584457218
-0.18038566673432488
-0.2824061074159156
0.02664907634359881
-0.6038089156315745
-1.6405445527819484
0.5805944715364896
0.5526795174458922
-1.2053076992853202
-1.1385274450157945
0.0014390457671658618
-0.6165591557624
-0.2631611849307181
-0.5646155132952013
0.5445307349085895
0.2222024411479914
0.24079537223896025
-0.5355266135883405
-0.44253015822134467
-0.07379566694811536
-0.7115340807002609
-0.5269076783660183
-0.30017618409927316
-0.5172007549377843
-0.8871159928016894
-1.0443793630268554
0.20614113914255422
-0.8965038217255569
0.31011309787853253
-0.807562805902931
-1.873327209426327
0.013902218537642872
-0.9792374480153372
-0.2159523634719809
-0.9052544061370894
0.4181747626658618
-0.18183005420192877
-1.3340296442638133
-0.8068787576138672
-0.6447573595773772
0.21847173436776185
0.5293387554358946
-0.9064152081137685
-0.6693824095727626
-0.5444566805098062
0.7598092167970392
-0.7904772420956551
-1.0001432211399366
-1.0447836761470144
-0.09306076280953407
-0.33291477403934966
-1.185789198902582
1.090941445666962
-0.6487779120869248
1.1377160328207785
0.7051582314741206
-0.6490697190403143
0.6110737306091937
-0.7626462370840369
0.03628613272769741
0.7914492060874587
-0.7156106739391297
0.5825576791067296
-0.708470879250793
-0.7383548072896498
0.8505568918622769
-0.8873936195581262
0.5899874938882048
-0.1886448181746309
-0.44427533320987084
0.2101572464435708
-0.7619575028489544
1.268290558473649
-0.8907201559821711
-0.9435319597925546
0.0020124907031660103
-0.8967382938389316
-0.4886634632436689
-1.0568820763696947
-0.6988748623117693
-1.2729341940927488
0.24784973251165146
0.6838934942588822
-0.3730206383628889
-0.42462087401674004
0.6243881974340185
-0.10579146049141622
-1.400098489678676
-0.6937297868122557
-1.0695401585581639
0.6840558341834939
-1.4228541556978962
-0.2865552917208482
0.42949336454631737
0.1982588725184945
-0.3527820451974516
0.6138092629888868
0.011011004247048045
0.7296776468766437
-0.14540200425915012
-0.9577318065713818
0.5801056522152063
-0.5781570278246047
-0.2454530489660305
-0.6395284236961639
0.16749672454231523
-0.9634127737045768
0.2981833494561324
-0.5038472405887319
-0.8134512569040612
-0.950498205219459
-1.6930184760312426
1.4163700520153544
0.7995050471357122
-0.9191117282067364
-0.1578513494673838
0.7385446013125759
0.30796927970900945
-0.834951031312923
1.1150152584286714
-0.2878435950600722
0.19669945980023867
0.28020398980236216
-0.6970026702436013
-0.4444042308565507
0.6929364313802638
-2.2689029847216924
-1.0232476805157344
-0.7445720706312013
-2.1695569874625624
0.4219181724158241
-0.41171958258605
0.4132464077586283
-1.7513861040102052
-1.295267143419597
0.731708527836858
0.32323543310111685
-0.48318084894376817
-1.72338912682824
0.9801320936421002
0.5877140132282586
-0.42046903179683287
-1.6113222126445927
-1.1776077391143132
-0.444768963060868
-0.7922681643501999
0.2408992334005071
-0.41590751861540626
-0.7691806426951168
-0.8117382886235543
-1.1507231519180756
-2.6223321510566726
-0.43485327613209646
0.20069725219536289
0.0654915846664398
0.8298608689776045
0.6403838524465816
-0.9493384260385427
-0.4485661592289769
-0.6726875058548349
0.3624067748921592
-0.5161423208289453
-0.09730948415451623
0.7236488077706644
-0.15068915863898522
-0.5469739539788456
-0.0007025236961882442
0.6967993921292921
0.1970204629825285
0.36462534742914254
-0.6817892181426586
-0.8253499059736704
-1.4471564405871662
-0.6516526688393737
1.363038130635295
0.5473802753537244
0.1884151875061928
-0.1858680335348997
0.05183665238769409
-1.5310835548407615
-0.002624791784769392
-0.4082734171374097
1.165327938598619
0.1262855010534182
-0.2591982983118739
-0.00678725558254673
0.24298979187903144
-0.6642391349951225
-0.21425217524429255
0.7513029994088408
-0.02523681210210341
-1.5675808889448188
0.05028488266079836
-0.5562074727490236
-0.8139487366163495
-0.4239716294804864
-1.0458049338836197
0.44091838520726856
-0.6372452561229262
-0.5868358439585227
-0.9507220861002436
-0.034794842906564545
-0.09029315089892367
-1.2942132932183918
0.7940180519730619
-0.7186174545248245
0.06055300969134843
-1.5024235525753482
0.15699554212681413
-2.0627796345867653
-1.0941605668038312
1.312284436365681
-1.5436978110940502
-0.9417740924759797
0.7081285680996341
-0.5865403682724755
-0.9346557089725557
0.029252782369280295
-1.2374952350208448
0.6555341668681843
-0.22313320242004814
-0.7999708889858383
0.948594819729431
0.031233108608851454
0.11230113479391599
-0.4638054580871815
-1.4161280833885441
-1.2798873265221002
-1.1075356116304493
-1.0600335054576309
-0.29098275616958796
-0.1917025787013393
-0.5452101113486362
-0.9153910122464417
-1.5716794980478888
0.7865990693858148
0.15844546731257134
-1.048862146419499
-0.7546442433537673
-0.07845892492118368
-1.0724338397144237
0.08621128854312189
0.13899139259336046
1.1537310061332198
-0.056108450736059856
-1.4065384432816839
-1.0911926657625133
-0.014405046909162824
1.047288326114338
-1.328639913087447
-0.1640318560389101
-1.40813207833178
0.8777784748604065
-0.43427769101350233
-0.6898388193273113
-0.6694329360637115
-0.5360270407475943
0.005716702975910098
0.14770824861033047
0.4307971328754526
0.021454998429720998
-1.2354207382492435
-0.5840976746497201
0.33087059416187176
-0.15700327924554242
-1.0546152188345241
-0.8405660957764026
0.3744514465321637
0.0677039169135492
-1.035556418123654
1.0391034378791852
-0.5333710056388201
-0.777545039722091
0.0006878020093621425
0.06018515383061954
-0.32322240499981547
-1.671205677764395
0.6893000946775751
0.06931075070375985
-0.3203406065066829
0.12222945541206137
-0.25677400498557434
-0.09727417466663993
-0.20225442090355583
-0.6526368195237725
0.16614032922220986
-1.2462554599506648
-0.31156046499362483
0.7289598442464225
-0.9621127635926828
0.1552627782376906
-1.3985573606111592
-0.5695596632162435
-1.5762669470369495
-0.9714531190788317
1.2083929962587854
-1.0103048639726093
-0.9924662786616223
-0.5998543002602137
-0.2536536890146095
-0.7607517331216256
-0.32833056050486764
-0.5309601312740643
1.0018606473664646
-0.8860072002279564
0.13816963991813902
-0.6120850667688367
-0.10584201382036863
-0.8014007017984696
-0.268359621281724
-0.79544307911641
-1.997222865142859
0.6329403740373818
0.006706686949099579
-0.03322803072006043
-0.13901478327694144
-0.5660515690816216
-0.4250487236686166
-0.28690384509855443
-0.772601356488056
-0.8190477685063262
-0.9716113043190433
-0.1512355190202669
-0.07138406008543656
0.49688610104943154
-1.1535397699231054
1.1061682874746674
0.5484948336217278
0.7615904743426704
-0.7848732484443359
0.5522522264595131
-0.6571410981938239
-0.5557345382729366
-0.34093385501897727
-1.8870135063641527
0.2872891144103998
-0.557687658849563
0.23994467486026003
-1.6781325874813062
1.3002330694029764
-1.0577201855793072
-0.6799605916725939
-0.678961821678642
0.13947132979743984
-0.577865955622105
0.22556667821487372
-0.7611568948453556
-0.5923606612272204
0.007578705326841862
-0.6150170633237031
-0.10992937818060099
0.1400052034575159
-0.6781806117769273
0.4388770818492273
-0.45741440262359395
-0.7454257780851846
0.2118573111046451
-0.98836894871546
0.16328099328549261
0.3140768716266129
0.1244569705688057
-1.0267875111564302
0.5434329709435586
0.27519369623107187
0.2306286552936684
-0.8441796905840252
-1.1483890350156314
-0.6347298402536764
0.29898953912809484
-0.5844756069892204
-0.6841566572502448
0.5818027461766876
-1.1426741411600994
-0.6401466851214205
0.225199375466187
-0.6428533705685716
-0.25519910519765676
1.1854204924590868
0.23372418247637855
0.5456984738390753
-0.8452633299110848
-0.18305427774601418
-0.4781289231156865
-0.12849469760916135
-0.5336813820129082
-0.8463826245089293
0.13553926306603756
-0.7093700697928668
0.20924197932617586
-0.5570791512741088
-0.8333891586677571
-0.61357817687396
0.08025014904462012
-1.462178575454911
-0.8120574119190958
0.3757696996999345
-0.28823413820548766
-0.864231144352104
-1.195694480056826
-0.9274203832837027
0.03180037230058069
-0.20515782198291438
0.19582317412677025
-0.6387166745440123
0.3286540680179951
0.7817054937890041
-1.1146602468442242
1.163806520962427
-0.3764836366552672
0.6055099744979058
0.03626983782321912
0.12684707670040354
-0.6900174428889378
0.1464255780807477
-0.8873881780562631
-0.8178112883058324
0.6871043521812571
-1.0421866005527922
-0.8763479646140478
-0.7918577630489757
-0.40541717069080613
0.1749850148342586
-0.06866486843311179
0.014707934622743824
-1.2636538675840059
0.14548254037558678
-0.3669944303537853
0.04416636538123978
-1.2943976364124987
-0.5541260015713356
0.24553310734044792
0.30941464438301974
-0.564369605456149
0.24786179763166363
-0.5359296537528676
-0.01035011811151101
-1.155357591475014
0.3881829735005617
-1.028081560699867
0.008609779713480958
0.5917759539440514
-0.2602418431119117
0.07061566037900233
0.27185024620209497
-0.7995832676744512
-0.08611941884202122
-0.30215285485615073
0.7331134286864648
-0.6152360129034414
0.663066318120126
-1.5535549101675057
-0.9185686601247178
0.8004787113278694
0.94273942993113
-0.3688600508400047
-0.8415348547598658
-0.5301214033537258
-0.431552515065653
-0.48851226694220184
-1.4922099332913132
-0.24400339364731902
-0.16894193192971488
-0.19284035030094362
0.0947070298828188
-0.753817684763382
0.007936511440643758
-0.8035538540062154
-1.320685552379554
-0.7415496250886756
0.6787419300222952
0.789095028040919
-1.0133742974845221
-0.18800875358215427
-0.5565586090703072
-1.1869485909837119
-1.3185413632495444
-0.6653416458662497
0.427659360422675
-0.45741853071639393
0.3934818759095082
-0.6249123930622866
0.3889057231591056
-0.6982586700091976
0.08024942429044896
-0.7433044609205134
-0.593692363809644
-0.09268021092734695
0.6131752847137046
-0.5336470148094022
-1.013352916074278
-1.4608750062473204
0.14672210772380342
-1.7081318877419671
0.9447853500047609
-0.11038236449210068
0.25394460256934076
0.3463182904236631
-0.8170114951318014
-0.9063519207981497
-0.7721668444729125
0.3611223109329624
-0.9237020094976639
0.21326094617365782
-0.7423303886084287
0.1288535665279953
-0.9877188948407118
-1.6512440289283041
0.1472641125506132
-0.2989497569890164
0.27346797276883256
-0.17502609785701584
-0.61650794817224
0.10898428277857823
0.3866532492519831
-0.46183786611137556
0.3347705975788118
-0.9752210312527172
-0.5566995086775268
0.5579982902665038
0.3776585683072044
-1.635184135114882
0.3429887119366106
0.009744071663323715
-0.35335796894636506
-0.05285255208691575
-0.08328392910832227
-0.7949586414753776
-1.6791606498561011
-1.6683063487880414
0.6658848424873594
0.007602232738247229
0.030041068414896194
-0.28896626052676805
0.2273253469249096
0.4311077591754041
-0.6339252906652911
0.3329151834921686
-0.6270976932145498
-0.8552864912484841
0.2823418895221483
0.3810439775048289
-0.6629577557975841
-1.2815488157336963
0.9719732584692742
-0.2642137473568687
-1.262219691075545
-0.33077330369857133
0.48561022258791586
-0.09649347636582188
0.7806008082076981
-1.1300377954113887
-1.0100423329624795
0.23276885256798924
-0.04287943090984023
0.39925126202902844
0.9406283351199324
-0.038479960311859074
-0.7386005448907493
0.3169648548384785
-0.29636394049494613
0.6611789829911252
-1.5192286905390764
-0.8611398923020552
-1.0770010792826927
-0.5640171472625547
-0.21076810266220164
0.6099164029642433
-0.48368030693747305
-1.8341753679258501
-0.910422112493829
-0.2409940505972254
-0.5032424649616017
0.5340693844254722
-0.5385492549195794
-0.055897360925390494
-0.15839845359419535
-1.5649694939301702
-0.3653219338598351
0.1026844615069043
-0.7077383319181119
-0.5396791118709819
-1.1690805985757105
-0.7119020803683052
-0.7260991353019748
1.0755852048841084
0.19049443090805548
0.17014139499924058
0.004726246541487751
0.15803959709601256
-1.0053043218249855
-0.5463006782591056
0.4908472485209449
-0.5309702694028394
-0.8977748989272643
-0.6623688060800875
-0.12180738434418734
-0.2740996338680514
0.2237998892279016
-0.6457447085674751
0.4619791945651921
0.8862304140372932
0.792356211956965
-1.169473149474399
-1.1487280603860766
-0.5921958966446376
-0.8717446419734335
-0.059043957268616845
-0.6763743408954576
-0.579597334148287
-0.36882635656354296
0.4411021833497253
-1.3701350106396233
-1.5056862445724801
-1.0596944656390102
-0.19372732496321438
-0.24954320784216866
-0.08253678693361638
-0.8074450085580359
0.3073096740931573
-1.1304225415720872
-1.4043165329715532
0.0013076780200158584
-1.3315335527790162
-1.1797863939779505
-0.21833001839765287
-0.14635056727691906
-0.2928018918139222
0.4622545943878183
-1.193301430045076
-0.7799367048740267
-0.720372341586529
0.5499147212437333
1.69591669667811
0.7354448499834138
-0.26492947132777744
-0.08979827997025291
-0.28311228423740614
-0.9468771933864308
-0.9970227145532007
0.08603390990508589
-0.937137521061224
-1.1239956093702688
0.6139174191862159
-0.7444108724036
0.009656239196860424
-0.3928702659906658
-1.011147449193812
0.1470781041929934
-0.48782133298524205
-1.1722839812068522
-0.6724939101705942
1.2598924413560675
-0.9853042977269136
-0.3102250360537739
-0.8910348021835538
-1.601942889975424
-0.9589265538327376
1.0698876591692004
-0.6746119911889308
0.229357800286791
0.008117802588876923
0.6522525858904976
-0.7887811394759019
-0.7885410101195719
-0.7898669090656268
0.5416398215644347
-0.46984194172027804
0.7332800570233288
-0.08636543430632049
-0.45485658979620164
-0.29316730252209167
-0.11244689412669095
-0.6989078975847584
0.06452776503638179
-1.5544936759916383
0.16518988414061203
-0.5482101728698785
0.3154985211171074
-0.9248554422710233
-1.0397869716310886
-1.5509073655907761
-0.7723895853353101
1.0359974084273147
-0.606654088306823
0.7170380907006336
-1.1223166033504712
-0.08288163748752843
-0.5705228378696094
0.3405552233882795
0.06526330138262348
-0.8015081115059145
-1.1072127099106717
0.2930619936045917
0.9187596737279257
0.3484828195347152
-0.6816002402595069
0.3715398928106133
1.2882681645645935
-0.6331604142337816
-1.1736654448866857
-0.9902932742438662
0.7836432643683144
-1.1583941010905203
-1.4791018803639564
0.30779517914722976
-0.0322761823278649
-0.6565553543692998
0.1569046032459578
-0.6215692471717639
-0.6203369617733114
-0.035818080644849905
-0.14597264473672028
0.007246191545423842
-0.16495436151092224
-0.1692585540705304
-0.20365714983546712
-0.14846298376725478
-0.1669911311475288
-0.19000525896400594
-0.17847087192822447
-0.1735026297590651
-0.1790264530570615
-0.20441063132536613
-0.1775100017934066
-0.19679530397068348
-0.17706395717927653
-0.1429226203333574
-0.18868913974617024
-0.18226887392755395
-0.1752870754615451
-0.19748917024763374
-0.16348378713146655
-0.20965465079804882
-0.19817351512904288
-0.17825558320533913
-0.22610184750171747
-0.15618887891454072
-0.16187663647454054
-0.2129326616176136
-0.16120275831351116
-0.20011288816757525
-0.09656457008216988
-0.1846516629945213
-0.18328468105879173
-0.19277093133806805
-0.16869595780697677
-0.1581050464402576
-0.2134786387228549
-0.191953897142089
-0.18509894657951578
-0.21971153617588557
-0.15310753221786408
-0.18519312556043674
-0.18539506256863092
-0.20621354300129496
-0.17420462700965836
-0.16382561124959347
-0.1628345995807019
-0.16708054773307932
-0.18495194539890555
-0.19463681121521734
-0.13892725362620337
-0.1830551780902285
-0.17933183536345687
-0.17931929269601632
-0.18243840085878194
-0.15340814444460732
-0.15415911407027488
-0.20201635890356728
-0.19223211891680908
-0.1756494149324715
-0.12987382324562322
-0.1668709748004816
-0.1825249032330595
-0.148823746394056
-0.1780429160751156
-0.14559932877236081
-0.21028905417890886
-0.17261669484959571
-0.17821903950590054
-0.1611885837387514
-0.1709713565600299
-0.16904132460711793
-0.18749072006531736
-0.15052772649853585
-0.21474392300554532
-0.19610291015458614
-0.1790736944456763
-0.22813460732112475
-0.16117338995938588
-0.16912855757472886
-0.15441493542674542
-0.19602841423605585
-0.2106373294449949
-0.1784604243525579
-0.21072166577023524
-0.19469324127808482
-0.2051216878230365
-0.20027638555884594
-0.1686427044568083
-0.19763866416661247
-0.19901226477283424
0.010253428696969635
-0.0008029554730305186
0.013803313263351958
-0.06633713534055635
-0.17015306275608788
-0.2322713261006083
-0.13159102813303902
-0.1320897948124338
-0.03697179835396475
-0.027317018436948875
0.38507020600664393
0.13779514693095812
-0.31411824354270923
0.026002855569660706
0.03998901098313747
-0.18089596279401127
-0.11820966923201015
-0.05328254992911871
0.06878598050624568
-0.006302716405413513
-0.0013883580126155988
0.1596934635668221
0.12096247716123594
-0.14364943095281402
-0.27930581865839266
-0.5023300317828758
-0.2807511262777323
-0.3637335422864994
-0.07068828857408979
-0.17280679985763092
0.006144566952892559
-0.563652955976411
-0.9814073121102945
-0.4847483602920345
-0.6457649375799587
-0.13284548105656901
-0.23338191576276168
-0.2445515730418373
-0.03532806037125789
0.040597258169999935
0.07278371650756361
0.03761974724520955
0.002547201830289989
-0.3083568648389087
-0.25274451905715556
-0.39739984025282593
-0.20096869724323277
-0.27056259425463075
0.012602855662097436
-0.016150626723231525
0.02977614025811846
-0.21752018062041667
-0.3142506901058669
0.15203428989145956
-0.08799890757245833
-0.10562109288904796
-0.40850591277960163
-0.27503803455333437
-0.13301554233219398
-0.0038600806013073833
0.0024568667497562777
-0.0001760119278952672
0.02974498392420878
-0.1703787716994707
-0.17949338495335895
-0.1919355127878955
-0.10998346108312719
-0.06971217264888513
-0.1521029002290383
-0.15389410124173436
-0.0468214745754346
-0.08830844128055242
-0.1280835200923263
-0.046827237613577564
0.011849602541620503
0.0568084336173671
-0.33003406617249503
-0.2848385393223572
-0.08290749061014943
-0.028193670362894965
0.010632909794117964
-0.02832970645808585
0.025485207660243255
0.08412916368113058
-0.08830154402471838
-0.004123179198528857
-0.14775932676761655
-0.2642875076310704
-0.22229381095170203
-0.2076528737328355
-0.045287810125029776
0.041298103215522776
-0.13837878626639394
-0.019940635567072464
0.002274021205702612
0.08153760629672172
-0.16393140783170873
-0.12594028701964471
0.15057074299158246
0.06848992840826963
0.014184393277678864
-0.04019042547502497
0.08579852985297941
0.18632942827768686
0.21235245944508033
0.10231657477350392
0.07360607747584208
-0.02307932646420834
0.43547551054364914
-0.02025278320401403
-0.03584924154013359
-0.10081697165912383
-0.5566657550230408
-0.12507322710520702
0.6555400877374572
0.28592290647653557
-0.0023549027947820525
-0.04361753161732071
0.11583131232586685
0.06381647560164821
-0.00019178814915939434
-0.022316177454498345
0.10578999055150434
0.1899436606870458
0.2103823789575543
0.22230802717502224
0.06420225173373686
0.3130096947383676
-0.08069170874933201
0.24745136928444603
0.3500670894151979
0.1878416155828983
-0.42637713630538415
-0.09591308370262286
0.020155103509633454
0.3464212665707012
0.1286397074845226
0.037110229008545326
0.11981047451741628
0.059847453691143436
-0.003370986008042852
-0.033384894179238095
0.12952290648803777
0.19431494812622388
0.27664538844571795
0.36417718615805705
0.1581189643240825
0.06162690333669971
-0.14467790617716247
-0.46243692012028725
-0.15636042871076875
-0.02705407505483134
-0.374847244176971
-0.829357553800751
-0.4965122123949738
0.19916869350994346
0.08798825287527759
0.27212586669414957
0.192588960421475
0.05360818453933768
-0.005978350864255849
-0.02361933912839584
0.11398070860654703
0.18341032727074308
0.34258839569207133
0.4122989247306469
0.0771326554903721
-0.01318243427599956
-0.4254684261359762
-0.3590212262090741
-0.4719452766989496
-0.37271852272374933
-0.49431977135142474
-1.1859645781847523
-0.7279812023089863
0.23543158761577676
0.19279217548306568
0.257209239374238
0.16984558137437436
0.04445552159049639
-0.02040933327574558
-0.025403389915825046
0.10147459965411497
0.12080967816864624
0.36270740570260607
0.45961189494105054
0.1449083758389556
-0.04101082399480792
0.02050003669658693
-0.320278868311332
-0.2453647991357092
-0.15134117790339888
-0.08576445762207069
-0.5070268527168926
-0.7891640435261899
-0.1266505279625585
0.16874327143005188
0.1828962551704587
0.14371744577033904
0.04947516755758778
