0.656797323661706
-0.0010714983253498726
-0.34118086571868333
-1.1431128716694028
-0.8229704055916139
-1.1387242115936063
0.7908562543948829
-1.1856263152634567
-1.0646907232156682
0.51730417065737
-0.13419187782254222
0.36305239100100434
-0.8346913743787507
-0.7297689410327042
0.6754677042134749
1.0354653851334423
0.20849063675621005
-0.20675025041906128
0.262096033347478
-0.9230819176848557
-0.31647408625935364
-0.9545005668316229
-0.49988626391288005
-0.5940658839040455
-1.927785822583792
0.22260457836887157
0.48577748365063333
-0.2330167013621835
0.7665076801454672
0.42188963765105864
0.8725156029845618
-0.69768367889986
-1.8871266272548872
-0.7299499302241749
-2.026434516177043
0.15460486939023563
-1.1894405725870214
0.48301275099924174
-1.707642542332744
-0.289753542885247
0.28114010486960817
-0.03091184836963336
0.4948138363483441
-1.4750170915341778
-0.6146028066070134
0.16292767627973392
0.620994372323033
0.641278819439183
1.899696713399729
-0.26541576442030795
-0.9298276286713416
-2.2978385321843025
0.04620825814159533
-1.2443964425046565
-1.0388565956801317
-1.336770639629759
-0.952769938304241
-0.5314854287808457
-1.5042588020798624
-1.2860582874303277
-0.3395585563877629
-0.8984461931924648
-0.0011539522803155223
0.16449102912217423
1.2006169437288357
-0.9499006921453422
0.029268912351905374
0.21729834751889754
-1.8629487765321018
-0.35125792133855105
0.5420395991763302
-0.7133004298864545
-0.012234424571618708
-1.0070374418837256
-1.405396143768745
-0.44547339436180633
1.7525108754143077
0.3048910299187326
-1.308675183987169
1.7276652316760264
-0.7524893355822018
1.5631495495964367
-1.5120083980349361
-0.12874090376689726
0.3755845007718656
1.3431831398084415
-0.8616042478153592
1.0690986100665718
-0.5974058677341842
-0.6412674210395368
0.6836190341380696
-1.4029910113940305
-2.011270249153794
-0.9052149387318649
-1.1049039624521486
-0.4854239682899701
-0.09142246587155325
-1.849446352115232
-1.819250819689438
0.8942607659022401
-2.310794985990304
0.6084544855976407
-1.557978886425836
0.5155290375059769
-1.8557366361291905
-0.3201474862222719
-1.127001284039067
-0.5529231708993735
1.849443409100397
1.1152542291673684
-1.4951153498410812
-0.9034600460665905
1.7147475611448357
0.009345796606357424
0.1930626817134772
-1.9460051813666506
-0.15953478486483116
-1.3585625920439892
-2.5333805315252613
-0.6219008962328636
-1.9314372342507182
-2.8383646869112584
-0.9771054456430965
-0.0002769846350824563
0.170939875542778
-1.2302124017695828
-0.5057430528522452
-1.2282899288084932
0.14609068032531702
0.593905479999573
0.9908323083842729
-1.7010366657542386
0.039467144064784916
-0.9754949613182099
-0.9821424821145021
-0.8417971356083204
-1.8367705977425626
-1.1906024564439857
0.5099510764829457
0.22404216187653772
-2.8984133384987225
0.6078819682893617
-1.177711261203824
2.007218489611322
0.8749936760573258
0.31426238702196674
0.16156791381298513
-0.24594841002269996
-2.0004557054087115
-0.5272921606883217
-1.298776335712744
-1.029775021962041
-0.6678342708217321
-0.774668854578045
-0.3837299358973024
-0.15521676944105184
-0.5293314689850358
-0.7452358100490719
-0.08249917291027932
-0.2281949022126117
-1.2406243013628
1.0510373305302163
-0.17706444910357255
-0.5606315765535499
-1.0736761383411733
-0.3440422481730982
-0.18616620940008874
-1.9025597902480318
0.7397352177300782
-2.0468585033013356
-1.0370580528673814
0.6501255751981899
-0.9709663769889262
-1.537229069892164
-0.3402374440659153
1.3314530454632825
-0.5919420868280608
0.37330164052857917
-0.11614037604024673
0.8650059175700209
0.04250071820404056
1.621286729085898
-2.7461897655718137
-1.4728436528156745
0.006805862391003939
-0.5373015161960114
1.6193890561972466
-0.1135281846956365
0.05903134054741112
-0.4778135038820358
-1.6872617206559217
0.9312472292396242
-0.13216915758373335
-0.35077376169698826
-0.16739424689414148
0.9730532151624794
-0.3658573717246676
0.9935955455509519
1.0629947795406118
0.5672747142041651
-2.842375519406987
-1.4483243480747994
-0.7938073074631062
0.5800130469167222
-1.6043627000742506
-0.9267616131006803
0.789194816207514
0.9045746711515075
0.3546313279122621
-2.903417738252856
-0.21777139022507566
-0.6698461438614187
-1.0805912389074146
-1.2553760037829709
1.4967104644336746
-2.2992002420708624
-0.26704348324809946
-0.9890893856496844
0.7286926258016004
0.3549606172903304
0.30616715975899855
-2.1562261573366657
0.7433044878841036
1.466540177895135
-0.6202183432367996
-0.3537819378653174
1.0226737752014774
-0.37714565607139694
-1.426512187500132
-0.2284401020885729
-0.3304775860969138
-1.448282309080378
-1.7893824131013765
-0.626091998239728
0.790216164699758
-1.0889796180009705
-1.6954533066282704
-0.7295931549907302
-0.7671935168312419
-1.6368123204697524
-0.6238066930068205
-0.5802279432811471
-2.2244813637001934
-0.5469795454832852
-0.7535548853104364
-0.00020122158021931326
0.17060543018941884
0.5101367592758513
-0.5707370593059177
-1.0051733879040492
-1.6328942303069784
0.7441046399254795
-2.223389101702277
-2.984809016724986
-1.431463952157183
3.2305905202025667
-2.3217550643661458
-0.855575324331764
0.5210585425479589
-1.6457890209651156
-2.2824700154332023
-0.08490345991649602
1.1774532065938466
0.5388357975276026
-1.8555389740804777
0.5477685420472801
0.40707112368458614
0.04952649393807158
1.0336345158102165
0.2720854370757503
1.0984626257460226
-1.4218580221033985
-1.1987499618941186
-1.9679339089417314
-0.06640306491366085
-1.9214505939573963
-1.535531926071171
-0.81788180001562
1.0443976172928815
0.37947276921566536
-0.0952040164918643
-1.0648753367353487
-0.396791734271062
-1.9578750922261579
-1.4734586047686349
-1.636033954326697
0.925673943512513
-1.7033869937823902
-0.07495170582660471
-1.19184758233361
0.3071673880401067
-1.51423885022672
1.0714048545729618
-1.4006149876477663
-0.8553585349331025
-0.872700930966112
-0.860547951989544
1.4769723219231783
-3.1080330284081836
-0.5671503294015707
-0.6650367677629848
0.43365032245501006
0.7930563469573628
-1.7540907594921067
-0.740187186832231
0.5183648849527013
0.00359996834863301
-0.14628800532506217
-0.3439481186572179
-0.6418645821013139
-1.623264001130096
-1.3783610646115303
0.2797225352915822
-1.3658701949049508
1.5850653368306455
1.3174621532875475
-4.066116352421189
-0.457681954744503
0.10717872069468089
0.6164622337534236
-1.7041144562021922
-0.3228944224275444
-1.651191700367177
1.0942504438201595
-1.0028758702123477
-1.5341807859108347
-0.12084105204052052
-0.5920309610325742
0.581864138267458
-2.7561194070954707
-0.27121365423742927
0.7349212505453354
0.13416228889121679
0.3611689948734974
0.4052054669706381
-1.628552188082789
-3.251042222079991
-1.8231616676154223
-0.00711037192588167
-2.125279968421703
0.0964517836552654
-0.30513350460985644
0.6851352768409245
-0.673416229724971
-1.4248708432089403
-1.2203161226500698
-1.7514320610056915
-0.6729743151273451
0.05591982877337736
-0.5205679539145813
-1.1253290548966086
0.510690548146453
-0.6309930213349335
0.9590499464459133
-1.131340205076125
-0.5532181540196072
-3.0314043443560084
-2.0267568399026
0.3503738304510457
2.9324023319104007
0.2170760095384488
0.5568303597614949
1.1578999858367103
-0.8221995047199728
-1.1536457063313483
-1.0605062924673228
1.2412946151515676
0.005263132550256939
-0.34998714883218335
-1.0817387859221117
-0.8287173107864992
-1.1458877017106472
0.540742106013543
0.3399956862111766
0.7867342128270925
0.37157862576657297
-0.6819395685042436
-0.3961288923976595
-1.3269873915330759
-0.2787140823539613
-1.3541587061316442
-1.1802075023406338
-0.8464427127329702
-0.3096241185026083
2.037004477731543
0.9050470310849051
1.0819069499949077
-1.7516677583824347
-0.3117060477994383
0.728452580846069
-0.15017542036583398
-0.42229379255230276
-2.4803972240068637
-1.1178645407125827
-1.113197514243642
-1.0292715247059614
-1.5182603169118698
-2.4470900570008967
-0.9079610302709877
-1.0414347102764163
0.008835656717009309
0.07073927047086606
-1.1883150965052613
0.18125350084090053
-1.9270641909511566
-0.41566346375470237
-1.7987937417113886
-1.4212615407507005
-1.6401177850722999
-1.548356850263293
-0.5802766923904206
1.9547843204002073
0.08835694197222657
1.2052445659149127
0.2692210436847172
0.018527810847181008
-0.9040600321428143
-0.9512948252256835
-1.2048496004363873
1.0410700768469479
-0.503396063297142
-0.756620955509504
-0.8173472273115315
-1.1163301639378558
-0.3252514409472549
1.528572265411744
1.1368778258385468
0.29374041578029325
0.002160001101650346
0.3416892275940511
-1.0263473741044198
-0.590537714282001
-1.4496748851346388
-1.5342503053675525
-0.454794709232526
0.06607472971930649
0.6149320538212995
0.38739562590428334
-0.05848476183516009
1.0642809905854071
-2.1944328529558463
0.5935993430173546
-1.6377945858102074
0.39552698252790136
0.6633921783127076
0.9872978828059272
0.27563746566971425
1.2804313393039213
-0.6677210350545351
0.11621340422119426
-0.5069154906622002
-2.8560876232871184
1.069137869257701
0.1743352470122111
-1.12971099659119
-1.384562072459872
-1.1996303745120502
1.5944416689240946
-1.3857517109945496
-1.3268088153178998
-0.4015795912503713
-0.27339256400775136
0.6404923868855202
-0.2745955619339579
0.3735835238210951
1.482557167122162
-0.06924587696597187
-1.9188095956696822
-1.4136067898373448
-0.8048163157221029
-0.9702692201026676
-0.46235942626862137
-1.4480173900411586
-0.27255605692641743
0.1851545611579225
-2.547087457173981
-1.6969702973835568
-0.7103860299890994
0.20296780094625436
-1.80639099764061
-0.04371608182027126
-0.040394994181486635
-1.3613312245050344
-1.9459687984656318
-1.7907466595918817
-0.6204770411205333
-2.5649880352656473
-0.98161485182707
-1.2831543815295732
0.00012181085500954057
0.0858466557087812
-0.42181309482498874
0.40097140011607185
0.3275737639192583
0.19855150519240156
0.4879810570691862
-0.8598925724484391
-0.6529318903186464
-0.14705891064087773
2.433114133979211
-3.785481419174329
-1.3790058586468603
2.272947903673838
6.913141232643925e-05
0.08003027250616673
-0.07268629196800429
-1.5800342925176485
-1.2998313867642353
-1.4016621068097328
-0.7839383876293126
-0.7609272700622542
0.6957207899154855
1.2981022035749112
-1.9888009999972056
-2.7360457480125016
-0.2585644703674947
0.6800795794420188
-1.0450865918294687
-1.06225927818178
-1.7914803730486213
-1.5617843804898006
0.07054322556856411
-1.457233731691099
-0.38807869869047423
-1.889884010175976
-0.23544353729218714
-0.6914255448092089
-0.6621683816375596
0.6275411363968801
-0.4662634467384881
-2.3724657654343404
-2.128770872044624
-0.17705287543483764
0.7132849109580423
-1.9710005272298223
1.04424253828608
0.5108324173399175
1.5930270970693066
-0.5375946958594399
-1.139037957673659
0.6233547791185886
-0.8173323988260413
-1.6576167859079174
-0.5888893990332112
0.9421794277749069
0.8212734514687311
-3.0632102816829385
-1.2313141684099722
-0.26470314304437353
-1.7050172002857997
0.009301336609753312
-1.094856480521865
0.6028345883077434
-0.36653994233864606
-0.6385179178240533
1.3449095184864888
-0.6389516633877621
-1.4306137683139588
-0.5231226801962539
0.09011081756845317
-2.7657916792194444
-1.121826563998409
-1.7717460455063174
-1.9267728898918703
0.47487825471778045
1.5635955674936024
0.6841873766408556
-1.8754222389516315
-0.05724349782189357
0.13152785528207867
1.116502664585855
-0.03492418852321352
-0.19165691658553713
0.8176767472724016
0.30527224436853284
0.18490357240530214
-0.528780526593785
0.4885076475143729
-1.302295225678348
-1.7041867801777115
-1.5646324657430668
-1.5696197627524744
-1.7017592899444083
-3.414373313064732
-0.4832358297937385
-1.9790968694479412
0.806183837839407
-0.5638023559031283
-1.5035263437176223
-0.5537291231412012
-0.48979938241356763
1.4988484406325857
-1.5492201575464504
-0.5118500667890505
0.6515828768789256
1.044898560353602
1.5213774339410253
-1.1139473604508434
-0.5968552188496365
-0.731739488766627
0.17082350694633364
-2.1603488385633387
-0.9215109391525032
0.04045449271615355
-0.2294748641554084
0.4447414351727504
0.29632326144562016
-2.4807419391020518
1.7535461817721276
0.6794710478880566
1.2393807468911144
-0.007607143300165138
-0.9979556678512801
-0.6187890230132251
-0.2738311278570618
-1.0775997323855233
-0.815324725159337
1.0146472672848876
-1.370731563975494
-0.8405668346103445
0.5190989168991346
-0.0025696050738918683
0.5058492244656534
-2.0094693989555212
1.1058986908688127
-1.1181243530832363
0.5883139879555973
1.3417499184029118
0.05596153743677222
2.359304227698024
-1.7283244835196327
0.5671525396311881
-0.09023114238949845
-1.4354337007687386
-1.6855842874742448
-0.05525011741473971
0.3821304119848342
-0.744904859812845
-1.1401013495238432
-2.0671507028189966
0.12015018778236371
0.4339279771807563
-1.7670052082943748
0.1055618547085328
-0.1961145313294957
0.07943527860118975
0.17051787434150573
-1.1701358162408146
-2.2712355844112597
-0.4186426624238834
0.151693371995039
1.580226266266944
-0.905253052796723
0.2418103463731042
-0.10419988519983255
-1.1252880868079376
-1.139945579712545
-1.1746075238377263
-0.860117780985246
0.5687764174343759
-0.7090658573850365
-1.8136801035448034
-0.8387468285272793
-0.5804780685447546
-1.24820517587433
-1.3585663298060096
-0.5457006151176945
0.4746297752069763
-0.7498566605952601
-1.1175151445857658
-1.28104213142734
0.18129388850151926
-0.00889218720690871
0.37772095228167185
-1.4325555452784777
-0.4277635902797748
0.39304012597127386
-1.4342420797036466
0.5187037149584196
-0.2437542421099849
-1.1832263080899135
0.3754759643198273
0.811802277047911
-0.7253934291331302
-0.37575187877403343
0.47080488033134366
-1.8009135548755002
-1.702575661624836
-1.2089847786818675
-0.09386046186589929
-1.232822744700566
0.13150392477676265
-0.013284545417763423
-1.4983861160487444
-1.1494800431832246
0.6069617010019045
0.22534912523994702
-1.691417742019372
1.2675764836744556
-1.143154045712867
0.9518026703255692
-1.4668258431722203
-0.9965244589373466
-1.868277500125515
-0.2513185718322628
-0.6588924513185797
0.720814052303805
-0.42129899840245116
-0.7226760008668371
-0.7830932769083206
1.5018824542476468
0.02014736355159399
-1.2747694231506044
1.0994045775555896
0.2802612839733649
-0.358131925132922
-0.9543772022360316
0.7986089783115516
-1.03918259820964
-1.3615458002186025
0.6170738091842272
-1.2314926159039339
-1.9147323279401975
-1.829381164611271
-1.6055439887013732
-0.9111099971049478
1.1316055843311663
-0.15973174531510737
1.0897843267775351
-1.8530415877361859
-1.6212756112317157
-0.9912440363889156
1.1607184606445629
-0.009712283945530305
-0.08648896517807002
-1.2300437664954968
-0.9646194898697278
1.1825030878764873
-0.3025830591384295
-0.1683933697258594
0.05468438124860524
1.2925960408950463
-1.4067640922616365
-0.04354197722024014
-0.06509104868313567
-0.3025507789377148
-0.3124596575279709
0.007951471747270294
-1.0811696098856332
-0.11959769609074081
-2.7561784761438655
-1.6913657926432533
1.7041253157758245
-1.6487006936478723
0.23186431304687682
-1.43062845861345
-0.21216666548026122
-3.24063253777128
-1.2066545393681634
-0.5973115308172775
-1.7140495665669648
0.6691037250968858
1.8656520743957965
-0.3128601334540673
0.8323026276720099
-0.7431283353550017
-0.10577262792381988
-0.5005956324642746
-0.49065215998862316
-0.01698983869479895
0.2723232178215345
-0.5643234457617323
1.2555055052611976
-0.19279183823996446
-0.9463121517817835
-0.9100818866341667
-0.9319486985870412
-1.42730611611402
-1.737440075341939
0.47902617886812704
-0.12129258264178111
-1.6904291262008184
-0.5470955589038707
1.2868095347457598
-1.3848058273330917
0.9805012228011764
0.5267331309738118
-2.5331479267047112
-1.2519831584472878
0.3330946051708616
0.20708663946657446
0.30582071270716876
-1.1874330928159307
0.9384724407431683
0.00988965838942211
-1.53943371398565
-0.8773710447452847
-0.5022712305854128
-0.04291285795795608
-0.9791996507505096
0.8294256226369413
2.822992195311331
0.19437895169846034
0.471307220509284
0.16837854879771375
0.0005967623188953425
0.9179192122731862
0.06879393394751081
-1.393932136988136
0.26907576111069276
-0.9687148119531113
0.7256729127522162
-0.5590056079267902
-1.7943188059587198
-0.5159630600930116
-0.07452265226700497
-1.086398717695679
-1.459833482929842
-2.792402294090718
-0.6605985459573757
0.8032705499518429
-2.1914222245843744
-0.4942253553913618
0.3757832714615941
-1.210097809057402
-1.558317181928653
-0.21966454814289088
-0.2202329181463532
-0.6092999757899205
0.26886952702052846
-0.8048898011907901
0.2465245554975017
-0.5301725697516471
-0.09662453732621186
-0.4157745517073628
0.10266578933686586
-0.23899697915165033
-0.2742622000823344
0.9464546725844967
-1.95116751186426
-0.014867706694249291
-0.41397256996116105
0.6420959768220755
-0.9271918842080399
0.4378473075053372
-1.6880158828259664
-1.4894169986407582
-1.450142883027361
-1.5063114377253468
-2.444129508427641
-0.6337945833923178
0.008860938902080874
-1.0534044943460552
0.6289470026217358
-1.812081243095189
-0.007644658886518949
-0.13832004755273014
-2.209982618018201
-0.6958581086093357
-2.2205298534975
0.49295666233642543
1.2904291148010631
0.6456853034351224
1.6483489324076073
-0.20864341279526927
-1.4367895308778387
-1.8655660295194223
-0.8189494755054145
-3.383201991243064
-1.3773097429469021
0.5589726348846705
-1.5962735308029221
-2.2067531519537846
-1.0967943910407005
0.793264437910236
-1.9545187306091276
-0.3338291349369097
0.41572497882557696
0.10217756180538289
-0.21387712911698986
-1.119511316252501
-0.5263222163797856
-1.046504353412165
-1.0568824822964697
-1.25268522051159
0.5779421772104287
0.25963236679474005
-1.2510755621548666
0.008161698815587225
1.3322215558818484
0.36410907150036
-0.08720048924994181
-1.2126860999286104
-0.8937155861212209
0.5014069449778578
-0.8337285664438021
-0.4858005961308321
-0.5201734447663271
-0.4757196541436692
-3.5140651134194134
-1.89184417082964
0.6484729896573502
-2.078519578000882
0.40185559814599303
-0.698018193251264
1.258124408352046
0.47475440732162
-1.4967440370331921
0.8718913965602118
-1.1653480206531972
-0.001113047305975155
-0.727213168272701
0.24851913273280862
1.1066507578491187
0.6739671917166914
-0.1914965588444145
0.005128381738584941
-0.17976651388100656
-0.4775675131694663
-0.938023424828176
-2.047845415394402
-1.330296518600528
-1.4904044457858945
-1.8923800216135804
0.31807880675137584
-0.5508880281217167
-1.878867080571094
-0.48655932984931577
-0.3979152445207054
-0.8392108173459735
1.2606614191924326
0.14309694151162355
-1.2516800861682602
-4.238410421220332
-0.8825766128431387
1.0802016664241263
-1.0467333843850481
0.10310689853976016
-0.323064047926028
-1.9236736339193066
0.1057673363615206
-1.2058978237618019
-0.30516277165281624
-1.2077741041169707
0.5279203343884384
-1.9205463657354747
1.3774920095128955
-1.805831949392726
-0.8981816456227535
0.15759185315818017
-0.537582572128273
-0.025886873634348675
0.31928447472444466
0.6172447275903433
-1.4716968745003467
1.540871769042914
-1.4909564124959667
-1.7433511031610092
-0.5858052126790568
-1.088085529676306
-0.903559596380457
0.5332180620910364
-0.7996808897273814
-0.3129890138320772
-1.2605568881284248
-0.8212893336708336
0.6666435961295882
0.6991918944436966
1.4816808860164028
1.6378114050483379
-0.4043472792940995
0.676506850392488
0.5485700984265388
0.1651922229213704
-0.9863516703320037
-0.5807873642081846
-2.0443066341707086
-0.003907211996370354
-0.8669434692250414
1.4737725904583874
-0.9449665696578916
1.0685544053837508
0.02411912126291259
-0.6369825973989075
0.9431892365289685
-2.4362348011173443
-0.37342783463874246
-0.0376779226662416
-0.9488481189137208
-0.972727522778371
-1.5643706425206447
0.2210068734461981
-1.780918889297339
1.1100275544954432
-1.3515033786315802
-0.2736412643556361
0.5048193766517658
-1.0383321196086888
-0.0762847349499116
1.1311148221632017
-0.9303282361944054
-0.49356088369488016
-1.3939310445797943
-0.9817246144085985
-1.4618528130647552
-1.0139774992881412
-0.998012070829872
0.6351136775636812
0.8844111151313114
-0.3602177804383549
0.8756270303866182
-3.4130731740871916
-2.3121380156745768
0.24778811677833937
-1.2750717755198449
0.21490571025640567
0.27463385445534044
-1.1430385709383508
-0.9837724193738131
-1.4240596152842135
-0.39330987777247906
1.3833222572166097
0.26403478109535633
0.008033997323323099
-1.832859729287673
0.0782418796186528
-0.5859285235206274
0.9953420144470274
0.16108870355034197
-1.5907709298186063
-0.77536034273564
0.43658615318339006
0.6608102423684132
-0.7305035832662418
-1.4642704242060436
0.7414374277855003
0.27778210935893244
-0.9181263136759905
-2.346366388456672e-05
-2.659098722914772
0.06096615621002805
-1.0247604007918558
0.10964036553892946
-0.674542121845652
-2.9010492940951
0.879464394141303
0.057029260691365095
0.4342340052115106
0.5923740745272067
-0.6132230479118655
-1.784154591558081
-0.42923336784089894
-0.42217884895033303
0.15068494361560725
-0.5069671940195389
0.5740958870985505
0.8995794292116828
-1.0333672265935883
1.3503742299993133
0.3413953272442903
-1.7582558468357412
-2.8431938244500263
-0.8891339464198648
-1.641826983363924
0.05799954641028921
-1.6068112793535863
-0.6442377397134211
1.7336504613018087
0.9822936081789895
-1.7152387037823233
-0.052204466669041924
0.5363884124993933
0.22652555118960668
-1.5108836638225076
0.5200066107601793
-2.2391096490956404
-0.1769988277858027
1.5798109651362817
-0.6050409326711468
-0.7450144186139207
-1.669510128230151
-0.3207851350192526
-2.1177563419220515
1.3812189498528566
-0.7874682875933985
0.8330689670505829
-1.7351822337775185
-0.6494526326974571
1.3992307090730878
1.1955926637508534
-1.1050880111333996
1.5390246871143005
-0.22874209480253588
0.9597521320736216
-1.8680651770592596
-2.1859511506630795
-1.061689792157718
-1.0622047550427829
-2.6703498619575567
-0.008490595436519642
-0.8852045177656308
-1.781960193539118
-0.46026971927887494
-1.5362422194077587
0.9082854055400755
1.11973347339333
-0.3188789823474853
0.012666035479980598
0.2114947729055235
-0.976656963674577
-1.4747409487197851
-0.14992023814006875
0.05640894328107189
-1.9093289072598705
0.781346988117801
-0.7108047155431831
0.10165555917205778
-1.0364069067713853
-1.9381059983011604
0.6413804662929591
-0.8874969668933959
-0.036689043044876475
-0.9741090930993593
-0.975851621326118
2.238260302199162
-1.0313754607751273
-1.0768751384570368
-1.473768301725029
-1.1068282825809879
-1.354461726952811
-1.021310153631781
-0.7820290244213702
0.13413743553146745
0.37634299749896183
-1.59653805494848
-0.7800485636513936
-0.11713136713201384
-1.5509717064857087
-0.2114070442208676
-1.337879766962216
1.1525707876760674
-1.4625365430071964
-0.26727395048504526
0.6211570069512665
1.0543705925837756
0.44380533923432663
0.4831256777648867
1.619593518648841
-0.5172067373945514
0.458962533067353
-0.24932449239635934
-0.41429657031458633
-0.7060896363570953
0.4724754351594315
0.14001633198521976
-1.05461998245471
-0.996194978014287
-1.9867073827460067
1.1707555146970747
-1.5244609575443584
-0.006894991452750812
-0.7563204993463916
1.39933696453048
-0.7506554552628434
0.2767467281150252
-0.8197872878718258
0.06462401137289907
-0.8531127722425862
-1.3389299843908007
-0.9102866165617135
-1.5273079564302043
1.1512188571440065
-0.8402061625611965
0.7461177880036369
0.48727863116432113
0.017199174517355007
-0.7003953871347631
-1.5363764406715479
2.5241803139256556
-1.066001544140694
0.7723634083212417
0.27132298311401587
1.1118562310166316
-2.0339761113477555
-2.402598288104106
-1.6816695933177794
-0.7605346786380544
-1.575637666395152
-2.1317571021087973
-0.9458225004793697
-1.2429489449856945
0.9197011803842102
-0.8466700267012446
-1.6292890283872816
0.8669809126741203
0.10708293610132998
-0.08029065870859237
-1.7881432507907171
-0.6841848993664152
0.7522133198547549
-0.5625025654833182
-1.4647556066581402
-0.7360184811809325
-0.4042241829206342
-0.4003643862071663
-1.43591386409911
-0.04773768951757985
-0.09740760754072143
-2.3763236525002887
-0.8400875306323996
-1.4192827424570904
-1.980383888779964
-0.8205905019694938
0.1412716132740512
-0.7026732744317559
0.8327517739797775
-0.2113388430475889
1.4298692859070004
1.1464042157463052
0.8300457558866229
-0.4762048608072138
0.0008599288365899755
0.6220290966619426
-0.4846265675257583
0.24767887721271256
0.9118972690278804
-1.9196293999468268
0.2108318769723374
2.0657147333277646
-2.8020511519730604
-0.4269933006608324
-0.5589868733641706
1.3428133653952532
-0.9532775281437005
1.2014183561781688
-2.1206403275531414
-0.7047674722040753
0.8190549935725695
-0.3730378698243312
-0.35726237675234906
1.1574844383149652
-0.9326384928246066
0.6011865084460494
0.1679880088751548
1.6378295546767816
0.49147537653019574
-1.8236228854249052
-0.27232332041162494
-1.0004302802954732
-2.742455723593229
-2.6999483321709445
-0.8786567032431492
-1.6038220507482719
-0.8374776481751175
-0.04547306126739876
-1.1528594895349107
-0.5411667285418927
-1.3328708652569905
2.248097996693503
-0.07662189360390803
-0.74281535895175
-0.6506233343840214
0.21214727962068927
-1.1092528790552239
-0.05715563398091163
-0.07818732324349652
-1.2523201191476196
-0.1624179873781137
-1.5462201535632565
-0.27171376721435
-0.4421708291971848
0.7469330938834083
-1.7793560556110797
-0.40739195162351266
-0.6901889699892653
-1.9497997132296727
-0.8561257200232988
-1.8289902644796487
-0.02569405864156739
1.7565470109809083
-0.922917510477847
1.946631353480475
0.004628813555832376
-0.5328255331524313
1.0136329164371434
-0.7747312108606029
0.6936396497032264
0.08975630953703537
0.11337970725229185
-2.5129573360379247
-1.6763337585036233
-1.306289864407859
-1.5459633243384396
0.400177092900042
-0.6229926957017423
-0.30738958038359654
-0.7602750367160421
-1.1880261758969586
-0.40026727357315495
-1.918251627325916
1.029732812100647
0.048440578422517616
1.0369896572536033
0.14753279481896847
-1.675862229084972
-0.381590089873611
-2.640093830480534
-0.16838091508244596
0.6671879191089336
-2.8208903315687084
0.8826604939639434
-1.4939944565146788
-0.7937715736499303
-1.9997682123451457
-0.22735345869884876
0.27356472650226393
-1.112375151997334
-0.24384190486384996
-0.6747191644096525
0.7215411219262075
-0.6063048294200858
0.6340180820579905
-0.6535137901272643
-1.2223936211598265
-1.420593845463114
-1.0691217173467755
-0.6169933273493498
1.4547978063497253
-1.0116493192243694
-0.8466619663578415
-0.7708035473879296
-1.14192355295631
0.8802776331665271
-1.877516393046882
-0.2389150142320731
-0.6056617842820201
0.3654057872269356
-0.9566108353147156
0.1697525648480602
0.6257900363179438
0.7934570527225097
0.44514276646822
0.6493628711145563
-0.0007829303118296622
-0.6989759352825036
-0.565765222223674
-0.9528779153373583
-0.49357716160170706
0.38147352221727837
0.8836053892130806
-2.774834378714457
0.373362396462112
-0.632856815127012
-0.40815964510767805
-0.8323080419049622
-0.7610630505042055
-0.1303626836174959
-0.18217548951894905
1.3081700657240538
-0.2383438485418857
0.4351918885210783
0.6363107422705456
0.9776682853771095
-0.5101773778877848
-0.12726431481269226
-0.014369220044667482
0.4414252699351766
-0.0788603338516332
-2.1811480670672108
0.6789237234601719
-1.586159939605411
-1.6360714959827665
0.8233956729176729
-1.7511516806023757
-0.6724211040016215
-0.40287795862026676
-2.42121932807873
-1.2996865429562954
-1.5737617922328304
0.8545477758742673
0.14913841115080406
-0.19408849520704385
0.8935779417341163
0.6744759613690009
-1.3007307269645845
0.43869202987905626
-0.45060192712360136
0.5537208613945191
-2.063019317136439
0.7582296373042791
-1.6700602830151192
-0.3070065413631648
-0.6249211298706442
0.9345205492025798
-1.7651205599708926
-0.9797255253745916
1.2619954709242724
-0.8570276576894393
0.18849000189320914
0.5282432936700394
-0.18135983357981345
-1.3895378177742832
-1.0907253766162683
0.14456527600746927
-0.007798549949993499
-1.0459157215646617
-0.2378114953381849
-0.7449959391341652
0.4190273116508933
-0.596651860179682
-0.022624450055413522
-2.878053546151986
-0.8456437305398239
-2.8738722453078975
-0.3027205599944326
-1.0495106946303874
1.2733465812748654
0.19484148304210797
-1.1399919014467303
0.1725648074490055
0.22798980587395226
0.3906099860566926
-1.1949577364781228
-1.2540382790646214
0.5267218907101466
-0.3130849574611347
-1.0190057587869128
-1.5827101994562272
0.23082001525388343
-0.31750421260677736
0.12311001641339069
1.5117243570361807
-0.7473897496836928
0.12221404257720808
-1.0609932849233967
-2.1892995732845604
-1.577411387228949
0.05255551504775459
0.5795112652684389
-2.6106608305678245
-0.1152982690475175
-0.06667499892421898
-0.8157814261633765
0.7440170888455543
0.24702438383651176
0.6113950541854396
-0.6820546717845634
-0.22776558049762408
1.2340069134383551
-1.6358660358595127
-0.8665988903728078
0.7049563234992391
0.8927744316177142
-0.8772335572227905
0.39679774251532157
-2.0158909899421347
0.9541091591344505
0.17172947529813404
-1.154133711756245
0.33549911849784164
-1.6074449642701714
-0.09693775322251669
-1.4116459084876247
-1.187710359605013
-3.1044834611118275
-0.008068799419103441
-0.13886674953045164
0.8657964552331664
-0.35560079832565294
-0.07123505190918772
-0.9799518106316957
0.25871516546391765
-0.7673116829945262
-1.988093739811228
-1.3300756335436212
0.6513840871472569
-0.1670883111895117
-0.6788256383461432
0.16278202057764668
-0.37014187637048285
0.4138718020503679
-0.22058381144085631
-1.6362494943181956
-1.8401247546266735
-1.5506707276784406
0.38861418121174335
0.6394242125560236
-1.865838678953235
-1.3347773204875653
-1.8749466494144849
0.4445340442090429
0.36355399829538854
0.7235700474175035
0.37057649959309835
-1.5290380540726365
-1.3132285140149655
0.13177075901423752
-0.33461421486232956
0.7452614987151637
0.42061384375261723
-0.4344026044477349
-0.01119070649741962
1.0814185525240954
-1.1116519925285389
0.5722163670787014
-1.1562898642063328
0.4988123760019672
-0.8384802650178035
-0.3139667057220744
-1.1295336647366656
-2.606811441632899
0.7179869764544051
-0.43235699255038657
-1.2453051328500182
-1.3498547437761557
-0.49752633944185404
-1.0765803955228084
0.37984113961037785
-0.2601547909084523
-0.4325294781749512
-1.889059371032964
-1.123344940421366
0.25544372446189806
1.063122506049697
-0.9837917143351502
-1.7308168439370744
-0.006493551007965026
-0.2438615768603891
0.5581319678958121
-0.8681451869280271
0.25291436376122195
-1.164739273063576
-0.8962493262121757
-1.1653701490085315
-1.302721698344951
-2.0574067211925193
0.15904908565946654
0.46819340517282765
-1.5253890472098652
-1.5743997409450956
0.18580744242251312
0.49362532976936596
0.04384115601056713
-0.5644385542007887
0.26047659783092414
-1.218240601734705
0.3973488207547663
0.32939174783799874
0.775862564935663
0.7511695349126748
0.890687417468273
0.5196623512539357
-1.1881673455728479
1.0058561213767283
-1.4111997427622656
-0.9810767840899011
0.5098609974012218
-0.18354593483143944
-1.2315053401232523
-1.4217423122420074
0.9097681124757503
-2.2493366066480496
0.5671253055026269
-0.306925929539739
-1.0366140008124425
-0.0024080330904941356
0.9425847425706856
-0.5011736460976443
-0.19696506259720573
-0.0553562024963172
-1.899025259523368
0.0077943112826015055
-0.8081948050994516
0.306196510805567
-0.18433625879675752
-0.8139919494619157
-0.5128067340679937
-0.6495534234097254
0.8257101129678117
0.7422990052152736
-0.9205615805698033
0.40559495477533475
-1.9796773315455662
0.39595187751245836
-0.028665130420196857
-1.3993999103104955
1.3835635103886113
0.0002265411824118376
-1.8378655427572024
-1.764769200074512
-1.2061986923685528
1.4225128025322695
-0.23524385889957075
-1.1212472445137989
-0.9765486397511773
0.01528514440825881
-2.2138628173803507
0.7862101022411233
-0.515260294367502
1.136322971195064
-1.7025137559244121
-1.8743195550129041
-1.7974465902895753
0.5609374757093167
0.8981530676673152
-1.8112548271288924
-1.768427109830365
0.9893010172988314
-0.2844775182258292
-1.2638372923273102
0.44459275514590463
0.5238533066180097
-1.2805295236511653
0.15314867079268335
-0.2961930264115285
0.5290636256547622
-0.4496678592378159
-1.4703043909021951
-0.29327908267590597
-0.9713953484063931
-1.4965393876660034
-1.563660696187423
-1.827081624627959
-1.6006053727822986
0.5598658589643635
-0.4643027236496551
-1.9049932119853692
-0.05559479006488396
0.6545511423575738
-1.0792815985673514
-0.24924970531825738
2.3843350334856037
0.3044143082558294
0.09919968251970158
-0.6505569883346562
1.2654017433450946
0.682456320803227
-0.5477169332257498
-2.285820181215223
-0.1418299691257442
-1.2479520035782306
-1.5448867144097986
-0.3520347470005875
-0.6910423043799793
-1.4596911517300812
-0.4235995919772347
1.6746406862105256
0.2615062855318144
0.006338179283717537
1.223638631266287
0.5859404674000327
1.912544620131489
-1.398207252338241
-1.7096845573726864
0.3553351847452976
-0.697942118009288
-0.9335177896492551
-0.3737763849797824
-1.1974413276641924
-0.6461921218682352
1.4184059535772757
0.15148293902969193
-2.3698457098657757
-1.7174447688686565
-3.218222174560093
-0.27178706411408227
-1.684750421403408
0.23474264025661265
-0.7045678662428341
-1.9140477886877292
0.35935429017846726
1.183586276174999
-0.30534908755029183
-2.1998972769277203
-0.32777625279538436
-0.5980322150379843
0.009607704658992838
-0.1655466854056042
-1.2321279367646119
1.4659021464518427
-0.10756495947769065
0.7811568018352932
-0.26088751816383104
-0.14048094328903923
-1.6491050348289875
0.28729567159334335
-1.6228382311574623
0.09160845017602472
-2.6502630675195653
-0.9820219109802228
0.988156219041246
-0.11305534941479202
-1.0038917860170338
-0.22709614173962633
-0.9124925887269577
0.27898878618500883
-1.7363017283084343
1.1750179277920754
0.23880197639444692
-2.4865350411011824
-1.1313177726759287
-1.6545166770964697
-0.33578987532565224
-2.0038970392761035
-1.738850666510284
1.5103685129407027
-1.7050714340501574
0.8418669056991447
-1.3780586593569926
0.003001317022702555
0.41133324640313945
0.7172262746487106
0.9692865535729991
-1.030073669168383
-2.611904920289547
-0.7088896259853806
-1.0935158822650568
-2.1368522004403485
1.4297929962124365
-0.3661698151648049
0.07517900231467178
-2.122531744371152
-1.6638035757217353
0.6746590080813054
-1.3860809876584756
0.051701188717936206
-0.5978712619563972
-2.0003930725251164
-0.3808354093120383
-0.6225825859604812
-0.3357375270057489
-0.4243251885325694
0.7901356072253365
0.4538832690271651
-1.9833519372187352
0.12337811062263965
0.5322208898703384
-0.405806416933352
-1.6038609316133594
0.8071906955633338
0.9667906798597825
0.667911744252702
-1.0613666383018119
-1.6291226230629687
-0.15759303407998926
-1.131316448367688
-1.599160324265381
1.3785343502727572
-0.06193676773438656
-0.025837045306109887
-0.9742921701078165
2.141465474826584
0.013199114709448902
-2.320817458491046
-2.134088523020357
-2.057694092899509
-1.59789665070497
-1.8032054707271807
0.5501398362612874
-1.0876739456423343
-0.18268189376133315
-1.0122601835143843
-0.5974850087761469
-0.09006731510061391
-0.8744411564149899
1.1064852231037603
0.22265411337270244
-0.5855168752895938
-2.9624891214868065
-0.7250778962999372
-0.008696471170445563
-1.3009649505075453
0.5917033496732004
0.3219834670264474
-1.6872679671349475
1.2238133135798681
-0.8723152425478221
-1.0590539434011093
-0.5361826912789929
-1.0604878322199098
-0.9990958774147843
-0.5974519129085778
-1.4281809388072084
-1.2663051736508852
0.08979594657743985
1.5819887062009073
0.27631322945107295
-0.8246721980277871
-0.016916730825121438
0.2510987796121989
-0.16739202113631
1.0199659135686345
-1.664133130350798
0.2659427915093819
-0.295581639988475
-0.07734799407340237
-1.9738106420689332
-0.307038592090177
-2.873947333229371
1.461218385484494
1.112944865813315
0.9887531855350283
-0.419320393466975
0.5014882313346637
-0.7150411262166174
-0.34913144668605434
-1.8844148894240822
-0.5796016988023868
-1.9149658999832457
-0.853349502930811
1.547505489333261
-1.2682282058187488
-1.5644535739988432
0.5127017448124
-0.5013338402536799
-0.17615985417834357
-0.8381394951947323
-1.596538202619559
-1.3341501352035328
0.45366016775147794
1.0514763418999944
-0.1265550973779206
0.39472029848072154
-1.3920841311374896
-1.6158806027450137
-1.610576079981465
-1.4671437602314699
1.5903515118158065
1.4270916837999357
-1.4106260225364164
1.6498863170793194
0.0007859308781033112
1.2671424154308926
-0.790324929850181
-0.2985591468380699
1.2251563364071765
-1.9739044864140458
-1.9753005498273444
-1.7551052058241827
1.1371240227471835
-2.0421485837894453
1.6404457729258244
-1.2689222626362842
-2.6570594433325216
-0.6759247195180841
0.6566932559747015
-1.622409010939668
0.9814031860556807
-0.5544419732682166
0.36124298319696796
-1.7989082006711654
-1.9469338549363344
-0.10166603707940723
-1.4001655499192074
-0.4031218927416876
0.876339222827373
0.8227293652872769
-0.3768345501717285
0.22760715427433303
1.265896608239194
0.13868255926148368
-1.1060393273119098
0.3216622943351987
-1.434518978269556
-1.8166313982166262
-2.4380858117852364
-0.33403829774415644
-1.2354072223241854
1.51624930260761
-1.6064859748007547
-0.781376836127618
-1.230161681901948
-3.1455638546547466
-0.533081966742388
-0.2753079187945121
-2.5667564058568306
0.7018238092945587
-0.4311811502391688
0.4267179092576028
-2.8046834346850376
-0.30309484757363886
-2.205837919631301
-0.04854903496281221
0.8533250952876397
-0.4312152312036727
-0.7358150262868395
-0.817621417209627
1.0994357535465362
-0.43747144653557074
-0.48519252039308564
-0.9866900544616899
-0.3091949058738775
0.0035359021659221584
-0.27567757552087063
-1.0356798864040149
-0.8553110001179106
-1.478890140974085
2.1360625894874348
0.5058622123104598
-2.9015225632055364
0.7527798195209524
-2.0825841621636174
-1.5494198384919124
-1.8819187851181294
0.9354921312287935
-2.020440265143295
-1.079224759959791
1.1159825748820797
-0.9152475864871967
-1.1976141421117712
-0.3089430182899315
-1.075252231619156
-0.34517578083446887
-1.60552351802547
1.147529596819475
-1.0728431580337585
-1.7308836616996293
1.0533672937860192
-1.4164961458579406
-0.2856505635754467
-1.86435576269207
-2.1900148591032536
0.8308334704726867
-0.17093333364162955
1.1820252047186104
-2.1081729240937146
0.7012574990119962
-0.49771244117982044
-0.8905765249166567
-2.5085554555917167
-1.5319748549928454
-0.5335923136418755
0.3169744282346704
-1.1663461539674722
0.6435063171348289
-0.16062236888010437
-0.9396608929203812
-0.7057618549621715
-0.7345426668837718
0.3838696975940281
-0.5316979158018001
-0.4950329726984677
-1.0841602985746603
0.7417436502042514
1.8405289971753087
-0.20822401919250183
-0.8447915085140592
-0.23812180280602996
-0.39201727530837827
1.93833458550698
-0.4292913034526063
-0.23708313837159034
-2.5538920322925347
0.009154261436405306
0.7552677114308628
-0.17536273074968534
0.5388143342198267
0.8584515198065132
0.12753517930584374
0.5775144763192529
-0.4897249176456336
-1.718547208709333
-1.292877003094702
1.378481652726783
-1.302962246263693
-1.28612309267629
-1.6479860401707072
0.3063518055043322
-0.9204306866311984
0.4254603232809518
0.607148554338108
0.055041798474460835
0.033637569000620156
0.0316570842951177
-1.949303306935995
-0.80319814137503
-0.32644722853846536
-0.3557438388631662
0.130000629926913
-0.33934088900432413
-0.11732708822401666
0.5301879262221018
-2.975759879643077
-0.4083063806981746
-1.72225738003526
-2.0657909180675436
-1.3203018707007736
-1.897532904537918
-1.7621079753173519
-2.471268983812272
0.7243102632284248
0.6845510203337567
-0.23238021394303696
0.36619927163336535
0.7759318133531357
-1.7719724717662406
0.02441274119524913
1.108196040996084
-0.1695538506436797
-0.55882271899114
-1.281835048825563
-0.7204013129647465
0.936990036872257
-0.3954260824482072
0.852398993512991
-0.3022849226546327
-1.1911516135795064
1.2904764044613262
0.7038059330873552
0.29928131232380834
-0.5649379605325606
-0.6389516145643078
-1.9589298353041376
-0.02800150367670331
0.005725611817121447
-1.9474929735875113
-1.2420590292688147
-1.9978324107563987
-1.7587047931676316
-1.031688386917813
-0.8263789677657164
-0.7968343894221088
0.5514479292907429
-0.8845785573403303
1.0877984286183353
-2.163068063529231
1.1166897628205805
-0.5926788497636384
-1.05280300751043
-2.0994535017709692
-2.611192118653457
-0.05636467347231101
-0.7564221479832587
2.136578312640573
-1.6777360203028444
-1.5619549622280027
-1.221429045468205
-2.5664696667360696
0.15259468381062477
0.36864445915232313
-0.4393508921938108
-0.819628423602855
-0.4459570700694726
1.013939624604699
-0.39507831858530523
-1.3325027253428217
-0.934778322785596
-0.3189177330434804
0.22987967504629278
-0.727339700061571
-1.5933149013883792
-0.21957459676999294
-1.387768888079858
-0.16888988371117156
-0.4883106335261919
0.2854102028218216
1.1362312002866117
-0.526957002128173
-0.8468828698488635
1.1094063100480258
-1.2526171422656016
2.075717022427843
1.8048858474858651
-2.4927886901414995
1.2632319955795581
0.16682981170445768
0.062861481105428
0.039106420974718226
-1.2194188177994212
-1.2765487535378275
-0.39502964604101615
1.3324471228356147
-0.8149561107988914
-2.81435740999547
-0.7836050679813319
0.002596918351899827
-0.11615600403878594
-1.112183041829747
-0.9588445664815188
-0.8175636013102481
-2.269552860942659
-1.3962300174703652
1.4866454188310259
0.08463219640325402
-2.2354033945694396
0.30112076236420393
0.0828021070259467
1.1089922794425142
-2.464022193043417
-0.22826599390518063
-1.003584594535875
-0.8438806111925169
-1.2248155115859487
-1.0752000492721505
-0.6173998531851174
-0.03889532485033954
-1.49543003400367
-1.1973752904857438
-0.1130074961790293
-2.1847258674769288
0.575692080255941
-0.3833793705751936
-1.2928039930853106
2.087859614452801
-2.205986265466258
-0.6747305623874107
-0.3756472485948657
0.1638351442420304
2.8277966468919082
1.5434319852839657
-0.5279745629329314
0.3895568632056279
-2.5164817284946577
-0.8115686914615207
-0.2681340687271626
-0.5297692729893271
-1.371705164228155
-1.1734347950637205
-0.3093706336740762
0.05326898990491632
-2.731721730323551
-0.5506183985396647
1.8710728241540298
1.3881356303286663
-0.8791863132494127
-1.2034605604657285
0.22699759174772238
-1.1554444892123357
-0.9532077750146982
0.17784933205633646
0.3140062902662852
-1.7146376633537506
-1.6085657853024766
0.9222826613900711
1.0908502966649667
-1.5790736112265615
0.009666355445564429
-1.5464003498949657
-0.5395667804000855
-0.15778682043292291
0.6422789891781625
0.2351841239152942
-0.19596742747498513
0.3887845157839057
-1.3138186901061577
0.05136799482654955
-1.950417045236249
-0.19135230707034537
1.3813742050151951
-1.5285214909876712
-0.38416632572218284
-1.4910372976933028
-1.9851695689752253
-1.1792567359232413
-0.8006279144937799
-1.465164011894119
-1.259617434231784
-1.297496478201365
-0.9322599103003547
0.969331442736568
0.9109739828922157
0.8210634627546888
-1.7308521020886098
0.6587140559837371
-1.5994347756158875
-1.4987179611664123
-1.2102264023014353
0.5790434994233282
-1.5009314914418654
1.4619029506254382
-1.65395029380748
-0.9997968675048546
0.9362485036613116
1.2797923891486966
-0.7092766108894445
-1.2080040402616128
-0.9886748731498656
0.4092980833922588
-1.0541254794525203
0.44233452890046404
1.139735349879641
0.13063438639853456
-0.22587467496274463
-2.14363672906679
-0.0985174418185002
0.6427481792516629
-0.6509160186750382
-0.4539992547183774
0.10330860933380015
-0.3042261001637737
-0.28439856202737657
1.2852504782307168
-1.5377230439646201
2.1055128762704025
0.49459803225293064
-0.11795079929013172
0.5530205563691933
0.00989147607107105
-1.419458859718395
-0.2279932702544483
-0.896252493681404
0.7736753191985869
-1.1262012932343772
-0.8753834032006492
0.5987834204522197
-0.8554977458740859
-1.140232621476595
0.5207859897417685
1.4152333726687938
0.6527861145984392
0.3944576164036538
-1.454773371744693
-1.639652812228657
-2.2903090432700317
0.42136322294567674
-0.4952200249971308
-2.5970828428987933
0.9246141338816541
-0.3703746541272984
-1.0528773291401317
-1.471421190886753
0.8621442759818079
-0.6426151907721724
-0.11416439082166767
0.27685670715931276
0.4079055736778205
-1.5137959724447472
1.1591359947405435
0.747907194358949
-1.4649421401682388
0.45264280084300235
0.2630420069416237
-0.22961178975193045
-2.342371912275638
-0.47937783658706223
-0.44005895484136703
-1.3096101199875763
-0.4561895310002118
-0.18390737714735986
1.243420411427692
0.2331450336701169
-2.1487761473026032
-1.9574607686100025
-0.9919219479666698
0.5099313990965865
-1.3973442204234938
-1.2141907044245797
-0.5432756889807534
0.40972676214277365
-0.23524707436512968
0.32408983360861515
-0.22052615183973898
-0.4200381059482307
-1.39339456737465
0.7382045127606159
-1.3722452966954855
-1.5870342125492165
-1.1854425568673996
-0.008724744825962827
-0.8475740738944483
-0.535824657850446
-1.3460166304711703
-1.403026868433309
0.9334850787263151
-1.8978661655507671
0.33412024431856613
-0.5725076666578581
0.8405539861678077
-0.8160477483421757
1.0436209186901666
-0.588930240983347
0.5729906083460954
0.18154409638970428
-2.29178751382971
-1.220431450834275
-0.678216371053284
-0.11884648042542083
-1.084861025420263
-0.5632497844621212
-1.514828606315272
1.4067382739903702
-1.3587931233985524
-0.04038029691371852
-2.649071255713092
0.4066452937453235
-0.5258557566340217
-1.1415142049427778
-1.3302300487520402
0.14998786369081843
-0.08593744898363156
-2.204597913404618
-2.673229403688849
-2.978457179129882
-0.4319049771699132
0.14373832398682285
-2.0153272476881052
1.3797988944463788
-1.1544786004745247
-0.3675684883155682
-1.122261481892946
0.6487267129416788
-0.10414042120373357
1.2091715820417728
0.6546599437562312
-1.6998713252198245
2.714163685319962
-0.6845776010948532
-1.6623760425751148
-0.5482407089828526
0.5821380876345934
-2.4523797705609183
-0.7371042879297547
1.4531536158894047
1.99195013484102
0.5961468139163115
-0.9383675802047878
-0.21473604091670845
0.22644275669765218
-2.186856222325061
0.0006180800208461009
0.04205436569687546
-0.9256455704031175
0.9451830971035718
-0.3337903091397277
-0.9674491960576778
-0.5051033653933975
1.8131303395956266
0.2749735298389686
-0.16446094052509794
0.5342704133367946
0.4958232554747605
0.06920116377177309
-0.04491817000276766
-0.23658415131673555
1.0304454669459624
-1.2783397474161282
-0.9688653687731431
-0.9227867847339618
-2.2970525952437333
-1.2554285324169707
0.5785175229738118
-0.3468723966799398
-1.2389337591231564
-1.8895991207740077
-1.0101295999977262
-0.6164225861017886
0.20647295761113071
0.3340575730261307
1.2153239139537053
0.08330804026265419
-0.14765865377000145
0.09058483141867399
0.7935518937748544
-0.1475944284003634
-0.4083548640956746
-0.6055520631874751
0.4316996941973626
-0.06713021841773824
-0.9854941083827296
0.02496001138632656
-0.5083446917660233
-0.13813273275244792
-0.10078896170149035
-1.7575501748851476
-1.2151101008686533
0.7939726994202683
-1.6435084622851228
-1.182405790232266
1.4119017075344122
-1.0611229922252405
0.565319268942688
-0.7839861878425832
-0.2141325965399773
-1.8886619517810317
-1.7108795074266498
-1.9051959270959336
-0.8551452685858452
-1.0461186008894183
0.7462709280088649
0.7749914848119871
-0.009294681288952009
-1.9299686060040342
-1.412739540624055
-2.152700290592769
-1.8085475261186736
-1.5044315317282742
-1.6007504973985716
-0.5139177652177153
1.079053211110316
0.31839447234304197
-1.6548902112827257
-1.6020505895994703
-1.9167494835469099
-0.861982770451553
-1.1876980489882953
0.8853970387176422
0.4648779625491603
0.6952025668701028
-0.8177122608718735
1.116413773493105
-1.7513479189143248
-0.28020224895837187
-0.9781635739455289
-0.07718438978806975
-0.9891257113567254
1.4817036975566904
-0.7519481136279164
0.663752281268508
-0.4802768582545874
0.3646867532036257
0.4573120631425013
-1.283802600804707
0.4877960511567316
-1.2849491488699856
-0.8232987209737759
-1.7941221461147077
-1.3576541896725942
0.8235179125141626
-2.7169925547476996
-1.564984192367146
1.6675648069040834
0.13125442942971535
-1.7501287360912947
-0.9933000319719943
-1.119395875511781
0.8746493342231856
-1.7280709413098534
-1.581621942436005
1.7042478713735274
-0.5534818655815734
0.9652078188718454
0.9538378127502732
-0.6829110213537571
1.895617831255618
-1.8626012129459943
-0.9749544217387363
0.09872872122603345
-2.763876589074963
-1.6526102468615727
-1.9489323125131552
1.0777245735440004
0.005109004077559456
0.23862440680744829
-1.6166653212030502
-0.10845607278554642
-1.5364979705424098
1.775018971952176
-1.215552011995179
0.0413157875130206
2.972983482636124
1.1080386349671518
-3.658885767856398
-1.3357015457134513
-1.3845657815409225
-1.5674369696354005
0.1110907067552145
-2.2194780683463655
0.0933438151220536
0.19856722998587545
-2.072774768948416
0.32328060020095034
-1.891015549216178
-1.4972422535970267
-1.2399289506246507
0.00230122486890554
-0.26944469666446497
-1.7256495786874586
0.06174102183184355
-0.42023736745588175
-0.22772643241517562
1.3531733057688802
-1.8074014728783507
0.7730022466153134
0.34267550808412583
-2.111258247298054
-1.633340303721341
0.3914882325763845
-1.5764733592217488
-0.9549595768255675
-0.5983419887300598
-0.6613079529474493
-0.651560288969218
-3.19754838828683
-0.030030483807532257
0.06123055590335217
-0.21621989284207813
0.07601385992559893
0.09885461325192153
-1.076874280541284
0.060431212787056356
-0.017173922268899536
-2.5446219672416834
-1.10758396200171
-2.202607050941505
-1.2412154754435185
-2.938600552326052
-1.210365495901734
-1.7415528571820726
0.8117866003682893
-1.002596554139918
1.0751117980423077
-2.283510147879426
-0.009619096010231754
0.4545009101227677
-0.9613392927053976
1.0208582617820356
-1.300046764913288
-0.9408230067893846
1.1559430624785947
-0.8529618488908222
-0.8739685356212836
0.8623656994883929
-1.7216552716602747
-0.8373176999945904
-1.3078170481098799
-1.247899993221976
-1.6319146564193583
0.3836246744765618
-1.4990002900732202
-0.08919084352509023
-1.2348880321259745
0.9548634134472009
-1.1669424733284397
-1.3831044511310029
-0.27338195145117067
0.4560665890830372
-0.10065049978007534
0.9547772378429956
0.035442101433494744
0.8003407606548346
0.01515829760606605
0.4482148569122785
-0.6099880650169943
-0.38598755383372735
0.3331182349306212
-1.9383670715842707
-0.7658829098910069
0.08417191480568424
-0.9406480083514094
1.0494324770520183
-1.3145178371892121
-0.9798187452533301
-0.052809450828781274
1.6791094146605787
-0.20886140169748685
-1.233038199242028
-1.2684918727641683
-0.4246399369762717
0.4945473852906881
-1.0281878496205674
-0.9231516194897923
1.0077798849447699
-1.9702551306031117
-1.9710338117123967
-0.9334328340961742
-0.9650471857141886
-0.2197677410404922
-0.0649509092223719
-0.6759324865719648
-1.9624113958509912
-0.6609199758303628
0.3745360498007485
1.4211306817684497
-0.008838555019428039
-0.21756164647879916
0.45033540058847477
0.23449121018711291
-0.4733527628481305
0.6656467364543232
-2.0575763068709243
0.43249961666459985
-3.372297582442917
0.3648087295656031
2.1481649468034867
-0.8442767072387536
-0.9919974890514234
-1.2622798232891894
0.44449249569089916
-0.38821829523514945
0.13303962649264722
0.7837298980559926
-0.6973084798762871
0.04134803694040918
-0.44116590624701674
-1.0260925694286764
-0.338933314023902
0.40876445894041746
-0.2207925141107515
-1.6688873917199236
-0.9450026138846446
-1.0777420438093088
-0.9547049726591286
-0.13582577066119425
-1.3672677762953038
-0.13124296459315643
0.2414555437996548
-1.2770573247581851
-1.4440365482590196
-1.329933329870742
-1.565155981490135
-2.2959973096609048
-0.11333600359935132
-0.5985812123585474
0.19520811457400714
-1.0950641136902202
-1.9243174497523172
0.5358187658436594
1.9511239079300293
0.6819736821904735
-1.6534211076632177
-0.970555810010403
1.878015089174058
0.5240368821793328
-0.1212827660827027
1.3674543662398144
-1.0724595244417034
-1.1221505264880927
-1.9817284843560725
-1.3692513938370503
-0.9218578304676368
-1.7296565305188834
-1.4026921873841935
-1.1446604315626583
-0.4476010882669568
0.0012847593312080557
0.6655331595964837
-0.5225466951490454
-0.5451951054319718
-2.042486788065839
-1.9436281706367264
0.45744622400299545
-1.2322122254843846
-0.1051016358243033
-0.8733311131831558
-1.911529542012352
1.2093219832491233
-0.6091088506513141
-2.025878574031975
-0.6781723784628375
-1.4271092588495389
-1.474066621853656
-1.7585739248339964
-1.6653255040037291
-1.0851114872429646
-1.4084979209635604
-1.5886117855804813
-1.4304606911133666
-0.2527741297710167
-0.23741022769520595
1.0330746931339978
-0.5184133851780124
0.9142187060065602
0.20653992034643762
2.0162818415979453
-0.46280467869026826
0.5371373193617293
0.7132599020050293
-1.7075918539715722
1.3134534990473399
-0.7886335263850358
0.7793598683387725
1.0380732652194988
-2.0016457275557467
-1.1974496641383472
0.39871282926469576
-1.325743415111618
0.42717617593195834
-0.6930729446395351
-2.355627037449845
-2.0370690634362885
-0.8225891531686207
-1.3749025904702514
-0.7628754117309369
-0.5764867139769023
-1.7484110098872307
-0.8871836046294937
1.3600366901952334
1.5207054654721666
0.03460433954871931
-0.20717536934328
-0.6985477980365915
0.7474743454927694
-1.3536253859448564
-2.302443169933178
0.45840340513098715
0.004968620113869485
-1.7793799413397269
-1.044507110632134
0.4118647040020026
-0.3279878852632447
-0.7320719809191926
-0.6855781536982144
-1.0261754617467431
-0.30079511253031854
-1.6114479627542806
-2.0018894962378653
-0.9714621366500016
1.0821749943714474
-0.939090639469742
-0.7710722873760095
0.39006755081287675
0.6216063761220869
-1.5756456093356819
0.176380427703117
-1.4227881771303217
-1.0638608235736866
-1.4554892705494595
-0.6077398999800367
0.21265300285406807
0.7558560046328999
0.5618180509112043
-0.39312863291753974
1.7085772173164058
0.5360150356456554
0.09636915181581666
0.06495568407122161
0.20025295969993154
-1.7738559220109016
1.4712980871507924
-1.0037745015114996
0.2898695534632406
-1.0020005960209926
-1.4073083847903534
-1.5854146492595427
1.5260090185357542
1.06011369581845
0.18497328609561797
0.5558843381303887
0.09172360458778037
-1.599917015464707
-2.032362703200797
-0.8076020232710591
-1.021592779474853
-1.4838143405766406
-1.4074610871358988
-1.9220169916026675
-0.43393210110941355
-1.886023057167477
-0.7465053575187321
-0.15733650458481235
1.021118107490528
0.4883641939112144
-1.7479768344371247
0.163847385025821
0.9935120672210351
-0.6886746815475572
0.004064914085490682
-0.3846989837839701
-0.45538622887058233
1.0659697243585777
-0.439241357080671
-0.8574128382158948
0.06714219307349187
-1.4041572228627144
-1.806309423242418
-1.4277643686514367
1.019962964372526
-0.49560352178019224
0.6502505372762765
2.3260061103994922
-0.8535771422895978
-0.34822634962235127
-0.721406479593962
-1.3141620000841334
-1.6299027931612837
-0.9234441559030588
-0.9073686005899296
-1.920588179469
-3.275805902254072
-1.5355456264659253
-2.0327990203806943
1.0654938628644903
-0.2936880812200611
1.395935381143623
-0.09904724466559235
-0.5705042951115172
-0.2774920097255918
0.3100647034605631
-0.2550447930141886
-1.998484439673104
-2.3588848094471606
-0.07584604248704892
0.08832570751453293
-1.2646993813355822
-0.1064922126699409
-0.8080874716160185
1.3229203715605435
-0.6118365110726206
0.7385492725463915
0.45238651357680537
1.3958987774732234
-1.0059854057432789
-0.8793387258622588
0.8226139798907309
1.2506005882998406
0.8364395075935678
-0.9272901472426711
-0.7247802953058927
-1.859570791440394
-1.273117471644825
-1.946057066746505
-1.9167915860336016
0.23781189832957453
0.001298913735389912
-1.87131491611215
-0.011402345919569281
0.29524389112126653
-0.003007463880767447
-1.8261045873826995
-0.8836626381489315
-0.1872457627800781
-0.8455889777241238
0.47477487208824104
-1.0707909770708333
0.2741387512899256
-0.14489430138075587
-0.42536979127524593
-1.7504172273629213
-1.184025370254132
-1.5154731204598357
-1.0533147103816165
-2.2021272088484793
-1.5052091537870815
0.04369411937335077
1.161935738120756
0.01928101588526066
1.0993523887080705
-0.6870270036050034
-1.1747341982051718
-0.5141263660692199
0.4005178117248199
1.296102184981567
-1.500785949781688
-0.46526561805445943
-0.903271111910664
0.0899310707001237
0.2218154375806388
0.7624029433795427
-0.4627518107194675
-0.5243268714786928
-0.09221550093092816
-0.6966623787945352
-0.17380944468796158
-1.2147323938019317
0.5220972548553834
2.8246313942557695
-1.1173372359690992
-2.766166523469238
1.2062606980584718
-1.648608402429225
-1.5056384529750597
-1.769380385528132
0.12686581755356324
-0.5950005401436083
-1.8542260908735464
-2.548206059558678
-0.1780606703601086
1.4759427156748175
-0.46603420269342954
-0.839490350418924
-2.0507273159196666
0.919981934514831
-1.2850647570617417
0.12867074507754772
-2.5118887888749817
0.5766289620384979
-0.2690321041260691
2.7690047753407843
0.0048631593288045345
-0.589251266330663
-1.1670721750518949
-0.4493284204480006
-1.943789592189054
-0.3920198598942914
-1.5084622385706092
-0.5026019456804657
1.421533485677932
-1.4496353182338682
-1.3454240465061207
0.3331267910348479
0.6533670944368085
0.6900116404648085
0.5221711394334277
-0.7373584159076921
-0.745631668602637
-2.3482510900490965
-0.3286405376184813
-1.3386857002201353
-0.42107623844198117
-2.0365848351361966
-0.7122836574231529
-1.6440013179280182
-2.6405353647103027
-0.4097008776648745
-0.08598580089959625
-1.1687512202712207
-0.08627342622997561
0.8252480111812985
0.7396283554306907
-0.2670041278974407
0.3273276972311719
-0.14045110584158182
0.4081526725003045
-0.15377594593247534
-0.3153691304185939
-0.015967681994905267
0.5758437078029257
-0.7953752081782606
-1.2158253407561368
-1.0053472362397289
-1.859724826341594
-1.238988599253468
-1.1907923069534216
0.3829136343497125
-1.5429229884335025
-1.1925973423711254
-1.2914408309402938
0.24907723600844348
-0.7396261131770585
0.7649549032611609
-1.1050017027830201
-0.5719820619387322
0.7442175892887455
-1.8876377481213482
0.2744942131475344
-1.2956759710234744
-0.9970017894683709
0.33768006035465253
0.443729238811581
-0.005067968282225714
-0.9588437071747042
-0.46956613559537835
-0.8776000541247496
0.07521068531358355
-1.3715150814013886
-1.533479935161731
1.6077834253202865
-0.02470376068041926
0.3350743456310142
-0.9959810031600362
0.8046363209744946
-1.5741891425959806
-1.5323845055599332
-1.2281315671366861
-0.7510349809467094
0.033568535509246156
0.39327126248972655
0.07565113112125034
-1.859946795313673
-1.2867012039555377
0.8257436282763907
-0.8242459341262882
1.117763157751648
-0.07982256843661442
-1.4672087891380619
-0.4138071600332649
-1.0450143016623445
-0.6738736460076152
0.44617573559149193
0.9990988960277578
0.56428854717872
-0.45197526286934026
0.798139230032796
-1.447345311400208
-0.8310656057826278
0.31241888544094926
-0.7542452716816848
-0.7668168180573351
-1.8366063311444774
0.3629032691986817
-1.0520991469810188
0.7537583804023419
0.06055243719785031
0.3745982564834489
-1.7538600771775796
-0.4686821147113231
-1.172133797360367
-0.6308144205365644
-0.6399479281948239
-0.09462215912783159
0.3593613461892668
-0.635073905102492
-0.0593776252359794
-0.739666388016248
0.15131180477804337
-1.6964245723854041
-1.180699866210498
-0.8019629794451832
0.736682444347111
-1.5005783402560346
0.006944385899773352
-1.592789220600515
-0.9902966783469396
-0.9584795488351396
-0.42462137986431064
-1.0888102302564586
-0.7502700420752184
-0.705903614519895
0.31770417401994355
-1.2034078188406545
0.31073463562155446
1.381110198118885
-0.44806496843007265
0.8044151420803648
-2.0018643061230903
0.7690176779593749
-0.2774610768217802
0.4234215087872398
-0.1268405922665194
-0.9853673297020272
1.1184868897595943
-0.0010266442154748296
-0.9586508089246581
-2.58750290058424
-1.5066490018583223
0.5868598127951347
-0.919364463119508
-0.03084351724283085
-0.17773671191457371
0.3950091148710044
1.0708739948749695
0.32577896444252585
-0.8727146922322303
0.4597322671379568
-2.069568426438173
-1.5517945009151166
-0.78487514473617
0.5967650722143081
-0.4331833495110614
-2.0964591198372684
0.5598563770915679
0.8339521355652378
-1.5886783504816175
-0.32848618518057165
0.9858795437395912
-1.4734635138675416
-1.261796745909692
-2.5214131009256997
0.03460991930132826
-1.4803653987275538
0.5895160750453347
0.32748372403919274
-2.297454684323466
-0.04531550447850383
0.9133769613087122
-0.06662747007574576
-0.2437674792468029
-2.099950976155963
0.06090244650699868
-0.05916825951579374
-3.126854604541541
-0.008812456920482941
0.08217275021342643
-0.7895482346796477
0.6611504037398359
0.632015110615197
-0.6049434302964568
-0.5218382290200458
-0.6420406146068095
-1.3401773952376705
0.5681409548268297
-1.5364990468750523
0.7485289649723192
0.43780148977893274
1.0160471875451866
-0.031825702354260285
-0.6273775709440101
-0.2637851824999806
-1.330725818966614
-0.028819977755420684
-0.5760945589284211
0.3008763620185012
-1.5019277779748292
-0.7982051125299013
-2.2000759933275127
-2.376007159520299
0.04495576301628959
-0.4609572209035288
0.9347979673355636
0.4364161313483768
-1.6030853993482472
-0.478425909936665
-0.2670350909707134
-2.059717550843716
0.2376471228285097
0.1461746618001198
-0.2914285172469494
-2.018642471993948
0.47968086576837105
-0.15247180659014054
-1.7051508158418356
-0.8046174181179595
1.0721630301195768
-0.8541369933519176
-1.198490120336142
-1.5371139605929927
0.5288833573490676
0.18095250970673635
-0.1072306228394993
-0.9101838549446978
1.0756399183407739
-1.332034060943258
-1.1087923561386455
0.2825382365167358
-0.9531642182638346
0.0027235773476099677
0.6938541296072418
0.06952080630052375
-1.604330512722595
0.2030129423905754
0.5262039031802618
-2.372665709005148
-0.009057403667586391
0.3589301379131421
-1.57075629441649
-1.3773380261794128
0.6104111020150911
-0.2943659353463755
-1.0245632193800571
-1.4075330286182195
-1.2665321603985507
-1.393928267096182
1.1416057374045188
-0.8726315753773979
-0.09652049243330514
-2.1136252997216998
0.7836803994572891
-1.3593648661639564
-0.2936801350349847
-1.5615434979325662
-0.9457107492843818
-0.9615830768496295
-1.7373763911391475
1.1133848760070033
-0.7153753555691305
1.8187239169141882
-1.8290011160044295
0.10499727698063277
-0.6271567350274203
-0.5912753608125729
0.05357259263190829
0.7575222354045827
0.06095297523022377
0.32282628407266567
-1.2069353061261572
-0.7382791375003193
-2.0300558772010993
-1.441847102997531
-0.30962146976517313
1.6550451894825007
-0.5614420385409988
-0.8000521235434439
-0.48203618681362864
1.7893114581678484
0.5205593051322621
0.03013954597266044
0.7511436815718106
-2.348349284458129
-0.16103163377680824
-0.24177553747691388
0.24608581839288168
0.805833868810747
-1.6733542077986685
0.620702942688121
0.37508255105794486
1.38904906993369
0.8587377655495093
-1.6927590699983037
-0.24297545648006535
-1.1839976133895076
0.38707088968899095
-1.233100131677363
-0.2950043696745551
0.0018457106858260127
-0.3198587880469594
-0.20136991798990056
-0.2836702229933109
-0.26364415129700963
-0.25602275549515197
-0.265401999535288
-0.20583618049362998
-0.29431386662634
-0.31580783732494433
-0.26359227989952777
-0.27914681788494394
-0.2845638226066332
-0.244652713026154
-0.2720343515420042
-0.2263964484520841
-0.27848025227303574
-0.2571545527941736
-0.21110889998757543
-0.2480739700732385
-0.2273677844654519
-0.2499061817044365
-0.20454627932344602
-0.30263976761002864
-0.31611583466444165
-0.3098599458230845
-0.27140475035229755
-0.2676352117636408
-0.3179213790323499
-0.27417055623146813
-0.2816096288391541
-0.31783793220439305
-0.34827012091214554
-0.2756391114317651
-0.2736594546414272
-0.39971636226557433
-0.28953212887054364
-0.2692135464038487
-0.2942753878172672
-0.2616198032589014
-0.26576074392502064
-0.26335767448796876
-0.29949666288774035
-0.2361873550600157
-0.2391387050303771
-0.2741860487338587
-0.24742734643718395
-0.24056352323491684
-0.274354682097381
-0.26768178263237813
-0.18671870871977606
-0.3036167779280556
-0.2178621680184536
-0.2732676457665415
-0.2953147664690631
-0.26375364761838277
-0.31469330102783616
-0.26106007646203516
-0.26263486932869423
-0.2944880181954165
-0.15367972486331122
-0.008702106397474126
-0.14794997908921267
-0.12341225775771587
-0.12718788664196098
-0.01737541953015204
0.017169153070254614
-0.02597451050962205
0.5444248201752396
0.5061978729301938
0.3259703521179784
0.21691806144662037
-0.037612291557060314
-0.026792863972682476
-0.20051199440340586
-0.4460654478842719
-0.2087127814876603
-0.20214579084381576
-0.14201174069309688
-0.17521269377741933
-0.14357610411948618
-0.17982869999507334
-0.148992477979937
-0.262905377324404
-0.07853619270998628
-0.27728409697357614
-0.3131421553841332
-0.10133729827558408
0.6692094599680717
0.32039510289703177
0.6901262132245373
0.8287986604230672
0.9380431309091324
0.41947912999886655
-0.21252417908184337
-0.4356754951396415
-0.8394584618081719
-0.3278064184722119
-0.3645975745384833
-0.16416702851988574
-0.16324777423727005
-0.18669798290916542
-0.21739794036573873
-0.3396960316535226
-0.30973789919188344
-0.05618562397256397
-0.1737802755667484
-0.17011866089819797
-0.10028634304108336
0.044277272355934566
-0.18373087170323044
-0.014716600141132833
0.28308014605790377
0.5195894934855158
0.3464168821789277
0.16862419283664962
-0.31401894540797676
-0.2865185292338753
-0.31319566258222536
-0.22107694174174766
-0.21493511934678167
-0.17355836635086916
-0.04505516667980737
-0.12621635750350588
0.12366204936543854
0.1071804559135771
-0.4040913399127472
-0.544115362333928
-0.6170077083888807
-0.034072883402005205
0.07200050540043518
0.19406711291472475
0.512363681945684
0.5028105848821062
0.7298210346358671
0.21443255746609258
0.5657965927178551
-0.28211828386047694
-0.1673563472201941
-0.09690776542718392
-0.09760944826113441
-0.1526462164782023
-0.17340049735059096
-0.0825592055046603
-0.010583454145282294
-0.2940699180853299
-0.501991239943682
-0.23803864823143045
-0.3912198472782396
-0.3875323794214345
0.4381717461130205
-0.025983535658076384
-0.10855026771531141
0.6364458341137691
0.6007321608724477
0.3862330965563427
0.46108513030709813
0.3850874539346223
-0.19196732714085005
-0.1925547245133492
-0.15440044347076737
-0.1412683982868945
-0.1135510786463383
-0.06319798212894177
-0.39892254565590163
0.25170093902849194
0.10195253251675307
0.10569977355788299
-0.16417182727091567
0.3617330599722457
-0.4573635550309923
-0.10159780218471359
-0.19977353133022982
-0.11912865322826423
0.7450459315430168
0.6360144713876692
0.4844367063545991
0.24745568756892491
0.014942143747936065
0.0731897784787297
-0.15435669189125062
-0.10398890679483007
-0.09661184840050839
-0.14342249978635968
-0.323121329572729
0.008540468084757148
0.5937052987402834
-0.16749371679379474
-0.3998722544531828
-0.25362916801698804
0.45263649394458355
-0.1525375179135512
0.08694025451730791
0.5736572367570154
0.43677573211140835
0.6592648071315831
0.5803164655763602
0.4827021101652636
0.1653664599393362
0.12527264674044603
-0.12998343590469566
-0.08690275922905373
-0.0716418532012627
-0.36183284290224343
-0.36809100190701644
-0.0912444267286921
0.020145472789287164
-0.009454984356753801
-0.6914944741116599
0.26663304485840367
1.0182657965265702
0.5793225751603496
0.6557632940396869
0.3743348907972796
-0.4362182537679003
0.4194740498852988
0.38021640216416447
0.7085629452284034
0.23670917537523115
0.13688950396526556
-0.0033008896049175045
-0.09705639460592067
-0.07499324628745331
-0.16153500898545933
-0.2260189761377135
-0.205602981928001
0.38001363106207936
-0.3153360445285084
-0.16961096107946266
-0.04269687652546047
0.7581262121796384
0.8279258405230576
0.6948557493869101
0.7387043597658637
0.2940902681342875
-0.3843289477484803
0.05011051474546393
0.28756588810234807
0.2126290932165871
0.13242596435310836
0.0005404477418877088
-0.1204936317704009
-0.05802252868216565
-0.4105165457564483
-0.24044987042373903
-0.4479991817170111
-0.5271196755519495
-0.4039593091186521
-0.43937065344784754
-0.8712393417264147
0.09719337331684126
0.44878229421755506
-0.11357496300427689
-0.6593751541550767
-1.2821880420163865
-0.8603462165169068
-0.14347789996692356
0.1098515234659456
0.079549089259938
0.1044340149425415
-0.008557125629522887
-0.1052703923215492
-0.05787307856065868
-0.4253452650855977
-0.3037552300204959
-0.313372035498945
-0.6011859680295641
-0.5346245305821739
-0.7497273144178095
-1.12575222525362
-0.04268687785898464
0.19965141398044134
-1.2082028180782347
-1.0798493730119991
-1.4218701514075918
-0.7668300077834428
-0.6065068989731778
0.10624330520653623
-0.025893853839713956
0.047044987025011295
-0.02450277987384277
-0.09668897218184455
-0.05663002107769961
-0.3697451223288702
-0.3890849752040209
-0.35423158144025163
-0.24979200153046752
-0.4973891303987419
-0.914888871033839
-0.6222644371621494
0.6812878148872288
0.1855481978504676
-0.7740895137509318
-0.8663126163740333
-0.8622720472839286
-0.7528562439823763
-0.17131759015277195
0.3272432525421592
-0.026190618616440103
0.013940913962740702
-0.021332956070459343
-0.11294770889918723
-0.05900927903687782
-0.2346825859665344
-0.6097863675567904
-0.2946780474167432
0.24519485629579282
-0.7364724206774063
-0.35276021204925695
-0.21677660747295258
0.46051655123850826
0.0969060277455294
-1.0908423655786246
0.18626340623469226
0.21251971603987949
0.12765478652420467
0.11543439913555975
0.35349731047250094
-0.0700079264189695
0.056867149203578646
-0.04989018446095171
-0.15014429337750007
-0.05579318044292764
-0.30514666516390987
-0.27695856171607675
0.045547436404771
0.31801748596442087
-0.4360000380212541
0.18613780419094483
-0.13392432483769284
1.0151006315023432
0.16400702674393156
0.33722114359735106
0.7342810070349276
0.6708400545109154
0.3554911702327632
0.08189188915491113
0.20628331864337354
0.004532996900660386
0.004563563507425777
-0.033577068158927637
-0.1421703480899493
-0.14509974438025242
-0.21177210597912116
-0.15410943599557606
0.48314354174624136
0.6928624091474052
0.7540798641552385
0.12541991879881154
0.07043446491180884
0.514846221000487
0.2436373960793778
0.2199379677814528
0.594927427947042
-0.4044063361044393
-0.22805989348224814
0.004108465101490412
-0.0006485054324042249
-0.06404675885949164
-0.023030992104535394
-0.14019490942041526
-0.14108689470346658
-0.15432512960006195
-0.09668433971489358
0.43886242491646815
0.564967814689346
0.13286710639042876
-0.4806278301685448
-0.01328672186604015
0.2498243796499006
0.41249591299972505
0.6347925585604222
0.3719018612185975
0.40283471549866223
0.23602840004840764
-0.40780555946587327
-0.1551296711869151
0.003410907879041287
-0.09705791232805867
-0.16741370799899372
-0.10956774986168198
-0.14734696945065628
-0.17544069632584255
-0.10982430419823391
-0.2084427089080834
0.094590930504988
0.07955209032864553
0.2746441627845598
0.04613417839871448
0.07915864794503598
0.9561298709777912
0.7327651864782256
0.4093139305313389
-0.3409345676398182
-0.045534637234012146
-0.5792913383499758
-0.36753104437910905
-0.24706720402161453
-0.29552272241333843
-0.14383187140156584
-0.09756982827916857
-0.15045185756813317
-0.12100050698539665
-0.08536131865459738
-0.17423595187542437
0.1387920444975512
0.23215817482597628
0.7995174908093333
0.36653326705218997
0.6135640621233811
1.4707441730601187
0.3606564226554153
-0.052004212733242655
0.10366639761818867
-0.32371161695606615
-0.42905648422400344
-0.20405771621480845
-0.23041120625763853
-0.21849779810275183
-0.11361136827086622
-0.16627420679558327
-0.15435202069424173
-0.10100064019247286
-0.1554028140631577
-0.38082256144621895
0.05489012872662747
0.5436154060975192
1.2058729339808776
0.6927067653250658
1.307840202289468
1.1401732465313346
0.006366148004171417
-0.023615171395652192
0.2689293308211175
-0.31209040414001665
-0.1557939291264677
-0.021517841720631793
-0.04091169773394653
-0.08692608919702839
-0.10786379525947144
-0.15132456900154587
-0.15305534024189651
-0.16049205469037964
-0.2153645257705587
-0.31106018430916815
0.24227242598857557
0.6948437159057079
1.8163425543303575
1.8100565561784239
2.0691855192361843
1.0004192596407746
0.6594168814810342
0.49349429080421703
0.6076477906652965
-1.1208641662632668
-0.3016167101386042
0.07921173683839877
-0.022777950303233326
-0.0095931547153105
-0.06442991837394578
-0.14695070787911615
0.06578299189048481
-0.008544774717935605
0.054375993950007695
0.05784351323152575
0.16764902388128203
-0.14436280951023317
-0.19418906359026894
-0.32553147928714843
0.18787715210316855
0.16720050253354501
-0.29153698558348984
-0.020808605000062968
0.6280136715365761
0.4467949034269282
0.3429689302122473
0.29291925052432444
0.0532634616848134
0.058314360300679206
0.014756472287697246
0.0738940698809471
0.07936789833918836
0.03134853073848339
-0.03587833633656373
-0.15031336124694725
0.03504029584332595
-0.028811857153860802
-0.3324192851836676
-0.2537993751697324
-0.2127334652433349
-0.0024924258173724253
0.027052555237239588
-0.13058201505130523
0.2501726094391107
0.6108213315906921
0.816370939439089
0.5113682379933988
0.010792404888969938
-0.057334917517678795
-0.05411105297583123
0.0017582812165649955
0.029649535391970933
-0.01352544678713074
-0.07482184672091363
-0.025249625007941076
0.06740294416538303
-0.10351793780157695
-0.20707908612582265
-0.3850714116591828
-0.42866275397113524
-0.2911607360024555
-0.43642382607096575
-0.29679207836452504
-0.1387622379531269
0.38528590286719905
0.05612536183953569
0.1671534019290755
0.22631150524481353
-0.014773876420178817
-0.062227215157434915
-0.039882805838543395
-0.03419347566432029
0.03929001764835372
-0.05257910428570581
0.0011905554146193578
0.0966697673794884
-0.0904580747991161
0.0823312252174026
-0.30621985694036896
-0.16400968568929516
-0.16315184859134352
0.12738756335935666
0.1033715983714798
-0.4220159885377636
-0.23023227975106655
-0.07163186761422222
0.04080675028949902
0.007417058885419011
0.1150882846934974
-0.07682717927787376
-0.11163934811648502
-0.03567017906887467
0.03871333228921337
-0.018265599734444415
-0.05588698524675315
0.27372347314942924
-0.11550415635395987
0.12305920003918325
-0.3031507474764116
-0.030891401773658983
-0.05885860176916855
0.3969646742347511
0.127269590303393
-0.41953088872526306
-0.23325866200749676
-0.24098135408997168
0.22317085745153542
0.09651778960973866
0.20809365769464952
-0.07146592233397465
-0.02047609820152467
0.01575999069187208
0.08468901150377803
0.01786702461343108
-0.03263773083124852
0.22025593059876528
0.0017668957539197303
0.09773425323411566
-0.015492886467339947
-0.24108726390338556
0.02003861354296802
0.2978112403500181
0.6276747698886885
0.35551918385930986
0.5577860110794682
0.1050482400773893
-0.0682265033761896
0.09754422676606517
0.19759726440695577
-0.03882963192068259
0.028384052756411978
0.027142433266644325
0.05568887690206401
0.005612027443089525
-0.048381499933875104
0.1231671967803665
-0.15167285254242194
-0.02106629675661784
0.08922566048716757
0.22503940928053356
-0.41789125975636726
0.24361551029315587
0.20048151643383813
0.22229334278731114
0.28817869100785315
-0.2933339818397583
-0.3566618215028097
0.1858774534822931
0.16951893784974467
0.0172114907239915
0.04484099558605333
0.042342177338536714
0.04549916640933418
0.025438515006233682
-0.017659098627521953
0.007740744330291527
-0.29659718680740943
-0.07632228303401378
0.08063853912563226
-0.1421446981190603
-0.03310398507441138
-0.09291358937941495
0.19766884687520295
-0.19395424448832385
-0.42810241294682333
-0.4044617639204046
-0.31396736519652707
0.11436974023549752
0.1806647845842291
0.029710465748814342
0.039325422741563955
0.04694796865727926
0.07245694062690988
0.036580430122639916
-0.023242670822846166
-0.13818417667522695
-0.2717886467964677
-0.25009173874491525
-0.1800974910527675
-0.5226005188820195
-0.5188017159609323
0.16653633519787636
-0.23695694144601917
-0.3645274008417927
-0.5998639900292516
-0.3610985580087729
-0.03582166149860915
0.07657760101241283
-0.07600699629152084
0.03015468671135362
-0.007875879357927516
0.07046693964701531
0.08367476281607858
0.07498201530737005
-0.013761172005265622
-0.11409108309918863
-0.44014534389601717
-0.5343140604876231
-0.2659245938669344
0.04928050206662713
0.4205941594048607
0.3253423666722649
0.35018653542321276
0.0868381860128266
-0.14336109222938112
-0.26505896656348
0.06339033545992927
-0.09953648282158523
-0.1315980981182512
0.00020159874538263364
0.012406064823165652
0.07842170105243124
0.0759110697246207
0.07486982503658503
0.007651894990872792
0.11676871071684612
-0.552135220398284
-0.7348228110737388
-0.44307906584966206
0.0006040224885428617
0.5365455324911235
0.007685820399989014
0.2568693452790849
0.7103766385124815
0.5611067076641172
-0.04649322350296431
-0.065306185556881
0.12813945468846585
-0.17194444042866655
0.005050600406990393
-0.005577284551020687
0.07272521797675069
0.0704277058819194
0.07650253692219884
0.010427652829138075
0.1076396612428297
-0.5216799446317297
-0.6148338175515101
-0.239179524130077
0.16405783377452385
-0.2482835130460322
-0.24787004812983954
0.5746619901501581
0.9267760637216641
1.0707251267610085
0.8099494764685735
0.3216223225885439
0.012158530470716244
-0.1133602947628664
0.010679125481228312
0.04339093152191229
0.06787119613885098
0.0695688952681855
0.0626715970954019
0.012844435868925998
0.1982280384115898
-0.33484021903133293
-0.47127907884260684
0.11502395178816488
-0.18725211667943997
-0.3817562367120934
-0.06488561429642588
0.9257420621538579
1.511787968629078
1.1300305797301333
0.482442298702686
0.07843789088663478
-0.09942319330368114
-0.10227789156872526
-0.05159952488381169
0.03108583325633915
0.04855448820043801
0.06884982894694666
0.044985146337379454
-0.00923705735095692
0.14644281261129713
-0.2808770694509742
-0.37146454103343274
0.519029259815662
-0.28447532876404935
-0.5138666837248433
-0.6961341477769144
-0.13702284798768816
0.9493531148983875
0.5998922931109257
0.970584255223916
0.11654328171784414
-0.09087268050633991
0.02245139607706529
-0.05428085537857724
0.04414261253843164
0.03723561788847917
0.02428016081453341
0.024574068146443848
-0.06941587699542805
0.2930775421952785
-0.13411886528872918
0.6421331821180407
0.20723281963740553
0.22883355080769718
-0.6905274922759201
-0.7454632755250564
-0.71028628336645
0.03931885702829932
1.1416010167916293
0.685877669941355
0.7543396413432242
0.19309469042180097
0.06380920452023543
-0.09930859457071356
0.01735466754306471
0.03463149994990728
0.04898925427353489
-0.02397166210006495
-0.24006593723125422
0.005626916085165223
-0.3581613428030719
0.4686700875530564
0.4427951004903924
0.05883302077952306
-0.7859422029014224
-1.2362236369509942
-1.197484642708957
-0.38213566552604744
0.05985564556159321
0.8717760990998589
1.1532753259805129
0.5643400886127212
0.07195017516914869
-0.15365831941822233
-0.03276819835846674
0.016334139179469503
0.07078752095442833
-0.0012881509668799468
-0.07682391575877043
-0.1292268147400669
-0.07872784440488526
-0.47747579987765115
-0.44116087076180543
0.17531355405021473
0.2940424543628322
-0.18829590613935196
-0.38554754185319645
-1.1495961315453609
-0.5083182614156821
-0.2660313924345339
0.12110588784128137
0.05952175789637388
0.0750219421705467
-0.05095827095554456
0.017171335751384204
0.04182142489491334
0.06907502725186618
0.021816332117447865
-0.03946771954788585
-0.06869729015341011
-0.08271195271130392
-0.13374252211258772
-0.36658888565936726
-0.3256863179301802
-0.21163437625306572
-0.0539073759474336
0.16228658365688492
-0.16139220684949868
-0.08308653880455061
-0.15343225112172112
0.23866427993374517
0.07436294470248103
0.09268994485762527
0.02785211186477685
0.01082387699951291
0.04486104976533289
0.0644378183006177
0.06713010272232067
0.03172430841472968
0.05348053863716051
-0.061427281198081066
-0.10588021099266075
-0.755316268817932
-0.4632187993194851
-0.44253787563493785
-0.19527189260318176
0.3329568472476424
-0.15385922096602145
-0.3096185089798443
-0.12285337702443624
0.2518135367944426
0.17736483551653606
0.15693316441565397
0.04615138025491372
0.04019160522261585
0.06393463375769537
0.08154631345521243
0.0749399046985578
0.08158264693041026
0.06629214810422784
0.02088241527737352
-0.21791095677331715
-0.6283988163426327
-0.7350956055546727
-0.21270935683405787
0.1347140441039809
0.21084489427833492
-0.34128677926396117
-0.26150049221577093
0.09387592069603118
0.07262392597572145
0.02623805597042746
0.05859339104774739
0.06643219682264369
0.07284938667393151
0.08491051627645554
0.13617126410147096
0.00801148590475905
0.1381873671865793
-0.10460003807535634
-0.34838671081343664
-0.2802588341563131
-0.4947847992986652
-0.6931845064094078
0.20510335204900623
0.16012265725016753
0.5007350975365497
0.38559979775095515
0.4993185475398546
-0.015572907411229634
-0.24190088312327862
-0.007009390172622026
0.08302277822249095
-0.02267575484782503
0.19613912272071693
0.16928977105045592
0.1300551554750955
0.21207472029189936
0.215169673379201
-0.3598497359940473
-0.6302442231181598
-1.0330494653618687
-1.6373077312552735
-1.211602414585754
-0.4717880963717049
-0.45286890020261744
-0.4004616212366742
-0.5735678935267324
-1.1136446782056821
-1.0298604935433027
-0.30841666758376046
-0.06593893595423286
0.1148493734233871
0.09615067081338799
0.20979171825305473
0.20717699460086264
0.17660553592826006
0.13634510660044769
0.1911117322231776
-0.43259977637827746
-0.3374272739138186
-0.8006628870661371
-0.5065451037667846
-0.3862504354006099
-0.19202989055639705
-0.11460568254590037
0.13117251387977055
0.35190986779913036
-0.015910820348200357
-0.0915003916634387
-0.1773500103191902
-0.4852587454369445
-0.2368525014686986
-0.23230729383779797
0.07221802587975353
0.19417155455873095
0.11917572877275513
0.12673894004433606
0.03579752444521673
-0.1624712334037704
-0.28037255599500327
-0.41124279759030086
0.158449193930512
0.6255734210289469
0.24565726904754284
0.20556350142555346
0.033827417247628305
-0.19020300364366813
-0.17689631614714516
-0.22604281067723242
0.036242369412825694
-0.46235589640262853
-0.19488885433712794
-0.1674931356037089
-0.02311453102876907
0.07642092264310611
0.057485156249613395
0.11217445187518897
0.13307745196707332
0.22204819157718927
-0.013618234946699934
-0.023870051635989608
0.14923248252707935
0.35779133260831447
0.34693911962573254
0.1852511233886389
0.04239723645834491
-0.2915657176795696
0.43938099410183457
0.03663574730498058
0.21261676335405616
0.08124636153617305
-0.4176753996443388
-0.10607444043691047
0.18827844816619302
0.2289586892150482
0.12114435548859996
0.10673262038694901
0.21736326295074912
0.24222841200417594
0.29211318449048246
0.33549588952533943
0.39491384245191685
0.5941829371507468
0.3501278073460986
0.05473944278321106
0.36227733051294425
-0.23811994517654236
-0.37551150837864467
-0.21068886256370975
-0.4843128626737761
-0.27869275074213884
-0.2777199845706567
-0.12006176845038218
0.30646942083411743
0.12707031628939086
0.13343257238912543
0.23641125243453226
0.21499133098630896
0.23680315811339508
0.37071126904714663
0.32693766281191144
0.3035627259258194
0.34245967948846634
0.026906418244769758
-0.16967171089426364
0.1589855577377098
-0.5874844676320218
-0.7625485090849288
-1.9600777073144497
-0.6039018692922544
-0.4365765486323264
-0.2228446689759813
-0.1660634558011543
0.1887629945738382
0.1581139122583411
0.17326679908099984
0.23548191395958593
0.20532586903276528
0.3317832571573241
0.34305381398227375
0.3149575114978157
0.3210911693752171
0.323176936418782
0.10435095563738127
-0.5375075966071031
-0.17512165673486554
-0.24253782675693933
-0.3313114770476753
-0.2745036903558425
0.14468267925892495
-0.43892849503236736
0.040776130458396814
-0.13702775318018617
0.205658420400271
0.05010299664432588
0.174666672113042
0.23300519700598654
0.21231271001548252
0.3278474297276411
0.12434953709303882
0.414672700522936
-0.29531490048221404
-0.23427081281154605
-0.13482831099130352
-0.6766520124864458
0.025704901899698075
-0.40556458523769007
0.23057704612937044
0.23850405921602688
-0.22614201874865553
0.22003196221295904
0.017821040555637744
-0.11869334003834682
0.15725700200722917
-0.011846527762180988
0.18669348490335072
0.2260711726706244
0.20889549354030298
0.2955822069703967
0.15445972459691829
0.29069708593556554
-0.24976214480120684
-0.40332197236180173
-0.30381725364017115
-0.008978813736999533
-0.15784139574121073
0.6142935139297666
0.5534604142835682
0.18679529195567177
0.7749322264823035
0.21145418776103111
0.054032345201857575
-0.18895714247685674
0.1962321283705561
-0.020516951611284046
0.1854272587894615
0.23963963811896796
0.21930506836016173
0.2596375188893324
0.22469423085601778
0.19760281582621267
-0.264892207585026
-0.4328995427609299
-0.1390507195850509
0.40221530746728246
0.08221319662148098
0.44681396150006497
0.4272821139186614
0.9397127354826703
0.8071487332018192
0.0197774191969826
0.28171027282270417
-0.20804393142731167
0.1893287541260969
-0.008904269107608522
0.2341828555758189
0.25378196736325886
0.21840413941507708
0.33253387955195546
0.24641685818842313
0.36025566738940057
-0.1538803696830377
-0.3492331809140457
0.037292133200339334
-0.094976929295251
-0.32161236028887874
0.06920213620846985
0.07420864953708141
0.6332447928607102
0.5927633532764093
0.22785914186790115
0.15643476515007065
0.026236490946804445
0.24686889958197358
0.0007914336195045586
0.24446014007739375
0.26111881432006273
0.21046041140364963
0.2735885235653046
0.32128955154416405
0.3959862404740004
-0.15213485499278295
0.19082464412253786
0.20014061989364101
-0.303145624205497
-0.40515082021944177
-0.2071382798498434
0.1419860583496866
-0.2983752216291751
0.11640987735286626
0.04008131156479645
0.21691711440180286
0.16970985568183536
0.30639674848521137
-0.015439063879165604
0.23180921443738697
0.2557141699368306
0.22859298203899797
0.18492024441354338
0.49592482536695054
0.21471243727316397
0.27215411250384647
0.23940492651582013
0.28721972594482986
-0.11077321994078403
-0.8163453066765859
-0.40868360352626265
-1.0306763112764121
-0.42115012958269354
0.31231079532301415
0.28421025309840353
0.19378046295377538
0.16785665886912837
0.24848633826578445
0.1653766354679046
0.2448268835521995
0.2564304761001715
0.26207429599344056
0.059098276343579864
0.1979776472703733
0.1701892084306119
-0.1010543331618551
-0.2332029435196348
-0.026918684064788406
-0.13880667057609183
-0.07241410513463971
-0.03007620155456378
-0.7975196052992799
-0.6812988754364262
0.30312988520208
0.3009500170278917
0.5231733683544829
0.4601920864130352
0.07395666401081696
0.20914462322290223
0.23923867518635084
0.15874423044735997
0.2630631627608861
0.1579077961469726
0.18591596491542903
-0.009593709737956539
-0.002295754368607711
0.14882255262929595
-0.2336333792111241
-0.4180135656978211
-0.49303113960529477
-0.03444127428042947
-0.1779312804815656
0.08886982653462569
-0.056540483754925625
0.33376927619443747
0.7018484854376225
0.508587167583541
0.15683108180607555
0.2626282703844409
0.16940084225744084
0.1460787779851696
0.13570491400651105
0.23876967892376164
0.16846760000378302
0.31328671823917753
0.08234337976587269
0.20619481749431628
-0.18529453320179914
-0.11325838905961756
-0.6045016481735557
-0.5896966917023545
-0.3608922974145293
-0.13280394233323814
-0.09235856607404673
-0.08097251344134224
0.4725768180386596
0.31982244792680076
0.29904080972462455
0.14117999286095664
0.13169616437314147
0.1289751610342919
0.11778790740566002
0.09265186388842178
0.054016843897918825
0.19069798793078815
-0.18713786554122142
-0.31891104204491577
-0.037807723431772876
-0.01719374733521814
-0.4964094236691387
-0.4264449246139185
-0.6174440473698449
-0.6490295009659376
-0.5429102579232757
-0.16361150763884436
-0.00933535622793117
-0.08146180957568239
0.10859774151978964
0.09622362959624646
0.1467030015388743
0.1281860898401612
0.13136923929395838
0.17035376270008087
0.019140615505732497
0.17276539609476668
0.10962424222623814
-0.02531974479799803
-0.032555159586498024
-0.1929555658724914
-0.3263537208959921
-0.29444909897947247
-0.6367035548451743
-0.6959808841829773
-0.5116394190839679
-0.4130881090359045
-0.6254808601503796
-0.5614845544632703
-0.4822998610142011
-0.20831983867183693
0.13003958787472422
0.12656037997297592
0.1399497352761505
0.14089634829044048
0.09797667185139615
0.12910101989541314
-0.06195282508512075
-0.32288862662537104
-0.6113035607367501
-0.5508453556073116
-0.3087167217026525
-0.33840675702749295
-0.4576962350787681
-0.7267918945496259
-0.45630404275607706
-0.881565363658553
-0.729145606156896
-0.640150130890122
-0.5893228887824267
-0.20166066813607753
0.11626819434828657
-0.04510531140921535
0.007601342394302801
-0.019958494705313273
-0.00785906181039354
0.0023771817662412067
-0.10371475440618695
-0.1538220441199146
-0.3475996718457594
0.04818148973842341
-0.14789640527010148
-0.35188350261406504
0.23428677114203506
0.7131226863990243
-0.07384539539189695
-0.2561342539102861
-0.1297102473051753
-0.02442776792481289
0.0234027101650069
-0.018048787614119953
-0.057125562545146606
-0.06295232970033368
-0.0011917129905677185
-0.006925282847223529
0.02249849057678718
0.10184169941988508
-0.03130866214130949
-0.03648218956385788
-0.057376194386606336
0.0492864171269831
0.18574835227835435
0.40076937656444106
0.5595725190260238
0.8705211958657353
0.32078193100211966
0.10894683337915675
0.04740426847727331
0.02446919340193897
0.10193922141499236
0.0707172721970068
-0.0247939397640431
-0.04947983734381936
0.02363818668228536
0.06756236485727277
0.1630962964396964
0.27246087675737024
0.08194610915224809
0.24307945014963994
0.12178315476086272
0.09591624765640618
-0.02614555623373384
0.16672101296335534
0.25104884651548093
0.3243329364330108
0.08842811938556998
0.10326662622880953
0.23027257891208658
0.14826637973738527
0.20531365598588908
0.11745741591416378
0.034659694202167544
0.00221377799151356
0.0037376451299865597
0.12361149749401912
0.2428329948725015
0.42546048773128003
0.2610800682910711
0.37450277949432215
0.08174233375196059
0.013343779656015312
-0.20639363826434784
0.42343976658526555
0.14014493083692758
0.0818837072347321
-0.18224373578243866
0.1258663890642464
0.3760773556691606
0.36420931021113523
0.27708765070257674
0.2150320516716468
0.14022556822578303
0.06584376614437117
0.007450716409654241
0.06515025474685567
0.12711765217998813
0.4414815391594923
0.37176082078462236
0.4466429703223431
-0.12227571878850274
0.01832931341201468
-0.2697737626043488
-0.2217578218412522
0.18354237074866703
0.30671205966668647
-0.21893660766256207
-0.0017309402412160535
0.23022179347454658
0.37427435641237744
0.3039668929722573
0.1078809115306554
0.04002096568892568
-0.00759863446576974
0.022242131645653238
0.07202675415983086
0.005837389703836344
0.3305050387080796
0.37973821419486053
0.3615685881442127
-0.10847003402258341
-0.5492857617097392
-0.651191006350323
-0.4497985086744826
0.20269251930983032
0.14890630430095825
0.3244951967721048
-0.5839656862050261
0.28396797724221207
0.2289183125538561
0.05906584926764289
0.06093330157671823
0.01695192333721644
-0.004405539535615937
-0.00685400884566352
0.04634531508337295
-0.06486926167321157
0.22655895016888983
0.2057327086096956
0.07614167101565321
0.10609861900291517
0.12791821423026115
-0.8492276763388416
0.08758628876903922
-0.7261148364868346
-0.4778389205119234
-0.40916602393472745
0.0626793669105436
-0.2618162390041675
0.2713890587936493
-0.053468069220138685
0.026162461481687677
-0.009543624123693445
-0.015257476258218832
-0.02487070532571617
0.016280297169313607
-0.032835325011346984
0.02023283862330368
0.10895801820011587
-0.07018862498721318
0.13646247417983015
-0.011251343909565479
-0.2904186240026226
0.17554532672367498
-0.16591416987481872
-0.180873171773674
0.23238736334270246
-0.0979285192649564
-0.44610842942759577
0.00925129531201966
-0.11525737662230562
-0.0004116958568508571
-0.031248190724399515
-0.021141932898120677
-0.007681893581824564
0.019700759967733385
-0.06353458988679801
-0.1732683868242723
0.024471452373524195
-0.09683467015690916
-0.27582585746999877
-0.4022361276513478
-0.47589183392709655
0.13809878428826408
0.09738728369133365
0.3164889327135061
0.38151898142111434
-0.3152120789748639
-0.30388664638115426
-0.008084071036971277
-0.15149779438298874
0.0015384284496891502
-0.03456228376748519
-0.03413056556926848
0.0014521052655987305
0.015829752233958425
-0.029629347902341025
-0.14725453556855753
-0.131393066346443
-0.45136809251685844
-0.6582920687131085
0.24849685000259283
-0.12728651954407713
-0.2918057994154536
0.24297645554975947
0.9575045450618617
-0.09228665899009264
-0.506240359892938
-0.2712641378214071
-0.17820577008625815
-0.13098666738790146
3.079100174463199e-05
-0.03070720843915385
-0.05645636021090829
-0.036723321169107995
0.02036386648890296
-0.032866231220126864
-0.025958324340847362
-0.14808163923957882
-0.17396372420913958
-0.39405996667743753
0.41963773718072894
0.34515664523570716
0.240662782866536
0.19423924289485536
0.555070463474781
0.39784721245433413
-0.3255743155236881
-0.39778247268176203
0.060982066026056735
-0.12314177658161737
-0.040157522361724714
-0.05208841573150092
-0.06272082878599085
-0.035432445934679355
0.014530067690862705
-0.03921560292623066
-0.07614950611102385
-0.03876001182565973
-0.1581025357989007
0.07239842265250586
0.7801399490239621
0.5605961026219167
0.38729180044864076
0.07866659084476686
0.1472046341418698
0.1449378647271154
-0.2610429465980595
-0.13713493949344968
-0.10114711157600367
-0.11620067570696471
-0.04716239264072975
-0.04897626861522766
-0.07126657727831583
-0.0400978422404218
0.009662515079718933
-0.07442472704849996
0.03814802365157967
-0.0560274558273261
-0.31674668625924957
0.1387961078019384
0.2800901228103146
0.48802650465324143
0.5778480367112876
0.18433377993156536
0.6035786277422684
0.22246761149363245
-0.5361853908157651
-0.1242881239363482
-0.23914861480642804
-0.1399104592998596
-0.0264673656444533
-0.036362801813051286
-0.07204632320823999
-0.029430830156441216
-0.004841971950332886
-0.09111000558659398
-0.015335142255649253
-0.1805667385637069
-0.10167124857049119
0.39778503431367296
-0.033648877478388316
0.1831519360441065
-0.28768713359425235
-0.26775147886214
-0.1440083630590461
-0.3947525408357081
0.2773689955797816
-0.3304803925428956
-0.26224126242810913
-0.024182294563716428
-0.03311619512345792
-0.045737725514711204
-0.07398724543443674
-0.03996399107700534
-0.009334308442311668
-0.11208505213226029
0.09837714782640371
0.09412411429730547
0.9163016096910004
0.5872460466683622
0.21137295430845374
-0.11717577866983866
-0.7710621009625261
-1.2562963885186864
-0.7077106710008495
-0.18557935061716008
0.315077205144166
0.28854645782113797
-0.006002687245600635
0.03554928840390744
-0.0905599161767456
-0.04659197368625497
-0.0763668073346713
-0.03270803681849582
-0.01686721503408478
-0.15680271006023125
0.03976021461907274
-0.10473682539500419
1.2332245681252276
0.9664248744420213
0.3049391028482453
-0.7079796088679542
-0.9088861886892043
-1.376010524584603
-1.0614133537270778
-0.5025887115196701
0.7171358506604798
0.8792092484111098
0.6233811768250799
0.08529057366886295
-0.08349342516891946
-0.05289904540341472
-0.08689216182256185
-0.016612582067854084
0.014607451604241335
0.06019816357608725
0.0010616066742094397
0.1481632530346303
0.04798877339017044
0.08800624671122266
0.049359943512263305
0.0924490595095501
-0.49574490899203055
-1.0580597868950075
-0.9324378425929658
0.013113638664516909
0.11603663280398997
0.1755334675493594
0.13213375631591698
0.1075654942633957
0.08463192293086559
-0.032018830939247116
-0.06335164605233445
-0.033896756234117156
0.0018704535454109948
-0.002319381341414016
-0.062078574183576964
-0.06076097500146255
-0.15684746455432083
-0.22276466329514072
-0.24933825960471198
-0.0540458136549244
0.17316166890197549
0.4395438778925365
0.272537750262534
-0.09655610879750104
-0.022976257493702343
-0.025506521006834648
0.03883767043118325
0.04016007735996243
0.05637641528825193
-0.03150403947834785
-0.06656621827023698
-0.027144367820491615
0.020189488444621116
0.0332243228653148
-0.017576545708626053
-0.050282901903025326
-0.2798874961203791
-0.6357415077128346
-0.5731036106131498
-0.48757272580230054
-0.22937696764197593
0.0707888988867382
0.018527236964760357
-0.24252683764885774
0.0011767494437665053
0.03483954538893278
0.05195281669213511
0.06402233752273015
0.09383998349791382
-0.013497172451815885
-0.05025143821327599
-0.03352228302020191
-0.013345455699643995
-0.029205691100822502
-0.005702377815308514
-0.07689680578270804
-0.2995645683313872
-0.7036905565725184
-0.7971511276384021
-0.7064121592524862
-0.30908544982503267
-0.1938515150552222
-0.2954053650452087
-0.2802434310922431
0.2061394018991356
0.11394256405589494
0.0592878953863947
0.030397843383566207
0.024800328282546042
-0.031980734195005765
-0.06427241100031439
0.21735854426072715
0.006827820629803928
0.17041478951176267
-0.017284585589681965
-0.1436102272386588
-0.2681327124171337
-0.33267738519760215
-0.17891198259000193
-0.01067249086869269
0.42794234290907274
0.503440251128174
0.9139233561424733
0.87971133485891
-0.05958308348516167
-0.1361269071687778
-0.15686896221409516
-0.10925827051569632
0.0040582021052313
0.14185055228500354
0.17323805179247484
0.21865644965760206
0.1735118591016871
0.12556869921063082
0.06114014164899215
-0.6341044783515826
-0.7071625413365703
-0.648887912428526
-0.3273108565216118
-0.2141975782220047
0.19363392066506158
1.044533959791501
0.9643771492651148
1.1859513402932678
0.8056615855441657
0.8269533166615715
0.2616784028211236
0.05596624408632238
0.19249111840937885
0.22418253668589727
0.1588562720335108
0.21801104276693622
0.1278424300207089
0.03605571118747433
-0.09984047863697235
-0.06585360209613804
-0.3650732172478874
-0.45477045799163285
-0.07527029007254701
-0.08800921373059234
0.21229672676181024
0.5869784448413818
0.8054486886877614
0.4173158542342056
0.39506886589584816
0.35587165643387214
0.38131628484637997
-0.12362151003795628
0.13720654496728893
0.14894604304370762
0.17700024179757054
0.17868574154101652
0.16834136019505352
-0.005974753437391136
-0.17362964474581957
-0.33602266029779343
-0.09349925110262947
-0.1277556516735958
-0.24036017620284425
0.01429933867164036
0.15507637960699736
0.23326772457882378
0.5641917970818168
0.3357040331205201
-0.2739734381846391
-0.2008030483884367
0.30297563202496053
0.252808393758055
-0.19390447279423081
0.00646179314634817
0.025605268228270348
0.05948656549572849
0.16823025675596187
0.18334404222615788
0.013890985333599287
-0.14306364383825387
0.16599758481431848
-0.2572124801404655
-0.3555504584739464
-0.296253295792677
0.24502425082950158
-0.14068000355568688
0.16336689898144852
-0.006944504727656909
-0.7267242138228263
-0.3127585968167999
-0.03635010515627827
0.27150912571440694
-0.18780249800425514
-0.17139571479787657
0.13705345148363604
0.24857176753588078
0.17709983070285937
0.11109663104196228
-0.10318518398944639
-0.004582714028825978
0.469022932232012
0.24672788148761574
0.08235727937386295
0.09903267301666949
0.29699262573736057
-0.13021097096910203
0.09215219922864065
-0.2811573589805779
0.16408777292487012
0.14985364768995235
-0.2123608579478192
0.009386844449609499
-0.10707190407379708
-0.2562769789134247
-0.013346992993805776
0.22065446775761757
0.14263493230967558
0.14056790237364675
0.03064299111664277
0.2282253887140938
0.2772048287063603
0.020310154888742882
0.5006264340021833
0.8436468069639771
0.33609466172323377
0.5144517225480072
-0.12806636191390983
-0.9892381501725097
0.6235010138663033
-0.11661165573021298
-0.2541677618206472
-0.07098072097648891
-0.26577591109702925
-0.17099193676529117
-0.007251204189351215
0.2093197056269043
0.15892652552901274
0.14733358040387923
0.07385669323669031
0.10769974689798184
-0.0196752032565196
-0.0617319194334608
0.8466265082143277
0.8656598127563502
0.9083246918375407
0.6639873020546366
0.06331624159549169
-0.5221857960002099
0.07261249809594815
0.02309609629116746
0.5285507590005529
0.009455750112712746
-0.2290133270570797
-0.15066118729256697
-0.09138508992486552
0.18028279680866258
0.1585895063263426
0.16824825301824253
0.056409763926557374
-0.014806369789956897
0.04967191833319644
-0.19390682136742257
0.39924366984697934
0.6433894584881179
0.6757082786804096
0.35015436808221184
-0.291742294149881
-0.010465086652582088
-0.13324497615696684
0.13264682517087323
0.32994279390289105
-0.08449862742112893
-0.07046646237769699
-0.13221683206928458
-0.07326148184456402
0.15685824275283397
0.16389013865793578
0.1768684134204041
0.10968622651434584
0.008857594028893205
0.10644496392470029
0.25832188324323957
