0.32724636149583364
-0.0065248669598920745
-0.7941298597067177
-0.8694014134136275
-0.7422583619100795
-0.21284113523119536
0.12959425698365687
-0.6534408125449035
0.5921385912269231
0.9577149371417865
-1.8457284578553075
-1.9000951751030069
1.077566611663691
0.4145412894691083
-1.4215813679977363
-1.2936686285605883
-1.2674584092396513
0.862500632342851
-0.055561424657518954
-0.9721874339751926
-0.6621886462800713
0.4032537219758365
-0.1873062226863714
-1.2499155675009341
0.23419397750126464
0.042215434162564874
-0.5980456816641879
-1.7873406445288458
0.43318785209376587
-0.24676994679423148
-1.1702458007800456
0.5303624791344625
-1.0239187508290484
-0.618417911216329
-0.6603832088488403
0.23670930493396147
-2.0949007317357524
-0.9356846342725597
0.3707555519952314
-0.0489913082449495
-1.9604006465702086
0.3664212294409236
0.851286206971332
-1.9002060304686272
-0.24489135596360734
0.3429782991366975
-0.5528855335671999
-1.1569515523602882
-0.879205388682363
0.6487776146559604
-0.24811377105013552
-0.6762544315027877
-0.29950941610324006
0.3219294065197916
-1.0151839766657589
0.20136169343770094
0.8067168949110312
0.9925763414033767
0.8727588294711647
-0.07558053161277455
0.8106252758661228
0.12301302934891369
0.002173642156169957
-0.3894964683898458
1.618433657588527
-1.5943296692937543
-0.33668636642103017
0.32576940388356707
-1.0700089989437875
0.5101734679202556
-0.27604657917698505
1.080411847114607
-1.6944434294704678
-0.804628185948742
0.6672157624442756
-1.6815277097518302
-1.747636950195449
-0.8244850387291809
0.7642598534644163
1.433581248830003
-1.3132749838468356
-0.8185175665303722
0.1813994794591283
-1.2050899412027454
-1.6873909828763851
-0.7559637079753401
-1.1614245845285267
-1.6292002971495887
0.6743522955698688
-0.06907644609626136
-0.6499540824877872
-2.2538607939707846
-0.028006984705593783
-2.396358969974805
0.04191879739519128
-0.8390240656379463
1.8866452678150356
0.9318678519022563
0.8018604746755311
-0.006011299638584958
-0.5610673936482865
0.13302087658542536
-0.6061632322635149
1.3240883259547331
-0.8708927309225176
1.1873063021855654
-2.9284107709745038
-0.4432531288144996
0.13701640505101748
0.41723393608243914
-0.29709878631937653
-1.1293264898903375
-0.8306081804076201
-1.6802052900435906
0.6395685505081654
-0.7222366377728848
-0.8993876968377501
0.6349821171485959
0.4627598655080562
1.4468156401635055
0.49644727625326324
-2.3292245568254453
0.3177960842177756
-0.008584349266680067
-0.635324180616118
-0.6534413681672548
0.05417807553951973
-0.5219394625856919
-1.0022095518126157
-0.3226428755897267
-0.56519622085373
0.9761146978350168
0.8234465880138968
0.5239389321838371
-0.9310419348127704
-0.06458410693484042
0.7389999337813022
-1.541716799443863
-0.2656319787561903
-1.940003510452905
-2.785824756385991
-0.7073492037905919
-0.682060934446149
0.37152709776126236
-0.8402272802048204
1.1488402860193032
-0.4061422886537469
-0.24708722880588485
1.0499707306887673
0.8558987791786844
0.8076407695204076
-0.5126339717206648
0.9479263232924793
0.000965195813922739
1.6447286949074826
-1.6072547906891852
-0.6893947990881225
-2.1340450751795395
-1.1643747984358508
-1.1041400956049099
-1.304222119987343
-0.6855659109497808
0.30871866991544833
0.3954918247016479
-1.7627336646111464
-0.03813362658325678
0.6485365511547414
-0.02746222487226929
-0.41965132971778335
0.27998067366027773
-2.3798920185855628
0.588690442861527
-0.6966298252756361
-0.6827104444324834
0.2726446435887732
-1.614535219928393
-1.0950817858655992
-0.5277518170411747
1.0270182187667147
-2.086106959249949
0.058174607393366315
-1.1181304956595817
0.2686397677585005
1.079644382222088
0.007238224509385284
-0.23052411839991707
0.7231997274920283
-1.6632408537033685
-0.17164564325933693
0.8366343093179363
-0.51314884671039
-0.9390204420651648
-2.105985078067129
0.46086980657428606
0.32470418938268536
-0.4719953467935502
0.6486244075162622
1.0463405735428244
0.4234378768380313
-0.9909187717267165
-1.9108507963271926
-2.3477783185209105
-0.5005090375335958
-0.5887758324755952
0.30541081327619823
-0.8480053855426158
-0.29858513328188285
-0.29945868255689256
-1.0183744971051305
-2.9422566329299222
-0.07826088613237567
-1.716706462030128
-0.4997670688611444
0.4168251019388569
-0.601020684691066
0.750633884980306
-1.2515237416935354
-0.5975558485263208
0.6460449993604366
0.7401829421093139
0.08792786117724652
-2.239478102655986
0.1466412949178659
-0.376179641942019
0.24596469302318044
0.8440949654796007
-1.6105133873936301
1.051205588069232
-1.3637305112695106
-0.5113922663218405
0.06187580331173283
-0.47042100792570885
1.643022776504415
-0.42710019663922666
-0.5913650571596563
-1.8043861000382233
0.553924880231014
-0.6817393391553083
0.36692128047582817
-0.5426200574079099
-0.7439371424387808
0.9604327318531812
0.18845429493740615
-0.12316172177252002
0.2596102394653365
-0.004543560765114394
0.11846424975555635
-1.1111362300906187
2.0959151067005344
-0.5297732309251182
-1.2912967777103947
-0.6477060296463651
-0.3573978796610967
1.4112938801816275
1.1908147143508228
0.34222425609973045
-0.7227856540123265
0.2994689989708414
-1.171990791133784
-2.382416489145697
-0.4773925204677313
1.5451516519201136
1.1581681310321048
-0.23237749855086065
-0.5601202761997056
0.33143020265100404
-0.915033950971247
-0.668827675739071
-3.4238674926799577
-2.2173514091418096
-1.3153245084533374
1.103635880953567
1.1256003744247638
-0.9265784281496919
0.41678516758033185
-1.4115089459208505
0.19820196998390244
-2.750399713256141
-0.5505584957960951
-0.18003765541462835
-0.1069326483194897
-1.0853422296789326
0.8529862515378062
-2.0666820122692027
0.35182812569458244
-1.2737963612174037
-0.2989191827878506
-1.314208890504542
-1.0132951351022066
0.6662206854485508
-0.07516937622792466
0.7295860382893409
-1.4034907631821367
0.6284640770718486
-0.7568245885507747
-0.5572343737565386
-1.4174517374685829
-2.2595425781619167
-1.404825301830264
-2.519338492606867
0.6692661915058802
1.3709133873890391
-0.508832121960224
-0.9770369646611154
-3.3898432858256085
-0.5351870302614519
0.003508996758474863
0.21534864126894512
-1.9908263560277975
0.3716069611333821
-0.2520670968522168
-0.804557429585104
-0.832105068541125
-0.35110316697766225
-0.18363561253654045
-1.6540323069280736
-1.3555109139152228
-1.166767502829793
0.6784378449152602
-0.8875328929747583
-0.4620679471056352
-0.20030331621597852
0.33257700117301897
0.8557168022012782
-0.48662634888448963
-0.7250342379055001
0.681146731393297
1.1985076008451947
-1.4927538049903197
2.2609007879774117
-1.8007996236694779
-1.5636493160153968
0.3754272940533538
0.46030803745691834
-0.5078171203218006
-2.7766771599231745
-2.104819450006611
-0.4321601206931495
1.0170508866701562
-0.7243062194442068
-0.5956880099443805
-2.5619406886690372
-1.5829529197294723
-1.7411550240259421
-0.691170326543138
0.002246884304060989
0.2183410170536109
-1.150253371185517
-0.3055829439920946
1.8091061358824572
1.950550481745832
-0.7951480552301431
-0.21022729096685447
-1.4954901002015817
0.49246095801024375
-1.1719578846039342
-0.7082194138474399
-1.3084600231073857
-1.423530063700375
0.1189965250803772
-1.346912553294662
-0.4259100809607049
0.8386682769660241
-1.58717030187867
-2.593921993063464
2.755020636854277
0.08927914329766647
-0.0010889896749650269
-0.19411480789365684
-1.4777675257112168
0.37683541271802307
-0.6359441061420223
-0.8979424875830343
-0.8659535246253203
-0.46993972796025024
0.7713602514067661
0.9389956549819923
0.4379941908301759
-0.7631958971311916
1.048722569353427
0.7706416109039779
-1.421218867981002
-0.2589072920372292
-2.853239293270065
-2.7856615267502973
-0.687829260775332
-0.67684733244228
0.3969912812461131
0.34469856049096353
-2.4105255992889614
-0.3633695706134432
0.17541750601165312
-0.03912698616683415
-1.5076178382512087
0.47707509892333727
-0.5068687262265472
-1.9723492004684084
-1.2983449860988292
-2.0060768634376682
0.5506561269141831
-0.6870775290672045
0.06292768265372262
-1.7553474926734574
-0.14786316856334894
1.2385931801222616
-0.9379910965333053
0.07264703950672047
-0.09395383485757014
1.3346891603063409
-1.2288016371845634
-1.1138074935129207
1.13627308222318
-0.2653144071579779
0.4095351597087829
1.021162776404935
-0.8723940090685179
-0.9160119360094273
-0.6559873935258497
0.37142411176973217
0.23220351265377395
-0.3829800669052374
-0.34093072162569643
1.2701807918954175
-1.60607379060806
0.6837282360727833
-0.40283910135450685
-0.34813285945264405
-3.1984468663544408
0.008560806203801256
0.5788588879555215
-1.476766850934671
-1.8670867164110172
-0.09725826591974393
-1.2039788902590545
-0.5171345194520431
-0.4848673100859651
0.8167366068388492
-0.8899861516786328
-2.3431073002166984
1.1224760832267506
0.05618507970232039
-1.4356009738009192
0.1816350572002401
-1.5149392928120544
-1.5027379312162568
1.1280507177421968
-0.29844494998102467
-0.5333557370281062
1.591815692203599
0.819529544749107
-1.8948407897434782
0.051909164552438526
-1.7101692840904552
-1.3064533054880172
-0.6589553461259258
-1.158358997890901
-0.3379765347598477
-1.1866973425848275
-1.434693530068182
-0.10829088409713052
-0.9492270816030345
-0.5303934289510142
-0.102156750823922
0.4064564425319072
-0.3617132684153269
1.4150391125096724
-1.21143202690949
1.7742811644902625
0.6259291771109791
0.34421965747339167
-0.8297775864333825
-0.6077669252320227
0.29058028699643373
-0.604055951237445
1.0447715894628016
0.5698007476215234
0.451488060851082
-1.0086966249060696
-0.5140337541953643
-0.28739165316796716
0.38274295784027357
-2.1351474601641702
-0.7179523065516609
-1.6454535388223888
-1.2102261448876264
0.012456411931018284
0.20899889187716292
0.31890558035093375
0.6085883292864839
-0.0024063749207345
-0.2841096365039057
-0.8275720871051685
-0.17164716666351862
-0.4337976371809858
0.7787793438902917
-0.5485580588272551
0.16836303338290493
0.36200976943542373
-1.4656395322511053
0.24804622760998554
-0.9150829552271216
-1.0220874145655292
-0.16171869917799828
-1.5573784515344413
-1.099139556372702
-1.253919723657378
-1.2694646562607526
-0.5809850840093952
-0.5087935180966373
-1.5419590085887829
-0.19236813039137743
-0.7486331899460125
-1.478990468582965
0.34191104077359064
1.5573044907281837
-1.8820994193052467
0.622832078542869
-0.22325133595239874
1.0986797578287448
0.6395553569161477
-3.4630405114585687
-1.6220431493543293
-0.4991220883734003
0.3867660230613908
-0.8205796789865547
-0.2780635299504361
-1.1032654517351728
-0.3139772016482161
-0.7621289029345545
0.36869600332431324
-0.8498311030906922
-3.098273996845812
1.26139331811866
1.691124459485907
-0.7136270408894171
-0.44816765260574043
-0.9473929416312268
-1.7253043450067889
-0.6855366580003102
-0.5000101089636385
-1.0310899331680003
-1.3226360170734306
1.2750953114503805
0.862233612336339
0.14098206647108047
0.6412395588120668
2.4583521418691108
-1.5757232434030053
0.2129166527755486
-0.6598513273482328
-0.0035658953352394555
0.14341608413976478
-1.2396242765124281
-2.0412880740087394
-0.4858589492432393
-0.2989682234189955
-1.0083513797307058
0.8491928605851453
-1.8242869731512632
1.8499935555571931
0.39280328755818517
-1.2863275147059337
-1.1552415983237485
1.5398458363085574
-1.7733918026214612
-1.5711476714868398
1.6508191512921695
-0.7553930779613158
-0.4475482438380992
-0.6268993777997938
0.6412951657583699
0.8680498693989892
0.7426084499640422
0.39573452581652613
0.6522535770793366
-0.3496163040721805
-2.7288815256111247
0.3876887397726251
-0.3761049775303242
-2.098514301672704
0.8245877686123689
-1.6643910782952074
0.6963209760347568
-0.6325887836725186
-0.09186760788565453
-1.0420612516503858
-0.7656504373210878
0.6662248892805143
0.4037087211369273
-2.3845826762141833
-0.8029562411243882
-0.5393049018504923
-0.46507003921471063
0.18660054481487354
-2.21817757955265
-0.19205961585136386
-0.8583546822941636
-1.0706738290947213
-0.31732148828495493
-1.278495812125545
-0.622967238367685
1.0035439420616692
1.1319620153571357
-1.1252203287935194
-0.5194537293303629
-0.35875563065184674
0.37764709684888326
1.3319921359877547
-1.1560359225136543
-0.5844202602720286
-1.135549887956922
0.0024546481273617377
-0.541485643192663
-1.2622713733863093
0.26718357563291495
0.1411886433786033
-0.9234402585486985
-0.5091438375296528
-0.561465249765075
0.844135661982505
-1.5923714596012974
-1.0324204550739027
1.331262038666563
0.04715474599916346
1.9922296827423818
-0.5068824598557929
-1.4553693826521392
1.1827671276292522
0.322077725588222
-0.5378920583292032
-0.5786049949449208
-1.7006591166302176
-0.34213141845455897
0.09997990501107988
0.0719404059132374
-0.3115782856905059
0.9216424124981204
-0.9314479111104592
0.976809756977941
-0.26828333287671324
-0.2453315638499933
-0.515087669092682
0.8798124061549574
-1.2710920667781862
-0.5665562942357409
-1.3907483336515991
0.349017841273643
-0.4430867763999558
0.7371348108669593
-1.5449059699578507
0.05068583234710993
0.05252703511528946
0.8875052459272175
-1.5819731259846832
-1.17052617203946
0.8766385930446479
-0.24563066167119063
-1.2519165427912258
-1.5708855572935843
0.4906705434224613
-0.15863523479434083
-0.5742638336819286
1.043199104842328
-1.1316146398899833
-1.3822145629815812
-0.39847071640617326
0.9251907343552068
-1.727987035405414
-1.3205699072125507
-1.411662764235688
0.35777247560776165
1.2182191978925803
0.002699541314307264
0.02420679468349329
-0.9921238508095813
0.8928848611707662
-1.2025617087807725
0.6581036983779774
-0.17177210431665602
-1.6459862631637616
-2.1502375359611103
0.710708462510638
-0.5059085709243295
0.17029727258191732
0.272380245988919
-1.7750372911893162
-0.718081700708908
-0.8366231194480688
-0.15583151058129532
-0.29060233846242833
-0.5362939138627172
-0.6489926064076115
-0.49557617178705726
0.07408863339546078
0.46269515924778565
-1.1488338237956184
-1.4909980915179846
1.650165785072356
0.05036730743443741
-1.519149992183068
-0.48133250706620107
0.31112478971789814
-0.9410265913858944
-0.37736473477759347
-1.3752278614713909
-0.6408731695994989
0.1433655062298204
-0.34465360340442547
-0.19913078883004812
0.1692732183577748
1.036779761114036
1.0889244413024382
-0.2531942791011739
-1.350763058541756
-1.7254514950921658
-0.0012093977264559905
0.6344832659507016
-0.08067185752359994
-1.5252406986673512
-1.4653863487398804
0.7587598251022978
-1.0242356639286063
-0.6433343239786451
-1.5619057256204847
-1.0491187131361108
-1.4092407763107146
1.4127864138528101
-0.8342404572567956
0.5399327101664465
1.5477451870616932
-1.3170189217829202
1.0624532511236462
-1.3194598306413943
-0.003610425321181614
-0.02402928536128613
0.35873055200136084
-0.22984401727793322
-0.4929649895651239
-0.1836061073382234
-0.19951556042442412
1.6266740732860039
-1.1977377981172737
0.12439753554145273
-1.8394595899949142
0.40476748924392525
-0.1143281188755756
-0.21386570707134164
0.706243124366396
0.36755036413842584
-3.5980869059160847
0.6080094085615608
-0.6345393056857188
-0.36591468045590714
1.120975732094308
0.764968481332142
-0.5889227340810933
-0.0613813694050518
-1.1632958763102257
0.3840005489341837
1.0818223250882237
-0.7603044318371291
-0.3233101909033677
-0.16642389092825854
-1.1686841428998862
0.04530561275746004
0.3924616878733414
-0.38782502974645316
-0.3593797774933667
0.28591383161963885
0.4972086159064041
0.34524479524097756
-0.07748824032179294
-2.2747488944805676
-0.3549795616081049
1.3421112282311114
0.24314712095054342
0.6859852249215304
-2.430574295799695
-0.7624433787811447
-2.3661584249543295
-1.2323134152536745
-1.601148532271133
-0.4493469113703729
-0.393597911766563
-0.6510144946893612
-0.5431572028854706
1.7841011078683526
-0.2972657633734047
-1.6394018772650303
-2.739563348184394
-0.3171982046629712
0.6458360077396766
0.04275647827592359
-0.9000782102516078
0.0030535304837608843
0.047912647496342255
-1.1926990729246403
0.3291687328825611
-0.1544961337872797
0.9856224055163211
-0.5905351881382213
-1.3702090391688981
0.375323983791208
-0.8947218497641993
1.469952493981903
0.6239379994992662
0.2303107844833838
-1.2869023308840903
-1.0128645058647956
0.122066538250521
-2.6248787269569656
0.09966685945518507
-0.7856151180220108
-0.4934121945454046
-1.0721342202637858
-0.2921003696554257
-1.5330242164571581
-0.31381842846269165
-1.284373122709824
0.4235498966986558
-1.0203442414868418
-1.2226955975015048
-0.3753688644978599
-0.9504324947568099
-1.0230523718591389
0.3862116358604037
0.14369291497824618
-0.4742386500253313
0.3059593012356732
-0.30597294443581613
0.9511150614051244
0.5445971095745055
0.278529936789582
-1.8902228375736558
0.07309826918598261
0.8976798622294221
-1.7754460988646843
-1.1783494904420169
0.93785330300759
0.20607064192080551
1.11869674022549
-0.34904122521716746
0.5856625776339026
-0.4920514640825621
-0.4838686890237409
-1.0402729447451706
-1.208781971451511
1.2809317065733095
-0.11557914289772457
-1.1341120120285968
-1.547190546580068
-0.9572384722156511
0.45232506632917757
0.6673421957574723
0.47115473267048413
-0.0016513217379107888
-0.37845465370587433
-0.29819996880922806
-3.0319621561279604
-0.9141955626339759
-0.32758878803045205
-0.9412447346567826
0.4256770257517751
0.5690131025755227
0.8563214168589246
0.5615604994595875
-1.4982472067065218
1.6654137525334685
0.6609422569140946
-0.4518498963774992
-0.5353701548051333
-1.4356311364029208
-1.8809268071361005
-1.1579170676304071
-1.0103754846248187
-0.06992021965205887
-0.3565528419328947
-0.930146760991096
-0.20087626850544818
1.6485870975735493
0.9717347194591698
-2.052137725377921
1.4105930403952993
-0.8272762860158941
0.5518944060517923
-0.09771138794499605
-0.461142978646956
0.7188141256616938
-1.0077495306290711
-0.956154476004695
0.43911862964363174
0.9680993886422532
-2.263320172647009
-0.8422424877643677
0.3789941028835778
1.1743939756046375
-1.7488564628397423
-0.27760098048526216
1.0042703697469904
-1.3857895232642539
-0.6831581557605391
0.18075401217593604
0.007125501228241233
-2.6734070332732682
-1.0312405139891465
-1.0111647095516652
-0.907919904846142
0.4615856722221151
-0.9873802047869592
-1.1332485694972372
-2.8961968459104557
-0.8770460184425115
-0.04502064272492555
0.4295003962799517
1.8020797628752576
0.3520201688271727
0.00416737993363917
-1.2693268220986904
0.5894659969067892
-2.610705956421085
-0.436255205367391
-1.3063346774591
-0.9969405414273306
0.5189755639568161
-0.5658667736541362
0.2756854230393772
-1.037329541384195
-1.8285378086598063
0.318870403764285
-0.8763300894899277
0.9235426623931463
-1.2000104188920457
-0.647367297867733
0.6707918931182255
-0.726781527606714
-0.8174869659255907
0.533459937738953
0.5105795191386672
-0.5040015047981042
0.900255776211216
-1.3983364804565255
-0.8787985421074286
0.6621570365313578
0.9842252783345296
-0.6248994550714304
1.1438464962777548
-0.04799888796664948
0.9429916559051613
0.20024004444081583
-0.8320927369106799
-1.3316458266964026
0.012341018850261409
-1.2462304265258903
-2.71434010651516
-0.5946915828933497
-0.14676364538901773
0.37087629141537826
-0.6633136952504273
1.1719754387712615
0.7991701324536886
-3.1821424252817097
-0.7203574236315959
-0.3641973634624279
-1.8436158704574916
-0.0005139450690916901
-0.7922310044509596
-0.833862514235877
-1.0907554706607052
0.26127436557389394
-0.4503000373145366
-1.3070781450521618
-1.7172839249778473
0.6561324326992986
-0.5393442303761325
1.08643355942973
1.2080863255834273
0.22844163147903035
0.008878144149810622
0.305107092062642
0.5526335905918737
0.9462402776888363
-0.2899081896838003
1.0727608397271562
-1.1689484626821713
-0.7741743864699477
-0.5270315861243828
0.42981618472362126
0.6604763038605398
-0.6284568190896604
-3.0493367408560257
0.2835036638195807
-0.11902356888887833
-1.2106302634600121
-2.3166671433010797
-1.5909382413622155
-0.6938877121990431
-0.6168997625907566
0.13248450870386602
0.5150231787494205
0.6645936113075126
-0.9931384792529043
0.5224065533559719
0.5111175104596105
-0.35599562555688663
-0.541158930295814
-0.4498488694407752
0.5170582188509769
0.21765589755490952
-2.267252882345878
-0.7826107569419164
-0.6119111312363659
-0.17662912258609303
-0.28937671713715996
1.0270343999150338
0.803550572179612
-0.6238747150129375
0.8774124821658081
-2.7202819871869632
-0.3232589527039061
-0.7110830156889364
0.7508980629308368
-1.607975144500014
0.04990434860967725
0.7907886077423498
-0.0930511105758336
-1.4623499020983963
-1.318974563078761
-0.6089188082943557
0.35870966924271636
0.09923546517450346
-1.086126169957648
0.4591134302364987
-0.14549251739617688
-1.971201301405909
0.03921197964183493
-0.3961894954317564
-1.6354770846846602
0.9794993496510087
0.0005037385735783533
-1.3679033878929001
0.31457244879457447
-0.8357889116430764
-0.2728359731305081
0.810581250399659
-0.8640939835033022
-2.2458348014708056
0.15597189045473633
-1.84170703055795
1.270114479275775
1.6396226013157171
-1.415004414773251
0.912631004904311
0.7899543677949675
-1.2618528872785468
0.5452973582275981
0.8027735740464208
-1.1514088941189726
-0.7106923046910161
1.2895002036799563
0.44375060843790065
-1.0938236505466572
0.5286370389204488
-1.4784688436461342
-0.2450454819528419
-1.477592962229841
0.9539236753027796
-0.4374883247997302
-0.7540991770070248
1.2171961289171191
1.1173928721771886
-0.9873007206650681
-0.7135272400132199
-0.9423235308038737
0.24778508787879916
0.007798225496182652
1.002749605167225
-0.20050211038000443
0.058536286168887015
-1.3998912603118585
0.8689093329927293
-2.3505278779084895
1.5628015943003672
-1.8627764965993396
-0.5852361257001055
-0.8801052131750383
-2.259397060534533
0.20374880854040114
-1.0810660977043882
-0.7163981225909288
-1.3114520287339173
-0.17152921445996563
-1.3721370841768772
0.1434457540819275
-0.9705975707023524
-1.016265975334972
-0.5915627133258616
0.8236838375880499
-0.22144150335109547
-0.433527967425698
-0.004634781435015978
-0.6073294151913309
0.6514499134280558
-0.31047902662684107
-0.3004970011905404
0.7457652073107996
-0.9551202395796006
-0.16918011328100802
0.6895033327008976
1.1496214747556996
1.4038611460687207
-1.2109826955000633
0.4072890715472994
-1.6017904704582957
-1.2114631168375756
-0.6897238758873605
1.2799915755110784
0.8736740687840181
-0.9633710402490602
-0.7782329350918658
0.8348206726481968
-0.6569189847719883
-1.284176775756701
-0.7538914368635107
1.1785334415352675
0.8954518783877802
-1.999915151965829
0.1897028217909147
-0.803647467202874
-1.1268422579888233
0.3391970042712156
-1.621821100842805
0.43621012719818125
-0.7750793709035599
-0.5509511759017875
-1.0805113063157785
0.15348787972516
0.3763595982957012
-0.9614325105730708
0.018834359784819604
0.4389566810926206
-1.5562491344356293
-1.4467509608689306
-2.2947173742522478
0.5796407094165037
-0.16726388906359793
1.022269992061725
-1.0202098673382762
-0.3947361002878393
-1.1980058546407313
-0.7714561315517918
-1.4030235919919312
-0.677595572378341
0.35298331385960147
-0.6949770730898601
-0.6313233259239683
0.9462121710073135
-1.3245562556810382
-1.0823595464490525
-0.11017356988811584
-0.8450801134771803
-0.0006496559514443841
-0.05860231069566982
-1.0468040472848494
-0.3557871921940836
-0.5728603879231511
-0.0012412811328360728
-0.8712627312562051
-1.8845831701146794
-0.7120656565034295
-0.5672182359830876
0.39116188386023315
-0.8624139154869928
-1.7337285831280522
1.9833089565298951
0.14000772653789656
-1.448917440369994
0.24750626866843206
0.9322054942135842
-0.46660680666378973
-0.648903527468092
-0.4217866862843413
0.5661918335044176
0.23791298451169582
0.6709091988057913
-0.05609373079979757
-1.70192340539425
2.0722427352334574
0.6743478408036242
-0.3479672820268356
-0.15572640883634023
-1.8988382352059225
2.092790079987561
-0.9555110644721848
-0.6599247882154363
-0.031956516456785475
-1.414491501490055
-0.05576961255255484
-0.8728696049797942
-0.7721968250192731
-2.033547292344034
-0.24980881769724747
-0.9561328303568051
-0.6053560036890419
1.0088970960544303
-0.08418033102605907
-1.0338323963916523
0.6150960006785804
-1.1549253301714488
-1.9025865599935459
-0.8304486765431339
-0.6465512292737265
0.5643738736780192
-1.024651511127408
1.4331818773085432
-0.1453797502172098
0.07304408071874152
0.11907849690592483
-2.2132437666213787
-0.829437882135526
-1.1542902339186536
-3.263302673809987
0.00943975930218296
0.23192830534060793
-1.7775139348457847
-1.085905298626331
-0.7659336672506046
-0.4923055772712062
-0.5540291903651762
-0.35185617172277955
-2.1637119924234316
1.1791904435896865
-1.1155895721688454
-1.5823950042396375
0.592389606953368
1.272999442659444
-1.258532442668054
-0.19915431998563862
-2.4047165966986173
-1.6753223524062748
-0.36415339794676205
-0.43370592480690784
-0.8145877576431468
0.12996900672301798
0.8574872653828274
-1.5482685291281049
-0.2850508386082031
0.8894138592987514
-0.0699479979819487
-1.4426212510957404
-0.3403916766068673
1.5481220356982681
-1.3572312787618936
-0.5589106811461635
-1.2103262033521969
-0.41725357870964874
-0.12627321079663628
1.0539176180412961
0.6797831580014131
1.1986106929265545
0.4864911505189383
1.1856642057165785
1.0878962989901404
0.9215246195453477
0.3216829871257409
-1.3760275956549328
-0.6004588750905997
-0.13204391120949543
1.3159942213720914
-0.021223305459876517
0.6743941311101389
-0.9835078849466105
-0.4155180967218184
0.5148171800940793
-1.2841375606992267
-1.1490546618969524
-0.5089263039906717
-0.5900799961823665
-2.009823673820683
-0.1648630909332166
-0.4628046971211427
-1.0153089063872036
-1.6918483882494326
0.008908620612881236
0.14349970145552526
-0.849628577528903
-1.2334349165919694
-0.335395790007217
0.8372737375238192
-0.725215507365943
-2.419975260518763
-0.5596526023480544
0.24776809405523567
-2.747961197372511
-1.0200632900862212
-0.08853173380685107
0.070169376814846
-0.9122065935411977
-1.5369095403567294
2.340225542687806
0.05065081360922331
-0.45679222581682083
-0.5406587869558168
0.8873610822862626
0.867725341343999
-0.17368838023646355
-0.15741857836021175
-0.9306380407608347
-0.7426281815341214
0.029291192746010806
-1.600454660748639
-0.2503036273794284
0.3501453839644505
-1.4909545819808778
-0.15597215294474467
-0.8175337259908493
-0.5539782162521073
-0.6414639743463885
0.2531823343128441
0.11402516592020823
0.24476977926895044
-0.2882192817631568
-2.26765535198424
-0.8149076740185537
1.3199838090994782
-0.12427937541451027
-0.05297498181270462
-1.4368603272046165
-0.2475969238183949
-1.4206382373967865
-1.2398430225608696
2.2885312051865787
-1.2207819038756402
-0.5652598177470997
0.12287194983998227
-1.0589887148599897
2.0337539900781962
-0.43810039713713633
0.6784555080086768
1.1924761317840118
-1.1087201241621667
-0.23555652532950286
-0.38942908189987246
-0.005307048282631994
0.005632422405755079
0.4972391647895763
-0.33839711427408353
-0.057852864915981544
-0.23692357184355092
1.4143784332753278
-0.871918204411061
-0.7511654597205473
-1.413206210021694
-1.3455751119449315
-2.0660532794913467
0.22690931584291835
0.06664504472367114
1.3814132270808561
0.4521521535318315
-0.8400222907190608
-2.2759955506150034
1.3328021772617753
-0.271845953004441
-0.31514547383758545
-1.8356866970617065
0.810222319044956
-0.9153738456775077
-0.1824228097212267
1.2608158243375285
-0.4563854483347017
-1.600909527612991
0.5728309381141853
-0.1313188258571795
-1.034599231679742
-0.5353833728728987
-1.4674005249325
-0.9037976697272405
-0.34469465523029297
0.6610438165768654
-0.44903094715951397
-1.0760153268557122
-0.12786199372663748
0.8799544096923041
-0.0010356369272250404
0.8862174351411654
0.446559087777532
0.3959071823366415
1.1206263434009194
0.11067229342702563
-0.3968547946892364
-1.2301014087366111
0.25835868402907836
-1.6374079426282029
-0.7638483900447581
-0.34085647555067855
0.334704025477761
-0.5546692049073165
-1.0424124045476622
-0.005702123715528209
-2.2217317864936037
-1.7347013291424893
-0.29485036977752876
0.5597429027831402
0.0038307471570084095
-1.1143526375392527
0.00537309918192542
-0.1798373049455282
1.2526079259371845
0.19125991096066647
-0.501761372312636
0.7284092694450341
-0.8967062519366471
-1.221077396123669
0.28059131164819523
-1.015308418997367
0.5502734031365574
1.1791175042376933
0.08709270686764822
-1.3467952969685635
0.17346911832090264
1.2065575354217892
1.3962705634335095
-0.1824660666596945
-0.5888534246230563
-0.6710628603734453
-1.5039819988679155
0.34437319341056616
-0.13202496119469428
-0.8397960508519918
0.15420523373118325
-0.06765301948227138
-0.35954713519412046
1.1428414495449306
-0.4883602479850174
-1.4284282519628215
-0.16281771968555406
-1.3014466560455134
-0.2739832355551248
-0.645865600434659
-0.6394123708192369
0.39721106466467415
-1.3088377015047554
0.8206429188476324
0.6579360359309028
-2.0973120687284528
0.4057361860666635
0.16917998797747671
-0.16925250796084837
-1.2215836471678814
0.22111443650016366
-0.38817285866202894
-1.8826843425299762
-1.4326066176308148
0.6238139345210287
-0.7651249799631543
-0.675403457915461
-1.2461922585696763
-1.2285270931833685
-1.3717153839085352
-1.1618405116898256
-1.2320492044617102
1.305651538216514
-1.2251943533969851
-0.8271026510297219
-1.443733652390887
-1.9312026859859857
-0.0005761674131940266
0.2197007311773794
1.0454656029498466
-0.3026639408786019
-0.4500945468333301
0.30334247360516214
-0.8573023860889932
0.686027478486392
0.1741211685484257
-1.2341104913896144
1.7190624644652377
-1.382413604029382
0.7114360505497197
-1.317671595680844
-1.1191530209659146
0.594265624073935
0.3593923800082769
-0.09712565534576673
-0.6498924385023161
-0.7388324250675308
-0.9932049632138372
0.46645594243978555
0.9143705227723895
-1.2703621186024698
-1.9319546895067043
-0.13548156693115165
0.14195572035244883
-1.522359457290075
-0.5511787705685315
0.5775135675996923
-0.039295126555162325
0.604016389832121
-0.22705381578631478
-0.7276157983043225
0.2984078471993368
0.8146824436042993
0.9718527250963309
-0.36708957492396616
0.3195391598509778
-0.8321419689905049
0.06711128320753004
-1.6628350257666566
-0.16557495901833527
-0.008591349493096034
-1.274854428391396
-1.2151780555240388
-0.7599447227465442
-1.3673634412209985
-1.9113944065541453
-1.3401078590840718
-0.7425949970139242
-0.9860065346071043
-0.9627631303541452
0.7383839818619449
-0.700620738181187
0.5255972764205507
0.5327914126149771
-0.5773316304574305
-1.207631090345469
-1.2309242260961835
0.5251211527524319
0.00803352518593964
0.1560718020642202
1.5193275435039606
-0.17300327752902747
-0.2690078126870929
-1.3654515140174772
-1.2583759472762888
0.0857886069613157
-0.5538146827074382
-0.7391632620152451
-0.0029381236806420236
-1.0392471269637713
-1.6036325654510561
1.467644612294325
-0.29453461503441375
0.8312024262455874
0.15575493063414453
0.4823717226093532
-0.6247722462026423
-0.6072770818599893
-1.76153294241049
0.727825885632844
0.7104715103051702
-0.7917585235046197
0.705239583895839
-1.6047709165228383
0.38429153877797806
0.5246872151648566
-0.46794100228086005
-0.9301841766647857
-0.21907115174709793
-1.0058150505696797
-0.7416176072950014
-0.6037289672184709
-0.43736832006504583
-0.9407289923791659
-1.0914769807632687
0.2342289483614296
-1.122663165587912
1.3158236957995446
-0.07164975201951446
-1.026284787953947
0.48880639704050965
1.125877474685896
-1.44390044163354
-0.6496687259680003
-0.3943812128267246
-1.3312440719037415
0.6375809362216438
-1.4685915874217843
-0.5971554211798529
-0.8199463681032907
0.07104794624466648
-1.5885244571434602
-1.2233561378243578
-0.07719461046301616
0.4715843691345806
0.1378850879003314
-0.33338561903261416
-1.1277793982642816
0.15670792774304332
0.007763009361712052
0.19343765194828164
-0.13317898219828433
0.7723362564378561
-0.057912799348010295
-0.41175199796032474
0.9105397056672475
-0.9985981940437586
-1.886094049476863
-1.0824157114548127
-0.5418875389729991
-0.6966064072444595
-1.1194244864877894
-0.511671065443924
-0.9691326623944773
0.8868131425893068
0.028986027214846697
0.11629758886650268
-0.46299307022542735
-0.4815401053612538
-2.4069947517422063
0.14019436073804833
-0.8022830160861929
-1.0224758629132786
0.8027350820646124
0.32057046581210186
-1.6957621446784783
-0.28992186349068505
0.07674575684890048
-1.841746468320513
-0.2342608159786142
-1.0756271526334038
1.125236375505533
-0.49042149670197793
0.37817641610808417
-1.7853758344493322
-1.853613324675701
0.7655989462738464
1.1347576374170278
-2.2400819438396895
-0.8613256331937729
-0.8474606647875749
0.07602163135078076
-1.5548735170569778
0.24004098956887965
1.3743211269828293
-2.07110355194279
0.5252326866173269
0.4009068107204508
0.24644310363141303
-0.48100900623246784
0.7053952784593207
0.7478493461867181
-1.7325602385206489
0.7803266226697998
-2.145323448919308
0.6969658191861923
-1.077451084101915
0.5741699030519586
-1.1825673751831354
0.3268878498098719
0.0024251404785169857
-0.49567220475826335
-0.9915355756322429
0.5204944029740751
-0.5656790833183951
-0.31357383341809
0.13816311730273437
-1.5256971662475254
-2.063165540949301
0.4406776624587939
-1.5905491581502207
0.9762113402389215
1.2360200900732368
-1.736347793650283
-0.5102093599374519
0.2743370251487445
0.6758812062026325
-2.5572268733923424
-0.5684507071141647
-0.6756151253053067
0.031054103079927016
-1.5492987148013058
-1.0041593676082636
-0.7880499575472824
-2.1601128007026684
-1.0992133481929713
1.5842672463314504
-2.4060846687579915
-1.302163921322448
0.805502292714722
-1.2679500793284062
0.7386264531841167
1.0043799005057423
-0.6748937343876801
1.1042547139395142
0.0670917203728628
0.7907574781518814
-1.8903283600849525
-0.0385261628607794
-0.26873454342501635
0.6700046831783911
-0.8122198747284833
-0.2799595001929444
-1.7891754914752416
0.8401994311208231
-0.0997703036899541
1.6816101682504934
-0.019709294381868324
-2.0508314489423944
-0.8654561207983461
-0.6763377535007303
-2.5265204541696336
-0.5507235203101418
-0.6831716555332267
0.702529405961022
1.0152486633607871
0.8758617231351431
-1.4012498675120406
0.8867563605328628
-0.63271995805503
0.13928952942953912
0.0036622268516451895
-0.0363598592531307
-1.033852351079237
-1.4657353813703968
-0.7565103867775695
-0.3266775893255917
1.2294455218736666
0.4759371773137233
-1.8282180052965722
-1.5153229447681786
-1.2392024969925906
0.1587990848641147
-1.7619256549705111
0.8035908911307974
0.37129155880912157
-1.2875676604264408
0.6168728598943837
-3.0048236918843907
-0.7500381710521662
-0.6647076994395561
-1.4361548080753106
-0.7500684341466973
1.953751431637655
-0.9390167825143766
-0.9601856498611585
-0.7517126749060336
0.3854978593902062
-1.27860043885277
-0.48869500855967096
0.9169329282807595
-1.118457223522303
1.3536852688660284
-2.0565112490912942
-0.6464071070174464
-0.8827682899957304
0.9794461798406363
-0.7825049173341228
-1.1061988584740996
0.5591731465155129
0.38701363772416136
-1.1531998968415693
-1.5354728725613482
0.8174807049649065
2.0317160573330773
0.4045384546337715
-0.8146826271199317
-0.9748181436139807
-0.36987114075161803
-1.678745775366674
-0.21466014490857893
-0.6525621885927202
0.3868913820131755
-1.011248147327837
-1.5299496730971391
0.42795549476283334
0.173034018757451
-1.9830122846188263
0.9223617434473985
-0.031743287096660425
1.1985995019993814
-1.3935003972127888
0.00013110096213653395
-0.7155480417785237
1.233809403241147
-1.6575602940186696
-0.37101130543906885
-1.0593668397072145
0.3226451100714436
1.009604674039206
0.8794239909713311
-0.6949000456597721
-1.7604839067169833
-0.2893334243398567
-0.5665323243471323
2.218929618908514
-0.9350534016525864
-0.845492425795884
-0.15528149324522464
-1.6089738862414122
-0.17224957781192668
-0.2903255142052838
0.05265178611536034
-1.2970822659408696
-0.8427077538501435
0.35474433331994626
2.229180441961453
-0.8807136660778444
-0.44282271000891665
-0.43309008189897297
-0.4677065203081899
-0.046380391380100416
0.7916748523793201
0.5283566013052029
-0.2733394227980859
-0.30063488737865623
-1.7956173294852182
0.27597146622349045
-1.0419997654070576
-1.055224878140545
-0.9699143844512459
-0.41041956256496864
0.18635294482187414
0.014609845314843323
1.275578430237667
-0.1148708052988971
-1.980782636768959
0.7350573368643802
0.1640374239580198
-0.019725782986872827
-0.25950176227523536
0.42948157148928223
-0.3006241073031924
0.2892339974540132
0.523294830677937
-1.1904036811731376
-2.093431632559808
0.6977603786828916
-1.817890093468758
-2.1113096971619325
0.7103520442029784
-2.3968967956308713
0.38052842854001734
-0.007421863566592803
-0.5782102789436611
-1.2366852043785062
0.8181307588358273
0.5348464804815977
-0.9906681282361562
1.1106515658466953
0.7565680621455025
-0.03504696075017935
-1.833131764788521
-1.6977278881983677
-1.0221688632475072
-2.0939856990563253
-2.3711058556865683
-1.1730939682119588
-1.4060588718477622
-0.023018317169920297
2.6928619643637437
-0.23584837653456522
-0.37574563783397935
-0.7084898059746036
-0.4121644447742697
-2.8304354375329797
0.483094553851943
-1.997826535922464
-1.2071457720877135
-0.5417791059168996
-0.937175524511243
-0.4301981805691807
1.5954134283871169
-1.9221552792009569
-0.8591955135306238
-0.12974926478512513
-0.38525957618986634
0.23489413569933243
-1.2177294051299072
-1.2385726373405364
-1.233787959926984
-0.9543672286714195
2.1893750366526006
-1.418249495626796
0.7040342957729242
0.5050974072821732
1.0458934139653817
-0.840452426282466
-1.7636511590102133
-2.094370745338818
0.5485721605944756
-1.3264443135659207
0.5988868872881878
-0.38894791498999626
0.4832977488418389
0.2011552427257959
-2.419417405152523
-1.1778319247379603
0.6720268285501317
1.4181031888069315
-0.9876119693138886
1.4425650644983474
-1.1053381531504138
0.41225369617324814
-0.00428544789161474
-1.2469787214437067
-0.864236976528023
-0.47170062766652476
-1.2474170117264884
-1.0993239089196754
-1.807089115525664
1.2164741292054582
0.7839044113505105
-1.0332963875355206
0.8873718801633396
-1.4198520204444365
-0.5524329348136469
-1.0634621389809291
-0.6022699396838217
0.366575999631128
1.1794860216343528
-1.9576257804800306
-1.001822605534853
-0.9679204859910805
-2.033135248841409
-1.574757640739836
-1.278352433489201
0.36551770167859665
0.6013654104601306
-0.9162059263441746
-0.7773837290152747
1.9010494994467606
-0.6413605781357768
-1.4055261533606045
1.0115273122272943
1.5254979198816818
0.4566364879440958
-0.9736436744709019
-1.4002374239454953
-1.105599239883727
-1.4884964847572144
-0.858185590533445
-0.838067361091889
-0.34685103006802237
1.1775367926551619
-0.9710463048127317
0.4622622648443524
0.6489509533645735
0.36990975390339403
-1.1141929837750373
0.2026306819044149
-0.3409865196430128
-1.3886996856576876
-0.10877959899659585
-0.9655869714651646
0.513905986740647
0.45160072014001346
0.6476049760398214
-1.7245314158698228
0.9917521681475064
0.332104045412395
-1.8771688762114431
-1.1847810711689843
0.7560804329139241
-0.1723019779913201
0.007031461964314001
-0.692608797339252
-0.4392008651116741
1.0862773184640624
0.07913180701455051
-0.5759598213484245
1.0188528880776713
0.1599968965390325
-0.6179223630048062
1.4577273906317787
-2.216460440845437
-1.273093405312881
-1.9306803518046578
-1.2518499529921328
-0.9569046094772514
-0.21806338017521293
0.029692642073839384
-0.4371593480621972
-0.9675529192337071
-0.6872061149915611
-0.043593859257930676
-1.3683100266206003
1.327495866852131
-1.1491837147498547
0.3566903677385415
0.7133375712978681
1.3840373631248553
-1.5601971585548042
-0.5772631593973796
0.9411948803565059
0.7756334566881629
-1.2760011983894286
-2.1342943332326882
-0.6763112099944147
-0.18203636163130557
-0.594693370777261
-0.8475231123215841
0.5821815886686608
0.22471224514816537
-0.08711900925117037
-1.2484357855487729
-0.49270098303734533
0.5150854608187003
-0.7004197766419399
-2.0104804607665727
1.014487901309099
-0.29617790112174464
-0.17506015414671708
1.0587762766776594
-0.27450709773217563
-0.6845234410919269
-0.036707942742558716
-0.5440261521631314
-1.509545784010012
-0.1999720227600551
0.39561359837985505
0.7531126220467135
0.042317305082830055
-2.2560493659545306
-1.7801667951133704
0.3045173832041567
-0.004033090724226709
-1.1063970455792713
0.6828197061190576
1.7924352203227611
-1.3596448710925708
-0.10941714570856441
-1.0770251296458646
-2.1055209160170745
0.295389169393071
-1.3015040720623015
-2.203087060771161
1.0859842232215293
0.6485031602113912
-1.0768009089678352
1.3782529133143044
0.892144876064235
-0.551958233762231
1.6378010221881816
-0.7818183045410086
-0.7583790148319444
0.8592811878437315
-2.0088806237344348
-1.6021952264739845
-0.38476654094725027
-2.069808298241125
-0.9181601617176766
1.3570199534578558
1.3390929916820207
-1.0887708614253888
-2.037504841782362
-1.7374840411714836
0.10747719396123973
-0.9440856155164221
-0.7753919123401949
-0.757704867175289
-0.3798211182459838
-1.8319046375190842
-0.8242908144832707
-0.03818277932158178
0.2776635603935237
0.13273330730346916
0.11958962824454344
-1.4848947724475856
-1.085804202081061
0.8727238182019147
1.825631355029265
-1.0899713781542457
0.5527346490255018
0.8058964692786056
-0.14961901779357087
-0.7804832191542171
-2.429586672701193
-1.6454174605391683
-1.097646027179832
-1.4824062911282891
-1.5269172073252608
0.02932497711769553
-0.9699409086593596
0.757285022767087
0.11159015089921541
-1.7050797773647215
-0.000862759968316534
-0.5001993645594317
2.981055196757624
-0.7489191003106517
-0.6245470199527964
-0.2676362125023332
-1.739783173947613
-1.6203603680525398
1.7139584193919255
-2.1526811399834025
1.0037892975696878
-2.194166593065483
-2.104509237352172
-2.2479135241536303
-0.5060782290497543
0.19886832981826605
-1.968178684092887
-1.8397827793836945
-0.16369453060989117
-0.15083945898849835
-2.7042491882779998
0.044258680908524306
-0.04429975113705118
0.8840578663425209
-0.5907902387463027
0.870281858924208
0.5057322451924802
-2.855946095849718
-0.15295746555211875
-0.34725814269892996
0.30181519150544184
0.32828583329748007
1.3430808277169777
-0.14631762688000127
-0.983187190759064
-2.3416546010734844
1.2065340534941165
-1.094624807915418
-0.7923867712454811
-1.7389048793247874
-2.3794499757012577
-1.0512381917306743
-1.1685770992259543
-1.2364231534412993
2.3903323674917583
-0.19163635380362298
1.4008307365178483
-0.424126942116506
-1.3008080692626718
-0.12359984456986778
-0.13267483428555907
-0.7126763950690753
0.062019672925564075
1.1014362787594694
0.4450412234089354
-0.7497306691258453
0.7858874818165972
-0.3258427635568352
0.4224755494563957
0.44439189065250245
-0.3675424402771399
-0.0014217842842620242
-0.4657196130442457
-0.17353292465916753
1.2344717765957178
-1.163121338892923
-0.6835391097305521
-0.4509347216912006
-0.7144623762521641
-1.0694466150510966
1.8716065746063724
1.3044641074298382
-0.928782633089884
-1.3074778810069754
1.1549355978787703
0.5010075675880105
1.8165043985251026
-1.2242950100244048
-1.5543539704742593
-0.30122719423714445
-0.3493013606806453
1.187043579430826
0.00310937896694903
0.44589486740148093
-1.1087040589465038
0.8871416020272709
-0.27036844464321236
0.21522036632521496
-1.218932895493752
-0.40419111639105565
-2.070211386527404
-0.6228187212187856
-0.8193950516385943
0.6355654078602075
-0.33902869841436034
-0.2311759335479338
-0.920007828027536
0.24973126127275255
-0.7571277131478933
-0.3793392740398973
-1.0343561088102
-0.6984189904363384
-0.8062483880634577
1.2813895367543429
-1.7790212617174699
-1.464308289352545
-0.16894946206056874
0.7339300090079226
0.1100978584747115
-1.5384066929793536
0.016066679454477876
-0.32867105751154524
-0.16158066441346478
-0.08659583166080989
1.2322018159423227
-1.1585362106456496
0.3292554362856231
-0.2982392110521302
-2.1071973673446833
-1.6657373191243063
-1.220916175356782
0.12516467803144798
0.003036517007482748
-1.0617247649582737
0.12698491114322052
0.6671193326524147
-0.1958173478986473
-0.6636128897870607
0.6969379294594675
-1.2831749056514783
-0.08448418899354017
-0.8271268174844453
1.2690982665290784
0.42297039623134247
-1.311454415671424
-0.7872271316504991
0.6352125650502602
0.5620278295093165
-0.05635737434936864
0.5733862021148318
-0.7416032429801186
-0.5026325234204735
-2.272221138082555
-1.3939735595009464
0.330281839265218
-0.1312664445228512
-2.1439183486090996
-0.6441436763469562
1.2479075263393358
-1.2989135072511282
-0.4330966756317331
-0.5157479959632791
-1.2522983227056708
1.6180252015883934
-0.6140726231039565
-0.4986280275941969
-0.3948367079176577
0.6490506431667294
1.175218528340502
-1.289167044385294
-0.25782648284330417
0.8112583621301988
-1.2731735979230012
-0.9268460792455888
0.5920504267710921
-0.7076818030563018
-0.8433579262117035
-1.186249511293591
-0.7468336964070964
-0.6833915927691097
1.2844259714065822
0.5703526289342132
-0.5172561311251266
-1.3657603672956695
-1.4759363063870878
-1.0199661372983362
0.3676200516513984
-1.1071424371504879
0.00735096733076016
-1.0285593816310372
0.31781109593428897
-0.9180757011988042
2.491832657170264
0.006347181019615839
-0.8223178135995114
-3.034902871594195
-0.04257016411237927
0.1574330223797797
-0.47126548056605366
0.8064843843968074
-2.379710689610683
-0.49206002765092044
-0.4888972930554695
0.6162786990600749
-0.9386260750653661
-0.8072576137949874
1.5785097446814245
1.354436878864131
-2.6404360575289734
-2.8717086247344823
-1.4088307690901998
-0.6897279887042179
-0.5511879571720574
0.25109475006494225
-0.5543862029305503
-0.4520678247298531
1.3155425252774655
-0.0861333255436401
-1.8995988325713213
-0.7423437518446565
1.504730970514833
-0.2271382107157733
-0.30371931910105815
-0.5716195057806477
-0.13853640923632993
-1.1509484360220377
-0.5579618068839092
-0.15755336260754962
-1.1064234721119275
-1.9733278544586361
-1.1404939915036192
-0.6227059090041981
-0.057910226915114285
-1.037732659237011
-1.077172643625057
-0.27504827680177046
-1.556431559589068
0.44434080223845634
-0.5964789742139106
0.5084956610900373
-0.032113077828897156
-1.476510815555474
0.07545156687243615
-0.5532250861714981
-0.19981304121657947
-0.5573692655684719
0.216913990493912
1.558746558430294
0.3104088072177395
0.9300525049767085
1.058284546411503
1.0471417572313566
-1.3773426785883707
-1.9578454673961105
-0.006542483577923379
-0.5984747625361168
-0.20570058462761584
-1.7568670905997283
0.27777901345859174
-0.8031299441091644
0.777122236628616
1.1077125007143842
0.5746776295160871
-0.8998159143500863
0.969652101693087
0.9304544013906493
1.1572591159858598
-1.3500599936894038
-0.7894890875082173
0.5695890311288215
-2.2225551905539973
-1.2512215594805634
-0.5839240996216208
-0.5704362066201013
-1.331080495085047
-1.3294784005201603
-0.5208161629918071
-0.09309129251654029
-0.5025939791824916
-0.6368091867958473
-1.4214119293097267
-0.8298770126404393
-0.41815591956188614
0.08293887490566751
0.5896655880405334
-0.026076167035655403
0.1244867297928428
-0.5716611370551768
0.6088620487298186
0.7328640720983561
0.6407017671352495
-1.6971335158382739
0.09108089990710028
-0.9641911061520297
0.4567546733567476
-0.45076520880324394
-0.02826073699614223
-0.8732210547901971
-0.8475601733161874
-0.7390980099380579
0.7432996389363632
0.45719118610619686
-1.520503100566908
0.2855518618360809
-0.5767671197567396
-0.5716188256239582
0.4375444329716272
0.639335043257767
-0.4861871973600017
-1.0524028594638668
-2.1421421357809614
0.7145349355737408
0.16854467806141507
0.39279407306709696
-0.5083888749320379
0.0081014156349228
-0.5346374802958945
-0.37681112394449723
-2.1401276683457873
-1.1207289253056139
-1.4774612125556994
-0.45813895326196796
0.8500567652817768
-0.6212839484541762
-2.2662779970688147
-1.4442254622092612
0.6510187994860868
0.46305801619733544
-1.1887377508042825
0.5067474861105957
1.6035719009154372
0.024489533051915712
1.4109993223242276
-0.7506074284359155
-0.7854435940504509
1.1675968055731303
-1.4258615741712866
-1.5892607123147215
0.163720794823299
0.7088072081129392
-0.6310346868878672
-3.4149281314916045
0.9568019822150172
-1.0581083795333726
-1.8018138794673806
0.23380340414756254
-1.5537992461992467
-0.7388961900791661
-0.7989974241332132
-1.493477848791221
-0.15095546550451203
-1.261434478941967
0.4727944063060183
-0.973091537127524
0.5597115429347601
-0.019738225193622908
-0.23793386686259332
0.49025206530093723
-1.4478529802780498
1.6317924333194793
1.698370066312318
-1.7439264773601544
0.006099855522572837
0.34648070800424013
0.11489509264314743
-0.8067490539652201
0.3973379931554648
0.3179821331566712
-0.8709720296009211
-2.2547775235893024
-2.5162572373113803
-1.7936453144304287
-0.866379240056363
0.3407703611491855
1.0602333338363275
0.8147292516548968
0.0032030509254760316
6.099358986496297e-05
-1.973033874828589
-1.397189895411025
-0.45881440114574035
-0.9359900789292797
0.6585476244864894
0.8499120865500623
-2.380536209797471
-2.134252813712185
-0.9954275036816896
-0.2670570410636395
0.6308377902821427
-0.7877205936875523
-1.6143297895719466
-1.94661527587454
0.15667738427329203
-2.7427542207072926
-0.6835000351442642
-0.7269058634767327
0.6217167751337233
-0.8339097033239253
-1.8301861863914546
1.1435761959396888
0.4331703190575181
-0.7373497702964136
-2.762550929776032
-0.9430175781893813
-0.5573935285950724
-0.08846438065837542
-2.41864569432843
-1.1145705093489877
1.1018837218624298
-0.7315014544469838
0.43163663367586874
-1.253101452089962
-1.2228996694381271
-1.504485952798778
0.9243254401178997
-0.6953454717089282
-1.2143308666508927
0.09186761375656947
-0.40685743889547693
-1.6598723518336285
1.9488547137495371
0.8608053012618753
1.210184467589157
-0.3422575158464864
-2.506507104881141
0.129497259447007
-0.7238683829813983
0.7832619133633612
0.12532347213258785
-0.829475410350451
0.4044287654892478
0.8631212715230591
-2.4885938558046865
-1.4338558204707645
1.2429489445007693
2.3247365455678586
-0.015280591760959222
0.007408428941340852
-0.2967521649168425
-1.1754350124778454
-2.4247546474048782
-1.1653572792787334
-0.6842453195886643
0.19832031341088302
1.064648440463882
-1.1450121061744951
1.4428449774462295
-1.1361359046844137
-0.5598885143036172
1.6505757195130824
-1.2938901898179267
-1.303370876196306
0.5237654439267887
-0.3071441118432591
-1.6745589111587853
-0.3426054611286133
-0.4098765947527466
0.3691484412204412
-0.8910689295780831
-0.3307970538510141
-1.163317188936654
0.6484114726830195
-2.0150324157555173
-1.6852087640482118
-0.9337807946423037
-1.1436078862864922
0.39550608149469224
-0.8395743794014991
-1.0022899039755386
0.3698924578429048
-0.42160675817690296
-0.05096337975709765
0.26127997509966283
-0.48786460220594274
-0.4043254298685843
-0.18911476188130477
0.6878766146389728
1.2566406141857218
-1.2990856131142796
0.32432065859021125
-1.2835811000554578
0.09007043643577481
0.8876673033727209
-1.3719764968628985
0.13051542642154743
0.20558915194806218
-0.3419702184724403
-0.40657084352330125
-0.7397081277078695
0.5744313999135514
-0.8421664182993318
-0.3144951516018854
-0.11338840005146361
1.3712755591514723
0.663104732304213
-2.2817577921533863
1.0060025334269402
0.09204062988262188
0.00424801376213208
-0.4972583722046998
-0.580744444718108
1.9367190795802531
-0.45646589999324716
-0.6570771245038431
0.3562609555142441
-0.8281153427674821
-0.6249005259890866
-1.879161979985301
-1.9312506007899655
1.72137626624352
-1.964869152189664
-0.23451755711365183
-0.5798057099897059
-1.0963329663073778
0.2764822285649951
-1.9884684233180177
-0.2361119222301125
-0.3621279391286192
0.008910125174747452
-0.8548333502927355
-1.486002887944629
-2.346392261585729
0.6483955141265749
1.7071375028771183
-1.4935446358039963
-0.12410464662458347
-0.453859921383406
0.3687551497918498
0.23184462070282144
-1.6068030857049684
-2.0266776040707395
-0.3724484961595942
-0.8034600785834609
-0.6551747229260737
-1.1153366102635185
0.39960906222291565
-0.1437600243638097
0.7061335629144038
-0.912779823353972
0.16289826276560743
-0.9312338864784515
-0.07619004368364163
1.734579991652309
1.0160086661483496
0.8866036149201231
-0.08459511203958059
-1.0602508712565983
0.13922344428276612
-0.3692032260598401
-0.27162724892590623
-0.3352268152786115
-0.6757085674357101
-0.13308553517353566
0.26519512313266164
-2.6208381913221794
0.3907782685999757
1.1876567038690218
-2.1130872102736884
-1.6073210268199543
0.0054867460666134255
0.13833416697029263
0.19230521990480037
-1.1981026899214422
-1.6382717637515456
-0.8673432930872067
-0.1662054598021506
0.6559069417532231
-1.6874129388174153
-1.0392060530344958
-2.5543906212427507
-0.08268832625141276
0.42934037715789897
-1.0097527872903858
0.7435327656278559
2.014301815229411
0.37818722652108905
1.0166916337056489
-0.5186413789337009
-0.6205532909707532
-1.9340404910548972
-0.7740915585334904
1.2868394105048697
0.4920886917715603
-1.2381089030864492
-1.400200302781955
0.9187357206128526
-0.7511082129803247
-0.6719835694384264
-0.046834959236468084
-1.3149346992704074
-0.15891392131710114
0.6032972918144064
-0.6254177693859241
-0.7316329889288025
-1.0879873365959651
-0.3866560231802909
-1.2396746582831835
-1.176676330592584
1.9591922248646951
1.0407842292314438
-1.616170803141657
0.8946276145585778
0.4410722454027211
0.5074947483762723
-1.6429451277535467
-1.0052866194466634
0.2500524410199873
-2.021492159572228
0.13310522637122904
-0.6132936711623436
-0.4398126783270823
-0.10132212821330784
0.698043468382318
-2.018013340744279
-2.7805798494164686
-0.22750559470626175
-0.5638344636219436
-1.6559541484206506
1.0215561735215422
0.951446894282934
-0.009502164037659293
-1.272941279905268
-0.4843813534867733
-0.8980788039079509
-1.528768272074505
-0.2915427247564529
0.32567473052883483
1.0771958946718643
-2.556076454609708
-1.1460678344577377
-0.5160840795487968
-0.049093422532749884
-1.2158678251320107
0.5668102733357846
-0.060764299500955965
-0.8543228319127184
-0.559251578876147
1.4057453730188558
-0.3372164073550388
-0.23098795012896264
-1.7214323017165178
-0.9849264092868207
-0.40099139012710755
0.9922901445398765
1.2745179345319941
1.1972424685026808
-1.6146954572197185
-1.1152584376801187
-0.7003259588187833
-1.2368290160164583
0.41229395554143505
-0.1019621958913194
0.810283726914779
-0.24743999598794453
-1.368579024383158
0.6226320888384455
1.4211135559168553
-1.0515735765626213
-0.22908175200113662
-0.9697859928160758
-1.4855236430555763
-0.5173364811077551
0.4888747203183388
-1.9489335813127668
0.3724125842480052
-1.1088025702700557
-1.3787711498970205
-0.9649396934462506
-1.2373973603328907
0.49339607255328666
-0.23842617935973856
0.4664192117627143
-1.4287519069312766
0.32216866769636215
0.03544037465092041
0.8353676665075919
0.6888937887824819
-1.7498015692791808
-1.2635842647769502
1.3073370354272207
-1.769542771484143
0.0007415103591718129
-0.4468157841908879
-2.4971283325395888
1.0417938377660354
-0.3273643341232309
-0.5842068012790769
1.6630286730562938
0.020139531896738495
1.1852850969869702
-0.7081339149495732
0.857406122771841
1.0192463512875392
-0.9417074498281346
-2.043770441116808
1.2393342038303405
0.9817454628037614
0.7667367998373711
-1.1273543337593122
-0.5099660513111661
-0.4914155806476072
-0.7355173955518023
-1.1427177843380778
0.483523004171932
-1.0992651872515444
0.564524078880488
-0.38388505336709944
-1.3005790793886545
-1.2946861209432492
-0.22041240866304418
1.0423189363273018
-1.4348791172472888
-0.8892039708189128
-2.039903893698113
-0.46757805336711555
0.2791457932034291
-1.140557383287713
-1.8846142462216533
-0.9917383364254428
0.4465094950463394
-2.337233695765637
1.778858509637798
-0.7769339135799546
-0.7846590400585136
-2.464487439733515
1.5322281403387248
-0.502665759090991
-1.4427887737560052
0.4876373003647436
-1.5325416849166549
0.6400859981898814
-0.47773091165213005
-0.4347471987539933
-1.876431427053083
1.1136031852402317
0.23979030530977322
0.20804619321595602
0.17007172559439349
-1.962898454507915
-0.6730427260307429
0.16379030207219833
0.06118884901358953
-0.0023515524283594137
-0.5025483233700995
-1.6596424757416226
-1.9992213053325991
-0.9969494724290153
-0.38102809264487897
0.22027152955491944
-1.4437152739718264
-1.4209599654727143
2.765346619419872
-0.8900774353207507
-0.6183638365508227
-0.3152374618185584
0.09644371268753202
-0.6631339835261476
-1.5867190556719368
-0.09449153838170056
-0.306140748747548
-0.2670405241151969
-0.3418472401173108
0.9931110607664991
-1.150374164377339
-1.0949264545380757
-0.3375672051015354
-2.7658709509604367
0.28363549889947787
-0.8143069350375576
-2.3391726790074503
-0.17844542089460885
-0.9891817826864162
0.195505394927641
-0.9091056030965984
0.408252462669497
-0.34190224172470685
-1.271571520966589
0.7023787091428964
-0.8174739027606482
0.38627975295118055
-0.6185053177371147
1.1855332659983222
-1.6824325583628406
-0.2588203124845323
-0.6829003288579047
-1.5971996306703973
-2.134767646029432
2.071669649934233
-1.553547956754154
0.26510031396423694
0.9699244009982376
0.5852486845145213
-0.33832512522732017
0.671065851489174
0.1376022806202593
-1.9030207587823322
1.443222070860695
-0.9191796809236435
-2.0094145779078
0.3741598377394887
0.8044809917609218
0.5667389059068024
-1.7640887048611014
-0.0035455161191937142
-1.2694127188512256
-1.0779133267617544
-1.1477226133425944
-0.02476106560774316
-0.7736997775249531
0.007764969652448638
-0.9341084429058526
0.3806262240343697
-1.1205150837627362
-2.304701607410991
0.04983537191748318
0.37561412483253964
-1.017174940226169
0.7439109152376464
-0.643799080043651
0.8666119798648261
0.056547129851026584
-0.48703978318192703
-0.4769023528709314
0.6154319315215533
-1.1861249681244492
-1.984280316226867
0.8224469485960445
-1.5231665611275633
0.8155515795647639
0.47940984776871354
-1.0163821322371678
-0.13946630323655748
-0.2846180727180052
0.8735485759141244
0.832446617339803
-0.09609155143308674
-0.48541130704220076
-1.3782433982858924
-1.033121763342569
-1.144446504908686
-1.382388307127242
-0.7724967339621738
-2.016234982008726
-0.806413690224032
-0.22394119298680595
-0.8765104462809051
-1.5100182532734554
-1.1472022010116478
-0.9384626131132303
-0.9425423384897742
0.15446840711846224
-2.0097863759507173
0.3569132385120506
-0.4736523010779972
0.31557280159420176
0.27919461671344414
1.3217769568480366
0.2599067108392359
-1.130508601123804
0.7883172274381786
-0.8305573404112405
1.5949162220017539
1.5373001603395835
0.5129553009428234
-0.004428958243697801
-0.5663448641328362
0.3969366401677402
-0.2941814510998862
0.034469449559315746
-1.1243898196055675
0.8411217040644199
-0.6181038804889617
-0.6449313622101743
-1.5377658919813735
0.7674697280437511
0.5026086201071891
-1.5314029919961052
1.0821352513017852
0.4186979217694683
0.5346182102735734
-2.9968830909151714
-1.2139579484754368
-0.939744468028322
-0.7897413051684518
-2.2436498039345243
-0.8366073397359517
-0.8748800660781505
-0.08396731904285615
0.5488833009325479
-0.33739583823950686
-1.3255808200990582
-0.46734777519530996
-0.2981074337411441
-0.7605981782740148
-0.6791383207014741
-1.3010315929400542
0.010657712893394651
-0.7876959749216004
-0.25749498306121243
1.0586607876743344
1.1100112305994152
0.6147385526651574
-0.4418096344006646
1.1320105019151898
-1.7330968894920822
0.012383802701661407
0.655318588820857
-0.9378919339081414
0.5289689317516879
0.09694084469214805
0.9819648268927814
-0.11751301581979118
-0.2026318064170956
0.29431887032553694
-0.7733469420477193
-0.07247925234497626
0.09013244818244344
-1.5052964315750101
0.025588613497741254
-1.600131768679242
-1.9145630839497934
-0.02942786491089026
-0.027460946905731955
0.17968460256416358
-2.4627212059020547
0.005131379052576098
-0.7869665775708988
-0.10535137372843895
-1.6447822142777027
-0.47656574630280846
-0.5586702734679619
-0.764642974182913
-1.3352465055115799
0.6795875609452748
-0.6669960296346817
1.1016324014568872
-0.16111491028517122
-1.4159059615001945
-0.7092633373472812
0.8408150201392555
-0.011938609638875787
0.9906798631896866
1.0440808649889421
-0.2724020996443044
-0.5367431653480239
-1.1608627747068005
-0.9124066571808259
-0.04196198430546329
-0.1733182106809852
0.651853943456429
0.0026689894032874066
-1.9448591648993399
-0.7425813193328095
-0.44076013164869793
-0.9742726294993028
0.769590340938343
-1.6092879253953691
-0.6856989844870522
-0.5530515781879805
-0.9852682774355014
0.9931336405555092
0.34685339461408515
1.3109618367444416
-1.099189455383271
-1.0609412012127089
-0.8889529275537713
-1.7047599404734908
0.22394757484034403
-1.1897265838493274
-1.3130685719624546
-0.6811256313169494
-1.688974967030177
0.33015831610914415
1.7945248234322297
0.22472964674346144
-0.5444694096954112
0.048042895730906324
0.501693667467268
0.638489476049914
0.18057221402550497
-1.2130933667957384
-1.6656803601702168
-0.6818765408407749
-0.12333653525740267
0.10409200265625815
-1.9382842892606496
-0.0036424813795739516
-1.0851502198798957
-0.6820227618610928
-1.6728634695399314
-0.21108307947576543
-0.7172503945862749
0.24128973669966083
0.4477186903123726
-0.6050458592999416
1.090250419361116
1.710685259686347
-0.785214949356443
-0.5609054466660042
-0.9766473608992245
-1.0446272774108667
-0.04446255140096594
0.25342549090308547
0.7852063229900765
-0.4622510392012842
-0.42315317980046396
0.2076622093295752
-1.386060622296009
0.9839111645952513
-0.5511373321339987
-1.8289819563793774
-1.9306021415307721
0.21821172429971575
-0.791401501972344
-0.38495396186993897
-0.011675387401436267
0.13028293320333434
0.8631755233042883
0.26770614117557384
-0.44867806443400227
-0.4274133731294203
-1.2870903678105932
0.13249917331299574
-1.157079813323343
-0.8117888204883643
-1.3137551934583402
-0.9959710886301316
-1.1434955704506644
0.48097079401216286
-1.5388021040863535
-0.8757531046139162
-0.5113457380601638
-1.3626935232125639
0.4809262978248849
1.9589477440054563
0.7481617019251394
-0.44237315121088444
-0.4485467862251878
0.34412490157481124
0.9527335170862261
-0.09853915186647218
0.7081843466038675
0.3355544364075763
-0.4014318956752472
-2.371432863524815
-0.8342346972885335
-1.2828657124466398
0.007323334887005732
-0.8404483050657429
0.20779981701166336
0.6919818138167699
-1.6529596358986678
-0.6769079461845396
1.734941766709344
1.494586484254847
0.10774076743738091
-0.9426199068137538
2.2309524734789923
-1.7987690962322302
-0.6071276537129495
-1.2692902440307485
-0.24253957257364822
-0.2073745590722841
0.6175193571026092
0.5633378727211211
-0.6965640270330002
-0.37055417979823624
-0.9817353239449699
-0.8952820749589732
0.768979631769673
-1.1610136060907232
0.4795044966996874
1.2881792439169604
0.36066669061366685
-0.7953120076106238
-1.0376370115016729
0.030754210564762394
-0.12257969035357467
-2.046124931753624
0.42891478306957825
-0.3671778136835871
-0.9296266774607903
-1.1184897473509292
-1.3279462792465828
-0.5306363576140568
0.6009765187646363
-0.015502505645225324
-0.5753631320933124
-0.8977164943741387
0.023626389549753612
0.9262638514152448
-1.5790969646648418
-1.3296322945889356
-1.453941204050909
0.7114427468920153
-2.621936446724677
-0.019924682978644647
-0.3593728361001023
-0.9564529096862094
0.039023253510058094
0.4856174518501101
-1.2576855405465133
-1.9798104166929047
-1.0359823306994551
1.3619960941627673
0.7684764367134335
-1.1706265680199335
-0.23650678306951098
0.004961888794521299
-0.24791826308658205
-0.18207887675432105
-0.22302027379601466
-0.2525816587165925
-0.1769493077743254
-0.24642471362517876
-0.21304172749695377
-0.2077127963432373
-0.15945719326837599
-0.18858956682078548
-0.1834164580596487
-0.2226105738100741
-0.17211344995016173
-0.23937685299002534
-0.19340296529722364
-0.24413725932873956
-0.2633999596569931
-0.3528408202747477
-0.3302192005202105
-0.21096091651235643
-0.23556263188098198
-0.20748093181135452
-0.24485175314611382
-0.18768093656011528
-0.22613286766233354
-0.2201422256503835
-0.18496459927995113
-0.28167735290416523
-0.2099927712074394
-0.19513252392265784
-0.227374234310276
-0.26652753745590235
-0.33698559376935444
-0.21230462890823198
-0.1882975819002024
-0.17079285688859752
-0.17286039373933262
-0.2048484461877323
-0.2260020013407638
-0.21693376437279607
-0.16558181015933035
-0.23599541422512688
-0.21072049251794422
-0.24985174165859633
-0.19293365211305233
-0.16929579934010924
-0.2365745571704275
-0.1933082529169277
-0.25000789684797614
-0.33351660973230235
-0.24996158775561286
-0.2222888777650302
-0.18753003817814456
-0.2305020164428907
-0.21991166473651172
-0.2243726667396264
-0.17499609480002204
-0.23119914854981477
-0.23838064834211306
0.08172262334207461
-0.008868408667851617
0.08116820454134197
0.13045213990231577
0.19659438842287558
0.4510099278335099
0.13440545759149755
-0.15348275369975298
-0.1133111556863061
-0.5905656808058795
-0.4136176634169387
-1.0203133356507705
-0.9581780849922925
0.0761352642964697
0.4907658580201458
0.6004743227448147
0.5143881467374232
0.25768302236134305
0.12253197667216381
0.09147961999202076
0.06784563540279762
0.08552325931520965
0.0991328584053513
0.46009420013698765
0.17969525955377333
0.3932572558307252
-0.21388909905870634
-0.34951482936482364
-0.462276180800512
-1.78764873008293
-2.175340142377076
-1.486224314424476
-1.753115381612299
-0.48557546217769515
0.8427329570186167
1.1691317515556259
1.1613195103211087
1.0667935727305176
0.3667250229015147
0.034832475883862055
0.0385959334602332
0.05094087910792337
0.03699410450015518
0.11939329586438102
0.019959195778263158
-0.014798152664316723
0.15224372886458631
-0.20087148717174816
-0.48554414253741374
-0.5394208146961756
-0.17962031638675952
-0.13745232657686818
-0.5078019626146124
-0.3139240468052403
0.36105026105543275
0.2304271088651244
0.4948780085258552
0.2632820221632696
0.08784047332306284
-0.02030974290649072
0.0038700795780697134
0.050362500830205104
0.09448842111255984
0.26372766236852463
0.07348176080921123
0.1801802018767021
-0.07806251667727097
0.1353408771027127
0.0929054635217575
0.08257084842159962
-0.7566329850240017
0.23147500705098514
-0.06920961571082025
0.13403887634875242
0.10666245606046927
0.11996257683367603
0.16421856615172126
0.16153507806726242
0.30764155237263807
0.2043908173996978
0.15459025184858927
0.057712172425680774
0.03854434723181484
-0.0351129567525093
0.04788124140812245
0.09746837864513806
0.17601703982014
0.17108238087191194
-0.12678206517660906
-0.013306056693747242
-1.4385268174357513
-0.6337615165683913
0.14412120044849713
0.2693503166516091
0.6050632764100209
0.2876438970074357
-0.255933806872434
0.048879779258895376
0.07978230616480418
-0.07828006393978823
-0.05845717562834071
0.0610908247321812
-0.017981145786847025
-0.011987617258772561
0.220627808245735
0.053308685529917806
0.753008581568521
0.49033009933895944
0.7185284218393156
0.6336304337086522
-0.6755389118448474
-1.2790742348057498
-0.10584216804101397
-0.2532900188601678
0.5211841093708169
0.37203703152367334
-0.03196750605914199
-0.0636034904738697
0.0010152419264257586
-0.18809818785785634
-0.07145372068046922
0.04282621165031918
0.0006187525452216085
-0.041406684245273
0.26826378017590446
0.24999792814016247
0.476982597043026
0.30742865913290096
0.21536855304444089
0.66794321152765
-0.35237239220933414
-0.22564374068576754
-0.21693296710517038
-0.1023705391825963
0.29270335650459495
0.35448894111408447
0.07040374142651418
-0.24547386800293744
-0.2358676747247597
-0.13258887972596395
-0.0674491952741545
0.020715831544496213
0.06232755240152963
-0.05900243753334708
0.1800701948619573
-0.04893305145075205
0.1606532252163078
0.23421338974547956
0.03416178746507107
0.6396504707125819
0.7453612396173184
0.4516935104618832
-0.3712315037422812
-0.19758446799482485
0.1636357117817522
0.19526584635540656
0.07803377608183362
-0.22424383627125055
-0.14664701892079815
-0.12541867840672877
-0.04333855320048946
0.02271200187392149
0.08429244524363375
-0.02906804924207203
0.17097750332780612
-0.05274588099581219
-0.051583565939024294
0.2365202565464967
0.5038081432376692
0.6775317778833848
0.5016782103576262
0.2847962319340814
0.46272821809776304
0.3804725012224009
0.4718972551026943
0.025160499184729776
0.03768540128668836
-0.1710265971821064
-0.13780241214055183
0.028547232717654216
0.0138777906564177
0.033484846118166475
0.10791000081756277
0.01878858920158331
0.20155993381327725
-0.12408322577220586
-0.3282083946867136
-0.2832088410938104
-0.4538588134959414
-0.13129079602134786
-0.03654093769219673
0.1486328079658859
-0.134475007137578
0.1864730435240917
0.3321832401776613
-0.21787615612844374
0.10033603686361676
-0.25371683515564236
0.021387464980923847
0.041360322971796995
0.006367120872862609
0.034028103973902685
0.08583532753906443
0.02479746695170677
0.18337795607968296
-0.04906123994057977
-0.21125988753936725
-0.3284139446954577
-0.9051289307261442
-0.7203918581344123
-0.23462053002591787
0.3135854515198321
-0.743790758608027
0.09580162213672984
0.14657741595403007
0.010166864707042542
0.09814493476105758
-0.24240497004003972
-0.040989773259314376
0.02571676745593901
0.04305723913723236
0.0681531993148483
0.05845918515069679
0.0020338426055853272
0.2695488452722633
-0.07326650333836494
-0.24494605444392034
-0.3133794911519484
-1.0531112168046037
-0.15164350667991333
0.4445806364985341
0.5694313255048326
-0.5836401860990807
-0.32405333623818644
0.030684437977886534
0.26879436184224215
-0.14526723710477246
-0.3283464963604004
-0.06124164863729508
-0.03472440055972304
0.01405028946613641
0.07715273697236207
0.050804058751495344
-0.013629274796022236
0.32960059161262784
-0.09321475450528165
-0.31021523213579383
-0.7928397882409718
-0.527609978701493
0.11995212720780649
0.6330179217945026
1.2595897703410588
0.28687257565064134
0.024358966427075034
-0.18226134513115033
0.04071226865620944
-0.13181515493712873
0.0026691286073373837
-0.06043415246890297
-0.021427118272275728
-0.04023577293287019
0.11355274191805377
0.049114571897303026
0.023327360367858627
0.4174388373340918
-0.07189073565592817
-0.24981045827356932
-0.6473981520230757
-0.2993873763116808
0.008890680035686225
0.08871279244166498
0.9776396080808419
-0.02790227375457808
-0.07402450205878913
0.3223236547239295
0.03803173701499369
-0.26575330133618524
0.019669876230067607
-0.04502693088464452
-0.024770803004164708
-0.03982153075787445
0.14420636784279223
0.08509435723119514
0.028759710678624182
0.08159232395756319
-0.038713022693152084
0.16413820690753528
-0.45141080443261783
-0.679193459939297
-0.06175430039169401
0.31655863244683075
0.6794221266453169
0.23705748955191913
0.34559356162853466
0.13623359195701626
0.2031118191407423
-0.17581956525840034
0.10908406265999748
0.04663417989393229
-0.05939771980312035
-0.005064172571325999
0.16011145654589182
0.13783126975710808
0.1578256438063952
0.12837843391426834
-0.02453970327641722
-0.46167514845484064
-0.43267584801104536
-0.9320558679555108
0.07194796593429835
-0.45617938154656984
0.9148114997053358
0.4290077347609858
-0.20664873898559838
0.1672224337923405
0.6064937972734868
0.1561532659674538
0.12303096054859534
-0.026137225605695705
-0.001866404163631414
0.0016729947330892927
0.11090534249667391
0.07669705669771515
-0.05473914305526814
-0.2752058935878723
-0.1979839362567569
-0.3956358561594164
-0.12518472948819367
-0.06948275824864446
0.13578027317168526
-0.46384437904891224
-0.3752470735536179
0.5381937559398009
0.5849713326765965
0.11972000575414055
0.08340384148617955
0.12014111135944133
-0.029976269473667324
-0.18212298636841046
-0.05533965446452889
-0.0219199048155802
0.10214912009349222
-0.025626447260378243
-0.13565740674703522
-0.1390247487090841
-0.22716812661855948
-0.23737141685389504
-0.2301266869942488
-0.2788214633418394
0.07054628258644824
-0.8192274719672074
-0.7572317095219471
0.004964407853016819
0.014825731907846456
-0.07380987556143376
-0.16025191458238916
-0.024513585006672643
-0.15660722706754177
-0.12316736498766291
0.048821767009321185
0.008884819151437472
0.13851072830657613
0.06892587735208289
-0.0053306025949122595
0.01348845004967649
-0.10674791602859972
0.009918927340014958
0.045372330984837735
-0.16776204738017103
0.027086346311505794
-0.05086188298788675
-0.2660330580823917
-0.01538200763580246
0.003797473382957006
-0.07334483023279162
-0.16053810094000479
-0.04818756753790573
0.016453115636071568
0.06021406802513742
0.13880356273208652
0.0972934078318381
0.07112259167746818
0.08943827199360888
0.06389241897417086
0.10445333138284645
0.08285216468139205
0.04912071226820798
0.07011040047371149
0.04207138995639796
-0.044140977422870764
-0.1353493036333097
-0.09989792235517918
0.08367102547952879
0.10398052611794849
-0.13578557069289834
-0.11718038994557642
0.030545471171565884
0.11053908466395107
0.05108827250392585
0.078718768941867
0.07341863243338678
0.0894067174284593
0.008668064941800316
0.09137148497872906
0.031937181826634735
-0.003273071180334667
-0.10407237227961673
-0.03425821501509894
0.061099323070343776
0.142579792397454
0.17170955432632268
-0.2975305802552158
-0.08725822593981279
-0.030325181123159285
-0.08593871856793907
-0.2796141020153534
-0.284740469520022
-0.19052455876514962
0.001469682818830724
0.043279513073700794
0.07291063973776414
0.10685985095892654
-0.021454036014655002
-0.10452363789217033
-0.21994776255485363
-0.22783375613104734
-0.20143510233308376
-0.12039867899539104
0.03089994928691009
0.06883748932760338
0.35395269543021324
0.2766665224837233
0.38785562302535165
0.23100264792529604
0.04767302057575818
-0.29337295578303435
-0.5462278804617113
-0.7433969538570688
-0.30965018659121973
-0.13135115177441467
-0.06511336423499302
0.03317479675347149
0.03798954532898629
-0.04906737983465272
-0.07137353210071895
-0.14308466002419032
-0.33692007942011276
-0.3247622046179232
0.05420179484821422
0.12033925909384881
0.33630428298048937
-0.08131500052163258
-0.08889400038566378
0.02873278827502195
0.20040696759922916
-0.17710041290271372
-0.11408750025221444
-0.28344894727414766
-0.17051321613440046
-0.09368614672280635
-0.08049705128308
0.006226554363861236
0.05803929312262187
-0.04511705793931968
-0.010010770437828942
-0.024463063808361822
-0.28729557781028053
-0.1373719768318382
-0.02809532289079034
0.33747360042363117
0.40617165654165416
0.1630484154692794
0.20629199287438763
0.18003227141167916
0.37713561765031167
0.3044841572918343
0.024714448164723776
-0.0015834233246358978
-0.013877345755445657
-0.15043366459848642
-0.13401157526378474
-0.01896440666689249
0.07969550242393843
0.004687428860812762
-0.10496666949484046
0.017458001023888718
-0.2289783187825918
-0.1062810302533172
0.07069956369718451
0.22920188546882167
0.14662408550920944
0.04677838385400526
0.12958347669524273
0.07320401696201814
0.14056674875144284
0.2175274195929637
0.2290702679552743
0.07187374264629579
-0.04426228846443904
-0.03564087897288208
-0.07795101279473991
0.05485349294565316
0.1414563604742929
0.009576160474759362
-0.10987974602223775
-0.028865004925131207
-0.2049457767719724
0.031667757102439104
-0.03683462152917787
-0.2445104147804746
0.05730849967269186
-0.2806592658367014
-0.09592387797616475
-0.09214936418681853
0.19536778775587238
0.349693421388108
0.18100716855271837
0.1593805571959026
-0.06490530665768456
-0.002798967001417187
0.029527522115657977
0.08734382308139876
0.11796250381397716
0.007470630580064192
-0.1290533107151985
0.00045565475281582134
-0.06866490417515181
0.25954627825712645
0.1517790415524679
-0.17786362403178457
-0.4416804923453788
-0.07134752701571276
0.010316943661634912
-0.0033699674783137716
-0.01913576769281916
0.14665603301160382
0.1592534429207696
0.14618547093447673
-0.016983734019390576
-0.012138013087361801
0.07964018606093705
0.0820658538313124
0.09590693435705501
0.0013335579493469227
-0.08991445655980089
0.0003547638003697844
0.00441327006594802
0.3542519758043564
0.09327640547469733
0.0044264532966231855
-0.1735647002508601
-0.43714776916297576
-0.16892840905009887
0.12845709194092028
-0.08888002186696513
-0.024150651543576637
0.23445497610252836
0.1457273667755262
-0.11441311411225161
-0.013949839394692604
0.08816381784557674
0.055521100388298515
0.10078997747358508
0.0002618556094652608
-0.0628957696765451
-0.05333317059411619
0.15265668332172616
0.15013271065078634
0.039825560185071704
0.38341471912302266
0.26622942211997
-0.16937344977970983
-0.400263544240633
0.18334163876666854
0.0023938223485889445
-0.13466943589660224
0.13353752763042306
0.03122324509790119
-0.16502809362743506
-0.0008880358594171997
0.004476592873928352
0.1181840653772847
0.10829896157513234
0.023374343004420754
-0.10179163263499051
-0.04026787448077611
0.10517141812007241
0.07705595766629564
0.336354475059247
0.7332177367250055
0.267966908255497
0.16459984867217542
0.09793182586339581
0.46778012053087703
-0.012060017026212915
-0.16264266860756302
0.008600264984195019
0.015952800434827025
-0.21142518854384504
-0.058432452179185454
0.017172159453141288
0.11434857592215854
0.10371819697043923
0.014950667268959463
-0.11139730451347186
0.01805558053044799
0.05787145385062493
-0.11901615345583512
0.03722235091373793
0.351865518224228
0.21879009977168834
-0.15271298875733283
0.13164908298419759
0.23544780661993117
0.4300160134168602
-0.09212697440378739
-0.22237623485528699
-0.233209708413524
-0.28062981659627584
-0.07105416924940233
-0.028872247951634657
0.11352636162170716
0.09624190266540582
0.019188090644074597
-0.0803095795995588
-0.007920495193243034
0.012795582600891952
-0.2685635522365172
-0.342218653253923
-0.06603056298290899
0.10547995574572247
0.1198303601030757
0.4173700623510921
0.49836851345351474
0.5277635711155587
-0.006297322005021053
-0.09149569250646564
-0.09744528958467533
-0.22494347895964675
-0.080979868617919
0.006795865310652809
0.0907647756301893
0.10617441067138729
-0.007988464114196831
-0.07752861012275371
0.02358389286821025
0.012857157520710606
-0.14822202622050842
-0.32922578538831215
-0.11753519451121598
-0.07345334375517644
0.10832802982472312
0.14456897953419262
-0.005292310893690249
-0.000265928645843576
-0.06905357220038395
-0.06592480721074317
0.04498555340956677
-0.19874237765314728
-0.07289292605591166
0.01033148279617149
0.061002075779978196
0.1122386312888302
-0.00043969233102964276
-0.08858819758069737
0.05038648883165914
0.010099007940347442
0.1250174604798078
-0.3008298388249855
-0.3869304682802472
0.24216154983988503
-0.052598800865412305
-0.024912113643278836
-0.07662844262312479
0.03804876393615819
-0.14209248715650596
0.03282880053364677
0.16369031660982358
-0.1226136458458151
-0.05998549303364173
0.022491492378503952
0.022381987135185834
0.09336407733399539
0.030333616843770866
-0.09926019059335907
0.05578478938340722
-0.08399580064118471
0.29844496987619723
-0.05014042146924662
-0.3226056692616243
-0.030532444008232098
0.004085597855747003
-0.291617503780783
-0.10511006395028943
-0.22819056391036724
0.08200124094874067
0.3497497951385463
0.20690192781939865
0.08830092449249802
-0.09436127885971839
0.023902055981405254
0.017084400711752386
0.08330315524964964
0.028732992011273887
-0.1272355208562658
0.03963667678842114
-0.06270373749118503
0.10169171355656298
-0.06135873411381706
-0.26392576814326596
-0.3253344285069362
-0.12526548266432078
-0.12184923355138716
-0.1841783706543359
0.021489896157922114
0.175180508463396
0.3566040640873477
0.22497665467271297
0.03370298431256091
-0.024914491336394513
-0.0311295454071916
0.013421852264660437
0.13843741162882736
0.11887926365904974
-0.014336330252535482
0.001006593995093626
0.040994207518573286
-0.14436391690453623
-0.26552429031073765
-0.1804042476302341
0.08574669199129786
0.07204885967203085
-0.0799928941673425
-0.11618907673636016
-0.05423945288234279
0.16865769808461964
0.11210748619441535
0.04674529926004112
0.00811252135625558
0.058856189025741794
0.002571662657197941
0.07570650568475303
0.07958803756866177
0.03301862176152742
0.003360294080295951
0.025262931527052127
-0.07636008447736425
-0.05199769063111662
-0.13938799117631473
-0.10049573318622111
-0.07560184970978845
-0.08319663836634175
-0.24546375255060957
-0.11076854146143712
0.03125034486365839
0.12137674031853764
0.07644760130707409
-0.11768856486371874
-0.10546985786230492
0.011481271724127549
0.004053853177354638
0.05701414331164412
0.0997123515102989
0.0760547459304683
-0.005931130875582339
0.0800766788764258
0.03223078758189922
0.1238697940472454
-0.012820025606135847
-0.11438731056050287
-0.0427828562800857
-0.12747602731177163
-0.13627208540939356
-0.08904220864007546
-0.06736480764414508
0.067891727296067
0.09644776073148792
-0.1412400130267372
-0.10357691544159939
-0.03736783259160617
0.01179168739071489
0.056304454779653054
0.1271373267585257
0.12960645589314837
0.12726452030667942
0.17193143142942277
0.1962554676805846
0.1844860268091153
-0.010266274186953347
-0.2144718655281333
-0.2952664982928878
-0.15130992244861285
-0.14501254231400926
-0.18120560922136206
-0.08113993711324792
0.09858362460344852
0.02678203473554942
-0.023639303769545168
-0.0235059012114036
-0.006977791067708561
0.09027453090235106
0.13243406827491708
0.07255191210343799
-0.0029415631711750614
0.054680734585073866
-0.08665742043946796
-0.17092506982453287
-0.11282417785733526
-0.12684772142534673
-0.042309729881596606
-0.2240347182108585
0.3109101135957646
-0.21078527722486856
-0.43327250732586214
-0.1976493187410791
-0.05145195657261892
0.089917906002989
0.4658647708495109
0.34041379876656297
0.08445812926597872
-0.06490047469918751
0.13112380688431766
0.06409943277911485
0.00718566076673802
-0.13072326397421397
-0.20828686264094273
-0.5450348610401383
-0.6918440652033905
-0.7320051122408129
-0.16433910458143777
-0.24794159919246095
0.36600201512987224
-0.8669313083681837
-0.8317583175208562
-0.6321428399602644
0.22493586725686554
0.8335908732512363
0.6803800524380433
0.9657140296834075
0.22744842379808555
-0.08765479172765998
0.04933638788271389
0.05016277758247677
0.011648249673471885
-0.04670713967262618
-0.05953283780561376
-0.18720780428721998
-0.07705250896686103
-0.08682851844159242
-0.132532479031873
0.07004659761790612
0.5066489491729285
-0.9654272608236849
-0.28897174630932126
0.15016988019671806
-0.3573336050220371
-0.00859555171090473
-0.45457123026440066
0.2627208149072082
0.012763211317570683
-0.024001777618547784
0.047907404255090595
0.0272731926282303
0.01853698798723345
0.09538155412977166
0.22948381471171708
-0.2960895347343602
-0.3312030694509786
-0.012032051670857686
0.11437355632424276
0.21771769404287505
0.2896219329220564
1.5831474294755459
1.153203251103066
0.1284226728261478
-0.5405725079743754
-1.2127153944034255
-0.43762119335176175
-0.10151943705762367
0.025778341959520154
0.1176487684590085
0.06791345785487148
0.048568805414551
0.050481631980983474
0.08068519380104035
0.10065752739888405
0.01951686777522068
-0.18031816127935837
0.07428737110617051
-0.086997938882531
0.10171865746074392
0.5473054952412033
3.970008654687311
2.253012182667756
0.09272396906725892
-0.7052239962516923
-1.110179980069795
-0.5712462354661861
-0.39020686810047855
0.02596327546256775
0.10777220454253471
-0.0011712748682995845
0.023068438244306957
0.03768323279957038
0.059341609106644745
0.14601166206799154
0.33006953124459987
0.32302574027575875
0.4895519670248826
0.10612426544373194
-0.17905213638752127
-0.33726433676461237
-0.08194414046685358
-0.2963559145968829
-0.203467264456265
-0.49973264659592936
0.020722025588413715
-0.7572432191984891
-0.48078382570878025
-0.19803347167072552
-0.15276946332296895
-0.07530261979585993
0.0014708396326468475
0.054281325060644106
0.06863616495979498
0.12970543859303904
0.11536099687905343
0.22415789736422437
-0.013963909514415935
0.23131957791248045
-0.27341947391523896
-0.3101856612480039
-1.3227778133992711
-1.1174834725821576
-0.5921300387977583
-0.4894332890408509
-0.1527712101980316
-0.32140431003383046
-0.8936212039495284
-0.5249976792042059
-0.24380826324978358
-0.0706223019155185
0.016723624499953352
0.11617620454738313
0.07963667322184849
0.18965266308696116
0.06936050754228427
0.23266667099235938
0.23929717864718975
-0.18697423571150779
-0.20858242253018955
0.06628085078663323
-0.60641747774689
-0.335103510809034
-0.49056536030656295
-0.04308387170394814
0.2571875361677812
-0.3254081298270005
-0.5987355418675031
-0.52636355201968
-0.24310140287028806
-0.08614140415262496
0.031191016785380776
0.1146074363552526
0.10492599164563478
0.1899327853989439
0.09944030070662117
0.3058458770334892
0.11537394149244908
0.042394487656159344
0.47356333151168806
0.8963373550310548
-0.6289780653656404
-0.371864082066084
-0.24756223181642972
0.4796371573884687
0.0008609534519902472
0.29718145575074495
-0.13421273408373585
-0.2746795637248274
-0.19196084197635657
-0.0643060549235175
0.011291144873824252
0.10724124093814487
0.11325732003714771
0.23231086328361372
0.09069222725222961
0.330000111944575
0.40626118822733626
0.3842408374185223
0.001688133178688683
0.2449758641071216
-0.4547644399737117
-0.43666110410050296
-0.535995128587514
-0.07456432744918985
0.27870090963741373
0.02779328924357076
-0.18655287095412068
-0.3201484272055167
-0.08927921608381993
-0.07126626987259264
0.0400015601426366
0.11268645079520019
0.12507783857609264
0.19113524964406822
0.009750933443849162
0.3744999446155318
0.46104082659863815
0.2978543613688165
-0.22298631980359643
-0.26287154283066017
-0.5680508093962949
0.06435837610155183
0.42877138388953184
0.33911476032171556
0.19482702040067512
-0.13286794250732661
-0.23121304060616266
-0.25769279715077076
0.0016234098098223682
0.006538293346469803
0.054241916201915166
0.10728313289894477
0.10784718421502613
0.2643555975185698
0.1286811640163005
0.4913651962156917
0.14836123268200702
-0.07748684548686811
-0.010417030850928396
-0.5157451800094254
-0.9068319191623553
0.1981777431605465
0.43313035925731413
0.2068988783112232
0.0020847719719191853
-0.16348933380780165
-0.22012089275298766
-0.261955965148723
-0.033087276905595174
0.04705880658507567
0.05176339625180715
0.10314638077109635
0.09588573955663178
0.1598686197200439
0.1537893056849161
0.4009335756916263
0.014230356786794164
-0.26020429123337335
0.11018475398750852
-0.20309753014772414
-0.5945426296990687
0.11865174468653865
0.623031160115004
-0.18396036895650308
-0.14183067300108573
-0.38753829202211726
0.004067905348961405
-0.015121571054284423
0.06824724252932234
0.007257243643523689
0.06617957507050061
0.10493329394349916
0.07179757144702024
0.13429706377646122
0.11749296555254371
0.3266538213958797
-0.03338471915354084
-0.03154291792406708
-0.01250397921597683
0.20244963658908796
-0.007949983811404906
0.442873048801101
0.02828102273919595
0.08931127379626591
-0.09288369216960504
0.012643816013239356
-0.06314049102647595
-0.018901789612604913
0.09104431798469846
0.03338153445329362
0.062492050269105724
0.09360610904599749
0.07493565197813455
-0.16099369891731732
0.0639990871368692
-0.03966722704821033
-0.431632356572712
-0.237213375887244
0.009628742950388302
-0.24702577291239133
-0.21414860300812025
-0.09937900215702383
-0.06450492457310428
-0.10367772668803085
-0.5848523286932352
0.18176886002103823
0.14251872535000465
-0.0797886719638406
0.08096983276675525
0.07322060456016054
0.05494845829619971
0.03416754316496266
0.01389466581003806
0.15546709452229127
0.22154446361983052
0.07007983111921201
-0.16280074091611627
-0.0348120119751083
0.027417684143528676
-0.11819860859244956
0.27620747937423307
0.4718852211318301
0.35324498749000205
0.3039264576743068
-0.20674884716006064
-0.9149893700736437
0.2137778821475636
0.2162710674029109
0.1123665995766164
-0.002639318431527211
0.043768317612294425
0.07099749899071113
0.09723483288649214
-0.0026913659822017486
-0.19517098349552017
-0.2775887387980463
0.009247825095571524
0.34745907666423503
-0.0516888753959064
-0.1061967532875776
-0.03805807129160682
0.2100503067847598
0.3029335913213244
0.09420108194735308
-0.5987717766205893
0.07140584721671679
0.23894675766158727
0.07452052097371469
0.12065548863808222
0.05157662008572748
0.06137989629997265
0.0653591172517247
0.11205585279577589
0.03908954324669245
0.05799598536947675
-0.02336460721176745
-0.06367979267702903
0.27982670473744975
0.3300450993967172
0.07818376074459227
-0.15840266888201762
-0.10617154007728404
-0.27648117380344256
-0.21553956611416136
-0.1370339320007295
0.1279212359003701
0.12271502888086937
0.1987657901041337
0.08669898902512574
0.040373278309811626
0.04991076779342353
0.07368761789691818
0.07228668836789605
0.06294955489517863
0.0010614491231775746
-0.06427921693360858
-0.15613770182529674
0.2019478406204967
0.06634612995934802
0.06818919890434133
-0.07229487293795679
-0.11788024981935279
-0.34405833183261186
-0.26298885336476646
-0.09712711859373857
-0.13330027015200605
-0.1678730074235988
-0.05184783905541448
-0.00877235922523367
0.036653788231527186
0.07370008225727885
0.07429703329887198
0.06974491364576745
0.05892082221196808
0.01569951755301447
-0.06426570344729503
-7.315104807191416e-05
0.2137682657642827
0.1312767706388443
0.17963654595762435
0.14838402257150604
-0.08127485109860089
-0.15261380999134935
-0.19200890890260897
-0.27598377715636946
-0.32165973846208507
-0.2061902170937902
-0.12027917122378895
-0.06396864204495674
0.0016816125422470804
0.05861123786849927
0.03720261544956088
0.0032302464607404033
0.040943668503983024
-0.0027470266772960956
0.011667532121942202
0.2411970445761585
-0.06538012200530523
-0.10896237784033923
0.05638334476461192
0.16764881248842695
0.09486554265515924
-0.139755040468413
0.01231604679023186
0.3626209929438793
0.1189037993336166
-0.0064365373648708705
-0.004973858445810966
-0.06992994236935156
-0.013932950021203391
0.005188250909209779
0.03135909329872391
0.027485737860690085
-0.05262608580320789
0.10052441500641449
-0.10405426398570866
-0.3473307818449787
-0.4639047324189606
-0.6096661929198107
-0.41109060147656334
0.18756860127068908
-0.2180634292857316
-0.24124655539576362
0.7862259170778262
0.0536684851580723
-0.38242000786304203
0.16585237784783746
-0.3374925798004515
-0.03204386238220555
-0.055872732311013217
-0.24461700808378067
-0.09737404891214588
-0.09649161463887004
-0.20938547307609484
-0.1496939526075479
0.013165335250107041
0.15377700536581845
-0.5011084023124132
-0.9477217920862608
-0.4638269409026696
0.04630485941019442
0.0441113007705434
0.09441296739202143
0.15295690544204646
-0.007028776250756021
-0.0007545845229583745
0.3645192527617504
0.15418310069351404
0.1911930135104785
-0.10807779652585851
-0.20699302350079696
-0.18837967508573136
-0.04768446812640931
-0.20782537506893012
-0.20658999132626857
0.09385892202723187
0.12293748939645681
-0.7740148159311041
-0.8951439378468847
-0.8962311664189833
-0.40667388291677914
-0.1782750458604661
0.3849089955707045
0.5903716491933529
0.42102935446855067
0.7014778660564236
0.5633502243117247
0.19532610546269108
0.09072165831487584
0.0506980299550528
-0.24530722351454465
-0.05785565343499599
0.00193845769797729
-0.09020262737908738
-0.10198129592685146
-0.1952591130249255
-0.19468320229495978
-0.7054095052879691
-0.9933800164181775
-1.200232696769008
-0.5648066229375696
-0.6937847995105174
0.6139057128787637
0.8138372431339564
0.6314221170994162
0.9532764367339868
0.8344642455597288
0.36485159109431614
0.525705378195776
0.24685039661065944
-0.056058729319309886
0.03923228603754786
0.07615248231284816
-0.14797516948753603
-0.4156752557520221
0.028099130313825733
0.6909623688080694
0.7363090919020788
0.07884860675562769
-0.03334486775219302
-0.520021079166463
-1.328391492749752
-0.9683158702818888
-0.08259830992731267
0.6745083439318704
1.290018017696541
0.5440630249992442
0.6879685430749708
0.5685577476799126
0.3756951268461475
0.2044194737159563
0.10019149147177689
0.19021862397501366
-0.03718698388492777
-0.3290268660468824
-0.19083112554566248
-0.03861057325094076
0.3527337309606183
0.30813709118178145
-0.06795949377476698
-0.32635242371319284
-0.46347688973709644
-0.26994110742618665
0.5009874708722186
0.71567883588869
0.5188017796073877
0.7647789713377903
0.7183239583462823
0.5794822018173938
0.22236092323698775
0.26391630899478474
0.22189225473165367
0.1341329706443199
-0.0251432596010434
-0.2776440214181858
0.007602426135620896
-0.20855615627864416
0.1297715763847514
0.5058358090612717
-0.14757242272172422
0.8209477660214397
-0.4598833330805827
-0.16319939308930825
0.17674914913083095
0.011937155543398862
0.48864760787322986
0.5631413832169505
0.7156505608105835
0.5461013304480857
0.38232835606364957
0.19956587821996652
0.28888661228181756
0.14171042254034855
0.028810717280532108
-0.21248021122077013
-0.0345995041824681
-0.2906642910103398
-0.05526625408798616
0.6949688165047011
0.5346727404464563
0.49693593349796805
-0.19066512102023664
-0.5361555988054809
-0.674447811164342
0.17818242507846097
-0.23870324471453752
0.1787324950153158
0.28574891369567956
0.3216784343361197
0.30536874361422417
0.058135536570889754
0.3084317211243285
0.1510213784520645
0.07826482674810359
-0.30571220822552136
-0.06289202793257011
-0.1874295514230015
0.15344312506363203
0.4008837910573377
0.5707807817037645
0.5849991957257024
0.2095658688895286
-0.7740930471087022
-0.6924873196680601
-0.15284238301937567
-0.09224539859129749
-0.15512340790666646
0.3027943098965304
0.15892912532216807
0.2931871113992261
0.07638835804174424
0.21695126896748404
0.13976778335716536
0.07592628170819135
-0.3153489470754461
-0.09120304883508457
-0.1965434960276589
0.16105217193234309
0.2934535300272969
0.139531023399676
-0.5394472850262051
0.0045527936850021196
-0.4006880752574731
-0.8454011419654734
-0.6168025060169635
-0.013162055603637781
0.15320675629714545
0.10587114954026684
0.2737742431470528
0.11080268086891318
0.022696612789245642
0.22105806848869594
0.1456383168397027
0.0653406933818482
-0.1578729089914615
0.0043647805138738735
-0.21662145792661258
-0.047124734741236234
-0.28314839022284644
-0.5804251110999163
-0.06653500393534637
0.21001815814901176
0.41154165818518573
0.08992728573749213
0.014488125608538729
0.6390482238492076
0.32972036463844195
0.08014587157824402
0.24887033711439246
0.24567756839615978
0.0801655770494947
0.17602701936426188
0.14213217769803577
0.08169035707008498
-0.09412654750246181
0.04206657421860147
-0.26172761733055233
-0.28569604096186313
-0.3851579401628033
-0.5336514963964195
-0.08540248398841202
0.37228419211920843
0.4734060072536667
0.31758165292643364
0.9106443319852139
0.6252107922662734
0.01568656329446087
-0.22181260202309558
0.24682361729086066
0.24068015798611897
0.0758293113652318
0.15654768172161757
0.21600091089839893
0.18062248106618292
0.009584913231447651
0.21656882787973844
0.20358937464593532
-0.25340704644718615
-0.0471326456257344
-0.3526145290510519
-0.36798214813063096
0.3905611503977302
0.591743958263762
-0.0644456641576766
0.34550929808560993
-0.27076934069918934
0.10509162776549875
-0.40831441253940687
0.11051630128145956
0.28040522432750364
0.28154944347877087
0.17495961101325536
0.20923188796219527
0.059195865650718806
0.14079798848668426
0.1995838534888893
-0.05126716126444886
-0.5351687310214372
-0.14899327391126485
0.3342007130238852
-0.19128275743468015
0.2250050716162186
-0.3226359647664294
-0.4125150065203113
-0.0637421271288852
-0.8582701363070323
-0.5781686943895555
-0.23871739336355188
0.21262277022611836
0.28000700385125304
0.18258590324681398
0.15940539759150119
0.09358526683570378
0.1999494408602331
0.18135621891744094
0.41667984351406956
0.24273866739410344
-0.017855105119142865
0.049717149398295024
0.16021952885986745
0.0690762575293535
0.43085574264141585
-0.2283348733439252
-0.2688432011280671
-0.3108228420069162
-0.5682728475574383
-1.1085224857824583
0.12145998485969368
-0.05991149189677056
0.06407612914943925
0.2057487378528115
0.08371025576945662
0.03525042275104333
0.04436456432707303
0.23246484523118563
0.19411679975362492
0.12161772931945125
0.2904730312902224
0.4842857276224119
-0.01839323535741303
0.023667991934722927
0.5812818978527681
-0.11910574177156769
-0.19922938462575235
-0.2794221883006448
-0.8451499872631788
-0.5262166869914806
-0.38728776391856384
-0.07806660924032562
0.06463216162038436
-0.056330422814438647
-0.02929904968073402
0.06471273863273805
0.09828518848277645
0.1658835196470701
0.33590661302944397
-0.020192590492379495
0.21142871805005026
0.27316235569907166
0.2689023399383136
0.4114116874624816
0.07304852104655635
-0.10850766572763337
0.05283317551232622
-0.44912397335226323
-0.7771628538895621
-0.5060138478848548
-0.3843681968917861
-0.4282240594084333
-0.0483518513646592
-0.008188673867369411
0.0010038855905145693
0.09380192891907871
0.07979532669689937
0.07081773730935156
0.027586840888511488
0.17007768591795694
0.5009654138383883
0.46402848179644973
0.14885728052951877
0.5524265585893027
0.18272771032931315
-0.49285769309353933
-0.16789500334278418
-1.0191181228596107
-1.0666026478267199
-0.9554243028937527
-0.6514140908031663
-0.7651503581962122
-0.5142363460483683
-0.20274910499644538
0.087299531006685
0.09008973234144624
0.08921060479490092
0.04502494308060063
0.042541534484018706
0.13874056696773573
0.2700616293112293
0.36157828968288525
0.6849163102699177
0.1622617566919591
-0.03896027627550867
-0.5488531687463565
-0.738394535444264
-1.2770344936831517
-1.4881725518483466
-1.2216551093621195
-0.869202790824765
-0.7024272672186342
-0.6069929860303727
-0.2224553014279887
0.0771390523258757
0.20231466355105746
0.00575830051852
0.18676005556886272
0.22145446024827117
0.16879672155206205
0.09617535803013047
0.12946183240152787
-0.07048696376801664
0.13289579668861312
-0.04611839907816586
-0.1317905391374641
-0.3044968817196428
0.1931140363586134
-0.05493872516804463
-0.014750494221304762
0.018180391807331518
0.11515366303948638
0.18825998201769295
0.2019940009747664
0.20596604038292768
0.1961579951788167
0.15339802404704536
0.1480878853560203
0.07816014671610703
-0.051190435439170345
-0.08151041527431206
0.0037219164746799278
-0.17575360550857191
-0.3787156236665391
-0.6298145283148145
-0.705441290712642
-0.24452626077475276
-0.05074838757930518
-0.12963003130328213
-0.1800356671857703
-0.21226241241327437
-0.10229756433713573
0.10725398446552642
0.14087122627493545
0.10107295248134107
0.14731004196375377
0.14737868126816728
0.1162699001867578
0.10111010503836507
0.10762961104884039
0.024600788591919283
-0.04862863341296404
-0.16219497184479556
-0.16292144335335396
-0.17289328338908255
-0.18383989261691772
0.03197182875755099
-0.09773980624741034
-0.0988657475720504
-0.17305965745447652
-0.17121431140718996
0.05225087201146539
0.1850165056306218
0.12897894946232666
0.0995146221585668
0.11981612918347494
0.15901130089047597
0.1177006221634141
0.16946498133826962
0.056269794382869165
0.010026508404037283
0.0631015034347875
-0.007853855578333504
0.15702029958888367
0.10664290661857513
-0.003546617726465771
0.2977986100337155
0.014637461549199596
0.029774844324810368
-0.0621614539132021
-0.11201338327642628
0.07499242809628014
0.14299780223559422
0.1401984103011976
0.11381879859457877
0.15018871984619164
0.17191339498883565
0.15192815231195925
0.1216267412265026
0.03577854768536404
0.05049355491123253
0.03531648731196377
-0.03573698609370282
0.10604694670304476
-0.13940678708873533
-0.2845644327806831
0.1237710309472475
0.03878889157349562
-0.03968807185424225
0.17868607346660315
0.1121107432197038
0.06994739190322305
0.2073496047132097
0.10546464031106835
0.09385480429880955
0.15314213332099552
0.21774562792184357
0.14122400048790937
-0.11817728538429462
-0.08138957191829396
-0.05080963964347902
-0.06493644527401493
-0.2856521914193441
-0.2839546659375038
-0.02116462733043278
-0.36433584762141424
-0.26875211168217356
-0.12148711046148589
-0.03738916026038805
0.10613111517639257
-0.2525051312068983
-0.10478663864687983
0.046300830763315724
0.06318502417551115
0.1097244349764995
0.1608976867973439
0.21483543767614832
0.12397422948531632
-0.13909946402824858
-0.14113593614461004
-0.1631537317101638
0.1730641510207327
-0.11610518397086869
-0.24131476232460256
0.09803266825957363
0.06238078142545775
0.030540086412124648
-0.10678673923284461
0.47908142428610445
-0.626551360500905
-0.37166986153335657
-0.1732752107197925
-0.00746371585162253
-0.04259281769620183
0.11083892354203076
0.1719299979511432
0.22004698505891035
0.07841724129240092
-0.049882203977927614
-0.10793794763117179
-0.03870697461078888
0.11995235669824802
0.13945258527646007
-0.04758350023693606
0.3725254129081402
-0.08737525418320397
0.11316684791317086
-0.2940775515024439
-0.2788252752022792
-0.3903446852086131
-0.2630510073594994
0.025835674173289
-0.04506005237726712
0.014622381001909053
0.09218869445708275
0.21510742412808412
0.2235634278059277
0.11504385886503975
-0.022850261389188633
-0.07919748493332247
-0.01222582391083583
0.035431983141374426
0.18466315425538196
0.019219511005778032
0.06225227449570784
-0.06454129326799678
0.04758103011202034
-0.5114711067413023
-0.3519139995639765
-0.38448063884147926
-0.29395988460190886
0.033338477115332
-0.03681151403723641
