-3.3432905980103613
-0.006709088535463628
-0.29484013066329867
-2.8299793057117113
0.3794744318296844
-1.5443399924058654
-2.7165303023756837
0.07564957534335491
-0.4065482173705211
1.1458571445420724
0.18782531992026355
0.9715908274713562
-1.4610921156838406
1.0626906055742014
-0.7801232591689733
-2.1692854861357955
0.31938677068745897
-2.4064187264265735
0.38965401692628865
-0.7872826435754323
0.826482019427398
0.6755298169128963
-0.21918156652090373
-2.073703121389594
0.2575527331424163
-0.5565300307400358
-1.141718945358378
1.2798502043927615
0.42696372825217266
-1.4265556674904563
0.14663803734320519
-3.4997376074690516
0.008766614988916137
-3.361069295173637
2.1600531047750406
-1.1450739367438982
0.010545600984731233
-0.6182638754210891
1.3722845160803803
1.1579329590432654
-1.9688862376757947
-0.7582787011031102
0.8296862474411738
-2.4855365080970415
-2.885568075997096
-1.242965658406372
-2.645088392768429
-0.9213980358368112
-1.6101063666197188
0.4884477601892015
-1.272726894198404
1.7175833243215495
0.20227024359486107
-0.7711356359533857
1.088603825063459
0.19479398575096607
-1.2097532457264584
-1.55010297444925
1.5579494779821654
0.5766931453808654
0.6235562293554865
-2.1119994917046494
1.7002359162857583
-0.008177430833560942
0.6991733312266023
0.22874551312868113
-0.525373886018948
0.09818165368816359
0.18824771520890995
-1.1871376646254639
-1.0223401210585188
0.05435586451734254
-0.3842916194512623
-2.4059358820799948
1.740928095836941
1.1413567378157312
-0.7651051627920827
1.1430474592222448
0.5669049055424593
-1.9183541062035832
-1.1079905241933015
-0.7743790802951124
-3.44265909066631
0.03542536938256828
-1.6787131556361676
0.8952357368762238
-3.7282156955949204
-1.4873973277102241
0.5575041383476865
-0.9740501538915415
-2.44503378166382
-1.3243062526949858
0.31291031343708686
0.8616272955205856
0.007027758738038839
-2.4338521503453134
1.0063623524340128
-0.21173127687280593
-0.22732668586684446
-0.6976206028728439
0.35778872226719577
0.9235240532672192
-2.0109332451638355
0.7109949150718677
-0.9211441637039934
1.1903910903403783
-4.247194145843309
-1.0597415543699547
2.3068610009279786
-0.21131265023200468
-1.5481557548165343
1.0424881450339645
-1.0793208417254776
-0.04274789715586755
-1.644318452724982
-1.9133479369250947
-1.4685107957819465
-4.2242037573939974
-1.343358626761057
-1.6209819229766076
1.2168545134670123
1.853113597900187
-0.13427608974542182
-0.7088290179899063
1.2450700265608188
0.003549510843483903
-2.354029323300761
0.6658322934239418
-1.057551487059939
0.3854422689235761
2.001318042182606
-1.5153495583073189
-4.926587903605156
-1.8225942890364861
0.17530098204487649
0.3470153152774131
-1.0078676359366157
0.5050127789200772
-0.9220531330704366
-2.3020325688737597
0.03177118535990799
-1.7310581673169132
-2.2023119672240425
-0.9254575004760912
-0.29744815473353514
-0.046670937733097426
-1.691236399092787
2.796028999495634
2.3768110624506646
-1.674754296532483
-2.0284429531417896
-1.9350654497268949
0.45726402864848487
-2.0873316250227822
-2.6157969007085433
-3.4679634757179487
0.008621527832168586
1.0629026828597201
0.41183806889775393
-1.8523646986962625
-2.8555320591980426
0.13675456766609978
-1.4752058751024004
2.454554722521978
-0.7389352386157593
-0.08606719796738842
0.5071877297639832
1.0871785337671116
2.3000043086476816
-0.9379032487275039
-1.5348728335466864
-0.08767812843792118
-1.508494200870549
-1.7777538318801183
-0.9472038939116085
-1.1067978681515949
1.0470291120405315
-0.6105696635775801
-4.310489278293631
0.9406173183974638
-1.2372502156231833
1.50837740972564
-2.2760430693187703
0.07693441588996922
-3.2256163893642484
-1.4172355860766874
-4.4905291257257405
0.009450917758630424
-0.5430215044297024
-0.07462565265326915
-1.1738331362028744
-0.15929972675284346
-0.2992960756024553
-0.8181474384617358
-1.8246334891964013
0.8233975201222649
-0.29537420621068927
1.3755672192924893
-2.9553997950202766
1.7330953948472838
-1.0550988276894269
1.9480998894643284
-0.19029748568502292
-0.06335077599070577
-1.253204965706119
-1.0741351112517274
1.8348982078622975
1.3118842006531375
0.549773493005568
-0.09791258700144936
-4.0664702786768006
0.5159060405142342
0.23844338004996257
-0.18887585003534704
-2.491014346860154
-1.071776404625783
-0.543439771768603
-1.2094229253035529
0.006641774733189361
-2.7624916287220693
-3.6704872403745625
-0.8730469017089093
0.02942460076346432
1.1075075034969333
-0.7897635960696806
1.4518097673842842
-1.1287974593926893
-0.32443368726051913
1.07857671927527
-2.070381670708517
1.7093110331749284
-0.9952593641458546
-2.5897176400941384
1.7598030998294205
1.7997983029153688
-1.7972027170262752
-1.01470815736074
1.5685695235678232
-0.46538756140134896
-2.1277752102375658
-2.0654518581674095
-2.317190540871868
-1.8045954511040319
-0.9842960345636648
-0.13852566365113753
-0.3918731756120136
1.4630295404414635
-0.5312759406327983
1.452471208254181
-0.0020213473515464427
-1.494303237745718
-0.34755985162277464
0.7591316966800361
-1.551283398265112
-3.543455576924173
1.6018465220371958
-2.4282038715662937
1.7775001715642615
0.16444584811251667
-2.472755157982806
-2.443747356467739
-1.2158359983481652
-0.8076582183307128
1.5845225254026047
-1.2231873659247723
-1.199248157648884
0.6378838581823005
-0.786773299795282
-2.532905071001205
-0.3473383372571939
0.36222168395530946
-1.600777725140668
0.08506281564365292
1.7590171233755232
1.1253061833028706
0.38374214984595634
0.8313291067260736
-3.1307963040738906
-1.3351907327515837
-3.683395618344833
0.0004538422512805791
-0.07169624227362963
1.3267711825507171
0.42344904455476173
-2.020113048600554
-2.184755826787436
0.23083543285964572
-1.631130487825746
0.5292588961915131
-0.8857240563545112
-2.6088481035870905
-0.8556045606099585
-1.6933790579598411
-0.621929494482993
1.3955910858779388
0.952071498620407
-0.547154314296616
0.2821591979979109
-0.5975765739249549
1.7050333203236132
0.47586578989348394
-0.03503955030290136
-1.1578128827139762
1.0590541258495305
-1.6613348759552575
-0.7146306179476754
-0.09495431085854199
-3.3563085613050485
1.668589729889707
0.1154717362802026
0.132888830830505
-0.004504387652400877
0.37488481697662557
-2.603455399299954
-0.9108157212899558
0.5594853276250149
-2.910126398113848
-2.0014754113652424
-1.6313662757920637
-0.860385802318583
-0.03161203971727391
-0.2074861728260331
-1.39842700754013
1.5844815274575987
-0.8396211139878872
1.5337559837375574
1.350511385671349
1.6875203445999294
-0.4441647073020594
-0.8212229460821152
-2.210852185652417
0.7135938797145718
-2.35009280143382
-0.6209236185589941
1.0965728109409547
-1.611858738733886
-1.8287061169807224
-1.677817464297815
-0.2644048166928532
-0.7767772169720949
0.3007445857011083
1.358336008993853
0.0009248319971847385
-1.6501570091647542
1.2135934101342698
-1.3036509558504075
-0.0033030967824946296
-4.135299489231256
0.940490027454104
-1.6173367535523897
-1.871735729523278
0.02251960669939047
-0.5623049509488935
-0.5641805051791398
0.7163429149050771
-0.7618850312519105
-2.129907348179716
0.09169201839457859
-2.093263006566061
-0.43827553782348416
-0.7722337384790794
1.472617687144623
0.10601023421993427
-0.2615364803483929
-2.1831119308709233
-1.6382856585627703
-0.980439765120879
1.7674374134276598
-1.4276953227873905
0.17029094060637245
-1.9581417523783105
0.8152097597041122
0.4346123783994409
0.0028193614983881045
0.5971033097840585
-1.508226428374022
1.554779178170567
-0.23901505524093802
-0.4235164341416138
0.292722655182837
-0.3091776965289555
0.5271284207416621
-4.668909039421928
0.48081573082138274
0.6632023739261932
1.034974179847368
-0.48429813041650627
0.14236826616104103
-3.0512140705513966
1.0684945012782672
-0.1739049978553779
-0.4461576211480283
-0.010621845271976665
-3.496834948809855
-0.8085699918742727
0.5770962377841324
-3.768856590572025
-0.7660575396435124
0.11276438341367803
0.882845918169993
0.33163191460819214
0.5468886475224296
0.09356208973784935
0.07596719278809438
0.0005681973511696258
-1.1269951897131585
-1.6625622421958588
-2.277498133833119
1.5235193339517286
0.818756632694643
0.060260156412402524
0.1471658220500934
-0.3075637142727545
0.44201518643162846
0.20186426916291256
-1.5512268979763832
0.8232282670942045
-0.7508517120165359
-0.725082179500186
-2.9669541461002793
1.328682256669638
1.128277225058098
-0.7517383566134379
-1.8072015161503328
-1.0368485615072958
1.0703122548715505
-2.12525918712524
-2.415004666396534
1.8047085249396968
-1.1946640031600866
-1.4398308743821784
-0.11273166995772006
-2.2874207962713093
-0.07503148385053673
-3.0665410540890727
0.00358356668586113
-0.3833646955118295
0.810413264049029
1.1242397109080118
-0.3234790103835057
0.2672874023402771
-0.38947868604206304
1.9101822053590467
1.3340676158857327
0.08673833035835578
1.2918833567878318
0.8106747898640074
-2.8893586130240143
-0.7510527764091909
0.6234053229877181
0.047573493169016386
-0.6878062480924021
-1.5567795687709491
-0.749625785324842
-0.906490716454852
-4.13676331848988
-0.6809238485336849
0.593639565333497
-3.128726664076775
0.0059144797491055955
0.9335868520490338
0.06901797332393862
-4.609741093131598
0.3081931759379722
0.16132052055729096
0.25076237543499513
-0.007798427444291094
0.36629186740450553
0.7776836118028392
-0.18561386554034057
-1.6897207599031172
0.2843201690108273
-1.3112630782994683
0.9385848912202347
-0.6332515537857858
-3.731238560169662
0.6639334234624759
2.241473714401686
-2.0532096664778337
-1.0999872255319938
-1.518489813323306
-0.03544770034532677
-1.4417395620815612
-1.7013248306471878
-1.0928104287404397
-0.014059921440302173
-2.7149290850528063
-1.5050032795104147
-1.6983154375587404
0.4176688964669385
-0.8352455125341018
1.577105670033637
1.6660327260204442
-0.5579594094942842
1.4466584210338198
-1.5161585538396336
2.6506935201885775
-0.0010909807269537542
-0.8725028169275318
-1.0036268490887488
-0.01715626316898319
0.16929147958324314
0.6233203470832919
0.03832823307587753
-2.613428632428276
0.19441328667878122
-0.4570233893576464
-3.4109793867450566
0.22292923192009928
-3.826681112984722
-1.1409650887593539
-0.33435295153847155
-0.4122494526504998
1.5704573362172678
1.1407605958674658
-1.1409213873706616
0.519651547380454
0.6284489716506787
0.6187292956869587
0.5071900034830545
-3.284841800244283
1.749296899958273
-0.16332461912342477
0.5376714248545114
-3.709237611398129
0.23858039856078644
-0.8532940185499803
1.6760429887171202
0.00836577216370619
1.5924831601462792
-4.879574243140197
-0.13325568874188093
1.3201118793456483
-1.9534691840704945
-2.0227713836338355
0.6242454712750268
-1.1666900262479942
-0.49775265230939364
-1.3110440232061384
1.019146133893657
-2.7226219770273956
-1.0422445590154361
-1.238197214489717
0.7286921168246795
-0.6285816646591567
2.8377176920352807
-1.0418106538142613
0.5382213770329805
0.17309789396673414
-2.1309566625546097
0.9323634823563218
-0.3788617868337187
-0.9856363649147436
-1.8291353487551185
2.007338211187524
-0.9755618863602915
0.4213089383913191
-1.9652154905405386
-1.7926226154344984
-0.005067249734982562
0.3016326023598308
-0.09764778903601985
-1.4749737466677504
0.026904289235405342
0.4859139802398894
-0.35356528730644243
-0.3605348807926034
1.3248654097142794
-0.46461451389525266
0.5673101338982703
-1.2860742613851366
-1.7065861551160817
-0.7809443110356071
-2.3710435082626753
0.6711218058141952
-0.39186256588891677
1.397912938302933
-0.784247556658082
-2.416962559683829
-0.11718271467102957
0.6289319719065378
0.5510077895073523
1.9141674735607428
1.9505797247802619
-0.994408090356914
-0.18375517071948494
-3.532445473075908
-1.8767804752708621
-1.6370933117553583
0.615552580780909
-0.0008960382896568576
-0.08948270488817202
-0.6911981357762099
-0.8091127087318567
-2.1883240132060764
2.3255094200635096
-3.134945472435901
-0.8679564489489577
0.9439139156105
1.1324755819853194
-1.7975195020563783
2.194665503777862
-2.2617531775065984
-0.7956932143545059
1.706859397574435
-3.250968458297915
-1.1276899320776008
-1.9659504632139948
-0.7872704379661218
-1.5218591020316818
-0.1988236768697123
0.20301994633654222
-1.1723071712417026
0.7522772263480376
-0.9559224610706843
-1.219925116187145
-1.1449807178345826
0.34421667395360067
0.5559955962739082
-0.7080370580436265
0.7613221898513476
-0.006823108737243889
-2.0650729578454166
1.381869457912367
-0.7918203682061401
-0.2781396015369591
1.017988351978363
-0.29254521777010256
-2.740947176138987
-1.7663543047575878
-0.8952452331528766
-2.4580885762282825
-1.656628073570343
0.5107487077513994
-1.2107718388017428
2.3073926713751387
0.9109996137261945
2.6077733226894835
-1.8063647377360041
-1.227197954381145
0.030437155436489078
-2.157529485677998
0.9860609254723275
-1.6281989873841962
-3.918559761158215
-1.0617232614983794
-2.04138590511313
-2.5872676172493825
0.6036246307078996
1.7949197695938666
-0.5383401315522761
0.3680836745045292
0.002115036616418861
-0.3421393651962244
1.061151423841018
-2.5774292747452727
0.5515245965322482
-0.017471315128298276
-0.634054024810949
-1.7226805448641047
-1.4330337528205452
-3.5756431985483026
-0.4331545176416069
0.9827442385007591
0.22668021568580857
-1.0127284742084237
-1.1975324890094552
-3.7072707285476
1.492320544328936
0.9995845812381029
-0.9992463873887664
0.9604336028247032
0.5754945477101273
0.17567739389996392
-2.7127403513977244
2.907437607974259
-1.7382581138197264
-1.3407611593305233
-1.0477744920424121
-0.64870671607506
0.7331725604609702
-1.0311131522617558
-2.260888266316823
0.0017287026762976086
-0.03300351466187126
-1.987183703609693
-0.6208846583839621
0.3544997439070223
-2.643354538377117
-0.3097858496013169
0.6361429527228565
-0.7060681303821983
0.6535444946885313
0.16309735147058968
-1.6810006619708444
-2.067332762467755
-0.6883279687539577
1.4880516124165246
-0.6582977541008697
1.3162127760987417
-1.3186282538765493
-0.6674252008585696
0.20687097269628102
-4.219152629634681
1.1875381131606597
-1.1627312860229035
1.9882694983220068
0.04504183699289593
0.041001861769186826
-0.5989513110551679
0.11570659573560976
0.658555925801787
-0.29268301210196834
0.19911057640775412
0.002632874403569241
0.38279288637175746
-2.9496345900954584
1.0501266532551348
-2.520318585247359
-2.49981991401578
-0.391924896932996
0.6320476852977576
-1.934128785464276
-0.3297848495065227
1.045141795424609
-2.063855310998255
-0.4655771138909798
-0.738919715073522
-1.8620629731919784
-3.4895576860993858
-0.6711252542393483
0.18032645881290474
-0.7306351715778183
-1.3734349938777892
0.18426528804361827
-0.5858082756812456
2.316539362596534
1.732709473375447
1.0698697411279112
-0.2931487320814798
-1.3852008413694965
-0.27778157673198806
-0.5551716657235629
0.2258016675159908
0.10013752160316103
-0.0070515138465951695
-0.6532697089899044
0.6205073028964534
0.9941741271168235
-1.8874089447401514
0.7834886685165503
0.9255036248869681
0.2832196209196729
0.31541752450103916
-4.393725091694166
-3.4255341081958286
1.155972816858061
0.9566315107841493
-0.8023445695938523
-2.2211756196324535
-2.067624248747639
-1.5324659775222775
0.2919795105188614
-0.800637094829814
-1.779421822422128
-0.11590040664353118
0.39765348591989896
1.15073403043985
0.6298448286165467
1.0926230134083084
-0.7397606172067688
-0.9990388135934666
-0.36216833110762325
-1.1001966514784607
-0.04630334377280258
0.5564046099948511
-0.004808470403179914
-0.3139237350535055
-0.09837068106067813
1.6782325443440318
-2.041062299368914
0.08099262382906011
-0.10819770682010182
0.7852593375183918
-1.5130620000045396
0.5358738651362478
-3.6009518180550675
-2.0996198544554323
-2.447476966047715
-0.8710761451031263
-0.8362279507689948
1.648008637112514
-1.0492283883063134
-2.2807897142336087
-0.885908543865034
-1.9299144411139573
0.10376004973194722
-1.730625560198837
1.7678645155708768
0.22282608599026826
-1.395461596421598
0.3064293507369302
-1.1410079874981547
-0.4290560576563557
0.8387791677594936
-0.6098972975693797
0.10839209618890121
-0.004687931479820253
0.1150882343847277
-0.004199120309445536
0.028658824175681004
-0.31970811918742226
-0.7449184014283688
-0.7774395799166504
-0.12911887702312871
0.44553307476746185
0.22636417796176503
0.46649075011673663
0.6885593520327158
0.005096283115797724
0.11057959650974532
0.08360151389029077
-0.18207871603809628
0.017380939748380966
0.11497203740803437
0.09340552024828357
0.09441325344346309
0.06142134958351495
0.0038738436216824075
-0.4223101162135084
-0.697060129434077
-0.5644623272125555
-1.3028131348965284
-0.9097422639963578
-0.3228150414240731
0.41042228288371674
-0.2660294612397345
0.44920541398711855
1.221345304858692
0.8457112704059138
0.502429813969213
0.007449047149576094
0.0315227281618132
-0.4588378113829111
-0.09338741503009254
-0.07543539153469742
0.18395894161556975
0.18265655407856565
0.14202939153353777
-0.25738060737213003
-0.02664072135992361
-0.1666022408914425
-0.5616824488402702
-0.7177012635568423
-0.2215171255839366
0.2628421343136224
0.10737447591742115
0.328447178878742
0.6470686780995387
-0.47618588689199226
-0.476164927584378
-0.894735021748287
0.0011262852168526657
-0.06947956769489827
-0.06647394868826421
0.01113344438001008
0.2423244427653906
0.10907413031236338
-0.24669581781231922
-0.3276819771274124
-0.22333356984794084
-0.0325477162527177
0.25784349587545125
0.199061875651731
0.09269280428103809
0.2537422447470074
0.47880825451527576
0.649083330814391
0.1786065538582548
0.007692623226655274
-0.548495757429036
-0.7372877683281728
-0.18416224398209674
-0.2371344812407499
0.07463160002162147
-0.04463604694388593
0.05431931781929831
0.08993339325135472
0.08587123843036523
-0.09207947382983557
-0.1634245837885971
-0.09944661114031707
-0.2599732453414632
-0.2545159401030064
-0.7236380811237415
-0.17131025198052635
-0.1558968846888482
-0.0064969099804265875
0.20309494741129666
-0.7970368653547871
0.08554646105111902
-0.13137921415390724
0.2635228069851878
-0.28574184592585855
0.02037792561996565
0.11699516913159984
0.149288275837905
0.06908153443003034
0.20896660562914537
0.000620642452491064
0.38426772897252937
0.13871992486825047
-0.4469875036082962
-0.17107686625330631
-0.49981421043395236
-0.28454703588703834
-0.14414264470562896
0.020423431836681213
-0.08074088695303543
0.21233249476907867
0.10362805037416677
-0.21966693851562144
0.017410977158080976
0.27395461541227933
0.04129444575595587
0.03623578597680804
0.27395793779811844
0.2082553907340174
0.21875141107643462
0.16926089379644044
0.27559684429379294
-0.13820499051804533
-0.2079531851356937
-0.5197538839628583
-0.1665737653849025
-0.07400836807905803
-0.011530240124860753
-0.2513593968104024
0.19424945122871953
0.6930279947396245
0.34583534394117404
-0.465499614415423
-0.16644448056178393
-0.06531323482774655
0.061561792427449816
0.06160866459415033
0.37715558033696195
0.12473131742983688
0.2311491170447959
0.20798246693817102
0.04494117589571438
-0.012344099531626778
0.0027671092491437996
-0.3865408645003738
-0.18573395617309574
0.28673499711559536
0.1548600983178347
0.3311846592141115
1.1149551628839167
0.35141185824908844
-0.015077656274025379
-0.34770694860702767
-0.12208400535539685
-0.5059758073270119
0.194330761189881
-0.017556074208288534
0.09012370716669582
0.123073240866821
0.2160611933205549
0.20814095789071846
-0.2844321483502483
-0.13931664686609452
-0.3139303038019694
-0.21323571070433825
0.16342280926398725
0.5888519846006666
0.07149235108527287
-0.11487744118279726
0.7782977592563928
0.6908593726959533
0.1863246437945474
-0.09663472000956813
-0.15747005775535614
-0.022122382132942178
0.07875151801230099
-0.1465826704901262
0.05389448733123915
0.1276814372135122
0.21662508476490636
-0.030442589621387402
-0.2982385556302929
-0.37465263921646647
-0.24102284470921773
-0.2911876506050229
-0.13050391418181853
0.11660720318647894
-0.2280333902817278
-0.3319805357239093
0.2973904941067767
0.5353040282905402
1.243496510200744
0.808859498434063
0.41481420467503066
0.3615716005765109
0.047634539704553266
-0.060644934062711084
0.10043921717343322
0.1326301682584828
0.21315826255801848
-0.06001052262778179
-0.11956563207976216
-0.3196519173950049
0.1299922018833178
-0.06523702835090482
-0.3276021339568143
0.21627488002961037
-0.3154452806111073
-0.4192482805064424
0.4098400299440738
1.111928838366927
1.2304524798694996
1.565599010432715
0.7372493096307439
0.6500713477089758
0.2847875164178076
0.1537434803620332
0.10896834292351196
0.11871802355273096
0.21428846164020424
0.14579637343895246
-0.02928682349627743
-0.2545922117798576
0.29467089288346093
0.06147015188603142
-0.36151351848898117
0.12960736573403145
-0.2736018548682896
-0.16677519419154138
-0.21478962191281387
0.5896884483161048
0.6525207944333948
1.2234406479900775
1.567427062501402
0.6871531684131451
0.4718192098791565
0.22379888191769629
0.03794556209927874
0.11863925540108354
0.22198373493254145
0.2797949068437124
0.1022892711248764
-0.11100128711783543
-0.14663767946556924
-0.18709592434189232
-0.279074206312876
0.05022445339901012
-0.541871382213112
-0.5189600425859267
-0.37269423509718225
-0.05737227614799123
0.7545765910049634
0.7344405386273734
0.9812129965424529
0.38835067310200805
0.473066771574578
0.17443683202054272
0.17535941399872906
0.3561700859652876
0.22401735966336347
0.09732399068530279
0.16844315764041912
0.12990730121632502
0.24769754458789534
0.19229804108343787
0.15453589876317958
-0.04193124561793795
-0.5896606306126686
-0.45972835220647795
-0.15577903778952396
-0.4634134667854449
-0.009165783388515283
0.06474518639393861
0.19579048053905687
0.1493889489600989
0.4724310099421342
0.2508037336027555
0.15908945786687598
0.29435590881472445
0.1306359436856557
-0.24775545884300548
0.03539032906423187
-0.06712747675884642
0.33030601152939354
0.5890886531921183
0.5191518130018046
0.2657736974344798
-0.38281530656375995
-0.8313031451029403
-0.8245922210194164
-0.38560646678866733
-0.6531397245503814
-0.36022654704561313
-0.16785981418558854
0.10617042031736257
0.23467585656560191
0.045329192535164396
0.23703711819143206
-0.08643980835899548
0.04491571698137323
-0.1186607634633741
-0.3966607344530599
0.23586569383385816
-0.2772656835563892
0.45723262678131477
0.3612191554989946
0.012207464928700106
-0.10252442492282536
-0.05859050653459439
-1.0448952540884497
-0.47206534663194244
-0.5780035470228428
-0.30754063534478093
-0.428583641548663
-0.44114255318775664
-0.0917916709809086
0.03938510756303479
-0.06554196818308042
-0.09289163956994015
-0.17672228631910936
-0.16309716353277742
-0.022365546293873096
-0.1599306325471584
0.2339562770337151
0.3813993612503944
0.4537186610121424
-0.05165372383039207
0.0012930303494661033
-0.1849171069851012
-0.8986403601413462
-0.17060649896235788
-0.7090999774634419
-0.6263794257985867
0.07621487444396842
-0.09654744529649706
-0.06213299721931166
-0.3119241255959588
-0.2731093948072611
-0.09581817566695093
-0.11675909034033129
-0.13515797355217868
0.17953826500007575
0.2610548125630073
0.024227146579701618
-0.1023259661782103
-0.18385659140513894
0.20699614382171483
-0.06767291676037307
-0.044357248711145325
-0.19394845391673368
-0.35630001502124753
0.03296336387900229
0.07890333836770445
-0.25176723470479917
-0.5098493008527083
0.019127073170602298
-0.23537651606542898
-0.05700608621114175
0.048371677546280314
0.16920098163036673
0.15888433733033652
0.14604233080489604
0.42187274864860524
0.17483045350032161
0.2026806743004504
-0.14257566161706045
0.40556323554294543
0.5179351228730737
0.20321273998331196
-0.34787976492108713
-0.619464651211827
-0.7650227038013542
-1.0705520198178675
-1.2887556974904268
-0.7891303773689416
-0.3927121548217768
-0.2142367549874315
0.036934493827411624
0.07618309774937843
0.12663913490595727
0.08504880553317119
0.34797802011223766
0.3186810581506945
0.030591075825317893
0.4025028308756907
1.1195866065113176
1.0033058247665152
1.0089484056017695
-0.08536882351563428
-0.4766163231771202
-0.9510014122398804
-1.010539371614622
-1.480012904072164
-1.2816518991751795
-0.5931874970624027
-0.5097053330082064
-0.1687084532937063
0.08392242289004846
0.01265573225567731
-0.00015909591694109396
-0.022032713030766683
-0.08776502643545832
0.10678337228609686
-0.05667500392306149
0.4750054192059308
0.644656491237014
0.3390731937620131
-0.277560214810631
-0.5491413818358213
-0.7090367531866293
-0.8275453560623701
-0.3227880525932965
0.20699162302719865
-0.05035559102320106
-0.2047480331315749
-0.15062745521305124
-0.05416369657911852
0.0016341692721595278
0.022150913567496246
-0.052823388090462484
-0.0576703173916135
-0.0051227849206642775
0.06515702309747341
0.16232258526274002
1.2157746258128221
0.6527099270278665
0.11138254243290614
-0.3243968349918249
-0.20057904085818226
-0.2905853450599161
-0.32426949292418095
-0.39387424895040685
-0.8336198719151764
-0.4072871690569524
-0.3715009422836558
-0.22842349162160447
-0.14199875917232674
-0.02636632476971308
0.045943296823363663
-0.07471954137341863
-0.15614013597603885
-0.18905060932249873
0.3068386665709678
0.17218372814543037
0.06659242166803288
0.49670967697310897
-0.28805839822968893
0.14900215901899294
0.11170085510736265
-0.0749354089608872
-0.47707488630196987
-0.3043445100148361
-0.4253505526188926
-0.027460381306381787
-0.5682807913834957
0.03887979651066672
-0.17161620530075183
-0.1202499117324432
-0.008072584426784926
-0.025634908200554585
-0.01766065571115865
0.046422623236376
0.2756978264338114
0.20329149959723639
-0.21793994032205768
-0.3831699281354457
-0.02514370549758603
-0.02889327627912097
-0.12363297860560724
-0.031507112682298506
0.1662196815835292
0.029877925542681222
-0.3856581161016927
0.28984928930777926
-0.21763297381924884
-0.06179192515867504
0.09454039473133671
0.1651543178398147
0.10059424868282728
-0.015894509757260106
-0.09477829306241357
-0.17463985246641173
-0.10791207106724114
-0.16797934721304086
-0.38229186909294427
-0.18597054395431697
0.06843573344374602
0.2043148557460183
-0.08334845622665571
-0.40550905144048466
-0.5835329631599449
-0.3274454315893119
-0.15097929171615287
-0.427255028725595
-0.2431649302753115
0.013814393471807573
-0.04492865318648654
-0.049828302253926475
0.003181031376537807
-0.02816488711014109
-0.07919371132111058
-0.23332916345340857
-0.25828128712739656
-0.41060835161271825
-0.3235126282774236
-0.08504271578649317
0.07537527306000422
0.17160359065583097
-0.27272679276337936
-0.3644811462952904
-0.5036885363618434
-0.17898709718298517
0.4770565259336696
-0.29613684012028607
-0.2254957633862878
0.04651397404161584
-0.010838707784757843
0.03658020677582294
0.041010767326755106
0.013914668949896465
-0.045884323247436166
-0.21452060862581976
-0.3680528013701173
-0.42397760221824077
-0.2999305179228909
-0.2627894056344003
-0.1883827074488649
-0.06725994887740887
-0.2695828142709883
-0.09912507783299859
-0.167819494693277
0.050041306824684904
0.26020287702840594
-0.43344052101728153
-0.0511868929643712
0.014418879071289373
-0.16931147354920534
-0.0862169489305558
0.08956870623388631
0.028792249830733304
-0.036650758556633065
-0.20985012097523212
-0.2812423331297769
-0.1774936407427276
-0.03225564187887587
-0.2032136660501124
-0.1349354158217426
0.012103252314683085
0.03860170292671502
0.37907926829580585
-0.19184869281437084
-0.21201096450704615
-0.38359116640687285
-0.06380546355414198
-0.04445276192247412
-0.08167585612913976
-0.12470196010056188
-0.057852762727063
0.22673455849143745
0.02529026330286661
-0.028643851829246076
-0.18236584513695028
-0.09131576005971694
-0.018608095191032122
0.17035108287188871
-0.003282567264462534
0.30225340860863764
-0.04492646186312598
0.04325986967588324
0.2152780923190356
-0.56565075519755
-0.18348282519258502
-0.04214204140758473
0.18565836957216142
0.054697583338970464
0.2035989268259946
-0.12668601980535302
0.09177641254057171
0.15474667007010118
0.035930132513986364
-0.006345684263775044
-0.1691252221469357
-0.05255660661804564
0.1280077578568265
0.35109877057940897
0.173720229512965
0.16335321139573522
-0.028796437493946673
0.168095592190392
0.0011756716859499072
-0.47633178629797507
-0.14387936773351745
-0.16803874697740834
0.3983916050004933
0.18257884526714482
0.14538334417950896
0.04519773014554515
0.12715187459209426
0.1912125739309391
0.04859157009316907
-0.010171667046572599
-0.17367211512635794
0.008812061217030829
0.16812381512464825
0.34905871305053593
0.19404391625500547
-0.2333258018557564
-0.28806925176670223
-0.2658935927207541
-0.300015755915777
-0.599118027908221
-0.388709948365925
0.3870527239154408
0.5434954443958504
0.503988990657007
0.3250701214324807
0.11312841633896738
0.14675213689012773
0.1845543186177131
0.04192455654382637
-0.03697616957407655
-0.13303076433800093
0.022790928364137437
-0.05213556645308451
0.14295702953252523
0.11236678564639155
-0.171771194106355
-0.4525257738711723
-0.48271166975957885
-0.562887681141964
-0.7017262198230885
-0.6967293282167997
0.38227169912860265
0.2877921248507107
0.6188165768242899
0.4319540807152188
0.1092944821537634
0.17533669974527868
0.30105490731831047
0.04915135151796648
-0.04387829802387402
-0.09340959067948326
0.09331315522991525
-0.19619887989406337
-0.057333454762305176
0.10605600804143227
-0.31171545724516614
-0.2407712712244906
-0.4876801740019109
-0.44876819669702767
-0.8022641516516622
-0.48480896968385956
-0.023123560342634537
-0.005517498347834575
0.5666328927908155
0.46221099205262545
0.07433557910145151
0.15816481260183435
0.3510864389545609
0.017316115191064782
-0.0604251725587499
-0.10461069733441683
0.10313185943022003
-0.08742753432507619
-0.2723349852149339
0.35037952944699224
-0.354507344921213
-0.0688713219456509
-0.39017399774667855
-0.32257850516539793
-0.23326502073264205
-0.12707431389851906
0.11515356572200454
0.019159505560797478
0.6709122586759898
0.4277547703941698
0.11496018169813653
0.16821690582801443
0.3542275859943158
0.012307645221552359
-0.11209880943215526
-0.07519098870410273
0.015552541739374955
0.08456634720016305
-0.2621529827508116
0.11199872480463904
-0.1042255109981078
0.12682618185753863
0.0961318522514221
0.6381799097499539
0.6928021778552186
0.6522110215222537
0.3826716182692319
0.024082917480515786
0.4083323564497049
0.06673355924086323
0.14340214617187944
0.27383264750552117
0.22568471898288786
-0.050834051352039084
-0.09468345657897362
0.0030772157815585396
-0.22238419951258384
-0.5658651647678518
-0.018817153470628647
0.12428309423597027
0.2127957421637407
-0.06861609877223246
0.10474219399393049
0.6551026140547213
0.7333657390279442
0.5108572514968459
0.7844849873016709
0.39717529330312584
0.11906296728689558
-0.4390514179351143
0.21599116342116487
0.12209677202595377
0.1964637925409531
-0.023443007003060345
-0.21111869086100554
-0.2918214132048074
-0.10552387917728631
-0.30162550363765467
-0.2104367082494279
-0.3946862394691878
0.45642166698952286
0.43841263861291413
0.19699803015658893
0.18687430053513268
0.3849784799920459
0.7613813128663077
0.9279241380452414
0.9694250799958611
-0.16606319387749086
-0.1994408707122868
-0.19698255560427466
0.14344399461086227
0.2042960339582116
-0.006083892052606754
-0.07939437218801362
-0.01028312566121914
0.20910669759543155
0.22368676516725142
-0.03783645481326322
0.07589547177454713
0.3292973373095843
-0.015661108221061527
-0.011768614231137961
-0.07966443209798779
0.14992535989360253
-0.048063758419890426
0.06957682700324629
0.05298547785968601
0.41272532233355724
0.06378083892155384
0.08591263523593667
0.10945974925158111
0.12542846172999078
0.0008400986746129622
-0.07787708363846181
-0.05704396063657632
0.07602150976200683
0.146295264092602
0.09859435076444507
0.3130649745366951
0.34335903124666106
0.1171842956302839
0.03505785753749805
0.035278478155814606
0.20290297928383388
0.176390051855847
0.12008901744122111
-0.055595205717864395
0.1094269013198291
-0.11190357132611112
-0.04444093634870131
0.03469391554698035
0.0444453275362439
0.008138409594096363
-0.024637563373159588
0.002361801525050649
0.08562639215132911
0.10026113526251194
0.0848210974396535
0.09839533956409185
0.15110878067934197
0.12500499428074482
0.054849641240206734
0.0440504916201537
0.14723267185689667
0.22267074786475982
-0.0023409936338255927
-0.06652564542864486
0.01182348140805304
0.0671296131293024
-0.0006132918071082271
0.015524773356913749
0.035999861529240694
0.03318957538078992
-0.009958692403473954
0.10152358604214336
0.08654851757976711
-0.04917781652495537
-0.043711286930509796
-0.06027838494401666
0.02137434015236012
-0.013582436622935195
-0.007282933429544922
-0.25266668839933015
-0.09584657648340715
0.307335637705706
0.07654577404378707
-0.04687809547339166
-0.11371754302818479
0.016160260407181146
0.15195672566078652
0.08941475398098359
0.02189139623168817
0.004364100183129484
0.07534306405625418
0.14712942918610014
0.23940061352186254
-0.30124515053212936
0.15811078379472754
0.23876475492675855
-0.16094830342537905
-0.20363951214808207
-0.33481180279860595
-0.5901195365636659
-0.5734952452495864
-0.07944415409397818
-0.3010849467294525
0.064432314003628
0.0441937593282713
0.07790362370222792
0.4096167229244517
0.2321111280547594
0.03175190442788462
-0.02179378769940721
0.09227287995940521
0.10699272168759871
-0.09650783837219412
-0.18872523251592013
-0.264180579024707
-0.19368375479292688
-0.48258272260413115
-0.510586144396123
-0.4872988524458741
-0.12251851985020394
-0.20149296472166212
-0.04338439795592063
-0.26969906364884266
0.18340956477900663
-0.4519879188983369
-0.11204291525068491
0.042057995739213136
0.054568875326718724
0.042421669997262594
-0.05933210750708448
0.06329035176881546
0.1844514004016012
0.09192212365647162
-0.17032646140474422
-0.2819274343271183
-0.14815584041192734
-0.18433125872945794
-0.28350396218225143
-0.169818563151457
0.30570073020792404
0.14527113976654643
-0.5174703154097132
-0.314662948291512
-0.08698494125513173
-0.16748104743839595
-0.3658743757372334
-0.1002468616581625
0.04790834282114962
-0.056854764706947836
-0.0883700739575347
0.01877142067913829
0.16741552624905828
0.13947051688749273
-0.02371590137370116
-0.2674322971324342
-0.01527388403442756
-0.023648740673307803
-0.29290944132245467
-0.04673295210975576
0.42530092746332204
0.42261559942364146
0.09291382994467363
0.026555848639253577
-0.19299462114200241
0.100340132927209
-0.3692924028636272
-0.06875381257948848
0.1952487008713232
-0.07310147455361675
-0.15604746702367217
0.020352574215995237
0.20402162183741085
0.08164154408439721
0.15236801691804072
-0.07042242949902139
-0.042369040143415665
-0.0863957334721785
-0.040123599741445554
0.10966477705837191
0.5541848138671971
0.4124381325242476
-0.15937603593505997
-0.21637415972741908
-0.1903840581427837
-0.014939117996411656
-0.08327375309242219
-0.10288553488847123
0.0524896888679266
-0.14329194893614963
-0.21926589682010245
0.021257195623495338
0.16519639164657482
0.12037828341824028
0.26826646119853836
-0.011340322543044014
0.11200624363219737
0.08733715928805716
-0.2497189416997254
0.06027992906057733
0.4867326450318644
0.05311803920821437
-0.2131050988480093
-0.11756714912651349
-0.07994707590688502
0.42901707769513936
0.005790044289240145
0.05096585706158332
0.1400109875103659
-0.04955921227630268
-0.24109479302909723
0.04073029515496751
0.17927982528420092
0.13296711725220162
0.1838672670047679
0.014033776885200334
0.08815494996610906
0.38486722086452013
0.1855173863562157
0.1708634971079115
0.40730986066125413
0.11635665272736852
-0.028205387873684033
0.10409538829288832
0.12249502658329009
0.2129656054665984
-0.006191276704284394
0.2718002230526839
0.10089637789306743
-0.0731099640592769
-0.1680917717417696
0.038949201749098425
0.17606387190839717
0.14555253006058966
0.14103694235966172
0.04304305519698776
0.2687663096685594
0.3143266424638185
0.4035947678872741
0.23407287648314024
0.6016278627854812
0.23687321218385737
-0.20100475131789033
-0.012083573992332935
-0.18528139473033897
0.09623039817302538
0.04914633855502741
0.09158471565127509
0.08469854877387678
0.053867327710555656
-0.07922034598120226
0.030569030542562922
0.1757633752323631
0.146638209928421
0.14813465380214436
0.05174661167580243
0.19196594191573374
0.5636613579727565
0.12812709384704013
-0.28444664274898884
0.05333996957593647
0.38808709137831776
0.022038407383620305
-0.3005343483295149
0.16622450502037306
-0.07556459400209874
0.047601643437353215
-0.033356453551885386
0.18611222210497433
0.03778453115567224
-0.058628575009262184
0.03160270587678178
0.17379220992073843
0.1668057295213274
0.07227252859884041
-0.0050045111416120785
0.13942026916303196
0.300523386787829
-0.0031969966507592856
-0.23889697259849157
-0.005416849616497849
0.25048368273324084
0.1425041363176317
-0.09972475671027554
-0.1915200589366387
-0.26669715522809784
0.05792766281861808
-0.16726711358459168
0.0770406298701513
0.03228115830602769
-0.04750336905659949
0.03665982453471097
0.16401384995921076
0.14115437944418113
0.05910552160938233
-0.03443940833615871
0.06968937268552182
0.04808809894764669
-0.04257351522049095
0.11402004229939325
0.11297210790757412
0.31950302603393005
0.49736935824023437
0.7985559283197439
0.5795047328268036
-0.13084754309632535
-0.43860551393183045
-0.2706769606768611
0.052160293146453096
-0.087080922341379
-0.08468457426918911
0.046813659926332206
0.16575020133599364
0.12499839538986096
0.020220350929060906
-0.12317877399411438
-0.36890451657689793
-0.4473359064229703
-0.052812917978705486
0.26574258822689034
0.45285911033045045
0.39129184553073043
0.6271903248239321
1.1605479489342105
0.4623558681280178
0.14937346404966642
-0.34428160091444293
-0.1927890619707807
-0.003816119327433017
-0.08299631392922513
-0.2696744438253788
0.03881594372560617
0.12768341508905942
0.13662790491655652
-0.0628902368876221
-0.16509203203916215
-0.11386699732262322
-0.3101922034658715
-0.25665708173235297
-0.06098296630213843
0.11982913891203034
0.13141849298424793
0.5264996497694092
0.5391322774696377
0.359016623398414
0.5746090330499005
-0.2680381670477184
-0.18080897256045972
-0.006774345951778732
-0.0939936943938723
-0.2610598423767993
0.059846538352707014
0.12068961550063884
0.17299025562447176
0.512947142774651
0.3708706728207514
0.4366278722991674
-0.1152030493901562
-0.5749707081496299
-0.6509849581701954
-0.3982167431105217
-0.749294130207343
-0.1424880212757115
0.2978923535370823
0.4002516135698549
0.7041424974631852
0.5063334721746465
0.48657609307723393
0.18155136235609412
-0.12988840914521754
-0.22935743368213313
0.06005149296043829
0.12371881070856867
0.25689525140527336
0.09562215845292651
0.5043661421015865
0.08013658210604725
-0.3581329540960182
-0.4808485638364351
-0.3402603595650769
-0.6974837501546366
-0.9725977794296057
-0.18546840080356977
0.04837659252323751
0.12062009087131012
0.4603634771352863
0.6118793680967635
0.7313757389709259
0.2116896749511535
-0.12226163807143108
-0.21144549316641936
0.055955194092152896
0.15979760458198422
0.24594223306344504
0.16442939476422666
0.6560684177272985
0.29237191780054655
-0.458591597908921
-0.6820005628956146
-0.31172715186806593
-0.693790160769832
-0.8148286697686857
-0.030073487930406668
-0.1415420503124913
0.22459571161888434
0.6655673081923212
0.4864656348598479
0.6877606220994504
0.1740806714562257
-0.11680965048936198
-0.18789819038008274
0.02154373487804647
-0.048390328549288514
-0.0395665292221118
-0.3479396832035206
-0.14719331587975812
-0.09748448558683867
-0.5126836447015906
-0.7830906017813686
-0.5542133524293641
-0.339554602728037
-0.4974947286452908
-0.5658684140560758
-0.17916095630691062
0.05895212947957497
0.3256612303801691
0.06626315656600136
0.20058205671140802
-0.007965699057538553
-0.03413321135880523
-0.08700345146557838
0.005402408957418583
0.039007160756135834
0.10873584848689478
0.1255912368634328
0.07486841502431525
0.03844283430896022
-0.47750259559282465
-0.8421643425589451
-0.6988732303665111
-0.42326745882964145
-0.470849332105509
-0.7440186778514848
-0.4205438779320088
0.057759546068639325
0.6108657838067831
0.6803503268044732
0.30413001631588826
0.11800012927909147
-0.006005348100864438
-0.07960814107568662
0.018481102233253482
0.021740872538453804
0.03995835557643208
0.12542209600468404
0.08958149500382213
-0.06482721723871902
-0.3605870875707392
-0.5353426579273808
-0.5627398711948979
-0.5471569836171152
-0.40220998460941826
-0.4197994499970792
-0.3797918739672748
0.1119696482962768
0.320561839032045
0.34823530096601973
0.06289432657590303
0.050080986176834555
0.0403018865502848
-0.007898908415660736
0.11035196405899346
0.003315817212575239
0.018379892249970105
-0.08191697571809235
0.1478428582445876
0.31258174047673376
0.3034554791052836
0.2078876297183901
0.13117740935961042
0.015598788544064424
-0.2070748733989061
-0.25634897551769864
-0.2667569553278508
-0.06605553425484459
0.09639672266629606
0.4876340814663816
0.3707818879521784
0.07872802506917481
-0.1318528539451664
0.10489823005320568
0.14912285550698373
0.030760855849246906
-0.1864717847662565
-0.051221055939868185
-0.25180504759398314
0.344833759108696
0.30529153054253927
0.5016203456586542
-0.1818343333089115
-0.09306034338897415
-0.18085595233898505
0.08666759164697649
0.08829491245488161
0.23605906527193105
0.3439967186193559
0.28131414845017966
0.23171550292476714
-0.43924791059888424
-0.1559096450610382
0.027802567329134772
0.15269947360556052
0.14713959494475123
0.062225306552266345
0.4292213466885416
0.18868485692416773
0.4671280493907504
0.20541266461141142
0.1644069650005795
0.05543509444518812
-0.05696077194801456
-0.17953220413351959
-0.19384879549050435
-0.11805865853172745
-0.047104100822648834
-0.0824097398683164
-0.03438287649266669
0.3141228195309876
0.09280634950077847
0.046012474105002685
0.11521750184118922
0.20704389766342346
0.18766601999978275
0.05250862617355008
0.42116962093085375
-0.02434378547449063
0.015695950934295256
-0.231838434905725
-0.12679892343098104
0.03462452189872097
0.05628066489594819
0.2501377542106875
0.248139822728409
0.2670305265531112
-0.18820053028497644
-0.5381094485239281
-0.2046423960936796
-0.12013272810283468
-0.0231862642284767
0.051815804416776266
0.09503125440996395
0.13962754536997043
0.17154305500901068
0.14804024991852532
0.16058905609776322
0.0361752012795112
-0.05328606369031125
0.1618787710252592
-0.12393827363963389
0.19486216893386443
0.03117288797736334
0.17934317337670425
-0.08163391806252171
-0.38247887675748166
-0.7670614621044883
-0.5680800423299671
-0.23759494384538932
-0.44322199587946176
-0.1612271978630941
0.16657881853086204
0.021027940670320752
0.24149306007772628
0.155874422143821
0.06927447834445703
0.09295169725656845
0.049031959805828626
-0.05437622221472103
0.10452172779941012
0.1900907688923445
-0.19868134912675042
-0.1564418718486456
0.012866012202535039
-0.19505812110953943
-0.9121231013711443
-0.6281234926957883
-0.3975086537393623
-0.30246504827881115
-0.41307514053966926
-0.0077057294777557175
-0.13554538160083718
-0.0480747132772668
0.1806668809296625
0.10554524551910834
0.04517430753365501
0.0439266575859067
-0.047036860146609245
0.35558464620878616
0.05780024755616369
0.24575183516047372
-0.06165592413750552
-0.017971972354310008
-0.03254881028896649
-0.3330873182687241
-0.8011878213583695
-0.6350182842461587
-0.3855795248579708
-0.7281351635077578
-0.466904283201292
-0.19461707588584923
-0.2497733285184548
-0.08057741438387832
0.13170757162894858
0.11954323842637178
-0.06261201914033902
0.018925052371704033
-0.12357141633201808
0.3214914427431103
0.6192254560834085
0.12261227835929955
0.45451074233469024
0.3970045403645952
0.3244977721973746
0.16710155097942025
-0.1813403692568928
-0.4444078756236061
-0.4631033890608199
-0.6013365358229404
-0.379407592094456
-0.4180333221852264
-0.41093171176498133
-0.1062946049834108
0.1325897450284666
0.1328775160330241
-0.07204833224033202
-0.007304923505296237
-0.009346280822182234
0.3938841249686111
0.3794568622480463
0.28858348686855617
0.6866792021220371
0.5964394385368077
-0.00712930536797526
-0.1246325556544866
-0.04509785994287091
0.16954838870324987
0.08345842918446283
-0.06707781219434028
-0.10799615560739545
-0.2236612581445946
-0.3147317220200471
-0.10927149090978737
0.12872631714744945
0.11973356092722943
-0.08393175181321944
0.06927729567415669
-0.03922725022654394
0.3936061799770989
0.5033999456371829
0.44747190545492715
0.3928318042803006
-0.18107274445299623
-0.20929807217530305
-0.31421234555058253
0.1838664727233973
0.5665300686448232
0.2578680257757673
0.27410271266620706
0.013547273590974651
-0.17872161746249704
-0.20415578142603594
-0.11652772329245277
0.10388589639520968
0.07200007936842802
-0.09205659628132892
0.07383109299960226
-0.008212211804831553
0.37932150772016365
0.21218201439758141
0.25525460759110136
-0.053382913330141925
-0.34883053650322954
-0.40659268712208946
-0.5228214544233555
0.12947381711884506
0.297989612819001
0.3774690444136019
0.18817492039504394
0.3391840040705645
-0.13619283461813111
-0.14015391098358493
-0.1111741187482036
0.07320877333000042
0.0373336283642848
-0.08141182885497902
0.018075327311987882
0.0020329837206379845
0.17043354185642867
0.016108710119366328
0.07579952113612753
-0.07998971644869533
-0.3373336994681684
-0.26123290640276897
-0.16869765190289404
0.35506083518065445
0.3342260660758551
0.07975159448360773
0.259210634571236
0.3752236407261754
-0.12832839516315922
-0.19483184922252642
-0.11735079075723795
0.0434230399628595
0.02230230479933376
-0.0923487996220273
0.014140178762613228
0.10391258405291016
0.023572236992749337
0.0033252385884830014
-0.10827260060275269
-0.21764185208536962
0.027519781802515447
-0.08737673742301252
0.14432635697008067
0.14006649643912247
0.048014326499901054
0.047785006284181746
-0.09096833257430137
0.16140611261690332
0.09355732461520881
-0.16184485445468436
-0.1331145854531085
0.01621063422881108
-0.012055726464943213
-0.11701513749945551
-0.014352727993990283
0.07817174464244195
0.08644188505591258
-0.45403867932745334
-0.43390339966531466
0.21757296458656158
0.15309651578761527
-0.020112908533396298
0.013124772899088437
0.304528674901405
0.300948280670763
0.038016996677045445
-0.10688376052360332
-0.10588346942482278
0.11405272745234146
-0.18288346035410885
-0.11171229454311424
0.012190340958773391
-0.04142286014913236
-0.13388081330145044
-0.3615353438230641
-0.3432271042374621
-0.14762345118906384
-0.1320492198968316
-0.05832799323070193
0.20237723931245302
0.27724023489042193
-0.02742270369267777
0.13673659819181289
0.10704352376113443
-0.11120370714547141
-0.1745397492434135
0.019352968248109833
-0.08814511245190672
-0.2196464962199409
-0.2171776911971858
-0.08737156015193802
-0.0009154415842639629
-0.03244806594850596
-0.17304170735092753
-0.26197802501525813
-0.2007427772207292
-0.23628221419968887
0.10134092179226672
0.09794207212993787
0.04371378907486655
0.08458112222054055
-0.360136991285077
-0.10911347580412904
-0.11499689853196711
0.010643497130810932
0.14596427931114075
0.23706019025370295
-0.03483155422363776
-0.40868719983060997
-0.17762235449520533
-0.2603117058153497
0.04948101035063625
0.1007539669555858
-0.10915753393366565
-0.33434833761542887
-0.2097115876985903
0.08061649417278466
-0.17606007033837262
-0.09207970146296998
-0.024086072437595623
-0.1599348304069643
-0.12794439314477596
-0.14998174889775517
-0.1875546557190193
0.1210808165031837
-0.24787073057739772
-0.004201172108895068
0.19353215785140723
-0.20897859366628452
-0.172786127213511
-0.027847771645892607
0.17982932885768593
-0.004265851766552495
-0.0833575598370429
-0.07294761292880297
0.05229154451075472
0.08233746239625776
0.11892408279227472
0.07506167883327317
0.1905643428583097
-0.02151520173009205
0.03799124269243761
0.026421659942828503
-0.003163478127384282
0.32050898251857446
0.36514912640564295
0.27200538311498107
0.1110996144971227
0.14988058514300398
-0.15767397287124985
-0.06528331664053935
0.041365913268120974
0.044773464408573896
-0.034081498636422757
-0.12321712886641956
-0.006216117254775685
0.03509348201736676
-0.0363024160133507
0.08040196753374006
0.17138688372039934
0.05232668438550681
-0.12316347309814867
-0.2905660350504402
-0.00466099463451642
0.1526923407256331
0.17340335833617943
0.22754258685392909
-0.11973064920902418
-0.026664323556994024
-0.10712500974647532
0.018652493918411672
0.11785002959031206
0.06711813120882938
0.04432104248818243
0.06293804083997764
0.11997553799351589
0.13649180442263575
0.06575285767752505
0.022883901019184444
0.09993909685403461
0.12642428113260554
-0.0067608817027708535
-0.05707020138176656
0.053273251449317445
0.07405042412703818
-0.047398659457896494
-0.02351199749639936
0.07001113631979992
0.08594841275782479
-0.023682986365014296
0.0401877074273044
0.1331529607225525
0.11398982337177894
0.0035191975418435023
0.11945550772794937
0.1818708952935724
0.06489917042118472
0.06032061615769958
-0.05498771997864278
0.08515145218750907
-0.03470000126251948
0.0065241444556926155
0.14428912335348248
0.17950207046721794
0.16947107559771665
-0.06951817654505688
0.0457964589895945
0.024504636772923832
0.015349847382194705
0.11288943309659122
0.16685064241107872
0.07974041511267384
0.13819795875103777
-0.02762927667800399
0.03527031772757847
0.09522564820492486
0.18194058033757554
-0.07799805852326279
-0.20649671530755911
-0.43180755121456443
-0.114955243303066
0.17910253386159644
0.11175070211748836
0.05617100359464353
0.3118590784627835
0.10888116122417671
0.22103099904432683
0.0543367927412616
0.19236057837928477
0.14236464805818078
0.12886926900043677
-0.024054242140817163
0.00830665794937239
-0.045691777381165706
-0.1179297975362741
0.00779298035451316
0.1824423197448847
-0.13295378534264934
-0.39584443587018125
-0.4920422419332587
-0.12316577498560999
-0.13002421271988412
0.11189158772917175
0.060254691678730994
-0.06149999517665035
-0.14097561319197235
0.3357353531726517
-0.22922333925986127
-0.16269851040859112
0.26199527631240976
0.06597228054151141
-0.12119831364940072
-0.04116112792765714
-0.005805472227524879
0.08994398523573754
0.06904288063945806
0.13682887640321337
0.14026586402087446
-0.11906188252546075
-0.2839112681041637
-0.21146361242288486
-0.16754318479249422
0.25763445173082566
0.0432610606293796
-0.11836332029552891
0.19785675111762208
0.20304679320778815
-0.46980685573637126
-0.14486187719763213
0.29975024680245155
0.12878895601964743
-0.0069409753060652194
0.10222698026816548
0.03443373211499333
-0.013793900396896106
-0.16359105534896803
-0.12105138655916291
-0.025865371351775718
-0.16944736935628368
-0.1966736124005052
-0.21680447297911562
-0.004460530159567336
0.20428234769369533
0.28273532394153494
0.3068882574763399
0.40310881755568867
0.08640386054884826
0.11201837845263043
0.2948553597110443
0.10641731557646857
-0.2284546567620771
-0.12943631654153923
-0.017349754103122467
0.1112406151892858
-0.0525595892062435
-0.1542080611497824
-0.3511448020838306
-0.14654453575932141
-0.3886003360508695
-0.48249336190935066
0.02463858859388603
0.014179007869160869
0.2784155071424989
0.4015787277420179
0.8147785524093397
0.4301387724253375
-0.016226330515304328
-0.026991018167069333
0.16283700839252188
-0.12291411848093999
-0.1989860223921243
-0.08414083903381676
-0.0033164330824572968
0.06634719820640818
-0.06035645048133419
-0.14886780503385208
-0.3373297354882149
-0.4039412846180876
-0.31952299464567124
-0.3534481213235157
-0.0027054718570145887
0.11841872879220648
0.11437715740943415
0.49971952709923784
0.7800513101374588
0.2775459612739356
0.20719780895077758
0.27249420292811877
-0.06411137731976572
-0.11762063799220848
-0.15033133209037425
-0.04973169310123729
0.03943592840519691
0.07174203787460176
-0.051252967069171956
-0.1535601129677207
-0.32144585603630416
-0.47359278924842463
-0.5881062920946095
-0.16023184470910756
-0.13639169969712558
-0.138197181577013
0.20225253855127032
0.23159054437179438
0.27535922838693533
0.19351778701794367
0.19376248129876614
0.21683608831486195
-0.18173395877809886
-0.1631215183809782
-0.12369624635667219
-0.04287080305958329
0.0940096116657158
0.0693412737675646
-0.009672741929446347
-0.1586178719139632
-0.29304892182666303
-0.3987416525036492
-0.5330682366696692
-0.2987177167543257
-0.3661016942489723
-0.22767783764396862
0.41727051165893403
0.20907139779954717
0.12329308652291952
-0.13946792937880906
0.2591519702829268
0.15340650828879687
-0.15602435698747924
-0.20283989790468138
-0.10663726010266786
-0.003746877260202401
0.13102488928635103
0.06764597812915409
0.021044598119228545
-0.14581146041026327
-0.29851127656561977
-0.4070384140537097
-0.5215144238355527
-0.45402280348840557
-0.383203648268342
0.09906736744004223
0.2660584640988003
0.3827441758461754
0.05157164479500096
-0.10960239022748197
0.09674376614652519
0.205343838672716
-0.24606198126878964
-0.10894152145253364
-0.03534978110334876
0.010639456992939554
0.13503782514288
0.05584877235765072
0.050287303856513414
-0.11604058826117059
-0.2267014600034392
-0.4145956933458734
-0.4114285277434993
-0.4125892429001708
-0.17205463234645682
0.07544475615947864
0.39990227249490445
0.33474751202527286
-0.2977296170427205
-0.2699624528308851
-0.08846089774212919
0.16061515300628612
-0.4230577198767442
-0.16832547308363133
-0.08217032683786882
0.05627740922915852
0.1349274006458497
0.06017250034014071
0.0401189255810459
-0.11832668495253677
-0.2096147470312972
-0.20968755482061235
-0.1512791732622747
-0.10992412563347741
0.07115658235644472
0.03113160575265687
0.24693056692364612
0.15727269243311087
-0.3660721237502629
-0.3490938801549489
-0.19429458126787888
-0.3339531562811108
-0.45024520992990696
-0.11271316893889821
-0.08419792873867628
0.05452293822007275
0.08054579349392613
0.07357285544041066
0.04809659875928707
-0.015685832364651032
-0.19565216479503686
-0.0154966219303445
-0.06506063802871086
0.22725464143765628
0.12087107203797139
-0.44971140165856094
0.0906639294463303
0.02786506323219215
-0.23064587138429454
-0.17355446322834395
-0.1859325983980837
-0.22541756409116395
-0.33347581263301485
-0.1195886687315395
0.0057233232335335
0.06675297951872929
0.04726601830462214
0.08420768407971485
0.05736848930901312
0.0326010220238835
-0.042848822196896494
-0.12749744492419385
0.22650272020970724
0.33665763754086236
-0.22911224449578016
-0.18360854043273728
0.11639775562775267
-0.11540562058826442
0.001840590611031001
-0.06959264541995255
-0.3040303221934111
-0.46335910190662183
-0.3912129451123688
-0.04925481391873324
0.056894969712379756
0.05488088235712658
0.040996368227396086
0.0744140279988851
0.1882532997067137
0.3637798615447025
0.26057109206569157
0.1774330312671946
0.5855645182812803
0.45124461632620017
-0.036021417977753066
-0.08240780611606467
0.008649062165350375
-0.2753565061643336
-0.158716821993237
-0.1796656277171446
-0.4598632224208693
-0.6579855758208442
-0.38606967033949896
0.3340880368438921
0.12188089499081084
0.039400567465109025
0.035681321636521254
0.103850180109402
0.2180884778871444
0.17025057580622244
0.15393371027163993
0.36518260128266217
0.4409990008487937
-0.0646948128868413
-0.008070022368974887
-0.19321425386746294
0.13232479126891544
0.06871881899620153
-0.46042324425630565
-0.40698485039578547
-0.570870930519322
-0.7164137498956102
-0.3616911026486114
0.21713923597060644
0.26605636771938385
0.13375514859404083
0.04396596735758021
0.11966541225430637
0.28516731512625404
0.3251304709133251
0.22158502676535624
0.19934001367110363
0.21874460741124424
0.33968582093633204
-0.022114454872270532
0.046585675485900195
0.2857551553727864
-0.0718084322949915
-0.333922828084219
-0.18394020359479463
-0.43293392756986915
-0.47233860827111435
0.019215524652920504
0.0944735705769767
0.251625212574167
0.18594417316269846
0.07587922573807619
0.12741114590884506
0.165172198451728
0.161921590299595
0.12225332991979682
0.24620720078123362
0.03280385772174014
0.01995076272370017
0.0232924160440861
0.05731572811833516
0.16387819255664918
-0.015370867666318871
-0.060749499161028245
-0.1752331715852325
-0.22617389883613823
0.04321074898302712
0.080169364503064
0.017691467082143864
0.17224820469396251
0.17333030961078938
0.16170522487482172
0.11193892303620472
0.14844869943788516
0.1785614939629111
0.23487819596378198
0.3042750653061428
0.11012856722435627
-0.10069812109639753
-0.12774871609570795
-0.00985828276259684
0.16917965131271784
0.07373230373617715
-0.11521737273053191
-0.2405707823982578
-0.36207455410986916
-0.22377921625295494
0.06659718115650505
0.10145351829927114
0.15071815553664863
0.09223375140389675
0.14041482709385156
0.10800679302104005
0.12362070378521996
0.1590592481970973
0.15470670687179533
0.12275746465593626
0.10780012641489105
0.059945406514291456
-0.01434973156419299
0.03506459090452839
0.0940746811018476
0.1908499790137434
0.10312614468980448
-0.07302821481695532
-0.042716179738844215
-0.01394764688085866
0.06406307284206512
0.0703343600733424
0.12982020736203903
0.09234089995684579
0.14135163663527112
0.06163144723017636
-0.005674354093923726
0.08202567285264564
0.06053366265707165
-0.0443523300962622
0.016583178016300985
0.12480464808055403
0.1707735112936563
0.1545475066725785
-0.08211225958707874
0.05169875029353739
-0.13650373164925353
-0.0681872166139984
0.0692565948254602
0.028383519224079945
-0.12572661375058122
-0.10244845479806869
0.08972469546074796
0.06158213935071806
0.07012046797808999
0.07254077244848862
0.1663917270973757
0.2635159628676808
0.40708968907235715
0.4263277645783172
-0.016233896322952576
-0.6617626181459653
-0.39237038932701584
0.24989177506263557
0.06497094563990792
0.3322152613173937
-0.5677851478007516
-0.5220974765270707
-0.9547269155926548
-1.4016215578613185
-1.3250743044430198
-0.6740473031690692
-0.35295118927770036
-0.0796907636081232
0.03122344881878336
-0.006931348862055162
0.1125100305213837
0.3332607404198475
0.17620229506293084
-0.40352783989446356
-0.9057837659052991
-0.5805840201699024
-0.4847313573470784
-0.416751572101132
-0.05162506273341987
0.01582917662726357
-0.0008265299398686682
0.3693223250119548
-0.5351022014777796
-0.6771826155281149
-0.9361987336016675
-0.8185376281828204
-0.6838847995953183
-0.033483343035324825
0.04455220163063978
0.023678171919376347
0.050142595245232145
0.15332898875266962
0.06488885227827627
-0.5931696361009737
-0.6374465125625824
-0.3793013363252144
-0.3360978881416929
-0.41928323074285057
-0.06758809481511503
0.14177762003418223
0.23142094983135728
0.06765439222309841
-0.14498616930826333
-0.2837360017074514
-0.8492914895768319
-0.6281131169903394
-0.4894269850865492
-0.15256619035751173
-0.06433425365345903
0.04252934737973132
0.014823243596072944
0.086268338257881
0.06789226866604553
-0.44367302342712434
-0.3039600235779215
-0.33926827698747314
-0.3470420784619655
-0.40987457773123803
-0.15191305312682205
0.2943785629238184
0.7556734141984947
0.46503828679981046
0.1872473565971471
-0.20969133684751745
-0.29737028978174823
-0.2774446000560728
-0.36027391768032785
-0.13156697431774614
-0.03886368515571596
-0.04668274222272236
-0.00036391389004864546
0.024088965322801588
-0.11768663273357699
-0.17283626602038035
-0.18471754172153868
-0.5286070848720301
-0.47361488833343185
-0.22240805778772244
-0.24521358691900869
0.6435532661530236
0.6101106911791733
0.4602058642521644
0.23333762210625522
-0.38755359129623235
-0.09238154819658873
-0.051612734116356924
-0.4088085838336897
-0.04761964874434136
-0.060292369254340554
-0.07334493801855414
-0.009252071550203578
0.008888113727380407
-0.11470960185764321
-0.15430825632927242
-0.040832345209160674
-0.4023968558195419
-0.3458861387720612
-0.2585820367622914
0.18107538007485688
0.6478582723689232
0.5426599329813034
0.33043058975546596
0.1088648526229114
-0.11179887389519412
-0.13341628416587892
-0.1942422987544306
-0.22584846887887988
0.13628635183772628
0.06632022982433593
-0.0799880755045524
-0.01104759452236061
-0.02482006092058053
-0.046942928448503875
-0.23497464921853328
0.053002707807312394
-0.23325240761868724
-0.22222670700753772
-0.2367753608123866
0.050195574535174425
-0.28161193973436427
-0.4215836055304643
-0.14643567844913308
-0.04866504201586805
-0.3035177050851494
-0.21994739073060068
-0.2862299992651512
-0.17211325904938776
0.07795185475301512
0.039830513355319334
-0.06691671023992735
-0.009511152367432971
-0.021768779516086082
-0.080065603697786
-0.2547020703341827
-0.07105048619403087
0.08237733078650722
-0.03300252876190809
-0.5918576270989667
-0.2095468104031958
-0.6921582680224181
-0.7517310744328823
-0.2560705589986521
-0.6844110882843992
-0.564215415489341
-0.4019413181009639
-0.15599752909043327
-0.13261563080542296
0.0270514109701141
0.01763974609084757
0.0612334643758015
0.0039910031219194215
-0.016359487408969534
-0.055394558877581795
-0.284159342459424
0.009935281892457789
0.15324575807399904
0.1837150653252256
-0.08088596902930237
0.2504057062666378
-0.2753953737502004
-0.33588806802003135
-0.046582458596447995
-0.45361993651453836
-0.4386644538701768
-0.4426451668638807
-0.11183081105598809
-0.2024170223715694
0.0067869419041874275
0.020625416897741222
0.06234608234946761
0.005010388863205433
-0.010111441047985514
0.015232586413329129
-0.16375030706673485
-0.04769212932206046
0.19223597888337338
0.3062934559279428
0.26633169918790417
0.7249252411445162
0.053540339800103115
0.17271277476624952
0.47267966330213446
0.4989513949893582
-0.4758780824318875
-0.4120799089415302
-0.028643440501837886
-0.2594321454440955
-0.022064394769475037
0.001810102419519408
0.05024469747650369
-0.0011305762453858368
-0.03009298881633971
0.01428993874466809
-0.21738900312357623
-0.032455370208434677
0.2232067151359134
0.36894588770694503
0.5085289934975395
0.689547272446941
0.2868229356231624
0.5391742764583606
0.6030919527472607
0.7272352951356658
0.29182722114259024
-0.2590608631410237
-0.2169203822220306
-0.2729444795290861
-0.04032719063232332
-0.007889067150446698
0.17421509992302883
0.013188199829512196
-0.036412448509762295
-0.0035967556364542175
-0.2076655288529239
0.0033554721217563224
0.00928799515716753
0.2600685470615597
0.4036507360518084
0.21471251275090844
0.305964656457816
0.3742737988651491
0.6929120427534055
1.0356305171983708
0.6479929093430108
-0.11745098464505332
-0.19804585861378732
-0.29014228297457006
-0.06107961334048964
-0.019496604766176737
0.08133641238787928
-0.012444641572396718
-0.031882821341596354
0.040942323880328424
-0.23368825344470162
-0.1746323809109767
0.22404020672607855
0.1769255936399476
0.1029306648883176
-0.00770355284236144
-0.06269065748641786
0.20612534032051932
0.3400590218481576
0.7685201302760801
0.25508166189774606
0.4595212620130137
0.07996188827017263
-0.2440902801595905
-0.0872131072605707
0.13483168557265549
0.07638222901238997
0.00041655530686868914
0.10716626160141302
0.2313695816969511
0.45177567412983743
0.11859046799895503
0.4921545705464049
0.5828179013627565
0.44836331024883974
0.16237163212221278
-0.1704207721228547
0.027038455797595777
0.12795743353092
0.5795367409004516
0.26242539333639175
0.6783628393336546
0.6039648744351873
0.19496954620732254
0.005417687611570771
0.06950244719461626
0.0645334097122698
-0.016662853204718074
0.08762606016331703
0.2824212147468765
0.26910931319861364
0.5092965199183598
0.5086109775642124
0.2157442695907326
0.20569332806662374
0.11681884884884239
-0.1818731058212539
0.07688528978442809
0.12959523213241525
0.7697223065239033
0.21386387225712386
0.3173359263057055
0.4861630991856155
0.3381705140040688
0.3493118973193506
0.0654003925800346
0.04775329374589171
-0.057225449823466466
0.06971185844087763
0.07320677671566635
0.2812221407362216
0.03938516333609533
0.8349094880177429
0.5012889280010722
0.39294070290845373
0.2801095736816961
-0.2878198643586052
-0.35768862644665206
0.4412248890502548
0.4637822002128281
0.6882882616664586
0.058676633916563074
-0.23062960862702164
0.2815005893435231
0.1602845635774318
0.009815574326386538
-0.0013324977200225802
-0.013808891259127152
0.013629899062412925
0.08503638791272701
-0.014686998079885577
0.20722303075255671
-0.049728638169655066
0.06313528255767188
0.10287563077816485
0.02079776402402504
-0.07404532875419337
-0.26370369792421033
-0.09067949436214862
0.06296266939784012
0.2336851989527053
0.4781515786595669
-0.060650351671667144
-0.001567153338289623
0.049116604160360115
0.08391288188397862
0.07203116842650607
-0.003428565069295418
-0.14235831704336885
-0.12151213560014318
-0.08665051154799601
0.1789272253124428
0.4787389324096234
0.35641707189739874
0.06132653357142118
-0.001920424475410647
-0.07993739632295586
-0.1028385035401471
0.14962160903726288
0.0664023433499097
0.5265854225998108
0.26726490949634135
-0.04928863832496027
-0.09437088538773078
-0.08511048442574003
-0.1080047224047504
-0.05959329358620828
0.010309242719958103
0.011410219841429689
0.00892458657096223
0.030481651407560536
0.06265296176878359
0.07339496767102162
-0.0036546393206503846
-0.2145785960964483
-0.20428045843756
-0.1460816152234814
0.0045490287457247746
-0.048179727328032176
-0.19885529325018853
0.05847001839722642
0.11209520079754293
0.045181608793233075
0.01803165988143839
0.020541102831063716
0.0064181463791115
0.0451259593649107
0.1016128767680176
-0.00018168889626218009
0.04683333673796082
0.07596240737258496
0.08610809168136688
0.08355569232890446
-0.11027795611413159
-0.34295004527000106
-0.22601856632122758
0.21876163035082022
-0.02210051271109293
0.11279004378546856
0.4808833601205767
0.0476361889773741
0.0685680210082781
0.14170284311184275
0.30327729859401553
0.15651906187122913
-0.022480445234506926
0.10745395889563214
0.10774478231333091
0.023099535943035866
-0.06603122821371098
0.03515930525417389
-0.17023856325397158
0.3264539446660378
0.31852748786050833
0.2556793536624292
-0.2291728256429711
-0.14151380644709444
-0.3533483084963949
0.24457223853764803
0.29730670462678455
0.6698060200720274
1.2203381155630952
0.5525163385182894
0.4273096551668375
-0.019143491615024467
-0.028379260576871547
0.08445582593191378
0.15774912357978269
0.1872750799953325
0.06209329226504882
0.40455590599805413
-0.08747448389108259
0.5498176731233037
0.30416226038842203
0.027751218732020383
0.05788849694022883
-0.21361177241057286
0.23231902726466955
0.2873589854475287
0.38924771181010615
0.19303583487181034
0.430468926253524
0.381218641045403
0.3778205696143732
0.26244191049308147
0.050423288653501874
0.19553777385144866
0.23696311932696645
0.25807798847310714
0.3183874215707085
0.8237758239040576
0.10002047231433316
0.08720705412288181
0.14757466671466282
0.062054615164053965
0.0877185872056332
0.18082357502546817
0.5144260811583689
0.4509787288344654
0.39778433361479215
0.36413851920571283
0.09852491524502405
0.3952822937192454
0.254233158714204
0.3640418864493171
0.17718368689207625
0.1996676371800398
0.3410185655750947
0.2583698316384751
0.27588229845474926
0.1594470026999728
0.2783217270657384
0.09785254837509161
0.0010193501757135447
-0.0769493505625108
-0.05710383688721952
-0.23472899667646185
0.03129339499557875
0.29961130836787575
-0.09848240892336775
-0.148659539152974
-0.45645911109437853
0.3287597597588907
-0.01041779058662657
0.09376668190685158
0.17436200548820166
0.14918952521252252
0.2429506061886298
0.2715290567398047
0.2585240687522078
0.006100851164622988
0.2422305372334355
0.02024610269316818
-0.1698753541214101
-0.2724673950272062
-0.21634396632238237
-0.5401081299744731
-0.012971774230952738
0.04665809057364306
-0.3191545050650872
-0.6726728730695213
-0.6202284560958696
-0.36644139233289313
-0.19172596514528492
-0.23734704600445208
-0.11164282060075821
0.1773855823345487
0.23321848299767978
0.24661270867519694
0.21278952742795088
0.08702538976762426
0.2966368590295569
0.07548655827448428
-0.08848949745882072
-0.13452410788663555
-0.12847383949530422
-0.4498482429048994
-0.1956849041617329
-0.22769143809983633
-0.6414045308137563
-0.4807368409471888
0.05338718061439499
-0.3153825781634113
-0.36851482355138065
-0.2579326402199917
-0.15451349183217764
0.0949952663148619
0.21293961722968902
0.2673685673835438
0.05995830928536911
0.07844936628482176
0.13105682004765223
-0.023109357457363016
0.14757441925141984
0.021170405074644415
0.19790720724288605
-0.24610994110506423
0.04078542816035575
0.07816616050467137
-0.20966936733099165
0.09265409737711805
0.2076911471527165
-0.335469977147168
-0.4898201250492173
-0.2652905217538026
-0.1886724739623711
-0.008675746153749888
0.23615614870843502
0.2675738333470517
0.044825927311749586
0.07064759471645937
0.16549358837633749
0.062400883000135014
0.2996701675746885
0.004775106191638335
0.1695107585212276
0.07437003373075718
-0.051292994783380105
-0.21166791300227564
-0.25580845056814583
-0.09668075799824123
0.08933375151747328
-0.11251985768998414
-0.1676122175136756
-0.31593823826929635
-0.16109036829563483
-0.02537641902808408
0.20448760452394985
0.23782241650418914
0.0642536061788061
0.07116585313714147
0.17435843596014705
0.12705739316271328
0.2918506497582661
0.5861672605015626
0.3432043726274811
0.09477911608451026
0.04851269956620912
-0.0833897146096838
-0.07704475067908782
0.019312571520391446
0.08410452193043057
-0.1031832627232604
-0.16509201801923884
-0.29236728321589606
-0.13635439258253965
-0.04140941014944196
0.1260516796172463
0.18178200698902222
0.0681684393598388
0.08572796851397121
0.15697280673156186
0.09150901824213815
0.23692606677034303
0.42937631497951884
0.04947189638449465
0.05059046882304446
-0.0333023617443691
0.09553995559072741
0.06378223118813105
-0.05162438797924255
-0.1091411003959283
-0.6150998953809397
-0.4099755278487823
-0.5458319378790525
-0.21207032967005474
-0.026191542300658954
0.13829320304829204
0.08852244831661733
0.06178915677491217
0.11844080349658447
0.16529903975028465
0.07241341695797741
0.17744770535234708
0.3340986512220477
0.09269336230877973
-0.02557506418802565
-0.08310007842597052
0.28724366375989246
0.4771816345026851
0.3627193642060763
-0.42732296037715084
-0.6110067245097991
-0.6470564310975204
-0.41251853012209055
-0.22458415389020472
-0.11391279630601986
-0.03322573095681493
0.08625859407562018
0.05322335170065116
0.1181459909069838
0.21088443067351081
0.0051518737223556505
0.08073948954505511
0.057375455262329934
0.1072565908247852
-0.16169763392901135
0.0695223688425099
0.05967834952140583
0.3155102698291987
0.2690369227185387
-0.048964198643710675
-0.29633672129643607
-0.4493728443963506
-0.22842488572364084
-0.23453002315543064
-0.1324292474366676
-0.12491104648124794
0.09156892390732359
0.05080324430575857
0.1260496177457976
0.0893974753353714
-0.054957415994863486
-0.05278166813306617
-0.10258678004613073
0.24330574432939767
-0.13309951901600528
0.06699621343985705
-0.1862478116065503
0.17354328606810412
0.297598758818496
0.07331453133606616
0.05448559928247559
-0.31498894692429735
-0.2300171277525024
-0.2379911616747353
-0.18454479244926392
-0.11097357937488844
0.07921423635053726
0.1050578183145093
0.05088944030724575
-0.09023081079907287
-0.09492744892750203
0.13812348923636872
0.2293059373469638
-0.03358215093158052
-0.17594702528610026
-0.24654747416391362
-0.48406011554215833
-0.284555485893794
-0.1386933011398026
0.22472494261882917
0.2564474030234274
-0.0422500187414658
0.13407717806713887
-0.08702094666021425
-0.14076151933169465
-0.07747123082937762
0.04684693892380185
0.07025201289934009
0.041331690016201364
-0.2517884105499051
-0.3861370358746069
-0.23267292793342362
-0.2970644135782018
-0.16932999638189833
-0.33949503816625415
-0.4711991360404597
-0.7526552674697872
-0.5638458015487786
-0.17242165047547162
-0.023794228638145336
-0.1164049600184763
-0.1547794379939659
0.2801202654542654
0.03633827442504135
-0.1663280424646486
-0.08635212742302478
0.17901992569038666
0.11234999776138481
0.11539568100065252
-0.1426854960489951
0.12317416035143404
-0.4392023974848977
-0.17679269595214975
-0.2923826345320605
-0.18711954559305374
-0.022771233734733935
-0.3317601108003372
-0.4453626311130356
-0.3555439683393684
-0.4881825590390071
-0.20717425886546809
0.15213652613588638
0.12500650516372994
0.2820416107879801
-0.014865336897837957
0.011171101306115703
0.11209622356428292
0.01841303300851301
-0.18399511512026728
-0.25376548063972887
-0.26987062138132073
-0.023464896594030973
-0.06260073578314924
-0.05523181688781855
-0.14922774276677547
0.2254437016621476
-0.00013899218568869315
-0.1908516471286144
0.0740230591327293
-0.14668172234942867
-0.2761985157042942
-0.1827202739822021
-0.03201422841012313
-0.1274665944856395
0.025516069804419797
0.08730364706222112
0.0889715740810747
0.05585827206447815
0.014353224067915423
-0.03818341906210297
-0.09267235132629364
-0.03742588646416736
-0.21071528389474062
-0.3534095055336228
-0.4827118293004117
-0.05373410712376892
-0.48108230405917746
-0.49285344375853807
-0.40844903382404024
-0.1932053839102228
0.05894057984381745
0.08896053909568843
-9.291226429191178e-05
-0.018527870647710547
0.05069357503775026
0.11684387254948311
0.09996189736994623
0.09035339861143082
0.08851573150507519
0.0948365579383407
0.043442360300351535
0.004645363674903031
-0.12092873414704833
-0.07076057433609212
-0.05521467750151808
-0.059964361837968605
-0.13882160613008152
-0.11544524910312651
-0.21697740998881185
-0.14481269096358954
-0.07358994200559142
-0.021383822283247242
-0.0880311925678781
-0.07234087212224746
0.03895486454740297
0.10478166474150581
-0.1309270778170925
-9.652364165539662e-05
-0.19998003683653123
-0.334375363791836
-0.24071439011193205
-0.6133772505550676
-0.20139029412918064
0.08593937827720026
0.13313209219867891
-0.4342584719051002
-0.19972456595652138
-0.41596837368682876
-0.5585311971049997
-0.23664417343741764
0.6293595968680316
0.2601340245094832
-0.13822507024605837
-0.10845625696793963
-0.23823745955002454
-0.1268098685014676
-0.09455892885733232
-0.1863945432142494
-0.21212233456906027
-0.49241261577456125
-0.007069085806103668
-0.3794237903091795
-0.24707565681392873
-0.2424405506373335
-0.29413302563606
-0.8552354970687827
0.1866771843380807
-0.16416717307705317
-0.600805163566949
0.02138452670311004
0.2511658611511681
0.4226798047137302
0.3913979687707096
-0.20318508279470138
-0.15246615169142697
-0.03314490048851271
-0.0015721656692444291
-0.232270831727674
-0.3278818577684648
-0.1676782235688837
-0.009606891380630233
-0.2635098216295791
-0.09255514558769823
0.1769813184092461
-0.2968685475007925
-0.10922342233359265
-0.15529186418217913
0.03874796191854863
-0.04623815217217913
-0.4915393667951558
0.045230320906423725
0.4439104863452215
0.29890998848180184
-0.010158074475417727
-0.03705210603726812
-0.10812885588555435
-0.03490108290097809
-0.1696925433557582
-0.04972668816418255
0.03204328777468866
-0.14112216978541783
-0.16338802180312995
-0.16821007870136842
-0.2095733846138357
-0.025378672543368116
0.10095174829293638
0.05496538494956742
-0.19301006819067326
-0.22630994378470176
-0.6415908743810357
-0.7219546444253583
-0.18196844411547108
0.3272580521316188
0.26155729484547313
0.012517648731736056
0.019795069394065005
0.07137628441592091
-0.12038271811246407
-0.12289752265848575
0.05663469367601026
0.29459162024707575
0.007140933301735867
0.22776946893143524
-0.15283306155646656
0.012606822072020492
-0.0023303539827479003
-0.041767784237754256
-0.04165919992095009
-0.5014258234646102
-0.6851547760897935
-0.8847029945714358
-0.8809257512020569
-0.7393352341124461
-0.2585578317299247
-0.16768668283758525
-0.04720869444744504
-0.011181110339579192
-0.11652186499308471
0.11952918462908113
0.38376527515265385
-0.1045932063207947
-0.15129208722724943
-0.05147797508943038
0.03330194306122758
-0.13505713989200724
-0.21433645759106534
-0.10096887950366837
-0.05419449935296212
-0.24607006544685162
-1.1659260476791677
-0.7355122190621914
-0.8942604026379386
-0.6451042227457495
-0.5745324783590078
-0.3964756875749632
-0.1715075706413142
0.002505346623720175
-0.06477868259893418
0.09723022082535263
0.33200220960936216
-0.152152795278972
0.26311999101985334
-0.060548132133102214
0.11638443989036218
0.02620211657709264
0.0005029125080577893
-0.2666283479911453
-0.27595519782145306
-0.8926105206240722
-0.7292277083185633
-0.7875991311391973
-1.0430438415886796
-0.820965274963464
-0.6826215684458938
-0.46393513056724756
-0.30949899591925545
-0.01972800195521306
0.16573048959563352
0.15830241308572054
0.2537785173878713
-0.22034631633565502
0.048124327807626724
0.19080115243513146
0.008539432373852504
0.4318540193207772
0.09314587562905377
-0.10263455303944995
-0.3996912469437154
-0.9471245757977481
-0.18756394120534076
-0.5897955634823244
-0.9185352326843889
-1.0367451879581475
-0.8768643125518135
-0.678466790754156
-0.15836679362696687
0.036367897683399555
0.15425128897963658
0.15848574989001044
0.22622005020958624
-0.13047329758552273
0.1652031080080758
0.4893706782462107
-0.005955553644147331
0.7043168924203285
0.220547180383057
-0.5376232826412297
-0.9695968589728392
-0.6792238248183791
0.39460809677436914
0.1670287782667954
-0.377108561479835
-0.35717444428061723
-0.6025412426496013
-0.5376131107079702
-0.01744390092047837
-0.1048100539141492
0.15092658850207064
0.14919025854495552
0.27743402369443504
-0.07912774477026727
0.12244103434036609
0.3746731181929202
0.31904001795690595
0.36859075773793776
-0.3965331138862947
-0.4001065789947715
-0.5368244379968464
0.0036651215102829677
0.3253934966671971
-0.5691548484459998
-0.2911755370754803
-0.1278661840344329
-0.4931029636164838
-0.23454572433944884
-0.023066653156130112
-0.09637477298505571
0.1638699984788502
0.1605654115998081
0.2859255204215102
-0.007240842459826033
-0.04356411288326774
0.12548674798529919
0.2146190067531505
-0.08737131099097023
-0.16983550343485307
-0.06470459239828036
-0.10287773905964075
0.5999219064807553
0.253447826245571
0.012844538575461077
-0.16379017003278656
-0.19611006990818483
-0.5554843358739059
-0.23457867391034148
0.020318754440155844
-0.09854326160689847
0.16572064959142077
0.18714038577870962
0.21915661861038696
-0.022153971800472107
0.08699331618701879
0.1286074875374489
0.040923931628435786
-0.1633150986893765
-0.49735894189884977
-0.03342850551064396
-0.03779365065090857
0.6115123733760718
0.3038602703537959
-0.33030533696955755
-0.06968504734976556
-0.08848617079934734
-0.42034467900018924
-0.2277964909607605
0.2107276041691902
0.07228284698443065
0.15209456830228682
0.15800333064028763
0.13103713394749164
-0.0015362494769509735
0.03908490039727836
0.5645401833206295
0.1479274759604374
-0.22128799699120705
-0.17230982510431184
0.10502133512687208
0.20134932628419314
0.22217164495520136
0.10396884826909969
-0.39598986384518337
-0.2965501739550851
0.17775026488715373
-0.42533257103883043
-0.159450511659598
0.0357472440156817
0.08451582876707361
-0.09695901519398759
0.08290941261507066
0.2338759744732306
-0.05039546245007581
-0.16409933642064756
-0.04888174512090921
-0.013144717643383708
0.0573731599785902
0.04806677534843588
0.5693675826419385
0.4594267391458782
0.4054023125500588
0.2747261196076447
0.37683620758010766
0.01499006853487895
0.825335192151224
-0.3529808215843869
-0.2639922203767793
-0.18717720626030832
0.07268360319020871
-0.12556728891441665
0.1929381847144862
0.014544425382351163
-0.01069633583303621
-0.07303511921874686
-0.7198479275399715
-0.4281713291824869
0.02682223583660519
0.1918934614340995
0.4286186540107832
0.8688156888198854
1.0164930865476904
0.6666224857057741
0.6576741521129075
0.3243719792629916
0.81656943454991
-0.4397555565997825
-0.1545115180897098
-0.05973035277756229
0.1049840111805997
-0.12245435656548963
-0.10107371305300135
-0.12692072343373545
-0.08312652317183646
-0.7710846852145369
0.056121044990900655
-0.7197997710932439
0.07681517785802489
0.5454981728276357
0.3158056935571858
0.8208959149855714
1.514724337370145
0.7958431198071749
1.1335358354993503
0.5351482914239593
0.7716645405414506
-0.06315161942014143
0.12497311395532858
0.0322255779360437
0.13781068227869847
-0.09266511327180584
0.00791911867736224
-0.2371055785361216
-0.5281121476388068
-0.6179836322423883
-0.3957399767351644
-0.7368005253325555
0.38955812722427086
0.2861406372049121
0.5041149554598708
0.3679277843931351
0.9569854207374839
0.8251178757146578
0.8588610014959661
1.0350139876446278
0.4773816491664334
0.23883358656866996
0.36702390944026486
0.26909896142651113
0.24544110671171426
-0.14001820338243684
-0.0747719439013805
-0.14341174248099023
0.08373546171337887
-0.2913693687103316
-0.42539369158658735
0.012626219754003258
0.48598512749215167
0.06527528171788113
0.49995292518238116
0.4948694263472245
0.39309972276483085
0.5866329626025348
0.19736690330220757
0.07206288915915449
0.6386456785296474
0.6475907540820462
0.3371918379054343
0.21468182068903635
0.14202773182515493
-0.11680586394596833
-0.09857727528289854
-0.20900682446140034
-0.2529301943799078
-0.22769172284764863
-0.4842984446029522
-0.12078372756823635
0.35219993928566024
0.2019116537990457
0.386641378248227
0.4469334381387589
0.6128900319994325
1.012531194789561
0.9800699971343635
0.740813040253081
0.8509378336247277
0.5743774105085854
0.47452798644189353
0.2735893899159578
-0.014080306719481052
-0.11852710764245497
-0.12675972265388485
-0.16463029697428888
-0.2749526848105293
-0.24598417823692834
-0.20485261091137258
0.06513249876889127
0.22729672973130893
0.16739839956319003
0.21681670558316354
0.3191938107938183
0.7006060648898491
0.8708305264646946
0.902771861304315
0.9295129540689104
0.8149630039093134
0.5065026128704488
0.47518274816934075
0.20408633973048418
-0.10215175308450905
0.0521840552365143
0.006278600677948715
0.0018835986930572789
-0.052714556185752555
0.25994812207671897
0.36805741449650936
0.5533085472861494
0.6339417640019483
0.29549756947132527
-0.3332988954952798
-0.5278752020301909
-0.7219510567589191
-0.6897774334645421
0.00047657043282373394
0.06248514319739694
0.09928181079665659
0.238075854809763
0.011479274153055921
-0.06988941496462084
0.05663807254354994
0.06403606376397687
0.027064878702366763
-0.03520190822945406
0.1369455097190393
0.4591108479751044
0.7519333208408616
0.766091726003765
0.8763945170034806
0.3197914196162534
0.07479867884906909
-0.23449227346520835
-0.31095621355711695
-0.36425354437759344
-0.3997960596578664
-0.4855755533519952
-0.1851071723284978
-0.0006705175257072625
-0.3453160786951421
-0.20369728638572596
0.024079428292510464
0.07735486549198811
0.10571057708236907
0.15784030273074295
0.3304078199789098
0.21329687591942934
0.4153619241010957
0.40519111938735686
0.4264774681252314
0.10250658743573815
-0.19034306827749223
-0.06303709568155613
-0.3579610071288267
-0.20939323364630766
-0.24309003788081024
-0.43407177077883885
-0.1742905324803901
-0.11471053503045835
-0.14085111361038644
-0.07820515216237599
0.1081808729069436
0.14546045937443453
0.11007966163432602
0.3642197203471477
0.545970782438489
0.3723628864343151
0.14185152155801167
-0.05057074908255641
0.1048755430534154
0.0880073017721884
-0.0445726921286529
-0.28582226119407056
-0.4774059968958144
-0.03950427684051056
0.2113176984129962
-0.20619292282465224
0.2180287229680923
0.024726941509889053
0.13834419412238427
0.24192045011658075
0.44332723757392933
0.2816393458383546
0.08668615991360538
0.04765375179176393
0.022618515045580254
0.030772558623905207
-0.07619049814813855
-0.06603692534939745
0.03351642146732924
0.10344633881454099
-0.13166594905611698
-0.23681130031237876
-0.34508384673564835
-0.06743111071788753
0.0563524054326756
-0.2467064982356994
0.08756146376375973
-0.11216926865609639
0.11934934868555343
0.13202489617103008
0.07407601200593274
0.1227182513116613
0.043965114541043473
-0.07152847371127402
-0.08145675238502752
-0.21842954036526668
-0.2638726228382527
0.073974117131776
0.07482134492815738
-0.049532791721444876
-0.2992819736660833
-0.25499060755796765
-0.27795442839070733
-0.08062003403620885
0.16758286024191454
-0.005273833119559932
0.24174460924487923
-0.02712021530778818
0.0936723681715888
-0.019952568705840664
0.06566969604171576
0.11105106671410035
0.001771748233520915
-0.06239526427923904
-0.10014907500092989
-0.3306569217905036
-0.14308060147430662
-0.01531236437759943
-0.10796541534452696
-0.1532761924105451
-0.20368166890646677
-0.33901770034618506
0.048677769569519504
0.014061139514781494
-0.06206229978561335
0.11142574685673673
0.03883528648158153
0.021583983800469372
0.06410154483029132
-0.07050764826840952
0.04620921528866944
0.05118480671231825
-0.014450884171177429
-0.13063329351988517
-0.10854693009968856
-0.22992575898437573
-0.03212005762299823
0.279788606839965
-0.1730216094555328
-0.006500685145586927
0.09728650132246695
0.06910194101453328
0.4279707145890027
0.3198127811034892
-0.053923890404562545
-0.3863685946613399
0.09643460841007245
0.05925166505158955
-0.003918899034248543
-0.055505907219523816
0.046281162758587964
0.09356671750369529
-0.020389772259677284
-0.15355184872719566
-0.12399954021129436
-0.029113694820765933
0.005652838622722428
0.1811789704867041
-0.06294349268056611
0.008713238290898971
0.26273740319585864
0.031103870301333766
0.028688403458243267
0.10166172893710074
-0.024340518786000062
-0.39189773911013764
0.06906819790663339
-0.03991457562036207
-0.027620195491119593
-0.07066732006720934
0.09182892841333827
0.09210436645019274
-0.026885975658952108
-0.14516088584295297
-0.06647037442023446
-0.027999483749089615
0.2196674149414894
0.29335429391117085
0.1602804199792029
0.26400597445770485
0.33664476190633036
0.0898938806681795
-0.40737258504899704
-0.11090443432258625
0.06519107707148009
-0.4715467692807408
0.07941809783153911
-0.17172200380991584
-0.17786822775172054
-0.09426219698583406
0.0673138320729811
0.08556171063015724
-0.025707482026595438
-0.1577278872251632
-0.015356660551817317
-0.03025630768154964
0.2382095086406978
0.14629049101644073
0.21236587045215946
0.36428302006324054
0.1424676684737852
-0.254927856993299
-0.5776945825029595
-0.3320620731898096
-0.061730865014158504
-0.35774935597625307
-0.36313225749249123
-0.12271371371283303
-0.22766008221844608
-0.1371358195503866
-0.00282872877638543
0.06742924598532454
-0.03643717273619784
-0.18035913643413087
-0.07013123724346132
-0.06840018007038659
-0.028413046033479782
-0.13356263307987637
0.3732957762840695
0.7589609133217384
0.19526720998548594
-0.3972922773965555
-0.4148288332595966
-0.08238832776528668
-0.044702355934101344
-0.18329244661548244
-0.3191684627003778
-0.044117610746422654
-0.14410819979042302
-0.18247736173203058
-0.028719369967507763
0.07022737879634033
-0.025485912171332618
-0.18485241805224845
-0.08419562543158554
-0.017869093527282418
-0.16289485125939235
-0.05871317111695052
0.3365750065995359
0.5572547427840042
0.07976719526498198
-0.25578314125118434
-0.3276223739876806
-0.08744670287156744
0.09200263050864116
-0.058877392545072106
-0.03584809318927771
-0.21819249709876234
0.0002661868531321942
-0.2704984128984191
-0.03686234544338272
0.06539221837465731
-0.020527699860638664
-0.1908683693218711
-0.14289114629488547
-0.06110854818613163
-0.14893658323687403
-0.1482154322313922
0.21422379931227586
0.22795373126169574
0.014283156882666593
-0.4297742782670605
-0.20002529643701014
0.23752883682404682
0.36496423686533264
0.11456745185261505
0.10620855378505395
-0.03777769767709798
0.14104420294601683
-0.2943258332629138
-0.020127632580745184
0.05871703601828084
-0.025440939202590968
-0.15423795942568125
-0.2361818326605094
-0.08562115587542557
0.1092448518337319
0.20751203027347712
0.4884984311858286
0.32890728765132243
0.01811919271895974
-0.3797510090058995
0.017856812033166365
0.051270007550832324
0.06739431645881189
0.0759377755662998
0.23669335987593565
0.05930354076647178
0.0973782330062574
-0.14540162436528464
-0.037109603195901196
0.01556354474131773
-0.05600489731008876
-0.17982125024570553
-0.16009992560662398
-0.12261790705407508
-0.02605638581763993
0.45277017598056846
0.48227976491146185
0.19140870413406913
-0.08646687268736881
-0.5983112922209062
-0.21936563150355176
-0.10155123651926047
0.05352733336436788
0.06404255963473257
0.1227718618329488
-0.07606495157617761
-0.08862187541161334
-0.031853107929637935
-0.207142553008827
0.01813973751828928
0.14260496740180462
-0.16213143961953527
-0.15581865316680302
0.0395846500718066
0.30490192414573414
0.12196528812265578
0.24467944622477938
0.10259584562108551
-0.11934975864328853
-0.4406056063752153
-0.2059321919133982
0.04595303433117658
0.1153719444274068
-0.02337438138742456
0.2307933684940488
-0.00032352297194148164
-0.32070886069420024
-0.2521385017478771
0.09586115999190481
0.1747043109874483
0.09719038026058437
-0.04756350352414365
0.05285135111637735
0.17793223509192807
0.2556528592771926
0.4910721958133988
0.2893589028985978
0.2514772671644573
-0.12323484325348615
-0.3270042542038809
-0.1498349215479165
-0.14356644981257818
0.11822407270807778
0.16733922876383342
0.15840355403840786
0.02618403227993994
-0.11502200373707924
-0.18843351498375363
-0.0027693474691166476
0.06663067748702958
0.03036399577683148
-0.07824545348165177
-0.09721951795006786
0.05303003796953171
0.1488577406767189
0.44053624043195316
0.3185433169909453
0.10076582510363008
-0.060737126557949585
-0.2592525368038852
-0.2660913334227149
-0.08040309361047769
-0.04001593609889563
0.1521726282907469
0.1831886621981729
-0.0859960014132937
-0.11258396131558053
-0.16574593211980118
0.005917801445353334
0.05449350621293279
0.0255522131616958
0.022976057247598904
0.037098961582394153
0.10025250374655255
0.13306340182073645
0.1333660362951485
0.06950784387528507
0.09446353084657975
-0.027746420342179147
-0.12433667559254709
-0.20286672360660132
-0.08926235406490081
-0.007454024640936283
-0.03740646024674947
-0.009502604382364466
0.017294138587782653
-0.0024231236332002224
-0.03765592809174989
0.001758048515989654
0.0395859362491042
0.09108690947358732
-0.00953914296087591
0.1027276935817464
0.15117951177481473
0.00040191495260761065
-0.04209705878520664
-0.08582841910038179
0.059645610434546366
0.09395193525325732
-0.04246860897176997
0.059240283256640484
-0.07807860127323035
-0.06819073592176692
0.13185146561084618
-0.06125425613946961
-0.06603136451139503
0.1144036878986395
0.03995571410273376
0.16182736052981864
0.10886602352714415
0.09605022055084844
0.11502060700054767
0.15604174287500572
0.20891924073504128
0.0723578872572825
-0.019937610178328558
0.0920459249489654
-0.14003576488863909
-0.0936376527842291
-0.19619650334944716
-0.5046598211955684
-0.6432824302069845
-0.539907478922154
0.17361605050584597
0.01654380089520395
-0.09217831903323
0.054138630693200934
0.22063937322068294
0.2113054035504366
-0.040530158329221626
-0.07624653757694062
0.05343957194202665
0.01748230083700798
0.02022616596559949
-0.13294988520923043
-0.12241624748750643
-0.01611375276634744
-0.06132799941722581
-0.11361444373662838
-0.2126242614874774
-0.3810157953900919
-0.5611498852289233
-0.3432701186049528
0.2300435844578119
0.3133438417349783
0.39820251630466436
-0.01510673262880363
-0.06753013141400073
0.15136612866026872
0.0627627532203396
-0.08701220652429105
0.0706526472445324
0.10405780643313779
-0.19030191761791512
-0.009102522301844147
-0.11172918336609045
-0.15536370103338187
0.20115363519270882
0.2207926022834899
-0.16220917163246842
-0.5059621225871039
-0.7725095040398445
-0.23128832634351457
0.5123599524302974
0.7109413864808932
0.01813779982219822
-0.01189120548522407
-0.01079794543815542
0.10027653392235654
0.029547750264902323
0.11359909910549654
0.08287785609960455
0.17206317338233065
-0.22296762836494946
-0.25890088557573576
0.09620787438472435
-0.06897370392279414
0.22142719372008215
0.16493361848272653
-0.05676020835685465
-0.34986149936121264
-0.5051074488425323
0.13316041660632494
0.594047085741781
0.7126841799184711
0.2059710736879142
-0.08787751844672823
0.05762818517677773
0.11950459032884404
0.11248632871655359
0.027542324044194783
0.0837973000627214
0.1029367370376069
-0.08985888161873785
-0.06650637123157994
0.12234088942358692
0.2992780709244152
0.15972588779762684
0.38905420141596503
0.22285498684057534
-0.3871098049554305
-0.560185781190307
0.2777120439340613
0.6025187187063632
0.5762915025215514
0.6796704421383737
0.49526894033832536
0.26210585180672336
0.2244074089902886
0.1139785694253667
0.03227487505462936
0.08522028347855064
0.10488251261316002
-0.010472262114603673
-0.12104745214756901
0.13046985181845186
0.2973816914303027
0.22075802370841116
0.34055543945606115
0.20707714329746768
-0.28429722561998255
-0.38248888661296454
0.439483535913158
0.38640203090338204
0.4218696672314636
0.5220055432831742
0.6176360731119506
0.16117974950621633
0.17388599248830464
0.13735157241631246
0.033953766585991516
0.0787887178267725
0.09947423150765942
0.042766178885407694
-0.08075265355160358
0.15038178115438203
0.2383104107384397
0.23516352741689148
0.08938070304959592
-0.06286458895137688
-0.4445256148132488
-0.4557803288806164
0.11998686255739434
0.046613141294642356
0.3860195625799657
0.5344803239553281
0.3081944760748954
-0.025289729949606123
0.18498268817430014
0.16137651355516885
0.1303141534948445
0.07656054921235832
0.09535334979566473
0.02007582782172135
-0.05091416054244826
0.05312177008296388
0.12749925451002708
0.0890823491974844
0.24931564452237484
-0.11549553282249467
-0.3824931297159777
-0.16579015997005964
0.31636844025321986
-0.17060628457873536
0.26670549254702436
0.11891551140159634
0.3810546216428013
-0.050560974166494604
0.19144719008383412
0.2714895276565766
0.1160409355144505
0.06978403585404004
0.08587877404708404
0.009637348810787346
-0.08255444404197956
-0.10628961392040867
0.015818117622594514
0.15227927598079752
0.3892075831653122
0.18386065113151692
0.04180313934555152
-0.06688792232366031
0.18026676185611049
0.3506813847574106
0.12492949768197141
-0.10323806446139853
0.33023042931663066
0.1990815701591145
0.34360067789335325
0.14992560714466563
0.038084500924784916
0.08146983409570453
0.12164982236258311
-0.06621573513543784
-0.05203529298860959
-0.17041611349985206
-0.10295985775315479
0.11959815028415481
0.4653673936886044
0.15135611631330526
0.24557814348400883
0.2249143878898033
0.02746698516612957
0.18170407813355147
0.19843681696885368
-0.3123740592467057
-0.2958232629372427
-0.044957750338097846
0.027446471710952575
0.10489519507986184
0.04750825084976737
0.08342075849796704
0.14953939238062605
-0.07090721539220002
0.0031860126852665915
-0.19911958504645658
-0.18223091550119763
0.12532156906187267
0.010153318713580531
-0.2466246723284558
0.14624070066660388
0.023164653083357363
0.08174291418407209
-0.1180889515695196
0.010894778947717017
-0.21721047769081836
-0.38908344298531944
-0.21906259045426008
0.031235422196404083
0.025041174137200875
0.03534629819589004
0.08396132436188586
0.13911255313103227
0.012203330950038371
0.08157129067507446
-0.1445192252546596
-0.34260080105817226
-0.1924489574904778
-0.08292670754732069
-0.0864032664488463
0.030168922839327244
0.007673183203404911
-0.18962611516278594
-0.3432908804045444
-0.39262238329819954
-0.22950911324779014
-0.3955383269322534
-0.13859573903896735
0.020316178739068925
0.03301319700197432
-0.0757921383387009
0.09556590182136253
0.16050859199988407
0.032851541541343204
0.08213180424929643
-0.10590570277131033
-0.3570833866665875
-0.48669083239603944
-0.327846109685107
-0.13145072287498213
0.1333701721466494
0.38084279810166843
-0.12138741047934784
-0.6087306640248553
-0.8815069129481371
-0.5068515095973855
-0.3487270378317726
-0.09316814906371457
-0.005097135955121988
0.03204963568036229
-0.09224089388580752
0.10552569747831249
0.0858577593887511
0.09912253590280837
0.020788819027041845
-0.18828333942314363
-0.3452590148008637
-0.43500455172435193
-0.32634108942572404
0.16182132265063023
0.2861401384146018
-0.006788199675397397
-0.05537779257571595
-0.4257378654027306
-0.6032770639247251
-0.47429933888746734
-0.2929440694849958
-0.051217971025459844
0.08092832140346572
-0.02235386051521212
-0.04428289558669389
0.21122801059909763
0.16487375514668134
0.045718022501859544
-0.26296024514862426
-0.1665135921316755
-0.3177089799087497
-0.602744148871765
-0.4138681606440429
-0.1506913542927718
0.18512467052727033
0.11459014021568209
-0.04706512342744233
-0.2973440018423503
-0.2661586478528492
-0.4878767314768252
-0.36116486645725904
-0.19777533749975046
0.04650946853498449
0.13009970193466633
0.033168246134838306
0.13046804065911874
0.14150145071232867
0.03465689558558534
-0.22698442326854829
-0.11730440459771596
-0.1601561088667315
-0.19401079568380925
0.37726277023479243
0.16314529550199355
0.21444156618125018
0.24614673685305846
0.23326621462235275
0.16852193480874844
-0.25241450960746303
-0.47287408396538605
-0.46096989405222444
-0.20544546241792955
-0.03072276598826832
0.04689791367642792
-0.04407704252879937
0.09862849916279819
0.179571806171323
0.07098853312062649
-0.038255422544447006
-0.13826257644867665
-0.09190638294402183
-0.022499815022272513
-0.0036237929641621176
0.09841773330815251
-0.0656069996249545
-0.11905407535251783
-0.006604426692802959
-0.12717470895365718
-0.3536138261952357
-0.3807905982369235
-0.279055952983403
-0.15919312049345366
-0.03278661328419239
0.09708684597842421
0.07661225003611782
0.12447915618737049
0.12247126542517424
-0.002844281566775714
-0.13570392624179667
-0.06808752821432625
-0.03218502599935185
-0.018429787783346276
-0.1620312623571585
0.047477304175393926
-0.00776590995212815
0.04926020253301974
0.11525075335250731
-0.17346679283855904
-0.16295757935542624
-0.20679705191226422
-0.14807383081396205
-0.07814291248488203
0.03780973737312717
0.10193639979974642
0.08825239244367251
0.10556143599109954
0.11235303415165018
0.05631327058783504
-0.023330554200912568
-0.010211749929346951
0.050133501687261904
0.05601825036267893
0.04203211119677378
0.028126464107580955
0.09050780370968266
0.09516668062028588
0.06718842490202166
0.017055063587384733
0.01165528616617256
0.022928017771102864
-0.03219740567123896
-0.007416342460366445
0.07816119929193287
0.10021218336994835
0.08773670810036005
-0.013125334509890682
0.008616516830245164
-0.025779183494199397
-0.11353808679956931
-0.18464914183501846
-0.02669821271321885
0.27635019056395105
0.23484185757679946
0.03912942185911992
-0.4058409352740307
-0.41460453474547837
-0.5076798418153777
-0.46925744190687635
0.3121607154458731
0.07960498807991517
0.07942015802038455
0.1994352544107981
-0.006428467938609957
-0.04321172999122924
-0.005110758544369871
0.020991644640232312
-0.04911728771748838
-0.05379306814549784
-0.03703254091797199
0.06370164039714307
0.19124813220047493
0.11754299619073787
-0.16504179388238246
-0.20002055694501
-0.140691769581294
0.0813990985910415
-0.26547083454550363
-0.592023463896622
-0.07835235629510123
-0.08828954651564733
0.12729668808146746
0.17029147738691883
0.161265774597189
-0.10004425546007403
0.14607075824295887
0.008736159953016489
-0.039581144614183356
-0.07182918194500981
0.09822875276235632
0.16138658625197003
-0.042150268381645074
0.02100638461438249
-0.19426485838495414
-0.1897581172345028
-0.45902406063984347
0.012114977000541248
-0.23771315652999453
-0.08937419170757889
-0.3280282441693593
-0.0952344769118541
0.2206794635888237
-0.11107016084305461
0.04257963183970413
0.06083352810495639
0.1213567848322428
-0.0215165908930882
-0.01796823025973416
-0.010185361327176339
-0.006163249826846979
0.3415108412467048
0.01061872567378156
-0.3606372047383189
-0.4521156506061253
-0.3872414781805295
-0.1919377816967154
0.1825390403651405
0.16083073931393402
0.06446634981272023
0.2905013834595714
0.13345833452608472
0.016023399438066677
0.2906404551685036
0.2517300436227681
0.02057286661795376
0.17494689342156838
0.031997203090652133
-0.010220141058330034
-0.10488606300490506
-0.008639825517809363
0.14481259823615017
0.12658469268508774
-0.11724685120064234
-0.3209597227975189
-0.10182894130655552
0.02157492617794282
0.21270334028286303
0.24485754398540205
0.10567685264344896
0.6489985160398453
0.32721582421712975
0.03968317940128407
-0.19915132520192227
0.20563904953287426
-0.05799979857538146
-0.05693093042263667
0.0029833635483018923
-0.010848342020340683
-0.04781270178295275
0.016252248653673782
-0.3750891870973312
-0.22118997585634656
-0.15838740128749051
-0.3025461908724571
-0.3470290775821749
-0.28958491871734793
-0.00595864402060168
0.35707616462103203
0.3454277570930512
0.5385143443297202
0.4136592601143076
0.28581762905016056
0.20914811218667534
-0.2200144584019261
-0.11069197974296606
-0.03771787027205591
-0.06621719538870142
-0.06198918969733952
-0.08489086186650857
-0.16590103404391407
-0.41428285787360547
0.06564737074138777
-0.20713780061939377
-0.15819725884430755
-0.3530002698988899
-0.5077693885415142
0.09912071626025658
0.2532479083462897
0.44212730921605126
0.4540291187723891
0.2113269078735799
0.27104252955664676
0.1317027531290324
-0.015536935218785705
-0.20396609451117384
0.03948648131793195
-0.12233832730585753
0.09102386514070152
-0.06564851010086448
