0.6659282491369992
-0.0010714983253498726
-0.34591638571733724
-1.1533008455297715
-0.8149296397098182
-1.1526751034849165
0.8082289384832231
-1.1991713423025785
-1.08084988858986
0.5134961176043005
-0.12996069813284938
0.3653275006665672
-0.8414125306976263
-0.7433394658196524
0.6595376030057336
1.0520348061607459
0.22087912461999273
-0.2041624853826544
0.26962293338826127
-0.9253141860302728
-0.3319397232361542
-0.9638348635589051
-0.5119395168448447
-0.5842533570255691
-1.9341529694453694
0.23060223392835144
0.4965075516063696
-0.2587409143445426
0.7915681355307874
0.4240077281972796
0.8848674322346629
-0.7064732817723317
-1.9116327356721101
-0.7259684462721012
-2.0510270871397203
0.1703602353733157
-1.1954983482293582
0.49927908407767163
-1.7175146782144333
-0.2885274669016151
0.271333807696928
-0.015063014164983613
0.5088743411706432
-1.483237257557311
-0.6187030315904871
0.17114648196216256
0.6315967006313997
0.6731948225574438
1.925909165630963
-0.2668670180374728
-0.9356370924524986
-2.339068921922554
0.03169433418366431
-1.2416665824828064
-1.0376538521003238
-1.3519062726513236
-0.9548926947436546
-0.537769132607401
-1.5262618700532047
-1.2904579325566725
-0.3349971580947712
-0.9072757646883173
-0.0011539522803155223
0.18817200778179902
1.2202789923952055
-0.9655140472413567
0.01792269973538818
0.22902876917494663
-1.8751257439200575
-0.35955862335089067
0.5350900139704111
-0.7250418953321563
-0.025872632303316705
-1.0172425021306377
-1.4211566784811633
-0.4534856244299146
1.7675330036993488
0.3101948973441131
-1.3406416295463224
1.747996984267018
-0.7543309134648509
1.5805805526271783
-1.5295637578715608
-0.12591119048450528
0.39045562022550145
1.34936003870146
-0.87964393305917
1.087541353946328
-0.6181235385243679
-0.659219686529174
0.6938663084257287
-1.4218443835826795
-2.0410517276321642
-0.9069467754183499
-1.1083411251449906
-0.483769460527594
-0.08758706922723762
-1.8646783022056945
-1.8540866404838834
0.9082996380596137
-2.325537224035408
0.610009911906161
-1.5795613338051586
0.5089761143660362
-1.85761940768989
-0.3226497063775778
-1.1367958194575143
-0.5652668461371184
1.8687425162919638
1.1250680237474011
-1.5049495070474133
-0.9156177007550226
1.7135954960363053
0.014379704576732934
0.22214546661714968
-1.9663027422984916
-0.165211387826497
-1.380616637081908
-2.5513175773744883
-0.6151675770614592
-1.9548904320217768
-2.8886568002923987
-0.9845002553946203
-0.0002769846350824563
0.1737156724518508
-1.251646022547787
-0.5033946741200386
-1.249910627499926
0.1558016455270487
0.5890693976295456
1.0102517251996004
-1.7098385637345694
0.04728347904807342
-0.9711634161990044
-0.9964331368405631
-0.8577748369209676
-1.8626804793852956
-1.2099343428135498
0.516850644039229
0.24452574565313115
-2.929073937599713
0.6193040650917164
-1.187729470368903
2.0314210225508886
0.8951846181719106
0.3185632242482034
0.1563042178597345
-0.24231777955542247
-2.0123325864253405
-0.5444742249871765
-1.3085576741062412
-1.0335370936980701
-0.6695641032032101
-0.7805990942663346
-0.38188646918979435
-0.14820376754239645
-0.5279904678418742
-0.7559017292324695
-0.09179771884373882
-0.2295418628612232
-1.2539734561042992
1.0725269124496835
-0.1896061163417754
-0.5719417199673921
-1.0821738857562746
-0.3493510916272657
-0.1873465264562087
-1.9186660676520715
0.7564418783604621
-2.065452556148381
-1.0444375102267833
0.6578447498949722
-0.9721290961840451
-1.5593531941324177
-0.3412608023546629
1.3405123316438106
-0.6001612142150086
0.38278258199747567
-0.11188006080227875
0.873310171961666
0.041908863694849335
1.6343125201662898
-2.7794831067013335
-1.4782339580650605
0.006805862391003939
-0.5654990128511723
1.644038789709586
-0.12607904813049003
0.05585575945371621
-0.48306835775774526
-1.7000379892221578
0.9371451607612238
-0.129436086826407
-0.35609950619690367
-0.15174778722053134
0.9653659194629215
-0.37460569595386867
1.0181796866371906
1.0772361609798589
0.5719736606107955
-2.8748206739536872
-1.454888335400085
-0.8069153963831368
0.5836526835124397
-1.6225050973865347
-0.9355526422682767
0.7965522428810803
0.9131487595365001
0.3562249044626754
-2.9278991907121594
-0.23479180075833295
-0.6731494203983648
-1.099708849279175
-1.269752217944991
1.5092265860983984
-2.3207764893674723
-0.2685288976364687
-1.0056168035176936
0.7180331407170724
0.34696860930817547
0.31756241140304386
-2.176756530950825
0.7504714204798566
1.4775488380517456
-0.6250109285073376
-0.35279574278756304
1.0319658597967913
-0.37902275243271094
-1.4312219505145858
-0.23043362275616958
-0.34557335038380843
-1.456229099668469
-1.8022512002021716
-0.6347198221560006
0.7969436124989454
-1.1165493294845203
-1.708682578615683
-0.7401972608306149
-0.7742390508017832
-1.6541306405161267
-0.6152840952430375
-0.5714917272364743
-2.266183154687858
-0.54208727467183
-0.773041045505336
-0.00020122158021931326
0.18004955479463594
0.5235806814856364
-0.5861390228991372
-1.024859990662496
-1.6551799734678478
0.7569919992041464
-2.247757787310808
-3.0184078311820612
-1.4501384450656514
3.276673938753814
-2.3481005274921176
-0.8700903754233903
0.5334830641993598
-1.662175258489622
-2.3114875611289447
-0.08287710176624367
1.1949328209621066
0.5597491239287998
-1.8783386793502181
0.5567336288206048
0.4211876884295475
0.039187248619001705
1.0651126204214865
0.2859599610381568
1.0994496007556083
-1.4329574377648815
-1.2190613720065062
-1.9798216261174075
-0.049529255567063106
-1.9379734213261723
-1.5508642362680254
-0.8189490626274053
1.0734793356078873
0.3781580280994069
-0.10183598639251547
-1.0868411154755628
-0.4007131106719122
-1.980115445715647
-1.50090584649896
-1.656935796222847
0.948454800157685
-1.714077803707265
-0.07832441739101162
-1.2115434772950395
0.31054968961153107
-1.5185807832002582
1.088629949334943
-1.426653277610263
-0.8596062822725404
-0.8918276324925537
-0.8660037682579961
1.4918430904205613
-3.150817039981494
-0.5710932771439735
-0.6624431966328959
0.44928345561375316
0.8035080108801348
-1.7688842911116027
-0.7239385914370257
0.534895758204723
0.00359996834863301
-0.13875601421123518
-0.3072688413312503
-0.6074324721848081
-1.6248776735779933
-1.414007477571525
0.27405187018340327
-1.3732597139535023
1.592278422252496
1.326840378037012
-4.1096704077123185
-0.474526363615535
0.11973966135819625
0.6193003008118952
-1.7435181794702437
-0.31446891200467975
-1.667353284120013
1.1216236662397954
-1.0368058216379112
-1.5499845699375212
-0.11531595178172889
-0.607808676596941
0.5846284639472897
-2.7687495187013402
-0.277948976557978
0.7419662188279929
0.09913764661350775
0.3861286722778364
0.4239231809894161
-1.651878593440756
-3.290893115770932
-1.8518525580943577
0.0025400222059971255
-2.161735792930809
0.1068605813563005
-0.3171166762969392
0.6823100612972712
-0.6786181744718279
-1.440134932603047
-1.233127192674063
-1.7754841169395275
-0.6847607551283448
0.08101607881459584
-0.5214538020636668
-1.1448386854631796
0.517209856725534
-0.645753191589734
0.9560706372712183
-1.1531295413160136
-0.5587909940062215
-3.074628935054622
-2.07781230277929
0.3722724002012556
3.011999606429645
0.2103245303004813
0.547355381450977
1.1682334244437769
-0.8170907344463646
-1.1628692872941206
-1.1063500559712722
1.253253181761383
0.005263132550256939
-0.3404706583303487
-1.0938429720682408
-0.8214194357740515
-1.1647519544084064
0.5395920568867119
0.3493853972042303
0.7983848860791848
0.37299339425015304
-0.6887596895323167
-0.3915030057310873
-1.3318082865079863
-0.28638050444347657
-1.370183335616417
-1.1831666149592992
-0.8575671986733245
-0.3086292496838402
2.0617318254410195
0.9178948889907571
1.089983347091352
-1.7750127122974493
-0.3146247659803056
0.7338575055410459
-0.15679780719469433
-0.4301649803589923
-2.4914448439570602
-1.131183838560435
-1.1192583226332702
-1.0370412402378852
-1.5289532588569863
-2.465072188779938
-0.9123869808763168
-1.0460877507150315
0.019867766771699984
0.07991312219382066
-1.1960905513196083
0.1776572179602763
-1.9414173641637695
-0.41938152491541025
-1.812201909902576
-1.4356597917610483
-1.6526197289973426
-1.5603908496789576
-0.581132133181952
1.970843399114293
0.08277076738562364
1.2238433156190098
0.2755980190977374
0.006582741845571114
-0.9019949613878572
-0.9614549846525734
-1.2108196516310967
1.0594095614513688
-0.5108997549434832
-0.7607367957094135
-0.827832407139462
-1.1294369377029811
-0.32412596409404376
1.5497779571123362
1.1505176240718167
0.29298576454531206
0.002160001101650346
0.3436716727730132
-1.0378199246021822
-0.598862582309841
-1.4511876044988112
-1.5449495149697676
-0.4572937301371962
0.06694191981383323
0.615513426491263
0.39033925907608513
-0.04711805973794181
1.072209120743004
-2.2095712382276016
0.5960229686313613
-1.6580273997516781
0.39592208619536
0.678308245761008
0.9976783367428971
0.2787289162167704
1.290137750416177
-0.6701682541439787
0.11873427210734994
-0.5055146780972156
-2.8768381445820927
1.0860194091628355
0.1711035564190812
-1.150978660450956
-1.3928129283581092
-1.2044440499872269
1.6075445262949946
-1.3956843102211747
-1.3366026987589616
-0.40936831151402125
-0.2701574409520801
0.6521449106959902
-0.2803198451819345
0.3773571664154428
1.4999826692559615
-0.062054964998154084
-1.940848213839229
-1.4308345004862197
-0.8051689864247161
-0.9726670140765444
-0.46334241623150413
-1.4551864431620485
-0.2716353456547377
0.19636498432354213
-2.5738218577937433
-1.7045528037862236
-0.7190936057056365
0.20199550434139188
-1.8336316938348591
-0.05040731452897849
-0.03846605328428803
-1.366655024693135
-1.9640332575163062
-1.8056780068453104
-0.6277035287341517
-2.579970920569725
-0.9779494258297015
-1.286566595932449
0.00012181085500954057
0.08092120872995848
-0.4199452510980669
0.3934191885400555
0.338070174058133
0.29812849731004226
0.49754739345857296
-0.8493233560854654
-0.657008833782065
-0.22209697014189742
2.4857808239598698
-3.8848953518882605
-1.389993771365557
2.2622410896813663
0.0013084565156967546
0.03883023982722766
-0.08451235714024138
-1.5840825486344339
-1.323697321071264
-1.413172490534927
-0.8435312315633735
-0.7660734611358383
0.7345975383522358
1.406641560007639
-2.0026031286939623
-2.816173377097524
-0.3904455957113169
0.7051310076799684
-1.1602581753309604
-1.0639293988397984
-1.7893644075540323
-1.5697725580477397
0.06760577316938335
-1.532605569428021
-0.42971751046599066
-1.8934532845260974
-0.23799142611981572
-0.6756649789077603
-0.6465720753643549
0.6068621453034068
-0.45867854150860843
-2.406301051327364
-2.1231171271703344
-0.15553561729219764
0.7013372556798623
-1.9781253201236662
0.9508768479275901
0.5159023110590935
1.629550196531536
-0.5436961021676839
-1.1507919884046258
0.6710265597662753
-0.7759823360122607
-1.6713011607920252
-0.5729425660022409
0.9760289886882441
0.8993880281065452
-3.1250897254502576
-1.2742040911651151
-0.26550061116537965
-1.7148665837230437
0.009301336609753312
-1.114312996407603
0.6232548652518948
-0.31878162023990336
-0.6522459243916143
1.3679447822901103
-0.6558010924177577
-1.4184348434216272
-0.5029013079299318
0.054833873996671105
-2.7660030378099942
-1.1396154795843183
-1.839608286880039
-1.984627944905707
0.47039263180647733
1.610256714005375
0.6998749593501848
-1.9274318590737056
-0.062158096983569444
0.14770519390470704
1.135261002573034
-0.05279970974373846
-0.19476889356158533
0.8132675531793526
0.32685929574899397
0.17410436927315895
-0.5880500391047896
0.49750734305770605
-1.311424101117408
-1.7400678329449661
-1.5734246530182452
-1.5814048046983522
-1.7387471161501238
-3.4903907788694353
-0.4825547171404788
-1.999933896399918
0.8219419499684028
-0.5454530065667272
-1.514946089621992
-0.5948880532520996
-0.47934327642621477
1.5420717048798203
-1.5545440855443051
-0.5228708657408556
0.6519309243096288
1.055733681388365
1.5430096876186534
-1.1350995975153473
-0.61129933648796
-0.7152589034968466
0.18065540415816203
-2.227220207134764
-0.8761175833526312
0.07266092625370854
-0.2154011984938565
0.43475268751835416
0.3241079777598721
-2.5617803632775376
1.7756740034133094
0.6963371269634372
1.2435831550256338
-0.007607143300165138
-1.0097476643255585
-0.6242604594539459
-0.2657550838941972
-1.0733819893892211
-0.8224072067301255
1.0176379561795932
-1.3891907762899356
-0.8508485765847373
0.5251102592112675
-0.005308269956365827
0.5003639435094424
-2.0327889375918247
1.1158961094404207
-1.1278703621435453
0.5924955197220534
1.3522155716460311
0.05214938541319573
2.3757931306188143
-1.7439832403140514
0.5690962910600679
-0.09469766016069446
-1.4535139462335243
-1.7040257438069204
-0.06106703582116314
0.3827074973605106
-0.763949812418631
-1.159970111068718
-2.088804576495595
0.12537840603751735
0.43369380284006503
-1.784851069264244
0.09608778153776637
-0.19445904143927897
0.0788629333548678
0.15874068737481306
-1.1789829752770709
-2.293145642749014
-0.4271513281727347
0.16027217941768204
1.5999358782597528
-0.9048736238177184
0.24730193729110567
-0.1050269833293275
-1.1368331835979613
-1.1558973296880948
-1.1845620902879135
-0.8673520507746196
0.5863833416752783
-0.711170596844495
-1.8294434015671746
-0.8446586352824976
-0.5848787597462822
-1.2555830257624239
-1.3642479428455783
-0.5472116894714758
0.4768297394370047
-0.7538330565002697
-1.1262724200652328
-1.291716175871979
0.19714358108955438
-0.00889218720690871
0.39456171879458685
-1.4453535580564982
-0.40225646316429475
0.41152768380543575
-1.451908716587142
0.5336842039968429
-0.2311597119613819
-1.179712282541242
0.38169789449056873
0.8308910699358045
-0.7650300784570647
-0.3829734452168102
0.47642392193929956
-1.8267467624285871
-1.7101781121879271
-1.2225791569493123
-0.09193459359173188
-1.2338899159224008
0.1289440113646941
-0.01885408906733246
-1.5246121280198213
-1.158890334000541
0.6307667858277375
0.2291165974147209
-1.71689349153028
1.2641974025514233
-1.15138484614288
0.9703511978105757
-1.4806541562679996
-0.9904223392405697
-1.911315480317621
-0.24208131995130688
-0.6680534838601653
0.7458986561443472
-0.4316213549391865
-0.7426419192949855
-0.7833350747723407
1.5068202666591521
0.019039458816971937
-1.2855128713123984
1.0898529949734137
0.27906528460330415
-0.3586912420932718
-0.9717592873679695
0.8222506712159969
-1.0440608601661432
-1.3837332670449174
0.6327945043202726
-1.2482570254781191
-1.944844353998864
-1.8607901258433825
-1.6085093996511954
-0.9173214209921082
1.1401078200022807
-0.15625325135154283
1.0927921569613757
-1.8743831755493994
-1.6281126880573202
-0.9929192655770837
1.1589834143997748
-0.009712283945530305
-0.08056616468759803
-1.2477107172703346
-0.963655164813809
1.215368361173833
-0.29709921680837037
-0.17540779603628004
0.054929558199102675
1.2949888306318238
-1.4187010420863024
-0.026189289410356673
-0.06866608411041404
-0.3039568203194309
-0.3123329205910087
0.0011110159233528208
-1.0798196170417464
-0.12332249967348187
-2.7888406530945646
-1.7041831115225266
1.7148967063660707
-1.6647078156119675
0.2396241539409509
-1.4454839341698773
-0.2137889172709518
-3.2697613841856077
-1.2191669590871974
-0.6185921143555637
-1.7323199335232762
0.6667834127617084
1.8747100634216884
-0.31358019157977335
0.840615530353658
-0.7611623614703212
-0.10797625387050407
-0.5079424031437028
-0.5025851529958868
-0.01625049060244536
0.27013736276645695
-0.5637224380337281
1.26656748746805
-0.20136020252528655
-0.9463888365027813
-0.9168472506345586
-0.9303600920029489
-1.442362741554044
-1.753592106431374
0.4867105232945657
-0.11020220246952829
-1.7143053034584455
-0.5551911186675241
1.2980190335206976
-1.4036535760838496
0.9959421040427061
0.5368219030904908
-2.5563347108752486
-1.2604412913791498
0.3327018800719044
0.208307939412684
0.3103157454188272
-1.1995354650865078
0.9435268389448193
0.00988965838942211
-1.5661485031742952
-0.8771619276405233
-0.5049079882015909
-0.02300840392163894
-0.9868230509412822
0.8387216710609716
2.8493083597110727
0.18272147546597553
0.46753302001026664
0.1745665204497677
-0.013380486511422937
0.9240784490496338
0.06996112916774637
-1.4136648552977373
0.28570878110849235
-0.9694115543450924
0.74314446121343
-0.5549955896166456
-1.812926678711278
-0.5103590148685652
-0.07022889432460604
-1.101015009277902
-1.4684336829778035
-2.8212616602806366
-0.6661358665117033
0.8027158366254296
-2.210844185715151
-0.5076094672713144
0.3726093090473734
-1.2122773356708436
-1.5835370957086699
-0.21747162919149937
-0.2294666940368749
-0.6127398942609966
0.2556755845041687
-0.8201949074566051
0.243340405976502
-0.5340363403474478
-0.10252103896410088
-0.4247243736737561
0.11572022319022246
-0.24293549097559272
-0.2765114086310086
0.9575853345932694
-1.9701808844356974
-0.01587941563646638
-0.41579274000226896
0.6533542311153199
-0.9465769331060013
0.4494178711619957
-1.70344577408167
-1.4960997542506427
-1.4670574357996211
-1.5143015589002013
-2.466011275679172
-0.6346510776148905
0.010733194672718514
-1.0606919027073625
0.6307625359087596
-1.8351814459254532
-0.007644658886518949
-0.14361676523772982
-2.2360406617543416
-0.7081148414003869
-2.2383479989252053
0.49343787024041597
1.3099419577201845
0.6573305540688557
1.650676088161366
-0.21123234414553718
-1.4330815619119983
-1.8778040033472547
-0.837969102847594
-3.4170831987557375
-1.3948310965271982
0.5657396718889041
-1.603171700285114
-2.230499753364469
-1.0951935509088022
0.8040941893719308
-1.9793328581231595
-0.31433573559052386
0.41100523737764066
0.09908865714386539
-0.2069738817186293
-1.1212893277791394
-0.536858126115813
-1.04954385071675
-1.0636119063362466
-1.2590605148195677
0.578911903109683
0.26960926510234584
-1.2689737545199702
0.01606333799122417
1.344235119650848
0.35361140039786565
-0.09479463965324944
-1.2160827453013237
-0.9003890433087052
0.5062301900417991
-0.8376928210892663
-0.48442254044132754
-0.5187717586211467
-0.4767591253150126
-3.5538731675990958
-1.9128167913949736
0.6601345739484163
-2.0884503539758352
0.40610190732129586
-0.7001131572679812
1.2836681353068793
0.4918238811521109
-1.5097710142820573
0.8839398134862568
-1.1787340106080462
0.01028141961728307
-0.7378039661908072
0.2616215163969811
1.1229516320065889
0.6904881659912868
-0.19461695892873448
0.005128381738584941
-0.17680409109535655
-0.48986118376456494
-0.9456893013958015
-2.0676143584494735
-1.3422546151589887
-1.492121382221312
-1.9108548537856656
0.314389054444575
-0.5528804905122635
-1.893435719273153
-0.4926154629468585
-0.3987387655960562
-0.8365574593976187
1.2606904288261835
0.14493651512597874
-1.2672735335102445
-4.270350712432514
-0.8904745910185401
1.0836615725071985
-1.0633392840898206
0.1009219104752269
-0.31527608115107353
-1.9363074897864543
0.11290214531525135
-1.2157554936664614
-0.3139728436138225
-1.2112542855788837
0.5257239500654316
-1.9346488704545546
1.389263632499216
-1.8211822923266283
-0.9049647354249365
0.15429841660259
-0.5475058645528212
-0.036900763886344196
0.31714517352657634
0.6287321597237029
-1.4902360439807523
1.5467262442979657
-1.4960531850606418
-1.7603986572313026
-0.5834999393039934
-1.0890825637421429
-0.9047994544984485
0.5342041536210584
-0.8089689751702034
-0.315105395285527
-1.2673133363312719
-0.8250328261243951
0.6746830061156766
0.7015609899323844
1.4954308849756688
1.6507701761489502
-0.40942981751411706
0.688643423973593
0.5618977781823408
0.16574994996321038
-1.0008500926537258
-0.5805283309973441
-2.059330497658566
-0.003907211996370354
-0.8789488732689934
1.4921320086479926
-0.9537870388010554
1.0931503945334304
0.024398005274222454
-0.640547173105017
0.9517248607677115
-2.4486214136376105
-0.3797050322787749
-0.03446110165699641
-0.9595857265815589
-0.9774966396642797
-1.5622991474278125
0.21937529558599062
-1.7931937285016009
1.120399229535944
-1.3650174693757033
-0.2818709339694956
0.5070236756871488
-1.0469939455243702
-0.07314994554079005
1.1504980813669645
-0.9488776519754654
-0.5008085242957838
-1.3953474937423467
-0.9985168039212517
-1.4714701363308573
-1.0230268116904644
-1.0054768461317531
0.6512123781676113
0.8893019941505246
-0.3576107394405682
0.8870429595904803
-3.4429919694977382
-2.318358880442139
0.25816815018218114
-1.282618353292726
0.2123256751193475
0.28826938846346467
-1.1600848198582554
-0.983632679155551
-1.4379209049408341
-0.39669632897722146
1.406364989104355
0.26953084628124174
0.009237789342200377
-1.8382467052235092
0.07803342754819521
-0.6000353692741802
0.9966180347414811
0.16220675809195806
-1.5968874576953078
-0.7751669200173829
0.4441257706080304
0.6688143453165462
-0.7385252560741322
-1.4777954834021478
0.7430676958265889
0.28743668245310416
-0.9343981447215993
-2.346366388456672e-05
-2.673701489292614
0.06401540299992406
-1.0327272777340895
0.10443897736892131
-0.6669876519300402
-2.93578654883429
0.8971078156915915
0.059494712646404165
0.43561314671179524
0.60403449693818
-0.641499126351468
-1.8171033381833828
-0.4341409914145256
-0.44113209481825544
0.16014523956703908
-0.5161062615327232
0.5852517389272688
0.9223028118125364
-1.0333079841795865
1.353753280703475
0.33780605557284565
-1.7572610435790696
-2.876744878702532
-0.8987143841999856
-1.6543093730607084
0.04226465059675733
-1.6262704629832987
-0.6497104191702194
1.7535505873142114
1.0003281833209146
-1.748967385183555
-0.05461461148670008
0.5550353758208932
0.23245395421475823
-1.520427675704683
0.5330631215717632
-2.279479323311233
-0.1777469340606646
1.5928949405958666
-0.6272011757304072
-0.7585955590759907
-1.6659796772438116
-0.3186152933292234
-2.136384997918385
1.3948992904812592
-0.7795116924531597
0.8582335202179935
-1.7590902701934026
-0.6565745713379019
1.4096752259005079
1.211417325737854
-1.1130220286442136
1.5452853731404217
-0.21994171567891307
0.9792585736803021
-1.8955379024444514
-2.2065915737638897
-1.0841052752767522
-1.0747610105349086
-2.6972214866768907
-0.008490595436519642
-0.9088854737468185
-1.803226487848478
-0.45565063728755373
-1.5450402645693755
0.9300386673599224
1.126948514904669
-0.32592615101206757
0.008401527677730995
0.21958492252906983
-0.9782200556705526
-1.480272211389051
-0.14636742181778134
0.06920351919982738
-1.9349810059730403
0.7924758488585306
-0.7055675795068977
0.1025533082589561
-1.0423766854416412
-1.958612675419195
0.6508266371848115
-0.8900699063964891
-0.04552982099878726
-0.9703125765389746
-0.9876097688816833
2.2494057735241815
-1.0475412078727881
-1.0897125188674437
-1.5003090722548695
-1.117600116862148
-1.3608409644239123
-1.0266030143259388
-0.7926968641621346
0.13855727350776728
0.3765395910087434
-1.606270465982492
-0.7871711107813013
-0.10493385095274849
-1.5537967915716826
-0.2116297426520247
-1.354413255288255
1.1677794855188908
-1.4709488684335792
-0.26896545094739027
0.6294936998913081
1.0732191374974371
0.4559533963484939
0.47218656490905886
1.6397653646490904
-0.5120558219245726
0.4699248748338292
-0.2570906074452167
-0.4143455604552938
-0.717598136539634
0.4712248147178504
0.13919295831302822
-1.0684298800087748
-1.011330095206823
-2.0109026894452042
1.1839672367621639
-1.539674444955883
-0.006894991452750812
-0.7788070792828916
1.4449419319642502
-0.7039778254520708
0.3133524969714574
-0.855221013535245
0.06538686750864356
-0.8571383480358762
-1.3555610343205304
-0.9425838760075288
-1.4870414858508503
1.0833608337082135
-0.8627018700446042
0.7727071012751073
0.49711834050072845
0.05506577155156286
-0.7269426551582038
-1.545708786872885
2.577712388628731
-1.076173746254894
0.8159111728247344
0.26053202566421396
1.1267644893692572
-2.0305571999162537
-2.4306386679266883
-1.742132151661449
-0.7726732885859889
-1.6065741025094349
-2.1614848335149546
-0.9463610391350105
-1.2667728854403872
0.9473323428175783
-0.8815763875006571
-1.6364326434943608
0.9116586208290408
0.09223702789166857
-0.08715212750725092
-1.8034802515306647
-0.7433744844075681
0.7492534409601025
-0.5590110081906389
-1.4815126117125652
-0.7419793246946023
-0.4049658133116511
-0.4110196048559827
-1.4578465166753833
-0.054434604552282426
-0.09882229300600999
-2.4128926093616627
-0.8493351082275964
-1.4433052841589706
-2.0223661898069643
-0.7742993250842276
0.15966008601300022
-0.7229222184369434
0.8449608473780649
-0.1978720107776922
1.4580681348285836
1.1633526859608183
0.8535438218623241
-0.47932432567244565
0.0008599288365899755
0.638145169178635
-0.48141996704277107
0.2694209483619809
0.9343342740968739
-1.93295727326578
0.20425016345892996
2.0798340411352525
-2.8308211576372315
-0.42726284989070845
-0.5794866845453294
1.3463247178942563
-0.9597652083458321
1.224077910679742
-2.1494336178937212
-0.7039839836654442
0.8362260532985286
-0.3658530058811441
-0.3668685709183329
1.1666528256972917
-0.9364449086683798
0.6159011955979414
0.16412128398493384
1.6587603969231999
0.4947174743704266
-1.8368353298514803
-0.2869505755514033
-1.0132751357648018
-2.7694939292027128
-2.729363969165531
-0.8826565728294572
-1.6185681045771751
-0.8426131806116058
-0.041740979632831986
-1.1644679150928008
-0.5489367832053235
-1.363210719583729
2.2757183329033746
-0.08817221807119834
-0.7362562354606198
-0.6606419406076747
0.2167707154060451
-1.1332795587010542
-0.05818953857981127
-0.0867956699946584
-1.2589061644288357
-0.15963912200338523
-1.5509626207410443
-0.28455409071605614
-0.4459607592303762
0.7560881011220253
-1.7877460726883752
-0.39616378934722846
-0.6961956775411706
-1.971630741557032
-0.8694062624407785
-1.845072499079264
-0.023331441250601295
1.7877931978638464
-0.9431966930677405
1.9758779174737207
0.004628813555832376
-0.5432156568863019
1.0291160233464274
-0.7543668668468428
0.7246173602699271
0.0820051071066557
0.11332373093015079
-2.528253789185551
-1.7030553679885219
-1.314375763782956
-1.5478849194180186
0.38126402816628774
-0.623856829560562
-0.31405528564479845
-0.7716197983326922
-1.1939166601728728
-0.41258131798169495
-1.930849278302035
1.0317193632966555
0.04929931763028317
1.061875376007116
0.1496729307977876
-1.694410372266824
-0.37810818589133394
-2.6599044668253446
-0.15558939244587755
0.6663719594006214
-2.8459059987451845
0.8884379844619651
-1.5181894906262257
-0.8074505592665627
-2.0153852282933635
-0.22975394311898426
0.2812012759139502
-1.1291840459930986
-0.2546546395701025
-0.6757594888007262
0.7288848300481815
-0.6234373047672999
0.650365993132815
-0.6570688797974883
-1.2354872352374016
-1.431124145792041
-1.0732373603137761
-0.6195215766801537
1.4721402344579249
-1.014242857922943
-0.8454947961306427
-0.7707338073879093
-1.1663460238817496
0.9123861060827197
-1.9030657989338544
-0.22823511097680557
-0.6123776074607706
0.3720879960321603
-0.983253723016241
0.17849631549148123
0.6533619812577559
0.7994417569715535
0.4533903086710808
0.6524422343808227
-0.0007829303118296622
-0.7003731380995182
-0.5660935493753364
-0.9624996236050634
-0.4924773273392349
0.4080143222764366
0.886932348825518
-2.8199016691927867
0.3755411248524855
-0.6429621188150824
-0.4000339287531446
-0.8457216191773782
-0.7771307989058018
-0.12951117428404418
-0.17442592919968963
1.3427273313396162
-0.2534181567709664
0.43378458210717774
0.6448916043209162
0.9884312130103403
-0.5022952147928255
-0.13109406152542677
-0.010520457186820596
0.47069491566873856
-0.07593468191855751
-2.2093658741217057
0.6722329231081398
-1.5999517761059914
-1.6522197175056954
0.8267993501628998
-1.7560405016640248
-0.6771351288561683
-0.41350620007822125
-2.4551443876244825
-1.313896702631351
-1.5845613051359173
0.867622865284984
0.14857964664979653
-0.19141362132698603
0.9136500827878802
0.6861991827963028
-1.3147637595557238
0.45385088678382435
-0.44751274795103163
0.559226045295661
-2.074136215625842
0.7697516539265804
-1.6869460751985323
-0.3179484859548178
-0.6218232971167135
0.9497278333493173
-1.7876850285023553
-0.9779513737325065
1.288045295063094
-0.8629266760317134
0.18730986810724734
0.5513719417583075
-0.17082579294323486
-1.3967577588086915
-1.1128708087373844
0.14907585653396765
-0.007798549949993499
-1.0556209513557793
-0.23359534395697368
-0.7469635589743098
0.42219366042245104
-0.5992891980838143
-0.03485934469953218
-2.9089493141517138
-0.8509065355074712
-2.884264805567751
-0.3094694433524217
-1.0545888059069926
1.2952292238751566
0.19944354626768848
-1.1553302739278997
0.1733158339826543
0.2423488656312091
0.39364359684899786
-1.2086894586097388
-1.2569522448092765
0.5335802552767925
-0.31601656763814984
-1.0243667318228058
-1.5967375708854645
0.2446975644602158
-0.3190588270956139
0.12685778222957114
1.5382820662286993
-0.7628824161964903
0.12408286518168783
-1.069863156541199
-2.2054541900421865
-1.6118439254703598
0.061335070439618035
0.5812076220039094
-2.6198050699316604
-0.1141102471772064
-0.06358968480519371
-0.8169816639635445
0.7646922547561906
0.255784182940823
0.6146213521093081
-0.6902445005552531
-0.2171147724911675
1.2484630361663192
-1.6444509005533463
-0.8723382274382154
0.7088671876432633
0.9003535028165782
-0.8826521402391629
0.40602320654159874
-2.0375289735050672
0.9726833049331655
0.17904924742862283
-1.1571505817825574
0.34077221017638326
-1.6315329637134726
-0.09151289302760983
-1.417580979379804
-1.21384899136616
-3.127568228186237
-0.008068799419103441
-0.14590939276872272
0.8901924986765871
-0.3340032943017288
-0.0670570840434451
-0.985642104251209
0.257565822718812
-0.7656722124676358
-2.022219893542286
-1.3329627412200256
0.6635049559115755
-0.17548602425496007
-0.696158967457599
0.1567752246662758
-0.38174586618209877
0.43984141924852554
-0.21113688927321825
-1.643317825166009
-1.8567823833391865
-1.560841113342216
0.4052473679389326
0.6541517102118757
-1.884867948535752
-1.3301287837417437
-1.8835662400429272
0.45378046223141527
0.35494418969021696
0.7308507452275794
0.3769087353609636
-1.5633565415340267
-1.3152403579574234
0.13608353115491603
-0.3372822639566712
0.7534603983009415
0.41956454230204693
-0.44556877609753665
-0.007616837663259071
1.0906569368522698
-1.125023457751478
0.5833454008113961
-1.174265723561105
0.5098434919920198
-0.8576658414657673
-0.3104232072812247
-1.1286579564625754
-2.6277090403197234
0.7144180017462964
-0.4531706617338902
-1.2552361367228309
-1.3851048649457731
-0.5029583631780072
-1.0881509349801228
0.3817478298405893
-0.259546552919071
-0.4375276140529258
-1.9264546073930149
-1.1288125314986335
0.25865579101996605
1.0806256549911497
-0.9964568977455226
-1.737915202396122
-0.006493551007965026
-0.24822834023456886
0.5596472776584269
-0.8763535044306239
0.26044918259388466
-1.189881133552197
-0.9005171382636971
-1.167202945093711
-1.3190479481569375
-2.0755127474535535
0.17925434937220577
0.47536983207241945
-1.5339345270835916
-1.5842531566332678
0.18497560837860036
0.490221180457703
0.044408102572914346
-0.5633831381144982
0.2642532927770044
-1.224557844726217
0.3901620128290122
0.32129118952563546
0.7791328060250216
0.7496141106000345
0.8925818453334463
0.5307733942686613
-1.207016695298157
1.007595980631871
-1.422492200483414
-0.9839809250481304
0.5195431216997548
-0.18966253738391523
-1.2416836171914754
-1.4406428039479777
0.9132521481629392
-2.2595967989409473
0.564054312045084
-0.30163676103518017
-1.0409608817224032
0.005598109523842645
0.9496790904207074
-0.5069106940739166
-0.19359223100049444
-0.044541442856303716
-1.9267239347142942
-0.009341504602321062
-0.8295088276543697
0.31174050157058897
-0.18033981410628902
-0.8170347279127029
-0.5107032944025813
-0.6504305613000235
0.8237850001331014
0.7399165123544088
-0.9395818955136005
0.4042106105971764
-2.014261477519418
0.4103331390838062
-0.04244107994055417
-1.4210340788420421
1.3869056897051606
0.0002265411824118376
-1.8557881037651816
-1.7810788972410299
-1.210463320304307
1.4288036451882398
-0.23038002272391359
-1.1420892531328664
-1.0071644469310879
0.022561362848606367
-2.2349159240028076
0.7869045804389979
-0.5101524797584678
1.1679126095504135
-1.7361702918005688
-1.894454325165269
-1.8145562063505045
0.5632748898763503
0.8934092150819255
-1.8285038643542226
-1.774777535706741
0.9964547379583941
-0.282958066544071
-1.268654603796819
0.44425302222158375
0.5200896638415153
-1.2826182536036954
0.15491153246054715
-0.2821068527886385
0.5335475252661042
-0.45637117877063155
-1.4824464390108565
-0.2757484139721932
-0.9909418798164524
-1.5099247384535803
-1.5860722498854272
-1.8432450812822003
-1.6326433730464347
0.5659034819018102
-0.4923698892096526
-1.9285014532943252
-0.0440051843537719
0.6530970006673923
-1.0975941758505474
-0.25213031392096585
2.402927182667959
0.30577218109274823
0.10067380939535747
-0.6588257390138386
1.270800655706749
0.7070773777716426
-0.523968545447827
-2.2908150394023603
-0.1251462771280405
-1.252453101559838
-1.5673838581113821
-0.3640346056156481
-0.7195360307567246
-1.4687997568048314
-0.4316528420707054
1.6898392481484912
0.25728130592345966
0.006338179283717537
1.2577902316599066
0.5866070916629055
1.940361802877466
-1.4242852299282036
-1.7300758006054537
0.3530835542040009
-0.721565338169775
-0.9420704895259341
-0.38151456310251874
-1.2168707060832364
-0.625282769059742
1.4396766386009967
0.15871474661376342
-2.386490426043359
-1.7178303863737827
-3.2383100685661788
-0.28359743001989524
-1.6965291407102059
0.24167595934869976
-0.7177570854856146
-1.9304584706112584
0.3547053279643603
1.1767777081622122
-0.30409583709219745
-2.2456253644120294
-0.3280005013851832
-0.6004379000913739
0.016410400603492067
-0.17550676385701663
-1.2357354555686537
1.4971686553688228
-0.12786077953924982
0.7902872527975596
-0.2875181228956677
-0.15715307237565757
-1.6664059303473582
0.26729364970284347
-1.63098728722145
0.09137132042634184
-2.6788409064674505
-0.9872359325938201
0.98116653074742
-0.11338254744914883
-1.012171756588278
-0.24540149859305796
-0.9111615329863799
0.27918766096777226
-1.7754219981365398
1.2247083436513977
0.2539276579141413
-2.5133094377204466
-1.153227799162439
-1.6695650164099476
-0.3531451890835589
-2.0286809803080588
-1.7683802137696847
1.5214897306070103
-1.7212783455018936
0.8601472134295729
-1.4509898858083845
0.003001317022702555
0.4033444709204311
0.7819679579490183
1.0338300148822037
-1.0207600699706547
-2.686114315655271
-0.6696163460481002
-1.095508442272944
-2.201335554574222
1.4297756833493513
-0.33635871408166484
0.02986871170360525
-2.136565783004247
-1.6690241021171826
0.7395642312164163
-1.3764271270685067
0.05219177548331485
-0.5902014027652563
-2.0119221419676494
-0.4301437997402028
-0.5921462800419294
-0.22902697901791613
-0.3870399028191418
0.8400407426565863
0.45475437289437753
-2.0194486333210846
0.11624424985400751
0.5505868380390645
-0.3852407262444737
-1.6222490282294817
0.7631504886069291
0.9652670120025661
0.6570988008486924
-1.062965767029323
-1.638932473973326
-0.16367615090997134
-1.1581772251617333
-1.6394884717377713
1.3685830243075672
-0.015972472718594782
0.005860781320297096
-0.9583083822445801
2.1017481586548716
0.012672069733481249
-2.3409094120039917
-2.2151842280537846
-2.058231053369458
-1.6067654488541603
-1.8229391164649873
0.5901784670377045
-1.085164636340143
-0.19109305328547455
-0.9980720761279784
-0.6176274678062711
-0.1182983615486261
-0.9361195930705923
1.088449836229143
0.2677203610558792
-0.5966579877811923
-3.0163545057786787
-0.7294606131156759
-0.008696471170445563
-1.3201895779281672
0.594957006746749
0.2992082828518085
-1.732169470009783
1.2295409949377643
-0.871347601860286
-1.070890915166154
-0.5348792758585974
-1.05797060187267
-1.0145936932153954
-0.5894880000075127
-1.4292373291605664
-1.2773073233154069
0.09012536152540271
1.5966162014565508
0.2719366147067015
-0.8287485406609282
-0.03762236189755506
0.24330093165979566
-0.17845753731180974
1.0365929939022955
-1.672702636223449
0.25790612511050715
-0.3100660688925225
-0.059989144632736004
-1.9908647252325076
-0.31001677991493465
-2.9072123560524115
1.4834585340336897
1.1138858104949214
1.0022792671760188
-0.4181056310139129
0.5163377021016242
-0.7300392351663197
-0.3632752527029275
-1.9068761763100526
-0.6006591461630141
-1.9363864504130215
-0.8712740088662012
1.579785136840534
-1.2953323368008414
-1.5886001206326403
0.5108475112495965
-0.5004514798448909
-0.19526138766014872
-0.8606729182412135
-1.6028104680383675
-1.3481283134189301
0.4633894537893043
1.0463152767930621
-0.11762274459194114
0.36950624971626245
-1.400011423893842
-1.6299439341052064
-1.6378867563278283
-1.4669730079715062
1.6112935125282988
1.4369180198601401
-1.4445238807923688
1.6586484175220069
0.0007859308781033112
1.3060705995653
-0.8474150516917914
-0.34808718578757075
1.2198452232976706
-1.9874467395794433
-2.0556429954348947
-1.75997809536637
1.1567294157148575
-2.076518082165741
1.629242285836399
-1.2617930075372077
-2.708759115705734
-0.7050298553441614
0.6500197577455765
-1.656778047912975
1.0138721009087353
-0.5926112095403462
0.359003461055606
-1.8222676923100873
-1.9686127544693166
-0.15507525658751664
-1.41029804776523
-0.4247038149393744
0.8995548119264922
0.8534307273405342
-0.3901354306556386
0.257979581241902
1.2495765222764552
0.11417913738914426
-1.0790205306335476
0.358092761331036
-1.4753553450634043
-1.8448022505385406
-2.5210038165041113
-0.3453094383968298
-1.2467479557424488
1.5674161741383017
-1.6345072706121802
-0.8351195855907155
-1.2629188891351657
-3.1997932285431943
-0.5134317502687644
-0.27562667780355826
-2.594455189381775
0.7306263033907411
-0.4466677300129126
0.4534684357277079
-2.8263916468116728
-0.29290963249336327
-2.241490950283847
-0.024214660643947877
0.8598687917718958
-0.4180675271749333
-0.7165793797891834
-0.7938681974327713
1.1380930110894893
-0.44076654863455667
-0.4772950012444484
-1.0071431706362297
-0.3038752979980015
0.0035359021659221584
-0.2739933430801679
-1.0617564557205716
-0.8978071896744706
-1.5030681636668661
2.2018221406771836
0.5171228831664013
-2.909620552531758
0.7714907862260904
-2.0982302696479573
-1.591519752876029
-1.8846966828288048
0.9713327566610034
-2.085380248757166
-1.0969534255919717
1.1165423191355832
-0.9151581624581526
-1.2080286138689347
-0.33427725121925145
-1.0807808286634473
-0.35080130394185566
-1.6243246591935063
1.1767169869473424
-1.0840803444540452
-1.748935927998749
1.1002603966923008
-1.4021711742874012
-0.30143826869638474
-1.8984951652800535
-2.21609084050954
0.8517695491193991
-0.17161917301719978
1.2163572615724059
-2.1265643385210593
0.6896796857512069
-0.5048936032095627
-0.9028995184191975
-2.534416260946464
-1.5447680620438016
-0.5428416960804501
0.3324432100165411
-1.1674665177246892
0.6101149494953991
-0.16182083825131266
-0.940338806942525
-0.6772671935851377
-0.7263455796849891
0.3581340712294436
-0.5631353920588931
-0.49351297604990596
-1.098191894103452
0.7597776229397911
1.8618651371125454
-0.2483855834366432
-0.870154708118703
-0.2370351924161963
-0.42485650223724714
1.9837389713425857
-0.3930971886182927
-0.21719372736907688
-2.5694106057550963
0.009154261436405306
0.7612393497277741
-0.1816837896456552
0.5218944782017195
0.8578589335055634
0.14345466426195672
0.5804009328287489
-0.4960958138356163
-1.7210264966930675
-1.3111554324445713
1.3801859362883737
-1.3004278985112572
-1.293613366741713
-1.6638318329601596
0.3293767498881906
-0.9420412908106025
0.43585892482838795
0.6095957551997385
0.05205972456087097
0.015432434913871647
0.03435743369750121
-1.972601851878932
-0.8140486100680192
-0.3375839276314447
-0.36652399892332066
0.13477481671217964
-0.33108274110104435
-0.11718869653370405
0.5422684808299587
-2.9944641481577055
-0.4025137651622604
-1.7302858800721013
-2.091612675291626
-1.3330092659716546
-1.919656942371037
-1.7732731858471706
-2.4916711318024123
0.7326074143297645
0.6968622141210239
-0.22526824363175563
0.37189691405910114
0.7750489285504858
-1.7918372870435288
0.024766131716600488
1.1286358595017116
-0.17433597677169427
-0.5759309242149822
-1.2873572542689353
-0.7371228808377679
0.9513524617530666
-0.4005712889731389
0.8904759331189311
-0.3111721265475137
-1.1934480919897246
1.3011210585424993
0.7106943442266942
0.309416688592296
-0.5574858097643981
-0.6470161774911534
-1.9780115852522309
-0.04346543352928259
0.005725611817121447
-1.981416778740625
-1.2595257042423738
-2.0079480166427373
-1.7837459111873288
-1.0376313274308744
-0.8201574217318166
-0.8063585834820202
0.5639292669686675
-0.8849389016571575
1.0945036504837222
-2.1704660704285956
1.1369238486951043
-0.572710649035874
-1.0599725541891236
-2.1198691877598264
-2.6484427988848185
-0.06754412532480727
-0.770312106550595
2.163292938644459
-1.7103027611127033
-1.5985363520381635
-1.235354070307288
-2.599930923099767
0.13507753933509534
0.38016546466045537
-0.43131173725541805
-0.8307212087758196
-0.4395905722759197
1.0238782768056192
-0.43635799801105946
-1.365332668091965
-0.9410143495229891
-0.338239572382757
0.2458064963936625
-0.7444344556788419
-1.614532668568943
-0.22218693613938353
-1.4062220916124033
-0.15077086211156923
-0.49960741187058044
0.28994036170412607
1.1105158585833521
-0.5316231140858227
-0.8658624949860887
1.125897254042064
-1.2387171717184922
2.097258932727337
1.8287285558349742
-2.5440551607962183
1.2864174695226318
0.16978315399176455
0.038316089057060056
0.017501924664451295
-1.24911205664442
-1.2952665905076859
-0.41526136917347073
1.333478746173781
-0.8157537079560736
-2.8273863811777478
-0.7927772153786954
0.002596918351899827
-0.1260180793937984
-1.1122608514710481
-0.9702324106975241
-0.809889321831572
-2.290581467325297
-1.4103400495343796
1.495346325493811
0.08934069803912709
-2.245929672810355
0.30651013102852215
0.04845079297347555
1.1020336235127126
-2.4797593325418843
-0.22469646922453132
-1.013087994670312
-0.8565231979483432
-1.2376609191140167
-1.076893583056229
-0.6175732457792424
-0.038594713152339664
-1.5022591605517324
-1.204379978860516
-0.10857910522090815
-2.1875724280842697
0.557990443230021
-0.3776528474259016
-1.3131022500770015
2.1168723012549004
-2.2429836773322354
-0.6965082337818517
-0.3755445132705436
0.15381945185046472
2.874226080684978
1.5542117936440059
-0.5393438685635363
0.3992864912807184
-2.5424513342974513
-0.8097815319225101
-0.2732440915666909
-0.5436501097299938
-1.3814414770756214
-1.1713469987329215
-0.3050555798688634
0.062113486556269
-2.7544934736238935
-0.5455978235297483
1.8648837401944296
1.3884165290939932
-0.9013142990023669
-1.2090565299321177
0.2120529273630627
-1.1813537847506863
-0.9741301420026036
0.1847891963208528
0.3187949843209784
-1.7327676363086695
-1.6354412783365773
0.9372561699217941
1.0881584080118112
-1.586177922059251
0.009666355445564429
-1.56237193892922
-0.5679926249255673
-0.19111545740709482
0.6566231432341288
0.21902591253638254
-0.19615202544595695
0.39721443885870644
-1.3310516277935542
0.07091473386716678
-1.9825095067141505
-0.16252642503694523
1.4533423173616031
-1.5283442135467327
-0.3753604661534079
-1.5438040515436726
-2.0311041153357055
-1.1710035856774843
-0.815580164004335
-1.4822252436589904
-1.2887512998978143
-1.3150009235526587
-0.9563191201255362
0.965926844556914
0.9096304006159333
0.8163239725610033
-1.7209152171881874
0.6715070549473897
-1.6144609244330586
-1.5102867667999238
-1.2215444867031835
0.59203913876645
-1.5220591665082766
1.5246187349048712
-1.6743943988341652
-1.0108694243691536
0.9290470925365256
1.2818259584571134
-0.695786731287258
-1.2210737031976215
-1.0009985577237606
0.42459822203214515
-1.0654906949368654
0.45521554095834876
1.1428764060790957
0.13448582175325544
-0.26561966362499345
-2.1704497567741314
-0.09342502092943389
0.6571156898298558
-0.659733373126618
-0.4406308321652568
0.07859172955649281
-0.31221965893253495
-0.29959970704551786
1.2954900094075164
-1.5901885287020032
2.1710010432947717
0.5004136813665852
-0.12162012338488848
0.5597219243443767
0.00989147607107105
-1.4346765406301254
-0.2462490577592486
-0.9102735270055159
0.7802960451918532
-1.126590983228638
-0.8762130687796795
0.6012479363175258
-0.8721795140985503
-1.1370716639162712
0.5080802668306473
1.4226797982512889
0.6729804497910569
0.3948167676412194
-1.460860527388825
-1.6588348841333422
-2.3296007374421825
0.4228222976666135
-0.5153714562260516
-2.6088698548611156
0.9332215594234758
-0.3756179400866943
-1.0582747914080082
-1.485508842558965
0.8697764947776199
-0.6569064364183183
-0.10985579216484936
0.28429841692364727
0.42291591109347204
-1.5138756519673902
1.1674386145443967
0.7747226689527323
-1.483420499957614
0.4466324030326302
0.26394709680012407
-0.2404255855160842
-2.3640202586928263
-0.4955449529479326
-0.4333655779937036
-1.3363810753027563
-0.45646216202391104
-0.19152364400064936
1.253291023674422
0.22694687188243423
-2.1719684825725
-1.9871952525094136
-0.9897462551412037
0.4966050393594734
-1.4117984793840668
-1.2207465585968025
-0.5436162051830173
0.43450470463363744
-0.26859249010256775
0.3298183838886065
-0.22168606313543268
-0.4223412660303698
-1.4237861193653576
0.7490069576657282
-1.3867471008024335
-1.6036579423982646
-1.2063430894218723
-0.008724744825962827
-0.8854067448246502
-0.5855562872610459
-1.3611759146398468
-1.4264321337364407
0.9651155349020353
-1.9535941792190825
0.2965250820724088
-0.6142926982651062
0.9114101132741521
-0.8978580646221606
1.1465989771648364
-0.6332474662942165
0.5934659793652669
0.17592891151270024
-2.235556332369333
-1.2179311259392953
-0.6800052855290368
-0.12285688911568586
-1.0883456143884171
-0.5827306245284746
-1.515893906018038
1.45644817078273
-1.5204597949953131
-0.03765826316026865
-2.674045160847883
0.5386856592303002
-0.5733057578597188
-1.1694578656987331
-1.3361073735497855
0.11917467901853998
-0.12647557542030488
-2.243877236673031
-2.797439845395688
-2.9746737695871386
-0.45714538258720966
0.12563022503414473
-2.036986071449976
1.3980200719491571
-1.144943997622599
-0.36648132696867414
-1.150696640375518
0.6244937686061269
-0.09534008648945286
1.247135341590368
0.6920745258986596
-1.6596343745674225
2.7475731913477457
-0.7090636975697026
-1.7021007019815741
-0.5478570459566218
0.5627184393883905
-2.5289365887928854
-0.7576800328485644
1.4473749339313113
2.0014596284318285
0.661571747454644
-0.9296820714502975
-0.19235669131798308
0.21206401060677757
-2.2037659024461185
0.0006180800208461009
0.03929207414107928
-0.9358417432882586
0.9526343608532832
-0.35680460699256444
-0.9688741580359383
-0.49956608326433066
1.8218648191886466
0.2771995630278738
-0.16349724438343602
0.5207901222879537
0.5012048710972979
0.07413320028073989
-0.06422287378981563
-0.23627140942127736
1.0352636552959167
-1.3063811715640614
-0.9838604620954534
-0.9262173067650965
-2.326141718071907
-1.2569445282081242
0.5881501747646415
-0.3396557294120009
-1.257216131636787
-1.9035913689558603
-1.0137681134362064
-0.6257174560039628
0.22147246269405302
0.3357476068173024
1.2173810949169797
0.07675163864998055
-0.14562868606959103
0.0836675446816755
0.7996567617307696
-0.14627034837337116
-0.4197147011733132
-0.6148824080710009
0.43159527820756693
-0.06131536391622089
-1.0077523885380044
0.027305858883640195
-0.5083278561625231
-0.14095323027164694
-0.1028263754569411
-1.7833528909251062
-1.226003758197346
0.7961551517114891
-1.6649051057202224
-1.1918862979690943
1.4354284685467331
-1.0822950493923298
0.5765699901399535
-0.79066391531418
-0.2011973621194635
-1.8952160295954883
-1.7156962733437287
-1.9195537061355097
-0.8654793110725283
-1.0566776064757342
0.7498304244561357
0.7919477649795501
-0.009294681288952009
-1.9551102033129266
-1.4159147045050366
-2.17410863827629
-1.8168761328376724
-1.5417453084071946
-1.6268508686567094
-0.5027309442416489
1.084858075597985
0.310856087833271
-1.6625966004093884
-1.6178181871505508
-1.938203735528731
-0.8704648857210134
-1.1979810116370486
0.8903141444920439
0.47454572800058276
0.7056746821285095
-0.824707764071131
1.1278100373444464
-1.7688479956342815
-0.2696819045304987
-0.9846976024054162
-0.08058572978633277
-1.0066705418318143
1.504728117319934
-0.7565447274401561
0.6767822594671689
-0.4811870809598062
0.36084306838088925
0.4674914462113321
-1.2949124334453226
0.5016099599430555
-1.2756237252142133
-0.8502971322268986
-1.7995254054974201
-1.3654751887297096
0.8333574469015523
-2.742637445722701
-1.5866204405517255
1.698828172276334
0.12267751735031567
-1.7625300323361515
-0.993642388900372
-1.1258377666938577
0.8927294217462083
-1.735688744191537
-1.6143387204611415
1.7345023427519812
-0.5439879438279567
0.9750436209615508
0.9636707639871741
-0.6945555238322265
1.9165901903112827
-1.9008092080881434
-0.9941555757455415
0.08875788684935879
-2.776035635896335
-1.6676195696817673
-1.9669805960560087
1.0877384172336486
0.005109004077559456
0.23755248131219947
-1.6402273971936718
-0.12051745313708959
-1.5321177222981333
1.806506344433036
-1.2423251861217588
0.040432202296855506
3.007232053619933
1.1014528324724062
-3.6863251208000167
-1.3459470324671552
-1.3994779297157314
-1.5818640798903976
0.12279692024504586
-2.22014279444007
0.10330105797753054
0.19740732191807242
-2.1048667818422246
0.3270164968449242
-1.8989794694325004
-1.5231721882293532
-1.25963162473569
-0.003611038162588725
-0.2792918083919763
-1.7608591344892954
0.06536528097541507
-0.4257673993976805
-0.21546522708243027
1.3658688921687387
-1.8254709191978253
0.769245634969151
0.3514269978925317
-2.1345094192995204
-1.6379031887952489
0.3788359634051938
-1.5932178617011579
-0.9442064786661616
-0.6241373408463271
-0.6530421357729218
-0.647548618304851
-3.235744666208118
-0.052765281435119805
0.060317940458265475
-0.215772514186262
0.08292703656045165
0.12865463928332135
-1.076610087362297
0.07919158653182103
-0.020227191018338954
-2.5821571510389867
-1.1480091558869798
-2.221647471480115
-1.2554474868065844
-2.963230795813064
-1.2227251433839375
-1.7771733226344653
0.8011910303589693
-1.0313836953792366
1.120773570912174
-2.313155199324317
-0.009619096010231754
0.4595304943329502
-0.9713016943613273
1.026571661805654
-1.3128416186664051
-0.9407475729649168
1.1681603535352645
-0.8647641360227463
-0.874115862837887
0.8643797462636494
-1.7310265288320466
-0.8437929600287011
-1.3159547860954222
-1.2649373789379257
-1.6478270648089788
0.384351109006906
-1.5048904422041836
-0.0829850038566067
-1.2313408156218606
0.9651790438895406
-1.1712271865057169
-1.3923238019671877
-0.2752415497954613
0.4618688794707164
-0.09831281267768079
0.9708244883690611
0.03283888158005338
0.8169180748717098
0.01808186658108539
0.4537365376840534
-0.6151364506559106
-0.3863066478937718
0.3319747567009261
-1.95969901600413
-0.7767447079796354
0.07950143193668545
-0.9489458935298533
1.0576980541465264
-1.3169567809026104
-0.9812198270447076
-0.028131583827676953
1.701708189684598
-0.21020689882060573
-1.2332702650361154
-1.277282281323844
-0.428174530278677
0.4892585149559037
-1.0365817629220901
-0.9344544187426311
1.0106829683124905
-1.9793575246153732
-1.985332466675328
-0.9366723113153514
-0.9726101115032701
-0.22187966185147542
-0.05047291285825208
-0.6723540172652421
-1.9868274665907693
-0.669559601683476
0.3958269424214981
1.4299271408279992
-0.008838555019428039
-0.2219566103593641
0.47128113513183845
0.23755116199244308
-0.48110154254858883
0.6762390876459038
-2.0738084207056757
0.44223101001766857
-3.4212310480307555
0.3593797955884966
2.1600764999345015
-0.8476417749801307
-0.9938389156952275
-1.2833744836239316
0.4481457347131355
-0.41126942720153126
0.1259199129848384
0.7825850501462781
-0.6999891772608429
0.04918917876957602
-0.44883413894042806
-1.0281819872947071
-0.3369021625043227
0.41388741931245254
-0.2283635669359746
-1.6864035648576314
-0.9539379882100629
-1.0986145603347897
-0.971869129549981
-0.1446080836830765
-1.3735233020454745
-0.12791765149275564
0.2327567999871717
-1.2761305256033315
-1.4538718760737797
-1.3418426535467651
-1.5754528355372277
-2.3128392797263455
-0.11612451574484378
-0.6040391657578077
0.18685273845273578
-1.1112241419077336
-1.9411349035455685
0.5361431536285691
1.9656003043439414
0.6870071147652717
-1.6642222513563878
-0.99402965590015
1.9020903139634253
0.527715660393996
-0.09816705971223588
1.374772567920609
-1.077456040847328
-1.1229773120056477
-1.9926375039780293
-1.3736007169955133
-0.9466750633493313
-1.7499977131425861
-1.40944845170434
-1.1643725696660314
-0.445778916678106
0.0012847593312080557
0.6763836388237676
-0.5172588401363631
-0.5479109141075788
-2.0570323130792114
-1.9470339736620872
0.48203491813836385
-1.2509124662252638
-0.1095420036009683
-0.8797014476720633
-1.931333264383289
1.2259282378373297
-0.6247451984262363
-2.05269752818358
-0.6953799473291309
-1.4421134409140897
-1.4975375129663986
-1.7737182810855323
-1.6659375756431536
-1.089338804697061
-1.4149725617038973
-1.6070909646399267
-1.4472878011426775
-0.24861818427892746
-0.22098407266442205
1.0365873080554715
-0.5211497418109464
0.9290849186947235
0.19895745697290593
2.0560001401148496
-0.4943105147321458
0.5417301237083337
0.7168325828437171
-1.7391958729547752
1.332377893133873
-0.7938342585505374
0.7881047370258237
1.05055852375653
-2.018083600927433
-1.1956422551683248
0.40423092091526514
-1.327558289958572
0.41451735118405636
-0.693492098893362
-2.376004477229976
-2.0522647553036992
-0.8376074851167207
-1.3961966364567318
-0.7746544641784076
-0.5885994726377423
-1.763420235256776
-0.9265050401227237
1.3726196939833055
1.5470193487101584
0.0331532827901848
-0.20445441349552085
-0.7045187989032198
0.7522518302613967
-1.3712772101059338
-2.343130460435531
0.46700377829564504
0.004968620113869485
-1.7981243557620292
-1.056749436911475
0.4209165815294116
-0.34039708792012957
-0.7370981388922396
-0.6868422868926592
-1.0338681346089897
-0.3028489148426223
-1.624025230355055
-2.014503322577493
-0.970536380498601
1.1034321391437043
-0.9420537544427426
-0.774980147283919
0.392080191342444
0.6379635738403046
-1.5946124619253566
0.16999501559109995
-1.4307251052762797
-1.0892723079150892
-1.4641546127558314
-0.6117522188430351
0.2090671116434811
0.7572861157376534
0.5629378418100236
-0.3910498553472169
1.720206992149757
0.5431053547111322
0.09877651866817379
0.07114658804999804
0.20291248781662324
-1.7963473073254783
1.4870630346977838
-1.0318564643786519
0.28919351501630214
-0.9999817965975172
-1.4176425303418965
-1.58510062153943
1.5304631382702494
1.0804733730878546
0.18823638395960174
0.567823032063423
0.08868793271224995
-1.607035702474152
-2.056952358358835
-0.8130098277977654
-1.0415699403820657
-1.5000072321922935
-1.422072716812234
-1.9389221846881914
-0.43691843503869987
-1.8991038834607965
-0.750155536507111
-0.1506319434941372
1.027972260709123
0.49870809267827904
-1.7746761203700678
0.17822431020645665
1.0106475631208656
-0.6948095047408177
0.004064914085490682
-0.38430705826477685
-0.4584028337603304
1.0533236642251065
-0.445090263483992
-0.8642061469464039
0.07610876325322727
-1.4216871200176444
-1.8329948441364465
-1.4619139758861488
1.0271553172324421
-0.4725095644389263
0.6612273621218113
2.3352089795857878
-0.8599822285092118
-0.36117424607581045
-0.7285756495026229
-1.3380433388305142
-1.6334436317888532
-0.9280438489000298
-0.9234086832173322
-1.9331548016905706
-3.3163636987327028
-1.532491479554124
-2.0464305984971
1.075467298441791
-0.3007143590084558
1.410315638819266
-0.10411740939553821
-0.600838827055564
-0.279260253642859
0.32706895944844927
-0.25760481941286717
-2.0028543497437243
-2.3923188636450954
-0.08343389811701316
0.09021700891874737
-1.2628005705857015
-0.10094969022622836
-0.8299722117771733
1.318733153741283
-0.6239355260228417
0.7470048349216969
0.4518956593088985
1.3992569973918276
-1.0237392988929632
-0.8976461531898943
0.8310544891968329
1.256230260139865
0.8422306292717879
-0.9378573840519338
-0.7315261268629486
-1.8607604524955395
-1.2914181744152742
-1.9614972870266902
-1.9448580564641929
0.2479412367143986
0.008450388619958971
-1.881591157080076
-0.0044972969976813165
0.30531994604152285
-0.003007463880767447
-1.8545916269171758
-0.8862016425672996
-0.17143512289213875
-0.8739849541904721
0.4894296184840571
-1.0762327661064774
0.2837662843154042
-0.1422321709320616
-0.4396891743697422
-1.7581435078836805
-1.1845075983960458
-1.5158692455748788
-1.0582812523673766
-2.229922276670715
-1.5091348145747143
0.047353550671714095
1.1701807817793166
0.00433052545677411
1.1118314769303737
-0.6877917200440754
-1.184362958589301
-0.5312326827472396
0.39002610067079535
1.3097976615033
-1.5032519189001625
-0.45566306026991416
-0.9107025509093364
0.0854102801576529
0.23764253657911014
0.7656015615848173
-0.4698208656464623
-0.5152222931045274
-0.08973865236270519
-0.7037217487147949
-0.18197610582707804
-1.2181685053929519
0.5155352182575105
2.8586876484462422
-1.1264659146368396
-2.824403618904702
1.223899695387953
-1.65987357874578
-1.5057156151004272
-1.7744955645332523
0.13351971683436323
-0.5849256934577356
-1.8638491527002394
-2.5756619862640555
-0.16244207667445235
1.4988109296146743
-0.4707206586866694
-0.8505089037932752
-2.079112804927459
0.9307739496057643
-1.3141601635720663
0.11408573447397588
-2.5373809339789917
0.5866695436747189
-0.2674036365823611
2.78199019392864
0.0048631593288045345
-0.6042315799853777
-1.1839861653858355
-0.4488752741566854
-1.9654336996654886
-0.3843535655034265
-1.532558298843014
-0.519768607608052
1.4243512820194206
-1.453811316515119
-1.3551181524709186
0.3295898496841321
0.6590859676830324
0.693327497728112
0.5271660739246178
-0.7395493105299413
-0.7569507455975337
-2.367733105112579
-0.33302070332047645
-1.3673948402528364
-0.41308001379809367
-2.057368731673943
-0.7169808496477498
-1.6520534820313375
-2.66871270484703
-0.4172330741501804
-0.09219544004394768
-1.190133061454307
-0.0984571260702274
0.8202580514435566
0.736382153465104
-0.28388906134188757
0.31798965571833177
-0.13676702697662702
0.40593210046850825
-0.17049119713084948
-0.3122472501455511
-0.016793823816494215
0.5751351118608937
-0.808733324944975
-1.2254275556982461
-1.0211352857079048
-1.8714237003119434
-1.2390335643322727
-1.1932828313161767
0.3902766575741777
-1.5578492161234498
-1.2007618937415276
-1.299808559462652
0.252844864312737
-0.7469187932993113
0.7716747782255696
-1.1225466496200653
-0.5902044196646218
0.7638726665778311
-1.9093595317685101
0.26400963123711485
-1.3142342355527457
-1.015306842016441
0.34286780749185297
0.4434453479100707
-0.005067968282225714
-0.9561318629519735
-0.4800660077683496
-0.8896706786511555
0.077292602087774
-1.3943628330479694
-1.5389921289290482
1.6189005892856267
-0.03539906412217357
0.35032144402110976
-1.0189982156500712
0.8163235285411431
-1.5926715881690214
-1.5485780347539417
-1.2413326583979911
-0.7724550126851715
0.03582620382927096
0.38692383517095075
0.08477869101021597
-1.8886811258198075
-1.2968364468340288
0.8294309034726922
-0.8375423213866654
1.129082525061626
-0.08152219711390575
-1.4681996470982235
-0.4035771433141389
-1.0598788078712944
-0.6694574834066798
0.4496426276076059
0.9953661840917606
0.566358727043904
-0.4534765546314878
0.8108172684198826
-1.4551972475347297
-0.8370091142940183
0.31050890663321484
-0.7596258056873526
-0.7738295523186536
-1.8632421486514494
0.37563394374137354
-1.0577659674871362
0.7516041191383627
0.06151527339203973
0.38305683201347707
-1.7552446958410919
-0.46227057942862326
-1.1762631553365532
-0.6453963602001765
-0.6528328345057243
-0.10796968650758876
0.37933576668337476
-0.6365200846842024
-0.06572074448184256
-0.7385485497069239
0.15127283861259014
-1.709369863143578
-1.1897920265309145
-0.8114735257566383
0.7461042189995684
-1.5405746514809908
0.006944385899773352
-1.6040737221072137
-0.9825984827505166
-0.9657510251984451
-0.43520615030036985
-1.0930263917863396
-0.7525227291203208
-0.7270251267667713
0.30111974639285866
-1.2022790593615953
0.32364218912211207
1.3885545387160447
-0.45995629858022424
0.8287009719207722
-2.0273077756941973
0.7906757682959928
-0.27836959319039134
0.4342145110904634
-0.12146881800430356
-0.9901373296702864
1.1362946925540751
0.004028102856050305
-0.9598003355411764
-2.6174564318028164
-1.531590455005907
0.5904338321080104
-0.9282130005844136
-0.0335072375869628
-0.18422591888704892
0.3982933014207558
1.0849159712040155
0.3260875629535486
-0.8811245703149037
0.46148047755327
-2.0796518502525942
-1.5667572758154373
-0.7852692267663833
0.6005253895349214
-0.4388687625943762
-2.1204287894760845
0.5653540222747517
0.8318828661308391
-1.5956726468727904
-0.3292071754554111
0.9880054745468497
-1.4791214014449412
-1.2666915921320336
-2.552345218112231
0.023320807853381195
-1.5036334791388262
0.5990155651420013
0.3357583574566294
-2.306043039766539
-0.039365864335494626
0.9275470630122049
-0.06464299818900755
-0.2332435223518967
-2.110986340542976
0.050596952983623836
-0.07167664634588956
-3.1601810652931905
-0.008812456920482941
0.08250681961660383
-0.8076758091548488
0.658758022807886
0.6457884879562752
-0.5989033940972844
-0.5363195600832783
-0.648295558512681
-1.3456026853027039
0.5664770670325585
-1.557976743797146
0.7468432576288697
0.4411984125001294
1.023971273224771
-0.027729677408288366
-0.6559385722668302
-0.2667296416378164
-1.3360913181029783
-0.013297992444406197
-0.5802179147085691
0.2908824545478644
-1.5247445909641713
-0.8131271406214966
-2.220042896806139
-2.3895559209540287
0.045287281147129405
-0.46086559245596576
0.9476059395266061
0.44321403224260836
-1.6129087158915674
-0.46760163673023836
-0.272295504665191
-2.091741109025593
0.2509958753271978
0.1447528863564744
-0.29948305336084025
-2.0451482108195744
0.4848863107390359
-0.1452818300494407
-1.729402882152511
-0.8090870362091335
1.0832779717005534
-0.8590703206075404
-1.1994893149441268
-1.560957969313411
0.529873560539799
0.16348074646477287
-0.1005906706108479
-0.9144606231356264
1.105826418725169
-1.3364329152530683
-1.1313345720694121
0.2794119975708437
-0.9606172280484803
-0.004368006424912437
0.7077215053207938
0.0637398243900265
-1.6233722418376788
0.20653727647550216
0.5365583308117996
-2.3848335378843757
-0.009057403667586391
0.3684412444373909
-1.6129341753478574
-1.3964239368212705
0.6016084837644055
-0.28652729982220326
-1.0241338829134305
-1.4144885856063643
-1.2624153701125906
-1.398987215046254
1.1567963253222042
-0.8731485878948476
-0.09037282250313244
-2.1345355528327206
0.8007032641196187
-1.3907680389840913
-0.29807364347919124
-1.558486490196135
-0.950521664429997
-0.963872033268241
-1.7761058373973262
1.129759777434769
-0.7260863346256137
1.8389172776237057
-1.848955123546853
0.09605290432725923
-0.6103871339486064
-0.6081063129275347
0.05137198996272319
0.7775235055818283
0.047797578155125676
0.32329752630930736
-1.2100936281604526
-0.7377576826288517
-2.0609678293928444
-1.4451935498676125
-0.2965881612931244
1.6584915493892596
-0.5529087862558967
-0.8136002031493961
-0.4855338295045568
1.8002143082798312
0.53212946653441
0.028927683045119532
0.7686750397225075
-2.3600345423497475
-0.16358540813215966
-0.230613342269348
0.2545025947599969
0.8080669151876977
-1.6994393317869658
0.624702926641471
0.38002146644296075
1.4108292928903605
0.8571384485297897
-1.7117804521038704
-0.22471727895486435
-1.1962065032241112
0.38235823839232685
-1.2461509580906878
-0.2972682083282515
0.0018457106858260127
-0.3212355247494111
-0.20114907298423948
-0.2849570647685404
-0.2634781549662205
-0.25622448273103504
-0.2665132324654705
-0.20683161087640659
-0.2972634719714996
-0.3165587390470753
-0.2637855578215834
-0.2811332879534792
-0.2864764392006361
-0.24591151130042033
-0.27321151445485853
-0.22614531123307494
-0.2790190954359981
-0.2576148321203797
-0.2106369764629847
-0.24817758396315004
-0.2273236819436239
-0.25012711641160357
-0.20445871861581796
-0.30354825957445347
-0.31735244805125146
-0.31193739646228835
-0.27396738715640123
-0.26834182363200704
-0.32060860763927257
-0.27615004753307265
-0.2827490553405437
-0.3212474869258906
-0.3516564315470973
-0.27615845914513537
-0.2751658466466366
-0.4031203488281524
-0.2915893824739056
-0.27074765730942046
-0.29504837693040764
-0.261554432093385
-0.2667034993273716
-0.2635955734244353
-0.30077329512048917
-0.23461790997233234
-0.23947533134350113
-0.27507815021339055
-0.24666195228385474
-0.24177210173634953
-0.27532200174625254
-0.2694277190776025
-0.1866411931136015
-0.3045685930122025
-0.21869147991979787
-0.27437957819883935
-0.29682394623953473
-0.2646957198330033
-0.31750162995346426
-0.2619218531419922
-0.2646524804135783
-0.297098979854326
-0.15789826676989557
-0.008702106397474126
-0.15212096016884386
-0.12573435421165424
-0.1266744965561188
-0.014591595620582664
0.021119927096407715
-0.02453978035457126
0.5492020921017756
0.5123655403101799
0.3178920244917475
0.20883782421854571
-0.04945610700476024
-0.03693770800626106
-0.2043713801595864
-0.44610146999069716
-0.21302333476382818
-0.20585547922445
-0.146734309881415
-0.179607042415375
-0.147794395092102
-0.18403232718701426
-0.15256501686792184
-0.26318111657375814
-0.07137684702378592
-0.263595566175096
-0.3091372227671665
-0.09603521576066151
0.6901325935414478
0.32070929465193165
0.6892536340286953
0.8399215812969272
0.9377938061262096
0.41212652356933555
-0.2121177814751286
-0.43899655403485577
-0.8440315872979718
-0.3252921509018849
-0.37056665798169863
-0.16575322089282785
-0.16744094814022784
-0.19070757617575182
-0.22125633933736188
-0.3433008441429292
-0.3137755245572422
-0.04836928423841242
-0.16829218357023873
-0.16442958286498366
-0.09121399876188889
0.039071256270060944
-0.19463594614881727
-0.015701176516727717
0.2748549931578726
0.5163163215486759
0.35149407513464415
0.17279326704913364
-0.31812326693900905
-0.28868063338691075
-0.31594337790798177
-0.2225090587789481
-0.21896974136253475
-0.17755314644625245
-0.046056486830686916
-0.12599094265375405
0.12411822246225221
0.11543075599565543
-0.4055004330379554
-0.5460390308933816
-0.6127718401206816
-0.0445508740162503
0.06985224125749047
0.20390642025204941
0.5223289984167877
0.49602571264390516
0.7327780138381329
0.2134898076934237
0.5722705939068913
-0.2848943770957618
-0.1681887500112027
-0.09726575481486521
-0.09907812281971703
-0.15664076037930028
-0.17741621639326538
-0.08434748701962977
-0.011058028132890831
-0.29356447528392077
-0.504504832465208
-0.23495388646860643
-0.3903889644083371
-0.40681505036417287
0.44154090880385316
-0.024338210031497
-0.1080784656915279
0.628076129897063
0.6055967649888767
0.38769693248419324
0.4606520819666603
0.3900539735533495
-0.19339699444837083
-0.19432774837317346
-0.1583949914949024
-0.1452618203784212
-0.11525510069173107
-0.06367231800465148
-0.4033861628232027
0.25854027294819715
0.10129034502293303
0.10879555275329773
-0.1533468469720729
0.3804585984348142
-0.47915088188627536
-0.10722703724491563
-0.20697663086804077
-0.11435947439530746
0.7474539386340442
0.6418116193397536
0.4895099485512352
0.24681303768566568
0.0148377405365861
0.07419020807942638
-0.15835118377196009
-0.10791753344317884
-0.098182506043647
-0.14442650987118227
-0.3286121848140193
0.009654699772432686
0.5913278750088038
-0.1573946600728326
-0.4175838628295617
-0.28303641444847083
0.4659606385415204
-0.1365303706853972
0.07332442709742534
0.6083472004567538
0.42368048120118607
0.67712642085483
0.5869661153630896
0.484998741060508
0.16733471034396627
0.1263299788953608
-0.13406074234056706
-0.08882516171903201
-0.07341077088665693
-0.36446474236654286
-0.3718299776486506
-0.09608542186139067
0.020448476010344503
0.016989930253946385
-0.712078338574057
0.27064495475613815
1.031571373024394
0.5884197067302985
0.6655863441054862
0.3862460514721111
-0.4491439107051495
0.4306845751112579
0.3806885220451107
0.7108904995558797
0.23579515968697842
0.13791456919338413
-0.005493849585818804
-0.09920683294215871
-0.07676280327308715
-0.1603006950284349
-0.2265050627940229
-0.20783700837305447
0.3909482102686674
-0.32987480075755415
-0.14091370436772432
-0.04331405615746285
0.7742491389980428
0.8688462424711025
0.6831290891602656
0.7976022332650445
0.29765089838025804
-0.38962731662274247
0.044231073850432255
0.2861699256456888
0.2098684724030969
0.13326205526382479
-0.0016525304612695039
-0.12267047545187212
-0.059792124561922295
-0.41424992211037254
-0.24098063152271085
-0.451287421978841
-0.5369946981892305
-0.41528122677600465
-0.4147503417377623
-0.908529774314548
0.09932748568187277
0.4484470123885471
-0.09309159706091531
-0.666956012711807
-1.2792893025282488
-0.8706265315797285
-0.14635026154167982
0.10664030278818463
0.07644534614588824
0.1029796616080019
-0.01091608398878254
-0.10761315793498054
-0.05964267226025347
-0.4290771167302914
-0.307667663925091
-0.3166089003633033
-0.6119846246005574
-0.5542574133323795
-0.7321997014967712
-1.1273473286895122
-0.04674508117512324
0.21336001499493493
-1.2080930616662842
-1.133206133710825
-1.4264241716233017
-0.7800328491304367
-0.6116534656024772
0.10462976640219443
-0.029180919995404293
0.04544386438205076
-0.02696390574837375
-0.09906345036797068
-0.0583995763608642
-0.37239471099295046
-0.3933030106408341
-0.3573238528921435
-0.257351480367607
-0.5107251517523449
-0.9041697493428543
-0.617643534699963
0.6895571127695329
0.17699670351743432
-0.7696410292666784
-0.8780302741571376
-0.8617108301260915
-0.7688816630250307
-0.17235147495199332
0.32845500040863235
-0.029695837204449883
0.0118918963606452
-0.023848351287830524
-0.11532218708531336
-0.06077389834479726
-0.23625530751701704
-0.6171144967796863
-0.29866330222494
0.2408457427498267
-0.7587394249205833
-0.33377515270573405
-0.23683620468078717
0.45333922551958294
0.09134836664378954
-1.0886880025809755
0.1848948436611147
0.1794106967063706
0.12391570775928816
0.1170709528942676
0.35519238093692
-0.07405163415904664
0.05526555867773668
-0.05251863401490634
-0.1544007482894205
-0.058244603544487704
-0.3070798240467208
-0.2801261300092838
0.04480272459719832
0.31711765033525613
-0.4644312122832108
0.19860303075292152
-0.139047890016264
0.9985463834976277
0.17896237894813627
0.3950537807558525
0.7811597524174149
0.6675604697072738
0.3603234737679301
0.07734221878483057
0.20462946942049745
0.0026196670263014623
0.0029955072971224266
-0.03614023496321039
-0.14626328181975143
-0.14746915113971826
-0.213523945044349
-0.15842363462969414
0.4865873271104572
0.6811596284233011
0.7587121089630988
0.10922965068422359
0.05492286164940549
0.5160330403374757
0.24056023811999389
0.21074520517475018
0.5819908186630124
-0.3869177314999366
-0.22964059297298278
0.0007588448495227373
-0.0038591989591059426
-0.06766600399101055
-0.02240171163296209
-0.1442973221603345
-0.14522420447005926
-0.15841202873653903
-0.09973133427312351
0.44837546785488036
0.5734586069184814
0.12451624539807377
-0.5009306755299961
-0.018014620872754423
0.24829243313017815
0.41980310934107434
0.6306169295572112
0.35834169215917305
0.34663307155582707
0.2556854502274428
-0.4134038162512095
-0.15712346161225152
0.0037113154445703664
-0.10033492135570876
-0.1691056384751518
-0.1134128743354215
-0.15143385480528707
-0.1795536847423268
-0.11305837846616115
-0.21152407418339192
0.09967785903366731
0.08676191209496902
0.2791100275555343
0.04431654194064322
0.06648989061704583
0.9562218665187551
0.7420057186819827
0.4178261885382575
-0.346173161909001
-0.04875799871933428
-0.5960439084407247
-0.36857477138796185
-0.2498287266010927
-0.2990770686446246
-0.14907838066699386
-0.10153041616590294
-0.15546728689223474
-0.12512612516457836
-0.08933854185647623
-0.17810884556527345
0.14202721961819115
0.23468854919649368
0.8000993052373417
0.37063920620613716
0.614265395326124
1.4769865545382748
0.37344948493732916
-0.05388766697254138
0.09751158815888242
-0.33147340299439915
-0.43952179835010713
-0.21082918940430287
-0.2326579447472692
-0.22271683054617256
-0.11884088592189593
-0.17160696600407502
-0.1585670149701671
-0.10442781840067959
-0.15874180495177992
-0.38695761909241433
0.055537078770689516
0.5462430242227878
1.2084203958878659
0.6963367953872005
1.3097151759440289
1.146007220920534
-0.0010589222171907458
-0.030966551404535046
0.2648347434972541
-0.3190012902120172
-0.15847997042836015
-0.025767235748988683
-0.04457404142981312
-0.09061408889981631
-0.11133697870494179
-0.15553904335719634
-0.1572735481713248
-0.16472896441284096
-0.22048187041839595
-0.3164252804918204
0.2422747396839206
0.6956721158347604
1.8279025978356134
1.8197668166234833
2.081098845495301
1.0142880458703183
0.663838850393525
0.49172353589899914
0.609908164165345
-1.1305340770903152
-0.30941727494037635
0.07719880588446916
-0.02676914438166847
-0.01292633937896231
-0.06784291701964917
-0.15116889238723505
0.06761479303431941
-0.008544774717935605
0.05611731029769627
0.05984420655405062
0.1735910201541382
-0.15444812663183924
-0.19066924003830713
-0.32472132771399354
0.19595857318492238
0.17435154313408896
-0.29983117961426436
-0.01956251955666082
0.624470233309409
0.4477672223427422
0.3418647612455041
0.2948125763151657
0.05583257918741725
0.06159435546972454
0.016003365151313884
0.0756246859662283
0.08117681348733087
0.03423336493816066
-0.03391173655863587
-0.14795161781863397
0.032187528336200324
-0.03542004607399035
-0.3390338797068311
-0.2532369617160895
-0.21040190851253454
-0.003279761411128799
0.008376526681516266
-0.1222943636634838
0.2525577538964836
0.597739957469974
0.8096416697622528
0.5069157794704574
0.005925188531245243
-0.057539219584581434
-0.05533489448094323
0.0038224828004864435
0.031670138497001475
-0.010783451405732159
-0.07159033459866368
-0.022657488877310335
0.06848855777793415
-0.10443506047887442
-0.21083283371103406
-0.3882483155275414
-0.4293194173774354
-0.28714247910131996
-0.4413403904726633
-0.2859434979425181
-0.130833226090205
0.381847430639573
0.05172380223300746
0.16731365338962528
0.22725732041783173
-0.014912911806941629
-0.06290887379960873
-0.03769849174182415
-0.03279463212511212
0.04146976584411052
-0.051144412906752056
0.0026445065306816683
0.09942476559221755
-0.08982449264211527
0.08420898438215155
-0.3059556163975253
-0.16035617694062068
-0.15434492877923695
0.12324271894037218
0.11281796041104115
-0.42158462308072336
-0.24117686647344055
-0.0783042999463218
0.04247285007885848
0.0017272608640627029
0.11381710823856837
-0.0786747083321591
-0.11040469321177433
-0.0341161658459522
0.04086649734660175
-0.017068106522873668
-0.056164154598806276
0.2754771613038661
-0.11774673424518663
0.12652237456773738
-0.3050129591590763
-0.022880070744092117
-0.05595192696495751
0.39003252728538534
0.12550467240674523
-0.42455982738335807
-0.23482007204513358
-0.24158476936530965
0.22480081677502686
0.09310515377980727
0.2081502705550857
-0.07326806365451341
-0.019081004287309793
0.017356194497548633
0.08673130791678742
0.01955915177616715
-0.03312160511807033
0.22011243537764288
0.0014612933489598211
0.09489225691165029
-0.019763823830626786
-0.25079177080533616
0.01888673489719485
0.29373771911009483
0.6376347760806399
0.3650865656821941
0.5618341208762913
0.10330906591812203
-0.06326487293860285
0.09753513777393957
0.19702361242450642
-0.04095288422119685
0.027469029153811088
0.028748279225967222
0.05629800521298628
0.00540916160164251
-0.050254016586931766
0.12303146170401447
-0.15224779701220728
-0.023553427563186326
0.08624173371268164
0.22917755972088244
-0.413615433311189
0.25357719203840856
0.22955764935086878
0.23865925920844067
0.3172745648228778
-0.28567163784714883
-0.357506558474947
0.18972474420280305
0.1688144067943186
0.01630729884385079
0.04375317638201509
0.04382457973591644
0.04556723289603591
0.023409965636616768
-0.019706870438896493
0.006211134987793396
-0.29899866868409014
-0.08206230814781702
0.08333090811949942
-0.14796181185811513
-0.03658145469447449
-0.0956428393876242
0.2113041727197538
-0.18715003603694289
-0.4311452009974694
-0.4036800315787163
-0.32736058114648997
0.11646392186848863
0.1841302306954436
0.028639186288042042
0.03808284349178549
0.04790446788066041
0.07347472580179014
0.03448607554480013
-0.02525773846828716
-0.14038477606418
-0.27201466837025656
-0.2616281238205366
-0.19164161564042154
-0.5348872224133188
-0.5134532407106666
0.17008427240411356
-0.23838149476183407
-0.351857142323376
-0.5952990420517997
-0.3507808988954596
-0.0397013220254271
0.07892989445106618
-0.07433264180697559
0.02805170902555242
-0.008762132389444968
0.07200308240118916
0.08472067653299759
0.07310831917401428
-0.016155392486676867
-0.11554908904001504
-0.43977095360480617
-0.5406711360519479
-0.2670358497363654
0.05039389707501368
0.4078611523835684
0.3126064336687216
0.3410838213831366
0.09774958911015483
-0.14159254287582385
-0.2566471653078929
0.06140946062715799
-0.09724854967570216
-0.1300727795536626
-0.0023691331837015824
0.011616327547582652
0.07993479523544325
0.0769372165594941
0.07294171530449675
0.0061664853249539875
0.1201659613614033
-0.5519190701329838
-0.742324297186107
-0.44453269417251995
-0.0011077773749757955
0.5495201371339008
-0.0015721245350057388
0.25206985518295183
0.7283302182911104
0.5726886335491884
-0.041103160115911676
-0.06745579809075822
0.13368196851796707
-0.17325662194592983
0.0017630017900022484
-0.007457756212944641
0.07207399328984129
0.07121192546455048
0.07435251191132725
0.007749180922689937
0.10952148615997784
-0.5208547738979443
-0.6187542776697605
-0.23962780027418273
0.16234921402685645
-0.25321839842164373
-0.2586277723139055
0.5818088007661192
0.9313547932597963
1.0797531229856838
0.8188790621888037
0.3241536769533503
0.01605312833056604
-0.11416143541693898
0.007251820060887416
0.041592016719544475
0.06689281184913864
0.07035311485081656
0.06039531992415479
0.009966962819900674
0.2006739414976691
-0.33149537595133
-0.4743816634495796
0.11562032482696148
-0.198132920233469
-0.38851468818982404
-0.06458788903460481
0.9365699754132939
1.5312006501335986
1.1306321885985964
0.489352000538708
0.08018250190999318
-0.09583238298023507
-0.10078251267570315
-0.0557150466105372
0.02920615135000728
0.04711213529367491
0.06912080179304307
0.04175675106972471
-0.011930647776191829
0.14671693611424275
-0.28035658797762847
-0.3747135897611571
0.5083181778274359
-0.299006254025777
-0.519286961607195
-0.6960942527588644
-0.11957551126370314
0.976938816745415
0.5852587025866537
0.9826220614828225
0.11997410565482719
-0.08913895666368168
0.025663066172244554
-0.0571195015076809
0.04174801882370206
0.035188416899703145
0.022169378914200337
0.02231403002604246
-0.07395453537026372
0.2954454907417498
-0.13435977586006378
0.6397733575314587
0.19657585619544646
0.21804106840546472
-0.6912181779639507
-0.7566211078806896
-0.7088757962491603
0.039310585672315615
1.1388617592324386
0.6924569796284294
0.7597961951727334
0.19406666002829873
0.06637706835089562
-0.10310512188210443
0.014408889784469817
0.03264916812326561
0.04750292762249077
-0.027436501660782653
-0.24572593110358118
0.006286292622805586
-0.35934391169058566
0.4712630624594742
0.4421125668939965
0.05379177270161566
-0.8073165357959741
-1.2477545542957806
-1.203899038800915
-0.38650388279800046
0.05467337240252985
0.8740246165051178
1.158413617078578
0.5642199201880315
0.07347741492404566
-0.1582045081042089
-0.03596581016681492
0.013657870919245942
0.07036553791648341
-0.002131114041785254
-0.07788076325012336
-0.13178277768027435
-0.08210266617362387
-0.4940527060180289
-0.44080915439956503
0.18225922719637389
0.28901726931662836
-0.1915195625391587
-0.391411817567583
-1.155812859576138
-0.5174213356600089
-0.26284271217017746
0.11736721536938918
0.057345083374590274
0.07493640524653408
-0.05219389892064474
0.015711764120629534
0.040710352142150394
0.068727962020267
0.02075294756430801
-0.039407561123110196
-0.06950913590607839
-0.07845067409993144
-0.13202857305574547
-0.36479081672008223
-0.3322424414239361
-0.21218334124366425
-0.05184265057097715
0.166143635855337
-0.15316000284787254
-0.07880224989579072
-0.14260570553303842
0.2475476819811934
0.07393254148579181
0.09354878058507232
0.028428730454160243
0.00968797986637494
0.04387461792897067
0.0640789299267793
0.06594753748453362
0.03233220250314341
0.055450687218711145
-0.059982914326087024
-0.1059999724315582
-0.7630161053282283
-0.466704025434928
-0.4409814684398907
-0.20340433953046258
0.33806419265909277
-0.14437031096434888
-0.31124610225361626
-0.12346795430551524
0.25484016550560856
0.17961618938440743
0.16001734791988584
0.048979132868334926
0.03989694824188079
0.06310178366289874
0.08336504913136261
0.07667770171160228
0.08331136810618872
0.06744472341471003
0.02201481806422048
-0.21985327489497775
-0.6355871980368147
-0.7350292758843696
-0.20393168888541668
0.14101640431798382
0.22241626490485805
-0.3376789144753171
-0.26311510649511527
0.0964036236228463
0.0775781788031352
0.02884087423444467
0.06144940530419777
0.0707190617318556
0.07483420403502461
0.0866924291330021
0.13775301726031425
0.00801148590475905
0.1396547013066953
-0.10667150247536952
-0.3509481702794741
-0.28404450690469485
-0.49069920755757457
-0.7045462563194295
0.19725239658037322
0.15230142918449543
0.49162983299460916
0.37712398764271776
0.5147012808635927
-0.0028119505406020676
-0.23821594781161815
-0.004725066561342113
0.08587171240242218
-0.024441256330314083
0.19924459766293454
0.17197848473515756
0.1316233565070888
0.21459608442629835
0.21846947265247083
-0.3686781953793698
-0.6338669131544904
-1.0373352984230548
-1.637312779642163
-1.2112823521851848
-0.4859306821136575
-0.45079867652400624
-0.40850020288677885
-0.5775963748144183
-1.1141671168998533
-1.0275086198907961
-0.2917959195997917
-0.0456346049494052
0.11696286820892761
0.09236232658323808
0.2143734337310151
0.21064484834655028
0.17912738964979363
0.13760342328478237
0.19442600598998933
-0.4400538922289405
-0.3365614321136665
-0.8028105103384579
-0.5061307341528328
-0.3850517613070184
-0.2075497720055916
-0.12920056013947268
0.1252921210903087
0.35309000344285296
-0.020508107180783754
-0.08994128882004396
-0.17963594090438526
-0.48397943849116226
-0.24102216133148255
-0.2410755969223177
0.07603275969698593
0.19774559983937906
0.1207939932131979
0.12823641125775134
0.03458509085888873
-0.16942268343854197
-0.2851435432749212
-0.42288029146596623
0.15605978667297127
0.6338088605314283
0.23688952740348507
0.20759488998707193
0.034635333015873904
-0.18444569211050998
-0.1743004257237707
-0.22482479578979736
0.038911750262297436
-0.4754990693246198
-0.20609563083878005
-0.18170168040403797
-0.024737161912173313
0.07594118441080049
0.0564914526249255
0.11367190160533834
0.1351328593830855
0.2234399021600934
-0.016067178532381064
-0.03510571195435517
0.1474045291177972
0.3633309813167049
0.34170444709702585
0.18855455445775254
0.05414084456616132
-0.2945838970104731
0.45284867357465153
0.05631736536501331
0.21759967050517356
0.07251028883968945
-0.4296389206737158
-0.1181886692584841
0.18824228253655548
0.2311420385500979
0.12269187978360356
0.10823007610441811
0.2185454005634354
0.24081783639119209
0.28842201250098976
0.3285957255219491
0.40739596306159825
0.6097075440137236
0.3628917415832011
0.06375783150988416
0.36886790639553063
-0.23895942473874449
-0.35696536185227346
-0.20193267224235478
-0.4710800611193742
-0.2853908159643567
-0.2807878802985192
-0.11956366977612246
0.3078256541881349
0.12855673273815427
0.13472641737872068
0.23886485469796193
0.21782213752637483
0.23491215020427594
0.36692697431787613
0.3254042232362921
0.31501480758592476
0.3635715445239864
0.032671790091103076
-0.18641004067380834
0.15144866334264256
-0.5886399164210506
-0.7579103097367925
-2.043551869664108
-0.597306608180057
-0.43706429998338897
-0.22525508539516753
-0.16628887192675906
0.1895422427935471
0.1586464412318812
0.17512389942389153
0.23793553599098058
0.20579097666353977
0.33354883249409933
0.34403235224412265
0.3184662557970452
0.3420978570179939
0.34064218364305493
0.12410732031529198
-0.542592187479558
-0.19657799141567595
-0.2618621147746777
-0.3425521405341294
-0.28323995106255034
0.15109232685538662
-0.4406442150762087
0.04437933526901819
-0.13840984966461703
0.20701463963529793
0.05050373998755729
0.17652369481382457
0.23545881916272082
0.21277783311556372
0.32960672225173127
0.12291190132392221
0.42184603348495975
-0.28721725565905937
-0.24260745134216358
-0.14885004603839042
-0.6816183033218798
0.0159792367756074
-0.41769512994866914
0.22183234103522792
0.24324632310451366
-0.233644711434591
0.22088762745371207
0.020632558912263354
-0.12056518089647576
0.15804590794229634
-0.014804156169166546
0.18854071157225816
0.22852481155066823
0.20936063507409272
0.29635002958689416
0.15457263845147923
0.295947417004192
-0.24297748027720045
-0.40986712988863183
-0.31990288482574664
0.03009431693545573
-0.1636095094631954
0.6214521702554561
0.5553282673989659
0.18733498339124427
0.7781128597666995
0.21269650228588874
0.05751629189058441
-0.19299760618346
0.19640717624295653
-0.023518807432223537
0.18728457154143632
0.2421436909712778
0.21977020973024378
0.260056020628757
0.22634810476709333
0.20105681613060455
-0.26071248645398426
-0.4466397714158871
-0.14112479100071873
0.4223297878462795
0.07926461719764505
0.4453950802604827
0.4278387612586838
0.9655602849730359
0.8092075985084655
0.013847551070546664
0.28981555397277553
-0.2132444331870207
0.19043103951373594
-0.012091248013900317
0.2363335422693301
0.256306770430378
0.2188692622496875
0.33424655565936556
0.24806065224623255
0.36641214139545564
-0.14931970962993799
-0.36688367226856555
0.04491013265169553
-0.0871225353288864
-0.3356159815394506
0.06822834030679323
0.08224495686181575
0.6480346273231037
0.6045385328955692
0.22074495820846252
0.16164642375133803
0.02605576687853808
0.24774961950332597
-0.002395169653980945
0.2467292195164386
0.26364361738718295
0.21092231781534013
0.27391439089035685
0.32327991402872236
0.4028080344995505
-0.1479178530535429
0.1803324767411578
0.201019341471207
-0.28581515888555614
-0.3890679943126056
-0.20909291747757713
0.1506579697214089
-0.30024105430454506
0.12113617286493575
0.03634901448173616
0.226518065071401
0.16777583084970488
0.30641646344992224
-0.018625667152091237
0.23407431806657517
0.25823973046429144
0.2292452837748017
0.18297481194187123
0.4972970755131884
0.21587588978544855
0.2843184999918667
0.22073706188786882
0.26090453619125464
-0.1116220375959757
-0.8070801925374411
-0.3991779596641294
-1.1017597287215615
-0.41026438210698063
0.3336105870965525
0.2831034840876058
0.201362914385982
0.16661334462027547
0.24651314243353187
0.16748218858637748
0.2470919090895114
0.2589525939441954
0.26294090477640114
0.0575146113158025
0.19894333539501527
0.17126453988222734
-0.08916630240347252
-0.2305623495100409
-0.04561226506438787
-0.14974311228591392
-0.07523013506457868
-0.023452337431944793
-0.7840596692033297
-0.6832183627134831
0.28614011086059193
0.29719776528420133
0.5332392966202624
0.4623315253043907
0.07031920892816779
0.21029239368111496
0.24150365794118933
0.16031472952685363
0.26545587753917044
0.15829467492546698
0.18423347454150554
-0.013179753899744875
0.00816269999409652
0.16201202393859584
-0.23915792953063092
-0.4375794419256643
-0.5133905168389078
-0.03159203042929927
-0.18705441985959895
0.08750260244933147
-0.041278310221965146
0.33642376357562315
0.7099392466111824
0.5064462004698889
0.15776226137443217
0.2650044774146255
0.1709903860790458
0.14764690456807295
0.1371939026603374
0.2434497843109344
0.17342260771186832
0.31604304675246664
0.07865458356918552
0.20412829142322605
-0.18215872293629845
-0.10794737969646784
-0.6075314237805776
-0.5874322550936107
-0.35769618309527895
-0.12401324150100727
-0.08437040656838955
-0.0743690338395291
0.47475940423091434
0.3189245159292875
0.30071942654502276
0.14292983433712508
0.1333570412507528
0.1305429685184271
0.11959356864519687
0.09481259003162085
0.05413573440076107
0.1904907392648525
-0.19584009250143516
-0.3234006680242635
-0.03875564356293124
-0.013681437258973635
-0.49164108689941455
-0.42517963162387107
-0.6161208134840471
-0.6501363354933654
-0.5448295575692734
-0.1711297367707899
-0.01281455658960756
-0.08751846693516101
0.10818549687711633
0.09609385146343645
0.14836365424472114
0.1297542952301226
0.13340568429809826
0.17278477668437536
0.020075768673107897
0.17227688737438374
0.10978634099944536
-0.02301604972263493
-0.028827076301965616
-0.19486329348049766
-0.3263355347149458
-0.2913171033995566
-0.6378830251110288
-0.7029963353140252
-0.5127160027644618
-0.4212341369822863
-0.6338018893883942
-0.5706405481352113
-0.4907142667656548
-0.21425024533897055
0.13160333764362386
0.1281286442236961
0.1417723610730816
0.14267129117773572
0.09933373458327964
0.1299567562287499
-0.06226669506148805
-0.3247013167262941
-0.6170095309479467
-0.5495239186646979
-0.3079672813962586
-0.3370818638234032
-0.45890170769123806
-0.7325797753598052
-0.46025194177284867
-0.8927909414947938
-0.7367151713109464
-0.6486674077791843
-0.5986763541050469
-0.20586844483380304
0.11751301346585245
-0.04661624791910165
0.007601342394302801
-0.02129695019666219
-0.006839359775896169
0.0045849279439259235
-0.11115949350337363
-0.16361987753723908
-0.36118993494180496
0.035162925621311694
-0.1603267073087506
-0.37076876421078375
0.23254853267604003
0.70634948260753
-0.07000680399981886
-0.2577274476850857
-0.12957844867490073
-0.023189039407331642
0.026679320956147775
-0.021951866936454928
-0.059825757063123895
-0.06576530269536425
-0.0015177097960507686
-0.007807331108069813
0.02802369458831189
0.10749683067708858
-0.038485564408760546
-0.02838375545092606
-0.04715463502490738
0.035920324246146655
0.18738347195958638
0.4241282342152418
0.5506311067680332
0.8497561484880548
0.31943691097266347
0.1183982102570207
0.059098011462369884
0.029366783948920245
0.11016859864651102
0.06923319091873809
-0.026016771640940142
-0.051698097077451995
0.023338225238281333
0.06740938589526903
0.17096925311526653
0.27397900691479665
0.07726360020492909
0.246778399218046
0.1233212719694208
0.08352190989021076
-0.036095852436920345
0.19724044873177596
0.2384787214070951
0.31972555363275806
0.07984508466477148
0.09581619330792869
0.2450896803253622
0.1534752061632995
0.21197393779716223
0.11677631235432841
0.03383007178466048
9.283759948979391e-05
0.00278006065856964
0.12350925422117735
0.2503550356715591
0.4326739182213074
0.26268910605751644
0.38917170562280023
0.09302735899149082
0.0175835873758484
-0.20210639549801718
0.4471960019455857
0.12691113318884137
0.0791019030274316
-0.18538000903459118
0.13152694342062501
0.39386221817508404
0.3713038914452887
0.28012280067555717
0.21616732851564338
0.14108187972154784
0.06375932201802652
0.00485292643207592
0.06501722777571256
0.13325957294395316
0.45035895582356705
0.3759023487535676
0.4597006093502735
-0.1124525132868416
0.017825719929299433
-0.26971231809499385
-0.2069596534859505
0.1680589112646947
0.30425482751324506
-0.21402984255990465
0.007196304181451915
0.23638063730195785
0.38168427999361815
0.30813470203418497
0.10974061485579784
0.04077140494738424
-0.009756688898641317
0.019677880394140698
0.07299713165746671
0.007963077460181048
0.35067488401033337
0.3917163689821071
0.37162805474830807
-0.0987681915507936
-0.5501104974748345
-0.6736209796669115
-0.4454136793091034
0.2157938513236241
0.1420965251311448
0.3226431608869586
-0.593702218556244
0.29248985533931005
0.22628914571501924
0.055228704152366415
0.06202996001919714
0.014747251653385134
-0.007182288612307149
-0.009777909856225443
0.04572219340156204
-0.0639753269958276
0.2456998225271007
0.21879437722189712
0.08597975604287411
0.10822339144021137
0.1158413474891741
-0.8511676300773592
0.10588701302384332
-0.7384946505969421
-0.4915263924651662
-0.4142087402857964
0.07065516456608033
-0.266431767498768
0.27024754332218515
-0.059041067460307524
0.02681138343172969
-0.011930272332420291
-0.018147090075379676
-0.027782080713410446
0.014254428370249027
-0.03332584855088296
0.029611128605335817
0.1162726267387946
-0.06779992651929848
0.1402980714929225
-0.021956926840840312
-0.29017194268505075
0.19927018236533406
-0.19003926944947497
-0.1758047324810579
0.22272862957735762
-0.09864455734984356
-0.4606645998152998
0.01900711588675073
-0.11955171221596506
-0.0010954965343561386
-0.03426108838596771
-0.024207746374329233
-0.010192993159989568
0.017476002328169118
-0.06543246961086274
-0.1784932314202161
0.02893282113652689
-0.09714206177627302
-0.2825133069615363
-0.4267889922635712
-0.46913569286593576
0.15111014010682852
0.08389326604806782
0.3240778722625821
0.37460942709547906
-0.31266839602535595
-0.3103492876523622
0.005726079834105678
-0.1542647915493556
-0.0007105034580763324
-0.037945733212807545
-0.03719993323132715
-0.001069490735282376
0.013627363891826585
-0.03162356359818221
-0.1513164301806139
-0.12923735982748458
-0.45136021238811336
-0.6635859882632676
0.24534923425660515
-0.13521458896214647
-0.2832198159695507
0.24345717408673578
0.9677245615676529
-0.07314682021545976
-0.48812628358689303
-0.2713505479471384
-0.16994247763886014
-0.13361798961639024
-0.002342021029350731
-0.034234581420466634
-0.05969009652538865
-0.03940904059042743
0.018148066804071192
-0.03482060432782614
-0.028119738611125697
-0.14534758946574902
-0.1643191127707651
-0.3859955178791216
0.4183561758946245
0.35548185989410563
0.2592969453477146
0.1783455206820616
0.5595915372724629
0.4251364768825278
-0.31294770076308415
-0.3924714728224831
0.07641474346418559
-0.12619308977612553
-0.043371327150923886
-0.055919630850325364
-0.06589442761821782
-0.03819892513460096
0.012289870063244564
-0.042228774760605346
-0.0807452810406796
-0.03389349908275658
-0.15036097318182845
0.08336902546275719
0.782903868579573
0.5702675843753351
0.40372327630964083
0.06503949150436536
0.1465146616872023
0.15300817983697437
-0.2552799750153157
-0.12487875369139538
-0.08613082335268595
-0.12021867096438811
-0.05042190769518498
-0.05276668289620553
-0.07455867448372186
-0.04286432144034354
0.007184716459833961
-0.07808933533892173
0.047367602121124744
-0.052824586122345356
-0.3123490915008303
0.15022262853369303
0.27511734813198124
0.48989173243678774
0.5903913651180466
0.18092259559170257
0.6047372204851943
0.22766847337433974
-0.5336281936342643
-0.11253711369869979
-0.2254759614061
-0.14211956975823226
-0.02882803398987351
-0.040158819275655754
-0.07533791538187454
-0.03237335310408039
-0.00839686813029284
-0.09434607482374213
-0.008526580855756197
-0.18044601911894714
-0.09565596913179195
0.3904245774391036
-0.048506856398801285
0.1859725763273424
-0.29387570488455683
-0.2867191188567553
-0.1612886138860344
-0.3934105281099797
0.27133367413149756
-0.3292941841220864
-0.24520786416155477
-0.029574639318532787
-0.03568808645197112
-0.04960537452040686
-0.07790788537405141
-0.04330234455881302
-0.011892980100101914
-0.11557893469273763
0.1109779778200412
0.1059056220891185
0.9327442336923031
0.5968291173611473
0.20812673571868862
-0.12571109926861465
-0.7683777319272651
-1.281568314432828
-0.7167118339466176
-0.19542130110771838
0.3007619508913166
0.28456450410594586
0.010830236158234448
0.037483513068359134
-0.09540807825064272
-0.050305301222980235
-0.08027322408461798
-0.03628907162905115
-0.01959191954380425
-0.16010219098890827
0.04864948472487475
-0.10414857045979616
1.2430749697611718
0.9764124743494672
0.305645542383763
-0.7572310611445574
-0.919460407753521
-1.412699954334881
-1.1052995094203668
-0.5253884331482545
0.7096982571751969
0.8823704928561908
0.6397095320011802
0.0839281601676245
-0.08673693788748539
-0.05653438603775388
-0.09085878035007847
-0.01958172857809757
0.012500421643514987
0.06139449098877209
0.004732986594630858
0.1512452726664896
0.05310930073534392
0.1142426936847462
0.06492602509254189
0.10358143861672153
-0.4258166435082294
-1.0414199733909257
-0.950051622963137
0.004977352851784528
0.1280868951960807
0.17622565836058798
0.13552244033880245
0.11094805976277622
0.08488219759256363
-0.035185917507220624
-0.06669502240945599
-0.03744123463014876
-0.001457102459229217
-0.0029723584814019613
-0.06169413318076126
-0.061177336227516574
-0.16324013019186762
-0.22914506006161126
-0.2599715600713628
-0.05483377972120483
0.13899262139121105
0.45850065990596955
0.2718006685261776
-0.10165653155207911
-0.0287375037532079
-0.030654927617537468
0.03884766284022425
0.040464002435792436
0.05712809530169725
-0.03523891686793604
-0.07047544455350566
-0.030342214548708144
0.018008290288682834
0.03330488709184892
-0.017069766936949927
-0.050261798177815044
-0.28631365879834575
-0.6436213616801171
-0.5811345894033234
-0.48990941355249434
-0.28159116257057415
0.07598997514452252
0.016788132431692804
-0.24714255605757615
-0.003968576430899467
0.03223029179938004
0.0530280487151919
0.06433768113950811
0.09516948678106682
-0.0167403903622202
-0.053810055782272236
-0.036524907404212624
-0.01580665489591531
-0.03055915384118101
-0.008095519009749932
-0.08008585474394221
-0.30581167115114244
-0.7144033034311159
-0.8097856410712817
-0.7129904953203515
-0.3151676953335878
-0.196580183496389
-0.3022053499798732
-0.2892079644947043
0.20082424131630425
0.1110547480660384
0.057677667193452346
0.029995345643036336
0.024557912932877037
-0.03493049150234413
-0.06760327684910715
0.2196405431786704
0.006827820629803928
0.17239431897108842
-0.01624965173809631
-0.1434435403824161
-0.27018667923155637
-0.33631780857319027
-0.1747056599168358
-0.004579575605565907
0.4345834909464363
0.502719519291169
0.9165100515097954
0.8827447368989374
-0.06802109899253155
-0.136868156836418
-0.15984467730796173
-0.10856630621483056
0.005840721879606398
0.14308754336571577
0.17523470504730557
0.2206853274260374
0.1757193738182081
0.12686196138704706
0.06445193469062839
-0.6354744548078642
-0.7096247912361188
-0.6602662549395195
-0.33363465272583653
-0.2422637447540886
0.17888638663737474
1.0741334707760706
0.956163058334484
1.1746546982302841
0.7995839582884399
0.834354321825007
0.2655356945199154
0.059326634262953364
0.19642233956528393
0.22653364966528977
0.1598323468596703
0.2200955328535324
0.1286402179504617
0.036177437584378136
-0.10006783764795282
-0.06836279534950977
-0.3664094031198483
-0.45847524629882236
-0.07921014604763894
-0.10197516241233717
0.2013033983553801
0.598943151465751
0.786518528508573
0.42161890409659547
0.40065668392439935
0.36329813920515946
0.39066857051496484
-0.12377733569865582
0.14130614001560354
0.15095478966140438
0.17825440156917827
0.17931520220786443
0.1703033746972202
-0.005266386803921193
-0.17531271791156733
-0.3404783446594703
-0.09337261009665554
-0.121632678324853
-0.24744433920318123
0.014824213766809346
0.15225200749577097
0.23839806573066033
0.5555983029245407
0.34433574047574633
-0.2827086602914563
-0.20038791241106474
0.3113495990761534
0.25517108970396335
-0.19723189646318873
0.009866595382943698
0.026459274973765663
0.06011391864140952
0.1699192896322467
0.1850979299149668
0.015492017698666804
-0.14557239516636727
0.1671286604438737
-0.257683548739145
-0.3560401141333028
-0.30004088567826254
0.24315099061954948
-0.1388612429143375
0.1438970620559639
-0.005716720827247893
-0.7428759184406935
-0.3098195869666936
-0.0350065228444451
0.2725907152095928
-0.1886478724855018
-0.1748586948879359
0.1369983693975398
0.25126514190614735
0.17872161156926586
0.11293481864347399
-0.10486262053754009
-0.004526867065801928
0.47908713599307706
0.2532505089156272
0.08783826499929168
0.11064968124313199
0.3147237133418154
-0.13526378450275098
0.07504223293665178
-0.2788744872027823
0.18019032141937621
0.15682213963050484
-0.20684514603000842
0.005838632508899939
-0.10418955983469429
-0.26054552824811295
-0.012737139279256538
0.2229474289109746
0.14405704738108133
0.14418578742090787
0.0334153750045441
0.22944205139758547
0.2810397900074256
0.016563744147113497
0.5042760387600224
0.8401938425256977
0.3252198195986863
0.5484424492280228
-0.11798138301189444
-1.0078306909407329
0.6509790260213154
-0.130303399187388
-0.24531385806646236
-0.07573393261135612
-0.267821234359689
-0.17370748431152241
-0.006496231011604585
0.21141777242010862
0.16114785079584712
0.14861703787620553
0.07677276692981945
0.10606783819555136
-0.02368881233066896
-0.06473523765355753
0.8781651537216376
0.85834884034684
0.9157859473561984
0.6565848901955748
0.029580948671916275
-0.5228928164111252
0.05806612346428139
0.012164490679619885
0.5382055403126945
0.006031784349429002
-0.22998567725097468
-0.1535070314145858
-0.09122861403464903
0.18148617887149146
0.1607670217189879
0.16929477631106385
0.05776307221763106
-0.015884236003733444
0.04407623723367399
-0.20022678329896001
0.39078079159998275
0.651375183136324
0.674765328793346
0.3499656309916936
-0.3089969848402379
-0.01020260633096417
-0.1426513644240823
0.11602351750619137
0.3394461810014303
-0.08645776403043685
-0.06802054241063966
-0.13448058397749607
-0.07476217526281119
0.1579258997269243
0.16607255319022574
0.17786894783991114
0.11182238514403599
0.008105937805668486
0.10465421316900803
