0.0059157432213146986
0.005345573512944806
-0.009369009938182975
0.007107290487773673
0.0087333000965173
0.00011779726648143318
-0.01713751289055135
-0.02168135527353219
-0.048370586396201926
-0.04503279065327083
-0.03528022679709535
-0.015228027112929634
-0.004713524978670662
0.0064606751829053115
0.005065017574253086
-0.0055823661645225415
0.008052510520678515
-0.008044432600851602
-0.02670728164059231
-0.08571427881149785
-0.1576521542185808
-0.15165172638483793
-0.14875218031614126
-0.16431253968494894
-0.11878619799873671
-0.08447607439792382
-0.03942170540037562
-0.010061443122077672
-0.0055046197498675445
-0.0018549416480873198
-0.008411503930980398
-0.05458251888463937
-0.16271451570759313
-0.2649265208677361
-0.26803732833602506
-0.1217319710363344
0.061145362577408074
0.1321394777672341
-0.0032835885114583263
-0.13455510716495478
-0.13014038653814766
-0.06734591493507988
0.0007045977662604014
-0.012450281289694649
-0.0276910399554372
-0.13841305991931918
-0.2873164449775803
-0.3159165694114022
-0.19228291632341626
-0.0012922842117723279
0.2344766953049136
0.44943542344259796
0.281814788743345
-0.05688759897772566
-0.16647046273942206
-0.129988660740316
-0.006574873586169051
-0.008200543164700293
-0.06911551650881094
-0.20429704707756025
-0.2863415672436506
-0.22832743416019785
-0.07417065134780697
0.032805769169989264
-0.05733990917103431
0.1462514117676882
0.3953839154229064
0.26028516904852106
0.03803144595052401
-0.04643311371285184
-0.008441378927672926
-0.012714640730827393
-0.07964350842409883
-0.12329407439737292
-0.1796607499470069
-0.0784313001610901
0.04520338994396588
-0.22136636888418287
-0.6826700415398743
-0.5082377010862245
0.21888669540565392
0.5221465623480911
0.3103914223797329
0.04186613885593074
0.0021861712707081545
-0.01352591914755367
-0.049467529826261146
0.04213169208758991
0.10406921418661552
0.24442164596949048
0.0043906740136585125
-0.7540126770435361
-1.2316807354010406
-0.9451475486322927
-0.1021831215999598
0.48418284984199483
0.3528923602335176
0.05908398033711635
-0.003886128220163864
-0.005502965014520129
-0.013758137847958296
0.1181192783207758
0.4167994308706947
0.47450038518822285
-0.3027134519469513
-1.1950034236736937
-1.3521771555635216
-0.827508227900606
-0.04768441390697444
0.30210864825644185
0.2252913179296685
0.04008234969400136
0.004142061011667202
-0.002177822428183074
-0.011500598988757488
0.11015593101686746
0.5338272999309253
0.5075672229685363
-0.43316757489540275
-1.155003236196221
-0.998601463752897
-0.3139617506925732
0.09819995282984567
0.09657276684223791
0.03149141108357153
-0.030323817845330038
-0.0029033430390364096
-0.008065400499796366
-0.02482774953066576
0.07541328857790568
0.467017146498295
0.569931342111555
-0.06779276236789006
-0.5317377553013363
-0.35775234635991
-0.12252970158139855
-0.13121860268002444
-0.12546027652250716
-0.06707172531250552
-0.040931416060394125
-0.010190483603981745
0.0035311417380213235
-0.022432712535218134
0.03038666528660547
0.27169483577997783
0.5010102237284917
0.3574676630906536
0.07211305576380281
-0.05165656148235358
-0.21043124939275434
-0.2882320482233007
-0.1707107916663275
-0.0627570578914686
-0.004528754866457896
-0.0077540400987957175
0.0018265002008059738
-0.0045811928172567
-0.01139907037121358
0.034661767416793846
0.10285133184722106
0.08934178572427606
-0.024776882682010684
-0.15274963393236457
-0.2224598942770235
-0.19477858419692226
-0.1000016162883099
-0.03082013225033346
-0.010562407190890027
-0.008384139045269022
0.009114926119361736
-9.610060264444961e-05
-0.017536653463101442
-0.07854125648233963
-0.17171899340981361
-0.23365484372257572
-0.23426648487849114
-0.2287747506384539
-0.17388581944116605
-0.09693366617194327
-0.038423821627033866
-0.01799349970294408
-0.0009050063873074998
0.003693762696975935
-0.007880810320162551
0.0052738733978606785
-0.014053985882388355
-0.03602640870199648
-0.06358251357933435
-0.05832184082976218
-0.05361784009711644
-0.05317720514208931
-0.05515411054602996
-0.04333066142280506
-0.020603448948157778
0.0013685658249679004
-0.007098586778104177
-0.0032554072152037785
0.00859283004128891
-0.005199685869443454
0.004851368845687555
-0.0006928156157691385
-0.002386419250294931
-0.013651599199576986
-0.011667182280711178
-0.01614477648695886
-0.012954806504580958
-0.007236183053519566
-0.022278604953827493
-0.01413368319333152
-0.005869728797216304
-0.009616658225931812
-0.002666616111838882
0.004985982960066924
-0.0006935545524199719
-0.006055592174799136
-0.0507955367285441
-0.10508316946022221
-0.09271835856745785
0.00024720162645627033
-0.012316960557574011
-0.07009948397238541
0.012838337600121196
0.05956460590567418
0.009476411801680908
-0.009145647631678697
-0.006499156708758408
-0.003340272329649194
0.0020871038120410033
-0.041133846870528054
-0.15134594345596084
-0.33237997487396015
-0.3044407169672007
-0.047254352820320096
-0.10702410334583393
-0.13754859956634896
0.12355578711552154
0.15350618914783626
-0.006720669339251332
-0.02953329033168898
-0.005807970308358226
0.009063053399649953
-0.017911269195170457
-0.10273378279439611
-0.29576645554540854
-0.5771160268638087
-0.5431873595482796
-0.2058287309941081
-0.20109219910193135
-0.2552342614905158
-0.11652953812896755
-0.13061470840116193
-0.1937834732641501
-0.09197672987620134
-0.008146730534710774
0.006084247693385739
-0.014404069067678322
-0.11963609317608329
-0.3178071004487796
-0.6076612305585499
-0.7246042667004581
-0.06543892493126993
0.36060921488713993
-0.15634527703708587
-0.5184139488384086
-0.4322991680690053
-0.2694491377282142
-0.10696010499365777
-0.012679853670074237
-0.0002736355811128946
-0.0106947058568681
-0.06836746230441292
-0.2412246142084615
-0.602137936394479
-0.8976613318824225
0.4121818387244993
1.058187070325051
-0.20002355538612115
-0.5938423929875658
-0.3035483526228968
-0.13682761217026185
-0.03059414940223202
0.0007350967947784705
0.006383788309351828
-0.006117457369384657
-0.05133785173783321
-0.21886037264267852
-0.7195236167861027
-1.0257008183094491
0.6427655291013764
0.8803013092888906
-0.6734537943664437
-0.5599169695398236
-0.17776083938401752
-0.06062940361184453
-0.012118524405105083
-0.0015892845552833812
0.004965547938884196
-0.008220033041800585
-0.07273956429070745
-0.2585056621937946
-0.6982890177199423
-0.6501078163877165
0.7740123090319349
0.37268374621701716
-0.9707997430908053
-0.5693862986300838
-0.22408849328879007
-0.08065142192966246
-0.01883919480007703
-0.010496746578143737
-0.0005685057047449211
-0.01772839551344145
-0.1586833422607499
-0.3268560416459564
-0.48921431609254534
-0.041976562196842974
0.8121466881522712
0.05010947752727181
-0.9122053655434725
-0.5558789659897452
-0.27773837316068006
-0.11800824759813645
-0.05012009047433538
-0.007066983321205112
-0.0049048313084951245
-0.03469938708643639
-0.22825235517306833
-0.3402217045556556
-0.24697517422805193
0.049518186526223536
0.30600016013260223
-0.14612638840967165
-0.6527956929573481
-0.5126382915202932
-0.30763994091125774
-0.16182750876641172
-0.05585723319927258
-0.014214546620446498
-0.006685244438291698
-0.025193781609108654
-0.10854567646329319
-0.12197326416355803
-0.029821757112907122
-0.23457845481630688
-0.19214591946991885
-0.0017209781305570816
-0.23337137545758163
-0.3406437521086439
-0.23878726309053716
-0.10962788077759263
-0.03247814828147603
-0.008122612912979083
0.003983170149769204
0.008502747625065067
-0.0015608602233764613
0.014691337549814665
-0.0598471919340447
-0.42401745394204804
-0.40537994023409896
-0.019616551525145805
-0.0036542250240936694
-0.10607270933803417
-0.0906690924395124
-0.049935743602159056
-0.006438725067092308
0.006997751435786421
-0.002425863890390528
0.004489957598024441
-0.007945849573532266
-0.04850542724855283
-0.1395209355868661
-0.3116497325043678
-0.3276462460038189
-0.1631344430573054
-0.04906399962064014
-0.028209976725092782
-0.015692531838075736
0.0006160703894748348
-0.0036324787968078126
0.0026739301778184957
-0.009863838336546669
-0.0052404344469907955
-0.012729521555032755
-0.02789833477910151
-0.03420017101367439
-0.054342377295174715
-0.06894836268319592
-0.05115673144091188
-0.020450207752479514
-0.008337001473627178
0.004771752552253926
0.0030144763502493953
0.0043714508786425795
-0.0005833160304657085
-0.003775149682039538
0.008093943403583588
0.0026211679151168965
0.008557858214484067
0.007882646547266874
-0.0038885847733897837
-0.03330252364210739
-0.08482434751362156
-0.12516888403850898
-0.10041380346516666
-0.06186386094898292
-0.0394782769441467
-0.011697509319349889
0.006170274363555684
0.001107761896628135
-0.00417901541901461
-0.004799079306671185
0.013221975537146968
0.06630582532164009
0.16548391489421313
0.2518835974777701
0.2452967464324774
0.15525158520031315
0.06184763203461648
-0.034404968425846234
-0.07602059994910265
-0.049338216259355305
-0.014835373958207054
0.0033491748841220897
0.00810088108624982
0.00039500269343901664
0.08316952636600136
0.24417406349490575
0.4340826254121895
0.579649336545981
0.6095477677766377
0.539443578970991
0.3302784780962938
0.012263035127721065
-0.12325917924921902
-0.08927613766909659
-0.030284885924339016
0.0014076872262417902
0.004270867188457155
0.001248383336412664
0.09095489741977429
0.2332264097103208
0.27234639847507086
0.2548332514593965
0.1796827237156404
0.15096625148666
0.051166962650123334
-0.12670287360022683
-0.12323441119474701
-0.09852828622285349
-0.062196043061742576
-0.008762256852139556
0.0051636254841300085
-0.012400115854782597
-0.020354885914355275
-0.21563187899486322
-0.37235283262938684
-0.4605522141353094
-0.5915556965156714
-0.43847170980046424
-0.1254465290956892
-0.060353541260490313
-0.11410709423265263
-0.11688120329908595
-0.06354395359285048
-0.010367482005692133
-0.003369876190866265
-0.03110144266640582
-0.27551347244895896
-0.8067301521687003
-1.0921390439685332
-1.052276537677131
-1.1597015645492592
-0.8287242937142729
-0.06650795409139201
0.12912324459670318
-0.22826299918892842
-0.2659838533887222
-0.06726368893186138
-0.0046931394005064134
0.001054269658239974
-0.05579471143628191
-0.4338591895535914
-0.9262045634618374
-0.973907646315907
-0.6816608876611967
-0.8793712788921009
-0.7556531927688543
-0.1313149318200649
-0.12679899053533844
-0.5192769066940801
-0.47759006549154176
-0.10359710731681983
0.012327005008480395
0.0001334472134559093
-0.007642276287769354
-0.2028165408404674
-0.3898608216159789
-0.1703291676351162
0.14153843101947017
-0.18562470985699078
-0.2091483582394802
-0.041772416737445056
-0.432317796797556
-0.6219993801008289
-0.4114020480035827
-0.05128778543027108
0.014975062626883978
-0.009500847603035396
0.13395241957766094
0.26424715451011294
0.30937259930298944
0.4001745805019817
0.3936339834486027
0.22835997273961833
0.34452184788761125
0.18540513869233224
-0.2391631594721688
-0.1272244591750867
0.14002084296469322
0.16242464639563403
0.02537914670482472
-0.004638919037485863
0.19220501678740684
0.5574140325697574
0.7356050274677144
0.6120301515871664
0.30734922141188686
0.1696062558197947
0.18672452086141955
0.13193250711927645
0.22209040767450408
0.5365007903573432
0.6144593445971909
0.29388720386865574
0.027165853398052737
-0.0018422263182260065
0.11993198451182314
0.4211613496941226
0.5794137580413986
0.2933097202957648
-0.14695429166521004
-0.4111843477420077
-0.43119709581910404
-0.05657062541162547
0.39634474814976983
0.6126609557185968
0.5049581151039931
0.17525065038342655
0.0066474926877322284
0.006988657821807482
0.004998764347802643
0.04818204145951833
0.00015926340060272976
-0.2811617696731096
-0.5292897793125074
-0.6516542529077713
-0.5416007478753128
-0.2060131808377018
0.05548687294468971
0.16190017254485495
0.13099595026416802
0.03442082951160654
-0.005068980151943507
-0.005500000626794515
-0.010341786966372574
-0.05770007021999989
-0.14624101416649746
-0.26895411275088255
-0.3279641016877451
-0.2903037334986207
-0.23838484689617562
-0.16748107058376038
-0.10197274368780834
-0.053924635009732026
-0.008526597928153593
-1.3189320217718818e-05
-0.0015605439322648757
0.0007049839126409847
0.00011184243216617454
0.0036683455244972693
-0.017877403445885946
-0.02745638867223592
-0.03142736841061028
-0.025465947436465502
-0.018627741431121104
-0.03506149702865408
-0.023164936587248195
-0.013620581017290833
-0.009699761649461281
-0.0021603245559867305
-0.005606168082978051
-0.0023636886469191667
-0.007688185031237931
-0.0011023052694641075
-0.004581328188033151
0.006298772003726467
-0.0031190617187733896
-0.00047908558354694083
-0.010707561879944419
-0.008146995283786792
-0.017610271286370993
-0.0032169276182756118
-0.006866123414002942
-0.0024718718193761
0.006858789838450982
0.007235283118807062
0.002670874003269868
-0.004432338960235532
0.0076124697252374866
0.024630160063301803
0.05961188552907542
0.054485624881761625
-0.054630157123476714
-0.17253570270168822
-0.17263467413002145
-0.15132607773913465
-0.13566154096044977
-0.07890956495594906
-0.013734491884373626
0.001802205435557608
0.006478051883920723
0.02623180780404243
0.11659361787605929
0.3006438099857769
0.48709164137881555
0.5617308338154787
0.37961693907186234
0.09645851513363496
-0.12182932485374261
-0.24497756969104897
-0.27343160555752266
-0.20885698931442082
-0.05676479639483402
-0.007767416125487724
-0.0034660078552720534
0.03974113468528853
0.20963868870438004
0.3406402220887859
0.27832869389563825
0.15789053726476174
0.0631339020339588
0.04069434356001892
0.011458169868330054
0.010186326111635464
-0.10121766952915584
-0.17932283242701189
-0.06415066953445066
-0.0008415258837034145
-0.00572299508346003
-0.0022005673350002906
0.015175412829469324
-0.3187994147028195
-0.8899482816746366
-1.094374569001586
-0.6754616732095866
-0.060402031758919804
0.17638231782650793
0.1721604341135751
0.017181892151405427
-0.12380754980209473
-0.043112751841151445
0.006684523456840025
-0.01039373069594101
-0.03472106818507881
-0.22214782285075466
-0.7698476751439336
-1.203980333482643
-0.7442994971276594
0.09714378608927635
0.47767074622958056
0.31708566903218177
-0.07996044746226755
-0.2697454638290243
-0.18894590171895562
-0.03207743426802291
-0.01039555194202574
-0.0007592556575438472
-0.03744675828758161
-0.2598273178791808
-0.632459891050252
-0.5711068414561257
0.32996167899542556
0.6192445201045361
0.31316891026865684
0.1837371559269729
-0.17792872136213803
-0.33272951435883447
-0.20472647592216897
-0.04344978744177793
-0.0036552116345647005
-0.009470619094092823
0.006219808882192087
-0.18177295935248383
-0.4330526073138267
-0.3655605456760939
-0.014961953223000299
-0.3423701108074576
-0.4568899687097805
0.15592968287730324
0.2418845023875162
-0.039787062718026345
-0.14895463327675149
-0.04813481831960621
-0.008138596950374596
-0.0011892205834229078
0.06619102409069033
-0.04711435855243748
-0.4133256047518524
-0.7110156062029139
-0.9740777272233677
-1.366229033382334
-0.922457783812932
0.19926076065301768
0.4864067204840038
0.15038555942910428
-0.07251382688067698
-0.07067642546151028
-0.006769421275631013
0.02551577535800535
0.155058517831089
0.1668667653861448
-0.20224983863912466
-0.601595398941727
-0.9175611058433865
-1.0786557862071562
-0.5649020668882409
0.22760301677103645
0.35307095973780384
0.07910855404588485
-0.09221091257220944
-0.06118495750725148
-0.014074352941111807
0.010400019660965577
0.21906350322907125
0.41817238639380633
0.2619044950506297
0.04346345427383549
-0.0960076439008142
-0.18982535214327317
-0.09651397666440809
0.08690791450710082
0.0887848907004185
-0.0448050901626327
-0.10265234089385038
-0.0423403347144738
-0.01027314193472356
0.011372666300664578
0.1580829632976055
0.3705844619885371
0.4885164239997377
0.4673230343871295
0.31983050256294543
0.07913361999662187
-0.10888888229757757
-0.14442370937593463
-0.0982002261355477
-0.06866719528795145
-0.05986998861953195
-0.00574864710863202
0.0013011056190244353
0.007463562855362248
0.025952198565336402
0.12503334700470287
0.22237338247772137
0.22725694326541424
0.09256631391377916
-0.07922358312893084
-0.17606098820429736
-0.172174763518588
-0.08596800281525717
-0.018272894185199694
-0.00924747319486104
0.00825303730889529
0.009138880039582865
-0.0024153338485510293
-0.003272000779614628
-0.0007854359455590094
-0.011414212797180641
-0.020681497008295444
-0.06184639322487695
-0.07843252794398806
-0.07778479806482926
-0.07065507196408907
-0.015466595735823584
0.002176766726585687
0.008919219257977697
0.0020420437019518217
0.004293519318794658
0.005989127432265878
0.0012143563537412375
0.0036562027106390935
0.006489974505518437
-0.009614684944359724
-0.04267720698682471
-0.10658210446907375
-0.1066668797322153
-0.07576122166152108
-0.05315668900267853
-0.025022067845312915
-0.014664190153827807
0.004949732107604637
0.006427448635431053
0.0015152371228721994
-0.00972085626408344
0.009003817063573468
-0.0047743671710520335
-0.030084698196112095
-0.16766825742535205
-0.32673211287022
-0.3762890323896748
-0.32771954268827
-0.22549538543660325
-0.08839937906065401
0.005182104659152997
0.020505703123112236
0.0019360876862285809
-0.009288951085986399
-0.006123941414039188
-0.005153128029345914
0.009785934681363377
0.02622378564306498
-0.12118079042198293
-0.3460775874392253
-0.6454558916373506
-0.6802055367886761
-0.3080827501371537
0.052862247993135644
0.21095334377816555
0.16439178125095202
0.04632864010781253
-6.217590768119372e-05
0.0053716623268440875
-0.028594130715779546
-0.014410322043760273
0.01703197275747493
-0.15778866748013878
-0.524194652296916
-1.1198084187294712
-1.2873306346216538
-0.5843988016000424
0.044216499109502254
0.19229049876098175
0.13537673614400966
0.034140994694878773
-0.008024330664487262
-0.0120821056828784
-0.06360797640502651
-0.1139412055645235
-0.13928384336271457
-0.2777844412165797
-0.3925854048449198
-0.9777346628079783
-1.1299449224441138
-0.3565058460064112
-0.11110643791095219
-0.1367019346431679
-0.043735506667339934
-0.031589605724372194
-0.0019171101173811867
-0.011527474230871457
-0.0692565862347787
-0.1329176683165658
-0.13419971514727105
0.14412692249852646
0.32611412782038385
-0.37688778851042554
-0.3674657489428579
0.214154251451825
-0.18511047221959223
-0.33777987620464645
-0.11343786738150449
-0.047662906337581655
0.003949309848978065
-0.019558450149701378
-0.04571095048338245
0.07779687609594767
0.31800394957305556
0.7646681581469295
0.6666953128608762
-0.2991655719026989
-0.1344314062335088
0.2866006195208363
-0.09019624775873442
-0.18597675854042683
-0.13008540101386637
-0.0478504004386336
0.0016373204706995863
-0.012120827318946661
-0.02585841339862537
0.2374238356163785
0.6399530663125859
0.8448329486459181
0.6373671099188001
0.21722471765051243
0.44306289998759163
0.6708674091302509
0.33945058957421226
0.056670025479246856
-0.09984924886943129
-0.05535024825792135
-0.002971190945548009
-0.0051780908651224014
-0.06780828910449087
0.02846661429688861
0.2546299020593856
0.09980261706652539
0.006553783743425393
0.3798929113770362
0.5896778207045622
0.3435479084518285
-0.04239631372153724
-0.2356724505115266
-0.1823376510254934
-0.07230019698670816
-0.011154265628588306
-1.6477173421589577e-05
-0.09199196953988571
-0.2572555569284788
-0.40673826263802754
-0.7632061398651131
-0.7816147985611037
-0.36776958335391546
-0.20252406823545624
-0.4171696016738792
-0.5719550963289639
-0.42305621266038873
-0.20535013543458347
-0.04524725767061091
0.0018110894318853871
-0.006001347076490542
-0.061467825264306275
-0.24422808556542291
-0.5451517981741559
-0.7411499015008598
-0.6013159805035436
-0.5028088826880419
-0.32040555802274184
-0.15024614088288754
-0.18541050326685676
-0.1427628635786947
-0.07852321420095942
-0.019854251629538088
-0.004095189052765481
-0.0024187777062873793
-0.004566120517685355
-0.08927960436150775
-0.25379943389595433
-0.32491005225047304
-0.31471844557155093
-0.2771685298000916
-0.06535741601722052
0.06142956851793748
0.022925511950345964
0.01873540570143015
-0.016834672287819798
-0.013762516398828459
-0.004091821455757799
-0.0054700902688836145
-0.005087394619258916
-0.023967794489985653
-0.09390622986664961
-0.2063700177115577
-0.3293190764360815
-0.3388466398594522
-0.24635014587231607
-0.19001117236776965
-0.10914322727449635
-0.011282523294979262
-0.006329899575420651
-0.001572607766783932
-0.002944566410102623
0.0010616228710885849
0.004696598753505763
-0.014894792006282635
-0.04695244536278449
-0.09355571390839454
-0.1627698957144606
-0.19368855829885429
-0.17976323492248603
-0.143838033739395
-0.06918903105283375
-0.009082348520619779
-0.010076736299285226
-0.0019555085382457343
0.004627878765647426
-0.006031993769870023
0.009714793237367908
0.004294214052880188
0.0008761149548213364
-0.007085782296976951
-0.008345443678846855
-0.015077169306678653
-0.014852421334885357
-0.019710976769729858
-0.016358084046426146
-0.018358409584793806
-0.0018328139794378739
0.0027041083715438124
0.006880984997265959
-0.0009329959503288632
-0.008432376314756797
0.004208056354109764
-0.0172089673518579
-0.04792465208401447
-0.09045273835789085
-0.12773950630585607
-0.21596139908784073
-0.21893104724971255
-0.12652980488744264
-0.04402538580774254
0.05667345724897724
0.11211735728727949
0.04941618820179598
0.007814392231933358
0.002267292850804495
-0.010824318845771178
-0.06569831814927336
-0.15683290826099497
-0.15969187639654364
-0.13589409437202235
-0.3161965131989102
-0.34942571030177033
-0.1407384361693135
0.14020179578265193
0.49785991453006384
0.5965539071413145
0.25563240438664814
0.019045570175767263
-0.006722850178407893
-0.04479601057234154
-0.14788424322476584
-0.12390275966924784
0.05623867817698303
0.06601015703655193
-0.17376112019214662
-0.19592916179311015
0.03797860129107066
0.24505147173820654
0.6334347015136541
0.9339443478071849
0.53379496195292
0.05267253439839025
-0.006189388178002191
-0.036567813066319704
-0.10832523952047352
0.08346025268574427
0.3438939917452039
0.3404329700501765
-0.023534122104495164
-0.34229882350986723
-0.4577790377098631
-0.4933300183824168
-0.2761194582671866
0.2169676769160633
0.3290940841358316
0.048478574498363625
-0.0020250023102469186
-0.01564220704547878
-0.037109491588948135
0.19646005351805687
0.5635428258201867
0.8005375224665277
0.32782097840382957
-0.5071222781355686
-0.855149290124189
-0.9857777530685559
-0.9780671757950232
-0.5737055048231219
-0.05182549691576609
0.0077578722057605595
-0.006205690169283852
-0.0180814198055371
-0.11395394056743234
-0.06700543116812568
0.4725591775716082
0.9174654948304856
0.3074051470897666
-0.5094548156893589
-0.4999483023666318
-0.49230646697135405
-0.7689073936631885
-0.6193677999294236
-0.14151222600869695
0.0038635540660616743
-0.005499912429082987
-0.02791104628321679
-0.35264869636869084
-0.5805546357864658
-0.17432695497685158
0.1805533863622913
-0.2986164309713477
-0.598054857060892
-0.21655771811336888
-0.12174730917946418
-0.43354227889330554
-0.3906331718185353
-0.07939060810976138
-0.012922117997167897
-0.008266154869087316
-0.038869377439542344
-0.2848965902681762
-0.6176167780291851
-0.7530115556509114
-0.6827653121115466
-0.6840433345728096
-0.483144739990361
-0.10008477445409812
-0.1354433097834095
-0.23848304194835254
-0.12797026074824747
-0.028551176872424377
0.0020205492927879887
-0.0017126270413838445
-0.03614977205829694
0.06003064297427799
0.11252114644060718
-0.18730217980287428
-0.40969937851059257
-0.4432146452656347
-0.31483389609194523
-0.14395433511689545
-0.039144867984651235
0.07488210834023103
0.051221799352683214
-0.0032385252006326575
0.00023946898747123315
0.0062698536884106685
-0.043918270868870554
0.07759257333081686
0.3720090932318016
0.4560081633141281
0.2531255957761018
-0.016449326392564138
-0.10886420721172406
-0.0038851144273091814
0.19105305606744613
0.22179679918519007
0.07061204343089834
-0.003936621514448686
0.00868185703012696
-0.011289737292700506
-0.023119707071288922
-0.04528911397185306
0.0387519426545059
0.17998623629279317
0.16267852524893348
0.1279232188747002
0.05417010182003265
0.048493966852382706
0.13991136279478036
0.09108299747896827
0.012935241302473038
0.00449828151638311
0.0037018808598781676
0.0009527334384565778
0.0008541726368453638
-0.020022467368143438
-0.05164962378494849
-0.08052936169398107
-0.08466596565331325
-0.011324401760975714
-0.043104941227853286
-0.08127205625519858
-0.036755788516073876
-0.013874134128918799
0.0012080802740283224
-0.010146260011281752
0.00552600908829505
-0.0011031492581314445
0.005014371107535916
-0.008989756906789511
-0.015640689225156237
-0.04444135082740141
-0.0672306308171683
-0.06060641691771395
-0.06128890740360887
-0.04644509195659756
-0.021809032360122663
0.006838170916061167
-0.0011334114380682036
-0.009531271075865003
-0.005994810420195218
0.004799024622582679
0.000377570562566756
0.010166706430682966
0.008712972382673705
-0.000842448996894228
0.05480164314386244
0.10190830806838215
0.168251602144596
0.1800023910846555
0.1725771873790965
0.1567791496040674
0.07467087640879674
0.012729144551993699
0.008212300565147658
-0.002447805276245796
-0.005581505393774716
0.008696305954660102
-0.015147069170834271
-0.037227453515529696
0.013867549068838579
0.046253199038689095
0.06287355903470157
0.20335103742902308
0.4934167042233876
0.5371406721526915
0.2706615524194457
0.06569146896514666
0.002135893181132037
-0.004713299081253649
0.004778944035092071
0.0002662973049210572
-0.0660329506528959
-0.1506248001886801
-0.18725175229033786
-0.30915005176663385
-0.43600532459605074
-0.2512601169426822
0.09453292630585712
0.07824894837370991
-0.09165618951389413
-0.08683145166168292
-0.0462272267060672
0.0045502341378529845
-0.006654443064531421
-0.03710056384438203
-0.1467197106190565
-0.24739430992695427
-0.2965596206590268
-0.440321434419281
-0.5297427662774974
-0.5982730735582132
-0.8874352854241566
-1.0142063739590386
-0.7632803256914924
-0.37605624428643214
-0.10585079413797005
-0.0020214947587361897
0.002916926279147711
-0.031201944097560063
-0.18907018141548698
-0.21152659010395997
-0.2293638061676814
-0.18639009356537645
-0.1615720253828946
-0.7420558303454803
-1.3227679938550507
-1.2884961057587179
-0.8469744264040415
-0.3903771535920346
-0.1010512370334926
-0.01163782780902795
-0.009640246398773419
-0.04307217981311467
-0.13019626216820573
-0.13433741225936985
-0.13761179732381815
0.2763101120280681
0.03432077333553081
-0.7029213515559488
-0.7051804964070616
-0.5569535106624481
-0.2730267679945648
-0.06806344064584659
-0.004918103726099706
-0.0071478680751613346
-0.010019678226931856
-0.04971388689878639
-0.12231531250978764
-0.07011174956916943
0.10892106001881846
0.5454475234434759
0.05614347286543465
-0.26001364619134076
0.10175330305955711
0.11021815807737767
0.3862102500601129
0.332053916169766
0.06440063318466988
-0.005540542008141158
0.002657076260725807
-0.06485765648754516
-0.18348987850370133
-0.08425873149461137
0.33639498493851855
0.3822887047532809
-0.18627972323874223
-0.2938205211387986
-0.09793102911410546
0.1434726557347345
0.5314696807214051
0.3455877459173283
0.033661351054649326
-0.023195408164562233
0.008658997505184533
-0.0844569700909476
-0.27377703984512813
-0.06897302011775515
0.606905619526723
0.5426545059090956
-0.33520262471382517
-0.5689766943696396
-0.09573837641009925
0.32164500157155046
0.3133921248137823
0.040440929192179995
-0.0830199150090569
-0.0185048071716149
-0.003339440975384516
-0.11192171146397759
-0.38538833878740736
-0.2636555500463599
0.6368767174183392
1.088218144020917
0.5365222148345999
0.3396140633876219
0.513384071204664
0.25275331786264693
-0.1054486615721127
-0.21720911004464746
-0.11537863384566725
-0.013542531238195635
-0.0010742233769431742
-0.058442060481239726
-0.31136586293096313
-0.5476962234520691
-0.2819100086445239
0.23672240992139307
0.322997228014929
0.1749725635241591
-0.045397612138473195
-0.268880652400278
-0.3160945449494625
-0.19648384571852254
-0.06154664257756072
-0.009059977837414884
0.008117398175730393
-0.020813215189387217
-0.11342809487458426
-0.3462210330217454
-0.5961289661381971
-0.6336016041262345
-0.5836600844954506
-0.6341383583390463
-0.5649263238404434
-0.34490877609501774
-0.16204819359567585
-0.060766080711140445
-0.01632903074182894
0.00019624670934856938
0.008179773984831579
-0.0029954018779519836
-0.00660278769866655
-0.04159025453243842
-0.12768466213471394
-0.24214390860284196
-0.28958167987714667
-0.2675270635895488
-0.19466831765076054
-0.09270894003517492
-0.031425702464999344
-0.011252150939095379
0.0023538216128904756
0.009970939440184194
-0.0008068777913031889
-0.002986782845615057
-0.011760482962934983
-0.01932731478431199
-0.017726291365962564
-0.023664540297496477
-0.0242718677065453
-0.021169757827031555
-0.03192909461137207
-0.019141337444878066
0.0031881804550341624
-0.0009030867954896694
0.005730829159423764
0.004454233718907463
0.002505010280943118
-0.005862001262714285
0.00885704361994334
0.002050927615200284
-0.00737153502129799
0.002375406531444836
-0.0029044951417941424
-0.015238893156311242
-0.012963871510853094
-0.006803565872216136
0.0023339905096492466
-0.004554500270850497
-0.001057462831427613
-0.0068569398381830024
-0.0008781195285306048
-0.004019690568908976
-0.0020001609490029205
0.0003280446410285768
-0.017634936649279464
-0.05440163202318594
-0.11428633657713466
-0.19600824696424585
-0.19335538769409313
-0.14374327451013427
-0.08965660748819068
-0.0406692103241068
-0.021856057627722855
0.0028115218704925526
-0.009808785182182042
-0.006653060254112291
0.01021279146482372
-0.0030946013280549367
-0.050470006675531094
-0.14233530700498626
-0.32132855294568247
-0.5858051022277498
-0.7665809729916527
-0.6450149535842024
-0.4025001753102639
-0.19011300273944973
-0.0758820659922655
-0.028979659722458476
0.0035247768359669804
0.005655241366735476
0.03450790377099719
0.17423023664523435
0.29646977074416864
0.25647371244773876
0.09379261728187528
-0.17332854962414396
-0.3682015559732686
-0.23088131726208874
-0.029039254087754294
-0.007296260263821689
-0.07799533378654845
-0.06456190839323928
-0.013076082266029092
0.015159810113096351
0.1244790957335337
0.3638304382101861
0.5329560014787739
0.5444261260189618
0.6151319817875154
0.545248866630733
0.5400245328702932
0.7108940278149928
0.6068236814997725
0.26269689278237646
-0.01750559812513342
-0.043203107080071926
-0.0057721179045665365
0.03913042174278859
0.14541124807362865
0.22799691111518527
0.1177332980552289
0.05441593523122429
0.09172796645914645
-0.18485077954773474
0.02716948582744248
0.5666590382008951
0.4740095759389822
0.11512985769620249
-0.06300728696153841
-0.03237607135422277
-0.004823377178977927
0.016694066516953914
0.0682108109837878
-0.030795420032991277
-0.35724360326040555
-0.6801157586461697
-0.8829215813001012
-1.309814196139115
-0.6690985419977967
0.2603548195050617
0.1975033109972541
-0.03844401717368226
-0.1402568764876999
-0.05418731940615469
0.000819989363083536
0.010022640821723102
0.008277707130270031
-0.13107489177897916
-0.5204872073763223
-0.9193148208354045
-1.1036992001408403
-1.1240204745430846
-0.33053291217994624
0.272461674229839
0.05701148412086312
-0.09479870364334522
-0.11087382787185442
-0.043418724438492276
-0.010006541219941645
-0.007976749326253182
-0.042676809251468786
-0.19279355610411697
-0.45254406392182345
-0.6509256339111514
-0.6362242331555243
-0.2421956660869607
0.14665937437352378
0.0550071309422554
-0.19330113465086685
-0.24833551014151076
-0.13853540334176528
-0.024416594570797014
-0.008313284511557766
0.005585513971796419
-0.043603070086317176
-0.24435146293988533
-0.4717055708888592
-0.5477512552934024
-0.2755931814747575
0.07742854985247569
-0.03336860954909053
-0.37561247407246273
-0.5160822802489023
-0.3709678316574418
-0.16365045979804269
-0.02169703277781261
0.0017574831139687414
-0.01118643702299277
-0.04371140888891609
-0.2087705100019552
-0.42120255259943473
-0.3969381142539065
-0.19669581613298562
-0.1654218944788426
-0.3491005171070487
-0.5297951823407908
-0.4914540890938602
-0.27829375343008683
-0.09698836794067803
-0.0078087479377169184
-0.004963717379942146
-0.011150702084652771
-0.015967566914598753
-0.034251412469890025
0.021225387782322053
0.13253599148887735
0.067413805473294
-0.043501014286721304
-0.06948275045998681
-0.21734236576501847
-0.22104760880944052
-0.09524795498386517
-0.02198045940902049
-0.004601258080727203
0.002056536663336628
-0.004803567156351225
-0.004914873153610006
0.06787002645662685
0.2634855012528844
0.37524322484345274
0.3058192819381398
0.26989869748814715
0.28064603823767065
0.10194140642631178
-0.040937539940915174
-0.022039306615527963
0.005290122233326825
-0.00895887319197118
-0.006411129676851617
0.005762784145778648
-0.006034244332783383
0.01502080703656788
0.07068991788746215
0.13026087925470028
0.12640262973243235
0.14179478137804996
0.15725081190964413
0.05734583166024024
-0.01633020880610753
-0.0033826496811564877
0.007047010180391336
0.0026106968909972057
-0.0031720290469408234
0.009804211084184137
-0.0009485222937556121
0.007812068253309479
0.005111455674141757
-0.00591727913780104
0.004255004645605435
-0.009496286593672744
-0.02631686456722877
-0.03120674404065935
-0.027866936458197097
-0.01292530172371962
0.0012087995870854013
-0.0012866275890479136
0.008647442994026316
0.0025778423480873596
0.004729277223743672
0.0006759287413093918
-0.003561270864023636
-0.03135197778720328
-0.07873246575198654
-0.18738183914891202
-0.24456456159938145
-0.31006281141143177
-0.34479233114625
-0.2684690329173521
-0.15367814787357414
-0.05510006747869416
-0.0025539425543173065
-0.005924661867088513
-0.003203094895567112
-0.005197037564589944
-0.03324075506892786
-0.106326929201722
-0.16606316340221342
-0.14825509297835737
-0.04953735758098223
0.09570370719468592
0.05171394114170578
-0.14146675984011642
-0.18058724385066094
-0.09446667311954968
-0.01970083969350841
-0.01309635280495679
0.0021609384103845504
-0.01878142033301566
-0.06948733816959818
-0.07650363244778859
0.036473838234218986
0.16766757715999855
0.09663542013231542
-0.1304050778640576
-0.2250884580634
-0.06617814719522203
0.15265444945023904
0.14281233519140907
0.027573409982967093
-0.019181445075302526
-0.012720146940511153
-0.03271675086319654
-0.04509997820647245
0.1057183970971779
0.3190715969347833
0.38809925264362877
-0.34582705585759893
-1.260895160532266
-0.9321273308543623
0.031085012053020302
0.5127394506695282
0.3966580406807023
0.10673566838906047
0.012268787126159269
-0.012195054950229888
-0.02175436096676708
-0.060695298025373136
-0.053108762154590636
0.061369177867710546
0.5437775423572769
-0.08022016494286699
-0.8662994245876108
-0.102071444437715
0.4530658727804569
0.4179835238814975
0.2171514891718547
0.060178277207903384
0.0022505528462639156
0.006326992634447962
-0.03310231393225399
-0.16371947241832324
-0.5880583725724563
-0.7964555505155816
0.2684470074384728
0.4346065724523847
-0.057633300986082936
0.032005510834239026
-0.15177220833537072
-0.12481315910984588
-0.10409328104167448
-0.02228524794732646
-0.0036984831787372904
-0.0012363709154204065
-0.022587520695244955
-0.2744982174625956
-0.7974960286753955
-0.9051209424809626
0.1803854306748418
0.43906540295604696
-0.12193152244495865
-0.5194986543458487
-0.8129498715940674
-0.46684600039501795
-0.21892968607302296
-0.05142695098859998
0.0020263132034530553
0.005763760053239347
-0.05433637116025233
-0.3118198624071889
-0.3320413970191587
0.2854269993424685
0.6891591992469618
-0.02432685454161697
-0.35304022808667673
-0.3845861830311721
-0.6842612921771546
-0.45929831447342073
-0.1834928559700941
-0.04960155157700599
-0.01069325364229144
-0.007586465802414883
-0.09010073538710107
-0.2799156614033236
0.07204220935973846
0.6799694269650367
0.14611668544937378
-0.8618860931304315
-0.6218705127486339
-0.2805096368404054
-0.4635330698411338
-0.31819778979677954
-0.13669134419686946
-0.036323735927299025
-0.008418274327223524
-0.007733506667446495
-0.08764526330256282
-0.16891941861271048
0.029783829170292875
0.12153249674360911
-0.17401059877396927
-0.48464253206810914
-0.37394370342726335
-0.14145762544170115
-0.18819055692818767
-0.17179941139075805
-0.07224385011990272
-0.019960868831397527
-0.005956946923935116
0.0012675161359901046
-0.05383848085773194
-0.09666557429733406
-0.08215613489755137
0.05238766642061441
0.37666228000945534
0.5039770374430739
0.3016258005097475
0.13364666382763107
0.013322771280335946
-0.057269708516745226
-0.029230319320640387
-0.00968803467758787
-0.004181183085603834
0.006514540710752048
-0.005265058545746153
-0.06329966942375555
-0.09271371572855147
-0.00458903161649092
0.12689095036687792
0.2120765828722533
0.16332259201295043
0.048151617902622255
-0.001052683696504821
-0.014808702356544294
-0.005527203585384129
-0.0010050534967634788
0.0017555218453356811
0.009693276666476918
0.005570310615264178
-0.011906444307405053
-0.039798583156198164
-0.07456184053258198
-0.11001914429795438
-0.08364574818573571
-0.06900846644285676
-0.050611624174934935
-0.02916342401820928
-0.0063454444190572
0.004018211067981314
0.0077619929757434935
0.008210527942529586
-0.0025923297435011053
0.007053980672026618
-0.009880204017522567
0.007259217045256449
-0.004424201642437032
-0.0018341011342894182
-0.014273836297430814
-0.02221428499349832
-0.038688952583860216
-0.030396486361346713
-0.00908688422737458
0.0028913119873185374
0.006216370278423409
0.0031722708865550434
0.0035103447683922442
0.008045255644848448
-0.0074654604122587395
-0.008236952282880019
-0.020317583887743285
-0.05878396858801831
-0.12514058695671126
-0.26568711921214894
-0.361053313185547
-0.30750318522798886
-0.20553332268623906
-0.09768861800137602
-0.025551610069106202
-0.007057162050039701
0.0014200921101230398
-0.002012365295334701
-0.006079230951675289
-0.05914086058429275
-0.20113336578038873
-0.42398624006666485
-0.4854254503938645
-0.23192913931105583
0.02177346952469665
-0.15432964293453152
-0.4488965801272044
-0.4565488280700771
-0.2537399980507827
-0.06361618712390012
-0.005804730126803225
-0.01446157672481115
-0.06982896773602795
-0.26871031632899717
-0.6192435978139218
-0.733235205089592
-0.12067172976252474
0.7049745611884695
0.9707490636167938
0.41279396596663653
-0.33405117455293093
-0.5599993674808184
-0.37327875134740374
-0.11675787253789553
-0.00893751185407762
-0.02202497748893218
-0.15130622212797804
-0.39519006843261256
-0.56223677088742
-0.18369876214227726
0.34740386012245794
0.24214106335807442
-0.009885326774024993
-0.06856874487911882
-0.020356669390604376
-0.11328817221135548
-0.23737427222422072
-0.08492571427881636
-0.01459874398717789
-0.028942984672443682
-0.09694279617264687
-0.12160878287687214
0.14897003910592474
0.3739541047515148
-0.11209484381736606
-0.8898037734533696
-0.6526692079682553
0.10824644201272896
0.4808748493856894
0.2554874167939825
-0.08366533459530019
-0.040252628642671526
-0.01030421907734272
-0.011976941436257198
-0.021218000741559065
0.06924948052295135
0.4367435149682869
0.5099797659583795
0.12951901967994162
-0.14861770013960687
0.2670593463175968
0.7192247152261173
0.37635533255221604
-0.05989502698991126
-0.14521446259098236
-0.032734594580619496
-7.338204231238936e-05
-0.015603447529322426
0.014514203970476073
-0.05999324581491948
0.06876786392071779
0.41484668216034365
0.4982338397203531
0.009505411383076829
0.07135476330719505
0.213113616440359
-0.3963485156755796
-0.47345081960173824
-0.22033542817306564
-0.053062608583957165
-0.011014455191581986
-0.0034286525695364496
-0.02828310487850104
-0.18775051576286067
-0.2593191971399725
0.013318499280611303
0.0038284359253976745
-0.5310801686204719
-0.3431176598426506
-0.2607609079852551
-0.6424826029561154
-0.44995062380159845
-0.18927651255814093
-0.05253378454223592
0.00434770279677225
-0.00763270595330426
-0.033393471319120786
-0.21145798682072905
-0.4031099091094715
-0.5380486709557435
-0.6593227011881931
-0.5735901289713823
-0.38791349565408084
-0.5192259435591343
-0.5648485740583089
-0.3164318612396267
-0.13080034335230487
-0.03448848375019464
0.005806631473383411
-0.005343299410309847
-0.03158889545597385
-0.16548660248115954
-0.474956343852794
-0.8009707307797399
-0.8039824817358043
-0.6514018676568148
-0.7075299382703152
-0.6301842114583638
-0.39990153896407465
-0.18633031252414106
-0.03176215587923378
-0.01499830223711947
-0.010240194489814499
-0.003948571881315964
-0.002785880175168541
-0.08114955355091759
-0.2485543165635377
-0.34343418437371204
-0.17980304035220276
-0.3097628668847433
-0.4598154386147189
-0.11502247127626078
0.035629045920061296
-0.0005788653400660626
0.007434945700028288
0.012372978178633365
0.0005294835065783563
0.00158134933445262
0.0011364054402542552
-0.009029603970551543
-0.030202744754127188
0.041303260984708205
0.11824499428807217
0.006384913582031148
0.008220557566192856
0.22540222651736042
0.26292956800021605
0.08582720565306363
0.016875911279358093
0.010893246827957856
-0.000273295220671696
0.002942953975889683
-0.003178406266373272
0.010904417272467586
0.010153503442527556
0.009631647775359775
-0.0036431828842732085
-0.006189831084241516
0.017193502923171126
0.05693420946159991
0.08536848559317357
0.03199985812938114
0.0011339374227089
0.008484971532893517
0.007586854074171848
