-0.9473961612880273
-0.009879557022927088
1.3374762528475164
1.0245088138606362
-0.9809287091026317
-1.0999892344738746
-3.2013540597023087
-2.3349683485236867
1.356753293008765
1.9716023959136213
0.4112762721518442
-3.05710992425455
0.9543079202658588
0.8638845911093791
-1.4306830091562663
-1.3012132414249968
-2.2792074489642977
0.7290605529100918
1.0738134394158325
-1.281503296716901
1.735425059369963
-0.45580482679487744
-3.5483341751869073
-2.164130147975952
1.5799080069647342
-1.3001759415327558
-1.3139873315650543
-2.6402121988310507
0.5674245982655662
-1.1477647208943973
-2.204742614522955
-2.084723411807198
-0.002995861429252276
0.0853214992142818
-1.121864865460282
2.240124582043088
2.2600009123911877
-3.7316379768265944
-5.0811011663787164
-1.852857321252357
-1.868289480995121
-4.547776840948697
2.1780336753527623
1.8815479933621464
-1.3725060682670078
-1.9039467808406692
-1.8140734305564639
-3.5570633634701654
2.8471618194026536
-0.27952390175515013
-0.9807189042587137
3.8347829846171653
0.20914916702367922
1.895419180003647
-2.3146927288515906
0.659450647972484
-1.8327934870746418
-1.8182589663653226
-0.47704270477677135
-0.27735687418311017
-2.092767626306616
0.1957485024587568
-0.8263435683475548
-0.007673698637568103
-1.572678671112936
-1.284887691761438
-2.3872361174060686
0.7202321858710281
-3.9139036442958126
2.5870159283656524
2.1005804481088393
-2.5663064735323347
-2.41626788806242
0.05785109749913188
-3.16112731315013
-0.2648059412020052
0.8673359329455629
-0.821642868071476
-2.398578579313955
-2.374804947780328
-3.9569035951119
-0.8648497137570772
-1.6056587228827626
-1.0000799694240028
1.778549754892804
-2.1501794167758934
1.7789318120232929
-0.8324633246873738
-0.8291631351896905
1.7967777048475426
-0.6068255647716851
-0.520155745453796
1.5790818871937995
-1.6890441712943842
0.006372891397536129
2.240045553398884
-0.8899701641026754
-2.1166891075411014
-0.39884381725741364
-2.4380200343846354
1.0444045967833047
-0.6847856027122269
-4.6858146855812945
4.566651323378638
-0.6264038499478616
1.5900016563970625
-2.218963742128767
-1.4613888112106548
-2.1582892854091047
-0.7021118327515804
1.4158440421566574
-2.4736176767325535
-1.4581472653979062
2.5037103514348513
-0.4505503455570889
2.0906755869612255
2.5682502403172847
-0.03453535065895487
-2.1678441500974324
-2.172590842267057
-1.585772601086704
1.4163342091978937
-3.4220606416286414
0.04192815468600439
-2.038486996803877
0.0026720998934217748
0.43167618567745814
-3.0798671887509768
2.5988985148623573
-0.6077777649130339
-2.1634736801574515
-3.6597009601614987
-2.5702379312714143
3.842859795844485
-4.188047846035709
1.5809355275619232
-0.5878153022609662
-3.242627771684977
-1.1174912494953193
-1.1304932043056393
1.4589349495523156
-4.181631726523747
-2.343066408474445
-0.3663081827980346
-5.407503667426153
-0.057441268982287616
1.2111433420548103
-3.5002157769792466
0.39390890178297544
-1.1237728599899002
-1.137835277777044
0.8179777090467455
1.128905144806192
-0.8588120948282553
-0.6724287592145319
0.9114763187686031
-0.00924620875979984
1.5829842205088507
-2.3376723141526368
-2.5046691605820097
-3.33237433784898
-1.9550054017939649
-2.673530292494975
3.9157335983849504
1.2446116659247493
-3.140021753895607
-3.4126110768011824
-1.4713121158426907
3.5118818237109863
-1.1975127405215962
-1.5552098779116212
1.160875294987064
0.9586737483728099
-1.8675752943485742
-1.7505224341639292
-3.2352037096886743
-1.7114325136017856
2.30341389282717
-4.775132935391356
-0.18771173765470642
-1.5645080854711493
-1.5635447803832296
-0.12551437066711016
-1.2576769475566991
-0.34028627262780414
-2.426036359382257
-1.6767647547965017
0.006485605756163309
-0.7519516347558007
-0.9718082303708708
0.36067126083236584
-1.332210973818296
1.9909406556360147
0.24236244772080442
1.9942976657411982
-3.890828082641042
-2.5657027655641294
-0.8060782147976763
2.6063518193254556
1.4352107241576288
-2.2781651321762437
-2.4337928298635996
-2.306699732470555
-2.1825245154150577
3.3041684970265077
-1.551279747016214
-1.6602608066824902
-2.0140455365790038
1.012716056918586
-3.5875729157220473
1.831788984326139
-2.4409345717905775
-2.4361945914626846
1.114561710531802
-2.1583055383319016
-2.0609185070196903
1.5175305264732222
-3.934137439235747
0.006971244896170238
0.5938513485515259
-3.515465858000596
0.2646066082449054
-2.4451113921098124
3.9803429992362154
-3.020263557099732
1.3537497461049062
-2.2883267654527084
-1.3516858952630872
-0.924987070407899
0.8742460191263344
0.4062585104242659
-1.3913214717328608
-1.2266215416730673
1.707271967162503
-0.7156140134083798
-2.711432979645564
-1.0328908349104957
2.692203330389312
-1.370082491204294
-4.450199650172448
-1.555122521654044
0.8312942766295329
-1.229279816082221
-1.2228548462498146
1.713818298087411
0.11459865352533971
-0.809772327241158
-2.4228781914681243
-1.5267889887131292
0.009037514529806062
2.4899559906488022
1.4168131589751383
1.3089125667610373
1.8236211401954798
-1.762092383287242
0.723756916024532
-2.7079801998304838
1.0048955330054599
0.5012176496075335
-5.003351666933342
2.458107869918146
-1.325580018869464
-1.737955174103599
-1.128430367611512
-3.984864083524956
-2.225125393139447
-0.047489590302477604
0.5799940083376666
-2.3387634807326694
-0.7008407730488213
2.533382586191324
-3.78713086496628
-4.139064341107272
-1.1191209601013925
-1.1276499646946159
-3.3749300131861273
-0.8588839132777508
-1.144140567311868
-0.8297837619249199
-1.0111737870170974
-0.007210495685483121
2.0970554851624144
-3.3612232550311893
-2.195064456126207
1.3098821923619106
0.8635759554372595
1.162763339892443
0.8341218718193384
1.021308107362247
0.7818028090074971
1.8738405516791061
-3.7949027403091398
-1.4104488018595664
-2.9490597855321807
-1.619652653390064
-3.7353286165970863
-0.5129158928066305
1.8934688454016677
-0.5088168211255403
3.313896378049835
-0.750488392454363
0.7886832677242408
-2.9444806360348896
-2.1396815305875196
-1.635438722163226
-1.6385865931246963
-3.802606908129234
-2.453702283925747
-1.4545591818748134
-0.04177352021042091
0.6695131965510409
0.005405262881063307
-3.672653658469592
0.7446573609139258
-3.349884431008354
-0.8677502614773718
-1.2304885689456782
1.2004646674910682
-0.9613687500361118
1.737252461014553
0.6857780468114345
-1.7733385746718633
0.22838006187812415
-0.3813602532321763
-1.8655017806207521
-1.2044344837587537
1.4033605155205133
-3.5041081875108873
-1.7660444948228942
-0.27655511269466865
-1.353424746564993
-0.18591999347446242
-3.7817109203146115
-3.048823931939962
0.8752685125286424
-1.2064430550067236
-1.2056909680288654
3.097447597825762
3.647211676473339
-0.8968312556661211
-1.3942698001215537
-0.12759415600722054
-0.005353708835642213
0.5781147471106529
1.0694595271869034
0.2459926912442522
-2.959672750775866
-2.661216763775302
-1.892262307021595
-0.47225620996081746
-3.570994444514272
4.418212093042224
0.33568384011347513
-1.2792767030383865
-1.8884920046595906
1.398214139934377
-1.086104900773406
0.5080984219669914
-2.0300016806916235
-1.9529540225606898
-0.7805644939592532
-2.9459479568613207
-1.443359176216623
2.4969484808242064
-2.680426397446161
0.8682225393834593
-1.0688582913091802
-1.0749838991306018
-2.039119253251214
-0.3299480532847828
-1.0034908129303992
-2.374606498854375
2.3685333987086126
0.009518724336729774
-0.643627576175031
1.4767033563619978
-0.6466220872200921
0.7495712786190736
-0.566465454483375
-3.889859438169605
1.310232508047256
-6.468519713431556
0.4195266056246049
2.5283384090040335
-2.2574569355952416
0.42419208685294657
-3.6209761383535395
-1.2313609168029267
0.26619669763402376
0.9485061462219515
-1.7921475600153254
-2.257314520395006
1.3086718605240186
-0.5079770317297262
-5.214331584968958
1.8416730040547804
-2.799070032962639
-1.232908234008811
-1.2082617190118898
0.6429300866224623
-3.0511287130398714
-0.8132023244432479
0.2909129861847906
0.9842190503647799
0.007697372856049453
1.0070415794642131
2.0184706196282183
-0.5210178865969873
-3.139970673173451
1.4402512940040302
2.1226912581598243
-2.650004399540186
-5.2885262579945085
0.3996692540134116
0.08780982777387077
2.536647264795641
0.014278624431975473
-0.9216853854996623
-1.789858179463145
0.5217427112025661
1.2075429995118334
0.0374012826342591
-1.305874427446018
-3.13072124473138
-0.09696729447751705
-3.341275071629453
-1.5758485561723021
0.14344183370030186
-1.7982377520392356
-1.795033129393203
1.7707920483072634
-1.8518289789602236
-1.5647418595852502
-2.1475821984222465
-2.3098929246280875
-0.009264255498515098
1.3765032213621566
-1.2396851571701448
-1.6953141933063776
0.7522097093270858
2.146359735019274
0.33947471006390456
0.9365450612754954
-2.896262856871033
-2.835506447726246
0.6364779935987753
0.7866171735980251
2.878939796972247
-1.831182593049366
-2.3656963479065323
-3.6919551094791956
0.6093535768475807
-2.701386048618235
-1.0551746137480496
-3.493068875129732
-1.2964008004914094
1.46510112768229
3.98804852392899
-3.275608437726012
-2.3682553581339607
-2.374042727166817
1.0456312714731424
0.1342287519696641
-2.1361823623777747
-0.6795042447153101
0.15517314312205377
0.0022672762202129524
0.20829196830734306
-2.9610996470919813
-3.966002709838036
2.473664159197107
-1.4710963985654815
-4.4945238431638925
3.4893631502009037
-0.47473267982573164
-0.6760234913921793
0.8391395110479991
-2.7639541092386675
-0.45742067719706403
-1.2494940861911223
-2.4368527018040718
-0.007776334549780606
1.5062801328370103
-1.5582691408461504
-1.0998310031956386
1.0186211211502594
-1.490528506330389
2.648837783604581
3.978271353532518
0.09101323277846886
-2.4506277377503194
-2.4482469892236893
-0.038921826066670384
-1.332592545463732
-2.706718165074537
-2.0990234255530784
-1.2898678365800282
-0.0038690128668849577
0.3931247458921673
-1.7655692590003866
0.19196498855158806
-0.37991216427053975
2.0164393259819704
0.47728972554726534
-2.7914413198427104
-3.140153587178205
-0.6538266394914926
0.917052645681934
0.381374608436401
-3.9339819404165786
0.9404962300471987
-1.0099130239981768
-2.0982872903633067
0.4946508983603766
1.7541106257599952
-1.4398247102229602
-2.0183984354672444
-0.6170777938901905
0.4066082859738621
-4.165315168024308
-4.66206970530411
-1.0026585129373276
-0.9888444504993907
1.9006519328868108
2.0823727599610056
-1.0193901519810045
0.2383074768904571
-4.06706182360528
-0.007084252059936062
2.919017198137548
1.151265784306709
-2.6556899938559098
2.457811608871369
-2.1163342321519463
2.903001781899628
-0.820817658566738
0.6858065497638448
-1.281799004360551
-1.1998144539050335
-1.2261625409455519
-0.21626670795260045
-1.1941986406592207
-1.916414706180553
-0.708367110362381
3.270536307008728
-2.0729118089371896
-0.8207624208026632
0.3738123482178414
-0.40880153617863557
-5.86738990799604
0.792432946723857
0.729376470447019
-1.9114750014651798
-1.920118804195081
1.0521544307140962
1.6511355206684022
-2.970341469968845
-2.8715981944364968
-0.8169911193142176
-0.00591684066033438
0.12010732105806227
-2.269724894772598
-0.7815252229621863
-4.139969473964205
-1.3350219476121312
1.769489710200818
-2.6939466939112
2.3199914721688417
-2.281190443776214
1.3706700459026497
1.1837590012621964
1.204363780087572
-1.7306076547891984
-1.506617001539013
-3.1122819002802276
2.4637526267586507
1.8073491595277555
-0.562393538028731
-2.481827694606159
0.10940511971202818
0.9569904336117756
-2.76183823862916
0.08243549540503277
-1.5064267107267757
-1.4928172162858662
-0.5914235853654972
-0.5365664801497098
-1.15982932944786
-2.9894615366342006
-0.4172805598747541
0.007331463954427192
-0.18009568918545737
-1.9554515772324845
-2.5039968498701186
2.07577003433199
-2.3415671773430695
0.7633743685708438
-1.9555381251235693
0.6329048530837358
0.7219545298019655
-3.6335236776880726
-0.190998253714046
1.0068606503122948
-1.8516283827838047
-1.64658511260804
3.2654756870984456
-3.4500162291039183
-2.4545579101644917
-1.1096813934317284
-0.6791022878614736
-0.9488759264977588
0.7920727427754201
1.9802405294920293
-4.485659386562114
-1.6308676776613387
-1.6274053918002904
3.124686847287621
-2.219919176361275
-1.250963409270441
0.3601122767176368
-4.552568034119877
-0.002973909487983304
-1.817885567430494
-1.735041617018557
-0.8108743855895808
-0.9218490761549862
3.7195687392225163
2.049950896235628
-3.7385070281521533
-4.209109821479305
2.1682301953741168
-0.28777042859492447
-1.0319570825801843
-2.126580449042392
-1.3002328322193912
-1.3777441170474363
2.4523616086163837
-2.963498982015938
-2.090389617138001
-0.818456314118179
0.08469644059263769
-0.4230693437070841
1.3876930850820788
-1.5211155702520325
1.597720606803817
-1.3748558095488776
-1.3846516274030898
1.5915305649340923
-3.964724070870583
-1.0866224995409555
0.007620946533448998
2.341094259282189
0.005836340187156978
2.2197696943132694
-2.4586358195989475
-1.9035866466361515
0.19343602651353778
0.8746540899415101
-2.560649858327823
-4.536638108048203
2.4351407992494436
0.9076202379667008
0.5705268177755083
-2.7625122454109796
-2.3876095905991384
-1.4848913716630718
-2.2634150654578735
-0.9150831199916906
-1.3916896736171935
-1.4312640152606417
-2.3359398871883643
-1.5824465460178763
-1.6081192774905386
-2.96900851919567
1.4389494077104599
3.6766563282085545
-2.2540235541757427
-2.2626505020986993
1.818856111477854
-2.6932559429393446
-2.0410911516166848
2.1278402616864276
2.222443625300509
0.0017947887991353918
1.4413528614318136
-0.7066612449539583
-0.30420147496823935
2.133800012451028
2.2823256399738128
2.2000794920484616
-0.84108869019304
-5.0161476756871854
-0.11260396860148045
-2.5112801125451183
-0.4638895151369473
0.47851980585642023
-2.0722547200999912
-1.1373949191192299
-0.7523755203118925
-3.3529464912613953
-0.4849838884223112
-0.8171743546359189
2.425359083577026
-1.3516373365405263
-3.146558480543081
0.41018291249570116
-1.6360561063630148
-1.146741725290142
-1.179495196853569
-1.8622624970911867
1.0993780647802214
-0.8913871628313322
-2.4229287379882662
1.3588173411887312
-0.0010113461656138176
1.7018756825856949
1.7367060096371145
-0.3521922988449258
-3.1130100674720045
-2.311310741730369
1.660535318323188
-1.466539774118287
2.2853292971041013
-2.318341072520437
-0.058124416413728966
-1.149963596669682
0.04256700225297997
-1.4870755504997262
-1.5028531055880747
1.079530870305798
-1.7957162231528367
-1.5082580969173114
-0.8137535212770448
0.8765405598750999
-1.0736304172408309
-3.612173392764138
-0.4524026762514537
1.1941581706631177
-1.4892019781213588
-1.5015026542367922
-3.706850151466834
-4.051683301224622
-1.2826392351771547
-1.6919334613950927
0.5125515688546204
-0.008631542658105321
0.682029752236476
3.5812330877400127
-0.8329580527134186
-2.1091588210519903
-1.8835418876622474
-1.423854324885831
-2.3593827012156305
1.1101888492706624
-2.09692332690165
0.5462018151903939
-1.3170092866184613
-2.023518574005467
-0.9882564815974172
-1.6795147592539779
0.03596223519058574
0.7101398226939484
-1.6435416960156335
-1.3980291920830283
1.7996041881834506
-0.8962513592298273
2.873396645164409
-1.0907632082216387
-4.763478400603973
-1.6782377956273866
-1.6645693823600327
1.3539167219380597
-1.9314761703925647
-1.2990542585477016
1.5006553511760825
-2.275976142339577
0.0005115261289912951
-2.492911694050481
-2.173848989638524
1.0409900775961283
2.4038795732206024
-2.446530053931091
1.1389769234925222
-2.4203501682261557
0.6299530510881751
-2.6164523395955466
-0.589142019723452
-2.5533954113588395
-0.3103344156824279
-1.4224286873349068
-1.4066095341257314
2.214673603353498
-2.103383049394445
-2.014886480821046
-1.0809023348236544
2.020595093252815
-0.9302647022725776
1.936184474369793
2.5311266520398563
0.3354579128911195
-1.4079170558734109
-1.4005808478343884
-2.381516022626457
-1.6728990295225912
-1.2194110243685217
-2.4275108324111057
0.7560237955307975
-0.007542922996156127
-2.767542791780986
0.07736281600805107
2.1649134702285417
-1.5502924999419307
3.283962954759191
3.0348942341967264
-2.035231660530003
1.3086675488628696
1.613147432650965
-0.5457808525800866
-2.020222445116027
1.0126104961622324
0.6190463148702565
-1.8610567323787155
-2.006771490223933
-1.5973248523515995
2.301906521142671
-2.8710245281391957
-1.3928646683364565
-1.7741266405208194
-3.964028138421841
0.47765666041354654
0.6688819409508346
-1.8687561679335365
-1.8541856862134465
-2.1974115770782827
-3.7757172085635125
-1.8404082392463643
-2.5676089211410202
0.36968065950742784
-0.0013593199649849595
-2.8668147500876193
-2.005825877549979
0.4139836355734724
-3.5215393615675796
-2.7872873872184742
-2.256548061002509
-1.8904703289931457
-3.5385260105796097
3.5671194572168834
-1.6587751359729719
1.8539448102483365
0.879418123977388
0.7233173473808855
-1.9596604325482325
2.555694250299951
-0.5195299444023546
-0.8044923677560125
-2.42830479164487
-1.2665292797653342
2.6758129276481912
-1.8615959295288282
-0.36565597084601403
1.156575491011013
-1.9570939397553762
-1.9613945457589193
-0.5660365675559212
-2.4878821094889942
-1.7611923427000078
3.014085083763347
-0.9230300855352368
-0.0012773963603984525
-1.5010838503076536
1.3450092408897985
-1.6568224113405354
3.526869616910339
-2.1292547952935963
-1.952822870340041
0.25813213870561735
-2.530369528729784
2.2584896430002868
-2.1100519980723225
-3.2364564229817026
-3.546672995884914
1.901225925179873
-1.5918663730286866
-1.1894131977751072
-2.2587098966641186
-3.972939311187862
0.9560290329671189
-0.3403186016367956
2.161105040955415
1.3015314329026133
0.8563613807854835
-1.8663399428588172
-1.5908369385994077
-1.5894531858839653
-2.5390261011742674
1.864012812342224
-1.3659524403918408
2.1111137645063036
-2.1159529268265604
0.0010295310320852565
-3.4063930172657675
-0.48242579095954785
-3.089962825875539
1.9963591151390296
-0.42689626358898525
0.2829574072485413
-0.044777122512329896
0.10809738263921076
-2.914685017949156
2.504701107237265
1.1909022511411298
-1.8840716605187877
-3.569495807064511
-1.9701580872084952
-2.159188004246617
-2.074895285209107
1.4431216608545434
2.624448137260296
2.2821130312476874
2.0371885953097486
-3.873805994310915
0.5597078601695132
-0.11323146325732826
-1.975359687200037
-1.9668676074743983
1.1303140462568226
-0.18713971260023
-1.7097835950902194
1.6925137486516237
-0.30109835533629414
0.00022458582934097027
-2.883221946084628
-0.664033884304904
1.8310710427928776
3.4309366924413145
-0.5513285908537227
-5.381491155265444
1.7045309821232977
2.4756165778728647
-1.6425633865618774
-4.092546793785264
-4.570586500256172
1.6995614483593537
-1.130088268997608
-1.5470734878168086
-0.6976495643598253
-2.394096895986072
0.8798525091894589
-0.9912940171881032
-0.4693374985876539
-3.884134387929168
-3.33500527168304
0.6152944861046211
1.7385434080714235
-1.5336715219652366
-1.5424288590812727
-1.228856715779593
-1.648882568344685
-1.2881356552411047
2.4643496511118634
1.6528611045728316
0.001944420392189259
0.3461093009397378
-1.8079025614179063
-3.1805883318137793
0.03503557657982698
-2.363697729625598
-3.9785087926362914
0.23533081042461262
0.40496661021638164
-3.2446221612006934
-3.004839241473052
0.7946561883803488
0.7695278059151432
-2.1653478765848253
-1.8638034677116195
-3.1769247950431394
1.30747854773783
1.6388053052219602
1.681399231214027
-1.50000192374476
0.8877184332972538
2.681002107510722
0.05955977675169303
-2.8487685990787273
-1.8604412637428347
-1.8628127737168794
1.039067040137606
0.3843524044423401
-1.855219768617446
2.110845660228507
0.29557114949408536
-0.006231809155668451
-4.617119474664058
1.1320031640577601
0.9182642251338303
1.3822711562688708
-0.1511817993948699
-1.8050071712132427
-2.469234273026084
0.13275425609118205
0.7757135193104784
0.7734758924507651
-2.7332263195854987
-2.7171504409876555
1.535102116925715
-2.3747318642066255
-2.6090113612870427
-0.953060343923349
0.5121805619225929
3.1870675828413284
-0.1664160695210063
-3.1542162868620682
3.420891304059895
-3.8785835756742966
1.8083248773036835
-2.369203222165652
-2.3776371090945987
-1.0892433341039325
-0.11509036325604141
-2.6251926317905685
0.6373794623208516
0.9099412413187462
8.455825978629511e-05
2.045023543296296
-1.8535878464364355
-0.9003799939034064
-2.4529525670080274
-4.2101762199240405
-3.180186951902972
2.0964173185656962
-2.191539091980232
-5.168823733227473
1.6443420242277667
2.3950211543562667
0.1903919957617449
1.3952008898744925
-1.6062687229600527
1.7879047298642674
-2.734996503059857
-0.4682410682970694
-2.718785735972115
-1.6751216748243059
0.5512406517733373
-3.5973764413096028
1.0912400322891793
1.5742587342266368
-1.5944332463212083
-1.60993165867767
-0.44925026411104063
0.30029781020260643
-2.0697506030711157
-3.952160660346313
-0.6394373049555427
-0.008665550520096672
0.658166147137214
-1.2276410350164606
-0.2293129725428655
-1.8538960716275805
1.2366145419706072
2.705163296492107
-1.252639769846716
-0.22176766965676312
-1.711847358803552
-5.571828870359583
2.1924933912211264
0.6061524691506313
1.1848244848846439
-2.3129725578489984
2.587971001514295
4.3523661153809
-0.6147656267756716
-1.243986430322005
-2.643262616616327
-2.5210735764934196
2.0566316912268734
-0.1486767754604722
-2.8822056420504163
-2.3171019404224302
-2.3096528302016543
-3.281715567268711
-3.0259517987640874
-2.1761845554742836
1.0214042956128089
-2.920420609769442
0.0046489946080430986
-2.241764581204719
-2.0539319352132352
-1.725990341742013
-3.2902373124630264
1.372374443379007
1.0254409084838731
-0.852566753030501
1.3857535015988305
-2.8111725203187636
1.3218898232658356
-0.9895102197578958
-3.4684513229769323
1.1104564580739051
-1.282383148364084
-1.5672011888266253
-2.3613356661214433
2.1401293305060474
2.0606942848076426
-2.3921776437799127
-2.131425104528395
1.3842717978844425
2.129424746085925
-3.5182060398255754
-1.2824378374551362
-1.298891146240199
0.2821747819833899
-1.7413464731641632
-1.2319653316664816
1.3276853221385905
-0.5546430856494122
-0.0066200667984565725
-2.997487942813062
2.2901122299135106
0.1851873496341466
-1.6441914315190862
-2.78220283576462
-1.27813788142021
-3.220582623011044
-0.6060620602762234
-2.784141982157047
-0.5835814640979546
-2.954066899699139
-0.6421591556354298
2.7892259805009005
-1.5581141787447055
0.5996957659063736
2.5348293033889098
-2.3288071115073943
-2.2541726285196777
-2.3674392370742536
-1.8559248365870453
-0.7792777165483474
2.38537773213839
3.0339653932537685
-1.5706079698600393
-1.5722191843040498
-1.562881490722875
0.611787318752019
-1.5763261247217282
0.3558365056917175
-1.5711080003116253
0.0018238123945964607
-2.8482525716724574
-1.3735508759237123
-1.2668344980924147
-1.5826682746504994
-2.759818462579441
3.241074501423339
1.9612706460413851
-0.6177511985563524
2.322871881245017
-2.0298486514861365
1.1432912086836986
1.9643653204097795
0.024866171940014642
-1.4123965390979616
-3.092679189245163
-4.095636838767995
0.16308844874926093
-4.701157120859759
-1.4255493529157424
-2.905960063878115
1.2481869675596422
1.931768790857386
-2.761857204899938
-1.4013852411201153
-1.4046318750955356
-1.8937834826773805
1.221297011998469
-1.422871242355236
0.4268158312950869
-1.674128704625381
-0.008462215064814932
1.095839362236612
2.397889760062983
0.4737591410688224
-1.2034625007657496
0.7498394584286222
-1.8514332153090107
-1.6290035961278762
-3.740308134778345
-2.1021876521018115
-3.6776397280199022
1.4790239788023076
0.5299007424257128
0.7102703392533382
-1.5149991881546458
0.953963992661823
1.6737012385012897
0.5683568927516695
2.111682688234846
1.1030625632121185
0.5041191281430646
-3.3337268447611232
-0.36796221636938065
-3.923893761019824
-1.5225645181854555
-1.5128285479289676
0.9433015988518375
-1.370397654023073
-1.3421505809307746
1.448411373869007
-0.15758744008289402
0.0012437889585384283
0.18629207652757107
-1.7387052003830776
-1.5905118946280563
-1.532007424161908
2.723825226478363
-2.29536218364875
0.8462659065721015
0.5905645403751459
-4.4535810229203125
0.815099364303217
-2.0231246764958932
1.7994675659520922
-1.6761916639173369
-1.5694822458796862
-4.537485719110402
-0.14464585655355058
0.9827210730188427
1.763217444452557
-1.8067363721994554
2.1868880655772753
-3.8958061630122782
0.1809363051606477
1.9531177956831625
-1.5812392475467998
-1.5785864005317416
-1.6305053218216259
2.0849777871971096
-1.3743011650555759
-4.751507098949085
-2.69961444013059
-0.006879437009017567
-2.1461734969159654
-2.815474319185545
-2.625686237519917
1.037113456910029
2.5664705710037423
-2.9476581321641793
3.006553409202929
-1.94843842266744
1.2804363504627005
-3.5631332935568922
2.820654665306423
3.1710838332338933
-0.11710137346840731
-2.122645895111813
-2.921056353720294
-1.2360526969562249
1.0693751372127867
-0.7162453486324583
-2.396008020089217
1.176337886603719
-3.229660208441271
-0.9855100153516451
0.033487070386246535
-2.112257357701248
-2.1189708868217862
-2.385338935319727
-2.0773027862082114
-1.8642954291797356
2.825375059942603
0.4591604003631906
-0.0009339494869448402
-2.0337488221255953
-2.562851105383196
-0.11856353117674924
-3.693677014119986
0.37680398676158394
-2.3443545361109726
-0.9366753292537616
-2.8163715932035585
2.2449429199946915
-0.7796208804302911
-2.5757068212188576
0.05915966046841692
-1.4394960536468395
-1.2998992182837004
-3.0890736346770082
-0.7008902045141245
2.3123699215991547
1.145139233275045
1.4595588112499767
3.187420389611742
3.4120555002098945
0.1447744920504066
0.8119215498326063
-1.283646929200767
-1.2966747109783614
-1.8264170402484212
-2.2360821089093994
-1.1755525084212157
-1.9767701413313892
-2.7775007924255792
0.0007651932051693615
-1.892337066877877
-0.33804008920003537
0.37089193300500917
1.3508474831954742
-1.5321512460311266
1.258941100848773
0.5589185754465067
-1.4154917835613254
0.2609153577140647
-0.9247680664065379
2.786617137977294
-3.6584932381932767
1.9988203492242653
-0.8130438574873183
-1.889078839011796
-1.0739045656906774
1.873216140299137
1.9077944338431552
-2.40094838264237
-1.0335447453117563
-4.983745126771514
-3.9620679447613742
0.5740976960675319
-0.8239395504938152
-0.8140027198541002
-1.9936105106304811
0.41067799233402363
-0.7812040638315294
-2.8295290551456986
-0.6155541722717152
-0.00875323833776642
-2.64765529596127
-3.439062635461865
0.7686769760685394
-1.4513401185954984
-1.2442791998840765
-2.5457581804716183
0.9356031076143446
0.14102068926969352
-3.9365071654718324
-3.517215255067756
-1.9021551681655322
1.5525585993980362
0.7355465644041216
-0.8763981132984444
3.4633751706640266
0.1902791724370952
-1.9668588337515682
2.2420929577554105
1.0811981786963567
2.1046272222038502
-0.0013616835531952151
0.1645982673502156
-3.780096076898974
-0.8714786956156079
-0.8754873244079786
-1.924898697619735
-0.8129941005738263
-0.7744957798493921
-3.306127030275741
1.272438738636721
0.007311095157250742
-3.4477073492669614
-0.9279951614195232
-3.304984073486641
-0.9846686591582602
-2.9422583486001805
1.4514680049824475
-1.5576119309024676
1.7044583747627493
1.3187704989439262
0.42151353633035454
-1.9130471702623661
2.049011455736593
-1.7928478312562228
-1.0870588118809106
-2.0759656472432275
2.5399416461201065
-0.9734590960608186
-1.5568562236351182
-1.1638854776598246
1.5801619886115368
-3.2397127148977853
0.6168689170425234
-2.1948886540145987
-1.0867173780148465
-1.0879960661984311
-2.363808729822685
-0.725714105092466
-0.8953158375995509
1.9323117449425211
1.8375838395204054
1.5992662447193717e-05
-2.3607161820821165
3.4329670138023887
-1.2212360810870937
-4.371431203531809
-2.901505083613652
-2.173435941793225
-1.848367372962929
-0.6811555723939403
0.9577478968390586
-2.4300784807605935
2.5126015885131565
-1.045535110286957
0.7381632767492526
-1.4938024527626277
1.6032277752476982
-3.202439412384304
1.0723036375358728
3.1884447997575136
-1.0537020751828583
-1.792209596949183
0.30074159037548115
0.9545855400322516
-3.3942532345109706
-1.4872660907753725
-1.4991566276767216
-3.1555308378705416
-1.0665797692985488
-1.351069671029703
-0.39966707448993016
-2.752718366400957
0.0049363930547228815
-1.0969086782733781
-1.9653539661996717
1.6640234008964163
-3.7398117330852965
1.7656408848023128
-0.03289508970285297
1.4117206188171738
-0.7784976224261799
2.989493973842949
1.874140262545192
-1.198479444227081
-3.592654840030405
-2.5970421983560974
-1.7192879899245044
-3.857142673675172
-0.24390638886037116
-1.787711918423436
-2.083443613941187
-2.6753378298775576
1.2901055396036918
-2.930781663125188
0.8631762616303699
1.5500578853497056
-1.7238043985529057
-1.7250334122397566
-1.485241816036883
1.595394058965443
-1.6549510623769383
2.1514614440991657
1.0631311254251443
0.0015923447635291677
1.064899467066292
-1.4703003555647844
-1.1685132271980505
-2.923863825759916
2.010783108349204
-1.8593496653138306
2.4259266723601383
2.402233914393414
0.4985545277604245
-4.5788253017409195
-0.31445784846463803
-2.5567244424778663
-1.7349965650043224
-1.2845770698948653
0.6799731232128466
1.5789596419010117
-1.4979953417454999
0.32418870270300676
-1.9620798441065679
0.7208831782146646
-4.290018832049799
-0.35121824239620475
-2.8441180607605783
-1.2782858845792742
-1.2840892912693727
0.10010232467629832
-1.5795301724782451
-1.2934671859939897
1.2141112834124634
-2.7865203583955394
0.0072960467802970375
-2.9393237269532806
-1.4806800984241508
0.1384744748651984
2.099342609057278
1.232115932057649
1.8128384618761557
-2.5092831873203543
-3.182478207443744
-0.3345382551577042
-0.8175824418760415
0.5383753954919209
1.1901778297914196
-0.7651921438561778
-1.5155126192854014
2.05884317228707
2.152480248252337
1.3589337371064074
-2.400898415872528
-2.2825951784581906
-0.14055494551454506
-2.252772992175036
1.1862299744419074
-0.3459996807205256
-1.516505853829496
-1.533639548831298
-2.1549361989316966
0.9652927441679275
-1.4213152805439688
-2.254651511724791
0.21739379689364355
-0.005470427777714131
0.2280737651276096
1.5265570821017436
0.6358420974821847
-3.068650247083423
3.261646303929453
1.3129322287103853
-1.7486523652961354
1.5538232624137538
-1.8988654428504907
0.2527482915556412
-1.7627084841323328
-2.632329512130052
-1.775926345790216
-1.614609853709128
1.0191378430341311
0.8261730488975946
-1.9251284078132083
-1.570871768735716
-1.1425964859679458
1.3995389885920853
-2.439144406129378
0.15708008352541677
-4.1525984556433535
-1.609833111828842
-1.6202221770202625
-2.6808477284373886
2.387609592344632
-1.6133625012588786
-1.8401833783546788
1.517308342590256
-0.0011785520291857088
-2.4213593999367458
-2.7916453731628548
0.24626311411010093
-2.220318915254827
1.4466159330120152
-2.7697007614104754
-2.234916776003882
0.46095972717225525
1.0485846903388665
2.6897644150710325
-1.419702907572253
-1.9252160444304935
-1.6974455378578017
-1.6341372532541323
0.05053590650970836
1.3320331543911703
-3.485772950359856
1.5198440774235322
-1.8592414229917145
-2.1451737666372006
2.8945925408139574
0.03326694322837689
-3.0863755266612496
-1.6394277504548465
-1.638179248896165
-1.8307651508017788
-1.6217144723843366
-1.618336401609068
0.009292082878075028
-0.7635012487489152
-0.008817520251149916
-1.5843218905122505
2.3108419665414353
0.5984787888276044
2.9636473692597436
-0.02839405822469459
-3.466517771229267
-0.7416909633993591
0.7400322954899753
-3.4502235321156087
2.0038514419832403
-2.383694645066224
-1.0173393765506495
-0.006832918603542187
-1.308880382632338
0.07760632183976517
1.2771377944740578
2.4007132863145886
0.73173753251797
-0.8673419039111703
-2.1700916431544095
-1.6014483016724335
0.8403601761061928
-4.406277844848693
-1.303015873959788
-1.2988913707849077
-2.2634226739223013
-1.91597645281539
-1.2853065444338712
-2.654085177750316
-0.48244007004952594
0.0005317479192450004
-0.5452355369176867
-0.4265758563442703
-0.33253683635865683
-0.22519637439507
-0.42737337217816573
-0.24883540786543054
-0.4790546782838145
-0.3857272624902451
-0.3844597653212946
-0.3693395471143385
-0.255037669275872
-0.49298340614598996
-0.29089388045019643
-0.5995677701914554
-0.41836153599556253
-0.39625156689413477
-0.15311042961587512
-0.42432269243339843
-0.15790082341648135
-0.4100714968645073
-0.31782304907862946
-0.5078862065550402
-0.420094696944169
-0.5994475618792896
-0.5935333093624404
-0.2457124287795381
-0.2742708439797669
-0.5998950248595419
-0.38994889879405153
0.08171113529627516
-0.0008510079423338056
0.017266010965321137
-0.13527078287272515
-0.5466210944536515
-0.6484162953573136
-0.6053701947466056
-0.5330302678770731
-0.4991075951261809
0.6066285804732291
0.6152970324467649
0.3488646548807887
-0.23045449240148497
0.34574264265971166
0.8160490634424553
-0.11321848370766822
-0.20558876090959785
-0.3507286269872289
0.07073642213137675
0.06901970341067784
0.12267387149580564
-0.22216527914475387
-0.317477835018788
-0.5852630680746665
-0.702923561050014
-1.3245979514030937
-0.6918082852529108
-0.01685166382712888
0.6526367904416174
1.0972982881433824
1.6162625324078317
0.10844523287678563
-0.10553158518912692
0.3539308525004198
0.2859440396463716
0.21641747806748168
-0.17327954248804925
-0.23843852535359789
-0.5624684656398873
-0.2173865164625042
-0.03350264190393644
-0.332077371602525
-0.6486933909059838
-1.3934751357226491
-1.2004843272146835
-0.6603832322047839
-0.39374937017484485
0.1054690666757209
0.003941513756408208
0.4555347513074993
0.7661274921869399
0.24293633531414335
1.214891162106492
0.35257849030533833
0.04278309970319482
0.9545633878966729
-0.06119938044993271
-0.1798532329582445
-0.9001574887937095
-0.49449210252240217
-0.2478353782429156
-0.031112457775303186
-0.40914505819719715
-0.9085919288855879
-0.8827186978311921
-0.38668573887761426
-0.17215964907243866
-0.6873942110443128
-0.48517855509588387
0.0017795292347727843
0.3563904314539247
0.4781941599051164
0.5158193920208058
0.7250642646878351
0.3666628264298833
1.1510006571795879
0.41421573008161616
-0.1176391131147467
-0.8627404586946725
-0.4859532843765607
-0.13320554843871252
0.06353935087170344
-0.5017130676890773
-0.7432113881987512
-0.8390839619343213
-0.5966266637801617
-0.7394504477131898
-0.8555999049711754
-1.6869885649396859
-0.45828793749872815
-0.749073997328175
-0.30265899728356843
-0.751962272680436
0.48878557972422937
-0.10748233876189772
0.09187489707546563
0.414968933208292
-0.010414001034532886
-0.3396941288227865
-0.4800065376841872
-0.06294298708421278
0.3120918461923413
-0.13649840988250583
-0.30980864364753846
-0.16976063643553704
-0.7452293753996027
-1.110736401591872
-0.6459191310340017
-1.312146459155089
-1.6613846457055506
-0.6354608038801379
-1.004239266255789
-1.4994926145453735
0.9780878540666214
1.0546377827398887
0.26780623164026873
0.5945468952362533
0.2672488542070787
-0.10134582802001504
-0.0619044907237727
0.19737998652496086
0.30445716974362974
0.00936058097588774
-0.05324806558448158
-0.024405614764741655
-0.3113931925488626
-0.4281026604755283
-0.8760288131830964
-1.1729355121348386
-1.2335261221510656
-0.8567676078632014
-0.9600011402934319
-0.4112373009848653
-0.18408313247457572
0.2533273259074809
-0.3833125852967149
0.24312907680854004
0.2597153583085078
-0.14778164136639482
-0.02400362462659585
0.2622778874023357
0.10855937247668962
-0.02613262098890501
-0.10798602396711211
0.09477899509757248
-0.013666273784748453
-0.1546392249294719
0.014781895226494172
-0.1203475733231915
-1.433759346488652
-0.127708579679068
1.174459548870357
0.7792467630457903
0.32439878931363864
-0.390683677233895
-0.5545670289864211
0.001436866054067783
0.5896152801613723
-0.09100389298586116
0.12201493177637127
0.23121907349711554
0.18965156560670882
-0.05296166975623821
-0.02086930030413667
0.06577550753173193
0.012706684062710565
0.1288111537406332
0.3520111934169939
0.1299694952490742
-0.23489469630250967
0.2432504244813355
1.2496812382372156
0.506351125041044
-0.20709519497143813
-1.6477945427485112
-0.05130047932686654
-0.20879218600950375
0.41655965317487903
0.049416919285070304
-0.07078579027112245
0.2195009833527408
0.18965259529968442
-0.022815803282681648
-0.05309184216750465
0.1502386580326665
0.5112480505392282
0.8050735624896088
-0.07949600162554452
0.375859961727053
-0.028613357010272508
0.1455825943296343
0.1524992732763161
0.029003048052476096
-0.08065641398272018
0.6127854258802389
0.4980523534272482
0.04474681710153241
0.10471743577528059
0.051359896115488676
-0.03113700857835453
0.22357438301606264
0.18586857796574463
-0.02112025155605551
-0.025653537236241565
0.36283857478245196
0.4937496018242998
0.9643107340733478
0.36397055336567596
-0.8399781987136653
-1.1392787433029268
-0.9481285659067141
-0.8985001474245646
-1.30997752021161
-1.2066314302872805
0.3775257029694312
-0.11947015839233922
0.6206435460044897
0.04255264776809996
0.052616013858728446
-0.02864403428002763
0.14030912554751546
0.16187560279198243
-0.077911312084887
0.06338654129577491
0.17911168228426333
0.6107531664599322
0.08025268872341601
0.1412376690561425
-0.43227351132728903
-1.3729152598724697
-0.9571909984817135
-0.7815061478007316
-0.7117913883200347
0.1697762428212896
0.8775351945004509
0.14830516176119926
0.4463757334387517
0.40898885528648343
0.02287667270846157
-0.0548155904900553
0.13128832359574455
0.16736362418906464
-0.08042633989975662
-0.010928590737733867
0.19071958948316212
0.5593969343662636
0.6530615444043468
0.6993295552876497
0.37560310653594137
-0.8135884054153704
-0.3020937305330082
-0.5666349584091929
-0.36428138359505596
0.5729040186753835
-0.10640188023169532
0.7051815548173056
0.5486751383514561
0.223285846039464
-0.0926220138061708
-0.05926143097292037
0.1013271193489445
0.1263950016547845
-0.10368148019705181
0.021363812355108563
0.21162632054928426
0.9416751268847579
0.8116457486782571
0.18052967977162035
0.8655699554648535
1.2251671495893695
0.21887548825363445
0.20235321656947078
-0.15356367490497583
0.9127516123698859
0.44089641163640575
0.5562010890524136
0.6774063220103035
0.3652557153845457
-0.003355399437894996
-0.05566210775304352
0.06422220200402748
-0.01983819481645367
-0.19418864347316975
-0.1647137998143018
-0.0624100211306852
-0.07250016214588802
-0.30343154436607817
-1.1061846186302375
-0.2697717443427049
-0.07542857412873498
0.029568554228860015
0.6051060944544855
0.5719934601387336
1.416427810369725
0.45135371218717113
1.3526327693733418
0.1963920774380827
0.6449342520886602
0.069570498906016
-0.08211503174385229
-0.025204797587861694
-0.008959632839891794
-0.14149044395946098
-0.23893294950590158
0.011813908208174457
-0.8288640824827568
-0.8528585265989341
-1.1122505331016943
-0.40948755469668
-0.08397105452756282
0.3749027077676896
0.5845398477175747
1.1956090313861967
0.8040590969627498
0.9196736779534195
0.026970677087453966
0.2913505875537347
0.4510360752901638
0.16748639396895
-0.3387058580505605
-0.03272231594849806
0.0842182502297383
-0.3339244715556936
-0.2715579042413967
-0.3675831676365228
-0.6856720452901007
-0.09080774568833172
-0.21354959420289485
-0.5930007860875925
0.02029873419994108
0.09889949509434035
0.452757358846044
0.31345723830898853
0.1313027307276645
0.4825680442613249
1.217334281168984
0.748983159110568
-0.14505105037288296
0.09572851941656153
-0.1938728668654219
0.08976532035890208
0.14772354435103696
-0.1488966469102118
-0.03896120467302292
0.036700347458568
-0.7251195620668456
0.13654827650749501
-0.3904343069098328
0.26269196263987155
-0.5539388300454053
0.03502720013095229
0.5363358812048735
0.736536973506753
0.783597409375288
0.25556055399428096
0.4842516388882456
0.2798396522412395
-0.1920590777022988
0.11907864984242264
-0.10663954824888108
0.12168891155235231
0.03157878710541128
-0.07456188491487697
-0.205232649493026
-0.31612219138733516
-1.0516762216789532
0.07422104385029106
-1.0210572769184947
0.08756803015940362
-0.61081427459092
-0.6918921529186159
0.5113746094068987
0.4376954873531962
1.043298545514953
0.683124464926317
0.722340944010555
0.5169351722971042
-0.2287608665519927
0.0639757281868149
0.013778122040880693
0.0729910324914646
0.1881044558027265
0.12257248381905095
0.09450107792123455
0.5341949286356191
0.05636203385313145
-0.06942928160537974
-1.3165287607830536
-0.38894615664438387
0.2143589962288792
0.3115466837639509
1.0604196141529836
0.9535965996410698
0.6276983322012594
1.6747750026145705
0.7800339325799706
0.8360801799895231
0.5429118330769684
0.14353156347410956
0.14353797595721138
0.19061916335579931
-0.040515022619605025
0.007222470913678039
-0.09483616796092496
-0.25518871111864416
-0.23348955005860597
-0.538053639734484
-0.3866704407619031
0.1721974667959441
0.36197898362658987
0.6380590902103889
-0.6983587151195316
-1.3943665423884268
-1.7066258933556617
0.33100046394633287
0.3456222284848137
-0.038361647776851776
0.10148677517619167
-0.3285041598011184
-0.11051926045167942
-0.004467104096460539
0.06844821060387296
-0.27998011880843654
-0.24262931676723037
-0.4516993535934615
-0.1625084404754271
0.1417028008582031
-0.20137086980426183
-0.3207904413933601
0.6927073705215986
1.6574812320135743
-0.45293516267764533
-1.4897032058222688
-1.8367118665113689
0.16151035745580328
1.7420024012858666
1.5328542340481595
1.411439062860264
0.16796972145076539
-0.28226477266680317
-0.046377574075438285
0.056082197697902396
-0.18871396651713554
-0.3557899630741946
-0.3723813532498292
0.011932684980327513
-0.013905571643778637
0.26712179478780607
-0.3150178317186869
-0.45030573773594124
-0.44235635199629647
-1.7108574529959262
-1.8739208914366936
0.03013977991389875
0.5030309073740923
0.7146908663714246
0.8299327507568278
0.6233271642665044
0.1252804716305924
-0.27325656721063035
-0.18507050982021328
-0.030998439248998953
-0.017920560378888627
-0.035510451605669235
-0.053521125755616315
-0.38874987813492706
-0.7547561648962087
-0.2503485386205596
-0.4681768617929786
-0.5826747420997963
-1.0371360236469314
0.7599886121437303
0.207420771283841
0.6214004859015941
0.9604615224235846
-0.150570080632773
0.1741888738258349
0.022237403484179026
0.025256430347088788
-0.32700429831669797
0.1004551772156504
0.013255980187598987
-0.03481534965161908
-0.046107660038940415
-0.29389674397193305
-0.3209938144199446
-0.3548247399076918
-0.11816793677490292
-0.12074590079099938
-0.6212587037829049
-0.6948215066652786
0.9499429641160821
0.46570546124134554
0.27385949378734653
0.48572982143581434
0.18152864378884118
-0.09877832135117041
-0.450283934199775
-0.5201676332499071
-0.2309676015254678
-0.033310259875287615
-0.01031335470036488
0.05829117427952977
0.3254556974282328
0.22801385293265986
-0.07668094138124698
-0.6084721905937827
-0.9152744534072832
-1.0361017515658653
-1.1325627611322748
-0.5008996374016116
0.7319940361801471
0.7559533198481199
0.8092677323118304
-0.46478426785409127
0.10081559189624316
0.1698715840557414
-0.769519748777925
-0.5954959454704728
-0.20030094042466084
-0.03789021211388695
0.044889787266638635
-0.04901103519498875
0.1995973521482015
0.28807226077904735
0.14617692442672015
-0.20718591837667769
-0.09557459470784406
-1.6408640702927804
-1.5063343789697567
-0.0816162543828477
-1.0180192130014445
0.9156700665117364
0.40628836263392065
-0.3880832797651008
-0.9009183924648285
-0.30650976472608077
-0.8832955005021387
-0.7729244405208993
-0.29092835395638245
-0.062414380695720195
-0.0045871782050573
-0.0801214772870923
0.14874622321358744
0.40363677562758493
0.26155924973107103
0.6851876080275715
0.27090026107961784
0.35081635097940483
-0.6883587505128829
-0.8446418363604435
-0.9177781802923977
-0.2821257440884014
-0.31971974589365126
-0.7425103291537445
-0.17051781785309902
-0.9861979371369742
-0.7969122073062538
-1.0158338743188473
-0.49818111055708414
0.0522901197941881
-0.14253932952615073
0.03494559908134879
0.06447804851967723
0.37644651423128733
0.4177567685150921
0.644249671367566
0.7894120279056506
0.39782727942173174
0.39988584782111325
0.17528427142381584
-0.3501683217896935
0.38080309885059077
-1.1165506200208497
-0.5760720553341284
-0.42409021373185984
-0.6102978810416304
-0.5505931327111644
-0.6593905918563906
-0.4172773863746196
-0.08071194058125858
-0.14077714456192003
0.05524281178886515
0.05000603220955105
0.18064739583026218
0.5511905220894003
0.4229435644094013
0.4815915700321796
0.6401850762925837
0.3161088844333182
0.11024937289636136
0.3854332780917768
-0.19898509384631025
-0.09592374197723491
-1.0269351288391877
-0.5323816605649457
-0.7104308200617011
-0.23238285553322363
-0.5925468203616371
-0.19217315467827886
-0.20567354274607957
-0.1274260455551963
0.06310473935456754
0.04485080429171136
0.14275336858994647
0.31815721024152427
0.32893372603473936
0.16636416266073628
1.164412880067996
0.31620257769133975
1.3966572789462892
0.9585532588493375
-0.03159905507275972
0.024546171516737034
-1.257177999871073
-0.9789053924256664
-0.24041094133872473
0.034121486332045176
-0.6997700773207229
-0.15768263482505313
-0.21058460518822697
-0.1077782119996158
0.06716320184171246
0.03910266959806637
0.1845554928385853
0.3970786242306309
0.9193981816924192
0.5325555342194263
0.8223500630835009
0.5547259397058246
0.3673793287745738
0.2413213950901141
-0.4252727701882043
-0.166490439981936
0.005759370145494816
-0.4147415349132649
-0.3492018216025634
0.2858090983016234
-0.46100015209241196
-0.40755506084128107
-0.1941581258829602
-0.014553596172685925
0.06970912641624355
0.02005328016963473
0.12761324686942965
0.4211432456723867
0.678982585256424
0.7451854922766128
0.625221249385307
0.49977312512131583
-0.303953288772872
-0.8451976511430813
-1.4049640807215493
-0.21017740107991847
-0.7249664637697966
-0.05641104800684252
-0.08069937095202288
0.3351335849360597
-0.29492937714571804
-0.2210736871789569
-0.21662614016865336
-0.035227294464117355
-0.1447921610005186
-0.0603302110726297
0.30527388097197783
-0.024955913723039132
0.5041516823660974
0.5622172857912325
0.4479379647868175
0.6752528028111956
0.8773469031245303
-0.4753066981785339
-0.8654683617120377
1.1507693003961883
0.4045490405966383
0.5344531623392693
0.5330039954301063
0.1448714771414829
-0.06493075842365263
0.05598262748640404
-0.18125841487211233
-0.07946498917120527
-0.19469248462835645
-0.06789705933511675
0.16079260687295838
-0.3063221913894999
-0.45240722858631427
-0.30546087226669344
-1.3466486452445054
0.4074674713226308
0.6194445988311551
0.14534186072910257
0.8093777901967372
1.6116919881480194
0.8465293268281276
-0.4584604614211273
0.4567026592139895
0.3705494412088746
-0.13095397394077882
-0.03829962019744076
-0.021829683061498413
-0.08205591438424807
-0.0370186294300865
-0.2418541562828049
-0.05243406331504209
-0.5986921251093097
-0.5350801307322016
-1.7582617222632737
-1.1083264988055161
-0.18860872422275518
1.3729837529514952
0.3842909221450576
-0.17310760739593664
1.2090199440836122
0.41816146399355475
0.1847386728369496
-0.4245675975929701
0.2915739979631567
0.43858493999500675
0.17581291889056294
-0.00371309385195638
-0.024912474211752567
0.035914024039782354
0.06087521731991092
-0.11260126063605383
0.06698726860955787
-0.2745542508467955
-0.14581194190158026
0.12934931415267337
0.02240113880101054
0.15087196201084735
1.2819718834240954
0.5228809517170159
0.32810243593725535
-0.11018618508691838
0.011841866016104858
0.1809211066334775
0.31340008728672814
0.1468937695739902
0.29303777732056113
0.12019878866576524
0.15686817270305656
0.004081419578471446
0.06122172312042245
-0.09661870903844827
0.36214263356121507
-0.10642580851023517
0.04649349651756117
-0.14186083400014912
-0.230304096367922
0.09518226050564516
-0.12079245469720017
-0.47982269941822053
-0.47248047085191713
0.2892992968951862
0.16098842890275217
0.04754580539298104
0.5518173205011353
0.45026301394599294
0.12578127516177892
0.12127015647945648
0.15032468734400853
0.0177020342481467
-0.019063080046759655
-0.19101847322450977
0.26317479133993577
-0.3609030087611133
0.010563733584979649
0.4323177028756513
0.09391422684282912
0.5682196662442315
0.5001026946734373
-0.08549316526764635
-0.8114041978937991
0.056385319340765114
0.2055304508364119
0.22610060796207748
0.06912885597910731
0.2234046222317023
0.13614206951643446
0.13648612520337933
0.0704425945704179
0.02505632847302881
-0.02496461403453472
-0.04372665175940257
0.10063182960041024
-0.09793516404731827
0.46229519342334396
0.7931028461863318
0.7463268886447231
1.4036288721679022
0.6075673774189994
0.5552467784979885
0.462504700422079
0.76683370217312
-0.26035772694958437
-0.16183883690935308
0.15166362161815078
0.1675472439819465
0.1153854580720562
0.10253497491058448
0.05606548068209385
-0.06054728588675957
-0.007687627177704679
-0.1926502083506206
-0.34284367181636294
-0.21460369310969143
0.08158406077962982
0.6989266187908727
-0.037666553581909505
0.4489166434024088
1.3303350283608142
-0.04163146272543992
1.409702815638425
2.2060981478647226
0.7216494092997723
-0.30634730463907267
0.3024919942315532
0.26767561774841203
-0.02736228678330932
-0.3944414366928178
-0.09256277205406523
-0.05321219039117201
-0.08080808681564841
-0.9171896359855828
-0.9770088761113194
-0.7286075233811161
-0.24120277625480832
0.2180952390722234
0.6033844247477003
-0.36622404467951725
1.232568539493111
0.9386058729477057
0.9375396148535536
1.7655617124463556
1.1203717015013528
1.1838215743077776
1.1522769674158604
0.20981112793409004
-0.6767655447375333
-0.6535165320146497
-0.1332245240307723
-0.022051834261821196
0.09743040514257961
0.08422141545558658
0.3118002522067557
-0.19861660837109915
1.5691438471114885
0.1597527603480829
0.6213897755651832
-1.1195282181229436
-0.10957004187127996
1.700268628465817
1.8942691667513976
0.8002677853142359
0.6787162243377405
0.9217961467415139
1.0055018928633506
0.8348995010783171
0.6012198206418067
0.04094740949026194
0.1917447345214033
0.27111840724396125
0.08237731115073157
0.1530492241837261
0.3933978799740278
0.2052636278781639
0.06881418426091399
-0.21624130986473378
0.5916002724779049
-0.5544986780878612
-0.8081891961444774
0.20323460113945802
0.8055480380283888
-0.36703816587728166
-0.7592550378529648
0.8337824965533331
1.0854856415982128
0.10745002912370628
-0.01438164926766413
0.29725161550615065
0.2517299567374249
0.008449122664597651
0.04925565481655173
-0.011771485157490108
0.32146324327405223
0.536064740112821
-0.05813299981940641
-0.6591624801144609
-0.2270834483392637
-0.7790191959334155
-0.22292534470737405
-2.183184489415979
0.42450516580073244
0.5837730928043172
-0.5152882515993821
0.0753230307851214
0.39232178658462113
-0.1481875588259232
0.4920117254927868
-0.08660285149371989
-0.07525261682942368
0.09663549047619716
-0.04110187673622761
0.007351470894539181
0.4807792205907553
0.9650557135015864
0.4334883613328664
-0.3827784201688359
0.37470349298716743
-2.0104929891224983
-2.1191578558572868
-0.9222271482181482
-0.03036218699100414
0.116675699826842
-0.14068139686742315
-0.2185940448208416
-0.6286319023351139
-0.14450485333892477
0.6771779609928421
-0.35562388635920067
-0.10319760851003625
0.09107225580347621
-0.0460052408860002
0.17264121382127548
0.3379725176050435
0.560531190306244
0.7039863220486393
-0.07368650787116618
0.25165116654803865
0.6456592605213697
-1.209227346491359
-0.4761442580150251
-0.1866505920387145
-1.0015900238413207
0.2626474858351226
0.2706476274802504
-0.38117997608399157
0.34385851705477943
0.6322165824044484
-0.1470396965879872
-0.08085610808332233
0.04834034685854876
0.02668288872121359
0.03581101771009077
0.02689358401091321
0.0704885544226847
0.9653292032373635
-0.6029644429485118
-0.4163052282110313
-0.3529810672617732
-0.001798582181065591
0.165455725987623
1.4242861467077037
-1.56033282898736
-0.022567100848277056
0.6275332463793701
1.1831806236464635
0.8130416506487406
0.4818955053059432
-0.25304040034455566
-0.12609097115361398
0.0665519976194681
0.04338119989696878
-0.02334180899132348
-0.1326284901162441
-0.23508403655499224
0.13649983336975716
-0.22717554082548583
-1.2370039954081755
-0.33668209591537973
1.1937310271821462
-0.4050640265443227
0.06789963341630077
-1.2921568191854527
0.5309662251453809
0.5231173823388681
0.5249268927579952
0.6713796405536449
0.41079839978356536
-0.2747626619986218
0.05823561901821307
0.0865985048584934
0.03922907265727068
-0.09570855259996953
-0.11264221648743111
-0.23061409119124385
-0.1371771822490703
0.18410383013102322
-0.7692472153890306
-0.03615770796181965
0.5703164486151583
-0.3710614985200852
-1.6892566599699865
-0.6730893212377986
1.0130235975591917
1.8709249525922866
1.7339143772643444
0.6315342975592028
0.24306471700641277
-0.12758616592953254
0.04691046218071929
0.0859947098527891
0.03388284239620711
-0.09884357867598714
-0.12653560381734277
-0.029503271337157008
-0.3144401849585667
0.019880841712282278
0.2201814962326642
-1.263692884938749
-0.26793568944681523
-1.9089845077024556
-2.3699761593434223
-0.006584714665656373
0.7989644047366335
1.7024552005929665
0.9245445153456112
-0.1940206583322452
0.3522986240984951
-0.1369914061108256
-0.03057009812653899
0.04621381281405974
0.002699612961943247
-0.08686279479274958
-0.1643153168593867
-0.047576813480682496
-0.43718420311067807
-0.4947561238817031
0.38638262298346776
0.3482426252118462
-0.16283573266739104
-1.6069995741850511
-1.0875202484320965
0.3470259911575144
0.6074139692429974
1.0353459570556618
0.37089022809248995
0.4867344426435443
0.8429504135798677
-0.05779442267371116
-0.03225844563382108
-0.13885982717475523
0.006325076134741095
-0.11244489730229962
-0.3342503011531414
-0.07237193101491757
-0.39571860699774314
0.010433339147140609
0.5918491105701069
0.13002051555778876
0.3299861086506509
-0.7685933155773395
-0.7877486817208023
1.059364388467622
-0.7709195426188947
-0.4765373127895311
0.5189502765730352
0.27374974962518994
0.40847816439900275
-0.11489306832508875
-0.10676901757033053
-0.18716952131720638
-0.052246937346022454
-0.11773720003651109
-0.44485852472528364
-0.4045222526849958
-0.5285731317078584
-0.5905969663498541
0.2937377736968794
0.7616211909359633
-0.3772780896442491
-0.1280084471944019
0.5295824787232338
0.3742175880309897
-1.2010684185137344
-0.27907636333630065
0.24512980091167696
-0.35776059401926363
0.3293674557024545
-0.09432064230920079
-0.26020069349723723
-0.19000170449825987
-0.12435362174514811
-0.4079027456127088
-1.1030420236978191
-0.9825833435794425
-0.5903793813317569
-0.8290482706345522
-0.14474225918824044
1.375200544798494
0.7759629752201106
-0.47455086925864126
0.5577553144190027
-0.7301436781997866
-1.040471265888755
-0.020767551226930248
-1.2932759695471834
-1.168665553848156
-0.29331910897822816
-0.03785878008389486
-0.4085094631260176
-0.27976279257992587
-0.20958003703837977
-0.5320896577730911
-1.0640231062875674
-0.6479745151931272
-0.571121209538232
0.8361967961089264
0.5360693739524912
1.0155812033534861
1.1697871382918517
0.8323761140058201
0.001234196695345666
-1.5695147983001823
-1.9842686293842247
-1.8987401492490916
-2.383805569514113
-1.2257473447490765
-0.1870585550840154
-0.24597871150777587
-0.5547788347223354
-0.3235233624571045
-0.013863410198611818
-0.3695649687085089
-0.3890002357316037
-0.37103379762246
0.09256991692821569
0.18386849551181417
0.3162055674077664
-0.012585432800334357
0.23802651447938256
0.8725544483076246
0.6485231257052467
-0.589566449643355
-1.182545666175893
-1.263795792376632
-0.2685372460401682
1.0043360385664735
-0.16833805201679972
-0.511550914517879
-0.3216294067725267
-0.1827746926094555
-0.17815887576614395
-0.07046152409733195
-0.3125053286229397
0.032349573565342314
0.13477804130845408
-0.36584749194267036
0.0757322625714772
0.18268465365434375
0.009993549946897598
0.2673277803744618
0.6598916996052314
1.0892024672650218
-0.5538562180063155
-0.9990012148158186
-0.7967522645399255
0.4533819755351841
-0.09262158696439214
-0.3780697488177633
-0.47658306050754895
-0.36438950952293414
-0.114623931665921
0.139030665034549
-0.030086057448476335
0.1801673890145123
-0.12866771583492545
-0.42054019236852597
-0.7430303893148005
0.40334674401497733
0.3683689193937285
-0.27257163170212206
-0.19102000195485136
-0.02111211459423166
-0.6053586686778581
-1.0154157743144985
-0.9084733251009429
0.3807218638165405
0.1503993093982065
-0.04121026577019042
-0.14429569562284864
-0.09193304024178314
-0.06480990490158314
-0.11442397894489119
-0.14156304937592842
-0.06258655057374345
0.015459878911539318
-0.1140562395211288
0.12233996027360858
0.5686029689526076
0.7931087502355325
0.38453771351346416
-0.43563222069975194
-0.5386614677088225
-0.7373525547272854
0.23114423255867597
-0.41686495661108725
-0.021629248659239854
-0.013019122803411198
-0.08482531361991136
-0.10264073771378558
-0.06123972562480117
0.21154142986542077
0.0023008945368633398
0.1147742123912797
0.2753777855336707
0.5359086003681801
0.8197460362853252
-0.1945076430916871
-1.005798722015412
0.10765368564881193
-0.163776165475091
-0.6718122193870845
0.3565390152582796
1.6053299526163671
1.0284685203886035
-0.031139227980364628
0.3243541136460493
0.32657195803070366
0.0839326502332834
0.1257670099492055
0.22447619356858348
0.24315987874103137
0.0319548256290988
0.23418467771060017
0.3436796523956242
-0.16509572433284728
0.49103923323904936
-0.620347312732334
-0.936202316932969
-0.7726600805011303
-0.4660718145013363
-0.38224618417753625
-0.1648008555039249
1.5492321159586642
1.6019057266435621
1.256142582596912
0.7249584908214518
-0.21129297684863932
-0.2786205552789259
-0.12772758568988457
0.10293771976870171
0.02339791436374159
0.1549632538778393
0.36143451667792775
0.6172000419546594
0.108216134812042
0.09781172186151742
-0.20903555944493393
-0.5457167370411746
0.11685545945144246
0.11837675414294178
0.28627173446903165
0.025602634373084583
0.9222476213006626
1.4466189198115509
0.9400075188080287
1.301686467545227
0.5266848829005746
0.4114709689771327
0.17258871935462097
0.19091441528637257
0.11218505290206474
0.23397749054999364
0.13085399399925216
0.3885090402102227
0.14168581400566008
0.18084516943516749
0.0994119337684773
-0.006425993130684764
0.42408688993929955
0.050598205328610694
0.27476513162005295
0.21809972528956645
1.0949826789622263
1.1044757666502993
0.9911865212466482
1.290905797796325
0.19831294801795205
0.051024425390866185
0.10223684519540749
-0.02429130388293742
0.35007910873938064
0.2815951493592018
0.24406850963327306
0.12317226989108396
0.020776041417671975
-0.12766093103981035
0.40504544658802594
0.3414376978055008
0.5060733368925386
0.603605935932119
0.45356967451558133
0.7020572124390712
0.8147552534836027
0.5299766390744765
1.0657240914115946
1.0945345319728652
0.26878636236721487
0.4917277206627609
-0.16644886570242814
0.2478798993811482
0.4028433146845951
0.27969567750930935
0.33282093934651424
-0.2750310632749412
-0.46086028149857733
-0.5361212343418801
-0.5198744789781562
-0.22050379029985387
-0.1624231435472456
0.245898554435153
1.5079990228605498
1.1273768958005863
-0.10867406602741611
0.32567439263762127
0.33625412111707975
0.07755000779424621
0.6266525312108596
0.09522561373875138
-0.0007392048954086581
0.22952697309756373
0.4072966609645654
0.20037267212710572
0.21296048286640948
-0.22782208899802933
-0.3117609932104663
-0.7291841054213565
-0.3843634342713336
-0.688011858662662
-0.5045190371807863
0.4722111894072388
1.4369720716877212
1.2278855115764864
-0.4198480606072579
0.35181526855020023
0.31569381739299146
0.6559100701813118
0.5971298318689559
0.3548577019590888
-0.021915588435775936
0.3241139411092272
0.40382264385622624
0.2033329175455905
0.11614224409420344
-0.13983510781655295
-0.07158539624219992
-0.18648146341197544
0.35480591760634456
-0.261602670077338
-0.34926745863394765
0.8100813298108969
-1.1114260885535145
-0.7279564912779829
0.16526269933242446
-0.7177350362418892
0.444297071762175
0.9454459413196498
0.19162229013962667
0.5901995360129124
0.02965368232714872
0.21547224746198315
0.4025577940994749
0.2116629300772658
0.12814136178335675
-0.13232368944740838
-0.13799566701983543
0.35690310303318123
0.8962158637153771
0.7188811409301168
-0.32955677474732153
0.4182392247626012
-0.8751577248313029
-1.3082294650159079
-0.03795888174039819
-1.3615460321529556
-0.6516971276437902
-0.08425996783214162
-0.01382386167496735
0.18116399325976767
0.05313633471391364
0.070421312457761
0.43624096761592956
0.18035800996157705
0.1280529009175625
-0.15280445487566996
-0.18955829133944496
0.4472403968058386
0.5033238972464583
2.4305579713232754
1.1707099428544543
-0.3683633987576035
0.2593103607449734
-1.2425280168009192
-1.0397645642545577
-0.5609476568760573
-1.3450721543027164
-1.567493777035873
-0.39873163293187647
0.0785792623805741
0.046944895325334184
-0.024948493351129645
0.27610482283112203
0.1515437221555009
0.1421433028598714
-0.024757132164982654
0.02450510219880726
0.28730072644385984
-0.2285134925007256
0.34087731385178877
0.24678153412637008
-0.03299118297788318
-0.883829770021545
-0.3895285495881985
-0.04289905654442919
-0.36688559955904143
-0.3657437397866193
-1.4132542691073504
-0.6448864304939753
-0.2015941598074723
-0.31988399689263863
-0.1592237020862061
0.18653702144134052
0.11782925962589447
0.14874155866633829
0.05345774981012384
0.09336987141568347
0.24644760615905856
-0.7045661801333573
-0.12653644825874644
-1.2069530371991006
-1.2911593061311581
-0.2588659350500849
0.9097041982110382
1.607115440931937
0.9458569875199611
0.6262328808785486
-0.7001798449902688
-1.0512641688451678
-0.34147317285621503
-0.30883664240355096
-0.2681070397562232
-0.05861990128267868
0.10673003225244493
0.1488044580215381
0.08415321229166398
0.1135386942441599
0.05161776102526052
-0.07670175216457426
-0.18449944420689768
-1.603602799727818
-0.7507905486450867
-0.33210049047913676
0.48301170050546516
1.5530759449738116
1.382315628004991
1.4703381199123446
-0.025530316990856162
-0.8708359216177289
-0.1221631614237133
-0.4410459261189171
-0.1511157628493243
-0.052861035712380565
0.08315613296506033
0.1731883333821275
0.1482425296463979
-0.053346408153152884
0.006988603006899432
-0.031478179070270826
-0.9179089593508398
-0.7358636777209727
-1.3979887254037828
0.5713512838160998
-1.1480468361250304
0.40165358687800334
0.33417546187197295
-0.5328472861783551
0.20305510972964225
-1.0586474854813932
-0.36975317427538656
-0.3466442937657107
-0.03303216067688058
-0.07374822541894216
0.06615249243987559
0.258911918992941
-0.10273954781173407
-0.3777627886864712
-1.0651508098821123
0.22268659420776007
-0.46227848494697604
0.834687580673997
-0.6723120117794426
-0.4379106685620679
-0.9996958909036812
-0.473505495704233
-0.037973464693077184
-1.8411486361570812
-0.6818157843746999
-0.5732185643717085
-0.5093742131603215
-0.34042330357308354
-0.05306140591570579
-0.0676000110582507
0.09031460957550594
0.24763381229046447
-0.2863470900046772
-0.8375025662419991
-0.0850758365629308
0.42964579970648
-0.35565141167068
-0.2467463096727813
-0.7757826959609471
-0.6099208170239581
-1.3750876680230892
-0.5612580562672626
-0.5053686084152322
-0.6819732678179676
-0.6553040736214976
-0.3731916795492315
-0.24008983989814103
-0.43240556767675215
-0.09314617327315079
-0.08352522820174038
0.1491139033360028
0.2317754948890265
0.25488665818591216
0.22619305186600885
-0.2594380891989783
-0.4383424384814395
-0.17294800297222335
-0.48614582633123715
-0.04784591334635455
-0.30222669955524784
-0.3943324518938448
-0.891818694159424
-0.47089471760201734
-1.595496377149975
-1.1098754536725561
-0.5902984617234225
-0.2283456669202821
0.3070374913142269
-0.014341513299414722
-0.05374137557384467
0.17162633140955533
0.278605359719405
0.378753491924063
0.5231169310506092
-0.17934209224740377
-0.06957640518045041
-0.10871414485910784
0.1350819061709821
0.16307487515520838
-0.3579413059823236
-0.01900238620457719
-0.3332969581721328
0.3498808434316339
-0.10957632660928977
0.07202236499685596
-0.4120669909462901
0.02295269814841636
-0.15285059491409902
-0.019103468189483254
-0.00809724739807404
0.13296310074968806
0.1546623955113333
0.25331565105237286
0.47295483494278306
0.017023246601511964
-0.1496660241118396
-0.5533835027978077
-0.5347705602557787
-0.3613492911642682
-0.08555374750875691
0.019312569363774196
-0.8309369786677733
-1.0026045593106345
-0.8760929521110744
-0.25996183213983987
-0.32265818929403267
0.05326891257028711
-0.12783831157500616
0.019794038746324853
0.15002261316890989
0.21351851591921459
0.21224686146523244
0.207626594260657
0.4191835632471016
-0.03603881919261372
-0.33357809432349117
-0.5119096419666527
-0.28277960076591424
0.0767430857875327
0.499331255137614
0.08099108533869562
-0.6169923840098872
-1.0695778511958889
-1.2107730118922215
-0.754118383063643
-0.3211539867812574
-0.12045485635980242
-0.31280088706417214
-0.05657090803574053
0.27895176721958537
0.35438530229840215
-0.006922201044377676
0.22930619775818506
0.48135514146200853
0.17024610916622115
0.021561508001722587
-0.1815300368274458
-0.2369749726958802
0.03875874092309
0.2530840452275781
-0.008641380886222143
-0.7234402966481503
-1.4056496990739373
-0.07144378082139322
0.42354280377433834
0.183658021747751
0.08588616835651396
0.24512202960051302
0.35409533884651195
0.27255481777905644
0.35471559393690266
0.029349323359954917
0.09821882486019631
0.6987279697792101
-0.2265526951731738
-0.28044862325579145
0.02761400882432251
1.5547881621191166
0.13026758735043922
-0.7697072095938816
-0.5945369776822755
-0.6600333106276334
-1.9038155432580466
-1.0607676533882828
0.8054991509998731
0.7426840724272906
1.4972212462820624
0.6832376300252462
0.39171561510462655
-0.03520798926207293
0.1080970013324207
0.007656477494593486
-0.08803268489945074
0.09018637489371727
-0.3983305401473285
-0.2826546115256618
0.3095378014526474
0.23922921292193744
0.3753831618202534
-0.2070305549245766
0.22879795267326242
-0.02231479348438126
-0.7498311331775482
-1.1811970817081865
0.33763808797164585
-0.5544583869433202
0.318556872543621
-0.28589503353852463
0.05511261371434165
-0.09176592333019502
0.025677729479787973
0.037682614390874794
-0.12746227021044357
-0.0986201794236903
-0.35302298154208006
0.5804314233789615
0.09927229595421208
0.7830201424320994
1.3299451167450123
1.3460543363557151
0.5540973809202744
0.04036313061118335
-1.079199588969479
-1.9489114210956309
-1.4373354669926772
-0.9773795631830454
-0.9847410796792654
-0.8073757160351982
-0.22956554746325525
-0.2567851633201882
0.054829335606166776
0.09974173382890064
-0.12262194231407993
-0.11364505148588547
-0.21933166782922733
-0.11361854439585131
0.12001135148367094
0.2630705104464657
1.785161097816122
1.3612201065377494
-0.6534562094196952
-1.5655604973168118
-0.37460578248843196
-0.9998007413488489
-0.5639114767129464
-0.5010094486059448
-0.3624622034955865
-0.4401730413465624
-0.37113065482258834
-0.2122186974253128
-0.03742913486668538
0.21870462844658936
-0.1930475998615094
-0.17452131339848373
0.27494469083801787
1.064363304470234
1.8927821703487024
1.546834221493544
1.006485089064975
0.8070237107576332
-0.4756676380835282
-0.962278626889432
-0.6251765717084409
0.35943420814873334
-0.3784976122107835
-2.1953294436543365
-1.0796695018521008
-0.21631059724879845
-0.28377211018234266
-0.2595181862948246
-0.05541445050588161
0.19594068670140066
-0.24247510434323097
-0.26654586087424015
-0.1511346601024261
0.8071652705524833
1.5503470977076175
1.5014002182076078
1.9860057881693924
0.8597257509455152
-0.5688910398807625
-0.3863555102002347
-1.6012424264293073
-1.3887527283979708
-0.7912342787112386
-1.4398287711916218
-1.4953680514847718
-0.741227568920723
-0.35683211583638347
-0.25625427297591924
0.07754851428995568
0.23292329250377744
-0.07916964424832332
-0.24753978933840998
-0.4528990204439306
-0.01490735016284696
-0.3077595420263339
0.7143529093135266
0.9026913031128146
0.4627755903070757
-0.1813248186377776
0.6137707300216987
0.17728554953893577
-1.0073181428861722
-0.022230365403134604
-1.093288700885426
-0.9109516105549078
-0.8518407627860672
-0.4216196839001032
-0.17747457563844582
0.3573196750694272
0.22553238013636365
0.08524109365178954
-0.13752331445831334
-0.8865191001818279
-0.8687069888740854
-1.3530630454465251
-0.30184325611075163
0.43755945754724596
0.5545736846970648
1.6114014051699497
0.1947892769419611
-0.5203006939253186
-0.8134967436559856
0.54645714619281
-0.30745087858815195
-0.18514927748960125
-0.588842214841349
-0.3431335126279916
0.12215030169689557
0.396827192074098
0.2549283841444908
0.12699710600746056
-0.023148731283911962
-0.7894871576644971
-0.8435272184723925
-0.4829304039711957
-0.5622028056719413
-0.2683920470200671
1.034180397576962
-0.06178315126491903
-1.0203775955161434
-0.4957326106532578
0.15660969022174537
0.17523551195312875
0.26975452791743104
0.20412974026685715
-0.6140122831522498
-0.03479797529326853
0.12624249485929717
0.40803096552806406
0.251464297840712
0.14089508973914922
-0.002001302099780474
-0.5669852432710468
-0.6610177318181204
-0.8496795725604398
-0.7573616312335333
-0.46184591990616775
-0.05261563980447331
-0.6747528467759152
-0.9614424841297194
0.185898740810722
1.813392345869413
1.024677701921711
1.1080258217726169
0.5658487963659721
-0.47674360414945655
-0.004890404557834145
0.260712932852224
0.4076959435884016
0.3333260575936972
0.11431292331330051
-0.036499070196618535
-0.5911249016691199
-0.6034632043572405
-0.9637125071209697
-0.48157158609729867
-1.4931428194490777
-0.8772160051219854
-0.5495036421574698
-0.15024787724747415
0.0935007526177253
0.3860280201400577
1.0044471227320495
1.065265018030565
0.46380477411689053
-0.3406858086193603
0.00048150001353679164
0.2557878380344627
0.39878858873955825
0.3373993814948723
0.1207819647381276
0.09916546868856725
-0.537573106779783
-0.1272255899568168
-0.9595080343720028
-1.235235619226724
-1.7275616287550553
-1.5495306254036756
-0.08612724641800994
1.407776278050739
1.6233313254471937
0.7819079630733682
-0.06617887262897422
-0.05240516428961619
0.7523920522515934
-0.40431608015491033
0.013450583099121801
0.2559582358704145
0.4042385783206539
0.2737858191246704
0.09005410391108035
0.0622061339873292
-0.4166189449949412
-0.06569925758417647
-0.7446971178084847
-0.4916196370566851
-0.861194885899337
-0.9515327042887413
-0.7940885392883421
0.9063517408569183
0.37056430279187186
-0.7065127394858158
-0.2859420744108392
0.17619396406149307
0.8597729973222494
-0.12555108066957862
0.05709640694680894
0.21935244598946602
0.40935487244672536
0.35550437746714103
0.12096020386309866
0.10524948303790505
0.24855196234520976
1.1468167412807049
0.12491729015747054
-0.5889362605337154
-0.17348188851022756
-0.1522537112604636
-0.2538893184778165
0.7947899755139489
-0.17685662916201347
-0.5578613625701847
0.04386528871940612
0.24717649568291417
0.6343139767509586
0.3642865586902325
-0.043201167860710495
0.10313734242730517
0.29951249856185463
0.2732709756116816
0.05579899138043897
0.014730152879029606
0.09882503206293725
1.0580421510909916
1.816942793088814
0.6314467915479589
-0.9326141332588733
-0.4880859411095363
-0.5076655980208057
0.6143671512577908
-0.4369074483224164
-0.7953742511926407
-0.2436610655016851
0.162434949496551
0.3555546301395419
-0.026172782094019315
-0.08441277747640363
-0.0164062829164842
0.22283619127201312
0.30780658632159363
0.10150405631694023
0.059119463800713916
0.4893389602452102
1.3398654149012572
1.2949327299583326
0.430101945538675
0.6317204608445154
-0.860173217340462
-0.996943370946873
-0.26454852494586734
-0.3894321969822396
-0.06533384768663025
-1.6147748493422378
-0.2687227189531836
0.6170493300494003
-0.15182143806242146
-0.10199042424717727
0.12577003191904218
0.2204729724097866
0.33670714241970795
0.12195181738602397
0.12934410180668798
0.48581519837017895
0.9754551134155093
0.3551376062593333
0.010523029085042147
0.6368910514888012
0.26245300777947017
-1.0355333164916585
-0.5456190493219613
0.06864936176685416
-0.3720344771965366
-0.9795333694450366
0.46966826877847173
0.2610426357009735
0.13169333120382445
0.2259183794089582
0.20470463114823834
0.29175767774736183
0.36340919634626667
0.29399812519440105
0.01669636293571769
0.3636313147396747
0.688441568068038
0.7249250921505269
0.03391624978355856
0.2056574243045085
0.2164617227951892
-0.3170822009338273
0.01822658891408085
-0.1981674345550361
-0.7962623815437183
-1.0745479008394523
-0.05937390650593149
0.21577161285820334
0.04119251609757857
0.056679937656390594
0.31693573819698884
0.35920900251257837
0.34990348346319305
0.3477165537458397
0.34573091895378427
0.42735596335388454
0.701004513818989
0.5504545688674729
0.4484372906830892
0.09480667369214753
1.0080804893299733
0.16264266942605105
0.09665759953221202
-0.09479979245282431
-0.8111507465825324
-0.6837091553918618
-0.07000503347428627
0.2439553305299783
0.28649406610287037
0.25048653386260256
0.2926587529369383
0.34821842719110013
0.2049646221798744
-0.004626127215959226
0.2578603359314414
0.37762302142545345
0.32770957054673777
0.14605613803398323
0.5206498781638969
1.0805255195808738
0.8604080836495782
0.010032822410222818
0.1117230347622534
0.9992351312929584
-0.673780394831346
-0.1126153319520667
-0.7800636396839506
-1.239632586205812
-0.5920585154217761
0.12294845929046769
0.20837140063652906
0.21455656685555202
0.22317040487786113
-0.274341945818097
-0.23074554546360182
-0.12853855219430385
0.5930253199726541
1.616974403488962
2.429071728534492
1.6165159450744946
1.178552469010296
1.631488032358216
1.7861796340110614
2.1546394336606522
0.7794196621983412
0.22350950522640123
-1.3009375046317937
-1.414276680584033
-1.0995531997920986
-0.6356974326954606
-0.5583740397730126
-0.2130119757768991
-0.038781502139083185
-0.14683925571771428
-0.5249798379456005
0.02459402152229995
0.8784503259948727
-0.3552533487610387
-0.16025198649406355
1.400340359256768
1.8036364542761198
-0.10424913716937519
-0.7475536286442722
-0.05536716069558067
-0.4738250936991827
0.4284370140067976
-0.06803647453305213
-0.3079510380802325
0.06378248856444346
0.505282941110144
-0.3223987177790071
-0.2881866288613556
-0.26393630819456426
-0.008278413061018848
0.0963032814335349
-0.28215511847973623
0.36375937768909544
0.3186432863904236
0.11759059731249942
1.3235284071926827
0.8176104226048383
0.5224685889236628
1.319869801585675
1.037418469567613
1.3674302214244145
0.7597648556217229
-0.1529804338622276
-0.1382900585262905
0.9953535543402193
1.1194070200658315
-0.11886509591158914
0.09138638639749816
0.1588640529241757
0.10893982043209319
0.047365295466399795
-0.7544376282302135
-0.1962238962028914
-0.004868541643875334
0.1190630736152104
1.591234559850102
0.9368116757622859
-0.09923558981045019
2.074848603217445
1.1981063735543707
-0.19505699557382086
-0.15203116431864078
-0.7272435686925454
-0.6563349992767853
1.105676737305
0.5128972145939505
-0.44486328101581807
-0.36491753431600743
0.08616954416136814
0.19757999069077734
-0.36435582625599816
-0.7672079994878491
-1.1880784856844235
-1.202463909296405
-1.0154779740375743
-1.5820626902868873
-0.22364783167427368
0.4735953184840267
0.5495579682132452
1.3559326778050569
1.0600756679129497
1.087399746348855
-0.45122654723470706
0.4027103065056914
-0.3103266394357029
-0.8157804010142862
-0.8586498549066602
-0.4268818398458535
-0.009046867125973095
-0.21199706992367928
-0.32474561664378604
-0.6974967734423957
-0.7745758844817117
-0.5813209950102949
-0.5812218167229782
-0.5707500274360956
-0.35685361665967597
-0.05177474603439029
0.24017110085130608
1.1592548560399611
1.4947994663270918
1.0876679630788044
0.18625379203868536
0.0449827933682562
-1.1095330006712343
-0.30305197147275653
-0.8856628290585914
-0.17339294034520442
-0.14877248504944257
-0.1773210008410068
-0.3237770601797555
-0.620779346655061
-0.3208353853784497
-0.514229073740615
-0.25709004362304333
0.7972976380636507
0.5482590470961268
0.35039445390744234
0.4208656734183363
-0.22632458857780455
0.6243782805221647
-0.3907953709007666
-0.9330863917244808
0.0711926307379481
-1.0191603056006309
-0.30725267257174255
-0.8583595441356117
-0.18641133806535032
-0.1438692394594157
-0.17337182151465919
-0.2594885462529442
-0.6120743799050933
0.00869927685807758
0.23044090314349303
0.3035466345551564
0.4621990688558396
0.9827813507300075
1.3664908034149077
0.5198358127148948
0.15900605160581607
-0.2556362133331447
-0.676129073362632
0.4413748949900468
-0.9259005059606183
-1.2163239957231577
-0.7518574855550462
-0.5455390054566555
-0.20251371401440313
-0.08288976441931872
-0.17395916387020371
-0.2544497222225966
-0.4342873373854774
0.2055951636590715
0.6424025257287503
0.7106396262732011
1.841695029186827
1.2260189610038486
1.2195400750758196
0.47687186632729867
-0.13491919280167236
-1.2763504915837902
-0.07149884049527508
-1.1491962434430867
-1.448314394513354
-1.1973531577309109
-0.4850024763292238
-0.4650639246061613
-0.30403060931546444
-0.105715750006988
-0.1802161142882223
-0.25874665733852564
-0.33388247024607853
0.21188537557425197
0.5402131824785547
-0.14520625711611404
0.28219286397378884
0.6940890824545642
0.8181423139491207
0.6776118787964446
-0.5017718865624059
0.3702391995007889
-0.9322144458523972
-0.8825580283216979
-0.788390553660546
-1.9666871553754888
-0.46694637691523977
-0.5086843653451488
-0.35635073679624096
-0.12685518692197895
-0.1778889578533946
-0.23206425755077165
-0.5836548554899087
-0.10619652772798847
0.19757317807260968
-0.26522318822622637
-1.422221759959426
-0.9132087174866078
-0.13152422413188383
0.46517470861174437
0.10747789189534136
0.767669024540998
-1.2434688514201295
-2.0329686575703474
-1.6104819910540333
-0.7278865807052396
-0.4005495763748479
-0.6268494342163499
-0.3312450830035896
-0.30944547449430354
-0.18352484262080893
-0.21197670486292672
-0.2762016400894709
-0.38455146094060483
-0.019660400271110833
0.28393815565292235
-0.02422742624211335
0.3704606779737538
-0.18508383789004315
-1.1842925783465807
-2.0536145189513846
-1.4614213798263065
-1.7305661986293628
0.07803499281549424
-0.7922158968969026
-0.44430232698068267
0.0720358828239612
-0.23295466047463548
-0.3282084981318401
-0.3174284818958026
-0.21525233105106997
-0.2149683526449545
0.04894464016145937
-0.009460884035071533
0.2170472567852066
0.27723489658851697
0.003957104079325672
-0.3052549936331659
1.0805061974180317
0.935145823316705
-1.3718113669721348
-0.15946598339402154
-1.0520343926116176
-0.20423645694370587
-0.2366914759923967
0.09153760661545819
-0.21095259997989574
-0.37688783828536326
-0.2362022521958725
-0.32201208168809387
-0.20173425203916512
0.05253170714947848
0.2291774365036742
-0.03137535002855958
0.9628549175103307
0.772457548064138
-0.75843669558042
-0.12451728088368787
0.8348273600564364
0.20022678170209277
0.11659857506439066
0.18238762188000238
-0.5502019023333423
0.11519981410283928
0.5395166339869953
0.5264622027943572
0.14229721346421145
-0.6132062197112416
-0.3552009870004793
-0.3364154927147062
0.2058113079060524
0.15009670748391016
0.1586654801010482
0.01389035607763691
1.1917205176488683
0.5312632784265593
-0.6669531952524294
0.15563049935046414
1.0027015122945884
-0.122342834681507
-0.1125788835403256
0.24260512405210577
0.7427088382900923
-0.648010064327022
-0.034112574625771906
-0.1975803241652408
0.3042722467015623
0.23460477252877118
-0.19890452820322205
-0.10898683707126933
0.2578611796560848
0.3818812078715337
0.24254926841328195
0.8549545517947182
0.4114894982539483
-0.38181053864829295
0.04199974414529352
-1.182056543301616
-0.5051637934025188
0.3275647222458207
0.18269903117144068
0.3220857544790983
0.2122541227031904
0.31278841953992903
-0.1794396829441797
-0.4036935863401114
0.3771703251355468
0.458680633283903
0.2780019461242295
0.06523750920079918
0.33870213415340594
0.5791651020053614
0.7190580181379391
0.5850238047465083
0.3972124660965726
0.04486614206185209
0.4243434435125339
0.0439373069867828
-0.308559603209012
0.1677606809598837
-0.31370436571566157
-0.40895478503883137
0.8228168224338934
1.1535823684392603
0.087621165918342
-0.4028188482083479
0.5103856201061093
0.3815833277235135
0.22948205449519032
0.14934785360423275
0.21825098621735364
0.34384440002882494
0.5592066384422517
0.874858577279869
0.3923844683162994
-0.1448300591409982
0.06450937373247313
0.2358474581447089
-0.3782976789637223
-0.03432226063317854
-0.45465355036420396
-0.1850883839955894
0.3280176245581422
0.609959797092592
0.16356946944683848
-0.3547804554811052
0.2519414647581761
0.46193368545569313
0.19219511300270534
0.19555534085152093
0.2113904987068301
0.2762296726743161
0.3978397705431882
0.271266997320251
0.537045579556052
0.3706282804715774
-0.044056458812081624
-0.23134292924801134
-0.5936134042511239
-0.5757410570398623
-0.45369855064024645
0.20389995778154615
0.2298339840933656
0.6572323045640242
0.45726217001905917
-0.10116670200276077
-0.03794978359195182
0.09202913797050917
0.17951061017520037
0.17854163826087258
0.20756951090501594
-0.009083809797605976
0.16289658611959126
0.04308379398719872
-0.08283959533103905
-0.03471278154810213
0.19973612207067115
0.9716132356134062
0.015648428085213956
-0.8526673771755084
-1.2269511322468474
-0.9328608831604014
0.24408619839964316
0.30537579101646534
-0.5227742736911567
-0.22577589601565903
0.20971658588718572
0.14492611062991237
0.15738193087267502
0.19821171305729438
0.20044548043067448
-0.20729809622835085
-0.05569896307976815
0.05478581237172095
0.43223785490354133
0.5591884152684371
1.8344795733858605
1.337654961920646
0.07284012129312455
-1.5489974803352347
-1.6571631304534955
0.5290467382821454
0.9301491911474001
-0.023543834366353374
-1.3343058452960683
-1.6598267629747503
0.2934187788847553
0.0033891436866240786
0.38369504358964795
0.08442010330978149
-0.19537629734406217
-0.28461817040631693
-0.5699193045766929
-0.420666266338764
-0.1433429907895569
-0.24853539484669235
0.17552055091038088
0.5713562222605808
0.09710083672057623
0.6828859001312249
-0.7605778119175114
0.14017954820475126
-0.2871296905214886
-1.5441370300194674
-1.4773421321013152
-0.8712007240201007
-0.5091854061081856
0.05554209269775723
-0.1517380656835625
-0.29912227060661173
-0.484238641755436
-0.17356442241668515
-0.11344949417598514
-0.20172121722759037
-0.14637331398931777
0.3974031150748905
0.2780793280521143
-0.09600676395089848
0.4488518869108063
0.2653219514955106
0.7400467820377533
0.9536990496577283
-0.0794486075007537
-0.006506490930247087
-1.1704156648555208
-0.7578151527231886
-0.6199903392545145
0.42893925897619567
0.3351269972488043
-0.1562325698810991
-0.353516238187584
-0.05161641426447337
-0.1895880661009646
-0.5750345876600773
-0.03905916566078005
0.40703034999127047
0.23458956930022945
0.7691007792316726
0.7921770374254312
-0.45886917209598754
1.814182251917502
0.5126874287095452
-0.34490913546336976
-0.44332631626739627
0.3480518084921519
0.2607462831757219
0.3190543239442262
0.20918385035498946
-0.11363156075939033
-0.5369097858134859
-0.42595530240009044
0.10051805569441513
-0.2726464694562011
-0.49956204729807435
-0.08886756206769232
0.1896975751826433
0.6103297652693814
-0.11038817371989539
1.4334953850139662
1.2648730013748952
-1.9824510372303692
-1.5097366857442376
2.5467833203825205
0.25055432588479015
-0.5435594587260469
-0.05665694334553894
0.05680727333626545
-0.014780527448118521
-0.4979895295636323
-0.6086974620431327
-0.3908314031736954
0.2662151209299153
-0.20314124671778475
-0.23273188583075108
0.033865726482641544
0.2110166956243853
0.5021089097230775
0.00258998598082551
0.8788867956487774
1.4724259077684207
-0.7949322946375645
-0.4635009907563188
0.7104501383597077
1.3724746125119276
0.6523343035422694
-0.030741027250757145
0.013203119112232794
0.045607957907385796
-0.4421194587962237
-0.49309975271459144
-0.2920265829208912
0.27235941637751515
-0.09595203890365168
-0.17245497314749053
0.1429115968074395
0.224747128908082
0.6169622494120175
0.8860498395692439
1.3497314291293532
0.8321135138252423
-0.2873339154027585
0.5646897816988676
1.505219536208673
1.393009005428249
0.600576415949555
1.8183314123756735
0.31952961166660515
-0.6278522201220129
-0.49725113718816527
-0.4095062278750085
-0.03055617712215025
0.238456366364368
0.049542665650951036
-0.05037547048097659
0.01957828948188771
-0.1705510526394645
1.1183675865598972
0.9458407626121703
1.442108478156325
1.5394426586488577
0.09571918196200045
0.8373462318673357
1.2541375366708727
1.596685848976695
0.4296798477557206
1.396949679837038
-0.25600030347477987
-0.17447525528260133
-0.29889872773483744
-0.13824063860913358
0.23729578183313046
0.19945740565699652
0.23965142635042852
0.06178856710832963
-0.1702523292819685
0.16310311683017678
1.4967359816930663
1.800984797466609
2.2375924126724716
-0.03672052674433676
-0.31858794713813443
-0.5112645018405279
-0.7812516541719476
1.3525778971045341
0.546209357062686
0.7106722219177734
-0.28612329704887046
0.1736582368564751
-0.053277749328825286
-0.022938279609581422
0.1883081983671663
0.20350247876877955
0.3140351416081979
-0.059143311695904484
-0.14090493195435844
0.3587648273895713
1.1340252748599693
0.8893307116809174
1.8139601662804987
-0.5643306920136831
0.18078999205900684
-0.5003063636811454
-1.120649802679539
-0.005155003018968654
0.8482303718896413
0.7743838057856458
-1.1872917429713672
-0.017480001138905975
-0.1581878089929278
0.03179530363387132
0.22158197580985997
0.2576251924144201
0.25575726498904017
-0.05624194235220072
0.06256123257826164
-0.4984956817159736
0.45651722116380783
0.21469200480001344
0.18945227467646833
0.16301530320403096
-0.09702310635924741
-1.368199607583118
-1.5622366375406194
-1.7854994511951665
-1.2874685654328586
-0.13657399639956866
-0.26574888060657637
-0.5715524613894963
-0.1803211044699272
-0.029764684402791248
0.21019689640459496
0.25994775710943624
0.25081536526702275
-0.04060425343524938
0.286214601844793
-0.3564792276442488
-1.0094943469186226
-0.7815756213802356
-0.43379339304673437
1.5333077258330177
0.5496195847155012
-0.963781804154865
-2.04199805470458
-2.142948892928199
-1.3248467190427569
-1.5239269858373359
0.25340277927942
-0.5494492744307481
0.011342388219103465
0.08894741856120715
-0.06974884928023109
0.31605746038947335
0.2485220233987173
0.1328762690448936
0.24162858597110706
-0.3262952001070758
-1.7440071900863063
-0.6386393860324306
-1.2289202190052693
0.6010906926876838
0.5850027929802646
0.28641876705531893
-2.1764707351809554
-2.3591443893566204
-1.1530494266721276
-1.0104078652840056
0.48416384678482877
-0.4669038414336688
0.15905709861531814
0.09723365551027659
-0.03187646444199509
0.38925007087416497
0.14815652179554592
0.2300364615614027
0.338775572698927
0.10587894203141951
-0.8868223520993426
0.2877514962324125
-0.5723825964398421
0.1878555341753739
-0.022731175598590905
0.8927256689297686
-1.52137172557151
-1.6936656225181708
-1.05122332458596
-1.8639983710131784
0.536535787878637
0.49913918487315395
0.4211623882964842
0.06558224378299578
-0.0006412977816112874
0.47420737962955034
0.3219238107773892
0.5724555257451059
0.3814592553249282
-0.10167428857876099
0.2332847759749575
-0.027179952028732447
-0.0010595997840557798
-0.8355025097126649
0.2539257302246378
1.1274378233504045
0.3287841829885417
-0.002385962705221178
-0.9395294773487656
-0.9235925350919073
-0.02013830265250993
-0.44370724361441477
0.6991766598714809
0.2161742943369589
0.0906658951752835
0.5817942382056838
0.5423793936242427
0.6078932774581334
0.18274109803494548
0.38432159178395287
0.46990274684081496
-0.005021805583542066
-1.0620511840104607
-0.4319647186540999
-0.49056326926106125
-0.55525260231044
1.5239552552924838
-0.41692252563168575
-0.6937075802048888
-0.3773461095298108
-0.07713828922329276
-0.9533342279921718
0.13979017047525558
0.3348596283429382
0.2294234418362154
0.2518590955083194
0.05638061620355662
0.17115769615432383
-0.1495540426855936
0.06308987391238573
0.16240214479554996
0.14802866063074444
0.27169673916473697
0.5048898448592543
-0.24639235040413784
-0.7462523695448905
0.1978452885200513
-1.1650509508084008
-0.8934670244715254
-0.4128346617644443
0.07163301776218667
-0.5091717464503681
0.08615777817725499
0.24933231464171315
0.1825092198946914
0.33224689604699625
0.24867227867295377
0.09881870122725396
-0.062468807767900425
0.4864600456355488
0.1771636726058409
0.8183395655024479
0.6808072209791587
0.8136890886569526
0.7380262703307584
-0.014536319717480919
0.6454851583659271
-1.1763403589237376
-1.4778309815260888
-0.8364434402639458
-0.3476036287890182
-0.30087604095703613
0.269917364519445
0.207144178831949
0.17687594169354257
0.25268984108620374
0.2827372958345556
0.25036816153485386
0.10297856736143363
0.5428693547674425
0.6652352815111724
0.8956604679998029
0.5520022019130278
-0.23178059141055013
-0.25864242099917634
-0.8976798708615412
-0.5766568313411738
-1.106730884218438
-1.3783722591026994
-0.749101243247768
0.04979137864428044
0.20800176930056274
0.2526919374059283
0.24890898503355396
0.2515419244259482
-0.20661725812434523
-0.00026443063281227953
-0.22556308709843212
-0.03702104244663944
-0.30244355523684957
0.11924573327293833
0.2063302994836276
0.6816320353881777
0.07869814168071103
-0.10162147755012471
-0.393834849080918
-1.9205117381095538
-2.309992623198497
-0.7353786005414058
0.011081276494659481
-0.009036980437633414
-0.07758213178797836
-0.19414469643683535
-0.40278043827050436
-0.2701190896294762
-0.2115303722995729
-0.39708724813279883
-0.2633864163690803
0.012893069714464436
0.8228429498373536
0.9069167612794765
1.5548509563568336
1.2357316816076884
0.2368120038567924
-1.4145844508385286
-1.627906075796078
-0.9453729652702914
-1.0706769927862563
-0.24778221270900117
-0.7489878325483659
-0.029060540969182293
-0.30944035910809264
-0.41013288889342014
-0.7168557660666387
-0.4818202444349518
-0.22838871117883258
-0.2962696851063003
-0.08623883977867504
0.5728917886526981
0.32617937605063085
0.5606611313959637
1.2723749913618232
1.691733729749971
0.601499992093298
-0.43853955255158816
-1.1897056118234781
-0.7745532853149713
-0.22888794064028367
0.04884306126965948
-0.1575974658713382
0.5148329543234909
0.33188243675390283
-0.18506799841480298
-0.4494206901505221
-0.42888617438848803
-0.2486149080603936
-0.23465012042860517
-0.16991269968252912
-0.20710483084500075
0.14829232626022681
0.44208525632821516
0.02079064049924579
0.08023076115257838
-0.011804706031244668
-0.8206385260218099
-1.6133038290038195
-1.3405473992841923
-0.18578098145493097
-0.4831970276683191
-0.6433064039186392
0.07776715838390154
0.24783758017579754
-0.16316171868405982
-0.4354926023488438
-0.37934557966110694
-0.22231733879106158
-0.21494071783484364
-0.35446817674329995
-0.06374316652535678
0.06607033771508129
0.09429842529606226
0.39232204945961213
0.31815954267135016
0.47674406356218985
-0.06497262239612407
-1.0701417385412386
-1.3677843611293439
0.0012738437502694342
0.2622315172926401
-0.6388924237081706
-0.6875317823710388
-0.7483890034497755
-0.4686785388037043
-0.4403942715350211
-0.38026229959561236
-0.23932123240760106
-0.1468487065724685
0.06122323207121445
0.4281660160333147
-0.34646666299180034
-0.2805213986956359
0.5588512525896004
0.9614060512956767
0.5368573495433492
0.6690316081257363
0.7156867571548677
-0.422482895069881
-0.635921516917401
-0.9735467394642898
-0.8508990549809855
-0.5999260929143249
-0.7721762124631845
-0.04661062333347741
-0.295794518418771
-0.0946641450998615
-0.2129886560948491
-0.07566125096757187
-0.008945161099189396
0.070846526470109
-0.8353043036688842
0.1295674877024516
1.2203885578718467
0.4295062931812118
0.257940891275547
0.9541783749617281
0.8627017603492875
0.5626442009493524
-0.7685751618445765
-1.0322645182760866
-0.6879244786079205
-0.6722788610822803
-0.21820876094796168
0.22030672368351
-0.07109426491978413
0.014759472344051262
-0.16467574960215473
-0.09534129198500725
-0.028293770881219312
-0.15139081399966534
-0.9053356065589893
0.2056763929821189
1.1474093983681908
-0.495170330250705
-0.9165390426147791
-0.42482160728255963
1.1687453789387332
0.7483612190591141
0.26750435105762654
-0.679871904439565
-0.7186629516699478
-0.1064614579085177
-0.37180967427816336
0.16372575472117507
-0.11861118637371079
0.16177249644330452
-0.04746779635801187
-0.06927574517047633
-0.052452499436990464
-0.14297658233224003
-0.4590315486414876
-0.8383000459813745
0.0715775245770389
-0.3376831819397386
-0.41073050746435585
-0.8359349081704636
1.9700653406269766
2.0330864798603474
-0.3400540710423246
-0.5509259265120234
-0.0010019441363883727
-0.49670533340117295
0.3383664383390259
0.12399892294208759
-0.20805111227852047
0.1667391352875227
-0.035569788815096835
-0.06486457153932285
-0.08239484185303889
-0.3400638555053407
-0.47043939775295424
-1.179711574750143
-0.8629972817691013
-0.8466330620562429
-0.048042637468634214
-0.33935266228468425
1.197745771534326
1.676913229033466
-0.19810083983021246
-0.9621800021281262
-1.0993160646036988
-0.7717897625853365
0.32979548489945115
0.3180245449789046
-0.19427899799030912
0.176082487629876
-0.054055802190925185
-0.0795853493716844
-0.10427810453204164
-0.0860507831593223
-0.5826039068643013
-1.2781175264124112
-1.4236159178887844
-0.8161311115682887
0.11015871201489479
0.5012733280825645
0.9127683738177892
0.9682062933515242
0.6403172395154968
-1.3101335689381914
0.3889015232204877
-0.18355129409029763
-0.08863771764723456
0.1572923238620049
-0.26616980129055545
0.13591625225107956
-0.06951089172993001
-0.06306779660242953
-0.10480349955579071
-0.1338437654736391
-0.5819189996484937
-1.1234230706337167
-0.9007443998430867
-0.7001276754371302
0.5512499595464373
0.05909209584580414
0.39394692577277524
0.9882621058393979
0.4419454684335677
-0.5074902829406751
0.06531177322632642
0.09216659124783363
-0.03249497598214784
0.13819285368699738
-0.39352958864030757
0.09594388248500674
-0.07723126267121748
-0.06310017435876727
-0.12825809001850927
-0.21644512793130757
-0.9131334823448405
-0.7079909763835323
0.0714242979955506
-0.384304581942874
0.32127436488132827
0.8507383213157198
0.45875305109882963
0.7125670644823698
0.6032719454752287
-0.29092412728886274
0.36975977009031136
0.7817786761411035
0.6714794347803678
0.06824237710858216
-0.5151923291028437
0.11046550889102144
-0.18128205899783692
-0.2974398417063714
-0.21054998133514916
-0.2792198346064461
-0.8399345502531902
-0.5435882174952832
0.4057648227753105
-0.2843202670844614
0.21963632323428786
-0.5392119518766297
-0.056343840099963544
0.5390346046042156
1.7910986788357781
0.6828884387493738
1.006349896262454
1.001488740405764
1.222582550932229
0.10428195577655641
-0.2993818802272683
-0.16373650739890375
-0.22451912091280218
-0.3247527212887405
-0.3252774002229138
0.24350622168558447
-0.17008841323499066
-0.2759957533131722
0.7800578906775439
0.19645094295718413
0.2367537725193435
-0.43542592565104576
-0.7587914508161987
1.3401342670058873
1.5111572495151901
1.5449259658172039
0.4665487913069007
0.41211034980305916
0.7448891452430211
-0.472007626440339
-0.05296691798339651
-0.45195564813294303
-0.21688464436323757
-0.3777609290118048
-0.32209279744623664
-0.2523167224482698
0.23995730717127056
-0.3782558527095078
0.18962457540823882
-0.53048076355627
0.07269871051654594
-0.41968875339661604
-0.5782692172635963
1.1844629626766894
1.427691054239784
1.8736598995531415
1.5778005659044703
0.761387533568767
-0.08079616015150212
-0.10809414017939951
-0.4853264311280941
-0.5036093859759194
-0.13626578671755807
-0.22119193963254502
-0.044333938356803125
-0.45109871384802047
-1.3853332233045208
-0.7743440484715213
-0.7393200233008164
-0.26860048213466114
-0.16834840277324734
-0.32099058834615696
0.7817619332343702
0.5234241273100858
2.3129063057589243
0.6664892241975031
1.564525839624667
0.6565683569467623
-0.28877844664563984
-0.2810665593195894
-0.338882644350325
0.019656869378029948
0.03609600082103528
-0.2032564662171848
-0.08271166868972855
-0.4190137209778862
-0.49552248402235377
0.03608073174798454
0.3171040945400602
-0.009078804977690976
0.1197533168227014
0.47710995375565346
1.5927609509240472
0.8519245419364494
0.2810157258117616
0.5106216630364913
-0.07569699314351679
0.08632467659885878
0.39149803619101664
0.20172145370457084
0.1819816348004414
0.09803863256086275
-0.1314852524909391
-0.21377909619247437
-0.18051177900936607
-0.5605715892677555
-0.8189574448581813
-0.15539935878088534
0.5304300142716817
0.9398937258527963
0.5734792791793855
1.5610900770200924
1.4386040299180982
-0.12840562807751743
0.5702268473354577
1.3883033037542987
0.6029569572619308
1.0949105070606862
0.9927831142962112
0.31023046725317033
0.4129964686153004
0.11179521161940269
-0.21140584975464405
-0.2079364459732176
-0.23062718533267199
-0.20602619944851513
-0.24349765012753405
-0.0012062388254631719
0.3630336297373443
1.6408448553661916
1.966462734437685
1.9769294896153944
0.8721632303234099
0.7818349204159448
0.8239826370996928
0.8494974813132493
-0.3847159555020675
0.9378077737787773
1.1956482813067566
0.6982427570527671
0.6580209154788358
0.08477002007826
-0.21065104032302095
-0.12688834362676873
-0.0030835602654324216
-0.1421397344031667
-0.17599829444250653
-0.6760954255345458
-0.464754930219088
0.12933709643687588
-0.023274691760336724
-0.09970638590540913
-0.22290225900191882
-0.6112751801810304
-0.020820641468522774
-0.17925082897391797
0.2003056795593404
-0.8183224086821629
-0.6308984001402114
-0.026027155727923662
-0.2802715951804812
0.20617709215498636
-0.11225389219692379
-0.1414437290900988
0.2858935893937479
0.2832328813219463
-0.275823639259732
-0.9930236950463951
-0.8766875301572921
1.2661126066079273
0.6952745836015728
-0.14238978519417705
-0.10170194469492931
-0.573035992792878
-0.7285478848771287
-1.76415225214149
-1.185154224346434
-1.6549214180100411
-0.08146333017994505
0.1571280847930242
-0.13893857330365864
-0.0027748986290473203
0.19725913582659813
0.02878050180472457
0.10960365332522429
0.23143569490362428
-1.3630442655349828
-0.30804274269758536
0.31811919651079557
0.06379467060858023
0.30655601662004855
0.8895848442055294
0.3640762809921974
-0.11228346142708631
-0.8814094312769435
-0.9520332568969218
-0.9267429651640012
-0.16439809256710344
0.023903237598357958
-0.04706192642627402
-0.37807685416791714
-0.5544077549013268
0.07378984055153348
-0.13792897595477063
0.04209158641108777
0.13580651241925737
-0.17759948867484276
-0.09375484490030722
0.9469777800318913
0.6742098105840655
1.168731954993999
1.9459725697710137
0.6943133559105754
-0.7710509333720572
-1.092722162496303
-1.3710873379175603
-0.819780199327312
-0.698830705318634
0.49509339023706356
0.20013896271946596
-0.40192274847830084
-0.03634038538145281
0.2685020441995241
0.08474829044013152
-0.009750839005668354
-0.02786923837373223
0.3190645198393543
-0.13058780151950503
0.1318176284764657
0.23526702838505162
1.1071374718270348
2.033882782111994
0.4623434427673704
-0.0522114245612599
-0.5885862278252575
0.09076765914812304
-0.011432208354884446
0.11563410320039415
0.05793526137853608
0.18416868809768025
-0.2925764527607734
0.9731765037639099
0.18115684744492713
-0.10200583790691312
-0.13772323264348038
0.38299141360461564
0.5155208202556824
1.0001192591269426
0.5594860458540585
-0.14630251590437734
0.07078431005963759
0.3122265412720655
0.19799516517767018
-1.1113154883347103
-0.7707829457406716
-0.4013945701063676
0.2953810320909063
0.7617750700663759
0.30845726727579253
0.10814753334016425
-0.22958505290014275
0.7261222263388665
0.24305044168415746
-0.05105925369937538
0.10064488853904825
0.4200019106560018
0.48309583098535447
0.990380035213411
0.43958352888862523
0.08903093590251454
-1.1736228367359782
-0.9171312015646365
0.21684543277129512
0.27613867979273166
-0.31169595326950345
-0.00788979401645844
1.1980526000820306
-0.7387691443779839
1.0062727956132997
0.4950452988379646
0.6053065797970476
0.525374643086595
0.2578461033840975
-0.029832659439347924
0.08370803238936327
0.45001538897868937
0.5160737546926378
1.0147050025399025
0.5073073441048458
0.2946633406652996
-0.5705928195094558
-0.0012645518256588332
0.421003255936574
-0.06895886348630435
-0.04399413433574642
-0.7664276066826256
0.05321310205464266
-1.6221077106647692
-0.4092631471081474
0.020306251993300207
0.9143798171057316
0.5232241804369442
0.25303399303425655
-0.045297486718313705
0.09977029810290225
0.38610184041158113
0.7047684607148118
1.3562902437357107
0.8813843637895884
0.5958275285087123
0.6354821421478521
0.3537161535499358
0.23742032623055295
-0.7290105305180621
-0.07099130481910375
-1.0726607194655853
-0.7119526412259551
-1.0287726404160484
0.4776987426211769
0.25774492476784683
1.1593534405428056
0.41719082479725517
0.24619716071343245
0.02310335168585036
0.08462917301601752
0.38078594004601546
0.2984126442378209
1.1485117545163686
1.267603683777668
1.2818953298472542
0.5402652593418407
-0.6984815415114813
-0.6967201767102966
-1.4238512040814337
-1.2559122648635745
-0.48249272184102604
-0.3074234887397278
-0.8061552996703526
-0.2827899428550083
1.3257219324406078
1.0830939159480888
0.3296301305472911
0.20174550080441933
0.009923314195819918
0.0938052109295546
