0.31914826819818737
-0.0065248669598920745
-0.7684642322413224
-0.8629875007162379
-0.744993456555074
-0.21078618299337956
0.1215273567626934
-0.6451482129560762
0.5886060353312635
0.9403487016914068
-1.837337192379161
-1.8933294458037966
1.0627662678900063
0.41051330575672157
-1.4092242186648716
-1.2830629368863458
-1.2538473868170925
0.8670073431077111
-0.05581256076625456
-0.9585161562771939
-0.6543513541564419
0.40340927481981637
-0.1824770229567376
-1.2477986526917184
0.23243303001262694
0.035559055570266916
-0.5848821283177025
-1.7825567455061535
0.4217044409064541
-0.2502989468074872
-1.1544541033659925
0.5133545314194891
-1.0187626171101358
-0.6075497217889605
-0.6525418582985348
0.2287915291875886
-2.062859808338414
-0.9268958170703061
0.3627612138654285
-0.040380602464418595
-1.9397563328159855
0.36427766720920357
0.8490024097218328
-1.8836861352639358
-0.24015700289070396
0.33982831006636016
-0.5391160738042464
-1.1502948690470605
-0.8759648321969409
0.6335515440542028
-0.2533186738063312
-0.6684158495849277
-0.28662768137794964
0.3169034614245737
-1.004681453768926
0.19737084096334384
0.796422216963313
0.9783983045209275
0.8539185512638163
-0.07209515777882562
0.7981131535808198
0.1223478976326466
0.002173642156169957
-0.38078034367498187
1.6041910283632679
-1.5679744405318528
-0.32690287258713197
0.3188028560587921
-1.0599546985057584
0.4975154192244812
-0.27481248206390685
1.0603083141923062
-1.6704966372318184
-0.777108669914417
0.6566475375920442
-1.6611401623135615
-1.731507996290997
-0.8135134188818112
0.7693349531466867
1.4197935006342972
-1.2850940736324132
-0.8068787176226521
0.18760733612357888
-1.1848442748111674
-1.6702472189853117
-0.7447766170184092
-1.15493173794397
-1.6213017122573667
0.6584070248399224
-0.06696509014529424
-0.6406294999898592
-2.2305809452985392
-0.03413667721089582
-2.380231495453736
0.04799704584220795
-0.8273721827805032
1.8532417051210943
0.9134216069758097
0.7896803081595136
0.0025544799540129265
-0.5509147278754971
0.14262480124825055
-0.5975875219940062
1.306767192481912
-0.8645072036770312
1.15726190104828
-2.8988855538720424
-0.44037531731065976
0.13511306553370356
0.40267973014603664
-0.29462322575765554
-1.1176911915474785
-0.8189678021177417
-1.6571442101895133
0.6369050889666682
-0.7215359768886438
-0.8842173641871012
0.6255366665951534
0.4671303008861429
1.4234137822435116
0.4844157373138423
-2.301626327465483
0.3147107546968
-0.008584349266680067
-0.626576975969918
-0.642420261507048
0.0530099378804864
-0.5215419931137898
-0.9820911614518234
-0.32074234566037635
-0.5601036886017456
0.9729210178577252
0.8153656171800167
0.5213495701487552
-0.9166375833293495
-0.06245468140574417
0.7259968394280998
-1.5221357478743882
-0.26760977931200264
-1.916626061653745
-2.7666835018535876
-0.6950321844387315
-0.6703323606207279
0.3579834505640711
-0.8316577261484858
1.1484030481551453
-0.4013729924310718
-0.24570874991724562
1.0441385260494596
0.8511232923041581
0.8044743128763839
-0.5083657205433624
0.94779405462621
-0.006854099485955965
1.626817752444877
-1.59141011869542
-0.6776575204300074
-2.100622513901313
-1.1396080272106648
-1.0833215715608588
-1.2893318855117428
-0.676361939830845
0.3052863396156606
0.38876651701898446
-1.7452373279502031
-0.041288850160291386
0.6421143422044213
-0.023803065797618896
-0.4116596508874913
0.27927242785294515
-2.3476558273295174
0.5816991360643526
-0.6908422558397791
-0.6709696654958337
0.2549604128943066
-1.591002028157979
-1.0859765853249166
-0.5314442096960166
1.017341658778117
-2.052783553788647
0.05022148410828336
-1.109467001509467
0.258425551826591
1.0697049735292847
0.007238224509385284
-0.23257707910911615
0.7155832503751117
-1.6490068640952087
-0.17102480837754755
0.8207878869146341
-0.5091998219037175
-0.9229386287707183
-2.0965459447541943
0.461589990655085
0.3170077966449657
-0.4640064189724701
0.649779914883154
1.020833533379543
0.4133213444163227
-0.9776039119083498
-1.8902292624892314
-2.3205260049185368
-0.4953111158922574
-0.5810957756751679
0.3052390059359856
-0.8373591075984965
-0.2891008687296609
-0.29974002137236533
-1.0088955952833973
-2.900428215508952
-0.07323551675720617
-1.6939825363622334
-0.48975185958797324
0.41240571497809364
-0.5953996250797017
0.7460925170689514
-1.2376787613281512
-0.5898680104032862
0.6482243603224924
0.7387508405014077
0.08624559176013787
-2.219837247896546
0.14818099392965434
-0.36230773416062806
0.23241919601373226
0.8312796613185913
-1.590798866576991
1.0425825563609012
-1.3552212027490944
-0.5024247315489817
0.06552049049549792
-0.4742734380036193
1.626079920938368
-0.4216870948181298
-0.5836707032869295
-1.7791908961944125
0.5452872195897075
-0.6743749444311072
0.3615636287462877
-0.5405069467516392
-0.7384305824084455
0.9558678088043233
0.18830106040331604
-0.12395134427836839
0.25335185103773195
-0.004543560765114394
0.10814361680448155
-1.0956592694417169
2.063162378199724
-0.5187892075073748
-1.2477958980264527
-0.6405854673638787
-0.38254394765467853
1.3820659960955883
1.1671395760518024
0.338549993778334
-0.7059208037148549
0.2868880163806949
-1.1514460518655851
-2.3646372755512752
-0.473524481516643
1.5332687837222967
1.1473777185338554
-0.24048668984251378
-0.5602089590749433
0.326125005878514
-0.8928252634262825
-0.6573267934307983
-3.3613221732902527
-2.187797737626965
-1.2941843994991897
1.089395495362314
1.128603311724875
-0.9087053046464878
0.38668237561479185
-1.3866507961503591
0.20945527441307993
-2.7234964752965896
-0.5506473326526716
-0.16379174881629588
-0.11389215743750468
-1.081239736033762
0.8357295841914475
-2.03855358308316
0.3415708387289485
-1.2581733550041088
-0.29748830945381677
-1.304589129315337
-0.9805852828448821
0.6629583677753583
-0.06820216756079206
0.7374745259496923
-1.3979751713848876
0.6240810729183238
-0.7541839159354644
-0.5573253146636316
-1.401289368632775
-2.23753344339177
-1.3767099080293745
-2.4818541157357767
0.6666217931816363
1.357671271483992
-0.49173258434315836
-0.9681540092843168
-3.3601650400127014
-0.5159206358315703
0.003508996758474863
0.18834606402203688
-1.9822329333474005
0.3528522336303158
-0.24449418900949643
-0.7986545813004772
-0.8297004402471518
-0.34859778984687095
-0.15290407713589332
-1.6182380196813004
-1.3416785650147172
-1.1564067591525273
0.6692129045230032
-0.8808932395523132
-0.46232954481972155
-0.20463856274159176
0.3306074680242113
0.8455050551158325
-0.4853027934495134
-0.7188510843943314
0.6874023351341007
1.1800513494562885
-1.4830032867816672
2.20125056924231
-1.777598745383661
-1.5635079103653953
0.3626372518067033
0.47698842010789744
-0.49681302092847335
-2.7341746643895997
-2.072333810204798
-0.39933862130272285
0.9771594256809094
-0.7181265481157237
-0.611880481569677
-2.535474242278497
-1.5738927988518399
-1.703029783755145
-0.6793183099608516
-0.004392889993187185
0.22239905577089578
-1.1391463609956738
-0.28859357028088023
1.7756463672371323
1.9226531032659455
-0.7905575140423842
-0.19830769778339577
-1.5032542500853752
0.498106743776798
-1.1519634563227992
-0.7020422584806075
-1.2825365188255318
-1.440116150066455
0.11026835957041757
-1.338219619576568
-0.388251002609099
0.8347879638100264
-1.5823092527581952
-2.567900284689725
2.7260563391390353
0.08282883421404244
-0.0010889896749650269
-0.1901046571332457
-1.4598481540780939
0.365273187136458
-0.6311938947856678
-0.8789935052611141
-0.8592402544504067
-0.46711434434433863
0.7621683445054531
0.9306524546575166
0.43118688883929385
-0.7557763846187975
1.0380944002562627
0.7533800950511544
-1.4054455815691933
-0.26071936540355367
-2.822414111260781
-2.7638395804140785
-0.6810534266853576
-0.6692550424656113
0.3983459327695713
0.34197529168445684
-2.3897788310002306
-0.3573508432535454
0.177596707978415
-0.04005163225740521
-1.4944033881712606
0.48015064040574384
-0.5080904182866238
-1.9544989549026242
-1.285369985777582
-1.9835466694437642
0.5459315019113066
-0.6794867180160905
0.05563207249668663
-1.7317883929327307
-0.15204915457842133
1.228032886047028
-0.924809541259492
0.07227642041503075
-0.09133934191383758
1.3186760801667896
-1.215323863977235
-1.1023993308177709
1.1248499078705712
-0.2581052720174646
0.41312393752022153
1.0108186791966862
-0.8612933696069759
-0.9069839023583655
-0.6483991423309382
0.3658341109578715
0.2287050603280418
-0.3808687260969456
-0.3455989148413416
1.256374339903795
-1.5928083429029578
0.6699599057516512
-0.4005062777432688
-0.3458101956451639
-3.1669723221639288
0.008560806203801256
0.561329806828795
-1.4619811889778191
-1.8498879258702214
-0.09568028868890559
-1.187375363607671
-0.5106803324645749
-0.4828938883169046
0.801671452728649
-0.8746623933053422
-2.3262960853733556
1.108863909504689
0.05905995500175974
-1.4232826052667238
0.17681176076176866
-1.5031004189782473
-1.493032503607645
1.1176507559884215
-0.3026640032739316
-0.5294524631729671
1.5794805551135567
0.8063253637579268
-1.8831363763672893
0.048085504327892624
-1.6890099101774907
-1.28861720624706
-0.6585566152673699
-1.1553532549079106
-0.3371483879178867
-1.169605344680821
-1.4157839175807727
-0.10221944100725443
-0.9486305310485671
-0.5264937699859137
-0.10232271995553555
0.40310116351821396
-0.36650843323092014
1.4066921998562878
-1.195352689486956
1.7515148029001713
0.6241794713177035
0.34542134853046735
-0.825913272489353
-0.605452946143408
0.2768911232644673
-0.5918911052817261
1.0287494545126992
0.5488497860295308
0.4484598728895226
-0.9939824387563729
-0.5101316031503316
-0.28737100239535224
0.36709502474157296
-2.1047655295837084
-0.7101582927959978
-1.6188430956759114
-1.2041687903941962
0.021048197333679537
0.21541138173700217
0.3102987737742126
0.5851227196190121
-0.0024063749207345
-0.2703842188186614
-0.8092991487468336
-0.20817252117307852
-0.40527296905838306
0.7881445070902806
-0.5560544055797048
0.15217473877588217
0.32503829691623604
-1.4100946494005433
0.25516721960519473
-0.8988398220022322
-0.9901877220275256
-0.154163311732338
-1.5599364206300013
-1.0792224942734756
-1.2315385301767834
-1.2420155581024588
-0.5677304861002941
-0.49694071292011704
-1.4891617912495068
-0.13938320470531745
-0.6928971931606577
-1.4698028127576352
0.34201528656182106
1.5484132732741147
-1.866674164305342
0.5979475421292557
-0.21623727028640263
1.0534973081905759
0.6004726458418027
-3.3647787387035275
-1.6229896685785739
-0.4872706603839183
0.37660573730419267
-0.8088709594885075
-0.3134781819794041
-1.0864580016945413
-0.2734312080786562
-0.7675073854880293
0.4075749484378548
-0.8423223131962254
-3.0227535694019143
1.2270851656108006
1.6489200947478992
-0.700103828569777
-0.45717557460560476
-0.9540010322055544
-1.713529284577617
-0.6903488835168293
-0.4881577198055025
-1.005832290712692
-1.3139555709261634
1.2508953520922683
0.8271050873793131
0.13034281913068857
0.6299776149123916
2.4339203341164293
-1.5277333383272327
0.21439555380535952
-0.6464401960145333
-0.0035658953352394555
0.1484713835493662
-1.217248896976608
-2.0015812723049575
-0.47968756425798387
-0.2799696922202462
-0.988414981378893
0.8149600259926149
-1.7996483420670577
1.8276303957456876
0.38056751025400837
-1.2781958002794491
-1.1413785511526244
1.529730237036151
-1.745920634277841
-1.5426402553956067
1.5962204899794026
-0.7260577923039137
-0.4387317207049332
-0.6139280398472163
0.6575785437964259
0.8530267625456839
0.7118915344599643
0.36701996140305226
0.6516606544282357
-0.35187341573631314
-2.6948738865783777
0.3672188420302378
-0.3677967269999588
-2.066694005625256
0.8076065307540684
-1.6369274511558698
0.6834548807915364
-0.619616938191705
-0.10252597388960358
-1.0161381878779847
-0.7668672675629341
0.6766827658652917
0.4087544063780688
-2.350652255171528
-0.8001357374853867
-0.5329965014916604
-0.41211076680601955
0.16198935905640058
-2.1970886331055977
-0.17797482214355867
-0.8255703561736152
-1.047338772809242
-0.31154329495841043
-1.246516204118422
-0.6099970532253304
0.9857073391213442
1.096751844869395
-1.105582942608339
-0.507097475711844
-0.3545762040994739
0.3578356997331477
1.2744621626115997
-1.1201874757051098
-0.5898687301356068
-1.128430481905572
0.0024546481273617377
-0.5308559782784413
-1.2519823928599132
0.2531790174496608
0.13559655480440377
-0.9016143809104267
-0.500399123932649
-0.5589962258979208
0.8351603489176055
-1.5684887922021762
-1.0242094049976962
1.3125278663987963
0.046923383322933124
1.970716041742489
-0.504822562494204
-1.4395380487409557
1.1802935355287265
0.31516853960954944
-0.5342999206357487
-0.5730055007000011
-1.6771270670323828
-0.3414920692259256
0.09714609644339502
0.0640377195991829
-0.2968305666173489
0.9115923540624234
-0.9263168828649933
0.9731643815301596
-0.26496740001758073
-0.2449060162663511
-0.5035044649733666
0.8797876769255477
-1.2653286297709068
-0.560956171479759
-1.375583586324511
0.3442034953511656
-0.4394900404452588
0.7357287497286231
-1.5269669266490593
0.0390381629616632
0.056796114959782214
0.8804750712348054
-1.5712265553673894
-1.1582069093738987
0.8666704595585469
-0.2369511588046262
-1.2320193296670052
-1.55209342822587
0.49138206584905336
-0.16227276625840234
-0.5686653521746445
1.0239685589909462
-1.1206759504579282
-1.3719811516840779
-0.4001904035590552
0.92733628561718
-1.7125438188884552
-1.3101883919520438
-1.394411301805626
0.34391390606460226
1.2077136570985458
0.002699541314307264
0.0276518140883396
-0.9784641911642634
0.8750774095490241
-1.1687952950430156
0.6584275829989231
-0.16353200638263468
-1.6283026944554053
-2.139356680217451
0.6891493874684168
-0.5209544405984746
0.17886844802716328
0.2622705552173733
-1.7487934088304435
-0.6999814650441425
-0.8214592685505379
-0.15384884447683472
-0.2765277288933045
-0.5342802177545943
-0.6431602810908094
-0.4923133212058951
0.06997941895801771
0.45869256887335375
-1.1374934252894204
-1.482199628506468
1.6204309999356683
0.05349114651516711
-1.506464619688423
-0.4845026345433773
0.3113823682075293
-0.935002764252541
-0.3606529761239304
-1.3714052846269968
-0.6350416100120064
0.14815316725180713
-0.33116955570424006
-0.1868902932642268
0.1680309018404354
1.029499653851864
1.0735375161600158
-0.23400702166413775
-1.3337789112559246
-1.6934412005682704
0.017991607275143172
0.6224128792118241
-0.0888776567041048
-1.50102410710861
-1.4610325559518438
0.7442491118780243
-1.0042172955765378
-0.637503264630533
-1.5468428638271958
-1.0454712959191246
-1.3981189073882558
1.3982002564818798
-0.8193166704034005
0.5308597318438937
1.5335403689986844
-1.298347527952786
1.0443530830926604
-1.310077814738855
-0.003610425321181614
-0.019380798640078044
0.35569235248497516
-0.24619919107464866
-0.4841183590916316
-0.18120353746576381
-0.20298546907334658
1.5915669624601967
-1.1850264314730674
0.12165288377370381
-1.8254732660391144
0.38547697103162515
-0.10986641124432706
-0.21730243617394698
0.6915478529962585
0.36210062131148174
-3.55792366649509
0.6025203232461521
-0.6245205565913372
-0.3653319446320852
1.1044674431288068
0.7526239089953974
-0.586867921801335
-0.05665016701857415
-1.1613201328585359
0.3690391646558672
1.073426000504685
-0.7565228591687637
-0.32312093983404055
-0.16718081105311122
-1.1484442705558797
0.0470141490110527
0.3917307573825796
-0.3872465150921308
-0.35792599003342307
0.28472672916060177
0.4904973368562298
0.3347151257880299
-0.06526450727748268
-2.247018525783594
-0.345207293054134
1.3182860085393686
0.2603276256736364
0.6785909009392099
-2.4054249917604116
-0.7613120860082611
-2.3375243035981224
-1.2182623720690813
-1.5803131884474826
-0.44947022251862895
-0.3930261187316867
-0.6467115555595186
-0.5301905141306035
1.760123314674253
-0.3035438270853352
-1.626762986685431
-2.7136832775228115
-0.31816804561494105
0.643693726057679
0.050997771316368325
-0.8974965436360164
0.0030535304837608843
0.04031553442908332
-1.172937902644436
0.32408441328950294
-0.15259620188078757
0.9685578186415593
-0.5819225214029142
-1.3508159753046831
0.37615549614152133
-0.8916021320567772
1.4572241720099073
0.6112356621960899
0.23024848729614042
-1.2745960398807423
-1.0003690986833342
0.11247118777357805
-2.6005330256082653
0.10236974794097102
-0.7771606480638344
-0.4887469599716217
-1.0616809963193297
-0.2873141258525119
-1.517297371828994
-0.318876029642851
-1.2718022448206912
0.4130528516227774
-1.0118441112129761
-1.206928095925233
-0.3710143008302162
-0.9456890541903138
-1.012816885796614
0.3818996228316162
0.14269836891800683
-0.46957444245392377
0.3061439915513529
-0.29817797011084707
0.9443572801378205
0.5372316486758245
0.2687686060514661
-1.871761942332041
0.0747472120001778
0.8822554780262402
-1.7574133647493377
-1.1637730121704035
0.9321923526955379
0.19083403732368742
1.0995276135155745
-0.3534923263244977
0.5782454465564969
-0.4884278216422296
-0.47920486096589426
-1.0306899901386057
-1.194312367815365
1.259238246523824
-0.11149324738470535
-1.1151467837694549
-1.5269842605724648
-0.9508095025193334
0.4427715920984088
0.6585961657426666
0.4687180816274684
-0.0016513217379107888
-0.37239612247829007
-0.2963178269053996
-2.992111585534606
-0.9141271054098138
-0.3235398469054935
-0.9370529978305989
0.4242230597472106
0.5636545960028836
0.8524824960411641
0.5606002164621143
-1.4826826515858234
1.6472057159631108
0.6615365610052456
-0.44323001593112593
-0.5333605313915308
-1.4223940642574393
-1.8704087281770332
-1.1316547419361247
-0.998835379009201
-0.06767824885979107
-0.3562767005863698
-0.9223804715438797
-0.18685711999883128
1.6275094143093003
0.9515545534150989
-2.0303116461843382
1.3851618801269305
-0.8205297018567526
0.5355780220656029
-0.08968177391041662
-0.4598265468088899
0.7123046012986652
-0.9962071015567628
-0.951165291896793
0.42599209315184394
0.9553598507943702
-2.2375704689456586
-0.8312305558222516
0.3763665618377586
1.1602735370633888
-1.7270236729390176
-0.2748123910053058
1.00298338335907
-1.3529706476272414
-0.6787917128871944
0.1857204619427991
0.0022910602331722573
-2.653265760480941
-1.0237560075097267
-0.9996158361957358
-0.8956084802592789
0.45696868985239064
-0.9750576419201403
-1.1181745662565776
-2.8712563444044195
-0.8707595554339139
-0.04364011346155453
0.42724286904156045
1.795972694523656
0.3470615569300228
0.00416737993363917
-1.2433972078004405
0.5851777869388474
-2.579380637875329
-0.4264654220637095
-1.2900743474198135
-0.9825669737590567
0.5150212428947384
-0.564403278584891
0.26602420194819915
-1.0295969789857848
-1.8101532672735994
0.3128818967572614
-0.8613671990109785
0.9075257400548649
-1.1785015917573065
-0.6279073426156063
0.6617064530602866
-0.7201930371117621
-0.8071661393617287
0.5216253607226803
0.49355455800457804
-0.4974873545632038
0.895279369592673
-1.3872612091060446
-0.8695804176717211
0.6570720320327895
0.9642537596602758
-0.6166194617544045
1.1165943777366023
-0.03877585596866245
0.9364027971867803
0.20126140211154947
-0.8217693241863885
-1.3189616034551446
0.00847779669451432
-1.232170928021298
-2.6940979874568614
-0.5884363296634532
-0.13889307994263536
0.3703986036303077
-0.6578723320191496
1.1552710515720068
0.8023884344250853
-3.1516143924419633
-0.7174747980876769
-0.36812455089866397
-1.8143291575135023
0.003637619495341123
-0.7718189778240103
-0.8235396986287975
-1.0696122828174202
0.2570769565795229
-0.4580682354048199
-1.2891046404134596
-1.696927843076891
0.6558655214950658
-0.5286961237066068
1.075421104188033
1.2080164939758882
0.2243368972230155
0.008878144149810622
0.3068448785622966
0.5353702921417242
0.9323789875668687
-0.2875002973536541
1.0555973078532226
-1.1496071140037099
-0.7538068881592866
-0.532480492783437
0.43075244814189356
0.659483222227424
-0.6290461612223672
-3.019590245189683
0.288184646924359
-0.12810667848334034
-1.2026120582184845
-2.2896439376100375
-1.5831945726161025
-0.6844592833169134
-0.6069306087524656
0.1331155819428365
0.5106994541558548
0.6579828218641605
-0.987622211582787
0.5260316242723794
0.5160015606466901
-0.35565568866337727
-0.5410471507178992
-0.4421426672453291
0.5058670843406657
0.2167151026882112
-2.2522162919541904
-0.7745222989127898
-0.6019359498897913
-0.16468755969637755
-0.2874325407472477
1.0275458905264194
0.787491180521789
-0.6097497832935003
0.8597434295260122
-2.6958987959763703
-0.3235800167580667
-0.7033471779732915
0.7458470065310864
-1.59133894700667
0.028939234993899225
0.7913469906500722
-0.10489625605738771
-1.4581515806119836
-1.3084444616116628
-0.5989422815277227
0.35742815403451816
0.09650669028607838
-1.06856220419775
0.45568214766834475
-0.14142808131217255
-1.943182758167993
0.047725558927039426
-0.3958167595626066
-1.6231920620030404
0.9739705428588892
0.0005037385735783533
-1.342483370081272
0.3127194119432149
-0.8298828531431957
-0.263674070956486
0.800146277774927
-0.85186644547624
-2.2271616376614314
0.15010371593728825
-1.8234716420368757
1.26457824828896
1.6203301637628598
-1.3956537165416538
0.916305663430583
0.7786335839674219
-1.25316918120552
0.5281210378982891
0.7910039547911097
-1.1347086655780576
-0.7041410043402088
1.2626752276565572
0.42681599301348977
-1.084305228509309
0.5192772339536548
-1.4595047463860893
-0.2506991759805377
-1.4731035255973357
0.9388871666229068
-0.43318443207718693
-0.7451945894091311
1.1978439301960169
1.1026221352278394
-0.9798878002075332
-0.7069782460537296
-0.9268233884202111
0.2581426729670213
0.013014901850015378
0.9848966719829215
-0.19331947302053012
0.055849941697561224
-1.3834766669718699
0.8646692899908217
-2.3238980633635764
1.5400241562252421
-1.8516625582133386
-0.5811746699560999
-0.8742511365743737
-2.230536376179985
0.20136063459028483
-1.0584395395181558
-0.7098491111745395
-1.2919446060283633
-0.16904986570429098
-1.3533382716327589
0.14752059458217864
-0.9678773067954521
-1.0134360457145692
-0.5804901323612356
0.8154892092719237
-0.22247792015081297
-0.4252164053643811
-0.004634781435015978
-0.6063970518623621
0.6376304026641488
-0.3006655066870441
-0.3006530577630742
0.7271948994594342
-0.9536665557207203
-0.16736004102645585
0.6883735802948805
1.1364795774902872
1.3986216924402688
-1.197206591070821
0.4018106815843247
-1.5908116599864721
-1.2063556396441402
-0.6960029732169724
1.269935501757266
0.879105217727101
-0.9470546447314678
-0.7694804641434208
0.8229165083622539
-0.6590597454997558
-1.2719450562596508
-0.7438035207220386
1.1587579023925876
0.8779684458277527
-1.9737476358315855
0.18839305189467026
-0.7924684790510115
-1.118975022757037
0.32946775093223524
-1.6177028215930118
0.42700832548265705
-0.7663259403812426
-0.536065889661173
-1.069384399274697
0.15355905474523662
0.37495590852434
-0.9540362007856673
0.014721469340325451
0.430329907352989
-1.533066641842115
-1.4311558168489102
-2.268051337357558
0.572246236193784
-0.1708127234713699
1.0108493227562574
-1.0100277801487332
-0.3788069793980074
-1.184821625983049
-0.7626979821517281
-1.3924500995806297
-0.6765534636238068
0.32556213548461976
-0.6900452221153256
-0.6191911085248331
0.9524170132473502
-1.3042762078203796
-1.0684722552050756
-0.10245826614883856
-0.8214233415041883
-0.0006496559514443841
-0.05816301135840702
-1.0452376942238468
-0.3522259962130374
-0.5666843759381401
-0.01510929636033598
-0.8337290379229817
-1.8629585630261396
-0.6935902712876251
-0.5558527638475108
0.39492980557545737
-0.852392391133379
-1.7086053389647204
1.9570852201116071
0.15659605371630317
-1.4230706205629415
0.2155109488428561
0.9165843957606168
-0.46635143273045254
-0.6351084436526127
-0.4120519063052465
0.5386759743074632
0.24601940481553178
0.6556303204728918
-0.05120117138359283
-1.709304532462251
2.0314908104845575
0.6643705048898183
-0.3390126540976946
-0.15305248558625076
-1.8622195875202336
2.085078736068821
-0.9389764588818547
-0.6461282837175172
-0.04657471121419482
-1.3999488549084051
-0.08010581054126437
-0.8629720437201589
-0.7717841800289471
-2.017658315670946
-0.2598370066284714
-0.9460873937465237
-0.5687528268662405
0.9604426631450701
-0.08781449419960735
-1.0334203084756888
0.6261991741994244
-1.1341837237089647
-1.8871842340201783
-0.799861804518928
-0.6327589985223413
0.5633679828298366
-1.0094113646360277
1.439233467229505
-0.13131301532145287
0.07411036466637375
0.12943871133040677
-2.164257296697156
-0.7880871800374872
-1.139385157194553
-3.2241063604286295
0.00943975930218296
0.23326357114327992
-1.7658760391020358
-1.0638863501066547
-0.7461468527528645
-0.4771370079032152
-0.5278362602821307
-0.36256277715399243
-2.141819488091772
1.1649730872175428
-1.0988036698552341
-1.5513837988385217
0.5660421922383503
1.2522020614526987
-1.2466410677470945
-0.20630261293401383
-2.3897888050769973
-1.6631919822814623
-0.36107708610184175
-0.4310038474218462
-0.8011898635877233
0.12149056659900191
0.8633400676362395
-1.5259722392187545
-0.2787476539813919
0.8714218985636963
-0.08466810747524711
-1.4273952285620304
-0.33397194541076236
1.5164736447473992
-1.3386057223571153
-0.5402364970331088
-1.1880762871340758
-0.41455600014896965
-0.1216020246306855
1.0436263287246945
0.6741189147298586
1.1895768017720096
0.4745635644622405
1.1496012166643388
1.0549364379215806
0.8939678161715884
0.3282823094054812
-1.3763944172603366
-0.5798809909495598
-0.14552131111351121
1.298373136390625
-0.02178480364186636
0.6687515967348909
-0.9672149499021322
-0.41282115525599505
0.5051012748091395
-1.272089769405088
-1.1300922558790736
-0.48706852599430206
-0.577604277896384
-1.9838301522620772
-0.16853560807220444
-0.46331487499715907
-1.0031369042461207
-1.6836469460281152
0.008908620612881236
0.1302168728896909
-0.8372207866075332
-1.2290154731311538
-0.33144524366663486
0.8149738551217193
-0.7164963261145755
-2.3844463186709226
-0.5574347537226129
0.2436815172890065
-2.716816272625952
-1.0046415882194808
-0.08054889885836959
0.07045386990000925
-0.8983730558227175
-1.525757876463893
2.3042477601746985
0.04452375805640303
-0.4574632018363861
-0.5366955637177491
0.8756135157703094
0.8459372223486555
-0.17402797813422027
-0.15370596646822185
-0.9248428841750183
-0.7396267550470653
0.02895673922324307
-1.5923602805091748
-0.2501914583450633
0.3433575229141372
-1.4688200844637838
-0.1425822684605746
-0.812496466394955
-0.5500132396492456
-0.6297604618719764
0.2611451263710054
0.10394403717849629
0.2448963266460216
-0.2790519683331231
-2.239890969719895
-0.7934750098256165
1.3107545720060958
-0.11282466151104673
-0.053416614258957044
-1.4318772026954607
-0.2503934153660111
-1.3985414035835646
-1.2261632258267214
2.2519968297208353
-1.193680914602085
-0.5612961583233886
0.11426144315876557
-1.05619106618978
2.00695694773127
-0.4375644471271522
0.6685749957853083
1.1772546816610752
-1.1012242651535518
-0.23014706464097515
-0.39571852967177157
-0.007053295913604025
0.005632422405755079
0.4857760206028742
-0.3340590997457231
-0.053965764167792855
-0.23707885177464785
1.3728371393184522
-0.8570038148439068
-0.7381302216047562
-1.395017333473279
-1.331897992180986
-2.0441450033250628
0.226863436010235
0.06441045544135249
1.367792504668066
0.4419223735645679
-0.8232714519663608
-2.263483499901685
1.3170095983697463
-0.2698783019440639
-0.30850692602850377
-1.8280910082964366
0.8007217518623072
-0.9102945864869382
-0.18396110515610262
1.2436610569125335
-0.45816207973407547
-1.5866698687608511
0.5665161043767791
-0.13022312320124654
-1.0172761741703262
-0.5348543426599774
-1.4445656945429965
-0.8912204029425085
-0.33805186037449936
0.6456356630364805
-0.42209189771244077
-1.0628175552967056
-0.10388615369661047
0.8535838980001123
-0.0008553593864076483
0.8626014539698207
0.44205337845672893
0.3993024964444054
1.0898432800365525
0.1083108436279091
-0.38879554819777645
-1.2128167733758377
0.24512790544815544
-1.6188235106200406
-0.7534437543584092
-0.3342217124653022
0.333206060041975
-0.5486262863275116
-1.0359744262519663
-0.01674247128848132
-2.2075868894751616
-1.729877975124801
-0.3026041891475999
0.5529309279317454
0.009061207912387714
-1.098184317153151
0.00537309918192542
-0.17606128523053974
1.2402597336459489
0.1909122719517635
-0.4992133607279027
0.712850177388861
-0.8838120419733209
-1.2132500051214743
0.27726357080933356
-1.0107329849259832
0.5505330035284189
1.1660847161156453
0.08435202262283956
-1.333055889265451
0.15756483287366305
1.2007694649268632
1.3808258192749543
-0.17693251048836725
-0.5893984128770161
-0.6643302956269994
-1.4934329305085308
0.32864535058568567
-0.1347675970771079
-0.8382765366253447
0.13786987973897044
-0.07022320621888116
-0.3665425651260599
1.121850483731491
-0.48798617142891026
-1.4129632209448968
-0.16728321539785931
-1.2814413747314066
-0.2687640747239585
-0.6391344869253794
-0.6235979587060524
0.3996380204026583
-1.2942374410716195
0.8122110443587272
0.6492038575747884
-2.075014610505445
0.40373861052617077
0.16181687282606802
-0.1592501597096451
-1.2094741563445328
0.21535034859625038
-0.3866532291261485
-1.8646336135668782
-1.413355994569192
0.6136064114762627
-0.7590152354468847
-0.6686716148011529
-1.2315883422460954
-1.2168069918642586
-1.3448403223049852
-1.1488141640820484
-1.2258921626524084
1.294843701448009
-1.220321999411926
-0.8139111517074644
-1.4335527597909339
-1.9185986422878019
-0.0005761674131940266
0.2165742367439718
1.0264970421524413
-0.29691350804981725
-0.44078961531365757
0.30257575011058385
-0.8445619100224857
0.6755620088509553
0.17965975592875696
-1.2277728222963542
1.6981003891725814
-1.3682075823474178
0.699974269266878
-1.301950529768712
-1.1064445751759824
0.5723410881794446
0.3567769870602803
-0.09436894404659744
-0.6422208216724514
-0.7308440195332094
-0.976672706924732
0.4560638156920962
0.9030167571017972
-1.2529570867051891
-1.9089566554756332
-0.15341563557673354
0.14607247743378257
-1.508232779565972
-0.5474526236774107
0.5722298398126469
-0.04794111793175135
0.5985506972477448
-0.23955138872630588
-0.7196283500852485
0.29902753115815334
0.7934746630587936
0.9657592434698308
-0.36747923837237895
0.3143215763167144
-0.8316821625205777
0.07453502339872578
-1.6396032953223978
-0.1657690132975559
-0.009760005697940659
-1.264054396538947
-1.2123887965179883
-0.7586072037569991
-1.348587495594746
-1.881926579384205
-1.3186428906691154
-0.7346077461095228
-0.9816239662376033
-0.9564963528806919
0.7393992415375928
-0.6899477149533862
0.5137247240023439
0.5324671614707809
-0.5715805579456511
-1.1932531886106421
-1.2134902915485775
0.523449717871012
0.00803352518593964
0.14910914591338764
1.5000638748234876
-0.16655791235175899
-0.27297988617805846
-1.3541332359516027
-1.238373204510674
0.07682551143258017
-0.5449953328751246
-0.7363008497695694
-0.0013816907613627273
-1.0307890471583463
-1.5868050545106402
1.4458620151405541
-0.29686149449893
0.8262122543386258
0.1577847934832292
0.4753280175759365
-0.6180065870867492
-0.6010191173233267
-1.7461113068970573
0.7125459177071469
0.7056912631378881
-0.7823490672530896
0.7041755995172223
-1.5891179007409497
0.3806280986057973
0.5199591917014428
-0.4683012985822294
-0.929280479121175
-0.21907662277781287
-0.9999748952509411
-0.7340226965128931
-0.5974693392160709
-0.44181722320938116
-0.9286474137059674
-1.0870140410845817
0.2295442424852937
-1.1058337626347086
1.3124407007650674
-0.0793088908712868
-1.0251415942770588
0.48093369274647796
1.1229500602262679
-1.4259847751456565
-0.6407329647829915
-0.38916713395790054
-1.314773498671076
0.6214804503915602
-1.4492629129976609
-0.5908889069301365
-0.8138196895581375
0.06383361520573973
-1.5736832775310885
-1.2164862347103245
-0.08462056997732251
0.4709750783615135
0.13638241649852476
-0.3319533886018368
-1.1218173666182547
0.1972969667236231
0.007763009361712052
0.18937800678079741
-0.11595656669074474
0.7529974473275977
-0.051156138878899804
-0.39725408612191837
0.8899860043916807
-0.9908527219654235
-1.8409180306665025
-1.0552098372445573
-0.5281897945237903
-0.677072697570585
-1.1096999744256348
-0.5024409658856341
-0.9447717333594385
0.8837383501443328
0.02253584001544558
0.14125750314272026
-0.4555352098855696
-0.4768538955410501
-2.3688947328001073
0.13373189993169035
-0.8213952976297562
-0.9967082469807361
0.8028657507013953
0.33530794149241416
-1.6802273772677514
-0.2956687712813991
0.06296744232483478
-1.8322816675983131
-0.21968186253759883
-1.0821124862043652
1.109185914548194
-0.4857355987148207
0.35715327452901663
-1.7568680579639795
-1.8512152320842852
0.7496605941336114
1.1090129474453576
-2.207283197752628
-0.8580348237888249
-0.8366875548046657
0.06614608350417561
-1.5342731818080524
0.2283959620195122
1.3677250201417341
-2.035040072457178
0.5217666333973378
0.40107658157247494
0.24839184853211435
-0.47632341518084675
0.6879307581570345
0.7339144619494685
-1.6905221560838934
0.764924995909026
-2.1112493415807037
0.6776310465798802
-1.047297543928936
0.5563480745582082
-1.1609732784885691
0.3262598093307836
0.0024251404785169857
-0.49017155584767796
-0.9797693895104798
0.5271956677056719
-0.5635623286549785
-0.31438641075141727
0.14108018049611118
-1.5070387644467012
-2.037186559957841
0.43671863395055377
-1.5526834097018014
0.9620249872459785
1.227043266362387
-1.7196902024468945
-0.5021237267251477
0.27429424527457946
0.6581813404825118
-2.5320515620655675
-0.5612941125667287
-0.6675350593312782
0.028118761278206554
-1.5291576339632613
-0.989610915795878
-0.774295699805527
-2.1364278741612965
-1.0657142183468684
1.5629848006726481
-2.380102616121876
-1.2703059213154169
0.7973119567349749
-1.2581861370850496
0.733399959353095
0.9843204997347521
-0.6668156064289849
1.0786702693927468
0.05638006198327309
0.794987016119338
-1.8797896521178903
-0.022655177769374302
-0.26422107223094216
0.6543911485123953
-0.7983267682247303
-0.2809994682504417
-1.774416952474102
0.8352453591270332
-0.08973385921165371
1.6513136893845561
-0.023741230385353182
-2.0175538601418856
-0.834509451468895
-0.6682597821554145
-2.4882298178912876
-0.5367981115924768
-0.6754970770922758
0.6920323300494815
0.9929557784603853
0.8606064957452695
-1.3713673245395959
0.8763876242703148
-0.6310884846937125
0.13990590582062204
0.0036622268516451895
-0.04920644825105237
-1.0492977879227965
-1.4470031353380395
-0.7478674808483294
-0.3246173602264781
1.206471803578859
0.47916131085713687
-1.7921080113177328
-1.4949805400142229
-1.2314127773263517
0.16843702796224577
-1.7069427409836857
0.7523517340362946
0.33480750931954023
-1.2797245050732031
0.6124499487923141
-2.894697690152943
-0.7324524607343463
-0.652087028255755
-1.395539283096478
-0.7459852689699484
1.9287283202497887
-0.9016499331146414
-0.9633389244486827
-0.7366158112979712
0.3765735804616309
-1.2522624468037302
-0.48126518732558027
0.9313140190923997
-1.1126722419728832
1.350922696181026
-2.036628402174081
-0.6337861941817707
-0.8572152840809508
0.9584169781166667
-0.7747080626357729
-1.1150019659419714
0.5410032252243894
0.38941468683211133
-1.1141254716954152
-1.5028652018586506
0.8077571450177812
1.9888536363072093
0.383858903531492
-0.8274170778899774
-0.9809515344259092
-0.37011778531626033
-1.6675166200706866
-0.18454056989350076
-0.6399407694215233
0.3897971065604115
-0.9993169852310378
-1.5070265314224087
0.40756617975054976
0.18358833135371294
-1.9205885721856908
0.8752750673630393
-0.031138224288385308
1.154219397896107
-1.3800110871196294
0.00013110096213653395
-0.7081133517932634
1.227885506426254
-1.6439946562059466
-0.3876757710078276
-1.0527640627749202
0.29439554297079895
1.007645148313405
0.8525580298016687
-0.671552831493425
-1.7392218194751896
-0.2727281575136136
-0.5665767466397502
2.1978823267313667
-0.9225459099612491
-0.8282235582628504
-0.14519246036817307
-1.5982621656585465
-0.17340042303788863
-0.2856112107664935
0.04711868836546236
-1.2762096361518083
-0.836366066952078
0.3549020831628172
2.2080695138366098
-0.8586108411255127
-0.4334108294089307
-0.43766971546940486
-0.4674887928714174
-0.0496966591730624
0.77727339095858
0.5258814169190168
-0.25494129867231363
-0.295921405168178
-1.7742850877383898
0.2853938978245484
-1.0192484523615302
-1.0441282254080582
-0.9528029553897907
-0.4011215885018906
0.1795958808975384
0.018762305696083312
1.249011129410208
-0.12180454198144602
-1.9538426751329212
0.7342277134940493
0.17152188535566149
-0.010484620125067018
-0.25565515959485396
0.42018865329170346
-0.2959109977955431
0.2850101885446478
0.5249091334663596
-1.1817545715087112
-2.059475488521283
0.698251082738011
-1.7981009914624724
-2.0899928688691416
0.698749166099809
-2.3618289880212395
0.36973127175688597
-0.007421863566592803
-0.5688710214342246
-1.200183012455083
0.776035984606428
0.5327136220689987
-0.9836759585846212
1.0993945752721228
0.7410677079088698
-0.07521907601800666
-1.829675064970111
-1.6744831481924245
-1.026194101880467
-2.053538896567587
-2.356602674670625
-1.0843725109288778
-1.360762482806801
-0.018877825746012312
2.5935688397810535
-0.23440165556876696
-0.3739767367884054
-0.7014403251107862
-0.40017706763475913
-2.8289942171984195
0.4601573906396771
-1.9487511531531898
-1.170023015489806
-0.5471019217760054
-0.9394349242404504
-0.41872927265483606
1.5534816572620682
-1.8759149403911441
-0.8048485772309687
-0.13242599802085026
-0.38349138393626747
0.21137293822612957
-1.1573789737990723
-1.2230032211361894
-1.199543541625183
-0.9307394303310581
2.1409349521481618
-1.4120559357144842
0.6713990313645785
0.5183960613801455
1.0401344585182826
-0.7785059158577163
-1.7090980738124866
-2.068235638751649
0.5365729176904396
-1.300231661325827
0.571253540783268
-0.38718076955470704
0.4647879725921564
0.18340001544093296
-2.3878025796047604
-1.1409252585191783
0.6575247339011984
1.3809587634144926
-0.9781688414826333
1.4295626659019864
-0.9984889717825429
0.4162671762991459
-0.00428544789161474
-1.2199319602687564
-0.8590552436423323
-0.44029023858950944
-1.2338450749152041
-1.09192745527213
-1.7805292717647923
1.2059166682667628
0.7834841737849668
-1.0278433665845816
0.880117304730942
-1.400615621441007
-0.5513746508038387
-1.0441793542870448
-0.5906350907396832
0.36681804017381026
1.1897268096305504
-1.9438982472456565
-0.9768192265752222
-0.9559045432140062
-2.001225485377973
-1.5465621144900947
-1.2648460679236604
0.3706021384230868
0.5762430168143065
-0.9021279791738696
-0.7635976822216811
1.8702566868096955
-0.6344822865251899
-1.386306134408733
0.9777221167917309
1.4746012572027942
0.4607865618316803
-0.9616283608533003
-1.3799341933164864
-1.0969870138998672
-1.476782618763645
-0.8548476490899444
-0.8313439265135824
-0.34620631268078617
1.1630877703748375
-0.9626437736743627
0.4359654427186574
0.6412218171548143
0.36609324756528994
-1.0936357861884531
0.20755625103750833
-0.3213603496336343
-1.3830256582641904
-0.10487419372680315
-0.9535685056221432
0.5001032066635374
0.4481719984048137
0.6471607688797454
-1.7113686383389444
0.9782151480458922
0.34111765149845874
-1.8534462429535747
-1.1829007631070967
0.7626315098021021
-0.1705659206072443
0.007031461964314001
-0.6743134461883387
-0.4444171599032948
1.0805675055758006
0.06872482532983813
-0.5686676087277516
1.0024448427881114
0.1597939919432591
-0.6153025143743911
1.4443083888051118
-2.181357096723558
-1.2585003160908972
-1.91084523007175
-1.235429140759861
-0.955333840033078
-0.22019450006760602
0.03462702101291313
-0.44028955189132507
-0.9434685513738154
-0.677490766192071
-0.04026877574472479
-1.3436207848449173
1.3176662698325745
-1.1455134513827043
0.3488048804105789
0.7152135287421095
1.3742035627242293
-1.5515343434791338
-0.5677216626659963
0.9391775273565481
0.7669367796240064
-1.265644736459912
-2.1103652631501495
-0.6665966529897969
-0.1792397648962352
-0.5903409212787738
-0.8396262024020889
0.5721874875982789
0.2236602621925061
-0.08757205886704837
-1.2305965472685731
-0.49520249676035816
0.5042530400680648
-0.6966664709335231
-1.987069858892587
1.0160303893059122
-0.29913439766678707
-0.17077007235974126
1.0532467965608399
-0.2806918203394606
-0.6748074731044722
-0.038664903628876826
-0.5408083117025809
-1.4943855697066697
-0.20321431020583164
0.3983056425339832
0.7433701426787744
0.036143230997316554
-2.227322166260225
-1.7637160876940194
0.30592440190405634
-0.004033090724226709
-1.1012710764063602
0.6904300063531248
1.7626787852500543
-1.3430327593457905
-0.12222880036673202
-1.05529433142093
-2.0923478990846007
0.29156202402712705
-1.2925090174121667
-2.1799314829140415
1.0755652623257352
0.6517871297018948
-1.076650517996105
1.3768067925571308
0.8869843276151259
-0.5401663413671205
1.5957153772476553
-0.7814416639289015
-0.7511382702447489
0.8388343899997872
-1.9800394459113355
-1.5871578073250436
-0.38733530355746976
-2.0437672868857883
-0.905911060922833
1.33839012231258
1.3179446090317244
-1.0714314520057084
-2.016070403986675
-1.7162392012962868
0.12218233758105328
-0.9186005975887617
-0.7681516643271232
-0.7572004567700793
-0.36924656485682494
-1.815546879017736
-0.8143741847801983
-0.05201848941288309
0.2786779211303183
0.1287762185646025
0.11458231749898806
-1.4570772278758812
-1.0776341451436486
0.8690851037199305
1.7897678303970253
-1.0555124966801743
0.5401294694651951
0.795348135407058
-0.14615051810200658
-0.773246398930026
-2.401459642519598
-1.622239162590356
-1.0984836827940143
-1.449605020975983
-1.5034706351502283
0.025080941478782526
-0.9702560182139872
0.7498378421527871
0.09867126515506576
-1.6850152186474447
-0.000862759968316534
-0.489874228626247
2.9183336596690324
-0.730717074659419
-0.5999011731235722
-0.24826693165080804
-1.7074958505061262
-1.5601040485473376
1.6809898908467535
-2.123614508124678
0.9963736403450675
-2.1592808947009337
-2.0686033500485026
-2.2062405280252357
-0.5216436901572269
0.19505450296486324
-1.940703350950929
-1.815049361800455
-0.1589013117260989
-0.14635051153603784
-2.653580816916983
0.06274031953737651
-0.08149637661617963
0.8764332950628284
-0.5573834343434936
0.8767752068382358
0.489922784493242
-2.8004217457890683
-0.15187886121832767
-0.33878094713180523
0.2918840025777009
0.2912294471210278
1.3346494956738642
-0.14182787758703141
-0.9605523287958788
-2.308174530694402
1.219277759353568
-1.0739352907110293
-0.7793834902465004
-1.7200394759264148
-2.3296541706572036
-1.045085455689795
-1.1752986501389195
-1.2023276926156425
2.3576283112470566
-0.19699739772847089
1.3827885079554647
-0.4350987148382028
-1.290177096878268
-0.13544279847338103
-0.12818546748043835
-0.7076345084935656
0.06701063253995225
1.098372927942243
0.424509870674506
-0.7204254617235049
0.7660597937696151
-0.30711643577526754
0.39794349053620515
0.43703161345606895
-0.35157564313448647
-0.0014217842842620242
-0.473933987965803
-0.1671916990953664
1.1816545571444672
-1.1557751257083329
-0.6854230528810294
-0.4571341596163174
-0.6774669689313567
-1.0650149044384825
1.8523953120068997
1.2922698351610487
-0.9192950626097777
-1.2963851168794032
1.1428905586926952
0.4829889253478821
1.794800125277547
-1.1994457185301617
-1.5521587653440108
-0.30229539634325936
-0.35117424300357714
1.1702065703823892
-0.012987471749561394
0.4470171352567377
-1.101561765380642
0.8730611598745701
-0.27407952221112286
0.19109086761306082
-1.2069936274875726
-0.41200093148175454
-2.043436939004738
-0.612485671256509
-0.8076345630068791
0.627143191454969
-0.34090166325890703
-0.24274086846483875
-0.9081971493427342
0.24369514616723945
-0.7477427984106979
-0.38978442144572567
-1.0144717643859478
-0.6903396123636145
-0.7972888924090947
1.2231630238038655
-1.74878159635933
-1.4459667559609688
-0.163630373956385
0.6986637541479243
0.12683900915118582
-1.5152722987914364
0.023594493726890757
-0.3305435292741459
-0.1613218293804352
-0.052575705317930446
1.2029292396272784
-1.1563442825979169
0.31509385198451134
-0.3045823836912223
-2.055036968281973
-1.6463591974151233
-1.2160703700150022
0.10961828326808866
0.003036517007482748
-1.0433454480020938
0.12936141195625112
0.6565475969101519
-0.19888980484369048
-0.6568270802816665
0.6769561029323603
-1.275999832705662
-0.07473886712101005
-0.8166444215605948
1.2642503718981375
0.4270276361517004
-1.3079543757164622
-0.7750097750712692
0.6324348027391223
0.5494639476672899
-0.05263623360270362
0.570213108523572
-0.7233740210233164
-0.49560435758298277
-2.2450344925053685
-1.3708046041732271
0.3265428771477493
-0.1352209527640313
-2.117056249026305
-0.6244275994727895
1.2419038642510272
-1.285190776618829
-0.43087365500226954
-0.5057027789636388
-1.2206190493027649
1.605369302231494
-0.6028755795940046
-0.49159869023867514
-0.39619426475627195
0.648976738855375
1.1573939139348308
-1.2869838846678052
-0.2750494036142967
0.7992038003854173
-1.2585165403928518
-0.9216739879100666
0.5802106447118979
-0.7019809548420405
-0.844987529430278
-1.1674270684906825
-0.7324964876327432
-0.6667829406652711
1.2636724830215236
0.5562795929679296
-0.5102260242989388
-1.3424104271309367
-1.4543242489346377
-1.0054170046985447
0.35341602387513427
-1.0810327768455492
0.011518214688935283
-1.0178425531691355
0.304134084660343
-0.9187400259038623
2.4438618804279653
0.006347181019615839
-0.817472766143597
-2.923853510010793
0.04352797539596261
0.19520363821046027
-0.4683996135069645
0.7974734012045309
-2.32934217276376
-0.42046210234832465
-0.48629169631568914
0.6603240179125607
-0.9009166045743406
-0.8625501716563482
1.5206490816364189
1.3438774883648112
-2.577690287059284
-2.7680998309743856
-1.4524801081524545
-0.7001945086317473
-0.5702196316443613
0.14189359263950252
-0.6530704304668018
-0.4118265499185165
1.2554101171507903
-0.04008858338695071
-1.8586964922802578
-0.7108166017929335
1.5029099162159107
-0.23550493431623895
-0.24714504870331674
-0.5372888897352612
-0.26306679047370113
-1.154616776164477
-0.5769956368921042
-0.15120300740579198
-1.0925213548051433
-1.8891084025437612
-1.1208249720716525
-0.6395946255213902
-0.10604574736779826
-1.0542670753671963
-1.0499444356897245
-0.33053527393012144
-1.4886450780611735
0.45029130046882343
-0.6165508708408421
0.5008579194691338
-0.018348901825301075
-1.471985045069357
0.09426704904572512
-0.5722593861591729
-0.19851423468516205
-0.5745106448069368
0.24337559686070087
1.5252253286393713
0.34242742441308
0.9512840847024728
1.0488972208151035
0.9746101168046457
-1.401131961009517
-1.9431269047092472
-0.006542483577923379
-0.5929010398529049
-0.20663382588802398
-1.7475626896332686
0.2712935057322773
-0.7918657315845082
0.7653482519402689
1.0974051871596808
0.5563277232989149
-0.892483840630639
0.9529681417729245
0.922873556372608
1.1470655545627753
-1.333479106753601
-0.7693639084230934
0.5590660301226192
-2.210622483343016
-1.2481455814967197
-0.5707413555465213
-0.5643809227710129
-1.3176287385376626
-1.3152543150337732
-0.5103556941254057
-0.09454071269878493
-0.4895032684356814
-0.6183463258454005
-1.3992427951121185
-0.8286251279826642
-0.4139566478772626
0.09339975513182265
0.5785555041996222
-0.03324083946955316
0.11882059396498706
-0.5656080660390234
0.594250636779919
0.7356085003846043
0.6508992005656422
-1.6728385996772424
0.08800640686162932
-0.9563465142211701
0.44581975204318386
-0.4366371991680164
-0.03141156735913134
-0.8631344214377311
-0.8442141882450996
-0.7322685231711374
0.7332004555428622
0.4501016016873724
-1.5132295005785235
0.28118004239603317
-0.5707164062196532
-0.5684448706325083
0.4330872277184578
0.6332467802561026
-0.46910580380519
-1.0479550126454718
-2.1326547911794336
0.7032993272299648
0.16372910374336508
0.3931651281151499
-0.5076445852340559
0.0081014156349228
-0.5364456043732616
-0.37066821160908275
-2.120876871163174
-1.0965115964372385
-1.4531258002329328
-0.4629103828604706
0.8349116140529732
-0.6196191607181373
-2.2345256324588756
-1.431084804771228
0.637062949316388
0.46836432678285084
-1.1698430682780845
0.5007941373917223
1.570373587186322
0.021145400714926408
1.385827333646765
-0.7476710948338927
-0.7785008393666586
1.145915496119493
-1.4134079452515005
-1.565927906896139
0.1658791387390085
0.6840150162719691
-0.6226148031049925
-3.3753341890245525
0.9544436014732086
-1.0282941837721509
-1.7866459574901203
0.2452413685897929
-1.5642834749915042
-0.7136392897557764
-0.7920591108730287
-1.4841545439664108
-0.12931669897861534
-1.2502848669330422
0.4829542141717131
-0.9640568502240874
0.5663318690602606
-0.024495331088804997
-0.24962921783961248
0.4878347487063136
-1.4220887597962935
1.5919724912428743
1.6660095225546956
-1.7267299561624563
0.009219712274445159
0.34468620875170675
0.10988195884772224
-0.799816041351383
0.3835641489382047
0.3241826469536203
-0.8767047914946103
-2.217768820593108
-2.492290957045367
-1.7913289813963504
-0.8476914465809536
0.3222382537743596
1.0481821411827312
0.8125975676377787
0.0032030509254760316
-0.007832467494948855
-1.9510816819006267
-1.3861966316275123
-0.4570936192590474
-0.9206025629315301
0.6538696686289847
0.8352008828433405
-2.345039915826119
-2.093519175893696
-0.989668920456969
-0.2549080919225315
0.6237367397437741
-0.7860733294687838
-1.5726189260028267
-1.9132500299408257
0.14447315864138646
-2.7341510174866497
-0.6727048391692908
-0.7166471609805289
0.6152714309549767
-0.8239853851653302
-1.8097134268936148
1.125164126723911
0.4151409144770071
-0.7509148462293436
-2.7164621075146105
-0.9288685723476939
-0.553012516632533
-0.08622908155452612
-2.36823720226623
-1.0929962180662762
1.0959570000058296
-0.7212456627805783
0.418550488774468
-1.228372696580132
-1.1998407717540465
-1.4914286896683215
0.8930317034890248
-0.6736005203475559
-1.1854883769158604
0.0821378268599856
-0.4059167686274909
-1.6286986121537321
1.9325380851288314
0.8340897599780507
1.194032848864465
-0.31526445561317773
-2.47319343041223
0.1295352092033943
-0.7136134244239684
0.7633554447073468
0.13151966606909282
-0.8234334017439165
0.39633804484090546
0.8509592060516823
-2.457332157450558
-1.405253024752332
1.220955458366698
2.303542407726222
-0.012489407152316615
0.007408428941340852
-0.30063648777946583
-1.1634324622403827
-2.399719847078588
-1.1538183804826432
-0.6774245731812899
0.1911095465568111
1.0587978092518728
-1.1433229063450503
1.4287501335544999
-1.1225824442038481
-0.5512592878432379
1.6324625617090835
-1.2787037479311172
-1.2948083909333505
0.5103099190101463
-0.3036503640708812
-1.6595361439951073
-0.340803368176513
-0.40373485154163885
0.3674922245795967
-0.8819818171243916
-0.32464666178898866
-1.1646054798562064
0.6337427630163025
-1.9912535833548286
-1.653450127109606
-0.923136744584246
-1.1237470282769055
0.3984686070281082
-0.8362360747226864
-0.9952752717538993
0.35980299090767554
-0.41546564710630063
-0.050539424523701894
0.26138266520396786
-0.47946552999605613
-0.3946049149787663
-0.18195720582973796
0.6875613595532781
1.2387714083908956
-1.2763606624091475
0.3152799473588187
-1.269669619596063
0.08444766248381567
0.8777790726284136
-1.3583834013012048
0.13251811334612365
0.20624119768762228
-0.33487626306977764
-0.40043082609325087
-0.7248623542629095
0.5617230540750268
-0.8301783086649371
-0.30973039940053504
-0.11414032329873043
1.3528993501082773
0.6515466287210154
-2.245161150021105
0.9964379847554129
0.09619373181807159
0.00424801376213208
-0.4978358121498024
-0.5797732282542923
1.91097115336728
-0.4462408947629942
-0.6422544738594198
0.3499249224803733
-0.8158288911092602
-0.6170552592127371
-1.8564594758910584
-1.9070459352926863
1.6964073243599251
-1.9466289884997545
-0.23123305744820477
-0.5781872249602154
-1.090388323426399
0.26594648037663576
-1.9735228529901037
-0.23648661112635658
-0.3568260369535092
0.008966221910103133
-0.8430861761147653
-1.4757347374479137
-2.3221958640541502
0.6472054974166227
1.6957582620686822
-1.489899606963621
-0.11301082345110393
-0.4459208117114204
0.3548779050766227
0.22194724229614737
-1.597660199540021
-2.012464556419558
-0.367146630791735
-0.7884286736686082
-0.6528314068757878
-1.105655364724441
0.4033028574693367
-0.14108999099869973
0.7019780942062511
-0.9061997475296655
0.15404407831498612
-0.9229233663469463
-0.06455625720712956
1.7155889566504656
1.0063515245504642
0.8794405197397231
-0.08099132557123374
-1.029050280527259
0.1390363165113801
-0.36390316224427804
-0.2645155355915756
-0.32018358031210303
-0.6754656686411961
-0.13185388651588711
0.2595133817940436
-2.5988903206749288
0.3896890272769989
1.1739837525485328
-2.083705738919566
-1.5934271371693072
0.0054867460666134255
0.12969515281039964
0.20197521696418427
-1.1794686998714237
-1.6141117230214306
-0.8630285436805096
-0.17132276339807445
0.6544140279756254
-1.6507161310095715
-1.0280140825661495
-2.5185561690647114
-0.08702771849441945
0.42745423612616373
-1.0011380422489988
0.7373799415627149
1.9938099328803067
0.36319443062815815
1.0048278062678695
-0.5113530838904359
-0.6128615021593244
-1.9133608332828536
-0.7520832827404956
1.2583184689968723
0.4873654805600327
-1.229290569094614
-1.3833020783457595
0.8974628883076277
-0.7398238356436538
-0.6609401135995396
-0.05801383229064896
-1.3042318925288807
-0.17187047753857848
0.5929698747420327
-0.6177263236784021
-0.7309704575800037
-1.0641166797786379
-0.38546273037628476
-1.2193834440293427
-1.16393496665074
1.932675499796049
1.0292728404113722
-1.6034789320191292
0.8829384399951206
0.4464965504415768
0.5094655226583973
-1.6248415599918422
-0.9931994103327219
0.2427020856069147
-1.9993424388653078
0.12498495464639141
-0.6056031978249804
-0.4478829992539751
-0.10243690066339461
0.6982974615341907
-1.9858569666631665
-2.752975367721033
-0.22675338190604238
-0.5592915506679604
-1.6347562759539926
1.0178302544427003
0.9273791121313917
-0.009502164037659293
-1.2420236077481484
-0.48084059794753314
-0.8760788905946143
-1.5060718932615005
-0.2848434036360968
0.3082736125348956
1.0709188137522412
-2.5306133173544847
-1.1325488488015407
-0.5072847734721333
-0.047659026963236435
-1.2016678271853198
0.5718244076868645
-0.05464398146176012
-0.848745465435964
-0.535002903771122
1.3920560558369732
-0.32958031285895134
-0.22704791911893762
-1.699774854841152
-0.979074372250179
-0.38834452925890145
0.98282964623818
1.262490443060826
1.1843936340146046
-1.59476574601585
-1.0983674016864016
-0.6907100789045306
-1.2174916577309172
0.4123342863240747
-0.11076952256732273
0.7971872310745365
-0.24349965670200172
-1.3485184557810503
0.6187834327308329
1.4088921229561329
-1.0415503425532509
-0.22371455652703937
-0.9469109971521368
-1.4635352637787256
-0.5251349625357162
0.48095043606561516
-1.9222683663525668
0.37839413896990753
-1.0953883445722767
-1.3611248124880995
-0.9633628768732616
-1.2197447993825343
0.4897526174537097
-0.2344849490348876
0.4625733259585804
-1.3987255128801093
0.3150427702639004
0.031137835303979036
0.8221239614878452
0.6737320667938793
-1.7308679373957438
-1.2679418180907904
1.2882694309778608
-1.76410911065725
0.0007415103591718129
-0.4357902487585135
-2.4650064739242623
1.0401047371053898
-0.31980900378518146
-0.5780315838206518
1.6441057101599175
0.02084288186022777
1.1749556947924136
-0.7075573697028769
0.8488456372090709
0.9904319253892641
-0.912906579795975
-2.025553517601892
1.218663908850028
0.9572206191893611
0.7394585707633564
-1.110556810138557
-0.4922821332618161
-0.4813909729798869
-0.7355762810058462
-1.130934793379102
0.4883778775122973
-1.0889119792689326
0.5567670798427636
-0.3695678034560935
-1.27228939251757
-1.2644637115383364
-0.21936619187637182
1.0200818838031211
-1.424500225741993
-0.8909857259908289
-2.0060765969839918
-0.45755237006202465
0.27386698140001015
-1.1282073883511614
-1.849941363984873
-0.9775079059274456
0.4434204524952163
-2.304530526518797
1.73859808293352
-0.7643470698955046
-0.773145925946507
-2.4354232063142582
1.5316972710411292
-0.49758053793188883
-1.4317006217200816
0.49647161833180375
-1.511215925972236
0.6305018228837138
-0.4677067264946767
-0.42778759039258035
-1.839999055497545
1.104188188771325
0.24348146694936654
0.20653889167320538
0.1740662032715712
-1.9356481497417661
-0.6828779805405965
0.16508723178521764
0.04990128730438656
-0.0023515524283594137
-0.5078911074584408
-1.6452555672041882
-1.9867235285988643
-0.9795704700158537
-0.3747648033955498
0.20629950403052524
-1.4221470687869469
-1.4139318433550394
2.734067194174457
-0.8881563146972319
-0.6010908135350416
-0.2967560868405768
0.09588822636633171
-0.6398537702213103
-1.5724528748682256
-0.10250702849579134
-0.2985842776951624
-0.26860720879698635
-0.33882722548074545
0.9841276295612226
-1.1272812812172541
-1.0851364303378501
-0.3184470833807322
-2.735239424086478
0.27720443106441006
-0.8017482275453088
-2.319505979372234
-0.1799424361702487
-0.9733693240975648
0.17636631136114708
-0.8954151263797373
0.40758013764481815
-0.33888476105321874
-1.2465771069476852
0.6906858797065226
-0.8034382114139046
0.3798994389261781
-0.612918480993601
1.173639440299588
-1.6648413645139468
-0.24898618738857184
-0.6753405919288473
-1.5755708909958035
-2.1035558278893705
2.0440178562057474
-1.536208667905566
0.2674275349572485
0.963134280505084
0.5649742666117642
-0.33530693603627404
0.6685143752008907
0.14729453922551186
-1.8777702744354923
1.4223618524984896
-0.9104536747911159
-1.9861357331167568
0.3778752022220952
0.7912218975943354
0.5525082470527487
-1.7505727507065003
-0.0035455161191937142
-1.2389300559580854
-1.0683017214912487
-1.1422827362056074
-0.02559428064473679
-0.7648000235085146
0.0035504160560083666
-0.9115208102368839
0.37134540229516017
-1.1170753304794037
-2.281029183111584
0.04592530761368819
0.38161898065828187
-1.0143613074862305
0.7442828350945555
-0.6394787786961023
0.8610809743015307
0.07156903061991039
-0.4754668101105595
-0.4674041793349063
0.6165344198961086
-1.1572794441842573
-1.9662598054486198
0.8265842884526249
-1.5097901576090018
0.8043332108727368
0.4681195925423015
-1.01485067622017
-0.13606768608997125
-0.2895852148899483
0.8418361011334242
0.8261996340451458
-0.09123852959142897
-0.4759169768132869
-1.3618557776108906
-1.01958601300513
-1.131519861326541
-1.380341398358468
-0.7618294430653892
-1.9972533882585515
-0.7884363221989635
-0.21642283236743984
-0.8643821067386914
-1.4851079812374637
-1.13389301016185
-0.9284902410280362
-0.9403525654769156
0.15020990988950747
-1.9830817689935913
0.34941863705838805
-0.4641577226650762
0.3136624203640739
0.27010906469497864
1.3165337893862745
0.2461747104330106
-1.1133204581653062
0.768641961310374
-0.8254041872539317
1.5756286425987798
1.5273146795621826
0.5084377799188213
-0.004428958243697801
-0.5545204256318357
0.3830576154393942
-0.29147497526024113
0.0337623276401088
-1.1046456434886933
0.834109942335276
-0.6199883401775834
-0.6264664996802504
-1.5247834853767128
0.7571746162877242
0.4951088816504988
-1.5128769624697262
1.070120319950002
0.4252248735125317
0.524327285464862
-2.980559000934833
-1.1985492604548584
-0.9236147392818883
-0.7803307398548993
-2.2272615305984917
-0.8239424664445504
-0.8715079396740512
-0.07854714552877957
0.5448621279802187
-0.328450761897778
-1.3231355944438965
-0.4509365174227399
-0.2942448404785951
-0.7597558285921724
-0.6635853347542393
-1.2895620633714961
0.006235940830471852
-0.7782872010222477
-0.2569970512041712
1.044253263888352
1.0880451479859359
0.6037305789359868
-0.4248670638717258
1.1140762209005488
-1.7063808230185555
0.007641018945274407
0.6510842308103894
-0.9168683800391209
0.5143458639641366
0.11032143039915963
0.9627225716128538
-0.10547148660762745
-0.2044143937510113
0.29277276844767075
-0.7639388191294627
-0.06874126989750426
0.08480785664457535
-1.4910008413172233
0.02965408055648652
-1.5958778723112728
-1.905311777871084
-0.029107509681516038
-0.0211224449077574
0.18124436914806893
-2.4497036546197686
0.005131379052576098
-0.7832685399228935
-0.09247864008862122
-1.6225879964362344
-0.478261621903437
-0.5476131878322608
-0.7562305108116839
-1.3134971519379608
0.6767819609793766
-0.6613717632382149
1.0947889910599982
-0.15056511633321198
-1.3958015900561376
-0.6952868700263204
0.830352117031745
-0.004031300792335975
0.9744442318185034
1.0418855007611143
-0.2751074814445219
-0.5309139647462726
-1.1510145962222649
-0.8921297251422693
-0.05473282754546006
-0.17563879841611033
0.6392230276081905
0.0007572370853477844
-1.9214050660137052
-0.7356536470704788
-0.4386675958523434
-0.9717150624136748
0.7598802376837173
-1.592840386399955
-0.6752173854995509
-0.5472226382961421
-0.9755864039928827
0.986428952383318
0.33440642400455406
1.297241399797537
-1.0927039291119982
-1.0601706502038553
-0.881794578117981
-1.6735672183696355
0.2059713139837058
-1.1770281528829578
-1.3042097719155703
-0.6747493735911624
-1.6806124762818357
0.3227001123548505
1.7715295108431723
0.2215873504597941
-0.538642457130564
0.04071662502564998
0.4870137096901523
0.6395252455016209
0.1619709404161025
-1.2083422666936037
-1.650534593927569
-0.6749322769372056
-0.11729933171758972
0.10077269678074
-1.9303879013041247
-0.0036424813795739516
-1.062669605510654
-0.6786564027457328
-1.66479944006101
-0.2089282838649956
-0.7070397275186838
0.22926681745238933
0.44514120566634197
-0.5925899575523836
1.0828677882308793
1.6860511982894972
-0.7758214734219457
-0.5517060895632039
-0.9735889723295992
-1.0358797625427065
-0.03634686514202621
0.2590685204194728
0.7892813939741431
-0.45567952959038505
-0.41679205880012254
0.2032374268301343
-1.363625297270377
0.9797681744089745
-0.5530850253535204
-1.8130361949001987
-1.8944765564841979
0.21371768998564494
-0.7905703893116045
-0.3803813985315219
-0.0018710997296567933
0.13340178088734642
0.852328101204613
0.2640926693521884
-0.442316618636193
-0.4298437558763587
-1.2658153707073219
0.1303443271075072
-1.1416463562022348
-0.8033588689990467
-1.304629626783901
-0.9897909126502508
-1.1379063081518968
0.4664108962449222
-1.5220486582551338
-0.8711855354380544
-0.5054949242002587
-1.3530295966055301
0.46799545367576806
1.92706492639381
0.7264051111916432
-0.4360124380367963
-0.44346787091378653
0.33228880214266954
0.9479737069281701
-0.09859867219079788
0.7051348948336359
0.3392151509518252
-0.39878041086976235
-2.345983309363942
-0.8312004223212331
-1.269104669247061
0.007323334887005732
-0.8275021429398879
0.21622331485355548
0.6693774719653677
-1.6191709415875617
-0.6727971351709245
1.7052412077504815
1.4772524123098565
0.09867202416501002
-0.9315405078034673
2.2003476158885182
-1.7889492152420927
-0.6023274605454981
-1.2661320224127128
-0.23694886795945413
-0.19943535226987194
0.6218222506871399
0.5620344139111787
-0.6808006105486752
-0.3674180695218265
-0.9738516978599646
-0.8829731819242201
0.7641246819656256
-1.1494623107114943
0.47937304817731047
1.2725330234434948
0.35285580111865095
-0.7946569943070555
-1.0164854369130774
0.045834612992425916
-0.11082366921789379
-2.033719565997335
0.4171629371909309
-0.36404127362466115
-0.9133573308945834
-1.1120829062087563
-1.3107338218382079
-0.5334089131280025
0.5924427998446585
-0.01712377891674338
-0.5751027706105597
-0.8923005772757558
0.027459405811669443
0.924469026578179
-1.572220534624035
-1.3201306877598253
-1.4530111956529665
0.6997241704343041
-2.594417721609102
-0.023010966508579013
-0.3562357961361401
-0.9442770614870507
0.042384709649971423
0.4749129192790689
-1.235772610304228
-1.9580693938136906
-1.0309673921200482
1.3516334756630148
0.755714573188268
-1.1572012402185456
-0.2354489863211662
0.004961888794521299
-0.2461546170605631
-0.18255155082344315
-0.2227221993138116
-0.2516352103955318
-0.17797887521079994
-0.24433944220634435
-0.21244666493132078
-0.20734905929835112
-0.16007279093298626
-0.1882596255934586
-0.18226776671217038
-0.22220629204834202
-0.17234833658479173
-0.23737951472811913
-0.19274298667912876
-0.24284611144360457
-0.26134375127478193
-0.34874658232019384
-0.3277715841867188
-0.21078979608288081
-0.23540126492111982
-0.2072544897166183
-0.24266791780094374
-0.1875989614157678
-0.22523984108517936
-0.21951105108909086
-0.18535323459589859
-0.28013334189105005
-0.2088424181723648
-0.19526977579394517
-0.22539426092609613
-0.2642711309373406
-0.33453760151388856
-0.212280601204795
-0.1880751179730877
-0.17075870037670024
-0.17315678205816876
-0.20492641246345977
-0.22457770609701067
-0.21649921244494266
-0.16582665261099583
-0.23509043822698888
-0.21029626544267066
-0.24747560882468286
-0.1925239744585919
-0.1694641776952915
-0.2357485683153749
-0.19322631911363564
-0.24773902481795695
-0.33106183861444693
-0.2482791652735459
-0.22157761273499224
-0.1860403004798493
-0.22983188095993792
-0.21956805185016376
-0.22352947328608017
-0.17528405920747347
-0.22942423274225657
-0.23601297319346892
0.08457165821147025
-0.008868408667851617
0.08380732745312103
0.13092124377137393
0.19667187474322778
0.4449407998910032
0.1341350146052866
-0.15015423984585313
-0.11245922095279408
-0.5844204158535792
-0.4094723568912636
-1.0133919619796519
-0.952156091663103
0.07825423155478108
0.48900324280891033
0.5949510412170055
0.5103063211532183
0.2558676014609779
0.1256836061552298
0.0943148387274528
0.07070169112910987
0.08837408894688403
0.10308138473371842
0.4636864620516759
0.1819787542820933
0.39192684213396467
-0.21513946720155824
-0.3507473213882734
-0.4511311341375541
-1.7749508579591367
-2.1670174441925782
-1.485856757392475
-1.743919157879605
-0.48900851142264595
0.8274082026319641
1.1641038002512047
1.1511907503943877
1.058597940544087
0.36837365045569515
0.03896837239250964
0.042177902572614195
0.053373243637038756
0.039743169545441395
0.12119270303546699
0.020256112933816586
-0.016292102148719383
0.14185261713634748
-0.20019868619174158
-0.47518023271027576
-0.5362620361823307
-0.18482164386846484
-0.14942615454253144
-0.5012052155954744
-0.31609450293725516
0.34746650032316573
0.23236579428201884
0.48562867137502197
0.2615313966845511
0.09124371437541473
-0.01649661983322241
0.007022033048045649
0.05297159230617941
0.0981636044352199
0.2609348600007361
0.07760285965186488
0.17725568961841803
-0.07619339843998497
0.13429194516777038
0.10021854146242436
0.07990423623147609
-0.7973926894362139
0.19536759834887513
-0.06457168959715495
0.13177913212151737
0.10930951418179882
0.12346142584013406
0.1571412530800505
0.16102145728965855
0.3079011019572579
0.20432249384539733
0.15719293322017341
0.0603202880096075
0.04082573107373014
-0.033920197067893725
0.04827872871332031
0.09331016356618146
0.17212232513082568
0.17096189603496453
-0.11526994056537972
-0.013957695996571588
-1.476509774083692
-0.6439338936474123
0.14260868013273867
0.263514030207115
0.5998582475855694
0.28661204088358594
-0.2589030346204706
0.04758170031894929
0.08117409086075106
-0.07543184187814098
-0.05490711334804893
0.06372194555201542
-0.014228211060379184
-0.009677811245019012
0.22019621439017262
0.04861207194117695
0.7482970390842093
0.48860971284256155
0.7253819104651071
0.6223685425993836
-0.6677640122254217
-1.2545749157187316
-0.11426594706521181
-0.2528202070847649
0.5240328306858838
0.36996043591355726
-0.03905390905149077
-0.06426386933504806
0.003610119871802248
-0.18376847010540465
-0.06785767041571297
0.04549624574661511
0.004351913650907722
-0.03800315995363972
0.2674477298159134
0.2408034129837399
0.4718583440999972
0.3036898616943007
0.22118899994228816
0.6457632923691505
-0.32988409886101805
-0.23831613516360936
-0.22203839034195377
-0.12057656432637696
0.2887704571352571
0.35573830158807795
0.0626955198472095
-0.24398065867061713
-0.22932469906413824
-0.129400328296075
-0.0638513543010356
0.023899550087791845
0.06451769014249288
-0.05551782115185394
0.18114402773611726
-0.05131607086695889
0.16173204608487501
0.22499666915249414
0.041152098727417104
0.627228885750663
0.7440445436497645
0.44440344473385
-0.35794639656162386
-0.20316664513088778
0.16591274939684972
0.18910325128559924
0.07066885898543514
-0.22172349602007432
-0.14130976857705618
-0.12176457447237526
-0.03882490103478257
0.025898091955212917
0.0862419207101213
-0.02610049762097268
0.17361139453759603
-0.052456440763615185
-0.05406538243139293
0.22867479732413462
0.5150226013168365
0.6671913801869549
0.4931310973295908
0.27586741355088595
0.46286329587472685
0.37224075255028155
0.4668295230944581
0.021489947449220618
0.034434926083280845
-0.16921062330620487
-0.13247332460647562
0.030925015664573733
0.017184856333173043
0.0366699281283971
0.1098598815530958
0.02170335812257345
0.20363954221622366
-0.12309606733569638
-0.3233197113175699
-0.2757134219948316
-0.43973072893079596
-0.13703717297574944
-0.04894843432748887
0.13642339295485623
-0.13414083935026638
0.17811882106024182
0.3281153114852788
-0.21875239367082971
0.09628932284963042
-0.2496147516033566
0.025110345434984853
0.04362531616171894
0.009619043429991649
0.03716419710177031
0.0882841580035252
0.02768679115835519
0.18680926879061033
-0.0497568158595054
-0.20852535565320302
-0.32574103217161837
-0.8919421651583529
-0.731527575892378
-0.24475379372808115
0.29670226945046674
-0.7464390005517196
0.0845242975785674
0.14480022267787332
0.006829144278958693
0.09364443267773194
-0.23811243601959323
-0.0369642142838453
0.028477529241538378
0.0450229552143794
0.07137213809898138
0.06109920971009162
0.004964270322659655
0.27185594166831906
-0.07280982562213674
-0.24097304174159054
-0.31243464312422503
-1.0358605746497647
-0.17322800832482013
0.42889771681273714
0.5499904431569353
-0.5842138938734186
-0.3284699239257292
0.029976522778332827
0.2628564609297656
-0.1481816189799394
-0.3230240355861961
-0.0572912765730017
-0.031932218271943154
0.01706466216865069
0.08037167575649515
0.05344561285891112
-0.010029631375593257
0.33103428402654955
-0.08679812013223769
-0.31129101100140516
-0.782031149797316
-0.5311267511703704
0.10854541738596406
0.6182418108373486
1.2312655235518561
0.27384036305554915
0.02045605332173619
-0.17708714739750592
0.039720808114038365
-0.13334982287853545
0.007690392389131047
-0.05637317993986434
-0.018610993044887954
-0.03679463000069111
0.1159069638933081
0.05157932406255574
0.02656791665087247
0.41785428125481017
-0.0660828630858353
-0.2509688727534784
-0.6434648910531852
-0.312142528670361
0.004680544319134007
0.07882874261964819
0.9539885833486262
-0.03733765548734762
-0.07704995279181771
0.3131825682465403
0.04219930296929251
-0.2614721636199743
0.025021802110861153
-0.04079423836162666
-0.02196910677350273
-0.03638129130054065
0.14555925983384616
0.08782611867061739
0.03424147397858484
0.08951256134402759
-0.03405832948751059
0.1564719532056092
-0.45592128233318807
-0.6849512603227048
-0.07434779320099744
0.30077557764902296
0.6575717339138158
0.2156028237652019
0.32827739089341096
0.1308052096691529
0.20288664882058707
-0.17042290942792268
0.11062839013076725
0.04874300478580376
-0.05479355949597062
-0.00230594213481571
0.16044545714440625
0.13898505583200946
0.16290757229352978
0.13319869279667151
-0.02336093460145249
-0.46967336213262034
-0.4295539990431803
-0.9235023043365191
0.0336673496436774
-0.4569710910219594
0.8597292021496526
0.4208074836192887
-0.2033957525286773
0.15571631567636965
0.6029438415667391
0.15801926797796023
0.12441034526808162
-0.021544300644000938
0.0010359483640267207
0.003416417026259935
0.11316383664566398
0.07952957294510823
-0.04942165488050737
-0.26805551942940753
-0.19453160153715943
-0.39254465006281053
-0.12522858154151123
-0.0740932360672282
0.11936330834782431
-0.4528450330001075
-0.3592985017265811
0.507488959857554
0.5618976203723087
0.1276071079930791
0.08497203557368381
0.11923247067219539
-0.026008497721803418
-0.17475524976918352
-0.05090256932926225
-0.018238191220453066
0.10435614578359187
-0.022505205627754526
-0.1298202987919184
-0.13521458717652582
-0.2252650908009231
-0.24006620485978616
-0.22817843606352528
-0.276333551323598
0.06497158504425009
-0.7827367854244941
-0.7247392822648536
-0.0030379465424604083
0.013889905873782839
-0.07403523133022422
-0.15881620672515934
-0.021472509743606833
-0.15154818343417406
-0.11742696098944212
0.05213405394549221
0.012413121471886899
0.13984990625980773
0.07089702755423732
-0.002923817270443107
0.014550323497395021
-0.1070421847407033
0.007303199036492938
0.04245644416857044
-0.16580865941817557
0.025824423153437973
-0.052033013006509816
-0.26849799708073324
-0.018654715919504936
0.00259407160081432
-0.07310331125553252
-0.16021350782637375
-0.04617422331155978
0.01786804153892471
0.0625808555070114
0.14024294213132604
0.0989561760070006
0.07397684614512223
0.09227588972810885
0.06672651393415396
0.1055872736880659
0.08430937204682971
0.05198203794411925
0.07420848420064294
0.04383929706497497
-0.045258334241289104
-0.13634523294606296
-0.10170965741025426
0.08220456998242189
0.10534234054276809
-0.13150349153469007
-0.11261457258926204
0.0322170874690113
0.11152730438516656
0.05395157738870717
0.0815367511182998
0.07627272423539791
0.08464556070861991
0.008668064941800316
0.08661504742953723
0.026759248165010505
-0.005913619940964018
-0.10376808402750637
-0.037490417463813125
0.05635483490266158
0.1347435518682678
0.1546812192836707
-0.2872784353575937
-0.0904893641636339
-0.04331638205389957
-0.09032382531294866
-0.274154158875487
-0.2821578047844208
-0.1929406605343006
-0.003698017264275798
0.03851196280201766
0.06804351099490269
0.10142939199398308
-0.023208512092939823
-0.10525830478532543
-0.21767026535545755
-0.21979500684927258
-0.18999086846225455
-0.1103352167554984
0.03480573578937226
0.0712353044993171
0.3541472749785029
0.2880171125552533
0.3905346202797127
0.23196416602978628
0.05526629025133404
-0.2759190912299365
-0.5321356038889081
-0.7290668233449199
-0.3060991139402639
-0.13191691000859207
-0.06630238599655591
0.029506494623974637
0.036467556000671995
-0.048364034423381816
-0.06700641438710485
-0.1350176241460836
-0.32501972829763154
-0.3133156977937219
0.04882891160663935
0.12369514269853377
0.32377183556173
-0.06732729177238528
-0.07839430582715254
0.031824456961187554
0.2025344702622577
-0.16234831235144112
-0.10716088263552129
-0.2749809028632095
-0.16739587660359803
-0.09381456632378062
-0.08051267110878406
0.003955280406995498
0.056054048055020865
-0.041367214983525476
-0.006181373562179643
-0.0186568944415049
-0.272565559418672
-0.12885663329478533
-0.03261247083105677
0.3260705085623574
0.3855806470426745
0.17235194974091345
0.2115127689005841
0.18012520249699673
0.37411974998186653
0.30129709912380775
0.03453641623118518
0.0029833789981892206
-0.014253970514496839
-0.14747743717134457
-0.13066208139459298
-0.01802356350780241
0.0764769503730691
0.0042182529179720565
-0.10203607889628051
0.020081104808542596
-0.21878453148174343
-0.09459220533791955
0.07217817043583957
0.22420917966372617
0.13435835629518145
0.05611998430938514
0.13347629604611239
0.07887012291758314
0.14090111496222127
0.2132240153683796
0.23242167391904034
0.07743869572006143
-0.0415358497414151
-0.03471460479534329
-0.07689926272228498
0.05289089773964152
0.13676566675707685
0.007360559857675661
-0.1101509986059669
-0.02930544235413215
-0.19964549026383788
0.03738766779189662
-0.03212289205533149
-0.2313512197654021
0.05892065694123662
-0.26884760887184367
-0.09080945019884883
-0.08426793041702195
0.18928167339300978
0.3407700347207717
0.17749735964116706
0.1551029887772322
-0.06369353924001259
-0.005331767020895591
0.027207460234490513
0.083632355664647
0.11237058681111982
0.005036967838576726
-0.13024506196575086
-0.0005297434248125645
-0.07104359852761324
0.2604514329108747
0.1497028282084483
-0.18337715493262874
-0.4324355371427762
-0.060403697531350144
0.002479858909690187
-0.00739495285087016
-0.016965818427591324
0.13968405412384494
0.16058148766748667
0.1402384792084121
-0.019355830176232883
-0.014447363593312142
0.07645968203463087
0.07811951567705606
0.09183044043500341
-0.0007765111579825194
-0.09088991016157329
-0.0016378929617943193
0.00162274291616925
0.3522368867133574
0.08730124884615739
0.0024003087664584938
-0.17344458712915753
-0.4213439740492442
-0.1575391803417125
0.1278418297998179
-0.09236110837569866
-0.017685883977126768
0.2318074451650727
0.14117505570077657
-0.11495309732974508
-0.013832570538333132
0.08449087970924092
0.05234707770734711
0.09578498600702477
-0.0019329069351775312
-0.06422172946350421
-0.05341200594527831
0.14791606866243973
0.14829578127527257
0.045944779290394075
0.3772805978838047
0.2545085285131406
-0.16346827900855126
-0.3877676769388962
0.1820578169619924
0.004976387316859372
-0.13158369041162513
0.12949082285589933
0.02919355950523623
-0.16389826586635944
-0.00015210255585847282
0.002865008400515998
0.11314159280225769
0.10322751918166248
0.020686088778390604
-0.1001616924324178
-0.04078218956213095
0.10096017454222113
0.0732202826457308
0.32756024324053257
0.7240752054801468
0.26941520436970484
0.16719178213870436
0.1023402796999109
0.46377290378534575
-0.0009423977716018712
-0.1569138996210156
0.006419121220732291
0.011142047789875122
-0.2099364644633923
-0.05677439749772104
0.015116853888654582
0.10940524626144968
0.09865768861825606
0.011405666356798743
-0.10888894206865704
0.016929581417863267
0.054621478229072346
-0.12215798143267557
0.03669227965829424
0.3476153938347376
0.2050093020555082
-0.13942246056356536
0.1330657873442031
0.23299694406874083
0.421087232829128
-0.09448895529557348
-0.2252320492317007
-0.23137576799412884
-0.27674069347627406
-0.07007554539765228
-0.028352036102507083
0.1086266528570648
0.09118406820299055
0.015619888311230215
-0.07864562360009476
-0.007424251946044183
0.01271162684970583
-0.26579318856881573
-0.34028828721100385
-0.06706705606449344
0.09755976034147996
0.12208093292380953
0.41088014872742645
0.4933917295219207
0.5185269465700066
-0.012232434617211381
-0.09794745047633874
-0.09689941614471972
-0.22120132989171903
-0.07919465774149362
0.006369130666407264
0.08612565770036987
0.10111657620897202
-0.008941709452507792
-0.07617225885484939
0.02402190640933597
0.009486469878453443
-0.14678849314622627
-0.3292156744905842
-0.11784369922550636
-0.08372703169648704
0.10279969357108858
0.14002654320076172
-0.0027900183130200847
-0.0009799757291259583
-0.07423661967840013
-0.07349973619527582
0.04378276731389964
-0.19538133079688072
-0.07097834862642251
0.009224201043698673
0.05642326930932258
0.10731103648339281
-0.0008737434972683711
-0.08722091803642558
0.0528210420228848
0.009431816289595964
0.12171865293591085
-0.29246413177056596
-0.3792424617067432
0.22683105716547636
-0.047867910212984664
-0.02596980621354001
-0.06772994629008969
0.039531199077963944
-0.14512856724199494
0.028808916552022834
0.1594450398099017
-0.11787624978192081
-0.05852328403538568
0.02114773125378443
0.021033735467287703
0.08878060269461782
0.028829694284969207
-0.09789548021874474
0.057882992775634155
-0.08194979874815936
0.29677987210625767
-0.05449224035356578
-0.31417055092254587
-0.03425117821379831
0.0044312632913086755
-0.29315788981907276
-0.10704656217062872
-0.23338961969715602
0.08117693590942482
0.3429185248832944
0.20104795071249587
0.0860465251365461
-0.09042425000711317
0.02252308834368193
0.01604119915811021
0.0815409487389224
0.0275044579162271
-0.12571744467477405
0.03775461542676563
-0.05845206048812401
0.10496313061648511
-0.06092502016272754
-0.2634767497879434
-0.31757813814575464
-0.1086955188483055
-0.11415456936037136
-0.17914762420067754
0.010966254980775143
0.16879574946802722
0.3535359103198309
0.22111495189913763
0.03055670906583512
-0.025165610966789372
-0.03175880697127468
0.012795993843316696
0.13525901967560267
0.11651044643706106
-0.014099478519379743
0.0026309971387498063
0.04030977713363821
-0.13917416244149863
-0.25852656038794924
-0.18150371319629016
0.08794354136964525
0.07434193172017403
-0.08371651138144053
-0.1114089484814692
-0.0536991877296826
0.16340483675800402
0.10679288576869317
0.04441516817665472
0.0037297308431245707
0.05519833415098686
0.001051135478658324
0.07326403053393316
0.07645989614352026
0.030712290263687537
0.0014087709491894063
0.022689018907385682
-0.07879269157607706
-0.050863634733662254
-0.1383404438692635
-0.10279292117114144
-0.0760799254399631
-0.0774417985209833
-0.23252098533518237
-0.10609554096716979
0.03538669512690428
0.11890250873080924
0.07461497421141547
-0.11807117376946795
-0.11078783796084316
0.00509901916897274
0.0016391579205967018
0.05371846371858924
0.09704521484704286
0.07342111720661929
-0.007575364166300718
0.07756913644433144
0.028955628765512845
0.12049378444089374
-0.016925532464924814
-0.1196847944428095
-0.04507399216144543
-0.1283523318839146
-0.13501983600883694
-0.08845851056106506
-0.06807721270870978
0.06322028405603261
0.09333209992919521
-0.14222114137189784
-0.10795853750220694
-0.04253814414635375
0.010332170354050646
0.054076865257270304
0.12145815597780264
0.12346300272604249
0.12154124842317705
0.1665422977463636
0.1908372340427665
0.1776178176221178
-0.017121731024045874
-0.2144222412776384
-0.29392890238062547
-0.15098725387218598
-0.14351038528833193
-0.17573476555573161
-0.08195875823644933
0.09376062827756831
0.02295803678785691
-0.027196942327927985
-0.028495867034397642
-0.012270638960827885
0.08482700272506474
0.12677145483473448
0.07392693889018966
-0.0029415631711750614
0.05621440210218936
-0.0855930641841792
-0.17282102170226293
-0.11151759479083197
-0.12570886435361875
-0.03745271987639207
-0.223038685669333
0.3015031408500966
-0.1870306942298834
-0.4165282834139971
-0.1945692859405978
-0.042073187256739364
0.08327436119366192
0.4640107977814388
0.33821209375061456
0.08216160002254168
-0.06213236034364913
0.1319180181275612
0.06545092822536815
0.009420775834884227
-0.1258008713402326
-0.2091124104455579
-0.5419880067036162
-0.6927377862319255
-0.7379746014035282
-0.16604056032515277
-0.254533235176315
0.35701136415487095
-0.8523337501894745
-0.8224107463551039
-0.6299144291155159
0.21962174879344018
0.8212932811232968
0.6700443457501428
0.953416060775068
0.22174136808772657
-0.08734783970292144
0.05127750869838895
0.051367513331635535
0.013446523280020467
-0.04261856569672471
-0.0611170515156214
-0.19006689176107242
-0.07996491335291754
-0.09468701127920465
-0.1328996535383271
0.0645547471282296
0.5004839188224973
-0.9513333415969506
-0.2832801692094026
0.14665741406657945
-0.3646103233633088
-0.023558359597805598
-0.45189979611716485
0.2569691975456881
0.011047097437963017
-0.02066148444831752
0.05026723959953198
0.028996252217005383
0.020041416101650555
0.09499537742679001
0.22029122664861628
-0.29219084608025914
-0.328559184317861
-0.017639980641549622
0.10876969871432504
0.21447787681509473
0.2932577185453684
1.5819764338576723
1.141459704327075
0.11359911621724328
-0.5546843391102374
-1.212358291817758
-0.4439436937970165
-0.10657504710664026
0.024963194839548765
0.11659557448953
0.0685901943848054
0.05019537747754132
0.05168212520450329
0.08108641281706169
0.09940631336154407
0.02164012332247339
-0.17739929695897508
0.0717730812075034
-0.09661959169650564
0.09302436833802878
0.5362060215697521
3.931839414190914
2.217718152975439
0.07659267461667159
-0.7155612184521454
-1.1134777872353143
-0.5846053442694379
-0.39190582007686925
0.027244517389621234
0.10563199004083527
0.0026546849610730814
0.02495688121086878
0.038888281557246863
0.060505730361614336
0.14363233484994617
0.32768028760036705
0.3261126215152648
0.49024680922714325
0.1050620747163085
-0.15830558854380294
-0.3246187351598487
-0.08264384285646358
-0.2687199777231288
-0.19327665589093182
-0.5057565442139179
0.018624788189706327
-0.755178365590008
-0.47984443400921434
-0.19668258866414332
-0.14963009153327206
-0.0720518672616084
0.0035314413716149985
0.05460738920380718
0.06866526796351906
0.1281784791198452
0.11640906593943391
0.22553716996349124
-0.014775227762979936
0.21985838547996533
-0.28365416464074994
-0.3140140814002764
-1.3052434278536937
-1.091854223441698
-0.6016004774598942
-0.48627688075589487
-0.14524753131683943
-0.32279925802810056
-0.8816049114871907
-0.5173568604243274
-0.24011537714566808
-0.06763978842160896
0.018843615085106912
0.11570954782464639
0.07894031143720479
0.18778209061495818
0.07277094862438994
0.2330200482786879
0.23217858990244172
-0.18935573564822428
-0.20573628301807062
0.05861724864613824
-0.5914213513385412
-0.33114969308491476
-0.4758654883448625
-0.04959656882819646
0.2529654224750388
-0.3259669827248813
-0.5927978773949941
-0.5198996621957566
-0.2398922564661505
-0.08306801691629419
0.033763502212195644
0.11449610162538683
0.10411665460481398
0.18803389056075048
0.10250110485061287
0.3001519935047237
0.10989237514040347
0.05438539432336111
0.48051166204337553
0.8905789225502407
-0.6251792750231573
-0.3738345742827967
-0.24784161066958038
0.4682535525419548
0.0015333131354888987
0.29477261759206036
-0.13164637170109764
-0.2715291031704028
-0.19055530623328149
-0.06132808190234968
0.013913473815997956
0.10725029444283272
0.11223295447535413
0.2291115595208552
0.09361724512938605
0.3240898249784736
0.3988561973949616
0.3915662526729678
0.011182782656334217
0.2240749306857491
-0.4629047351425036
-0.4543191216507676
-0.5415816127323719
-0.06989188915667001
0.2822526898632088
0.029057036794958056
-0.18075554837135774
-0.31437416823347814
-0.08821309395090705
-0.06812818915115447
0.042023746893328544
0.11269583638526055
0.12404792154901986
0.18921081071532875
0.017694011122724895
0.3689870010315665
0.4527700573570889
0.3050846458142928
-0.20511293761693025
-0.2564586328313656
-0.562776405753968
0.054111046722904635
0.4258088538202797
0.3445083804613332
0.206568219152648
-0.13217146312835645
-0.22618793457959177
-0.2540882485602912
9.994179030282016e-05
0.007204951163792967
0.05621228228438594
0.10718009546630529
0.10715118864369884
0.26076430567440034
0.1339265696879146
0.4854342526172852
0.14660464906431953
-0.07252025913065129
-0.001735993223818102
-0.49972936400663637
-0.894879142471702
0.19157144989078898
0.4231949356867617
0.2177152602208558
0.008209796841257447
-0.1640944591958723
-0.21426027763136796
-0.2577025443027553
-0.03437035143431765
0.04720651486936835
0.053725873324018174
0.10304334333845687
0.09521185724120966
0.15791011606385327
0.15770154853510135
0.39881694863461775
0.014385924240211942
-0.2523370651654839
0.11292167628686378
-0.1934178200282945
-0.5861106053902503
0.11642817847715799
0.6187592176850599
-0.17927223156278738
-0.14451570531388672
-0.38544806363868095
0.0036549644232836036
-0.012881219472238333
0.06637609468274101
0.00808557695293275
0.06750900177409026
0.1043337435716536
0.07083608187362918
0.1326962528814203
0.12224014470995863
0.3225998835408424
-0.03052020143948676
-0.02489412293705065
-0.010031418744330488
0.20133557602953833
-0.0020304479726007693
0.440325600771851
0.030485257351714295
0.08684197419744161
-0.107264093390309
0.006777072830379425
-0.06073655053593853
-0.017007294820183917
0.08973916279939113
0.03377603641383028
0.06371788334524044
0.0929206230584405
0.07444435388290914
-0.15596837523847673
0.06611942269643752
-0.03967170955871131
-0.4368194416436616
-0.24551502924607618
0.003889652869094545
-0.2614770833934833
-0.1944869502933476
-0.08491352315054417
-0.050848184085482855
-0.09710820657124139
-0.5955695674182648
0.17406219745642862
0.14408491651424638
-0.07470070290802279
0.08140267237866003
0.07396378220089185
0.05613744022205181
0.036570144851274584
0.01591138080332375
0.15418589021440288
0.22296180446614058
0.06656831312436658
-0.16776350713578841
-0.033040750362257586
0.01655758489907898
-0.14058364602958906
0.27746060398037903
0.4564732399674825
0.35943195218510876
0.2946033124303902
-0.21124726276866646
-0.923286543469103
0.21402856196635006
0.21826218128845004
0.11259080374871298
0.0013243394248575958
0.04629572914536601
0.07284599839051327
0.10035771362201318
3.775146142218552e-05
-0.19279501338924432
-0.27511918615500697
0.000609230972963808
0.3364505489036588
-0.04369943540092135
-0.11034168304058202
-0.03338205233354191
0.21395714608255756
0.2952968974069544
0.09113927491316692
-0.5987274035306334
0.06266020191324935
0.23771047986782026
0.07660609713523432
0.12367671909731615
0.05618792092800486
0.06412059664177987
0.06607336514779903
0.11225298434725281
0.040243784650110886
0.055249331438179505
-0.024565538074120322
-0.06884558604620467
0.27391451346990486
0.3247494297737859
0.0730118992566127
-0.13674954988612267
-0.09071379777568006
-0.270365020954583
-0.21565457665785515
-0.14234925912023058
0.12279996263410993
0.12237455969876272
0.1973099518056851
0.08960225592678876
0.04305984349816006
0.05176273090717901
0.07507704777162384
0.0740202155240266
0.06521461040957327
0.0022424642091977347
-0.06439992663018494
-0.15825748919126373
0.19350547260560458
0.06506246346678421
0.06594921099943765
-0.06896459200410732
-0.12272735984741714
-0.3426826709378457
-0.2636947553440047
-0.09877554059146386
-0.13555869495126846
-0.16605952386298906
-0.04853393943905328
-0.005699399891086437
0.03855648742510475
0.07500889003238419
0.07564755167096367
0.07108970789615673
0.0602572860394823
0.016717734793328304
-0.061639218331692176
0.003984782536240553
0.2109778430111754
0.13119992596396451
0.18669079347021067
0.15201672217086173
-0.0742103778872221
-0.1437605608741387
-0.19031637540210833
-0.2723556665287086
-0.31688059532416574
-0.20203014664033922
-0.11728854689849372
-0.06084052946256983
0.00403469737443553
0.06023130644140234
0.03746465015514187
0.0032302464607404033
0.04133571759456568
-0.0011728422241688123
0.010223749589395835
0.23585615955275874
-0.06316084037747666
-0.11751566149826702
0.05065864495528147
0.16232672728270664
0.09437318333597286
-0.132378520365873
0.01853120414883792
0.3641603701235169
0.1152344613628934
-0.008505193037232928
-0.00631933607449978
-0.07012715336330991
-0.011422077843629653
0.00621490919173856
0.031621343995695356
0.027739364974228076
-0.05097403246984121
0.09754011044563105
-0.1103702468216637
-0.34864908413804646
-0.4729571283201005
-0.6159552190564214
-0.4179474430665493
0.17576722525798474
-0.21131945605858393
-0.24451718863379932
0.7509914246614694
0.04263653837663433
-0.38748812302056135
0.14925880295658248
-0.34342279702409473
-0.0369081338443456
-0.05354042803422717
-0.2403468236361422
-0.09632011412234223
-0.0939826788514366
-0.20396899582039643
-0.1452952088063668
0.01001159918685081
0.15213524233957693
-0.5006066496005783
-0.941661646319003
-0.4579539960325765
0.04761282574643968
0.05571730778167811
0.10201259432149715
0.1452864719741822
0.004287392686024031
0.002588994983629456
0.35556827361366683
0.14895742763164188
0.1874427812248672
-0.10489002073677141
-0.2036630152601219
-0.18596042708143568
-0.04529869276584315
-0.20189454766001655
-0.2009045889798046
0.09024080643652518
0.1170986909434145
-0.7658580161636163
-0.8942171561921436
-0.8900824556773278
-0.3994603491714802
-0.18095853273139595
0.3714659211150801
0.56715741334468
0.42310482947437755
0.6963045929647678
0.5508747479367591
0.1883528813019238
0.09059856263200101
0.050538423667651426
-0.24234904651289382
-0.05539719147389558
0.003510951680749136
-0.08718664191137923
-0.09833911143644582
-0.19576233266109222
-0.19400296876469375
-0.7006964188415573
-0.9904126255020896
-1.1813177662583005
-0.5536533912482567
-0.6848627180695804
0.5835722375455937
0.7788052723351163
0.6299630463536282
0.9420175578386734
0.8242795598714453
0.3551450166983451
0.5199947009039828
0.24432176006900966
-0.054212072401293235
0.03917596949816538
0.077137810955576
-0.14219814241971632
-0.4072419511671546
0.030356532298554628
0.6795793206914355
0.7282294480294725
0.07553340667913508
-0.025356172287998913
-0.5215329091291951
-1.2815177743390453
-0.953517577240006
-0.07668271884793985
0.6637103964947167
1.2830223040569293
0.5327715726745
0.6745441715714376
0.5679702392481516
0.3722736592869014
0.20303088166898223
0.0994425443962178
0.18985909321738603
-0.03264375025892667
-0.32125927884678535
-0.18697949990541504
-0.04296430110603792
0.3572992895711819
0.2934921317029486
-0.042911102772184045
-0.32492342425488724
-0.46751703861374944
-0.24759344125684116
0.5248564471891298
0.729856002054244
0.5234039762071199
0.760413311338501
0.7088501009936388
0.5754051255478018
0.22251712383931943
0.2621288689290349
0.21992790870436907
0.13447850276588852
-0.022057534088910664
-0.2704837023735688
0.007348992144857788
-0.20797252049294446
0.11800495098944094
0.502432861203284
-0.12453478123596401
0.8035578158514625
-0.45474343428626074
-0.15761186102980118
0.16571620257391406
0.01980824220336573
0.4999737071526857
0.5545710187798729
0.7097066953561451
0.5414125901487845
0.3804394221902361
0.19796432153246948
0.2864940281030929
0.14205578886354026
0.03153405471093719
-0.2056800694882703
-0.03447965220193724
-0.2877928308493435
-0.0584634310836528
0.6991221057889677
0.5381907871805082
0.4838818267234912
-0.181492888833972
-0.5364210370750246
-0.6960071373647794
0.17526170565191945
-0.2131984271240279
0.1817061539579267
0.28357902251835676
0.31872994679427463
0.30539610592500177
0.0581646786496275
0.3057965765768615
0.1513667516821086
0.08028332343047746
-0.29852812027431436
-0.061903660890788643
-0.18450496349412576
0.14487256594597403
0.40356322305795406
0.5707270099984223
0.575990088692221
0.21261958710727127
-0.7509288559804717
-0.690936368543547
-0.13969175988728572
-0.0865799558494557
-0.1513274107712574
0.3004923944233504
0.15855202767061127
0.2924535287463824
0.07622557143006524
0.21553976008048287
0.1400876650539598
0.0774627822200113
-0.3073554087888811
-0.08864727577711518
-0.1924562097260297
0.15313359271697574
0.2796661431367236
0.12978236408783428
-0.53254515070249
0.010870168739960795
-0.39697356923026883
-0.8404459439135915
-0.5854301844211022
-0.004691375625018869
0.14458173042499745
0.10558739010805432
0.2704878191939404
0.11341998009324088
0.02373164875867067
0.2200848333498326
0.1459861129268668
0.06687778804283188
-0.15133338648378578
0.004862997874541032
-0.20866460043318588
-0.05159035134474341
-0.29129048157769416
-0.5719040929166634
-0.07691554358423926
0.21923386988683505
0.4084664417564505
0.08150667621344501
0.033877807878139286
0.623899746492054
0.3174221486424253
0.07654865044897675
0.24703675040059903
0.24569491013804115
0.08013628618684
0.1751779834258334
0.1424799737851999
0.08315135105704224
-0.08738744105279689
0.04187535562498782
-0.25635194477193135
-0.2905227837253136
-0.39355210334835694
-0.5272621190729704
-0.08743627454946122
0.3797246897616206
0.47248543871997617
0.29902266161443014
0.9042645084243377
0.614783876405277
0.016895764605399717
-0.21737820206149455
0.25009651094722585
0.23915788848848843
0.07559797523548657
0.1557005339436019
0.21518435063588648
0.18018906648381752
0.013660056030222453
0.21470246816845193
0.20062234901969864
-0.2512864719665066
-0.04562136611874898
-0.3458118731727977
-0.3608896420226877
0.38695828292438383
0.5837241544573954
-0.07082410520842934
0.3317105923039593
-0.24128343016955436
0.101937751283739
-0.39991404989300183
0.11313173859716304
0.27875418792522455
0.27929439160787833
0.17411262078829837
0.20840749101124334
0.06089377228531634
0.1421980242166997
0.19744364639774686
-0.047313528630511144
-0.5411740248311241
-0.16509885005875102
0.32406197896821887
-0.1939351848662268
0.23837095359992014
-0.31051497218291696
-0.3978117833553231
-0.047731490974601436
-0.8400583876208616
-0.571408270963331
-0.2340901510059839
0.21074683431216534
0.2776428942774252
0.181429465066505
0.15855860359666102
0.09376345867911466
0.20023150951195032
0.18322684269694878
0.4109108726785384
0.24446347415541916
-0.01946440773509564
0.045144710849085716
0.15680027972329377
0.07951137980256866
0.43010906552287503
-0.22565331271533817
-0.27013878076346637
-0.29255283260253345
-0.556758795682344
-1.1014108020458309
0.1203430098685593
-0.05694070304541811
0.06383871041076397
0.20417935379998967
0.08348895728139136
0.03584496282171492
0.04455684115327549
0.2329069518589899
0.1939876762753232
0.11760406455146764
0.2854479019537282
0.4662659355077547
-0.010453658347968922
0.029752770812967927
0.5567458092573279
-0.1270924180123628
-0.21017230931185105
-0.266201934234172
-0.8481894064931916
-0.5256689301859088
-0.3809979872166767
-0.07623535989382435
0.06482452376684478
-0.05400183069141086
-0.028587675390646078
0.06622795960147343
0.09859669031255698
0.1645929806732432
0.33058146534926613
-0.021442819850106674
0.20566695070006277
0.27253965738454033
0.27518822874469756
0.4083705386422249
0.07771440118131019
-0.11986293607152076
0.035375183953577694
-0.43605782318047576
-0.7730173670558403
-0.5051329676152243
-0.38342751150362697
-0.42439900312219214
-0.047313377942954
-0.006624245471952997
0.0024725686115517637
0.09398611605944746
0.08017515120081448
0.07165947602098066
0.02919289756563002
0.16837611102952948
0.49608159354531167
0.46590000722961583
0.16622163214401783
0.5342684017520396
0.16657127122043439
-0.49866566587734507
-0.1746624727014799
-1.0012076868773248
-1.05572373207548
-0.9490841335221782
-0.6452380081059202
-0.7566173175291246
-0.5096841130069941
-0.19977995234661713
0.08747944623263781
0.09026752548058306
0.08919274529961249
0.04591981554273429
0.043677856384286826
0.13894529114013582
0.2700971493213628
0.3659496280228159
0.6588065274622523
0.16489923672296286
-0.04196292497927825
-0.5441164570505553
-0.7351688286001684
-1.2630086213125649
-1.4720449090695662
-1.209322865776377
-0.8595294932183652
-0.6963525256219216
-0.6015619819163252
-0.21921969434855373
0.07736694532506046
0.19831903132797418
0.00575830051852
0.1829683766627572
0.21491205335617003
0.1617812541092643
0.09064307594107521
0.11939389887640141
-0.07256256687093365
0.12870978802249353
-0.04428982056333628
-0.14185160279923748
-0.3025286872195243
0.18984676345847892
-0.05128707516294754
-0.010535438791022268
0.016845490754579303
0.10993783899896595
0.18229033596914287
0.19706864944083421
0.20205343430404032
0.19217507951567006
0.14950590249372533
0.14574575966241185
0.07593207534003735
-0.05186772102481378
-0.08273776709936355
-0.005306383237650018
-0.17178730947247922
-0.36964511761393654
-0.6183569411992221
-0.6962031809409723
-0.24069341322883508
-0.04346361527319519
-0.11873163599395624
-0.1658356572843399
-0.19949265201386357
-0.09851879577873715
0.10315058537192091
0.13927971463553673
0.09934657717811164
0.14505296147107152
0.14448614843616017
0.11407642561459669
0.0986958461056625
0.10748387730898158
0.028267331009880912
-0.04532444304492588
-0.16119540298491578
-0.15284325485629882
-0.15721045941352235
-0.18477467818689003
0.034269582566258366
-0.08921481845608269
-0.08986465329641084
-0.16416732486616964
-0.16412410483613082
0.053188250718885006
0.18236437055455004
0.1277069992714469
0.09838354301604821
0.1185138602299508
0.15580033303305812
0.11594769941538674
0.16611992157712932
0.057492436842989846
0.017504886736988187
0.06982203074091375
-0.008877019203245148
0.15951939808259885
0.11814287084976503
-0.007034002223931576
0.2951764880021752
0.017933076845101825
0.03098773660062778
-0.054116900327390194
-0.10474242394030397
0.07694776128717289
0.1418893340502979
0.1406320897513096
0.11317918706565532
0.14892587057517578
0.16756292596306763
0.14851147394346378
0.11844816202386903
0.03652077412288143
0.052173984700830525
0.037736784872630796
-0.03606950755193476
0.10767496240875406
-0.12534637305057025
-0.2880706302671733
0.12026107463320813
0.0508218861822666
-0.031234815817267236
0.17870569333088437
0.11400665188314996
0.07092717827964366
0.20494157719421524
0.10374375496636341
0.09164608375439719
0.1511925504223792
0.21299501266122572
0.13952334172820666
-0.11493950747294822
-0.07731084054158718
-0.04818927993413428
-0.06594216350574401
-0.28570936194610963
-0.2904019576931386
-0.03741620073712213
-0.3438781064083019
-0.2675216589495332
-0.1148410050653677
-0.04075865562711919
0.10459476955442742
-0.24865108411753425
-0.10277033978902311
0.04780506342618317
0.0611894166165034
0.10868244668835178
0.15830108251077296
0.2100149373820825
0.12120562166214364
-0.13572178680063304
-0.13708616602828116
-0.16192970322464295
0.16488629716389316
-0.13059647426376908
-0.22472397983274242
0.1004207642632561
0.052353693263427876
0.03422773398862377
-0.08684084288334411
0.4618140521827727
-0.6109400623922391
-0.36489363742181846
-0.17155779610927382
-0.006151452460482188
-0.042480800988841085
0.10796559975565653
0.1691502831235764
0.21512287612495143
0.07576773513777478
-0.047238394894268815
-0.10491077880271535
-0.03845071611778316
0.10783308346874992
0.12612738406720173
-0.045615002368783936
0.3729536712870172
-0.07775319192463732
0.13140038439581525
-0.2859027088059617
-0.2733336656960727
-0.3804730039045687
-0.2586197459656402
0.026802431887100697
-0.04340757835492892
0.013995297836111345
0.0887910655918137
0.21198191100731142
0.2186390766415319
0.11208114708276219
-0.02097615466311562
-0.0772043841051833
-0.013457450636824343
0.029040665166100915
0.1807128075937542
0.027485474934324156
0.061411683679185015
-0.06375599558757224
0.0462299261704223
-0.5055585084291868
-0.3602850256861771
-0.3697828604662735
-0.2921665643693159
0.031359824023471865
-0.03566064863241153
0.026962885508281645
